0.08808508
0.14107381
0.13357097
0.09083682
-0.55568719
-0.13643855
-0.10686215
0.33827782
0.68058705
-0.43849659
0.48911783
0.25510848
-0.37207901
0.35772753
0.24950249
0.40108690
-0.29947251
-0.26919106
-0.10777698
0.44715831
-0.08464807
-0.21891786
0.23884131
0.15621239
0.40349761
0.25231847
0.04915201
0.05377691
-0.08411592
-0.40438035
-0.14913245
0.45516327
0.09554475
0.31025892
0.04167399
-0.09166931
0.13474646
-0.14531842
0.44182223
0.78242218
-0.28433737
-0.30812079
-0.08320200
-0.47585738
-0.25476220
-0.06972607
0.00961159
-0.29710695
-0.26096001
-0.14442976
-0.11549541
-0.21565013
-0.10317831
-0.27050984
0.67666560
0.05811699
-0.15408917
0.13949347
0.26847935
0.22999634
0.16505215
0.13861376
-0.07868870
0.50433099
-0.18969764
-0.10310248
0.07561330
-0.02366502
0.09483249
-0.20321733
-0.02473255
-0.35117912
0.14491266
0.22920194
0.52580702
-0.08931683
0.02976427
0.08572244
0.27415991
0.40604326
-0.11299147
-0.37138915
0.33673364
-0.03616596
-0.27231231
-0.29430485
0.30564424
0.67945182
-0.16732216
0.12166382
-0.00680896
0.34585711
-0.04405941
-0.21447408
-0.07650356
0.38192299
0.02193083
-0.07185707
-0.06101272
-0.24010848
0.15336713
0.00125390
0.13980815
0.42334381
-0.03207122
-0.00896996
0.00371094
0.34973776
-0.20060334
-0.37837675
-0.13347033
-0.02035621
0.70454890
-0.30908805
-0.14545174
-0.53911209
-0.05338879
0.99695837
-0.06716995
-0.15635496
-0.27515805
-0.14837560
0.12785713
0.29429090
0.23224802
0.07739394
0.47858098
-0.26574209
-0.01977998
-0.15436386
0.09525099
-0.11787467
-0.43723065
-0.10438476
-0.15530647
-0.04282647
-0.64087510
-0.14438218
0.40892613
0.60283464
0.30511397
0.46653113
0.84793800
0.15409197
0.22513284
0.22405839
-0.11354359
-0.53037506
-0.33586800
0.04052323
