-0.06421379
-0.03740245
0.37409377
-0.06003787
0.22702600
-0.07427756
0.15850154
-0.03070171
-0.25563228
-0.05569867
-0.03920345
-0.07731777
0.00418500
-0.33143616
-0.07743549
-0.57705790
0.13123605
-0.61136711
-0.78129917
-0.01326015
-0.04182296
-0.51259458
-0.03934064
-0.02573786
-0.61658478
-0.03072111
-1.18899524
0.59011823
-0.37708789
-0.17822951
0.21062751
-0.05468177
-0.75077122
-0.04583188
0.36735910
-0.14306234
-0.03230690
0.96563780
-0.03807808
0.29820138
-0.05717245
-0.35899276
0.11183715
-0.46147573
0.38273275
-0.20066102
-0.03166953
-0.02375026
-0.05640184
-0.04090688
-0.85180932
-0.05882489
-0.32928383
-0.10607044
-0.38596725
-0.42779875
0.00710102
-0.08329915
-0.97761285
0.01561140
-1.05544198
-0.06436244
0.51777124
-1.13921320
0.38610956
-0.04611468
0.07965857
-0.66599703
0.29670063
-1.42337048
-0.06775951
0.26039970
-0.12570082
0.30749115
-0.03777261
-0.49251017
-0.03150624
-0.06101538
-0.67495763
-0.00475223
-0.05078153
-0.08762289
-0.06443086
0.43813506
-0.84920883
-0.05794254
0.31144157
-0.07039649
0.09932979
-0.16640835
-0.31830248
-0.07209900
0.06388577
-0.07777137
-0.04570121
-0.50003666
-0.03969478
-0.02140713
-0.07689752
-0.04864341
