-0.02275841
-0.03815284
-0.00707114
-0.07324123
0.06810097
-0.04217856
-0.07487875
-0.05447778
-0.01756089
-0.07594845
-0.02760989
-0.04950122
0.07964818
-0.07762121
-0.02713148
-0.01522095
-0.07945126
-0.00587550
-0.05359920
-0.03388436
-0.04589766
-0.05161963
-0.06375195
-0.05417686
-0.02589693
-0.02064622
0.08556280
-0.07882513
-0.03240970
-0.03174692
-0.07306525
-0.06655768
-0.00493740
-0.06206658
-0.06444336
0.00522462
-0.06068521
-0.05388567
0.08320642
-0.06858531
-0.05075550
-0.02689792
0.09503905
-0.08515618
-0.03472714
-0.03277934
-0.05515523
-0.02857057
-0.01735284
0.02124279
0.05276280
-0.01509919
-0.01662834
-0.04087253
-0.08018041
0.09973357
-0.00581907
-0.08216461
-0.04560896
-0.06486479
-0.08797266
-0.00896492
-0.05294341
-0.07843956
-0.04565835
-0.03030067
0.05252367
-0.04030533
0.09013693
0.03950183
-0.05889969
0.04710000
-0.02062277
0.03067824
-0.06541149
0.07458688
-0.07085738
-0.05486896
-0.02905520
0.04658813
-0.03366354
-0.05623423
-0.03181829
-0.01865113
-0.03231357
-0.05986534
0.01236879
-0.03602497
-0.00145826
-0.03754668
-0.07443988
-0.06109757
-0.05905905
-0.03402089
-0.07730333
-0.05565190
-0.04301482
-0.03270906
-0.04892423
-0.03828365
-0.04358486
-0.02719912
0.04375091
-0.04551570
0.08736861
-0.07519734
-0.04124989
-0.01883910
-0.04961558
-0.05049186
-0.01890215
-0.04044527
0.10051314
-0.03809731
-0.00441456
-0.02500070
-0.05829274
-0.00245581
-0.05982421
-0.05763635
-0.01687688
-0.03698793
-0.03950034
-0.05859761
0.04852427
-0.05127606
0.10434485
-0.05165871
-0.07403865
-0.07798111
-0.08128086
-0.06801959
0.00098119
-0.04432848
-0.05569164
0.01602514
-0.01233938
-0.08574550
0.08761533
-0.06513237
-0.02300962
-0.00226141
0.09264831
-0.04209672
-0.05644131
-0.07886228
-0.02402968
-0.05013386
-0.03879179
0.04115862
0.05558031
-0.02733153
-0.02747225
-0.03610866
-0.07451840
0.06687237
0.03783624
-0.03905356
-0.03263261
-0.04376362
-0.04565232
0.01367919
-0.05539487
-0.04907750
-0.03367230
-0.02050371
0.09520136
-0.07681224
0.08701584
0.03256015
-0.06965443
0.08366102
-0.02726246
0.03767444
-0.05324765
0.09402147
-0.07939024
-0.09194010
-0.02063324
0.06059199
-0.04493490
-0.08238524
-0.04155280
-0.01370702
-0.05771314
-0.00524211
0.02488635
-0.02791305
-0.00644765
-0.07730341
-0.04975102
-0.03708762
-0.05799369
-0.06027243
-0.06001962
-0.06395827
-0.07321284
-0.02250070
-0.05316584
-0.02454101
-0.03508429
-0.01680205
0.05836587
-0.01654730
0.05743679
-0.06132526
-0.00150845
-0.01997909
-0.01903738
-0.05709140
-0.01849853
-0.05227172
0.09654595
-0.07370282
-0.01854453
0.00318808
-0.14574176
-0.10157835
-0.03284423
0.23763172
-0.02595146
-0.06436582
-0.06150675
-0.03913917
0.09338458
-0.04056510
0.07949961
-0.16913125
-0.06148297
-0.06445899
-0.04512845
-0.08280511
-0.01511304
-0.05968134
-0.21167746
-0.07401991
-0.02592968
-0.03627768
-0.06591257
-0.05652731
-0.01251378
0.02166622
0.24343888
-0.04635865
-0.02671616
-0.08322129
-0.04904992
-0.02913309
-0.05442770
0.02514103
0.10562901
-0.02799693
0.13261504
-0.16861147
-0.09312633
0.02007155
0.05286381
-0.05328525
0.01446329
-0.11334746
-0.11650456
-0.00766087
-0.05919762
-0.09945661
-0.11303399
-0.00086299
0.08751521
-0.03384495
0.07525166
0.01342702
-0.07229750
-0.30423665
-0.02801392
0.01387435
-0.03472242
0.03935649
-0.04361619
-0.05312502
-0.00978631
0.23452350
-0.08097982
-0.06890068
-0.06027199
-0.01803941
0.00506814
-0.02715471
0.06603965
-0.00683816
0.13987485
-0.05499266
-0.24212292
-0.05401770
-0.11043495
-0.05256958
-0.08233863
-0.05977622
-0.06996867
-0.04813046
-0.01638327
-0.03693433
-0.05985829
-0.03087437
0.01888725
-0.00884148
0.03727425
-0.07546587
-0.02852788
-0.08229858
-0.09571302
-0.06514078
-0.01505601
-0.05069082
0.07080767
-0.08885977
-0.01739355
-0.02386803
0.03729300
0.00224398
-0.06533408
-0.03747433
-0.02262036
-0.06888435
-0.08436743
-0.06457800
0.01129005
-0.02761350
0.03036418
-0.12007940
-0.03683148
-0.06955145
-0.06200595
-0.07029069
-0.01184158
-0.04334933
-0.25075981
0.06056678
-0.03261606
-0.04372069
0.04387934
-0.03397298
-0.05145806
-0.02806092
0.23007281
-0.04458562
-0.10516217
-0.06355065
-0.01009182
-0.00965918
-0.02430851
0.00627215
0.05672694
-0.03287569
0.36968154
-0.11630049
-0.08064575
0.01140758
-0.02414919
0.07069426
-0.02596877
-0.23473148
-0.04454050
-0.00095834
-0.08450949
0.11545645
-0.11962833
0.01187280
-0.04358135
-0.08507446
0.02451870
-0.03812494
-0.03718063
0.10725900
-0.08532152
0.00966665
-0.02376474
-0.05142775
-0.05767268
-0.09628582
-0.00138629
0.09312025
-0.07260235
-0.08488613
-0.05029678
-0.01492174
0.02635864
-0.07591478
0.19100124
-0.02552118
0.12341066
-0.08292945
-0.23743726
-0.02863983
-0.19902368
-0.08136969
-0.05321940
-0.05110775
-0.07403032
-0.04985243
-0.06325883
-0.05122628
-0.02734244
-0.06085347
-0.29655558
-0.02403340
-0.03849853
-0.03386978
-0.30256835
-0.04755114
-0.05131658
-0.07725524
-0.03986540
-0.05478544
-0.21468484
-0.06153506
-0.02862532
-0.01270731
-0.11893688
-0.13311656
-0.03493088
-0.07390161
0.00372966
-0.08210546
-0.03784593
-0.07047898
-0.01237397
-0.02301987
-0.06309012
-0.20204444
-0.03335106
-0.06457159
-0.03637471
-0.07456770
-0.04468881
-0.06851257
0.03003015
-0.12641397
-0.04953193
-0.04009775
-0.05225519
0.15413672
-0.03299173
-0.03459957
0.43931827
-0.07991642
-0.06997118
-0.06941742
-0.06891549
0.06354322
-0.03489085
-0.02103477
0.04695687
-0.08513969
0.50567591
-0.40282893
-0.09793937
-0.07958660
0.11928343
-0.05755268
0.22965361
-0.44255120
0.08131446
0.00401146
-0.06045852
-0.19097550
-0.47022435
-0.01494208
-0.10631861
-0.07675622
-0.05541760
-0.07318966
-0.04256068
0.15491135
-0.04123258
0.00923093
-0.06103826
-0.07193354
-0.05133708
-0.05278416
-0.03829475
0.20170410
-0.05307745
-0.06022929
-0.03687419
-0.03814607
0.16766077
-0.04316937
0.11832685
-0.04495675
0.46782365
-0.04997818
-0.17958416
-0.01459949
-0.18753140
-0.06053370
-0.05216311
-0.06521750
-0.04497830
-0.02845834
-0.03716746
-0.04518757
-0.04839217
-0.08444490
-0.02628101
-0.02760254
-0.05176564
-0.08257215
-0.06718037
-0.05096641
-0.02750755
-0.04551266
-0.09080105
-0.08184606
-0.05704010
0.04447032
0.02632330
-0.00863355
-0.13423842
-0.31095868
0.06075579
-0.09362204
-0.01408768
-0.08649649
-0.03190489
-0.02256637
0.00440316
-0.01830183
-0.03605000
-0.16487263
-0.03459478
-0.18407683
0.06962177
-0.04993067
-0.03831173
-0.06460302
-0.21451192
-0.22277302
-0.05881830
0.04060151
-0.04509389
0.30767199
-0.04450024
-0.03404277
0.26999053
0.04034326
-0.08816355
-0.03485669
-0.04691736
0.11858039
-0.09008274
-0.06250133
-0.01162510
-0.07273156
0.10111609
-0.11248467
-0.15120403
-0.02967916
0.14346194
-0.08876487
0.03868505
-0.29421675
0.07095309
-0.02447296
0.05059465
-0.06328237
-0.02027223
0.01953151
-0.01396078
-0.07915043
-0.09092348
-0.08078788
-0.04560839
0.08056410
-0.08497737
0.00044776
-0.05067015
-0.16340336
0.22535002
-0.06138829
-0.03947295
0.32935002
-0.07737697
-0.03387392
-0.04701641
-0.05674754
-0.07688952
-0.03540629
0.14593004
-0.04824398
0.16638735
-0.07191819
0.09433898
-0.05283038
-0.17630778
-0.05957444
-0.04758438
-0.04923926
-0.05317529
-0.02431778
-0.06308927
-0.01621742
-0.06213298
0.00758690
0.17507085
-0.03793460
-0.00650701
-0.05898521
-0.05038049
-0.08228629
-0.03222568
-0.04843874
-0.08110560
-0.04297451
0.00654940
0.07024778
0.00526023
0.01630564
-0.43444812
-0.12504843
0.03504173
0.04126217
-0.01114387
-0.08740865
-0.04668039
-0.04450747
-0.14231706
-0.02491837
-0.11487171
-0.12447172
-0.08324219
-0.04772685
-0.05721640
-0.08734789
-0.10709992
-0.05832187
-0.17147432
-0.56952256
-0.05692141
0.51698214
0.10368223
0.21235709
-0.00795991
0.06241863
0.48092785
-0.04477437
-0.10968277
-0.06046037
-0.09228349
0.02980721
-0.05123181
0.07593025
-0.12421713
-0.04535519
0.22217461
0.18470448
-0.17891717
-0.23204997
0.55314696
-0.06805500
-0.15279238
-0.38351268
0.03474558
-0.00439189
-0.00213751
-0.37874177
-0.18277656
-0.00777526
-0.13073549
-0.03930710
-0.12233971
-0.09238538
0.08375609
-0.13047998
-0.00697985
0.26219591
-0.02071093
-0.18680410
0.14575619
-0.08855846
-0.02226045
0.48529738
-0.07984117
-0.07046051
-0.02904001
-0.10676584
0.08858585
-0.07497988
0.20818506
-0.07864416
0.16183296
-0.05313812
-0.13492076
-0.02446212
-0.10942064
0.05342226
-0.07860287
-0.07163215
-0.08459377
-0.02406673
-0.10193904
-0.09219520
-0.07592714
-0.00799684
-0.00101669
-0.04367352
-0.07352552
-0.03624285
0.13518216
-0.04633290
-0.00541174
-0.04561089
-0.01694162
-0.08649714
-0.02924429
-0.01622210
0.00216543
-0.01988772
0.10635646
0.05118760
0.08563413
0.10867576
-0.01985686
-0.04813945
-0.08813972
-0.03195548
-0.10444413
-0.05827461
-0.05776456
-0.04612970
-0.04352503
-0.05140207
-0.17096360
-0.07427468
-0.06857125
-0.05836865
-0.64823860
-0.24620175
-0.06863208
-0.35855278
-0.02439415
-0.01424554
-0.02993162
-0.00009980
0.13898988
-0.07774928
-0.05391229
-0.04929348
-0.08257230
0.00195969
-0.07684626
-0.06282704
0.25626832
-0.09045884
0.22121198
-0.59985095
-0.06727733
-0.07157786
0.22418618
-0.07985170
-0.28759712
0.23469205
-0.19275896
-0.02434264
-0.15990910
0.18631150
-0.04498362
-0.03704849
-0.07958410
-0.06374694
-0.09725293
-0.06939418
-0.03815029
-0.08161037
-0.03485325
0.03807619
-0.06297167
-0.14117590
0.23501366
-0.04895752
-0.02787862
0.28431204
-0.05339235
-0.03793387
-0.05490649
-0.12260632
-0.09431832
-0.08284464
0.55755424
-0.07392211
0.25649145
-0.08421788
-0.18310983
-0.05706962
-0.19152476
-0.03889806
-0.07428693
-0.06736115
-0.05034101
-0.04446902
-0.06664167
-0.02563754
-0.05407032
-0.04029023
-0.03638736
0.02408180
0.01859370
-0.08458591
-0.24734390
-0.07492176
0.00775281
-0.05523774
-0.03286849
-0.05953944
0.01351545
0.04995653
0.01791378
-0.00923763
-0.16233236
0.20070176
-0.04817209
0.05801632
0.00282168
-0.03452312
-0.08752815
-0.06732944
0.14684811
-0.04234274
-0.01482151
-0.00789612
-0.07918452
-0.06310502
0.02538497
-0.07667864
-0.02796938
-0.03191836
-0.05186294
-0.11555021
-0.00785722
0.04378204
0.02894653
-0.00332731
-0.01979076
-0.02364386
0.13751988
-0.06024506
-0.07058089
-0.08474072
-0.10375221
-0.00121395
-0.08206805
0.01265284
-0.00064106
-0.06047048
0.31990597
0.11815714
-0.07552654
-0.07051666
0.10292593
-0.04347175
-0.25025910
-0.09264341
0.15112348
0.01490667
0.09027532
0.05055114
-0.14951685
-0.00602979
-0.04281360
-0.07334218
-0.08416330
-0.04262980
0.04026883
0.55080700
-0.01214072
0.04017042
-0.06353281
-0.14432707
0.20059241
-0.06525923
-0.01774425
0.25995120
-0.05550793
-0.04218965
-0.03098993
-0.10626605
-0.01368351
-0.01845513
0.35434267
-0.08714965
0.19124043
-0.07807465
-0.09019846
-0.05685114
-0.10121699
0.04665642
-0.08048800
-0.07210509
-0.05081499
-0.04576657
-0.06344334
-0.06072966
-0.07918257
-0.07179643
-0.03047933
-0.00979662
0.00290108
-0.08540946
-0.18541597
-0.01407743
0.00533776
-0.04777422
-0.02923803
-0.04549930
0.02418029
-0.04470342
0.00133465
-0.01284479
-0.15637489
-0.16393676
-0.06531331
-0.08104726
-0.01889897
-0.07378905
-0.04848794
-0.01718228
0.05105809
-0.05193392
0.06160101
-0.05743383
-0.05167004
-0.07789911
0.03619853
-0.08128224
-0.04200599
-0.06367591
-0.07150584
-0.01161766
-0.04207500
-0.03406112
-0.06091759
-0.08501075
-0.05479795
-0.04405203
0.10574327
-0.03219613
-0.04251442
-0.03801785
-0.03252947
-0.01399466
-0.03381265
-0.01945393
-0.05539073
-0.05853643
0.09114950
-0.08442217
-0.06375828
-0.04851664
0.12461343
-0.06685954
-0.04080224
-0.27054179
0.05102970
0.02254525
-0.03826991
-0.15178482
-0.16216487
-0.01090579
-0.01230244
-0.03668093
-0.03275500
-0.11777347
-0.05691650
0.22820346
-0.04969676
0.02689504
-0.02458636
-0.05819838
0.28490302
-0.05351580
-0.05198286
0.15190123
-0.06767109
-0.06443965
-0.05465715
-0.04946824
0.00245043
-0.04938462
0.16383462
-0.05152954
0.12354377
-0.04990223
-0.14875887
-0.05885026
-0.04681198
-0.03961287
-0.05566660
-0.05295866
-0.06750815
-0.05911692
-0.01795130
-0.05515069
-0.04775875
-0.02201251
-0.03385550
-0.04931474
0.03473310
-0.05023875
-0.06763957
-0.05763770
-0.04616899
-0.08201315
-0.03590581
-0.04960449
0.05560800
-0.05855604
0.00734517
-0.01476815
-0.03367546
0.04703352
0.05302214
-0.08486119
-0.01372346
-0.04312340
-0.07768090
-0.03444232
0.06181403
-0.05780679
0.03989172
-0.09296820
-0.06045537
-0.08857778
-0.04271486
-0.06450833
-0.03966015
-0.04848605
-0.18398944
0.00526365
-0.04868116
-0.16587611
-0.00925373
-0.07369786
-0.00811091
0.00055773
0.13329950
-0.06414784
-0.01818103
-0.08625878
-0.07432868
-0.00267233
-0.09053285
-0.01402616
0.01028887
-0.08260286
0.10005510
-0.08622649
-0.04084272
-0.03877142
0.07495693
-0.06787288
-0.02346180
-0.29642242
-0.02374694
0.00559804
-0.06871476
0.02604507
-0.08648144
-0.00199783
0.01862691
-0.04394243
-0.02172876
-0.03992099
-0.04047808
0.17692810
-0.03944778
-0.02244756
-0.03149781
-0.07555195
0.11452742
-0.02421745
0.00727446
0.16567111
-0.07959384
-0.07325476
-0.04825917
-0.02238187
-0.04696660
-0.03600034
0.17731392
-0.03139338
0.10602456
-0.08723100
-0.07398420
-0.05069186
-0.08846797
-0.05566831
-0.04103598
-0.02761469
-0.05510464
-0.06190572
-0.04946464
-0.02115762
-0.03969352
-0.01509367
0.02730311
-0.04211711
0.07617096
-0.08177914
0.01892314
-0.03592099
-0.03617683
-0.03437062
-0.04756305
-0.03257898
0.08219974
-0.07455312
0.01003160
-0.00595520
0.01188637
0.09470744
-0.03107912
-0.06065052
0.00205378
-0.03412187
-0.07408457
-0.01222516
-0.06682745
-0.00759879
0.04559713
-0.14403686
-0.04353018
-0.06880596
-0.03618149
-0.06629355
-0.00698133
-0.07117257
-0.06633183
0.06340841
-0.01840954
-0.07283347
0.09967624
-0.02446301
-0.02161937
-0.00346894
0.11226973
-0.03858896
-0.01903199
-0.05737620
-0.01050801
-0.05479513
-0.04661613
-0.00803683
0.10904209
-0.04787203
0.06427180
-0.07609257
-0.07761206
-0.00626183
-0.04879458
-0.08453850
-0.16300508
0.05153822
-0.06132245
0.01036018
-0.07595305
0.02524584
0.02361521
0.00607715
0.04495695
-0.03678318
-0.01419865
0.03286099
-0.05876033
0.02318505
-0.03484243
-0.00364168
-0.02145667
-0.00569126
-0.17236710
-0.09937752
0.00077360
-0.01647659
-0.08533543
-0.08744910
-0.07568757
-0.02833181
0.05398756
-0.00103244
0.08813206
0.00744567
-0.02713502
-0.05724933
-0.08008023
-0.05332910
-0.05849501
-0.05715924
-0.03030812
-0.06861533
-0.03088375
-0.06666069
-0.04936564
-0.03125997
-0.01975922
-0.05404907
0.04519776
-0.03423204
0.10825419
-0.08725590
-0.04976935
-0.05597901
-0.05568343
-0.03811375
-0.06594320
-0.04830940
0.09933567
-0.04231342
0.00958077
-0.00758465
-0.07126614
-0.01003690
-0.07150415
-0.04700864
-0.02646143
-0.04343851
-0.04712448
-0.02383906
-0.00405517
-0.04344702
0.07277455
-0.04642634
-0.05386622
-0.05860403
-0.07602385
-0.05399248
-0.02193495
-0.03635481
-0.07693267
0.00857994
-0.03112338
-0.03873012
0.08847147
-0.03776187
-0.03016904
-0.02260383
0.05380820
-0.08395997
-0.04705076
-0.05233707
-0.03920146
-0.03734743
-0.04185874
0.04632729
0.07746031
-0.06027298
-0.01567879
-0.07799531
-0.08029414
0.04697786
0.06716032
-0.05267519
-0.03119285
-0.06844596
-0.08510398
-0.00457080
-0.06549791
-0.05738645
-0.06427236
0.00452201
0.07639442
-0.04568581
0.05512952
0.05221317
-0.07992531
0.07588496
-0.04598039
0.03303462
-0.02953195
0.09537643
-0.08524224
-0.05279544
-0.03971664
0.09283254
-0.04130142
-0.03741428
-0.05158390
-0.02593547
-0.05623647
-0.03495909
0.03713326
-0.01041077
0.02216415
-0.07011738
-0.03663993
-0.03330910
-0.08794541
-0.04090996
-0.06013171
-0.06512096
-0.05382992
-0.01202114
-0.04132687
-0.01567116
-0.02916190
-0.06368833
0.02392187
-0.06599764
0.01186024
-0.06806199
0.07478295
-0.02382688
-0.00908679
-0.03286345
-0.01298411
-0.06718065
0.00864612
-0.06639243
-0.03756482
-0.00428433
0.03599893
-0.03086419
-0.08295541
-0.01991461
-0.07529866
-0.06334462
-0.04980583
-0.02173563
-0.03652628
-0.03779207
0.05284269
0.00701118
-0.06427725
-0.08736108
0.01922335
-0.08597864
-0.03395334
-0.05445443
0.08436564
-0.02068039
-0.04319530
0.08596820
0.04263580
-0.02767534
-0.03068954
0.01517623
0.08160101
-0.03909020
-0.05294167
-0.08484179
-0.04058262
-0.02003491
-0.05503640
-0.00888337
0.01728364
-0.08750505
-0.01595685
-0.05929082
-0.02957828
-0.02929749
-0.02274343
-0.04791199
-0.04102965
0.00852105
0.06095516
-0.05750210
-0.04129595
0.01346859
-0.08184391
-0.08016478
-0.02106298
-0.08636704
-0.01099956
0.00139427
-0.03426159
-0.02299115
-0.06085110
0.00741795
-0.04255277
0.00112388
0.07621536
-0.09431327
-0.04077755
-0.00107120
-0.06273868
-0.07735204
-0.02862140
0.07057938
-0.00167305
-0.05722118
0.02492963
-0.06392138
0.00394298
-0.07450023
-0.07102334
-0.06349383
0.11670588
-0.04999770
-0.04864587
-0.03529395
-0.06718253
-0.02876632
-0.06842757
-0.06704392
0.06048757
0.08238039
0.07622100
0.00206231
0.04037076
-0.06654567
0.03549242
0.08378117
0.04591924
-0.05396146
0.05232483
-0.04848666
0.05633506
-0.05762071
0.00674755
0.05919486
0.07546691
-0.02286724
-0.05740633
-0.04057955
0.01151240
-0.03462618
-0.04143118
0.04640917
0.06169746
0.08366462
0.08732470
-0.07712154
-0.08719555
-0.06064978
-0.04159068
-0.06647436
0.03494830
-0.06717025
-0.04267934
0.04518506
0.06855326
-0.07010107
-0.05002191
0.04070736
0.03213796
0.08821975
0.07374045
-0.06812392
0.03907274
-0.07174053
0.07623959
0.08767037
0.07520720
0.06614556
0.04820177
0.03580140
-0.02699339
-0.06568175
-0.08808697
0.06565711
0.04715041
-0.07800832
-0.05785952
-0.06975571
-0.08676951
-0.01270881
-0.08874638
-0.08450781
-0.04977752
0.06146148
0.07438721
-0.08738411
0.06677973
-0.00268645
-0.08574798
0.07796921
0.07775850
0.08137236
0.06177795
0.07712059
-0.03208548
0.07985757
0.04472043
0.04586880
-0.03573662
-0.08398850
0.00570267
0.06753846
0.07760526
0.04929550
0.08506762
0.07393458
0.07139307
-0.07116623
-0.08534540
0.08725093
-0.07470378
-0.03437489
-0.03607713
0.04465545
-0.07951981
0.07268247
0.06147168
0.05344149
-0.01769903
-0.04417598
0.01520733
-0.04299242
0.08311102
-0.05821111
0.15809613
-0.01863265
-0.01471931
-0.05831972
-0.05059760
-0.03679735
0.04212663
-0.08542502
-0.02605905
-0.01812437
-0.15436339
-0.07328369
-0.03335924
-0.08624871
-0.04216546
-0.06200465
-0.05456114
-0.04243530
-0.00607075
-0.05449836
0.05880067
0.00380419
-0.04217066
-0.07002699
-0.06873273
-0.04468936
-0.03373680
-0.06710377
-0.04921610
-0.00402758
-0.05122025
-0.03551215
0.04018571
-0.06645800
-0.05907275
-0.01895648
0.06380283
-0.07935433
-0.06280612
-0.05412415
-0.00819829
-0.05796631
-0.06339633
-0.01241408
0.03450251
-0.06349559
0.14601517
0.01888118
-0.07497206
0.04552004
0.01439087
-0.04829075
-0.03710322
-0.18213058
0.13123319
-0.02022299
-0.05107806
-0.18018946
-0.03654896
-0.05181350
0.05891239
-0.05040095
0.05635686
0.19493048
-0.04538137
0.00049847
-0.06626757
0.01372786
-0.05394272
0.15472960
-0.07115880
-0.06818316
-0.03825951
0.07510182
-0.07468525
-0.08240826
-0.07044592
-0.03039156
-0.05071320
-0.01279307
-0.13257949
-0.04708324
-0.01799904
-0.07354818
-0.04384993
-0.05863382
-0.08565109
-0.03874537
-0.07737384
-0.03593944
-0.08101756
-0.02070275
-0.06323594
-0.05695532
-0.04215967
-0.02006738
-0.07295015
-0.05668392
-0.33800632
-0.04560105
0.36169803
-0.03459237
-0.04854196
-0.07645686
-0.06576201
-0.06896543
-0.14330526
-0.06374999
-0.02254287
-0.01892834
0.02246403
-0.08282790
-0.04866071
0.12560727
-0.01627188
-0.06710920
-0.06343076
-0.01946754
0.06834324
-0.04262073
0.04988902
-0.09532331
-0.07509638
-0.04314581
-0.04625300
-0.06240860
-0.01669276
-0.05788780
-0.30286041
-0.48886007
-0.05510134
-0.08867250
0.00148255
-0.06753967
-0.01942006
-0.02717675
0.28371269
-0.05494554
-0.11357702
-0.07666790
-0.02397712
-0.00649738
-0.03239818
-0.04203204
-0.16906631
-0.06778792
0.33533260
-0.22473368
-0.16515905
-0.01039052
-0.00186648
-0.04704590
-0.02271469
-0.42543831
0.00242973
-0.00527591
-0.07016030
0.36560595
-0.27091798
-0.01703254
-0.08035793
-0.04214097
0.15628366
-0.22276475
-0.07148676
0.10993735
-0.06218731
-0.01818182
-0.03561334
-0.10758196
-0.17414029
-0.05531498
-0.04481741
0.33412471
-0.03675247
-0.04174427
-0.02727813
-0.03466782
0.03095722
-0.04838812
0.06117654
-0.03678431
0.12429711
-0.06359154
-0.36853763
-0.04416391
-0.26662967
-0.03786033
-0.07786217
-0.05500091
-0.08801673
-0.05306212
-0.04344091
-0.04681506
-0.05745566
-0.01068565
-0.17162786
-0.02647814
-0.03929465
-0.06030471
-0.35133535
-0.05847644
-0.03323365
-0.04244143
-0.05123254
-0.04827594
-0.17474048
-0.06883294
-0.00727470
0.01167262
-0.16557714
-0.05721287
0.03273790
0.39532346
-0.06077098
-0.04632738
-0.08354656
-0.05648220
0.09600198
-0.03234394
-0.38513854
-0.43402925
-0.07370903
-0.05225324
-0.08934609
-0.03193839
-0.05321876
-0.05636865
-0.82579428
-0.30420175
-0.03313959
-0.07934224
-0.06676690
-0.15226613
-0.02183996
-0.01001192
1.01443672
-0.05053078
-0.33287969
-0.00288363
-0.01109588
0.00191414
-0.01752677
-0.03381886
-0.07887767
-0.03313629
0.94762689
-0.85042179
-0.27407128
-0.01143843
-0.18351451
-0.04864604
-0.02839794
-0.12374271
-0.16585802
-0.01056685
-0.08870389
0.42500186
-0.24107626
-0.03251262
-0.36912969
-0.05837433
0.00144797
-0.16939713
-0.03839923
-0.16183101
-0.02569108
-0.08604860
-0.05705759
-0.13965796
-0.17934491
-0.04635336
-0.00191747
0.80649835
0.04104231
-0.06931762
-0.07603761
-0.07883207
0.10850835
-0.07036575
0.37518111
-0.05974298
0.69501352
-0.03231899
-0.60867202
-0.01951602
-0.58236986
-0.06260214
-0.04825002
-0.04106473
-0.08477481
-0.01239985
-0.03611732
-0.05223227
-0.06362620
-0.02392134
-0.24224961
-0.04294382
-0.09524219
-0.07672053
-0.04971145
-0.06656115
-0.04066588
-0.05500061
-0.06016201
-0.05257282
-0.13728419
-0.05844401
-0.00616020
-0.05370918
-0.01697811
0.37269637
0.03877631
0.38746709
-0.03235793
-0.06187527
-0.08389006
-0.05509278
-0.40416798
-0.04939662
-0.06933507
-0.52382404
-0.14691842
-0.04487264
-0.36511436
-0.07370133
-0.01958871
-0.08456179
-0.37620208
-0.41459388
-0.00402703
-0.08554973
0.10485808
0.11180345
-0.02442399
-0.23145953
0.11900149
-0.04140761
-0.25078094
-0.08675858
-0.02959793
-0.01399142
-0.04104855
-0.36382255
0.05586233
-0.08426160
0.51764655
-0.90683544
-0.44984260
-0.04955858
-0.69961143
-0.03469292
-0.13526745
0.52940643
0.06508625
-0.01958602
-0.10568791
0.82339489
-0.53142172
-0.06050600
-0.36893502
-0.04302685
-0.06278219
0.06500231
-0.06514352
0.89220428
-0.06326147
-0.35124305
0.00242754
-0.16697673
-0.04573081
-0.06328280
0.23287249
-0.18529335
0.07055861
-0.06559370
-0.07920627
-0.04998006
1.09161842
-0.04669660
0.76480848
-0.05173354
1.21457255
-0.05167158
-0.64516735
-0.02254471
-0.24370781
-0.07914086
-0.08311178
-0.01815713
-0.05121525
-0.02772587
-0.06542306
-0.04254229
-0.03257256
-0.06023730
0.08388396
-0.04886952
0.04631248
-0.06738263
-1.07218361
-0.09628148
-0.13285217
-0.05934361
-0.02899958
-0.05466895
-0.48283446
-0.07206329
0.02587333
-0.42101195
-0.01497321
0.39548704
0.27496353
0.04600653
-0.04124466
-0.04762205
-0.03356770
-0.05880773
-0.50105572
-0.04978679
-0.09543333
0.21192671
-0.09551930
-0.16578116
-0.56885946
-0.08287223
-0.11960700
-0.06460145
-0.06631181
0.47696713
-0.01632248
-0.15375876
0.35605764
0.62310523
-0.02598197
-0.07731569
0.32984245
-0.08706926
-0.08320547
-0.06837557
-0.02389121
-0.03207136
-0.04341390
-0.32442182
0.59276658
-0.05963131
0.49542329
-0.63614714
-0.80801898
0.00296510
-0.39481047
-0.03475372
-0.44012991
0.11017278
0.36072040
-0.02331676
-0.63322407
0.23889808
-0.53862017
-0.05394504
-0.27627066
-0.04495222
-0.09477462
-0.73787701
-0.06278849
1.96007526
-0.06694857
-0.32463279
-0.02063276
-0.11068866
-0.14578861
-0.08653120
-0.05445833
-0.69484729
-0.03216272
-0.03341766
-0.07793821
-0.20273404
1.08054864
-0.03194077
0.12415498
-0.04254546
-0.04089662
-0.06463900
0.37481448
-0.03774682
-0.41371748
-0.04018401
-0.04016420
-0.04470494
-0.08676009
-0.03425174
-0.07979712
-0.06434469
-0.03463788
-0.05617088
0.79730177
-0.02764452
0.18509668
-0.06927139
1.47760999
-0.07779390
-0.10029195
-0.07951801
-0.05362219
-0.07524332
-0.20804536
0.05051696
-0.04601657
0.02157246
-0.43577695
-0.81672001
-0.54142386
0.59997040
-0.00818008
-0.05302787
-0.07090076
-0.07745530
-0.80682379
-0.06082043
-0.38262165
-0.16618252
-0.02443852
-0.11392540
-0.38407117
-0.03270114
-0.17915891
-0.07860593
-1.21760309
-1.37035882
-0.05532024
-0.19625166
1.22589695
-0.65463728
-0.06827989
-0.07499173
1.29726446
0.06932398
0.35769489
-0.28871673
-0.06272368
-0.05702635
-0.01524794
0.00681276
-0.18665768
-0.07868733
-0.07625460
0.84126049
-0.01807860
-0.12380800
0.90489382
-0.06980235
-0.63138425
0.24501891
-0.81212455
0.02150252
-0.24764971
-0.30709261
-0.25607979
-0.07143030
-0.30004320
-0.05735382
-0.41978577
-0.13169634
-0.06329936
-1.17788672
-0.10432307
0.21651635
-0.01539072
-0.35172799
0.25973505
-0.09541414
-0.06053520
0.39162204
-0.05166768
-0.04883907
-0.04146126
-0.57226592
-1.25650728
-0.05833004
0.43710709
-0.05908899
0.18411282
-0.08186588
-0.97749335
-0.03069672
-0.37865245
-0.03548562
-0.04746730
-0.09308359
-0.04507421
-0.03561355
-0.07801384
-0.05711244
-0.04565601
-0.04375264
0.18497464
-0.06053938
-0.08054412
-0.03318792
0.23653626
-0.08665758
-0.03828034
-0.04674081
-0.09369137
-0.08475286
-0.07288802
0.00658500
-0.04683628
-0.34110406
-0.21198842
0.00047294
0.18867363
-0.14608321
-0.02017845
-0.04025180
-0.08016682
-0.03569481
-0.19180381
-0.04055729
0.11055099
-0.02654530
-0.03602126
-0.08940797
-0.46921274
-0.06417832
-0.01996520
-0.06286184
-0.39393055
0.59909785
-0.05507259
-0.03427983
0.18964249
0.68441796
-0.01714230
0.01976147
-0.33148190
0.03124283
-0.01799887
-0.41524473
-0.05368209
-0.03894371
-0.04727758
0.75254279
0.25552690
-0.08686478
0.00543153
-0.37377062
0.01020945
0.13548875
0.07181209
-0.06070457
-0.11258135
-0.21825020
-0.49704754
-0.00746042
-0.25287369
0.05719107
-0.16206597
-0.05315753
-0.09652653
-0.06279717
-0.07584656
0.02703062
-0.03611913
0.31767040
-0.09106588
-0.35668474
-0.05981908
-0.14412567
-0.43230480
-0.07996541
-0.05374297
-0.72370452
-0.07747899
-0.03769964
-0.02793236
-0.32376438
-0.05931014
-0.07785345
-0.09257922
-0.03617996
0.46342048
-0.03923017
0.47854930
-0.02070685
-0.49117994
-0.08665805
-0.03292792
-0.08020000
-0.07415628
-0.02319877
-0.06007562
-0.05542013
-0.05379460
-0.08809537
-0.43756363
-0.07986763
0.00108127
-0.07740384
0.00956613
-0.07955597
-0.05838438
-0.07780577
-0.07871863
-0.04758693
0.09032566
0.03362394
0.00330269
-0.41712680
0.72107691
0.33399189
0.25542891
-0.31407544
-0.01790279
-0.04906856
-0.07634400
-0.06604811
0.04596218
-0.03686400
0.47630498
-0.43865433
-0.05413727
-0.06469300
-0.34665737
-0.03678786
-0.03384072
-0.03610795
-0.14201508
0.78527784
-0.07109528
-0.56306458
-0.36341932
0.06236603
-0.06843716
0.06645878
0.02638327
0.07983633
-0.04898851
0.06776330
-0.06665510
-0.03424187
-0.05488468
0.00947142
0.67972702
-0.05843369
0.08396705
-1.04185176
-0.10063786
0.38995409
0.12698784
-0.03224109
0.15462628
0.18538469
-0.13074782
0.02228346
-0.21499941
1.33938956
-0.18719992
-0.03826893
-0.13676083
-0.07358088
-0.09745358
0.30788022
0.05013941
0.27415884
-0.07754969
0.30675846
-0.00939884
-0.11204570
-0.33840895
-0.07595047
-0.02376983
-0.15920614
-0.06671836
-0.08324913
-0.06156882
-0.35016209
-0.00961465
-0.07944009
0.28406489
-0.03746800
0.33697388
-0.08570483
-0.18295462
-0.04585924
-0.32428828
-0.05470123
-0.07217626
-0.05100778
-0.07679937
-0.04757413
-0.07628722
-0.04688155
-0.03676775
-0.06276130
-0.03444581
0.01279236
-0.12438905
-0.04738240
0.66550207
-0.05582299
-0.06779779
0.08679529
-0.06270537
-0.05121281
-0.31009769
0.03705004
-0.01047357
-0.25875711
0.75277209
-0.00339903
0.08861724
-0.62059033
-0.06808859
-0.04282384
-0.06386866
-0.06020891
-0.55144286
-0.03675542
-0.06690816
-0.19818036
-0.06414589
-0.03503926
-0.35214493
-0.08159572
0.09872146
-0.04341367
-0.08056823
-0.49830922
-0.06989853
-0.09867532
0.08547432
-0.71885091
-0.06186452
0.32936722
-0.40457594
0.06119522
-0.43990576
-0.07852904
-0.06429512
-0.04464122
-0.06159987
-0.05351518
0.04772189
-0.05856661
-0.33176237
0.15351504
-0.09851619
-0.42043716
0.08389915
-0.08390284
0.28032920
0.10225641
-0.40595654
-0.01412820
-0.02946168
0.78943139
-0.27467030
-0.06074139
0.03304209
-0.04384040
-0.07267530
-0.59770352
-0.06568804
-0.60776269
-0.05505999
0.90104747
-0.04833411
-0.23113087
-0.48634830
-0.10722724
-0.02442365
-0.70288002
-0.05730194
-0.03500619
-0.03204043
0.10147718
-0.09429036
-0.02931251
-0.65220797
-0.01991746
-0.24348517
-0.06679192
0.00873717
-0.03206548
-0.07256880
-0.06861046
-0.03877994
-0.04858197
-0.04192965
-0.02544636
-0.03154647
-0.05815186
-0.03505836
-0.06092396
-0.07577786
-0.07642030
-0.04847744
-0.04849656
-0.06334696
-0.04317789
-0.03295614
-0.03281380
-0.05984470
-0.04344531
0.00526399
0.01601960
-0.00029431
-0.06046762
0.06052665
0.08033518
-0.04912110
0.09041658
-0.02746596
-0.08832306
-0.03663003
-0.05170917
0.06943672
-0.03487095
-0.11121596
-0.31351587
-0.05728734
-0.06139560
0.17741157
-0.08800248
-0.00783662
-0.08767927
-0.14249545
-0.09449390
-0.05500752
0.00483637
0.05926863
0.03502463
-0.02479482
-0.06528864
0.05454832
-0.04493675
-0.11741809
-0.08661619
-0.05651055
-0.01323674
-0.02631351
-0.03235601
0.19732806
-0.05054294
-0.00415480
-0.12920590
-0.09543921
0.01451597
0.17240766
-0.03606018
0.19999410
0.40504777
-0.33156037
0.01426751
0.09086295
0.12568313
-0.03673495
-0.05858232
0.11038911
-0.03669009
-0.03900401
-0.07428776
-0.05175616
-0.12162008
-0.04966264
0.05629894
-0.02679513
-0.24049430
-0.09317215
-0.03312337
-0.03781837
0.09204393
-0.03917167
-0.05498731
-0.03156062
-0.14098580
-0.06909356
-0.05188451
0.18342857
-0.06616312
0.08620413
-0.04756896
-0.35484758
-0.06201587
-0.15574206
-0.03433495
-0.04191621
-0.09543146
-0.03966105
-0.06414754
-0.04730374
-0.02348650
-0.01586268
-0.08391026
0.01914390
-0.03304229
0.05208636
-0.03224847
-0.06274057
-0.06282961
-0.01372701
-0.03500134
-0.07452817
-0.05876214
0.04784207
-0.08880952
-0.00132061
-0.03435295
-0.02203009
0.00395808
0.05354187
0.06915350
-0.01458124
-0.07681818
-0.04602364
-0.07183442
-0.08495852
-0.05950244
0.03346982
-0.11107926
-0.07120621
-0.05343507
0.06496201
-0.07576801
-0.05716857
-0.04181603
-0.09976629
-0.01762597
-0.01535376
0.05328252
0.13602534
-0.05068785
-0.06305366
0.00612100
0.01540733
-0.08451221
-0.05429131
0.05894088
-0.05415309
-0.01581006
-0.08056150
-0.00579566
0.09900819
-0.02763579
0.01514946
-0.06438453
-0.05120513
-0.05351465
-0.03751232
-0.08562046
-0.11000156
0.03904574
-0.15129130
-0.00619511
-0.07040596
0.10288482
-0.13803016
-0.02422997
0.02439756
-0.06737142
-0.03705085
0.09497963
-0.06274536
0.03457838
-0.08514909
-0.03076865
-0.05652374
-0.08797076
-0.04310185
-0.07177160
-0.05351435
-0.01663632
-0.04278281
-0.05696435
-0.05788319
-0.06408970
-0.01358135
-0.04688966
0.05941904
-0.04474180
-0.01894053
-0.04478284
-0.04459266
-0.07067265
-0.05960679
-0.06955254
-0.07418096
-0.06311394
-0.04500635
-0.05299937
-0.04586824
-0.05122325
-0.01446475
-0.07213955
0.01103471
-0.07689433
0.03745079
-0.08691151
-0.07984387
-0.05912676
-0.02662536
-0.06834777
-0.03692311
-0.06692610
0.04101818
-0.08593626
0.00515274
0.00419334
-0.08242069
0.00768280
-0.08780284
-0.03970680
-0.04801773
-0.04683582
-0.05038515
-0.01626599
0.01908518
-0.03477082
0.03489586
-0.04494997
-0.05188622
-0.03158771
-0.07683964
-0.06401267
-0.01195974
-0.06578788
-0.06805027
-0.00087301
-0.05464831
-0.06109729
0.03408135
-0.06230643
-0.07027699
-0.02942889
0.07374977
-0.08175991
-0.02759378
-0.04336051
-0.03150144
-0.01542609
-0.03834753
0.01907922
0.03354926
-0.03432472
0.06095377
-0.03303384
-0.07262225
-0.03878471
0.05122564
-0.06379842
-0.05062416
-0.04993487
-0.04622689
-0.01245057
-0.08736602
-0.03769897
-0.05187727
-0.02970295
0.04971175
-0.04327495
0.03275752
-0.06468592
-0.06144617
0.12108874
-0.07886004
0.03152043
-0.02075709
0.03155785
-0.04176569
-0.06394970
-0.01421132
0.09188301
-0.07849323
-0.04942244
-0.06620215
-0.03493683
-0.05539860
-0.06826319
0.04477569
-0.04778758
-0.00953538
-0.03285445
-0.08574280
-0.05788584
-0.05486671
-0.06127627
-0.03589001
-0.03627810
-0.06617956
-0.05347245
-0.05475787
-0.01781479
-0.05579497
-0.02179872
0.04481775
-0.02763081
0.00024977
-0.06932686
0.07183269
-0.02727943
-0.03557501
-0.05057456
-0.04872499
-0.05956351
0.01431517
-0.06078176
-0.05410263
0.00780291
0.07218499
0.08082820
-0.07694214
-0.04493135
-0.04939055
-0.04176148
-0.05986005
-0.04946190
-0.02093149
-0.02518901
0.05225890
0.06263444
-0.08144581
-0.08642715
0.01994694
-0.08834274
-0.03099725
-0.04478806
0.08541040
-0.01065295
-0.00893335
0.00652221
0.01637716
0.01092715
-0.06054673
-0.01541920
0.05068439
-0.06349620
-0.04238267
-0.05658004
-0.00173569
-0.03423517
-0.04368272
-0.05226754
-0.02418175
-0.04376330
0.01456250
-0.01960578
-0.00723521
-0.03346096
-0.02342869
-0.03667746
-0.03642212
0.01692400
0.02714981
-0.07238752
0.08470560
-0.00421613
0.00885869
-0.07560249
-0.00661287
-0.05415617
-0.03153908
-0.09377241
-0.04732830
-0.01088171
-0.04114101
0.06333014
-0.01700066
0.00022145
0.00140229
-0.07345866
-0.00583715
0.03376457
-0.04078446
-0.08916911
-0.06332648
0.05114214
-0.00468785
-0.01958769
0.01788498
-0.03628147
-0.00204151
-0.04599426
-0.07466086
-0.06625374
0.10590134
-0.07795299
-0.03289880
-0.01359966
-0.04333005
-0.04222564
-0.02997351
-0.01902584
0.05835890
0.03504897
0.07776545
0.01210980
0.08179576
-0.08657897
-0.07422142
0.03542299
0.03181153
-0.03485046
0.04046896
-0.07116473
0.00984695
-0.06519786
-0.00649985
0.08210278
0.11142470
0.01020255
-0.07204955
-0.03683562
-0.02127152
-0.03229839
-0.08070371
0.05226538
0.06323511
0.08249225
0.05973029
-0.03941952
-0.03730299
-0.06661504
-0.03248600
-0.08739763
0.06544267
-0.06016973
-0.08760262
0.04468348
0.05394375
-0.06475750
0.07541554
0.03595426
0.04192477
0.02696377
0.20325716
-0.04543188
0.05825885
-0.07696966
0.06125090
0.08345187
0.06595341
0.07295462
0.06745564
0.03206609
0.07405100
-0.14283845
-0.04386409
0.06508356
0.06691835
-0.08335967
-0.02837353
-0.17505385
-0.07943603
-0.02522912
-0.03649557
-0.15397534
0.08163218
0.03652570
0.04493291
-0.05425076
0.05290481
-0.09140933
-0.04780069
0.02382774
0.06704254
0.05697069
0.04869003
0.21004388
-0.05370602
0.03571409
0.06803440
-0.08898677
-0.05415235
-0.04334331
0.01506568
0.08812130
0.10935434
0.03766026
-0.00306916
0.06185119
0.05518923
-0.07586217
-0.07051447
0.03619825
0.03880642
-0.08438487
-0.05678702
0.04657518
-0.04551759
0.04467624
0.03489357
0.06809658
-0.03754364
-0.00812288
-0.07764284
-0.05159691
0.04530669
-0.06166109
0.92630452
-0.02861751
-0.03309408
-0.06648891
-0.02728736
-0.05881356
-0.11844191
-0.03429263
0.01029581
0.00919551
0.09724719
-0.56620711
-0.08595591
-0.34868401
-0.03007369
-0.07864380
-0.07431066
-0.02335688
0.07386447
-0.01736454
0.03463760
0.15110156
-0.04356629
-0.06814072
-0.08700716
-0.05824468
-0.01903295
-0.04562885
0.18771052
-0.46280432
-0.00634264
-0.05535926
-0.29548639
-0.62715071
-0.00595476
0.08831855
-0.15394595
-0.06609830
-0.15488096
-0.06998435
-0.02297031
-0.02947929
-0.08916752
-0.04775918
-0.00883577
-0.03723687
-0.37690574
-0.25075307
0.71847701
-0.11168919
-0.04184300
-0.08819549
0.27668738
0.29072061
-0.05576890
0.01695977
-0.00780397
0.15222414
0.02268327
0.00933196
0.01341896
-0.05926913
0.03821946
0.54241347
-0.08567944
0.18513402
-0.04364087
-0.02017725
-0.04213035
0.01509306
0.06990578
-0.00577518
-0.01871241
-0.21880448
-0.03344553
-0.07828289
-0.04659057
-0.04659493
0.00015274
-0.03470941
-0.01371722
-0.00009403
0.11017082
-0.03239981
0.20131208
-0.06346759
0.17254294
-0.04912886
-0.06370844
0.00058637
-0.07383124
-0.03332070
-0.01577609
-0.06524063
-0.07375942
-0.00744222
-0.10845230
-0.04146773
-0.53690553
-0.07068999
0.48895800
-0.05073827
-0.05019067
-0.04705218
-0.02219560
-0.07449548
-0.68237597
-0.04306154
-0.02452762
0.24049935
-0.11915575
-0.61651677
-0.14748444
0.41710424
-0.03179730
-0.07249921
-0.06003467
-0.06892654
0.36936909
-0.03427260
-0.09817248
-0.75210267
0.10273925
-0.03746650
-0.06316228
-0.04662149
-0.01433040
-0.06095376
-0.63167953
-0.45517766
-0.02326148
-0.03198067
-0.22617652
-0.47616428
0.00325438
0.54765493
0.91352403
-0.05702531
-0.16924667
-0.05497577
-0.06486580
-0.02097314
-0.06294321
-0.02998962
-0.51615286
-0.04949375
0.85944074
0.43729332
0.45176643
-0.00435601
-0.15484287
-0.05541406
0.65022826
-0.31595051
0.56755853
-0.01557841
-0.12140127
0.18314831
-0.31948215
0.06927881
-0.15217882
-0.04314053
0.10555938
0.21491754
-0.03878466
-0.25963229
-0.02952340
-0.05556560
-0.03516487
-0.25250754
-0.04181389
-0.04749094
-0.01816944
0.85989761
0.03574834
-0.04675608
-0.03895083
-0.22923358
-0.84349352
-0.03497935
-0.59417021
-0.05120016
-0.18199565
-0.05489774
-1.03945971
-0.02848303
-0.49941862
-0.04216028
-0.08352706
-0.01383997
-0.07716455
-0.05044679
-0.03235903
-0.02417245
-0.06129421
-0.02421143
0.31556261
-0.03590584
-0.18133605
-0.06803603
0.24069898
-0.05261705
-0.00623016
-0.07860696
-0.02231679
-0.06714844
-0.32086313
-0.07621573
-0.01646307
0.61385530
-0.17833084
-0.52234054
0.00408532
0.14320286
-0.03594095
-0.08284368
-0.08731000
-0.04243674
-0.48539263
-0.04252781
-0.69875973
0.38896346
-0.15988998
-0.07088802
-0.22239637
-0.08135645
-0.20335361
-0.04519391
-0.17517181
-0.51237684
0.02139146
-0.06871153
0.25383782
0.06724926
0.00438796
0.70741087
0.68765670
-0.08237988
-0.91952628
0.25369361
-0.01563663
0.00120988
-0.01177089
-0.05553135
-0.67627698
-0.08852030
0.00848667
0.18336575
-0.04710989
-0.64242840
-0.26536918
-0.07392981
-0.51937604
-0.34427455
0.49373284
-0.01254685
0.03274751
0.67882407
-0.43836963
-0.01618823
-0.14573696
-0.06273051
0.17210518
-0.64438343
-0.08666705
0.03932875
0.00042614
-0.15536638
-0.02563325
-0.25230628
-0.29769406
-0.01832476
-0.04568660
0.53546566
0.08321984
-0.04917279
-0.02791077
0.18517062
0.34709021
-0.05995031
0.31075412
-0.04186046
0.55753493
-0.08363990
0.05319042
-0.06174720
-0.34201813
-0.05500836
-0.08733357
-0.16028331
-0.06642798
-0.03036571
-0.00608690
-0.01214075
-0.07523070
-0.04868489
0.54798311
-0.04094105
-0.29547989
-0.05244390
0.56796217
-0.03104355
-0.04669634
-0.08622597
-0.00013242
-0.06531695
-0.28515676
-0.03692358
-0.01674619
0.64372540
0.17398493
-0.09774893
-0.24148254
0.55240166
-0.04321604
-0.12067766
-0.07210605
-0.04061383
0.35907042
-0.04897005
-0.13154835
0.16452345
-0.20002306
-0.08171876
0.22875375
-0.03087452
0.00516690
-0.08687787
0.50118822
0.48376513
-0.02198589
-0.18294488
0.40683341
0.48088863
-0.04624800
0.47878709
-0.60909373
-0.06142750
0.81033343
0.22925922
0.00702639
-0.02747071
-0.05060579
-0.46120241
0.19945873
-0.08694133
0.34940264
1.07075691
-0.15350366
-0.04901619
-0.30599433
-0.08554225
0.67368042
0.43669644
-0.20843764
0.00576634
-0.81445926
-0.00348778
-0.72513467
-0.03037810
-0.47417441
-0.07168453
-0.23452014
-0.50114107
-0.04424537
0.44175741
-0.04398197
-0.62371969
0.02745288
-0.32355246
-0.32971975
-0.00350842
0.43919706
-0.27500466
0.05162209
-0.04422022
-0.04561428
-0.41632897
0.86978543
-0.07196549
0.58063823
-0.04782917
-0.15495799
-0.04715610
0.07286162
-0.00992737
-0.99441624
-0.06620302
-0.07443686
-0.41182414
-0.05943058
-0.04911026
-0.07784801
-0.03816796
-0.07952833
-0.00969223
0.68036127
-0.06949069
-0.19407636
-0.04424092
1.34555244
-0.02199006
-0.32651952
-0.07379294
-0.03520353
-0.06630573
-0.28034273
-0.03976693
-0.01065667
0.11093649
0.78062743
-0.54063952
-0.24888693
-1.41234934
-0.07759852
0.11886634
0.04125993
-0.03415733
-0.23121664
-0.05423785
-0.37323919
-0.27120745
0.05568711
-0.13822235
-0.01415371
-0.07218823
-0.48304462
-0.04806746
0.61575568
-0.00005001
-0.03369571
-0.15883505
-0.43427831
1.07726920
-0.02987645
-0.51135200
-0.78012764
-0.08916925
0.58896643
-0.35241041
0.00647668
-0.03497073
-0.00764245
-0.53752571
0.94870883
-0.07205229
-0.43575710
0.45699564
0.57583672
-0.08104356
-0.43095464
-0.06090447
-0.84791332
1.36797762
-0.85437596
0.00433359
-1.81238925
1.34018254
-0.28961095
-0.08092462
-0.18786581
-0.03360786
-0.79121107
0.13221459
-0.08407976
1.31996310
-0.08293249
0.08847533
0.00419869
-0.14459138
-0.98206931
-0.03076736
0.12638226
-1.52163386
0.08260614
-0.05932377
-0.04195255
0.43197376
1.26220751
-0.05849333
0.57614678
-0.06776483
-1.12526739
-0.08256815
-0.54059213
-0.06188431
-0.46367559
-0.07191033
-0.04568985
-0.27106452
-0.06081812
-0.04783986
-0.06178163
-0.06051353
-0.07231400
-0.03720417
0.56212443
-0.03875911
-0.26937976
-0.06566073
0.60506707
-0.09525307
-0.18630929
-0.05395760
-0.03915239
-0.07498008
0.31387037
-0.07659860
-0.04127714
0.23108222
0.37215316
0.11328579
-0.48009798
-0.10108702
-0.05408217
-0.42164230
-0.05363570
-0.04379019
-0.37446186
-0.02601301
-0.91321236
-0.22026277
-0.08043597
-0.20225863
0.61359572
-0.03669909
0.55263573
-0.05363497
0.13545789
0.66549063
-0.02359412
-0.78114069
-0.22857215
0.94151068
-0.04723406
-0.14326185
0.29373178
-0.02104619
0.86830556
-0.10502671
0.01392053
-0.07551150
-0.02152536
-0.32503101
1.15818489
-0.08648148
0.64544231
0.68374038
-0.45396394
0.30065575
-0.22834516
-0.04552428
0.30432725
0.78222942
-1.40943182
0.01384368
-1.13998771
0.27482465
-0.40766275
-0.08871609
1.07278228
-0.00531537
-0.06798943
-0.13327189
-0.05792819
1.45618033
-0.09441064
0.32502356
-0.01790895
-0.17161210
-0.50954348
-0.08880667
-0.43017536
-0.64265311
0.03112302
-0.05685326
-0.07078931
0.37936789
-0.16698307
-0.05636669
0.09133463
-0.04429028
-1.41650939
-0.03899101
-0.18704419
-0.04377168
-1.01887012
-0.05105688
-0.06022241
-0.39408368
-0.03854393
-0.00597120
-0.10549626
-0.05458998
-0.05927141
-0.06083928
0.40621164
-0.07182425
0.19024692
-0.03325418
0.71362358
-0.04459096
-0.67466581
-0.05105880
-0.02259578
-0.06383768
-0.22147891
0.02922930
-0.07673784
-0.36435980
0.32583559
-0.15709877
-0.35611406
-0.05719914
-0.05013115
0.19048038
-0.08074956
-0.09181131
-0.64339131
-0.00770005
-0.60342079
0.02678761
-0.19965623
-0.12425248
-1.10339510
-0.03256144
0.15482624
-0.05479495
-1.12049901
-0.65889060
-0.03621184
-1.53885531
-0.20489924
0.41713169
-0.04643271
0.16209096
0.55325878
0.03601338
0.35512045
0.11130179
-0.00672578
-0.07198137
-0.02538632
1.26442671
0.87666667
-0.06122321
0.43218833
-0.80913335
-0.66497904
-0.32436901
-1.39472663
-0.08194508
-0.03649192
0.40692350
-0.33893347
0.00020465
-1.90821612
-0.07890622
0.44391230
-0.05112565
-0.55984461
-0.50078624
-0.04545815
0.82151711
-0.07062899
0.49646902
-0.08998444
-0.88005513
-0.01459870
-0.54332411
-0.93073320
-0.05937631
-0.14698651
-0.54483700
-0.08456878
-0.06305552
-0.03570699
0.54944330
0.00042556
-0.03977111
0.92372698
-0.06544999
-0.02741959
-0.04202392
-0.43059716
-0.04789524
-0.38814321
-0.04674584
-0.05672773
-0.51643056
-0.07956509
-0.01498967
-0.06596445
-0.03858836
-0.03383838
-0.05347323
-0.59522766
-0.05231300
-0.34263766
-0.08863955
-0.53471243
-0.08594805
-0.01134703
-0.04092042
-0.07911921
-0.07200884
0.35333914
0.06750166
-0.07857380
-0.41591504
0.46855780
-0.15083525
-0.32220694
-0.16146429
-0.01617349
-0.45384699
-0.07152752
-0.06225385
-0.10305441
-0.03443523
0.13482700
-1.04663551
-0.15254661
-0.06955278
-0.34947425
-0.07990899
-1.03225243
-0.08111794
-1.59953046
0.55488384
-0.01679323
-0.34696230
-0.24659096
0.43621087
-0.03435401
-0.62684113
-0.76893377
-0.10119599
0.25236624
0.11794009
-0.02801691
-0.06084863
-0.05736188
-0.06707145
0.42920744
-0.05956395
0.14743133
-0.92202598
-1.21981382
1.33342481
0.89026260
-0.05368427
0.16293512
0.12912279
-0.99710065
-0.02598926
-0.15427013
0.82733822
0.67881542
-0.06637038
0.28514162
-0.19848001
0.98776716
0.31043810
-0.03247546
0.02599938
-0.07770696
0.25008351
-0.02856611
-1.24299157
0.43212706
-0.07494129
-0.02142112
0.26433158
-0.04435915
-0.06847474
-0.03020362
0.93961024
-0.08621309
-0.07802997
0.39938867
-0.02956076
0.18426345
-0.08428232
-0.29795560
-0.03917485
-0.08507320
-0.05278569
-0.03845266
0.08381041
-0.06498236
-0.03592579
-0.07273067
-0.06471036
-0.03172188
-0.05719060
-0.24654846
0.00937480
-0.69192749
-0.06693014
1.11885130
-0.03586632
-0.19722913
0.06444213
-0.05599897
-0.06794880
-0.10078289
0.02713685
-0.00774332
-0.58600485
0.94523519
-0.08059562
0.15117785
-0.75364423
-0.06874169
-0.08414923
-0.08810203
-0.09112957
-0.01521780
-0.01187346
-0.42012897
-0.93639302
-0.04265466
-0.05479060
-0.26111218
-0.07975246
0.88264483
-0.03814218
-0.49131292
-0.91091281
-0.03027609
0.45105103
-0.13382098
-0.23028450
-0.08320906
0.26886636
0.60371375
0.11756038
0.32756174
0.11961364
-0.02855353
-0.08680553
0.01257347
-0.24670753
-0.78217369
0.03508794
0.83308339
-2.05301023
-0.00582767
0.95271361
0.34104481
-0.08668157
-0.72684723
-0.08148477
-0.57052428
-0.07438380
-0.28512129
1.42768931
-0.72734398
-0.06558686
-0.44783252
0.15974958
-0.44872338
-0.99158114
-0.07990413
0.15887912
-0.06681637
0.29935965
-0.01290962
-0.44081306
1.03680658
-0.08852800
-0.07499334
0.99855196
-0.04569229
-0.07696351
-0.04817674
-0.46681610
0.16185892
-0.06585763
0.23549958
-0.05000949
0.69985139
-0.03818810
-1.09363198
-0.04599942
-0.77825314
-0.07062133
-0.07014592
0.00471192
-0.08335325
-0.00709449
-0.02570770
-0.03253349
-0.06061410
-0.04441656
-0.17042589
-0.07072772
-0.61851442
-0.08235507
0.30064988
-0.06504321
-0.03775686
0.03594803
-0.07332873
-0.04353927
0.01982400
0.04098171
0.01395281
0.08595325
0.37546301
0.86921895
-0.27355635
-1.14103436
-0.05286491
-0.03987645
-0.08364199
-0.06714931
-0.64212292
-0.03493005
-0.23216596
-1.46413195
-0.04520107
-0.07793743
-0.37627441
-0.07154737
0.89718300
-0.08788679
-0.42732170
0.02567554
-0.02241786
-0.75445318
-0.57940829
0.78704500
-0.06673108
-0.30711880
0.13763160
0.34135717
-0.39397380
0.05817468
-0.04811235
-0.04846792
-0.02817779
-0.02534390
0.94494992
-0.07703062
-0.26974982
-0.02132430
-0.33467013
0.12509419
-0.47450262
-0.07783687
-0.82800066
0.80865490
-0.91845095
-0.00625331
-0.32975811
1.08117914
-0.83908206
0.02945098
0.44210264
0.23885579
-0.91891813
-0.14018926
-0.08671725
0.34471393
-0.05241581
-0.69584757
-0.02139670
-0.65297008
0.07882275
-0.02253855
-0.03606514
1.40719116
-0.03148910
-0.06020261
-0.05673734
-0.02404412
-0.00787996
-0.07010101
0.33112147
-0.01914499
0.15735355
0.08198880
-1.44749427
-0.05593121
-0.90450877
-0.04306423
-0.07432251
0.13526964
-0.06120659
-0.02878482
-0.01494765
-0.08237490
-0.02337530
-0.09908292
-0.06102944
-0.03283102
-0.10350559
-0.08494711
-0.08631155
-0.06586241
-0.01340304
0.05719047
-0.06694178
-0.08228710
0.09014297
0.08283542
0.00833188
0.26277223
0.56016767
0.81492615
-0.06859484
-0.68043709
-0.05355780
0.06453680
-0.08511985
-0.06834500
-0.29710099
-0.06859890
0.19640602
-0.45782992
-0.06244442
-0.05772855
-0.34351844
-0.03854581
0.01131482
-0.05875402
-0.23138326
0.51251322
-0.03809148
-1.09908688
-0.37946564
-0.30001891
-0.06390903
-0.21669720
0.00948755
0.03810259
0.21551661
-0.04158571
-0.05443718
-0.02368764
-0.01605689
0.00903088
0.85461426
-0.04928702
0.41139543
-0.53080505
-0.25555095
0.09383135
0.19111843
-0.06289132
-0.13988452
-0.57727230
0.48240578
-0.00566664
0.01912693
0.69116217
-0.73919368
-0.01813256
-0.12951905
-0.06335096
-0.42517450
-0.53695518
-0.03159739
0.56977725
-0.05346746
-0.67321539
-0.00950129
-0.37263855
0.83413476
-0.09433665
-0.05412569
0.87212110
-0.04251949
-0.04461026
-0.03487905
-0.12395859
0.02432616
-0.03888955
-0.06648922
-0.04404814
-0.61603510
-0.08283892
0.00313247
-0.06834367
-0.23835301
-0.07677910
-0.06204607
-0.06735186
-0.07141766
-0.03696781
-0.07472748
-0.06190695
-0.02337316
-0.04034783
-0.04432135
-0.06474040
0.08896837
-0.07044256
0.37378535
-0.04789108
-0.08226565
-0.05700691
-0.02201565
-0.03552525
0.09295072
0.03923319
0.00721010
-0.02901397
0.20428580
0.02255224
-0.04268286
-0.04981789
-0.05389357
-0.06321175
-0.05886671
-0.08943643
-0.03404326
-0.05167793
0.01906700
0.00223138
-0.03423584
-0.06028322
-0.06804270
-0.08582236
-0.03566422
-0.07365756
0.03691682
0.05764632
-0.04170420
-0.04736574
0.15213960
-0.07014963
-0.09011512
-0.04981878
0.05519602
-0.04832410
-0.08738650
-0.06614327
-0.03686117
-0.04535684
-0.05450900
0.02745628
0.13382268
-0.00777276
0.02981391
-0.08106194
-0.07209081
0.04606384
-0.00261444
-0.06658417
0.05409594
0.17701612
-0.16527113
-0.02663981
-0.05901894
-0.00418370
0.40722984
-0.04748406
0.05797392
-0.05822543
0.10915163
0.20562951
-0.04417400
-0.05813672
-0.08000749
0.14677577
-0.04648365
0.19497591
-0.09649613
-0.04946585
-0.04229314
-0.03223436
-0.07299766
-0.05297553
-0.06249057
-0.00160785
-0.01072778
-0.02416831
-0.13966878
-0.00658091
-0.01900485
-0.08324378
-0.04885362
-0.05501445
-0.04205421
-0.04809957
-0.07002831
-0.09081932
-0.07973254
-0.05941422
0.02302653
-0.04268330
-0.04025619
-0.07024413
0.01916061
-0.05728148
0.01175227
-0.07085709
0.05006433
-0.02511560
-0.01016864
-0.05927999
-0.01955497
-0.06515066
0.03010967
-0.05910473
-0.03731667
-0.01810550
0.11736991
0.06640972
-0.03617479
0.09910670
-0.06400726
-0.08519698
-0.08798224
-0.00844287
-0.01692713
-0.01368806
0.05508363
0.17778227
-0.06479331
-0.04375311
0.02122125
-0.07907207
-0.01594565
-0.07171465
-0.18227604
-0.04207852
-0.06330666
-0.17395711
0.02761657
0.00483592
-0.05891086
-0.06988008
0.02380195
-0.03329569
-0.01561841
-0.04244405
-0.00137284
-0.05581900
-0.06931366
-0.01816638
0.01311821
-0.05948434
-0.01475293
-0.00666082
-0.03186054
-0.03632377
0.04525559
-0.05775786
0.10519242
0.03593783
0.06333781
-0.06065135
0.01764115
0.08810382
0.09445004
-0.06450433
-0.09089557
-0.03426294
-0.01334464
-0.02711212
-0.03624132
0.23568636
-0.04780106
0.09812226
-0.06296145
0.37890050
0.14806776
-0.09258416
-0.04050216
-0.04838383
-0.05419640
-0.08240120
-0.02898173
0.07464991
-0.01290387
-0.03808589
0.11155973
-0.02498874
0.08344582
-0.04442165
-0.06241947
-0.06193344
0.07162913
-0.08335284
-0.03084786
-0.00965551
-0.04603600
-0.03912981
-0.03233497
-0.06230340
0.03286827
0.05891678
-0.02030374
0.00292710
0.34046072
-0.04503817
-0.57693321
0.07622261
0.08856726
-0.07983874
0.06371476
-0.07149798
0.11203373
-0.06637571
0.00042567
0.27715260
0.31607640
0.68840885
-0.05355065
-0.07605673
-0.01049613
-0.07771185
-0.04165755
0.06150990
-0.11885638
0.05107581
0.12753616
0.19229911
0.27968368
-0.05117178
-0.05735440
-0.08412357
0.03592192
-0.07538560
-0.01926408
0.05282686
0.05991508
-0.07592896
0.54358256
-0.43845186
0.04617910
0.03953413
0.16136909
-0.04398970
0.42346361
-0.05249826
0.06605847
0.07126006
-0.04630544
0.02367297
0.01821193
0.04620942
-0.04576967
0.36283636
-0.55261838
0.01357306
0.04600841
-0.03604721
-0.13115706
-0.14525931
-0.03073940
-0.00019933
0.70072728
-0.07706834
0.31160802
-0.00324484
-0.13920504
-0.05175116
0.24643107
-0.63643986
-0.03837826
0.18005815
0.04243773
0.06000104
0.07617626
-0.18338902
-0.04842211
0.04699312
0.09690319
-0.15580174
-0.08149362
-0.06656502
-0.00378742
0.06235414
0.25220323
0.05258990
-0.06988502
0.04186893
-0.02466638
-0.04581901
0.37871689
0.06656571
0.28705537
-0.07992228
-0.04468788
0.05134306
-0.07012045
0.08501462
0.05824725
0.05973715
-0.04725769
-0.01464569
-0.14783707
-0.07411245
0.24795234
-0.03854105
-0.14669256
-0.01488824
-0.05771376
-0.06842770
-0.00772707
-0.04214049
0.15354247
-0.05372489
-0.07651369
-0.01085476
0.00627109
0.77664578
-0.03432637
-0.40876722
-0.03938147
-0.04625271
-0.03660541
-0.04706603
-0.11442061
-0.02849837
0.15559350
0.26976758
0.07641011
-0.05561110
0.08580948
-0.06201221
-0.11092632
-0.04336574
0.04443793
0.13286890
-0.00927558
-0.03923465
0.17953074
-0.21031098
0.01934217
0.11434990
0.16667238
-0.08319601
-0.07981062
-0.07814729
0.00269951
-0.06443575
-0.10286288
-0.10413457
0.27351996
-0.07148251
-0.35468385
-0.73403043
-0.13409795
0.08921931
-0.06853720
-0.08154592
-0.50723010
0.41039288
0.12957101
-0.01582136
0.17901999
0.65800560
-0.04554026
-0.01409118
-0.02047646
-0.08633725
0.50071567
-0.05936087
-0.08253600
0.25288314
-0.17718226
-0.06041645
-0.03799449
-0.39230886
-0.05622810
-0.00299191
0.04322939
-0.34531680
-0.04635292
-0.04842774
-0.04906481
0.10083126
0.47102931
-0.05239477
0.27345750
-0.01979920
-0.01232395
-0.06388821
0.31261688
-0.02068775
0.29682139
-0.06985614
0.08628784
0.01623950
-0.05782838
-0.02466954
-0.05132222
-0.05895816
-0.04026331
-0.02562085
-0.04058152
-0.07127612
-0.25310397
-0.07913153
-0.22946848
-0.04962341
-0.02071171
-0.03696119
0.01184149
-0.04098702
-0.46263057
-0.08603669
-0.07868550
0.22569288
0.77642560
-0.15220115
-0.15303145
1.08752048
-0.03145724
-0.07561623
-0.08625252
-0.01019445
0.73694074
-0.01267816
0.31983557
-0.21401553
0.34924164
-0.07049253
-0.15443458
-0.05462953
-0.08303691
-0.04541897
0.21413271
-0.02263690
-0.01736674
-0.06506826
0.27383024
-0.05507357
0.00689478
0.70655584
-0.02918710
-0.07087777
-0.44653267
0.26375219
0.02059285
-0.00683138
-0.09558391
-0.03575081
-0.98135859
-0.05105171
0.15685064
0.63433564
0.26164770
0.09094497
-0.33365732
-0.06242436
1.02961087
0.27394128
0.37724277
-0.02650583
0.67862201
-0.46776524
0.83454442
0.00132017
-0.07680545
-0.04801306
-0.11008101
-0.64137071
-0.08915420
0.38675097
0.00116150
-0.08443354
-0.00376419
-0.75165927
0.13882640
-0.03359135
0.02599859
0.36960396
-0.06994554
-0.05222884
-0.07535155
-0.19531782
-1.30390489
-0.03755511
-0.92522264
-0.02466238
-0.46883854
-0.06750592
-0.04307666
-0.03083373
-0.81044126
-0.07035730
-0.06070608
-0.15176588
-0.06544510
-0.01880153
-0.01966490
-0.05528536
-0.03369365
-0.01311318
-0.23605652
-0.06487705
-0.24258924
-0.06429879
1.23731244
-0.01509362
-0.01423304
-0.06211178
-0.01064521
-0.07021341
-0.51628363
-0.05472620
-0.07422716
0.12158980
1.49569607
-0.89074010
-0.33118629
0.44996566
-0.03834240
-0.05561960
-0.08037748
-0.01417404
-0.86799592
-0.03973629
-0.47139430
1.45958567
-0.13936685
-0.05260026
-0.55861402
-0.05855882
-0.15735871
-0.03451144
-0.09627515
-0.17351536
-0.01593995
-0.13746463
0.45797166
-0.39987275
0.00116412
0.59623772
-0.06508783
-0.33111387
-0.20523666
0.26196826
-0.02690159
-0.05192288
-0.05437271
-0.10666454
-1.20302427
-0.05879052
-0.74038285
0.69380277
0.24964722
-0.66644448
-0.41080251
-0.04595659
0.53052610
-0.46553567
-0.46008730
-0.02727764
0.70675492
0.54201710
0.01653594
-0.03224688
0.45342448
-0.07123304
-0.20010100
-0.92783630
-0.08141460
0.36558786
-0.00040222
-0.49375319
-0.02134819
-0.97656620
-1.11614490
-0.03553261
-0.13801502
0.92077190
-0.06580971
-0.07639872
-0.06063699
-0.35062236
-1.11009681
-0.02890356
0.11841596
-0.04870423
-0.09031322
-0.08011369
-0.37904397
-0.05962801
-0.65720737
-0.07227904
-0.07065955
0.02963456
-0.08525651
-0.04847721
-0.04348141
-0.07145874
-0.07871220
-0.02748497
1.27014685
-0.04372372
-0.60490215
-0.04980957
0.30789110
-0.03041334
-0.12245517
-0.03381138
0.01226562
-0.03571891
0.57095498
-0.03443721
-0.03701950
0.20674168
-0.04217560
0.34839064
-0.38548967
-0.18276183
-0.03462746
-0.28975046
-0.06660892
-0.02304231
-0.04991079
-0.03731136
-0.32272616
0.34050786
0.04041412
-0.08801344
-0.15363321
-0.06734589
-0.04605756
0.04284777
0.19388802
-0.17834517
-0.00810314
-0.25608048
0.43457261
0.77081352
-0.04310683
-0.18815474
-0.61118990
-0.35915938
0.07676791
0.34116337
-0.02410430
0.01772439
-0.03974254
-0.50002348
-0.51743436
-0.03993719
-0.10987996
1.10434508
0.05231500
-0.48382142
0.12605992
-0.07506131
0.59387708
-0.02622415
-0.43718141
-0.01268752
0.54531568
0.52230912
0.03766036
-0.04945696
-0.09996018
-0.21241124
-0.14756308
0.09220628
-0.06976239
0.84695303
-0.00708593
-1.13990772
0.00197082
-0.47634041
0.20952006
-0.04168364
0.20777015
-0.71897107
-0.08661623
-0.06320603
-0.03132292
-0.31706080
0.76359338
-0.07392810
-0.11271443
-0.07647648
-0.57223648
-0.05954116
0.25176281
-0.04420550
1.18157673
-0.05578976
-0.05978894
0.01625148
-0.03148356
-0.04511658
-0.05705374
-0.04348007
-0.05254447
-0.02582615
1.50724578
-0.03367754
0.32371539
-0.05082666
0.85004973
-0.02712088
-0.19983824
-0.03786204
-0.02577924
-0.03480716
0.22062555
-0.07655425
-0.05640761
0.80240893
-0.21451160
0.01310696
-0.37577987
-0.78475875
-0.07029672
0.18512046
-0.03452012
-0.02200557
-0.49856818
-0.01564792
-0.37163946
-1.03337610
-0.20325010
-0.07197303
0.35783070
-0.04224650
-0.20199132
-0.04497873
-0.05134763
0.36929697
0.00352729
-0.97532606
-0.42547816
-0.06695972
-0.00336103
-0.29857466
-0.76489955
-0.07921284
0.44756308
0.18626264
-0.03577049
-0.04202306
-0.04832523
0.13584825
0.40649191
-0.06118754
-1.15254939
-0.28539997
1.50320625
-0.53502345
0.07686219
-0.04670353
-0.24093364
-0.20932645
-1.00427699
-0.00416945
0.68417436
0.99114579
0.13450256
-0.05978658
0.47228760
-0.26743433
-0.37268129
0.09344037
-0.03351556
-0.56818312
-0.03413951
0.45382950
0.01089356
0.23624040
-0.01973697
-0.05454840
0.54152101
-1.50742841
-0.07169744
-0.08228491
-0.05120672
1.23251975
0.76723748
-0.08350116
-0.17735049
-0.03394078
-0.86739331
-0.08238515
-0.25351194
-0.02665569
-0.14038420
-0.05204640
-0.06465120
0.09472943
-0.04136763
-0.06122817
-0.03819177
-0.07043169
-0.05527450
-0.02337132
0.54111224
-0.06520947
0.22668818
-0.05785273
0.42207783
-0.02129201
0.51814002
-0.03807198
-0.04736019
-0.03430705
-0.48070556
-0.06301673
-0.06531844
0.23011822
0.63553512
-0.60348427
-0.56550860
-1.01693153
-0.05715409
-0.54202944
-0.07659212
-0.04714921
0.13109672
-0.01594057
0.43141609
-1.38099849
-0.20055065
-0.19420837
-0.05230682
-0.08833268
0.47634202
-0.05605404
-0.64187938
-0.58646059
-0.05645420
-0.94165289
-0.14963619
0.84321010
-0.04775305
0.41103846
0.09200414
-0.24779157
-0.97385043
0.19295703
-0.02744246
-0.02377346
-0.08287999
0.05699050
0.47128764
-0.03572163
0.15237610
0.00394437
-0.21207191
-0.66397560
-0.83582866
-0.03164325
0.16749033
-0.29244488
-0.42524207
-0.05748168
-0.42100936
0.69752443
0.30407557
-0.06459537
0.13580219
-0.10050362
-1.31279624
0.41177025
-0.03167963
0.93583375
-0.10538570
0.71724731
-0.02154382
0.19546632
-0.24472275
-0.09728577
-0.46672478
-1.43424904
-0.05005243
-0.03158827
-0.06246683
0.45070881
0.59156001
-0.00713854
-0.06789865
-0.04280578
-0.18137698
-0.05445439
-0.07667763
-0.03116429
-0.18518354
-0.04111541
0.05184862
0.10743469
-0.07173003
-0.01661251
-0.10111367
-0.05037853
-0.07599191
-0.07517287
0.47481540
0.01605791
-0.39591607
-0.04241459
0.47106257
-0.00352808
-0.74813032
-0.08859283
-0.06296626
-0.03705691
0.15534791
-0.05237621
-0.07501310
0.19158092
0.57399637
-0.38886839
-0.25434148
-0.83670610
-0.06205636
-0.20955864
0.07704688
-0.03851169
0.24222119
-0.03825642
-0.20261078
-1.09796023
-0.18216388
-0.00925763
-0.07481340
-0.07341589
0.27137840
-0.05581052
-0.78105980
0.67055798
-0.02674748
0.12957138
-0.92574769
0.25595766
-0.02748616
0.69028151
0.25651687
-0.17310953
-0.05911316
-0.63242602
0.02812146
-0.02574993
-0.03433314
-0.27716795
0.28116110
-0.05977860
-0.17121287
-0.31572071
0.18451194
-0.35903126
-1.23898876
-0.06166054
0.18846039
0.29669920
-0.42015150
-0.05409726
-0.32210463
0.80326104
-0.09188680
-0.07211699
-0.47171646
-0.15408580
-0.41531882
0.26906064
-0.08780455
-0.17010696
-0.08606473
0.31328571
-0.04724306
0.36759758
-0.18817657
-0.06127255
-0.16187203
0.02240396
-0.08563216
-0.06442145
-0.05422365
0.40859556
0.25708663
-0.00316842
0.46943438
-0.01994334
-0.90974939
-0.07962731
-0.37841403
-0.05490150
-0.01305460
-0.06618415
-0.04475939
0.42390609
-0.04658439
-0.02572141
-0.07277718
-0.06808160
-0.04348641
-0.09262458
0.17308903
-0.03109362
-0.82794183
-0.05754866
0.37537438
-0.01667397
-0.74850154
-0.05137103
-0.03775151
-0.06944294
0.23057991
-0.05413565
-0.04165896
-0.50973231
0.74124765
-0.09441543
-0.49610516
-0.76543045
-0.00600092
-0.38357985
-0.04631378
-0.04688996
0.49348885
-0.01749247
-0.74032909
-1.29617572
-0.19308695
-0.10897342
0.60298365
-0.04109855
0.29080644
-0.08797914
-0.77785200
0.39226583
-0.02764204
-0.38457465
-0.35539255
-0.29391453
-0.02308443
1.37287486
-1.89227843
-0.24705528
0.18151036
-0.33339325
-0.03070530
-0.06221005
-0.04101472
-0.74090308
0.41142723
-0.04044083
0.40320891
-0.16831297
-0.11231290
0.21161494
-0.78019190
-0.04568670
-0.16312972
-0.18407212
-0.40039060
-0.02548685
-0.04673318
0.20710814
-0.06163460
-0.08380331
0.00603088
-0.84019357
0.66873306
-0.08042161
-0.05276431
-0.40247956
-0.03448032
0.26729628
-0.04244459
0.80367422
-0.58330160
-0.01889847
0.00843285
-0.00339361
-0.05787914
0.01525177
-0.06133124
0.01305903
-0.34963363
-0.06024572
-0.35335973
-0.05592968
-0.60054487
-0.07991856
0.66122305
-0.03930414
-0.04385923
-0.03494571
-0.07626802
-0.04516547
-0.01079197
-0.05513562
-0.04940761
-0.07319507
-0.06831833
-0.08031379
-0.15321141
-0.07802501
-1.00991905
-0.04878320
-0.22525094
-0.03401248
-0.22328627
-0.05192598
-0.00666942
-0.05549504
0.81397921
-0.45667922
-0.02148633
-0.48433900
0.62227190
0.74217689
-0.28641185
-0.78689313
0.02354146
-0.35978195
-0.06173146
-0.06238239
0.15011252
-0.02894042
-0.55757183
-1.81961465
-0.11598074
-0.09527554
-0.01809465
-0.08465835
0.17605741
-0.05877598
-1.14350629
0.30840930
-0.04391597
-0.12936276
0.01708795
-0.55724782
-0.08822091
0.91383189
-0.03636267
-0.25870258
0.46275181
-0.15549223
0.00482400
-0.06709055
-0.01693733
0.12924957
0.34938571
0.05489761
0.56962270
0.51399958
-0.06950078
1.05786085
0.18317845
-0.06071193
-0.18122521
-0.04622571
-0.76507908
-0.03661451
0.40139505
0.29087362
-0.24567366
-0.05978714
0.25003606
-0.58030432
-0.13105804
-0.40264744
-0.03235593
0.13275817
-0.08821319
-0.45770654
0.00189990
-0.06834672
0.24007055
-0.00906943
-0.12139343
0.88599104
-0.07225006
-0.04867630
-0.04434224
-0.90533674
-0.02148936
-0.04545618
-0.90764618
-0.05945123
0.32766059
-0.07894056
0.85561848
-0.09343226
-0.50578851
-0.07489238
-0.08334219
-0.06378637
-0.05250464
-0.06477650
0.00941404
-0.03429915
-0.06165084
-0.04507891
-0.20572054
-0.00335026
0.93233883
-0.08868371
0.17099965
-0.03469031
-0.10231289
-0.03657578
-0.05151204
-0.05043630
0.63987547
-0.17396432
0.00386371
0.10531229
-0.77266520
0.72916341
-0.18589714
-0.54754299
-0.02580551
0.29698962
-0.05566275
-0.08861848
1.26275170
-0.03566430
0.10823015
-1.68292379
-0.01528626
-0.07175039
-1.11161137
-0.07650015
-0.95597523
-0.03135305
-0.53791314
0.77016532
-0.01102486
0.05078120
-0.46000838
1.00431406
-0.08361600
-0.09922566
-0.30289820
-0.17780580
0.91200739
-0.19194001
-0.04335765
-0.03731223
-0.01414276
-0.03491445
1.13193727
-0.04743402
0.17957756
-1.00879896
-1.31024694
1.32156503
0.14679059
-0.08266044
0.35154364
0.36846107
-0.36167282
-0.06462403
-0.49380147
-0.08234910
-0.13392170
-0.01854551
0.20478117
0.04950448
-0.71333915
0.55024284
-0.08296300
-0.79889417
-0.04215501
-0.02389653
-0.03065168
0.09023573
0.84204984
0.01106031
-0.05327110
0.74942559
-0.06346241
-0.04704094
-0.03642061
-0.25923648
-0.27178717
-0.04627704
0.28694773
-0.02648514
-0.22178917
-0.06673101
-1.20565581
-0.07642735
-0.25667384
-0.06142761
-0.06597448
0.18964291
-0.05058837
-0.05114283
0.06926794
-0.09624465
-0.03190677
-0.06258749
0.14754252
-0.07220118
-0.13869685
-0.05177968
1.28094602
-0.01321670
-0.02240760
-0.07320929
-0.06635828
-0.06027430
0.17609721
-0.04044595
0.01763574
-0.68581337
0.00428571
-0.78819364
-0.22305356
0.31215844
-0.04464001
-0.03349086
-0.05963819
-0.06588881
0.39726660
-0.05680180
-0.22911070
0.12450325
-0.05209782
-0.06366574
0.02630358
-0.08815072
-0.03264761
-0.03177926
0.28528303
0.66169471
-0.03804446
0.10329909
-0.45108089
0.27808180
-0.04295738
0.28724799
-0.23262523
-0.09443247
0.35517079
-0.04509708
-0.07559248
-0.07292672
-0.02606547
0.01081621
-0.26863521
-0.03923415
0.39991650
-0.16641936
-0.23845690
0.85049278
0.86439115
-0.05588356
0.18383816
0.42438212
-0.42313927
-0.02828246
0.15758289
-0.50954491
-0.03964874
0.06247556
-0.09647635
-0.06986529
0.37464556
0.37430942
-0.04140059
0.11055175
-0.08203965
0.85058594
-0.01409272
0.37525320
-0.02137665
-0.01969702
-0.02439485
-0.25833169
-0.08017010
-0.07174545
-0.02802549
-0.36902568
-0.45228684
-0.05446876
0.18075420
-0.02273620
-0.58317310
-0.03439624
-0.60573965
-0.05106839
-0.46368027
-0.04013604
-0.08342472
-0.07255886
-0.06264353
-0.01407717
-0.02113033
-0.01310337
-0.07219595
-0.04464666
-0.08990314
-0.05108062
0.02585545
-0.07809944
-0.07763647
-0.05717111
-0.04321110
-0.07404091
-0.04583931
-0.07184029
0.05465481
-0.05439990
0.02816158
0.29863471
0.62024927
0.07397798
0.08560997
-0.01630188
-0.01981840
-0.03551326
-0.05623790
-0.05719274
0.14280574
-0.03388992
0.08007243
0.40913799
-0.03248754
-0.08811507
0.07219429
-0.03658536
-0.02721225
-0.06695405
0.68280870
0.09798462
-0.02560110
-0.63382065
-0.02932969
0.40533394
-0.06369167
-0.07306159
-0.00079372
-0.06464469
-0.03548512
0.08412454
-0.04606982
-0.02691446
-0.06642486
-0.01837025
0.05464534
-0.03254907
-0.08388370
-0.08883772
-0.00344551
-0.06450140
0.25885677
-0.04062642
-0.46164402
-0.06433174
0.12174839
-0.04116775
-0.21021086
0.30041870
-0.14084718
-0.01246834
-0.05832442
-0.03506889
-0.27047941
-0.22453442
-0.08386230
0.58486879
-0.06203764
-0.23696679
-0.06730238
0.43600944
0.40244368
0.01418467
-0.05250435
0.14606398
-0.03488542
-0.04094733
-0.03708326
-0.15260565
-0.04937824
-0.04651153
-0.00897912
-0.04707832
0.15665561
-0.08072775
-0.04842586
-0.07790741
-0.00943261
-0.06582776
-0.06964684
-0.03644929
-0.05666760
-0.06330050
-0.01510740
-0.04743628
-0.05983724
-0.03455174
-0.03596915
-0.08271241
-0.09584806
-0.05286459
0.50343090
-0.02013811
-0.00398357
-0.05576517
-0.01018650
-0.05810100
0.01062051
-0.05561668
-0.03482504
-0.01856356
0.00368931
-0.38001859
-0.07031509
0.38485876
-0.07663903
-0.06765319
-0.03905618
-0.05099653
-0.06047165
-0.02236272
-0.06048544
0.44203767
-0.04684705
-0.07687539
0.02233150
-0.07409395
-0.01908914
-0.03783838
0.37630147
0.05948534
-0.04783146
-0.14329043
0.06182881
-0.03276242
-0.06365370
-0.07970586
-0.01118146
-0.07633540
-0.05650504
-0.06067170
-0.04940015
-0.05134420
-0.07142516
-0.03443598
-0.07600702
-0.04808172
-0.05852140
-0.05681328
0.49881169
-0.01102235
0.02648060
-0.04665479
0.36235249
-0.12220919
0.26643085
-0.07100627
0.04627569
-0.25005624
0.26689538
-0.07217237
-0.09580466
-0.04285413
-0.03040342
0.06594450
-0.08045169
-0.21325245
-0.04070149
0.50182551
-0.06258320
0.25303999
0.21567900
-0.05590679
-0.03371007
-0.07732198
-0.04993351
-0.08747106
-0.07537727
0.00297793
-0.04253042
-0.04145438
-0.07006171
-0.04630198
0.02612891
-0.04949978
-0.00748595
-0.02215533
0.53376478
-0.03321606
-0.05448538
0.06007811
-0.05394504
-0.04292283
-0.05429999
-0.02533605
0.04434278
-0.06786903
-0.02852920
0.02312961
0.56341010
-0.07561674
-0.44976911
0.04817041
0.03007379
-0.05776181
0.03375626
-0.06883961
-0.04719152
-0.07298001
0.02519860
0.03866703
0.01058040
0.02141851
-0.08320505
-0.04606239
-0.02911567
-0.04600352
-0.04694115
0.09501764
-0.11025862
0.04187799
-0.33104575
0.47471708
0.07599530
-0.03806259
-0.04237994
-0.06316438
-0.08901282
-0.06192491
0.03703875
0.00217777
0.03762468
-0.04680389
-0.17260200
-0.18022104
0.07996038
0.18822639
0.08577103
-0.06416409
0.40072981
-0.03448959
0.05756954
0.03033369
-0.05311567
-0.00873283
0.04893614
0.02480815
-0.28255281
-0.31481069
0.16344585
-0.12409715
-0.07232791
-0.06406357
-0.08256220
-0.05882276
-0.11115560
-0.02678476
0.19442379
0.73594749
0.36479107
-0.03677486
0.12974341
-0.08206241
0.77216101
0.13037875
-0.08708572
0.11930316
0.07625867
-0.11177809
0.00812825
0.10230450
-0.00376659
0.01259712
0.06204952
-0.14955468
-0.08474812
-0.03366246
-0.00090602
0.02079531
-0.04663644
0.10963376
-0.21714070
0.07836119
-0.15840025
-0.08170962
-0.21661170
0.05709770
0.08008210
-0.06473766
-0.05743720
0.05688873
-0.03052232
0.04013306
0.04560336
-0.01195955
-0.03941816
-0.06454588
0.20249312
-0.02606755
0.33523118
-0.03928568
-0.07084031
-0.00626358
-0.03919220
-0.05501362
-0.03329457
-0.04261072
-0.16237098
-0.08270039
-0.05558928
-0.14841194
0.64048404
0.15964626
-0.04399675
0.04259932
-0.03905617
-0.05996500
-0.04311229
-0.05448944
-0.17090948
-0.02096217
0.51277328
1.07204056
0.11125951
-0.04982904
-0.10252038
-0.03579835
-0.41841719
-0.04825168
0.31023046
0.04853995
-0.03917146
0.02443919
0.62180704
-0.01677683
0.03497842
-0.12334493
0.37129882
-0.06047795
0.12557998
-0.07480716
-0.03988691
-0.03109053
-0.08304010
-0.06791475
-0.34013397
-0.05610541
-0.44539562
0.03595563
-0.23626114
-0.07959709
-0.13530876
-0.04406419
-0.60285538
-0.03880187
0.28100860
0.00913345
0.37125418
0.30790642
0.27356485
-0.06793383
0.03207261
-0.06186738
0.69086915
-0.71668380
-0.04105930
0.58718282
-0.07929923
-0.15433845
-0.06199580
-0.66587973
-0.05038751
-0.03439530
0.01083531
0.11535764
-0.07794061
-0.07745482
-0.05362539
0.10153062
0.08379652
-0.03825842
-0.32551184
-0.01184806
-0.13015762
-0.06025030
0.81534547
-0.06142947
-0.46978846
-0.08060262
0.07791957
-0.00067064
-0.04943573
-0.04902856
-0.00160691
-0.03206500
-0.04536732
-0.05688100
0.30195820
-0.04285832
0.11801889
-0.04822930
-0.70195431
0.01258856
-0.06789500
-0.05052952
-0.04032664
-0.06720868
-0.37533027
-0.03226057
-0.06891081
0.07009248
0.08473457
0.54309320
-0.31744972
0.88225371
-0.04142760
-0.07793351
-0.04638155
0.00470293
-0.14859888
-0.05692912
0.25279287
1.29743648
-0.52862263
-0.06746792
-0.05990588
-0.08393332
-0.61655754
-0.06791929
0.62131184
-0.07384347
-0.05648752
-0.06529248
0.29136857
0.73675722
-0.00485932
-0.60447353
-0.42867032
-0.06417635
-0.04962518
0.20764655
0.02012876
-0.00985072
-0.04356013
-0.06614370
-0.74287689
-0.03287666
-0.44060570
0.60975671
-0.00894195
-0.38091519
-0.18660314
-0.03222274
0.74375695
-0.20042217
0.14162678
-0.03886870
0.21965964
-0.55529261
0.88512897
-0.01969180
-0.03508908
-0.05859292
0.48702890
-0.30125767
-0.06925523
0.58892477
-0.09073246
-0.36963639
-0.05204018
-1.52247560
0.03269950
-0.04197703
0.03392341
0.27678394
-0.06543136
-0.05881605
-0.06715362
-0.46665439
-0.53522658
-0.07807785
-0.64822006
-0.03658801
-0.21832933
-0.08619803
0.62032086
-0.03380570
-0.57802731
-0.05631617
-0.07401534
0.03279417
-0.06585072
-0.04483141
-0.00212721
-0.05476541
-0.06618996
-0.04616591
0.42421660
-0.07596685
0.37376106
-0.03980107
0.22258586
-0.03512923
-0.07081789
-0.07727805
0.00499289
-0.07063583
0.05093865
-0.04982667
-0.06045557
0.72732061
0.15976027
-0.17705552
-0.20194161
0.65142572
-0.06596890
-0.31154883
-0.07356276
-0.03322170
-0.88519675
-0.03955898
-0.82842624
0.53772181
-0.07272938
-0.05868030
-0.36765057
-0.08068284
-0.82213575
-0.03714229
0.20792836
-0.22645269
-0.05626941
-0.28407884
0.71899444
0.23276356
-0.03147922
0.32053286
-0.22451717
-0.52446884
-0.02577450
0.09038538
-0.04063678
-0.05174325
-0.02563472
-0.09387176
-0.96877855
-0.05406296
0.06807294
1.10495460
0.20153041
0.00835088
-0.42591956
-0.07451130
0.22782144
-0.52714336
0.04719598
-0.04447905
0.25615597
0.12980571
0.78261757
-0.01659300
0.03740977
-0.06723508
-0.27566507
0.07302696
-0.03827557
-0.61456835
-0.02724679
-0.96074289
-0.01431581
-1.23025572
-0.59275162
-0.02198444
-0.01313297
0.16921437
-0.05695428
-0.07084507
-0.06398344
0.25767916
-1.41344976
-0.04928397
-0.67912561
-0.04613339
-0.18732315
-0.04276628
-0.31147292
-0.08947969
-0.42054749
-0.04898878
-0.07232457
-0.49149579
-0.06953870
-0.05947933
-0.04912606
-0.03554030
-0.08245962
-0.05639595
1.27145493
-0.05434336
1.52634668
-0.05412037
0.35785180
-0.00618924
-0.06561913
-0.05506662
0.00412890
-0.08433604
0.55518413
-0.06693635
-0.06042073
-0.86195916
0.16070785
0.33372986
-0.44448289
0.80002373
-0.04932993
-0.02762392
-0.05708548
-0.01773624
-0.63856679
-0.04579627
-0.60873991
0.57078820
0.18768866
-0.14658700
-0.15554376
-0.04591810
0.21483937
-0.04880206
0.18351945
-0.58431333
-0.02386754
-0.29232171
0.77429724
-0.39640746
-0.08004480
0.02910579
-0.34191036
-0.36067834
0.55990070
1.48999882
-0.03575630
-0.00671629
-0.01280505
-0.51571876
-0.83620977
-0.08276072
-0.43224558
0.43663800
0.24220927
-0.45123699
-0.41486841
-0.05969609
0.55189157
-0.40608147
-0.62758058
-0.01876338
0.59202665
0.31458914
0.70685619
-0.05817456
-0.64967465
-0.56847721
0.58872217
-0.77884156
-0.06327309
0.05982221
-0.04544061
-0.90215164
-0.02797683
-0.77542406
-0.45478240
-0.04889983
-0.15055513
-1.03104091
-0.08069766
-0.05965628
-0.03219165
-0.13355669
-0.66329402
-0.04437656
-0.50705338
-0.05519362
0.04681426
-0.03399177
-0.07888517
-0.04243881
0.28005427
-0.06447589
-0.04414911
-0.64185482
-0.04486541
-0.06731345
-0.04355637
-0.05194569
-0.07955190
-0.08741614
1.17899048
-0.05987354
0.23996323
-0.04819389
0.38539928
-0.03653632
-0.26934427
-0.07446405
-0.04943894
-0.03628131
0.91616678
-0.16553114
-0.06317391
0.45109299
-0.10758300
0.49504647
-0.18748450
-0.09489042
-0.04751209
-0.68055195
-0.07286528
-0.04311347
-0.25669962
-0.01933476
-1.23583829
-0.66308832
0.17982981
-0.17249599
0.42256963
-0.06358481
-0.12107664
-0.07592646
0.30752310
-0.08788898
-0.04717376
-0.90997624
0.95106173
0.89110351
-0.07765320
-0.48585993
0.07346405
0.06942443
-0.80045283
0.82339346
-0.02435723
-0.03614269
-0.05235885
0.08745229
-0.75765216
-0.07686231
-0.88500851
0.59273249
0.57878107
-0.92239791
-0.14064422
-0.08173280
0.32148278
0.33393434
-0.81651521
-0.07570121
0.97172922
0.59245080
0.77790821
-0.08523621
-0.22509712
-0.45187184
0.02765584
0.09440098
-0.03803768
-0.52509665
-0.07094760
0.67890924
-0.05136776
-0.99986833
0.05712591
-0.08126538
0.21302123
-1.26054680
-0.05900095
-0.05479080
-0.07734960
0.48402527
0.04721464
-0.07341721
0.10361483
-0.08024586
0.01535044
-0.04844635
-0.28789625
-0.05428232
0.87583923
-0.08461602
0.03497014
-0.14654902
-0.07577274
-0.05463115
-0.04715417
-0.06966329
-0.07914843
-0.08087825
0.58543217
-0.08242531
0.02190301
-0.08722384
-0.09109075
-0.05763870
-0.16992931
0.05923371
-0.04530233
-0.04918130
0.38590303
-0.13452201
-0.02315010
-0.28617668
0.13677898
0.08178344
-0.21106185
-0.66615134
-0.01439638
-0.24031824
-0.08637590
0.00776421
0.44899368
-0.06509085
0.35854739
-2.00944996
-0.40593648
-0.08780185
0.48366681
-0.07859713
0.48510078
-0.03766106
-1.20645237
0.65863669
-0.06557591
0.56916678
0.67047948
-0.88412660
-0.06028474
0.71711296
-0.40229124
0.17185812
0.03690708
1.05275452
-0.01054824
-0.02669062
-0.09363098
0.85689598
-0.05742219
-0.03563073
-0.38048774
-1.36909187
0.00020883
-0.29089785
-0.32607594
-0.04000956
-0.02114403
-0.37760201
-0.42769447
-0.04663854
-0.07595808
-0.29232776
0.46416295
-0.06542367
-0.69489068
-0.38972014
-0.35586628
0.66516316
-0.06773811
-1.07652104
-0.16942909
0.67506266
-0.01842506
0.06791155
-0.07325783
-0.05969122
-0.02480158
-1.23872745
-0.05229975
-0.06323783
-0.07833676
0.78847599
0.71553159
-0.01955167
0.40199977
-0.01156175
-0.92868429
-0.06421857
-0.15559927
-0.02341073
1.20426559
-0.03709791
0.06483302
0.50975275
-0.06564640
-0.04348827
-0.09527035
-0.01439442
-0.05350465
-0.06739424
0.74334341
-0.00541952
-0.00015320
-0.05713906
-0.27060381
-0.03794372
-0.29321373
-0.06902042
-0.07113926
-0.06355029
0.24825299
-0.13899875
-0.07667851
0.13979298
0.17475118
-0.03733018
-0.30925670
-1.30532897
-0.07943420
-0.39529499
-0.04140012
-0.01233885
0.20481183
-0.02425987
0.14649287
-1.52162862
-0.20393528
-0.05504258
0.57290959
-0.03269668
0.16162634
-0.06930955
-0.33062273
0.68710726
-0.04617548
-0.01615274
-0.48525509
0.65604442
-0.04207132
0.24640362
-1.25678849
-0.25015596
-0.50892240
-0.47931367
-0.02120700
-0.06855652
-0.05045804
-1.36381543
0.93796861
-0.04949032
-0.52656198
0.21753889
0.14784008
-0.05757019
-1.03912389
-0.08543695
-0.24941115
0.12851335
-0.55836296
-0.08123829
-0.01343808
-0.42453006
0.02039035
-0.05651050
0.63768756
-0.61997193
-0.37618452
-0.11669169
-0.04310799
-0.64203125
-0.19276147
0.11983366
-0.05970905
0.19395983
-0.64706540
-0.07692611
-0.65943325
-1.86277044
-0.05679584
-0.03720035
-0.04808532
-0.29089376
0.20874634
0.03511544
0.15011826
-0.01394526
-0.98998684
-0.07855631
-0.48650560
-0.09182452
-0.17107701
-0.07417148
-0.07040960
0.01418820
-0.08911499
-0.03402565
-0.06784029
-0.06137101
-0.07010492
-0.07184231
0.07703073
-0.07214981
-0.61640203
-0.05972219
-0.25506502
-0.01988985
-0.95780981
-0.05731273
-0.04504339
-0.07176726
0.17859247
-0.29010487
-0.06487902
0.27912939
-0.18848394
0.38512406
-0.32045162
-1.26628602
-0.05413485
-0.02035983
-0.05662430
-0.03744997
0.32890660
-0.00704994
0.06122326
-0.55009884
-0.44612840
-0.04238544
0.34121868
-0.04366747
-0.07963569
-0.04968840
-0.12100834
0.93413717
-0.03771570
-0.64264441
0.20357955
-0.19691025
-0.03141246
1.31205440
-1.83973253
-0.23316513
0.95102471
-0.14725979
0.00065462
-0.05087279
-0.06616879
-0.53550798
0.84882778
-0.07340225
-0.08096387
1.22872233
0.27694917
-0.06437552
-1.10896361
-0.05703917
0.04279492
-0.03199946
-0.37311912
-0.04734241
0.20439577
-0.25185090
0.63884282
-0.04300308
1.02366972
-0.42556050
0.64192015
0.28725523
-0.04893588
-0.41498902
0.02024333
0.57312483
-0.05913812
0.46654856
-0.46027926
-0.03417948
-0.09051040
-1.42886674
-0.08092504
0.01962810
-0.03053111
0.17722926
-0.16681233
-0.00152982
-0.43284756
-0.03720700
-1.70050180
-0.05308509
0.15472859
-0.07077926
0.08916422
-0.08727393
-0.05654176
-0.33814499
-0.00600887
-0.06869013
-0.00603407
-0.05891556
-0.02810074
-0.03909914
0.85067654
-0.05632380
-1.17852879
-0.06835983
0.17375447
-0.01124181
-0.30841836
0.06198990
-0.05436992
-0.03800871
0.50123203
0.05478225
-0.02960621
-0.15684281
0.33650637
-0.27931282
0.00085265
-1.87197220
-0.00267904
-0.15223303
-0.06862709
-0.03188292
0.09262842
-0.01626191
0.10089776
-1.20044422
-0.08537455
-0.12110497
0.61962819
-0.08072589
-0.07127935
-0.08122759
-1.26571631
0.47341385
-0.01581863
0.32902119
0.07727098
0.08991102
-0.08186844
0.62191755
0.25061312
-0.31478539
0.46273148
-0.25766641
-0.02751919
-0.03522988
-0.04543962
0.05491288
0.41928157
-0.05445193
-0.60742193
0.72497845
0.11179080
-0.03783892
-0.99736285
-0.07696719
-0.29782358
0.01214991
-0.93462241
-0.05133653
0.96195573
-0.02864480
-0.27808788
-0.03006232
0.24827397
-0.21649940
-0.79312378
0.54223055
-0.06355599
-0.52302790
-0.11920688
-1.45893586
-0.04527206
0.08255598
-0.18708910
-0.01543369
-0.01717513
-0.72438532
-0.06653192
-0.07755994
-0.06224638
-0.72704130
-0.88125181
-0.07700455
-1.12582970
-0.06303875
-2.03706145
0.07808867
0.46866205
-0.09063029
-0.65183014
-0.04291079
-0.04173698
-0.92662579
-0.05064270
-0.02267736
-0.02385693
-0.04933215
-0.06558952
-0.04827875
0.26707336
-0.02325669
0.29388648
-0.08271222
0.23839043
-0.04819263
-0.09416366
-0.05176529
-0.02409523
-0.05366531
1.54806864
-0.20553337
-0.02577091
0.04180735
-0.07016949
-0.11484030
-0.08236089
-1.32001519
-0.06434479
0.11660756
-0.04045728
-0.06714581
-0.10471845
-0.02323399
-1.00021660
-0.79544699
-0.03931990
-0.03804534
-0.07981111
-0.08565874
-0.42740399
0.05364661
-0.72155011
0.07401027
-0.06684632
-0.09785125
0.15301284
-0.06636140
-0.06684508
0.54250598
0.79915148
-0.05318775
1.02407634
-0.06302525
-0.03627041
-0.07546009
-0.07724854
-0.31104389
1.18269432
0.05729422
0.03800879
-0.78918201
0.29516923
0.64950126
-0.32662764
-0.05487750
-0.42292523
-0.13012458
-0.74604177
-0.06605320
0.38428038
-0.24260299
-0.03006630
-0.07034857
0.41940948
0.04787722
-0.11530724
0.20914105
-0.04322306
-1.49555123
-0.08171748
-1.25253844
-0.04478081
-0.30434117
0.89752233
-0.01935243
-0.05568444
-0.05495818
-0.06771482
-0.08819726
-0.02712118
-0.64967340
0.19796033
-0.07782824
-0.50372797
-0.03093246
-2.63490129
-0.07550419
0.13206406
-0.05185410
-0.28438026
-0.04069294
-0.05899513
-0.81788719
-0.05075986
-0.04417041
-0.00122179
-0.04333314
-0.04304254
-0.01318735
-0.30423158
-0.02429941
0.71557617
-0.08159667
-0.13299160
-0.04823824
-0.06548584
-0.08450341
-0.03990245
-0.07927670
-0.14112018
-0.09545457
-0.01990770
0.00107964
-0.95053542
-0.20568345
-0.21456277
-0.81886667
-0.05351890
0.26183605
-0.03522590
-0.02291561
0.04772890
-0.01601431
1.24128640
0.51297665
-0.25635299
0.07239730
-0.46525156
-0.05481011
-0.29773942
-0.03304827
0.31448054
1.41296291
-0.03208175
0.27249324
0.04317863
0.15767629
-0.08943558
-0.24731305
0.44048932
0.06699371
0.70613354
-0.16976540
-0.07213787
-0.04226067
-0.04301724
0.03988549
-0.04665180
-0.04236491
-0.02953401
-0.45773762
-0.76024652
0.40945154
0.92784363
-0.04998821
1.00838768
-0.52455270
1.49368799
-0.05804797
0.33391595
-0.63485360
-0.03245988
0.11097609
1.42114162
-0.08387172
0.38132548
1.46601701
-0.03685851
-1.45274806
-0.06077399
-0.14617775
-0.03257757
-0.59981829
1.02357650
-0.02338767
-0.05149388
-0.10433517
-0.03612996
-0.06947274
-0.06492720
-0.33041504
-0.60314649
-0.02891960
-1.30067837
-0.00905644
-0.96494472
-0.05598450
-0.16417457
-0.05096105
0.43755201
-0.03896273
-0.05007692
0.04042187
-0.05237513
-0.02184610
0.01562380
-0.09407071
-0.05288260
-0.04462533
-0.20180811
-0.02913991
-0.20533954
-0.05249728
-0.18946631
-0.09033214
-0.05175947
-0.06095885
-0.04248732
-0.04583048
0.05664660
-0.04313455
0.00982872
-0.08503857
-0.32794076
-0.27492106
-0.05139103
0.10455334
-0.04632144
-0.03902386
-0.04807065
-0.08625551
-0.05212802
-0.05423821
0.35723042
0.36325693
-0.06172170
-0.05952144
0.05187461
-0.04321605
-0.00601018
-0.07396542
0.49250707
0.52430111
-0.04914389
-0.09328940
0.00475857
-0.01777357
-0.04620168
-0.11797127
-0.47849903
-0.04167156
-0.15679879
0.07656791
-0.05424753
-0.05718438
-0.02197506
-0.02101102
-0.26342145
-0.03014742
-0.30496472
-0.04005390
0.18705772
0.22752436
-0.03000201
-0.07446679
0.28208286
0.16776697
0.30459672
-0.06004919
0.52121103
0.42246708
-0.55582249
-0.00807314
0.03923226
-0.05537153
-0.25789416
0.29549283
-0.08076303
0.12676278
-0.06495729
-0.51465380
-0.06016714
-0.18457517
0.26976258
-0.03831351
-0.05172985
0.01618013
-0.05721213
-0.06940641
-0.04708367
-0.17086917
-0.07271150
-0.04512541
-0.04711463
-0.00254831
-0.24952444
-0.06136521
0.19395217
-0.04980712
0.04433320
-0.05022200
-0.05436538
-0.04261830
-0.07743488
-0.06053737
-0.02457579
-0.06750008
-0.05488111
-0.03665842
0.01961719
-0.05798716
0.00737827
-0.04406285
0.71632439
-0.06204684
-0.00999006
-0.06953207
-0.04495769
-0.06379360
0.01325523
-0.06933174
-0.02998861
-0.16932343
0.02370330
-0.02676207
-0.07139483
-0.07923647
-0.05638934
-0.08891571
-0.03124921
-0.02087977
-0.13191636
-0.06368588
0.18400846
0.08323652
-0.05245529
-0.06654371
-0.04357253
-0.08402603
-0.04660930
-0.04488264
-0.06027432
0.00237318
-0.06625238
-0.01794867
-0.01987554
-0.01100411
-0.03782760
-0.03683010
0.02543714
-0.03842288
0.03563955
-0.08615267
-0.04918019
-0.05805967
-0.07082134
-0.00429929
0.09690639
-0.03762442
-0.53502917
-0.08613896
-0.12990023
0.01510724
-0.07433769
-0.07475045
0.43497232
-0.08045872
0.11093921
-0.04297578
0.15218171
0.43125284
0.01363127
-0.04607061
0.01090650
-0.08376279
-0.00677733
0.44779864
-0.04831983
-0.66833597
-0.04808592
0.44328344
-0.05364120
0.70569664
-0.38035038
-0.02276827
-0.00171152
-0.26694134
-0.04250972
-0.05062377
-0.06967101
0.05107471
-0.00062542
-0.01351809
-0.02254931
-0.07309945
-0.08564818
-0.03517594
-0.10668008
-0.03382344
0.10042565
-0.06077297
-0.04304976
-0.03531981
-0.03590915
-0.03877994
-0.06614500
-0.06115964
-0.00817197
-0.03138582
0.38099003
0.00497204
1.03790677
-0.04423098
0.05969331
0.04100711
-0.05918269
-0.03743988
-0.00248384
0.07567538
0.15613072
-0.08591788
-0.01669113
-0.10602667
0.60512221
0.82633412
-0.04425203
-0.04209785
-0.02736906
-0.05456596
-0.03117207
0.09060904
-0.86617857
0.03291956
-1.08519566
0.54870737
0.06140998
0.06159021
0.07136887
-0.07979667
0.06590508
-0.05835569
-0.09325350
-0.02943798
-0.04450955
-0.05691727
0.04147769
-0.16766427
0.05889991
0.02978443
0.05924933
-0.03200747
0.84186816
-0.08544873
0.07226752
0.00369846
-0.07701717
-0.04651670
0.23164675
-0.02667104
0.09812141
-0.72042471
-0.29017711
-0.19418736
-0.09977490
-0.07206099
-0.35927731
-0.18507951
-0.64522773
-0.02259163
0.20614879
0.36955276
0.81258786
0.00180670
-0.09414327
-0.03123196
0.93266463
-1.03387022
-0.07944100
-0.16012803
0.05860506
-0.05867974
-0.05842943
0.08306000
-0.25538337
-0.00123297
0.06115155
-0.32974234
-0.08747569
-0.07202902
-0.01678646
-0.01477056
-0.04568887
0.06056703
-0.14047426
0.07497089
-0.10498075
-0.05280047
-0.78334832
-0.06982253
0.03919264
-0.03995134
-0.04098126
0.09903602
-0.04459999
-0.02826906
0.07532424
-0.04046338
-0.05471965
-0.02716559
-0.33050314
-0.02227393
0.86361736
-0.06972992
-0.66307372
-0.01674543
-0.04345325
0.05395111
-0.02933775
-0.03519223
-0.21552861
-0.06904379
-0.05117930
-0.29834220
-0.63991129
-0.16772911
0.03949338
1.17688310
-0.06778538
-0.06792887
-0.05638556
-0.02842307
-0.05052311
-0.04973819
-0.20093341
0.95627588
0.30475393
0.06268574
-0.06685422
-0.05292654
-0.42944747
-0.03818519
0.70219916
-0.20684975
-0.05264696
-0.05448091
-0.14100042
-0.06403164
0.00388471
-0.21033424
0.50131172
-0.03841205
0.85077727
-0.08602177
-0.00999556
-0.05554047
-0.06213260
-0.01725120
-0.67896670
-0.07087099
-0.09989244
0.74244571
-0.40798175
-0.08899643
-0.02466269
-0.06710947
-0.37648395
-0.21650448
0.16285084
-0.02211873
-0.20221496
-0.85887724
0.44481820
-0.02680060
0.06982134
-0.03177542
1.13537383
-0.68181676
-0.05188914
0.97935534
-0.02204295
-0.06158611
-0.02963942
-0.30859631
0.21592230
-0.04312248
-0.06833229
0.84145147
-0.04913890
-0.04579242
-0.04016039
-0.08232666
0.25033939
-0.05766620
-0.33847892
-0.01019099
-0.05788574
-0.07100110
-0.12050851
-0.01959218
0.04533606
-0.07835406
-0.05087446
-0.34622937
-0.03407431
-0.03889445
0.02588247
-0.02860157
-0.05483380
-0.02553033
0.20380849
-0.06778254
1.02061296
-0.04169446
-0.98953456
-0.01175271
-0.09181682
-0.03237134
0.00118417
-0.06236726
0.24420027
-0.03318990
-0.07209362
0.23300245
-1.15557003
-0.11476371
-0.31230077
0.88338023
-0.03359585
-0.08916214
-0.08721223
-0.03558213
-0.26760507
-0.02161117
0.31622633
1.44107985
-0.49738330
0.07962317
-0.07809690
-0.07899916
-0.28026408
-0.07081985
1.01308620
0.27524614
-0.02516458
0.05937989
-0.15576398
-0.14257009
-0.06968589
-0.39830646
-0.19725920
-0.09147204
1.45536005
-0.09464028
-0.04988777
-0.01690353
-0.09469642
-0.07208966
-0.05688372
-0.04381166
-0.46111807
0.80356455
-0.56308782
-0.36534318
-0.02506588
-0.04116990
0.97472930
-0.73687196
0.08755010
-0.02392272
-0.04251710
-0.47251117
0.75141478
-0.00895705
-0.06653218
-0.05703251
1.18605113
-0.49219704
-0.03939518
0.39511257
-0.04181389
-1.06290233
-0.04240404
-0.87636882
0.00390054
-0.02398140
-0.02423110
0.36359352
-0.05562162
-0.06426338
-0.06536140
-0.03407582
-0.73550469
-0.08156479
-0.52561784
-0.03764816
0.41679925
0.06324017
0.42952082
-0.08321750
0.11452192
-0.08447432
-0.04445835
-0.00838492
-0.08845239
-0.07991993
0.02100701
-0.06686755
-0.07129186
-0.02344781
-0.95713383
-0.07948900
-0.16314308
-0.03669796
-0.25968811
-0.04688424
0.10130704
-0.04177140
-0.01343597
-0.07328196
-0.22802924
0.06984111
-0.03524127
0.26051432
-1.34337544
0.16463967
-0.35564590
0.46284074
-0.01988288
0.16653508
-0.06045559
-0.03886528
0.46564743
-0.02503707
-0.32892740
0.36479044
-0.19403873
0.03499379
-0.09803718
-0.07992367
0.44680500
-0.04855308
0.03280396
0.32244354
-0.01818946
-0.00030889
0.51411325
-0.67402148
-0.06372558
-0.41393650
0.60692567
-0.28943911
0.05120415
-0.01538687
-0.04333718
0.00037149
-0.05437121
0.16417760
-0.80457461
-0.05387017
0.24819222
1.01320481
0.08670761
-0.19654612
-0.46424496
-0.06123355
0.16778199
-0.76165360
0.19049829
-0.04441705
-0.24581894
-0.49482715
0.94183588
-0.01066137
-0.36252999
-0.32290882
-0.33552817
0.40195012
-0.03475600
-0.53696358
-0.09848803
-0.44237301
-0.05461724
-1.01257491
-0.49876028
-0.03656881
-0.06791297
0.79516757
-0.04293760
-0.05304359
-0.04319334
0.40543008
-0.41989782
-0.02059233
-0.31462431
-0.04735357
0.79775339
0.06880081
1.02449107
-0.08234971
1.33237016
0.03839844
-0.03994043
-0.12588987
-0.08678947
-0.06270936
0.01949103
-0.06031241
-0.09961779
-0.05257014
-0.22081232
-0.08183414
0.55511677
-0.07821164
0.30592898
0.00240050
0.11573195
-0.08846028
0.00885312
-0.06972685
0.08477710
0.05929872
-0.06292789
-0.78500009
-1.25897181
0.29278052
-0.35910845
0.52092791
-0.05025093
-0.37050223
-0.04289927
-0.05006502
-0.59821147
-0.02887012
-1.30735767
0.97798043
-0.05789166
-0.13634017
-0.08062070
-0.08113050
-0.14688638
-0.05404004
0.44441271
0.01700529
-0.04824326
-0.82912207
-0.26471829
-0.76036042
-0.05956437
0.23418450
-0.67413318
-0.47200280
0.30061907
0.67641169
-0.07365253
-0.00722491
-0.04859104
-0.35163346
-0.17029199
-0.08699485
-0.03482452
-0.47353643
-0.05521835
-0.19304474
-0.04055066
-0.05304955
0.49726138
-0.04559452
-0.21388519
-0.06509101
-0.11494219
-0.20162392
1.08196759
-0.04819319
0.12492017
-0.47495231
0.35424578
0.66393036
-0.07054958
-0.97762084
-0.05489450
0.12881663
-0.05275007
-0.48572040
-0.58678699
-0.00354693
-0.10001568
-0.44256818
-0.03347971
-0.03417425
-0.06154441
0.28159383
-0.03684218
-0.06143089
-0.49630007
-0.06507724
0.05572572
-0.08111610
0.22895683
-0.03163987
-0.25340340
-0.06669377
-0.04087737
-0.65878838
-0.05583948
-0.06339076
-0.05459074
-0.04825129
-0.08018351
-0.04786304
0.75458455
-0.06294748
0.98958355
-0.04282727
-0.55861264
-0.05774231
-0.13263464
-0.05027811
-0.04929470
-0.04737471
0.89626497
-0.16193028
-0.04468050
1.05169332
-0.87233829
0.34868887
-0.34814942
1.18974972
-0.06849561
-0.73529792
-0.03926064
-0.04066470
-0.23060530
-0.03112122
-0.64163131
-0.39005259
0.03521920
-0.09837446
0.59869432
-0.07106835
-0.21691085
-0.06562701
0.48425010
0.32217458
-0.06412053
-0.52280241
0.45881394
-0.81687701
-0.02714234
0.38130203
-0.12002846
-0.21589983
-0.13578960
0.73438805
-0.06017230
-0.06497254
-0.04162739
-0.48712340
-0.82021338
-0.04513383
-0.76221603
-0.09184559
-0.57242870
-0.40833080
-0.84072942
-0.07569396
0.03549178
0.15106000
-0.30888978
-0.07394322
-0.65413976
0.84827060
0.63336754
-0.10807718
0.34290981
-0.68089700
0.69300801
1.08218729
-0.05140627
0.00817364
-0.07062572
0.17601226
-0.07018404
-0.56605136
-0.09746335
-0.07404102
0.19426090
-1.02913117
-0.06548868
-0.03132975
-0.07591435
-0.43814152
-0.18860376
-0.05139434
0.24475464
-0.05961061
0.01957140
-0.05748121
-0.30334544
-0.06685707
0.41724864
-0.08392035
-0.03459134
-0.83121842
-0.07712984
-0.05518099
-0.06451061
-0.08997508
-0.02432515
-0.06316897
0.21193452
-0.05411139
0.88139427
-0.07742722
-0.48523062
-0.04697162
-0.23302019
0.04791661
-0.04661603
-0.04981006
-0.03883402
-0.17095120
-0.03905357
0.43079367
-0.65620559
0.04837433
-0.63106769
-0.33445862
0.02015403
0.04654246
-0.07444696
-0.04401626
0.65445364
-0.02135422
0.41664663
-1.16991067
-0.39784232
-0.09354410
1.49186718
-0.04854997
0.12628649
-0.03142815
-0.05739420
0.09480136
-0.06416526
-0.19848478
0.61534232
-1.25035441
-0.04837808
0.52053791
-0.03701509
-0.03854444
0.22725686
-0.25275004
-0.03911944
-0.05037989
-0.05643145
0.36620799
0.15493909
-0.05855360
-0.37336418
-0.75600988
0.04738367
-1.28283536
1.10701609
-0.07306454
0.14452036
-0.38956636
-0.74621266
-0.06141880
-0.99535435
0.11140291
0.58991474
-0.03509993
-0.38875526
0.11260288
0.55293584
0.30293113
0.04611861
-0.45574534
-0.07513765
0.27572235
-0.04966057
0.76788628
-0.31624758
-0.06681999
-0.09490346
-0.07217772
-0.03481418
-0.06413246
-0.04111479
0.79009378
-0.44710186
-0.05579955
0.31201595
-0.05480857
-0.67242503
-0.06963385
-0.34849620
-0.03085847
0.34169561
-0.06134116
-0.08331574
0.33058703
-0.05518653
-0.00497895
-0.09385444
-0.03156767
-0.05155703
-0.03213561
1.12002289
-0.03653848
-0.09764954
-0.06951636
-0.21539058
-0.02259899
-0.77072263
-0.04846224
-0.05968508
-0.07941234
-0.26471066
-0.22737859
-0.06223045
0.39494279
-0.48942327
-0.44661829
-0.30600482
-0.70034510
-0.06401341
-0.27393436
-0.08044856
-0.02526662
0.41788548
-0.01085674
0.36818963
-0.71685135
-0.23093700
-0.07186566
0.96944207
-0.03977126
0.90592146
-0.04977952
0.21945624
-0.03410752
-0.04186563
0.52274287
-0.54251868
-0.47374877
-0.05638006
1.25888348
-0.84563619
-0.14325793
0.13049889
-0.30776146
-0.01657043
-0.00948782
-0.07242537
-0.89191896
0.08381506
-0.07754175
0.08629403
0.01239412
-0.57531631
-0.98749286
0.13247825
-0.07351346
-1.03967643
-0.61310160
-0.66011423
-0.07772169
-0.48837063
-0.91819996
-0.18833359
-0.01514576
0.26007515
-0.27976745
0.24013667
0.01757756
-0.07433163
0.37419957
-0.09918516
0.41248646
-0.04205281
1.33691716
-0.83837593
-0.05186887
-0.66486961
-0.81633633
-0.06216480
-0.07312262
-0.08163368
0.41765130
0.55733478
0.06308267
-0.61380798
-0.01951126
-0.76513940
-0.07473613
0.05700460
-0.08273087
0.26359496
-0.05489323
-0.04122417
-0.17605098
-0.05901291
-0.02094809
-0.04533176
-0.04164389
-0.05433510
-0.02835466
0.43284905
-0.06447755
-0.38023940
-0.03420356
-0.06027086
-0.00162957
0.04782383
-0.06233184
-0.01190395
-0.04340940
-0.36918592
-0.15313667
-0.05083792
-0.44518867
-0.01585205
-0.00902625
-0.83714205
-0.36669585
-0.07375830
-0.57029480
-0.05450090
-0.02065271
0.53846544
-0.01599291
-0.23135732
0.37999961
-0.31367320
-0.10695132
-0.68876219
-0.04479447
0.15053274
-0.06536204
-0.26116925
-0.23567659
-0.00981054
-0.10718257
0.15883650
-0.31148717
-0.02174326
-0.15846646
-0.39457598
0.00190876
-0.20115432
-0.52655244
-0.00955260
-0.00088980
-0.01452571
-0.21148100
0.47340989
-0.03903762
-0.43533802
0.93520838
-0.84109098
-0.57162642
0.22199494
-0.04535888
-0.30048269
-0.28511199
-0.67535377
-0.03998299
0.10642724
-1.41446197
0.39820799
-0.03447780
0.61783159
-0.52249748
1.06033635
0.07484072
-0.07034393
-0.03091755
-0.03376288
0.35127392
-0.01108252
0.37842613
0.20010881
-0.02098830
-0.32574663
-1.24485624
-0.04149622
0.00917849
-0.07257622
0.28557006
-0.23619261
-0.00845834
0.27479127
-0.06813674
-1.60755205
-0.07853286
0.56873709
-0.07524367
0.90273035
-0.05066289
-0.06136939
-0.65404207
0.00631446
-0.06497305
0.01339016
-0.04963817
-0.04662294
-0.06217678
0.07957106
-0.04640445
0.54684794
0.03467665
-0.13811424
-0.02317677
0.31612411
-0.04647065
-0.03700391
-0.06711628
-0.05640176
-0.07072567
-0.03246750
0.27833843
-0.55474728
-0.52507859
0.56050956
-1.12568057
0.01918583
-0.13801700
-0.11202819
-0.06251191
1.25491679
-0.02437286
-0.50981975
-0.88211673
-0.17867455
-0.05796737
0.52084398
-0.04548331
0.45520282
0.06970562
-0.34628081
1.00156713
0.00520586
-0.23831463
-0.86554748
0.08197526
-0.03355162
-0.27162454
0.13269256
0.26364583
0.89989251
-0.35033444
-0.01794542
-0.06155825
0.00022388
-0.23637874
1.23550105
-0.05302094
-0.10475922
-0.31165367
-0.48562697
0.47756344
0.00970350
-0.06701085
-0.20037512
0.02517023
-0.59058470
-0.03807170
-0.37622148
-0.94427669
-0.14050341
-0.06038372
0.80013841
-0.06552940
0.40257990
-0.70454347
-0.06763641
-0.84632111
-0.07586332
-0.06970157
-0.01838875
-0.36213389
0.76402706
-0.01729005
-0.01624808
-0.69686198
-0.08503286
-0.07388368
-0.00361303
0.29515156
-0.39787024
-0.06732417
-0.05561804
-0.03904308
-0.77285320
-0.16645963
-0.06171948
-0.05484034
0.59308416
-0.07197700
-0.08516131
-0.15802915
-0.06408402
-0.03297432
-0.02610785
-0.03139202
-0.10180285
-0.05420246
-0.32747546
0.00649812
0.12040344
0.06823711
-0.56213880
-0.07938958
-0.06199588
-0.05220855
-0.03678178
-0.06691233
1.11570477
-0.09505212
-0.02549536
0.33888647
-0.00588637
-0.04514610
-0.75618231
-0.79612780
-0.02120041
-0.36151996
0.05186492
-0.01629407
0.43972829
-0.03820513
0.02967996
0.56657022
-0.14478076
-0.06735718
1.04040658
-0.05875020
-0.10542589
0.05577308
-0.68657476
1.18539917
-0.00604281
0.57481688
0.04611542
-0.42125386
-0.08478185
-0.85116845
1.11425114
-0.09086648
0.41952378
-0.06549731
0.03720446
-0.06292055
-0.02490882
-0.36783591
0.52721590
-0.03816290
0.11517511
0.07297293
-0.21438390
0.64936578
-0.12956838
-0.05229840
0.07396661
-0.13438661
0.45304880
-0.07294847
1.20253670
-0.85542715
-0.62915260
-0.07962770
0.42260572
-0.39565933
-0.31469122
-0.50871730
-0.03109790
-0.68343788
-0.05791167
-0.84369433
-0.05057535
-0.71875089
0.70257348
-0.01734332
-0.07694302
0.49897271
-0.07097186
-0.06039385
-0.05356584
-0.58394486
-0.55494344
-0.04891181
-0.94486904
-0.05431949
-1.74808288
-0.03970503
-0.83942586
-0.06417938
0.77376080
-0.05816094
-0.05604761
-0.01391863
-0.03794859
-0.03801531
-0.02069802
-0.06472611
-0.06015075
-0.06961757
-0.50262511
-0.03649597
-0.33642092
-0.08601443
-0.84151506
-0.05883792
-0.07390181
-0.06894224
-0.09018672
0.03292472
-0.68363881
-0.08894782
0.01116324
0.01817939
-0.89959913
0.55236781
-0.13764265
-0.40107641
-0.02368020
-0.26072371
0.05733765
-0.09492304
-0.69970816
-0.06779558
1.33771944
-0.03961160
-0.18920784
0.08141910
-0.42996433
-0.03535067
0.10658653
-0.05201667
-0.68692082
-0.46176422
-0.08021293
-0.29926270
-0.50643367
-0.06931757
-0.08575839
0.23748398
1.22299886
-0.08797505
0.60726261
-0.17002074
-0.01102240
-0.04707058
-0.08379335
-0.08321465
0.09255053
-0.02469968
0.44995490
-0.45147693
-1.06920362
0.00117697
-0.27326751
-0.08179846
0.14346455
-0.76122576
1.37097871
-0.02490922
0.21223086
0.82955831
-0.83941454
-0.07423601
0.55832946
0.07200986
-0.02334044
1.18684077
-0.05029171
-2.03135419
-0.06725562
-0.98767054
-0.05565436
-0.30450749
0.07355041
-0.05196352
-0.08424072
1.04108024
-0.04002845
-0.07118184
-0.07416906
-0.15381004
-0.10763480
-0.03472799
-0.61053729
-0.04707278
-1.03984380
-0.04656309
-0.18771160
-0.04815831
-1.74193168
-0.04882980
-0.07318728
-0.31180501
-0.07714518
-0.02838610
-0.02475419
-0.06135913
-0.05209356
-0.07638316
-0.10998694
-0.05602928
-0.09694764
-0.07280540
0.41750336
-0.01767717
-0.01945567
-0.05124393
-0.03444738
-0.05380962
0.18480901
0.06070998
-0.00310894
-0.01591559
-0.58658087
0.42934638
-0.07857727
-0.18792060
-0.03220669
-0.08911750
-0.08116157
-0.04209041
-0.19058357
-0.06099326
0.80754018
0.34009153
-0.05714690
-0.05978782
-0.03154839
-0.08242133
-0.04210151
-0.03103677
-0.39916882
0.17650864
-0.06427232
0.00417461
0.40471905
-0.04599808
-0.01702341
-0.14045520
-0.10444926
-0.08192734
0.14333783
-0.08781260
-0.03672979
-0.06157766
-0.06052944
-0.00927765
0.62674457
-0.00692724
-0.49400768
-0.14995013
-0.50369245
0.52316850
-0.15016448
-0.07735338
0.65931398
-0.33366904
0.16363645
0.02042579
0.03698025
0.31757167
-0.16236097
0.00140998
0.08414146
-0.06742139
0.15039948
1.11306310
-0.08556710
-0.58805507
-0.05049715
0.25309891
-0.05477408
0.68386567
-0.43301782
-0.03941524
0.00706747
-0.35106435
-0.04927742
-0.05117185
-0.05902844
-0.18700922
-0.08201504
-0.05967495
-0.54157144
-0.04845847
-0.64293289
-0.07681081
-0.08506675
-0.06755738
-0.39876667
-0.03554998
-0.04521367
-0.08537938
-0.06418014
-0.06395222
-0.07111860
-0.04338991
-0.04844034
-0.03650593
0.00211154
-0.06570473
0.01025833
-0.04203562
-0.00986644
-0.05783778
-0.03891212
-0.03307059
-0.04005332
-0.06538393
0.01354204
-0.07726581
-0.02557527
-0.02921605
0.02367130
0.06907244
-0.08016272
-0.04527098
-0.04838111
-0.03824114
-0.03946093
-0.02477194
-0.02584826
-0.01846254
0.01608776
0.24494767
-0.06933887
-0.03528998
-0.07903823
-0.07872714
-0.05818700
-0.05255613
0.15197200
0.03670824
-0.03203426
0.14463918
-0.01292782
0.19341326
-0.04962257
-0.03130247
0.07233988
-0.08152490
-0.03988393
-0.05336598
-0.00367871
-0.07555111
-0.06657351
-0.02304509
-0.03284419
-0.05283477
0.32327870
-0.02563787
-0.04062617
0.00066874
-0.04962426
-0.05008761
-0.10321296
-0.09861285
0.10977030
-0.04468036
0.16746245
-0.19694661
0.00882594
-0.06210181
0.01256620
-0.08204697
-0.00748485
-0.08795924
-0.05193239
0.07880920
-0.04101860
0.03600377
-0.04239628
-0.00463409
0.05960719
-0.03054625
-0.02784095
0.10486837
-0.05228104
-0.05715562
-0.08451143
0.15800214
0.00273113
-0.02660554
0.08861829
-0.02587061
0.04538367
-0.04125686
-0.17824122
-0.02155985
0.36229467
-0.08570955
-0.03724757
-0.02236954
-0.04562276
-0.03167707
-0.04269100
-0.04343786
0.00009029
-0.05513804
0.20712703
0.02232356
0.66664612
-0.08352579
-0.01669404
0.05870585
-0.05041176
-0.03670734
-0.01573826
-0.03191888
0.36443925
-0.04889957
-0.01896482
-0.15000308
0.14315933
0.59069556
-0.08803254
-0.03214217
-0.02099279
-0.08030817
-0.04936308
0.06841595
0.07067758
0.01868187
-0.49017966
0.33127970
0.03713733
0.06430789
0.07412602
-0.05284369
0.17532663
-0.07651678
-0.20956014
0.08602002
0.02881192
-0.08704481
-0.05967773
-0.06474840
0.08043890
0.05097513
0.00590545
-0.07614872
0.53799516
-0.06314214
0.04066909
-0.00477823
-0.09532103
0.01100182
0.45949557
0.01476585
0.58688778
-0.46921754
0.01762028
-0.20960537
0.03205493
-0.06050726
-0.06947897
-0.11067791
-0.26169181
-0.02106002
0.14486136
-0.33915052
0.49730068
0.01750104
0.16313037
-0.05477021
0.60064381
-0.53054595
-0.07795152
-0.12044299
0.08176917
-0.24296823
-0.00892131
0.16852106
0.15867782
-0.03244849
0.04830712
-0.11482590
-0.07799754
-0.03721340
0.01385286
0.00595426
-0.11958702
0.04589200
0.00902175
0.06971254
-0.16032855
-0.06675126
-0.25411418
-0.03456561
-0.09911638
-0.08176470
-0.07915020
0.05868840
-0.03745678
0.02505070
0.09147838
-0.06484256
-0.06957524
-0.02276307
-0.19103211
-0.06986921
0.21820211
-0.03402789
0.18738879
-0.00153357
-0.05600129
0.03227643
-0.03910306
-0.07868989
-0.20092689
-0.04605515
-0.08028448
-0.20520160
-0.66564238
-0.27194011
-0.27162695
0.37118727
-0.06311171
-0.03999722
-0.07312995
-0.05583356
