-0.01785582
0.10663560
0.03144625
-0.01309102
-0.06195533
0.09214393
0.00064481
0.04072578
-0.04572885
-0.02014939
0.14059967
-0.03323470
0.12982145
0.03801368
-0.06273526
0.07314931
0.09674597
0.06063380
-0.03752339
-0.04466452
0.27975646
0.30236638
0.19467431
0.17463313
-0.17979962
-0.83331102
-0.40560690
0.22136821
-0.02283838
-0.30305642
0.02196513
-0.07670768
0.04615214
-0.07502428
-0.00781883
0.01399922
0.06068060
-0.10978215
-0.01163785
-0.10781179
0.51045668
-0.37131575
0.33627743
-0.41441345
-0.74890780
0.26041007
-0.21924868
0.26779687
-0.31126145
-0.07177328
0.02627735
-0.03225727
-0.04756364
0.05803782
0.11473455
0.03276301
0.01763100
0.03847077
-0.01740291
0.08861217
-0.50048143
0.35470289
-0.20844443
0.49291098
-0.24709757
0.34779686
-0.62631327
-0.16441350
-0.35684383
0.08934177
-0.01501119
0.04137858
-0.01514402
0.03009794
0.05382520
0.03090576
0.02013415
0.12579609
0.14770913
0.11514144
-0.45874646
0.80499446
-0.16494027
-0.01280721
-0.17239244
-0.26101619
0.00013470
0.10759530
-0.46284053
-0.12546933
0.03980502
0.12277874
-0.12663502
0.00246693
0.03213344
-0.04521072
-0.11746805
0.03589226
0.01013154
-0.11444111
0.04971731
0.00182855
0.01873938
0.01758744
-0.01756991
0.00619417
0.04622879
0.06451810
0.14583825
0.03687851
-0.01458150
0.03990920
-0.12829368
-0.00625032
0.01814365
0.11071417
0.01035580
0.14598377
-0.12524626
0.02109898
0.60706013
-0.09098719
0.45213652
-0.52818507
-0.62634093
-0.43278298
-0.17327654
0.19753043
0.05854411
-0.06543139
0.09469667
-0.24630035
-0.17909163
-0.04055253
-0.08742645
-0.06399155
0.22950082
0.05233020
-0.02355655
-0.25707021
-0.05890327
0.03554637
0.02065477
0.00081345
-0.05081964
-0.04528548
-0.03623235
-0.04303181
-0.11476585
0.04342816
0.04638432
0.22861169
0.01662849
-0.15008797
0.07141746
-0.47828707
0.32096076
0.01987089
0.18058757
-0.24942529
-0.51243287
0.08966734
0.26094422
0.28365457
0.21141274
-0.40229216
-0.08578087
0.37207741
-0.33623418
0.04020358
-0.11991064
-0.42658386
0.32943982
-0.16272256
0.03004711
-0.85936481
-0.50353467
0.26644477
0.26909250
0.07421681
0.63463056
0.28106979
-0.06241604
0.05016266
-0.61369765
-0.12962201
0.09927361
-0.40116531
-0.15272562
0.14766988
0.52205920
0.21448611
-0.35840717
-0.35778135
-0.71976084
0.77565813
-0.00628903
0.06575184
-0.52457839
-0.37945569
-0.07194052
-0.05707837
0.06539629
-0.05803628
-0.05433748
0.01805451
-0.10014596
0.03514443
-0.01409134
-0.11284734
-0.02759749
-0.36599120
0.13412732
0.03872073
-0.33246690
-0.09779227
-0.01124949
-0.14874291
0.04928546
-0.12212859
0.04615759
-0.05795284
0.00477152
0.02723905
-0.02668180
-0.09095249
-0.13359433
0.02831964
-0.05903259
0.08580798
-0.04854942
-0.04511660
0.00000430
-0.05571512
-0.08191776
-0.04375681
0.05486487
0.05771564
0.00977979
0.09393894
0.39722049
-1.13727438
-0.19887857
0.00593176
0.02926664
0.08787088
0.17564455
-0.43348977
-0.18883215
0.25668007
-0.04286778
-0.04882805
0.05136266
0.03624183
-0.01949283
-0.08171067
0.04747983
0.05546797
0.07832474
0.00979039
-0.78292900
-0.19335963
0.01859764
-0.46461537
0.15563709
-0.13152814
-0.60782051
-0.11677854
0.50860196
0.12566164
-0.38114497
0.28005692
-0.09531806
-0.47468445
0.32308757
0.29909927
0.38588244
0.40331247
-0.35912174
-0.67658174
0.09007507
-0.28114507
-0.12880993
-0.28075472
-0.10879549
0.03755409
-0.65235889
0.02849285
0.10392836
0.00118949
0.01889245
0.09661143
-0.00469427
0.10043371
0.28347290
-0.01885368
-0.02762497
0.12756367
0.10660907
-0.10331862
-0.29884100
0.41854295
-0.79253215
-0.60562861
-0.39518476
-0.16343144
-0.07775383
0.00564099
0.25807214
0.47495684
0.01698701
0.02703814
0.04293625
0.06703559
-0.03547505
-0.14228231
-0.06477761
-0.03150430
-0.00418700
-0.09146813
-0.30231932
-0.15104827
-0.38952306
0.12694018
0.14490817
-0.12857464
-0.71221948
0.24436748
-0.29997510
0.35982618
-0.03584594
-0.03797378
-0.02890835
0.03035074
-0.11811129
-0.01961844
-0.07686274
-0.03335677
0.09086880
-0.14961445
-0.62625754
-0.08534329
0.19348717
-0.05333383
0.59112942
-0.28441116
0.12530817
-0.64611435
-0.53186435
0.15171841
0.46647090
-0.19774614
0.11581060
-0.24761961
0.27530071
-0.36410606
0.15621845
-1.01403809
-0.01065420
-0.11322919
0.03881101
-0.00855242
0.05979664
0.02565250
-0.05958740
-0.05174851
0.02271794
-0.00197950
0.02152789
0.00783105
0.03154884
0.87500924
-0.75163859
-0.12332609
-0.45694140
0.69146919
-0.39282766
-0.52463579
-0.20074661
-0.18209085
-0.49848577
0.42969713
0.15458246
-0.32957953
-0.13571703
0.26965302
-0.52146834
0.31960559
0.05099865
-0.02456350
-0.16229618
0.44246069
0.56706655
-0.54144943
0.12904491
-0.65964144
-0.37737766
0.27085805
-0.74855196
-0.49573007
-0.01374962
0.06108692
0.03988004
0.05361782
-0.07251225
-0.07881892
0.07370690
0.15735906
0.11987728
-0.05608320
-0.27331033
0.16089994
-0.54376233
0.10160314
-0.10952823
-0.06657403
-0.48273978
-0.15733270
0.42516881
0.44838634
0.02713515
0.19404960
-0.13674681
-0.40582362
0.06121996
-0.11684354
0.69062775
-0.17576335
-0.12199812
-0.41198617
0.26528081
-0.01288576
-0.17008135
0.23189966
-0.57198429
-0.15572597
-0.43264553
-0.09788608
0.10406364
-0.29455665
0.35306782
-0.42387831
-0.60553092
-0.19762269
-0.17928831
-0.16387875
-0.03586083
0.74061406
-0.31731078
-0.25600812
-0.24518602
-0.21040341
0.59886265
0.04776464
-1.29870284
-0.42267114
-0.05909692
0.06382291
0.29387730
-0.46701008
0.11199072
0.16678362
0.04374615
0.04105603
0.00172903
-0.09973533
-0.02599171
0.04880570
0.05715489
0.06004337
0.02706977
-0.04901103
0.08721386
-0.02697134
-0.02190205
0.00841683
0.11471780
0.03305723
-0.02795036
0.13624533
0.11135954
0.07775337
-0.02632459
0.01583583
-0.00919020
0.11715491
0.04404414
-0.07904332
0.12766868
0.13398996
-0.24600561
0.58150429
-0.30900934
-0.29408926
-0.01351731
0.50411457
-0.33781332
0.36242488
-0.55670571
-0.27760881
0.11990348
-0.49513274
0.29584861
0.13910314
-0.48613024
-0.12049264
-0.47736815
-0.02806881
0.15277453
0.10987993
0.13337310
0.10403997
0.09552338
0.00160758
-0.01025994
0.04683753
-0.02247048
0.06201270
0.16268851
0.06157008
0.03628019
-0.43976220
-0.47435147
-0.27518821
-0.00439934
-0.00220969
0.60483038
0.05836520
-0.36800912
0.24504521
-0.71561104
0.23749712
-0.38004249
-0.42760876
0.41666600
-0.12693694
-0.31379721
0.27035165
-0.33570346
-0.15482403
-1.14355910
0.07635500
-0.47588712
0.40930635
0.05513507
0.21136752
-0.60557491
-0.15730296
-0.20624211
0.13339098
0.49549818
-0.02884601
0.33250350
-0.16288519
-0.07688908
-0.50145453
-0.01876873
-0.13735493
-0.43199012
0.01275891
-0.44530788
-0.04816695
-0.17405452
-0.23142317
0.17488265
0.53951603
0.39532304
-0.45432305
0.08290696
-0.38582063
0.00193445
-0.10117031
0.00178464
0.01516929
-0.01874412
-0.07464302
0.03141755
-0.11740980
0.00810383
-0.06182834
0.18408875
-0.59676200
-0.46131927
0.14783694
-0.17698391
0.31247798
-0.01419369
-0.50657940
0.19590046
-0.05953484
-0.31314242
0.17211695
0.53856564
-0.03645868
-0.31882253
0.01194423
-0.17825398
-0.05193746
0.18046851
-0.54038042
-0.12558112
-0.17854555
-0.64650476
-0.57043767
0.16355288
0.30379832
0.15056615
-0.25753102
0.20807256
0.13938716
-0.06422579
-0.05590796
-0.09102380
-0.09528714
-0.03242611
0.05966229
0.00105241
0.01255418
-0.01369610
-0.14034162
-0.99422067
0.16878669
-0.25611886
0.24569488
-0.03957721
-0.49421939
-0.54442000
0.53449476
-0.40756536
-0.00660905
-0.40919796
-0.40311188
0.08751584
0.27225691
-0.30971086
-0.13393587
0.13490988
0.03723205
0.35943615
-0.51989657
0.28400072
-0.51213479
-0.09544156
-0.07892665
-0.59787548
0.40016237
-0.28180918
0.34168732
-0.19311652
-0.06768724
-0.01168383
-0.00806577
0.13602041
-0.06448226
0.01142143
0.07035187
0.05364687
0.00337708
0.02503131
0.02166332
0.65837425
0.07688105
-0.57215881
-0.50556266
-0.17000818
-0.29107144
0.12745723
0.56830549
-0.12879935
-0.06422532
-0.17635600
-0.29780209
0.43464112
0.26528201
-0.37539729
0.02496909
-0.34967664
0.01494734
-0.07046517
-0.00101756
-0.19713736
0.41523686
-0.38445443
-0.41179070
-0.26857418
0.36103022
0.26918516
0.47756907
-0.23652361
-0.41108185
-0.17788504
-0.12342648
0.07714164
-0.04863746
-0.18592535
-0.05352122
-0.37862292
-0.25649029
0.50316161
0.15640296
0.04179146
0.01998175
-0.04910019
0.05528597
-0.00653778
-0.02811636
0.02238542
0.01613239
0.02763302
-0.00267138
-0.05204604
-0.15720119
0.25547159
-0.49795282
0.44176012
-0.26622796
0.16591109
-0.19475083
-0.73450398
0.10925843
-0.10056759
0.17230067
0.04825537
-0.00540364
-0.01676723
-0.03244747
0.06235582
-0.15314321
0.12048408
0.21229720
0.08689035
0.22384053
0.12728490
-0.07770329
-0.32783723
0.52760893
-0.31045952
-0.48367009
-0.00454383
-0.03282447
0.03802251
-0.01718185
0.13231246
0.03934015
-0.03091177
-0.10708360
-0.00131015
-0.01665871
0.02060624
-0.03576920
-0.75323468
0.17825642
-0.38354418
-0.03885199
-0.24129614
0.08324066
-0.96770722
0.13986948
0.22839411
0.38352618
0.32190338
-0.13279577
-0.32555380
0.10816605
-0.52924800
0.03612766
0.54685187
-0.69032860
-0.26963115
-0.80346805
0.08280993
-0.15903544
-0.06201772
0.00480255
0.15848568
0.01486747
-0.06882434
0.06437925
0.09905725
0.04879657
-0.04353566
-0.15088664
0.51749468
0.07661940
0.02758304
-0.21101250
0.04620841
-0.12487467
0.14740598
-0.14102377
0.34611753
-0.08392391
-0.61061549
-0.41589800
-0.34975299
-0.09841485
0.67569602
-0.33738083
0.06581170
-0.54078871
-0.00953483
0.01116021
0.02904296
0.13213621
0.03651150
0.06809805
-0.00620673
0.01305835
-0.09671184
-0.03319662
-0.01740778
-0.02192130
-0.09450442
-0.03108679
-0.15654269
-0.06132894
-0.01922299
0.00731081
-0.09286933
-0.00507993
-0.00868819
-0.08632623
-0.10631668
-0.07083417
-0.01970522
0.05396605
-0.09891345
0.00900096
0.00237245
-0.12457780
-0.92125469
0.50781924
0.10530441
-0.36975554
0.28772739
-1.28626180
-0.60218394
0.61975884
-0.63024271
-0.30130216
-0.15111212
-0.09233011
0.47889540
0.23072225
-0.66965950
-0.42389649
-0.07245386
0.04408074
0.23383063
-0.13119860
0.01285413
0.09264497
0.01569150
-0.03211984
-0.03082862
-0.02037179
-0.03072960
0.05973220
0.01000095
0.16240293
0.00266372
0.46562800
0.34273350
0.11227395
-0.28758273
-0.38921601
0.07302886
-0.28068116
-0.15424004
-0.60060483
0.07937451
0.08763903
0.02970560
0.02795624
-0.04248408
0.01117675
-0.04687865
0.08820806
0.02314025
0.09090292
-0.46717310
-0.67075312
-0.07329046
-0.19283418
-0.74123633
0.41505337
0.35201752
-0.69376475
0.23927961
-0.29438323
0.12194837
0.09019340
-0.01218712
0.01315412
-0.09400361
0.10873590
0.00822698
0.04216420
-0.10021175
0.03566054
-0.05035863
-0.27376285
-0.20109758
-0.23615757
0.48681268
-0.43966320
-0.90731257
0.29698375
-0.81841213
0.26516232
-0.03874043
0.02792086
-0.00477837
0.05090069
-0.13312563
0.08412886
0.09621763
-0.00224364
0.03446822
-0.02670089
-0.74807632
-0.69756603
-0.44993135
-0.24890067
0.29296470
0.10966942
-0.90409863
0.15282343
-0.59959549
0.47829056
-0.00378359
0.01843113
-0.11511598
0.09073159
-0.06771738
0.12373662
0.03704530
0.06884143
-0.15109615
0.00800096
0.00004951
-0.05248724
-0.11741086
-0.04091797
-0.10059275
-0.03411239
-0.11517391
-0.04744686
-0.15347962
-0.08917746
0.17010204
0.00759602
-0.38104403
-0.37619835
0.24990958
0.40684623
-0.01736711
0.36401802
-0.38541567
0.23959111
-0.02033707
-0.01372370
-0.15213031
-0.09788774
-0.01945179
-0.13525985
-0.03345802
-0.09486074
-0.09307209
-0.14717543
-0.01093421
0.11396547
0.06587345
0.04524145
-0.00523947
-0.04743856
0.06885427
0.08129405
0.04377229
-0.00371367
0.09174656
-0.00378835
0.06760129
-0.03728577
0.05119222
0.09811591
0.00883329
0.09823944
-0.01391088
0.09851775
0.08322536
0.10579307
-0.03554288
-0.02049367
-0.01115304
0.13857540
-0.03961894
-0.01286209
0.08606947
-0.01335646
