0.18531223
-0.05043164
-0.25930360
-0.23591861
-0.45043603
-0.12766981
0.34588513
0.41716528
0.12161060
-0.44839332
-0.02037241
0.40454108
0.62160778
0.95383638
0.63390356
-0.00216512
-0.10908855
-0.42534536
-0.29376751
0.33238885
-0.01254408
-0.45824590
0.09174456
0.09302937
-0.00367804
-0.12482391
-0.03661301
0.10808834
0.07523488
-0.39141792
0.14603445
-0.25740099
0.35780138
0.94275570
0.06308796
0.44066191
-0.25475258
-0.92472452
-0.13602859
0.97847700
0.38674334
-0.52130079
-1.16358173
-0.43713447
0.78908169
0.72541249
0.35190740
-0.14419129
0.23479345
-0.32287216
-0.13097110
-0.20385720
0.26759967
0.04677451
-0.13269345
-0.15866497
0.12847254
0.39158407
-0.01210727
-0.19951612
0.22010313
0.95776838
0.33872503
-0.50342751
0.08716609
-0.04498196
0.01275698
-0.21923323
-0.56165326
0.18900020
0.21870160
-0.07041049
-0.40933052
-0.06014568
0.10698235
0.22535607
-0.08925838
0.27840629
0.24833524
0.04476587
-0.07221176
-0.29249397
0.68752259
-0.24782547
-0.11956484
-0.16973528
0.01253019
0.93380123
-0.43327013
-0.03399492
-0.43830493
0.39131811
0.31127056
-0.32339567
-0.07214178
-0.69068986
0.14063595
0.46252307
0.11575703
0.22731104
0.24407949
0.25910193
-0.05814436
-0.45696127
0.30811831
-0.20536141
0.23460816
0.01224239
-0.45383015
-0.03107483
0.06208900
0.61673278
-0.11444563
-0.37185246
-0.39134774
-0.02952625
0.49773479
0.58852881
-0.21953848
-0.27485040
-0.23369990
-0.15981112
0.31797281
0.06099075
0.07166988
-0.50812858
-0.41096142
0.01211249
0.14858547
0.18208666
0.57046139
0.89091408
0.61519891
0.17372271
-0.05034719
0.46353212
-0.33805630
-0.12153915
0.32727858
0.02905878
0.20397073
0.19423567
-0.07378715
-0.10390614
-0.24857438
-0.11690918
0.06547448
-0.10156583
-0.02769287
-0.40503275
