-0.05369385
0.17856355
-1.02802432
0.48590752
-0.08238449
0.53548104
-0.03478522
-0.05110847
-0.08675909
-1.05562699
-0.21719654
-0.41106275
0.09772398
0.11471573
-0.44635779
-0.06323040
-0.53093278
-0.07626453
0.76816243
-0.21752587
0.51147991
-0.24657804
0.52223712
-0.68182546
-0.00635407
-0.00530301
-0.56723183
-0.07791666
-0.79609996
-0.07334176
0.49383897
-0.05029577
0.63629937
0.17673165
0.00328237
0.12307136
-0.31299758
-0.10412265
-0.05907597
-0.04941035
-0.09225721
-0.07382891
0.09581602
-0.07112848
-0.34961233
-0.02071524
-0.05182968
0.64956933
-0.03687063
0.10098949
-0.04545256
0.13205256
0.00828548
-0.35882363
-0.87200224
-0.16341728
0.05262520
-0.50629216
-0.15041533
0.13359693
0.01415702
0.09250970
0.43658295
-0.05047800
-0.67520487
-0.33130041
-0.57593000
-0.03892145
0.02830167
-1.09407496
-0.30210280
-0.59884191
-0.10033680
-0.01548744
-0.07824771
0.49408108
-0.07665151
-0.06593893
-0.91621631
-1.52289367
-0.04284982
-0.32176831
0.17821373
-0.03631269
-1.24274731
-0.05586627
-1.04843915
-0.32124329
0.20741752
0.10642555
-0.38991484
0.01859135
0.00221635
-0.06565095
0.01215788
0.35111636
-0.23701283
-1.29872394
0.03157672
-0.57783055
-0.08042460
-0.19932389
-0.89054352
-0.01581077
-0.07852983
0.10035723
0.75180662
-0.07779697
-0.08346285
-0.73591989
-0.54420757
-0.15237656
0.01011364
0.47542813
1.28639448
0.37298793
-0.18934378
0.00461250
-0.47050223
-0.25422364
-0.02271453
0.64761788
-0.75546509
-0.64242339
0.05202501
0.15897770
0.03079657
-0.10979296
0.03566072
-0.06981157
1.43541396
-0.80045187
-0.24697816
-0.15262379
-0.43397895
-0.10492595
-1.47133231
-0.50697130
0.14571202
0.20782602
0.04684703
1.07858968
0.24750124
-0.22052290
0.03595374
-0.30128086
1.56825435
-0.01114948
0.07336257
-0.10403592
-0.29786971
-0.01159181
-0.50514215
0.39263165
-0.08895118
0.27696502
-1.16506875
-0.01599549
-0.08651586
-0.74927986
0.02370524
0.00126151
-0.03029063
0.04477235
0.31969297
-0.14327560
-0.11121622
0.65426111
-0.02704556
0.04046384
-0.03922065
0.51166391
0.56763166
-0.93592793
-0.42377010
-1.35423076
-0.00485851
-0.82098097
-0.00287955
0.10677674
-0.26888832
-0.04627009
0.22628325
0.10007532
-0.64732891
-0.72748816
-0.10359457
-0.10288228
0.09289040
-0.85574102
-0.17679037
-1.49590349
-0.07200488
-0.04769370
-0.01873197
-0.70029509
-0.36637986
0.01334376
-0.53814828
-0.43321675
-0.10509542
-0.36241737
-1.32439268
-0.03130640
0.50311887
-0.06308921
0.00449329
-0.09085675
0.14536865
-0.01567056
0.18273087
-0.17596093
0.61526895
0.01270045
-0.49499556
-1.05743206
0.03149333
0.31580061
-0.13875854
-0.36031383
-0.08156414
-0.15355414
-1.95630741
-0.04651115
-0.08899318
-1.34118307
-0.67352504
-0.01126318
-0.04768718
-0.30634353
-0.44190460
-0.57356417
0.06382192
0.44235647
-0.73465765
1.13979220
-0.11157459
-0.09555269
-0.44043055
-0.25350749
-0.02493718
-0.72199166
1.07765937
0.80869639
-0.01427497
-0.24351253
0.04806859
-0.06516251
-0.58514696
0.33639485
1.45557034
-0.12640350
-0.09499788
0.17650868
0.10166076
-0.10548484
-1.27313733
0.21034047
-0.08865802
-0.76683325
0.55323488
0.72919494
-0.20214868
0.12496281
-0.04229024
-0.85034531
0.79076695
-0.01076515
0.37976098
-0.07484490
-0.52735680
-0.30445591
-0.87873071
-0.40089750
-0.05714208
0.56203276
-0.69296134
-0.04415571
-0.08167087
-0.13657168
-0.09189334
-0.09145819
-0.09789363
-0.11314857
1.07673228
-1.01003933
-0.03760467
-0.57357150
0.04076646
-0.78443831
-0.05141350
0.63879949
0.18053024
-0.15716837
-0.85226959
-0.12883697
-0.02644516
0.18377334
-0.05676159
0.53214890
-0.09461227
-0.46476665
-0.29478773
-0.06631202
-0.75393635
-1.03232992
0.80536163
0.06300284
-0.19352476
-1.21958637
0.01866448
-0.34894729
-0.05609486
-0.04364621
-0.05475240
-2.23717475
-0.73043376
-0.09380505
1.22945142
-0.38444865
0.09429035
-0.18916531
-0.13987415
0.03691752
0.03542529
0.05207555
0.09385255
-0.52238089
0.45305514
-0.44679403
-1.11837745
0.66581327
0.01045892
-0.02209258
-0.75881577
-0.71920902
-0.00727593
-0.21199338
-0.00392528
0.05761423
-0.04166264
-0.11873920
-0.28126103
0.02641216
-0.03264667
-0.33904359
-0.79121542
-0.06781557
-0.03614775
0.03625398
1.60296381
-2.84352970
-0.02603874
0.38677683
-0.88367480
1.27811027
-0.17652698
0.01335238
-0.30942729
-0.34984949
-0.08294921
-0.95223039
0.35884970
-0.50396377
-0.03505751
-1.95330942
-0.01094708
-0.04281864
0.64152855
0.42094871
0.56683606
0.04120879
-1.26534235
-1.52750301
-0.06155917
-0.10160511
-0.34072009
0.16119216
-0.52366155
-0.80882990
0.20302711
0.15715089
-0.25074971
-0.23507488
-0.01399542
-0.38322923
0.74887776
-0.04851941
-0.74970931
-0.05466708
-0.41411293
-0.24192171
-2.30174851
-0.24417391
-0.03414011
-0.11302619
0.70310974
-0.05176346
-0.05293369
-0.89923769
0.06409656
-0.07372681
0.06911183
-0.19806492
0.29400358
-0.19433951
-0.04532405
0.48497134
-0.00086911
-0.59534806
0.03379355
0.71739405
-0.34966373
-1.37413418
-0.50716895
-0.65025055
-0.03206243
-0.84921741
0.19531728
0.91772062
-0.50664669
1.19180214
-0.14922082
0.07286615
-0.83108634
0.36670116
-0.79921007
-0.09352715
-0.27695566
0.13017640
-0.44130951
-0.76163024
0.04423285
-0.08864538
-0.15656878
-1.06966889
-0.79642594
-0.12551714
0.50897783
0.65404075
-0.06964254
-0.13804203
0.79120773
-0.03278809
0.50486410
-0.05996624
1.25776732
0.67302489
-0.43360221
-0.39299890
-0.77340931
-0.06543586
0.09918841
-0.10080163
0.48696339
0.09936785
-0.64115715
-0.55592638
-0.28745264
-2.07969141
-0.05471339
-0.23494399
-0.70534790
-0.18243447
-0.10271420
0.19958280
-0.33260742
-0.03518957
-0.06000101
0.02052773
0.38876897
0.19788198
-0.03103332
-1.35218513
-3.29184151
0.77302986
-0.19153769
-0.05462809
0.11848686
0.07990646
-0.02201394
-0.05268604
0.35689422
-0.09120968
-0.09505250
-1.85436392
-0.01014060
-0.03026648
-0.11393917
-0.84603137
0.20353609
-0.67264247
-1.13491154
-1.40846360
-0.10314503
-0.11309641
-0.17225659
0.03606280
-1.38409495
-0.00672990
-1.11551964
-0.60534376
-0.00087890
-0.33598691
-0.08016276
0.48869532
0.03498813
-0.03967048
-1.34463167
-0.05466353
-0.12500057
-0.07984187
-2.50780487
-1.40032375
-0.10789941
-0.38790649
0.76792461
-0.03949163
-0.07490636
0.55789620
-0.06532456
-0.10110891
-0.06076996
0.10147248
-1.36807692
-1.08763027
-0.05359474
0.66020828
-0.00712192
-0.23165777
-0.02966547
0.31130046
-0.75262940
-0.45885763
0.14544004
-0.35643947
-0.07796046
-0.87397695
-0.06896902
-0.31470716
0.51088649
-0.23306152
0.05952914
-0.10450764
-0.79413867
-0.19935785
-0.58904386
-0.10896845
-0.04762300
0.51472992
-0.12727448
-0.49374932
-0.10738025
-0.05972943
-0.01208680
0.16999309
-1.48079014
-0.14302224
0.49792910
0.04474473
-0.09493431
-0.52917099
-0.51968664
-0.02859635
0.15567935
-0.01716943
-0.64513648
-0.16672026
-0.41621867
-0.10963923
-0.38389444
-0.10475990
0.24443419
-0.02709546
-0.61567515
0.20986210
-0.58351481
0.01430573
-0.27059174
-2.28311515
-0.03051797
0.00654457
0.47688809
-0.23090860
-0.04273283
-1.17772460
-0.14803760
-0.06291196
-0.21139131
-0.15159808
-0.01809943
0.04274075
-0.06829336
-0.42217013
-1.48951638
0.30634254
-0.01848732
-0.03771365
-1.03684855
-0.28211111
-0.03026535
0.15453473
-1.02102375
-0.35072169
-0.03948733
0.27056536
-0.00626771
-0.05075731
-1.29027510
-0.32658714
0.10468235
-0.31209758
-0.19375362
0.14707109
-0.19596341
-0.07589598
-0.46087313
-0.19463795
-0.15202893
-0.23917413
-0.04621505
0.38987899
-0.66440755
-0.27131176
-0.06257209
-0.24913417
0.15914042
-0.10060501
-0.76555443
-0.03212940
-0.26565444
-0.08413544
0.70410168
-0.21409492
-0.07102653
0.55900234
-1.63099551
-0.03191701
-0.04430639
-0.11526682
-0.02341096
0.07162177
-0.02895744
-0.03111651
-0.28426123
-0.54972535
0.03177354
-0.81804222
-0.05549158
-0.02089462
-0.09360266
0.25025061
0.04972744
0.29526639
-0.11997800
-0.64028531
-0.01886947
-0.75640637
-0.42214286
-0.58430487
-0.76950526
-0.27772436
0.45752159
-0.05870187
-0.44392079
0.00776922
0.09127463
-0.08946584
-0.09702584
-0.08337937
-0.28201741
-0.39535892
-0.01775365
0.04619232
-0.02039187
0.26607531
-0.48658431
-0.06302080
-1.62989056
-0.13716409
-0.10924949
-0.32343662
0.21870670
0.09116136
-0.41854542
-0.01442857
-0.89471954
-0.29770440
-0.39860582
-0.09899567
-0.27106765
0.32484069
-0.23861955
-0.08950742
-0.43181342
-0.48488873
-0.29674736
-0.15119104
0.12215202
-0.23168114
-0.09051530
0.01604252
-0.95875651
-0.06737044
-0.09940145
-0.19711535
-0.64103597
-0.07691967
-0.05188475
-0.30179918
-0.59708256
0.02099327
0.02667365
-0.44260615
0.65165991
1.13265383
-0.16448903
-0.03107354
-0.62592751
-0.34360924
-0.10611775
-0.39153963
-1.34917676
-0.54542148
-0.01730618
-0.05414335
-0.06343419
-0.10314779
0.44534764
0.02247112
1.31426477
-0.66198021
-0.32795623
0.48322117
-0.36822894
-0.08872700
-2.34395790
-0.06679951
-0.25827655
-0.43973961
0.58086348
0.47959831
0.34574980
-0.20266527
-0.17601518
-0.53965098
0.91509712
0.01481430
-0.20462815
0.00724150
-0.98175544
-0.09725042
1.11126173
-0.33962059
0.00737715
1.04167831
0.30402529
-0.02570605
-0.14101514
-0.49991438
-0.09229613
-0.10133716
-0.07212334
-0.18580355
0.02075757
-0.54178393
-0.01149233
1.07604480
-0.10847889
-0.39579442
-0.06171454
-0.14616744
0.68556619
0.94057602
-0.51673299
-0.75080258
-0.03533183
-0.13809805
0.75316703
0.68066180
0.24545962
0.61426723
0.22014946
0.01800390
-0.58296376
-0.80342531
-0.03870971
0.02432599
-0.06841844
-0.49678877
-0.17905483
0.21232149
-0.04113034
-0.00514689
-0.11647507
-1.20303094
1.20115614
-0.08823882
-0.84391069
0.12385517
-0.03695027
-0.10491343
-0.25459817
-0.01976410
-0.01683263
0.01830663
-0.25274363
-0.61029047
-0.15415817
-0.24651109
-0.23834814
0.15369289
-0.84940422
-0.07040568
0.03464171
-0.32552922
-0.11612669
-0.78707528
-0.02121733
0.75569969
-0.08659390
0.10169312
-0.03349284
0.04263342
-0.06451929
0.19223064
0.41946051
-0.05030018
-0.06395508
0.47570515
0.25577348
-1.22083509
-0.01208981
-0.39816940
0.71069515
0.23984496
-0.12975809
-0.04245265
0.56732792
0.16582720
-0.08622912
-0.81329036
-0.50503707
0.55952162
-0.01673450
0.48507366
-0.05864009
-0.04119049
-0.01168626
0.71411866
0.99942189
-0.39324278
-0.23683374
1.01744151
0.35028702
-0.09876061
-0.17703101
-0.52354980
-0.98916918
-0.34090236
0.06269898
0.03891077
0.44431433
0.08455750
-0.08777890
-0.24565856
1.14521873
-0.08853617
-0.06374807
-0.10560919
-0.61990929
0.01483610
0.29209661
-0.66452760
-0.07196645
-0.15469667
-1.39141428
-0.09188682
-0.07280035
-0.40717772
-0.06498586
-0.02569568
-0.08655105
-0.01806141
0.33704692
-0.81151676
0.02439410
-0.19258693
0.03555511
-0.09373792
-0.05806882
0.66520941
0.19209751
-0.36488762
0.03353335
-0.28600472
-0.00781598
0.58050013
0.80120081
0.75728613
0.33518979
-0.16175136
0.27906883
-0.07387017
-0.87397581
-0.43586683
0.67996895
-0.01761373
-0.09987874
-0.61219478
0.04394075
-0.60066962
-0.07847343
-0.08788667
-0.09286671
-0.28751937
0.29282981
-0.09927970
0.32285142
0.91564310
-0.04021515
0.04331627
-0.08105975
-0.02827249
0.49048296
-0.07363711
0.01019452
-0.63270479
-0.35060996
-0.23511924
-0.23325552
-0.18526497
-0.97495145
-0.04555232
-0.43722975
0.34961054
0.26622921
-0.33991194
0.05460537
-0.05616593
-0.04533921
0.08113543
-0.15639727
0.07702726
-0.04652032
0.05076918
0.16194764
-0.10355643
-0.20888983
-0.28184932
0.70894504
-0.51377147
-0.01722339
-0.42328107
0.67231584
0.13976248
0.01805493
-0.05008262
-0.23735513
-0.30990270
-0.07086156
-0.22255765
-0.10953709
-1.21657491
0.02355843
-0.64611167
-0.06490882
-0.04885505
0.94889808
0.19803505
-0.51546186
-0.52141583
-0.96201187
0.32317299
-0.14411749
-0.06359371
1.43231010
-0.59328681
-1.14904380
0.04129681
0.15971226
-0.25937071
-0.18805279
-0.22979756
0.01634605
-0.13555533
-0.78927004
-0.04479207
-0.23181312
-0.02205491
-0.21564116
0.01037881
-1.22841477
-0.20322965
-0.08860772
0.25084838
-0.00832141
-0.02730815
0.00077740
0.25481489
-0.08821566
-0.10211919
-0.08155386
-0.22892545
0.51687783
-0.66060835
-0.08220034
-0.32578030
-0.01318261
-0.35321867
-0.10345786
1.08284163
-0.06569378
-1.59246707
-0.32470408
-1.03602743
-0.04362397
0.29854023
0.42119193
0.61434978
-0.43076095
1.22410238
0.46618739
-0.04120257
-0.73553962
0.91401595
-1.65697551
-0.08420323
0.07268730
-0.25786060
-0.19122124
-0.38883308
-0.09499610
-0.07426283
0.04666889
-0.62143052
-0.13486774
-0.07313652
-0.33077046
0.63090706
-0.07532451
-0.49631378
0.93343800
-0.03245472
0.44488978
-0.01509259
0.87965071
0.76921219
-0.37660795
-0.66841620
-0.07721344
1.06829202
0.22471762
-0.02021279
-0.71464819
0.57964110
0.03855812
-0.37901616
-0.04238910
-1.01700044
-0.02606443
0.13410729
-0.32568753
-0.23087047
-0.10416348
-0.34132579
0.34328601
-0.06021208
-0.09517743
0.00263611
-1.31618583
0.93225223
-0.04598005
-0.94617236
-1.38419712
-0.29244825
-0.03939274
-0.08033785
-0.12066861
0.15144134
-0.06969165
0.22977401
-0.37960094
-0.34934732
-0.03773787
-1.01118672
-0.04697309
-0.06998764
-0.26438853
-0.75035310
0.17788123
-0.52785152
-0.88711166
0.52384132
-0.39257446
-0.10460903
0.87456506
0.00751708
0.10448631
-0.32899994
-0.01995725
-0.38681224
-0.61631215
-0.01163989
-0.15091918
-0.36525378
-0.27585888
-0.03784506
-0.36182883
-0.01745582
0.37186727
-0.01695455
-0.49591449
-0.74751765
-0.01214521
-0.22331634
0.03853807
-0.03403927
-0.04880277
0.21559688
-0.07465544
-0.03755900
-0.05897980
-0.00747411
-2.19304729
-0.35369086
-0.11074276
-0.64982617
0.01435484
-0.40182456
-0.05282299
0.17479236
-0.48275575
-0.62942797
0.29369420
-1.18236637
-0.05253280
-0.26482314
0.54856551
0.17256267
-0.44102764
-0.10255324
0.05881568
-0.10250562
-0.22398704
0.35292676
-0.92454112
-0.03330908
-0.03384382
0.63742036
0.07523426
-0.57593876
-0.03250603
-0.08639607
0.00549988
0.05998794
-0.58617496
-0.09295082
-0.39858317
0.30513218
-0.06759272
-0.57421279
0.34645212
-0.03184506
0.42960569
-0.09961342
-0.60393316
0.20515746
-0.19920546
-0.27706999
-0.50644064
0.69545716
0.13582380
-0.09458920
-0.44351450
-0.92090470
-0.48506197
-0.31069082
-0.17408830
-1.27068520
-0.06503863
0.06723163
0.36735186
-0.19919209
-0.05054426
0.23650350
0.18406703
-0.10751899
-0.19273704
-0.34547064
-0.19819324
-0.42030689
-0.06634040
-0.39713079
0.30567667
0.44783789
-0.16940284
-0.05384091
-0.72832721
-0.08364203
-0.00997611
-0.26437685
-1.43925595
-1.19644725
-0.07080513
0.21377139
-0.02376486
-0.11661316
-0.59859002
-0.63645846
-0.06685833
-0.70489901
-0.01803382
-0.37033677
-0.15637165
0.10492346
0.31796357
-0.02507467
-0.18472484
-0.65345234
-1.12225270
-0.38742313
0.05931559
-1.05461586
-0.14904383
-0.26397890
-0.16546525
-0.06349295
-0.69217247
-0.01862234
-0.86029601
-0.02692461
-0.12960547
-0.80265170
-0.07140493
-0.43579507
0.06163100
-0.01973685
-0.02770125
-0.51543808
-0.05572144
0.10672759
-0.05035055
-0.06768517
-0.35352790
-0.92473209
0.03694657
-0.24622801
-0.09750670
-0.17603593
-0.08878673
0.50284934
0.05082601
0.26137090
-0.36965641
0.49161181
-0.06109857
-0.02921583
-0.27523333
-0.51979238
-0.25216547
-0.06174272
0.28566578
0.09404559
-1.18453944
0.20913626
0.28814581
-0.08871184
-0.08009416
-0.32644969
-0.16945513
0.89824450
-0.09118553
-0.03982775
-0.01913389
-0.17510165
0.06271490
-0.01137762
-0.56677890
-0.51084661
-0.05210020
-0.67157078
-0.27679485
-0.10641362
-1.75597250
-0.07412510
-0.37669012
0.63218385
-0.29453370
-0.37291908
-0.77893835
0.08150696
-0.51784462
-0.09055480
-0.84247905
-0.15619653
-0.15924656
-0.56052530
0.04112501
-0.04000247
-0.03848205
-0.15278883
-0.44709057
-0.11627091
-0.08159103
-0.16197346
-1.28076816
-0.07043747
-0.21283510
0.31558654
-0.34699863
0.42735502
-0.03154537
-0.15027596
-0.19951585
0.64653915
-0.13686959
0.04226258
-0.53002775
-0.50292683
-0.06137772
0.20540269
-0.90701574
-0.93758440
-0.07751027
0.10181113
-0.02621391
-0.03842949
0.45846647
0.66120499
-0.41602492
-0.72289819
-0.15607290
0.72623241
-0.44360098
-0.01778901
-0.48628256
0.19444470
-0.50591201
-0.59927154
-0.66038787
0.71225190
-0.45056486
-1.79222298
-0.04031698
-0.74933678
-0.13876395
0.00991061
0.72604102
0.08443360
-0.34074166
-0.09406040
1.06387854
1.04985213
0.01667321
0.44108090
0.94951314
0.01736453
-0.20122935
-0.25651059
-0.10078726
-0.09024545
-0.08202446
-0.21676683
-0.07968251
-0.73513347
-0.02383662
0.48606667
-0.04866296
-0.05368929
-0.10004915
-0.59001237
0.82006967
-0.06047815
-1.65327990
0.39902645
-0.04756437
0.16405483
-0.60442096
-0.92239946
0.18182662
0.28035107
-1.24553585
-0.10250527
0.02874635
0.22308236
1.54783666
0.06119593
-0.10784515
0.07479997
-0.24602062
1.38506186
-0.01050120
-0.02574609
0.00960144
-0.07632586
0.15616547
-0.12839824
0.31813157
-0.54234719
-0.03693628
-0.89940244
-0.43410113
-0.04906726
-1.84768450
0.04544801
-0.12899180
0.10379460
-0.40728834
-0.24310727
-0.71552473
-0.27167842
-0.50854319
-0.09044974
0.48863184
0.54713088
-0.24779427
-1.06232762
-0.09858323
-0.87928975
-0.09069204
-0.12563901
-0.56433094
-0.02349531
-0.01975762
0.83477730
-1.19774663
-0.07428972
-0.06031143
0.23639292
-0.84322113
-0.51788014
0.02580666
0.25726676
0.29474157
-0.94142151
-0.15038754
-0.03613794
0.61341864
-0.30977190
0.04959951
0.66671938
0.09991086
-0.26493251
0.04846583
-0.61427361
-0.02077570
-0.02795631
-0.35932812
-0.08503346
0.77553582
0.16652535
-0.11559672
1.32375002
-0.61799079
-0.03574229
-0.53697473
-0.35288599
-0.83897191
0.30579200
0.13273399
-0.33248726
-0.08980053
-0.09519166
-0.10533342
-0.04766182
-0.68725550
-0.03798034
-0.48793548
-0.01005707
-0.47129992
0.10720966
1.66662896
0.10598739
-0.00899578
-1.46604550
-0.71228379
-0.06261416
-0.01560829
-0.22407596
-0.04702711
0.10869955
-0.10154491
0.00801935
-0.52637690
-1.31144798
-0.03664417
-0.05004387
-0.01895671
0.56290472
-0.02907018
-0.19475466
-0.03161738
-0.56709933
-0.66967964
-1.11479819
-0.08801443
-0.42507157
0.39897311
1.07295060
0.00474321
-0.24890292
0.73554128
-0.03645590
-0.14161766
-0.84577060
0.60853368
0.08915277
-0.08621147
1.26764476
0.12580739
-0.40503407
-0.09679522
-0.06694356
-0.13255148
0.12356807
-0.05866078
-0.07223367
-0.32047868
0.34750345
-0.09675244
-0.25322613
-0.20117372
-0.02106685
0.90533859
-0.08769040
-0.41376314
-0.72875178
-0.06430002
0.39327309
-0.49967664
0.41776612
0.38354775
-0.04809882
-0.10309370
0.02807262
-0.09177726
-0.37567309
-0.14189054
-0.61012644
-0.05351557
-0.14376311
-0.70090622
0.03917987
-0.04883092
-0.09690329
-0.51420301
-0.02439258
-0.07702234
-0.82011145
-0.20724767
-0.57489091
-0.03069006
-0.13289070
0.11017764
-0.14839990
-0.10458361
-0.07717322
-1.15117002
-0.35782844
-0.04119347
-0.71981198
-0.50855201
-0.19593459
-0.09373258
-0.02951174
-0.10145041
-0.06999705
0.73278522
0.71952468
-0.58978307
0.03497020
0.64180577
-0.53787297
-1.21799362
-0.04080378
0.05687962
-0.26212299
-0.67810094
0.01272408
0.79516518
0.29757628
-0.05831122
-0.15430707
-0.04226689
0.28929743
-0.39968741
0.04774750
-0.21133880
-0.07990643
-0.58124113
-0.03618313
1.19808972
0.95076132
-0.02598595
-0.39422143
-1.19893265
-0.03415179
-0.04584467
-0.60382575
-0.01551293
0.04130656
-0.08586875
-0.22482941
-0.33102846
-0.26513416
0.04065041
-0.60586679
-0.03697291
0.31338254
-0.05942065
-0.40213665
0.23797888
-0.89397323
-0.53100461
-0.64264905
0.00791805
-0.33648011
-0.31657833
-0.41759220
-0.27264953
0.36444208
0.88316566
-0.06546531
-0.55017942
-0.06264829
0.42967603
-0.00741718
-0.10675607
1.09032655
-0.00825666
-0.20072444
-0.01671479
-0.05598397
0.00526685
-0.51734978
-0.76610661
-0.07307399
-0.01481296
0.01470549
-0.02020176
-0.45311320
-0.05585430
0.08444877
0.47059897
0.09316935
-0.07721352
-0.42381474
-0.43396860
-0.32446951
0.01434238
1.29787958
-0.68067932
-0.02206958
-0.49563721
-0.57076675
0.46625847
-0.57245404
-0.11471344
-1.06693017
-0.06253495
-0.19224703
-0.84056932
-0.01616459
-0.08589277
-0.47839957
-1.07397151
-0.01816767
-0.20524186
-0.21945828
-1.52017820
0.26068023
0.01740990
-1.20790684
-0.51209754
-0.62536943
-0.03375913
-0.05898223
-0.71797001
-0.11488800
-0.08447679
-1.07480335
-0.04569731
-0.14503402
-0.07563199
0.46004432
-0.03688899
-0.04458979
-0.87334305
0.20006017
0.31313226
-0.50136578
-0.57325608
-0.02717426
-0.59463274
-0.06570253
0.66765660
-0.34120762
0.26052406
0.29464725
0.19363435
-0.39877820
-0.55650240
0.11173661
-0.09756889
-0.67792302
-1.20358932
-0.03198852
-0.11060050
0.02985603
0.37275675
-0.05927212
1.10139418
-0.03627956
-0.07536798
-1.50591111
0.04438422
-0.07505377
-0.03728540
-0.04931857
-0.08577194
-0.01699312
-0.07646263
-0.07422082
-1.77989864
0.20242515
-0.04682836
-0.87190235
-0.06134809
-0.15995876
-0.08613234
-0.04774120
-0.35390937
0.25087216
-1.00445354
-0.26173902
-0.10087244
-0.28527075
-0.20717362
-0.83788115
-0.42751458
0.23446411
0.31140873
-0.02925427
-0.28307724
-0.84733993
0.57502884
0.04187768
-0.10337180
-1.18868184
-0.23121136
-1.62536871
-0.02474743
-0.08773995
-0.12231973
-0.10162758
-0.71994346
-0.06044026
0.22869401
-0.09402009
-0.09253149
-0.34590808
-0.85528415
-0.01262491
-1.10248113
-0.08475531
-0.19736390
-0.14377779
-0.11193547
0.00254969
-1.09321797
-0.63019419
-0.90651995
-0.02110907
-0.27334481
-0.70350999
0.08333874
-0.63733792
-0.17778826
0.33160186
-0.08746029
-0.13287251
-0.61773598
0.07712840
-0.09802009
-0.75218868
-0.65318632
-0.08075368
-0.19653162
-0.14683539
-1.81212592
-0.20398930
-0.04230106
-1.07017827
0.70572370
-0.07433257
-0.11587480
-0.08746667
-0.47011006
-0.18756849
-0.10919141
0.03024302
-1.33462715
-0.23811050
-0.03630099
-0.36986607
0.02862338
-0.03700044
-0.87819970
-1.34396350
-0.54113102
-0.13515843
0.11589902
-0.32948530
-0.21454126
-0.04653594
0.52125883
-0.55997771
0.30382860
-0.11132790
0.46625039
-1.54196048
0.43410897
-0.12557508
-0.07779890
0.34314555
-0.79957414
-0.09608395
-0.09500486
0.03495547
0.49515861
-0.08614604
-0.40802759
-0.30331746
-0.10417098
-0.80098766
0.59127343
-0.08784376
-0.07349864
-0.20246409
0.07422158
-0.09232804
0.03642355
-0.03753162
0.31594789
0.22046806
-0.04506524
-0.02277322
-0.03317419
-0.16415709
0.04588138
0.33878928
-0.51734406
-0.30554715
-0.38992518
0.02070035
-0.03242659
0.09885154
-0.95276368
-0.30163676
-0.08895459
-0.42725995
0.09536081
0.06643349
-0.51081502
0.03554255
-0.29839703
-0.11503751
0.07111109
-0.02759692
-0.19551151
0.33287832
-0.06279131
-0.05117866
-0.04868252
0.43452606
-0.45467275
-0.09445072
-0.97534436
-0.55261469
-0.03655832
-0.69175756
0.40340680
-0.10714059
-1.15840614
-0.03413827
-1.29538596
0.12991066
0.11041630
-0.36883739
-0.24465124
0.30470470
-0.32454944
-0.06026559
-0.14461565
0.09213892
-0.27669325
0.03076694
-0.14247377
-0.03807928
-0.10712539
-0.01840311
-0.53054410
-0.15276328
-0.10419619
-0.27145225
-1.32972121
-0.03851559
-0.18523981
0.33292702
-0.73778743
0.34044424
0.00584750
0.29843804
0.05256876
-0.09049661
-0.03025123
0.03459831
-0.20894295
-0.24068569
-0.02440738
0.13367213
0.40023324
-0.44647676
-0.00765520
0.57241797
-0.09413454
-0.05448176
0.37702388
0.16197225
0.63872784
-0.03754979
0.54817444
-0.15636691
-0.42353001
-0.04136628
0.10973607
0.24890396
0.17161264
-0.43371612
-0.08509505
0.92688000
-0.39658749
-0.55725867
0.06078198
-0.38269544
0.36535928
-0.10148066
0.96296442
0.03336104
-0.06269132
-0.08465670
0.17957787
0.62681645
-0.00170297
-0.82021254
0.50535494
-0.06614919
-0.00101156
-0.30551478
-0.02772268
-0.05516710
0.07929350
-0.24051732
0.14724515
-0.34732321
0.02146569
0.14294396
-0.04767081
0.12001941
0.05615573
-0.19662723
0.65682042
-1.25913763
-1.22854245
0.70662576
-0.07021061
-0.33899146
-1.70726168
-0.80346751
-0.37220645
0.72252119
-0.06728076
-0.01233398
-0.66622972
0.23139778
-0.02702547
-0.13546510
-0.06243871
0.32190681
-0.17003082
-0.00208799
-0.07913474
-0.02299188
-0.19610670
-0.25744221
-1.26382756
-0.10493109
1.02548873
0.45874563
-0.04719682
-0.26751649
-1.17408609
-0.05588407
-1.90277481
-0.09297943
-0.27414551
0.04394935
0.07354252
-0.63772994
-0.22369875
0.31573427
0.35919091
-0.10435485
0.37515101
-0.15227149
-0.06478759
-0.52392244
-0.26442805
-1.71237075
-0.06127921
-0.13122553
-0.44982904
-0.02946681
-0.08005696
0.25877574
0.40520281
-0.03683611
-0.00053605
-0.17397060
-0.56879920
-0.06605572
0.06614786
-0.86259300
-0.75301874
-0.23535609
-0.11172144
-0.04074821
-0.17024082
-0.10347006
-0.09194280
-0.44376716
-0.12970792
-0.68882376
-0.02066348
0.19111146
-0.03156947
-0.06666089
-0.15303914
0.10679181
-0.09704718
0.46638447
0.28126842
-0.24160190
-0.72063249
-0.11069899
0.69299114
-0.37812713
-0.37629986
0.19309175
-1.26802886
-0.52660424
0.08062510
-0.12497443
-0.08804869
-1.01993001
-0.16470337
-0.04119728
-0.12843798
-0.01648255
0.37906560
-0.08800337
0.47173679
0.41545302
-0.05661064
-0.86932582
0.99075246
-0.01364406
-0.09180558
-1.00809658
-0.02883539
0.06098659
-0.04650298
-0.05808814
-0.07251615
-0.59004271
-0.00655111
-0.22035398
0.01698665
0.28837571
-0.10220595
-0.20424064
0.17379989
-0.48607761
0.05468176
0.88533163
-0.04902086
0.61041951
-0.69051707
-0.58868188
0.04733238
0.29625627
-0.27120012
-0.06972007
-0.26012230
1.26147962
0.24389572
0.03059542
-0.07378388
1.09758651
-0.10408525
-1.18350422
-0.01604868
-0.00926877
-0.10220696
-0.60803115
-0.58269078
-0.01142697
-0.05838448
-0.27625588
-0.04891935
-0.09851584
-0.06969781
-0.05371038
-1.81104696
-0.02720485
-0.19298974
0.42434865
-0.28248093
-0.06704230
-0.51913393
0.59407943
-0.01699512
-0.01176811
0.21318282
0.20358327
-0.71778488
-0.16623673
-0.02245724
-0.44910353
-0.06299132
-0.08929075
-0.28223929
-0.07219473
-0.02856013
-0.27609664
0.54502141
-0.03439404
-0.04528886
-1.27585018
-0.18086493
0.22074325
-0.06315423
-0.10762861
0.52888489
0.16965432
-0.13202386
-0.04090509
-0.29964498
-0.04864295
-0.04147664
0.19098617
-0.24877600
0.55519539
-0.07371161
0.22126664
-0.09084065
-0.03498146
-0.05062172
0.41248050
-1.17009211
0.88147354
0.75740778
0.21456711
-0.58530778
0.08414027
-0.09423251
0.34436592
0.88707519
-0.01621203
-0.35643598
-0.38652408
-0.46359074
-0.69424677
0.11310715
-0.46649954
0.61123449
-0.01412824
-0.74482602
-0.07314713
0.27528116
-0.04866393
0.92978603
-0.08195955
-0.03473861
-0.42614681
0.06036794
-0.02644337
-0.09998173
0.31169975
0.09944105
-0.05456122
0.05504617
-0.11095901
-0.59509248
0.49098870
-0.03717662
-1.42805338
-0.04984264
-0.01285775
0.04228244
-0.43525836
0.54151070
-0.25122154
-0.04151104
0.23578684
-0.01795722
-0.24391794
-1.00320756
-1.21534324
-0.83296186
-0.90071666
-0.03540534
-0.10927373
-0.14877458
0.17786269
0.35100520
-0.01661791
-0.10695124
0.15763067
-0.24014778
-0.07273433
-0.09034187
-0.04692837
-0.10561574
-0.95075464
0.00342520
-0.05676723
-0.06659997
-0.49590716
-0.08878762
-0.30678415
0.63037425
-0.04030257
-0.78380752
-0.05468053
0.07751173
-0.08533618
-0.21323940
0.02127012
-0.42071286
0.71388406
-0.38013336
0.10913658
0.21898815
-0.04729537
-0.13842130
-0.93811363
-0.04340933
-0.54103976
-0.08622647
-0.17378047
-0.78396022
-0.01631056
-0.07484395
-0.41690010
-0.16069445
-0.08645409
-0.22777364
-0.01135680
0.12572685
-0.04929621
-0.02342978
-0.37980562
-0.25731200
-0.41613618
0.03747180
-0.04581156
0.16882598
-0.05181673
-0.08676221
-0.89289743
0.10678743
0.09285347
-0.06845836
0.27344570
-0.06445567
-0.03626353
-0.13606492
0.27281517
-1.43658388
-0.47177088
0.57851416
-0.73932081
-0.67293912
-0.06738704
-0.74637449
-0.42848483
0.55194616
0.08614377
-0.13859868
0.44232282
-0.83186692
-0.34626514
-0.06703858
-0.35993782
-0.39225984
-0.03367365
-0.64731896
-0.03875525
0.21472344
-0.00627188
0.64710027
0.02491135
-0.00830484
-0.80556709
0.48130032
-0.04414080
-0.07073498
-0.06818476
-0.04922796
-0.11121897
-0.10580527
-0.10127854
-1.77955270
0.37410221
-0.03058171
-1.32437122
-0.02647190
-0.47896817
-0.08104236
-0.27069011
-0.28654882
0.52321219
0.50997424
-0.25381449
-0.01232975
-0.29964310
0.30895847
-1.17403996
-0.01600327
0.30497330
-0.56978631
-0.09150022
-0.22398651
-0.90938759
-0.08772120
-0.03353540
-0.08143724
-1.25686336
-0.21548164
0.72262120
-0.04387748
-0.08929775
-0.19769984
-0.55424827
-0.53967333
-0.12303017
0.03115892
-0.65618044
-0.07557791
-0.33286184
-1.20434594
-0.07430938
0.22263128
-0.02502625
-0.91177046
-0.42960441
-0.27486965
-0.25987396
-0.19473445
-0.76958048
-1.47856069
-0.09848405
-0.27770171
-0.34326214
0.01544435
-1.17179918
-0.11559127
0.34071851
-0.05828788
-0.10402770
-0.35564908
0.05739995
-0.07591002
-0.20251429
0.58147913
-0.06866059
-0.08428744
0.79329324
-1.14046860
-1.20832968
-0.06565204
-0.38671848
0.07458287
-0.95184594
-0.07785136
-0.05367020
-0.16311069
-0.23678151
-0.08229795
-0.69636595
0.11641403
-0.01623851
-0.08841538
-0.66961461
-0.00765436
-0.11115818
-0.94445735
-1.22222245
0.03002123
0.13427965
-0.96964639
0.19758512
-0.92260969
0.07844923
0.28403783
0.08857823
0.65162444
0.24426650
0.26539022
-1.21620202
-1.37136424
0.05562113
0.08006849
-0.77542686
-1.33114851
-0.01384721
-1.16681468
-0.08566146
-0.06351951
-0.07156970
-0.92465335
-0.67449015
-0.04157211
0.17109369
0.13269375
-0.05998408
-0.09178313
-1.32577121
-0.05174806
-0.06310840
-0.05672260
-0.12135158
-0.29196846
0.36204696
-0.06899099
-0.74164736
-0.10651632
-0.40202957
-0.02506528
-0.33487797
-0.79404932
-0.67518193
-0.49195063
-0.47046763
-0.08684243
0.51043355
-0.62561589
0.05909364
0.32562804
0.03117250
-1.27536893
0.10569887
-0.61139369
-0.74579525
-0.27479127
0.03214918
-0.08404483
0.55447406
-0.11634183
-0.21733011
-0.06071518
-0.05563798
0.00398776
-0.03837715
-0.34557483
-0.03230915
-0.49977970
-0.28412151
-0.03533833
-0.07746784
0.48385379
-0.03424741
-0.09288183
-0.05474827
0.23299281
-0.42251715
-0.14370556
-0.25781879
-0.53654206
0.44252139
-0.44688484
-0.05181198
0.11185601
-0.00355764
-0.85739815
0.12607749
-0.21268454
-0.34928444
-0.03478276
-0.11827952
-0.20439315
-0.24937050
-0.08502631
0.20779593
-1.39439023
-0.01576279
-0.14324574
-0.05952470
-1.51347053
-0.70863080
-0.02304482
-0.07667524
-0.20206697
-0.20467156
-0.06826869
0.01214945
-0.37079424
-0.39291313
-0.03274915
-0.26959601
-1.08596623
-0.30659187
-0.10020907
-1.63792765
-0.10457550
0.00591204
0.04628849
-0.19246939
-0.50988895
-0.38921100
-1.19640434
-0.85590088
0.06801389
-0.10910951
0.10345376
-0.84165502
0.43445876
-0.45535681
-0.20925830
0.39789689
-0.81141633
-0.71388948
0.17874531
-0.28640038
0.15074956
-0.08265573
-1.02282810
-0.06450657
1.08285606
-0.18165682
-2.69916463
0.20746289
-0.06232515
-0.79603982
-1.52605867
-0.00401325
-0.03557964
0.17093810
-0.06812675
0.01215366
-0.01987712
0.06889707
-0.95573556
0.38026965
-0.04099544
-0.22168165
-0.03018355
-0.31017706
-0.01197279
-0.28183791
0.27553475
-1.00432849
-0.95391506
-1.29720736
-0.01209167
-0.59283763
-0.98629582
-0.45773023
0.39918086
0.84344929
0.22663030
-0.05316061
-0.66799688
-0.00191365
-2.82345390
0.01826219
-0.01718291
1.72807658
-0.18095571
-0.10921767
-0.10565753
-0.02257983
-0.10030073
-1.07440829
-0.50441533
-0.10936293
-1.26610863
0.84006518
-0.04394874
-0.41055998
0.58163774
-0.06495447
0.07939367
-0.10463488
-0.42169279
-1.41970861
0.04035131
-0.16747808
-0.81931740
1.32895935
0.61835504
-0.07851475
-0.64423728
0.10754768
-0.22307253
0.42656708
-0.04137814
-0.84319967
-0.05866830
-0.18911509
0.39851582
-0.08002411
-0.04800434
-0.66955239
-1.37799311
-0.08705979
-0.02346838
1.31292570
0.40208963
0.80923700
0.01009727
-0.87991607
-1.74922693
-0.14233960
-0.11989807
-0.01042193
-0.06251524
-0.20793451
-0.07841921
0.54585063
-0.62411803
0.48623514
-0.05707528
-1.32835925
-0.09495716
-0.09697306
-0.54972655
0.25985104
0.09004633
0.33784702
-0.59283203
-0.32203233
-0.18450917
-0.04033298
1.04350662
-0.22600794
-1.55566406
-0.03225245
-0.21037467
0.03481606
0.16299473
0.28032833
0.12807713
-0.57978910
0.55763435
0.01050958
-0.78046066
-0.01586224
-1.29996467
-0.04064642
-1.92042327
-0.47745812
-0.05279597
0.30434084
-0.27185312
-0.00992876
-0.08136049
-0.89784110
-0.09006949
0.06383660
-0.06563335
0.01362853
-0.99409193
-0.94060707
-0.04086784
-0.63387662
0.02389685
-0.11826053
0.04987363
0.47577569
0.41158345
-1.30899429
0.12248386
-0.43852535
-0.03337628
0.34479067
-0.41363356
-0.42395148
0.00271696
-0.24477977
-0.08395639
-0.08198507
-0.51524985
0.54278421
-1.21808076
-0.02443605
-0.00977528
-1.13254464
0.10593914
-0.76647061
-0.06586497
-0.04142671
-0.10907537
-0.52952534
-0.63489890
-0.04740242
-1.11811447
-0.24288270
-0.04343035
-0.50447297
-1.58640277
0.05411753
0.82375419
-0.06712272
-0.22734912
0.30165303
-0.17408307
-0.11888324
0.46713787
-0.22878560
1.02013052
0.08415684
-0.35442930
-0.66036326
-0.35481921
0.36996770
0.06573661
-0.17191908
-0.07472142
-0.11481251
0.13196388
-0.09785358
-0.00729484
-0.71243972
-0.61644506
-0.05164579
-0.07572896
-1.18939388
-0.83301741
0.41718358
-0.03895289
-0.56915051
-1.46980202
0.80269575
-0.09866912
-0.01394102
-0.03791976
-0.02730820
-0.07264205
-0.00281112
-0.52809417
0.39727846
-0.00376436
0.21818852
-0.06057788
-0.03121375
-0.02303223
0.19666137
-0.18178795
0.04206046
-0.15606236
-0.79604083
-0.46848118
-0.06360798
0.84395838
-0.08320902
-0.68551743
-0.13391353
-0.27715713
0.02216111
0.02915866
0.36649495
0.05794400
0.00293530
0.42045110
-0.05593654
-0.29913822
0.01983567
-1.43078673
0.04150276
-0.47861117
-0.49637860
-0.05476892
-0.40292552
-0.43121114
-0.08113489
-0.05697164
0.52370554
-0.01473237
-0.02543677
-0.04522112
-0.02051647
0.67767853
-0.60261858
-0.06164293
0.30695933
0.02537474
-0.04535567
0.05283158
0.09261031
0.30809605
0.38818306
0.03525615
-0.66711748
-0.05148199
-0.50250989
0.35620955
-0.26859367
0.23904125
0.26354608
0.48771331
-0.02019687
-0.63732064
0.29696497
-0.77296412
-0.10146824
-0.06401784
-0.45896709
-0.14346176
0.41702253
-0.03718134
-0.03439904
-0.11522285
0.13278271
0.16499938
-0.04420578
-0.10397796
0.62618423
-0.08345071
-0.75335169
-1.51748121
-0.06593544
-0.19962724
-0.01643048
-0.39869550
0.52894044
-0.12387518
-0.46282387
0.08821160
-0.66449898
0.44066709
-0.02682351
-0.45419213
-0.51721925
0.04071554
0.33429074
-0.06504743
0.10601734
-0.05938616
-0.14330739
-0.66798759
0.04093783
-0.05025398
-0.57110757
-0.06173998
0.01675330
-0.10008755
0.16371158
0.29844698
-0.19570611
-0.04959369
-0.45614976
-0.48548648
0.34412181
-0.00430349
-0.02466962
-0.46260914
-0.00029697
-0.01656066
-0.14224342
0.59234285
0.12635651
-0.07594434
0.31444311
-0.09024197
-0.10018928
-1.85071814
0.25551510
-0.34640619
0.30467469
1.42383647
0.69261509
-0.39939579
-0.06751531
-0.00106477
-0.19082633
0.21377592
-0.20637280
-0.16931908
0.00002194
-0.59219676
-1.01817977
-0.07151636
0.17358062
0.09785021
-0.01638508
-1.07689512
-0.06524147
-1.30363870
-0.03069247
0.83987004
-0.94982749
-0.00961614
-0.24162255
1.03969622
-0.03609338
-0.06229403
-0.20385428
-0.01041492
0.08181954
-0.09542340
-0.09028929
-0.25903276
-0.44900069
-0.03858426
-0.50034380
-0.08999222
-0.11371496
-0.04950773
0.37335339
0.05342510
0.04693190
-0.39758575
-0.09336413
-0.03584724
-0.18694504
-0.32017329
-0.73102200
-0.09769953
-0.47312534
-0.57525927
-0.10017150
-0.09845612
-0.83548880
-0.31160671
-0.04284617
-0.08570508
0.00852123
-0.16908245
0.91328973
-0.07545694
-0.05961157
0.01410146
-0.49778163
-0.20560069
-0.10380468
-0.01772051
-1.06839216
-0.06655805
-0.33615053
-0.44469711
-0.03120332
-0.52740401
-0.07834850
-0.36733434
-0.06507476
-0.27770534
-0.57721239
-0.12913902
-0.19902685
-0.47601119
-0.08654806
0.15152663
-0.31114307
0.07106321
0.16443595
-0.07412406
-0.25647026
-0.08156227
-0.24604595
-0.12459169
-0.10074357
-0.08122722
-0.04450136
1.72902489
-0.04172456
-0.09371612
0.20694807
-0.39313757
-0.20518699
-0.08762653
-0.00565498
0.58977956
0.08134490
-0.06636827
-0.04505143
-0.16288695
-0.44938883
-0.06442059
0.09199179
0.07207478
0.16343421
-0.04653105
-0.07183301
-0.01300444
-0.01517916
0.07681262
0.12243067
-0.08699688
0.09419341
0.03960802
-0.03242899
0.01108342
-0.03506535
-0.25386211
-0.08848073
-0.00259036
0.07624072
0.06615060
0.28919935
-0.17337564
0.03176311
-0.10356741
0.04258673
-0.02151201
-0.06750584
-0.01433631
-0.06025393
-0.03350160
-0.00038673
0.01908498
0.04703185
0.01141810
0.12887596
-0.16346686
-0.02341951
0.02753124
-0.06244493
-0.08085041
-0.06526890
-0.06868692
0.00461652
-0.03316835
-0.04450026
-0.03635370
0.06696732
-0.05324959
-0.01878160
-0.04956146
0.09556378
-0.12281572
0.04795802
0.03047412
0.03203742
-0.08716332
-0.02992305
0.12788768
0.04764145
-0.00695203
-0.08031464
0.15016305
-0.04686216
-0.05089436
-0.04896608
-0.32522014
-0.02696951
-0.03679789
0.14075501
-0.09381544
0.10931195
-0.03615903
-0.04627157
-0.10936524
-0.00306532
0.21671586
0.00260189
-0.04213782
0.08621066
-0.10145130
-0.02990975
0.03784645
-0.03992519
0.29618269
-0.10948262
0.01700172
0.01060703
-0.04164198
-0.01016101
0.01055233
-0.03059121
0.01771977
-0.01605811
-0.02867111
0.07277318
-0.07323088
-0.08775081
0.04090570
0.06138302
-0.01957081
0.03288215
-0.01282931
-0.01191186
-0.08288680
0.19437830
-0.02742665
-0.08321311
0.00992596
0.04957891
-0.07990945
0.00327498
-0.00645427
0.00687215
-0.13974553
-0.14373818
-0.03301186
-0.01686106
-0.17387491
-0.08265303
-0.04962409
0.04207138
0.04453368
0.05569848
-0.00410195
-0.01159343
-0.02621761
-0.01727408
0.01443696
-0.02267452
-0.06304664
0.02208588
0.01217788
-0.07255711
0.03224563
-0.02395578
-0.07951616
-0.07372683
-0.00055805
-0.04161552
0.14065665
0.08309914
-0.18464738
-0.00932951
-0.08278104
0.06201747
-0.03154597
-0.04197703
-0.01321877
-0.10331488
-0.04803323
-0.06826107
-0.00956966
-0.01618663
-0.01295048
0.03888198
0.08883237
-0.10101257
0.00333597
-0.03179123
-0.04589596
-0.05130826
-0.02466499
-0.09793120
0.01504596
0.00991200
-0.03292197
-0.09290475
-0.10608821
-0.09547913
-0.03884152
0.11231495
-0.12886734
0.02146674
0.05951505
0.08080383
-0.05431405
-0.02197480
0.05465129
0.29113901
0.06266850
-0.10103051
-0.01010459
-0.01852714
-0.05823430
0.03823104
-0.22493216
-0.05056451
-0.06465806
0.16489054
-0.09890094
0.12980190
-0.06725695
-0.10074427
0.06373287
0.11262827
0.11090046
-0.04803033
0.03595084
0.02550124
-0.07333937
-0.09156877
0.07832494
-0.03782628
0.25603548
-0.09072299
0.03257406
0.05116132
-0.08631458
-0.07622958
0.03025959
-0.10840862
-0.07192478
-0.03245927
0.08253276
0.11528624
-0.01529455
-0.00372368
-0.01268374
0.14744195
-0.02434700
-0.03481172
-0.11129832
0.05608909
-0.03892954
0.07674468
0.10423432
-0.02833960
-0.01751427
0.07142089
-0.11489885
0.04490700
-0.09786414
-0.01009564
0.00266454
-0.13784228
-0.07609467
-0.02321597
-0.01687169
-0.03943339
-0.04066388
0.05890669
0.05737494
-0.10818775
-0.03220136
0.05980569
-0.07354008
0.00083193
-0.06922822
0.15040040
-0.07127703
-0.05187951
-0.02171811
0.02497075
0.07365788
-0.04382973
-0.12377378
-0.01009069
0.07250217
-0.06369740
-0.03366717
-0.08917243
-0.01342832
0.08500313
-0.06175671
0.04470914
0.01466287
-0.06945891
0.06657490
-0.08398172
-0.00488713
-0.05650199
0.09970699
0.07872331
-0.00470568
-0.13874005
-0.11896191
-0.03073723
0.02250305
-0.01302366
-0.05010811
-0.09667920
-0.08222011
-0.06086584
0.01273637
-0.05196723
-0.04424185
-0.08412577
-0.06185037
-0.09214175
-0.06647792
0.04271187
-0.02062479
-0.02684041
0.01607281
-0.05437423
-0.02004549
-0.10260919
-0.23087099
-0.14177863
0.03855295
-0.00071720
0.10016960
-0.05661574
-0.02051681
0.04526176
0.12132471
-0.06832886
-0.10709991
0.08037236
-0.07286083
-0.03005140
-0.08553093
-0.04142860
-0.10681695
0.08860245
0.03697414
-0.09308346
-0.02963529
0.06791175
-0.09356417
-0.03384232
-0.23326470
-0.05861511
-0.05308031
-0.08323133
-0.06360674
0.11750361
-0.05158844
-0.06875355
0.09407166
-0.18619700
0.10498219
-0.03148311
-0.05173612
0.00776093
-0.06966104
0.14198263
0.00741987
-0.04322943
-0.01612842
-0.05584218
-0.04563452
0.05713571
-0.05016927
0.08146069
0.12132329
-0.10426778
0.04819358
0.11853249
0.03852300
0.00490219
-0.02888018
0.07071109
-0.00503399
0.09242206
-0.08701152
-0.02061445
-0.10257339
-0.08938659
-0.10288109
0.04515162
0.23213372
-0.06355017
-0.04254795
0.01677580
-0.01839765
0.05348558
-0.15440138
0.06842122
0.01873276
0.05604560
-0.03754889
0.05406202
0.08202690
-0.09410379
-0.15100437
-0.04698887
0.01203250
-0.10562962
0.03958489
-0.14469361
-0.19050793
0.11878166
-0.05575026
0.11504482
-0.05597646
-0.02464916
-0.03913943
-0.09762371
0.14565207
0.02986121
0.07542574
0.15015863
-0.01569809
-0.20909254
-0.16069368
-0.07874512
0.00193915
0.04679539
-0.01255900
-0.10863188
-0.10278656
0.02230281
0.08076546
-0.05811503
0.01448794
-0.16001090
-0.01497008
-0.09104519
-0.04349350
0.08429085
-0.05429363
0.10462850
-0.10549416
-0.19611016
-0.07650147
-0.09832843
-0.08548941
-0.00108545
0.03170305
-0.05202736
0.09188642
-0.04897795
-0.08214787
0.07491749
0.18592775
-0.03033949
-0.05836068
0.10361011
-0.02696746
0.03487919
-0.06522158
-0.04747668
-0.08653602
0.02990600
0.01327589
-0.04927988
0.00255756
0.14789963
-0.08600311
-0.01290347
-0.25573322
-0.05738669
-0.04850816
-0.07178298
-0.11737662
0.13838421
-0.06518132
-0.06780533
0.05389596
-0.21057682
0.02644522
-0.06670950
-0.03533133
0.07561279
-0.02018392
-0.02692327
0.03724805
0.03566215
-0.06263830
-0.04218256
0.09080962
-0.08974356
-0.07703879
0.11996280
0.17749584
-0.02423082
0.02532868
0.03772782
-0.00426869
0.06588026
-0.09372747
0.10898232
-0.04414278
0.03986371
-0.01758118
-0.06529944
-0.09238511
-0.01072498
-0.03918973
0.06427970
0.00526944
-0.29002768
0.02111925
-0.19634330
-0.02624805
0.03255859
0.05659793
0.11141023
-0.18290068
0.17828375
0.17458275
-0.01591166
-0.09648854
-0.09548200
0.05675668
-0.08706065
0.06829672
-0.02576900
-0.17196856
0.21118353
-0.07209405
-0.05905484
-0.04006622
0.11559851
-0.02486600
-0.09087820
0.07342873
-0.04283168
-0.10426105
-0.00921096
-0.04478814
-0.00114089
0.02008295
0.27038783
-0.07509132
-0.04432990
-0.02674208
-0.18293126
-0.02242037
-0.09031823
-0.09492932
0.03542558
0.05179522
-0.10664495
0.04360998
0.18320876
-0.10320079
-0.04742400
-0.02117012
0.01596985
-0.02078757
0.14012675
0.11929567
-0.18387972
-0.09685472
-0.01949023
0.19710721
-0.20282848
0.05893869
-0.02878962
0.29071537
-0.09821858
-0.06241017
0.10889344
-0.08461539
-0.04045250
-0.02598120
0.18023656
-0.07667990
0.21456532
-0.06402662
-0.02728030
-0.03776287
0.04203313
0.18038572
-0.04696105
0.17356084
0.07037549
-0.06506903
-0.08888400
-0.20014744
-0.07609160
0.26654291
-0.10814364
0.00830646
0.08449415
-0.08482922
-0.04813185
0.03249900
-0.11078840
0.05366038
-0.06054908
-0.25811628
0.20586939
-0.01955492
0.29740846
0.03525133
-0.25569665
-0.08559807
-0.01673628
0.12422625
0.08533748
-0.04502129
0.18823881
0.19079597
-0.08799086
0.01006570
0.10205872
-0.01228990
0.04320240
-0.10181505
-0.02799590
-0.26819086
-0.14280002
-0.07049236
-0.04230150
-0.01280186
-0.02826841
-0.01039009
-0.00663083
0.22819170
-0.28127500
0.02257759
0.06946059
-0.07741676
0.00243374
-0.20498767
0.09085054
-0.01949007
0.15951711
0.21854766
0.09567180
0.05680303
-0.06329367
0.02066739
-0.10883899
-0.04110799
0.04088637
-0.19063102
0.13803881
-0.01458014
0.00390457
-0.06290055
0.11087365
-0.01813009
-0.04446173
0.07723064
-0.06539418
-0.23029551
-0.00208709
0.08103401
0.19940211
-0.02557222
-0.19456671
0.12271641
-0.02054437
-0.04759908
0.02019345
-0.04065708
-0.09798743
-0.01454193
-0.07389251
0.07313064
-0.11050469
0.04007075
-0.08352458
-0.05898708
-0.08691117
-0.05108518
-0.06256361
0.03779454
-0.06478836
-0.15873727
0.04024306
-0.03333187
-0.09016231
-0.28578636
-0.27228031
-0.08132136
-0.03010714
0.05463858
-0.08058853
-0.08870570
0.12000400
0.17240795
-0.09492881
-0.04636519
0.09057488
-0.10891830
-0.14816394
-0.08060038
-0.01981497
-0.08848915
0.05707517
-0.11802031
-0.08166805
0.12066683
0.10607725
-0.10100943
-0.04109018
-0.30861387
-0.07618550
-0.09752904
-0.05667293
-0.17628941
0.30964443
-0.02404569
-0.04181122
0.06279463
-0.18859595
0.06446648
-0.01767589
0.22689109
0.01371301
-0.08542015
0.15958907
-0.03558642
-0.08374012
-0.09124503
-0.05675800
0.10770960
0.05909312
-0.01767644
0.01354645
0.25570887
-0.06082233
0.08563220
0.19407599
-0.03606715
-0.03750684
-0.00974186
0.04285314
-0.04980466
-0.01028571
-0.08362740
0.09868468
-0.02229045
-0.03980197
-0.09267752
-0.01579216
0.24504174
-0.11769864
0.00234724
0.01462252
0.04806826
0.05841617
-0.03907648
0.24476933
-0.00288077
0.12555613
0.06542651
-0.06367462
0.09931548
-0.10101413
-0.10126963
-0.08048314
0.02456176
-0.10366087
-0.12023886
0.10410397
-0.25755790
0.07395471
0.05286694
-0.02180498
0.01395183
-0.06863291
0.03734657
-0.01262497
-0.06588207
-0.02096606
0.04049217
0.27508521
0.01136473
-0.07281689
0.04503256
-0.08210068
0.01135956
-0.02875345
-0.05986557
-0.05733205
-0.10566725
-0.07189002
-0.02188049
-0.17841282
-0.01312480
-0.22435045
-0.10134661
-0.05836350
-0.01239819
-0.25443318
0.01618633
-0.06660748
-0.18601404
-0.09075580
-0.01203165
-0.09111156
-0.20875473
-0.16260976
-0.10304861
-0.11951351
-0.08872624
-0.03152527
0.05758018
-0.03956371
0.13122816
-0.06141961
-0.03295894
-0.23025043
-0.09552632
0.07784286
-0.01279234
-0.06811913
-0.03811906
0.09215099
-0.03007254
-0.01746995
0.29288319
-0.02744182
-0.02568602
-0.08130641
-0.17075446
-0.07784037
0.00793527
-0.01670698
-0.09156971
0.36073092
-0.05331068
-0.09906849
0.21923043
-0.23177060
-0.08083428
-0.01461472
0.18545352
0.01957555
-0.03460709
0.06813330
0.00706100
0.11201164
-0.01205678
-0.09357484
0.24996546
0.08199567
-0.01381628
0.09251651
0.24028954
-0.01316833
0.00769507
0.26032358
-0.06034707
0.10822251
-0.02091067
0.04999945
-0.08059853
0.04648096
-0.10161527
0.03084320
-0.12510476
-0.03209467
-0.02799264
-0.00103708
0.28206626
-0.14556742
-0.00606473
-0.02498825
0.04054761
0.03453784
-0.02290125
0.13042536
-0.03614364
0.11254760
0.02337824
0.11354777
0.04784390
-0.04730200
-0.09819254
-0.05705598
0.14793545
-0.01286630
-0.07250172
0.02197106
-0.32868353
-0.03935134
-0.06090698
-0.14571364
0.00116302
-0.04669489
0.06944354
-0.01405871
0.07251037
-0.02440309
0.02153014
0.29737550
-0.03973120
0.08415382
0.03282676
-0.03917877
-0.02587268
0.13727221
-0.09255528
-0.07428168
-0.10508671
-0.01712722
0.02135650
-0.11740274
-0.03660045
-0.25682926
-0.10782249
-0.05372258
-0.02920015
-0.24982573
-0.10062366
0.09315755
-0.18447091
-0.11091482
-0.10213237
-0.06145947
-0.15316907
-0.16918971
-0.04823409
-0.14320329
-0.09459888
-0.02323282
-0.10359190
-0.08524247
0.13107690
-0.01314502
-0.04736761
-0.03576376
-0.07052596
0.19761229
-0.05917494
-0.02404409
-0.04798713
0.05098150
0.03903119
-0.02945856
0.16685873
0.03101735
-0.09833102
-0.01196133
0.02432771
-0.01388139
-0.13180460
-0.03521686
-0.02608125
0.27235901
-0.06242914
-0.03664062
-0.04306932
-0.25069636
-0.15876807
-0.07579595
0.24945150
0.09127050
-0.07904737
0.03696589
-0.02025348
0.02089742
-0.07456642
-0.07009076
0.35617718
-0.06486711
-0.01327586
0.21904737
0.13403797
-0.09287895
0.03867152
0.11848648
-0.02086830
0.00799447
-0.03888646
0.10389198
-0.18467288
0.15623796
-0.04600416
0.08533339
-0.17801930
-0.05121724
-0.08614869
0.20049255
0.29448807
-0.13518077
-0.03952309
-0.18698958
0.02803142
0.06673286
-0.09017783
0.17827636
0.04798381
0.17939560
-0.08176924
0.06924798
0.21127197
-0.06476565
-0.13647079
-0.06127978
-0.10012614
0.05978699
-0.19525208
0.09096976
-0.29034173
-0.19152063
0.08014674
-0.08067109
0.07966895
-0.05719367
-0.00224915
-0.06388634
0.09358212
-0.03780917
-0.03179137
0.26908404
0.04534079
0.13668735
-0.08702320
-0.08311400
0.03858924
-0.14938749
-0.09963226
-0.04297648
-0.05863494
-0.01656355
0.07510009
-0.14622661
-0.04371817
-0.28413317
-0.02805337
-0.09742456
-0.05654168
-0.14021011
-0.11019555
0.19170076
-0.13898660
-0.13784824
-0.08934148
-0.03759716
-0.23020987
-0.23797375
0.04331641
-0.15803412
0.14494313
-0.10045152
0.08215731
-0.12355420
0.32606882
-0.04487507
-0.06825579
0.14307095
-0.05804288
0.37917930
-0.03323292
-0.03492010
-0.06159487
0.01134962
0.13278766
-0.01108380
-0.08209779
0.30670932
-0.05318452
0.06410275
-0.13088377
-0.02632252
-0.19278187
-0.06958440
0.00443173
0.30030388
-0.05611485
-0.10676460
-0.03587545
-0.18471329
0.06273095
-0.02464306
-0.14133205
0.07437693
-0.03431801
0.04171369
-0.02920300
-0.13448180
-0.02202944
-0.12104366
0.11333803
-0.00377764
-0.02960088
0.28167626
0.16429962
-0.08505225
0.06679095
0.16900420
0.12295854
-0.09042970
0.01729139
0.05852487
-0.30427545
-0.15895769
-0.05882867
0.01114340
-0.18699096
-0.03824149
-0.03465852
-0.00207523
-0.07726283
-0.03460201
-0.01508810
-0.12772167
-0.05025378
-0.00000603
0.03288306
-0.01401791
0.04827853
-0.03163552
-0.06630214
-0.26758426
0.13945779
-0.10128008
-0.21685664
-0.05275934
0.06625511
-0.01709486
-0.05597722
-0.05753085
-0.05611362
0.03405217
-0.00903839
-0.13408041
0.06060540
-0.07838426
0.05891952
-0.10100808
0.23058479
-0.05503023
-0.19895986
-0.21695739
-0.04995960
0.20533767
0.03674972
-0.08676396
-0.04378923
-0.09478834
-0.06766054
-0.03872018
-0.08961295
-0.08500806
0.05981660
-0.00657487
0.01196390
-0.17015491
-0.05683139
-0.06137856
-0.09421519
0.13538601
0.15019497
-0.01695493
0.21110693
0.19161701
-0.06335163
-0.03365612
0.10001924
0.04783781
0.07114487
0.07215692
-0.07085987
-0.10160877
0.03153144
-0.02131998
-0.19162150
-0.06783099
-0.04318394
0.07928242
-0.01797003
0.31821194
-0.10453358
-0.03487521
-0.02957543
-0.07579244
0.34611070
-0.08912431
-0.00991123
0.22336915
-0.08770269
0.02241310
0.14696144
-0.03784065
-0.09199683
-0.04074109
0.19628291
-0.08082119
-0.05911605
-0.04131312
0.02898413
0.13705204
-0.07422606
-0.08401433
-0.09045708
0.26133159
-0.07553654
0.09128941
0.03753946
0.17291076
-0.06361305
0.09325976
0.18511271
-0.04216730
-0.04573205
0.28266400
-0.17652261
-0.05288824
0.04087989
0.22496966
0.28525642
0.03181433
-0.07125568
0.10490656
-0.19896190
0.18710753
-0.03958676
0.04026030
-0.01267907
-0.10936108
-0.07923900
-0.03356266
0.21037215
0.03290468
-0.02647822
0.03407428
-0.01505157
-0.03827225
-0.16004768
0.01941276
-0.10056253
0.21214600
0.18346980
0.01061296
0.02196672
-0.04048113
0.09088638
-0.09114156
0.01480791
0.06402794
-0.00782085
0.03379103
-0.05292793
-0.03112869
-0.05801215
0.00067918
-0.05034570
-0.09621549
0.01258528
-0.06046985
0.00673692
-0.03202652
-0.01273221
0.19347265
0.01840715
0.10502092
0.23959167
-0.06174219
0.02789224
0.06926832
-0.10402626
-0.01505590
-0.06895488
-0.02286954
0.02219455
0.07619689
0.01349390
-0.01098490
-0.03419977
0.02908858
-0.01203456
-0.22437748
-0.02200903
0.00534304
-0.10182556
0.27394930
-0.07638922
-0.03679888
-0.23298386
-0.33882543
-0.00235157
-0.00178396
-0.03887194
-0.07718117
-0.02717284
0.02214483
-0.12106056
-0.08726451
-0.08500302
0.03465429
-0.06905767
-0.07848661
-0.01642012
-0.08887661
-0.02983440
0.07243828
0.00156617
-0.05185812
0.15788764
0.06600381
-0.01377291
-0.10807228
-0.00519968
-0.04466499
-0.25194225
-0.03266457
0.07263213
0.20554866
-0.02712559
-0.04659320
0.05820528
-0.07183234
-0.10375161
-0.04125074
0.26829264
-0.00655733
-0.09780535
0.02828332
-0.02133056
0.14198044
-0.09756541
-0.02539927
0.25410387
-0.02446986
-0.10862502
0.05990953
0.25222135
-0.09161350
0.08794629
0.29214033
-0.01215444
0.04382902
-0.02154484
0.11318266
-0.06969027
-0.04344371
-0.02820847
-0.02669300
-0.06731456
-0.06439551
-0.02953206
0.19757111
0.11037883
0.08651335
0.04559522
-0.05300947
-0.09929582
0.03593288
0.05319833
0.10813830
0.14062731
0.23760895
0.06095267
0.22297442
-0.22797617
-0.08318280
-0.23896652
-0.06824760
0.00730477
0.08899714
-0.02583000
0.12672599
-0.17315046
0.02984644
-0.05965075
0.00263461
0.11421432
-0.02122756
-0.13989507
-0.07788766
-0.00629320
0.10029138
0.19926533
0.11363892
-0.02711787
0.05752454
-0.10365265
-0.05391064
0.01260350
0.11425696
-0.07551106
-0.09847721
-0.08091416
0.35253772
-0.07686238
0.07833949
0.00786169
-0.17523052
-0.07409609
0.01483282
-0.08084457
-0.20454757
-0.03769482
-0.14581214
-0.09490102
0.06205893
-0.09093723
-0.05665007
-0.13475724
0.11846808
0.13137560
-0.06006992
0.07614352
-0.03364357
-0.01540920
-0.17657052
-0.28600845
-0.10066650
-0.10559699
0.27057865
-0.02811077
-0.00713903
-0.03375692
-0.10493863
-0.03975397
-0.05745791
-0.02258595
-0.05480011
0.00145333
0.03659306
-0.02075396
-0.01605691
0.11632916
-0.04935155
-0.02057485
-0.04776310
0.16672765
-0.02952264
-0.10353594
-0.02197916
-0.13716461
-0.12265998
0.13796440
-0.01084763
0.22255519
-0.10422792
-0.00576072
0.02465142
-0.00042678
-0.09490785
-0.04412331
-0.13344236
-0.10267715
0.06966078
-0.07997395
0.12562057
-0.04409241
-0.04774520
-0.00459635
0.14323664
-0.18126445
-0.15042645
-0.02526585
0.09293111
0.18936871
-0.02454809
-0.06478434
-0.04339037
-0.22482875
-0.06493944
-0.09140798
0.24154516
-0.13012089
0.02470225
-0.03690245
0.08518538
-0.05715619
0.01209401
0.05777786
-0.06703779
-0.07510963
0.02877934
0.06446741
0.27014524
-0.16575925
-0.08209383
-0.15443332
-0.01576902
0.04065425
0.13043815
0.08621625
-0.05896347
-0.19184388
0.07096493
-0.06634592
0.21594343
-0.06051662
-0.01456527
0.03727956
-0.08450114
0.05259999
-0.07508203
0.11868104
-0.15315002
-0.00011905
0.10068073
-0.14035830
-0.03152825
-0.02522621
-0.18293792
-0.02831944
-0.04255000
-0.03527893
0.17976089
-0.02119565
-0.07652529
0.01102517
-0.22072044
-0.06323396
0.08789660
-0.09707167
-0.09429216
-0.05136975
0.25608924
0.11359599
-0.00899305
-0.03895431
-0.09903709
-0.17058076
0.17175639
0.23459098
-0.03829500
0.21983700
-0.05056464
0.06761288
-0.06070897
-0.20239340
-0.10600867
-0.02753989
-0.00059597
-0.09421846
-0.09306706
-0.03913692
-0.06618229
-0.09165921
0.15206298
0.17061439
-0.06596754
-0.05359208
-0.07590301
-0.05160987
-0.04387474
0.06330577
-0.03866877
0.08292487
-0.02072315
-0.00882752
-0.25204942
-0.09645554
-0.06546987
0.15788020
-0.00010520
0.18159495
-0.07423574
0.04164893
-0.11831675
-0.06238643
-0.06164356
-0.00579324
0.09855886
-0.06376436
-0.00723705
-0.15483274
-0.04979307
-0.04696193
0.03415170
-0.14733380
-0.10119440
0.00591545
0.17328461
-0.05610731
-0.20363763
-0.08099858
-0.01142015
0.10542561
-0.14228444
-0.10023134
-0.04930547
-0.04898499
-0.06994275
-0.08337835
0.32604408
0.25955954
-0.22345687
-0.01238953
-0.25861704
-0.07463918
0.02827914
-0.10054570
-0.03447236
0.06979555
0.35508883
0.04275106
0.07758099
-0.21745627
-0.03156763
-0.27147496
-0.02558674
0.11648406
0.29238260
-0.10762853
0.08820884
-0.26563057
-0.14366096
-0.06670197
0.02894068
0.11854188
-0.10179075
-0.16816089
-0.07502862
0.33281982
-0.02679007
-0.03283305
-0.19693442
0.02973742
-0.01599461
-0.17192553
-0.03877785
0.01821745
-0.20256357
-0.09548251
-0.05557585
-0.05404237
0.18648215
-0.15273833
0.05702341
0.03987552
-0.24061018
-0.03546139
0.06966568
-0.07727633
-0.09437206
-0.20759588
-0.20599243
-0.23211938
0.22180192
-0.03130275
-0.09079777
-0.21718444
0.02551158
0.30108979
-0.04033229
0.34654623
-0.01070438
0.04670015
-0.18125041
-0.13620140
-0.06932870
-0.08880390
0.16760960
-0.07050997
0.09546822
-0.05751398
-0.10503875
-0.04974457
-0.10074931
0.12001710
-0.02879826
-0.09754512
0.19359776
-0.09544914
0.07394577
0.34986067
-0.03800823
-0.31215492
-0.05797147
0.28626326
-0.20805418
-0.06554660
-0.04160726
-0.12018245
-0.01581793
0.32669818
-0.09721407
-0.15110320
-0.18440402
-0.02229502
0.07749212
-0.03618562
-0.22930881
-0.03243366
0.04049951
-0.13991436
-0.02024882
-0.09880459
0.23959355
-0.10692573
-0.01468578
-0.02456373
0.15501854
-0.11809690
-0.16880226
-0.00421615
-0.06621181
-0.23683660
0.08450556
-0.06570451
-0.01156013
-0.31949854
-0.09186669
-0.08867347
0.25353065
-0.12386601
-0.02939878
-0.02469459
-0.13098025
-0.05330354
-0.04891380
0.05151648
-0.23172699
0.01821710
0.23883091
0.04095910
0.06670348
-0.19963010
-0.02136168
-0.28754365
-0.04565248
-0.06873159
0.29269016
-0.01193469
0.30767778
-0.25851908
-0.09597553
-0.08493220
0.17552687
0.03491602
-0.04011098
0.01673163
-0.09761117
-0.13491651
-0.05962692
0.00126986
-0.07628755
-0.01013795
0.39967909
-0.10371232
-0.09718176
0.01390917
-0.26659217
-0.02035037
-0.06551942
-0.02733566
0.10733635
0.00856862
-0.25855258
0.04921424
-0.09473873
-0.07691672
-0.03018338
-0.10120751
-0.18616687
-0.14388072
0.49410987
0.15706223
0.35060140
-0.01041303
-0.03997681
0.11726294
0.05063700
0.19647247
-0.05149005
0.07465272
-0.02112121
0.02746633
-0.03197940
0.01390493
-0.03204864
-0.06188431
-0.27574605
-0.03774649
0.26753736
-0.03772059
-0.05763290
-0.01040388
0.10059962
0.14940049
0.04391395
0.18264109
-0.22660208
-0.02176455
-0.18979768
-0.02367281
-0.09376764
-0.00921978
-0.01381433
0.24363470
-0.12974589
-0.03985143
-0.06415481
0.22617091
-0.07779434
0.21236913
-0.08369323
-0.10892355
0.11973135
0.04044624
0.06033031
-0.01118739
0.21101210
-0.06567270
-0.01375907
0.16850901
-0.09748090
-0.06391075
0.09660462
0.00514221
-0.01947042
0.06155800
0.40460220
-0.18710133
-0.14193764
-0.06749276
0.18277545
-0.09139546
-0.33903310
-0.03857692
-0.06635688
-0.21735023
-0.03833087
-0.09915060
0.10106267
0.19151208
0.22338323
-0.02168127
0.18063135
-0.09849161
0.05190606
-0.02251452
0.08950779
-0.09441097
0.10854788
-0.01541505
0.12185048
0.02346231
-0.08814485
-0.15233320
-0.09444510
0.10695786
0.08536374
0.19723934
0.15405869
-0.07591224
0.01198103
0.06223724
-0.04039953
0.09181289
-0.06228000
0.04304775
-0.10021429
0.05563832
-0.05287450
-0.01111235
0.06668513
-0.04676073
0.08728911
-0.02015333
-0.08664306
0.04176133
-0.18062364
-0.03930575
-0.08545069
-0.09888393
-0.05213332
-0.08319741
0.11401381
0.04783485
-0.06181268
-0.02798101
-0.15799391
-0.07104214
-0.10779962
-0.12303739
0.04468684
-0.04543227
0.01448238
-0.00657984
-0.02603041
-0.23102480
0.10416693
0.03985890
0.06274898
0.27812943
-0.07452764
0.12276698
-0.00756809
0.01788987
-0.04599065
-0.10204621
-0.11057364
-0.10313486
0.15891021
-0.01273456
-0.08896355
-0.06728423
0.17715709
0.18089215
-0.06560086
-0.03154113
-0.12522061
-0.02384314
0.06337227
-0.09879822
-0.07627773
0.00980186
-0.09633973
0.03823723
-0.10002398
-0.09826719
-0.03181706
0.08111678
-0.08536560
0.02603919
-0.04481861
0.11611294
-0.10152784
-0.05246924
-0.16927020
-0.00941969
0.15325461
-0.06070280
-0.09918413
0.15754829
-0.00185206
-0.05173063
0.22828647
-0.05708907
-0.03237727
0.00887432
0.26596656
0.04914349
-0.31514668
-0.01365869
0.26429874
0.10202487
0.12608770
-0.09184595
0.12341099
-0.22742729
-0.07578420
-0.07695733
0.23641655
0.18619789
0.23363273
0.01763713
0.04876201
-0.10029700
-0.02767641
0.06286332
0.17046586
-0.03132674
0.30611375
0.03669886
0.12120326
-0.06866506
-0.04968768
-0.16062091
-0.09313057
0.06312016
0.10165777
0.29817715
0.25888383
-0.03228756
-0.06546348
0.02926359
-0.00607334
0.14751028
-0.07871387
-0.06858519
-0.01167751
0.11244710
0.04061624
0.14961027
-0.09208694
-0.00669612
-0.03414279
-0.27685428
-0.01491826
-0.03089111
-0.00808300
-0.03309453
-0.04159474
-0.05585187
0.09752319
-0.20225669
0.12318406
-0.04455149
0.06304516
-0.09750506
-0.18833333
-0.01551271
-0.01764529
-0.13737661
-0.11146216
-0.09041702
0.09085916
-0.04296090
-0.10260526
-0.31634471
-0.15343371
0.13907713
-0.00248936
0.33179995
-0.05602755
-0.06472019
-0.05569409
0.09245908
-0.04869664
-0.07016438
0.09886128
-0.03529387
0.07707979
-0.03399234
-0.02803950
-0.07703935
-0.09947699
-0.00146001
-0.02754089
0.16323304
-0.02823245
-0.02122432
0.13289407
0.19405285
-0.01190152
-0.10874093
-0.03140016
0.25193596
-0.07962366
-0.09988859
-0.02154977
-0.08450858
-0.06939182
-0.02475142
-0.02788724
-0.00147543
-0.07858104
-0.02814718
-0.01622294
-0.00808420
-0.03763410
-0.04972607
-0.09022907
-0.04203546
0.07082479
-0.04533633
0.18814971
0.03430026
-0.04119504
0.05342768
0.07407133
0.07418825
-0.19325732
-0.07946779
0.26598269
0.09305615
0.06679195
-0.07000626
-0.03276480
-0.16013002
-0.06688523
-0.09431171
0.24440399
0.17552812
0.22800317
-0.01992130
-0.14971474
-0.04620177
0.04392324
0.04466120
0.11114012
-0.10149232
0.30657798
-0.03847990
0.05156957
-0.08036888
-0.09500298
0.01740087
-0.05724555
0.00985222
0.02890822
0.10576556
0.09918536
-0.08889508
0.01490308
0.09824564
0.06979448
0.07034462
-0.10251603
-0.07772920
-0.01635844
0.07368916
0.02454265
-0.05206590
-0.13226323
0.01116503
0.27840838
-0.13928631
-0.07208161
-0.03218412
-0.07581672
-0.08435044
-0.09390017
-0.03977770
-0.08385015
-0.11122531
-0.07701021
-0.03400529
-0.03685614
-0.02816451
-0.03752170
-0.08668654
-0.12401240
0.04346813
0.02053955
-0.24151675
0.30549374
-0.06566299
-0.02038291
-0.22427203
-0.29196417
0.07306708
-0.08388151
0.18821123
-0.10965073
-0.01264348
-0.07186334
-0.25091091
-0.02410541
-0.03693786
0.00260496
-0.04259846
0.21546833
-0.08359847
-0.02203790
0.07008018
-0.21403228
0.23880592
0.00045814
0.25621906
-0.14970873
-0.03813639
-0.18137094
0.22408237
-0.09994332
-0.14012907
-0.09209325
0.14935584
-0.05492230
-0.01159787
-0.09772999
-0.17730719
-0.06313597
0.00638322
-0.03301239
-0.09296940
-0.03220126
-0.08567136
0.03129684
-0.03875042
0.10416681
-0.01571945
-0.06817777
0.14672503
-0.03746522
-0.02340368
0.26125038
0.15825978
-0.04773347
-0.01047744
0.26563427
-0.02773208
-0.00734741
-0.05071994
0.25030723
-0.13379589
-0.23757631
-0.06963927
-0.07510939
-0.18708833
-0.04610449
-0.02366588
0.17820552
0.22101180
0.13097060
0.01426936
-0.20315474
-0.04466616
-0.03764827
0.09153049
0.06378803
-0.07951837
0.30100369
-0.01986932
0.10897096
-0.13432011
-0.02776524
-0.13171126
-0.07996672
0.09615438
0.17717111
-0.01631397
0.14086676
-0.07324959
-0.10699320
-0.06606682
0.17637609
0.07755359
-0.09476434
-0.06102175
-0.02809037
-0.08430438
-0.00655063
-0.10103682
-0.00738108
0.00017307
0.20013478
0.07202830
-0.03398618
-0.03840540
-0.05119210
-0.02064993
-0.02331701
-0.04854547
0.07509178
-0.15007998
-0.02014463
-0.01627196
-0.01627125
-0.10416997
0.10119845
-0.08671980
-0.17612927
0.09285776
0.15358551
-0.13216735
0.53804028
-0.09531006
-0.06071365
-0.12526065
-0.20603842
0.11830261
-0.04751431
0.23396060
-0.01400140
0.08521676
0.01041800
0.21367325
-0.02577030
-0.05175121
-0.06120643
-0.05328953
0.21965647
-0.05663823
-0.09301713
0.06941561
0.27889094
0.21532075
0.01847082
0.22386178
-0.07293134
-0.06954508
-0.22965313
-0.07840054
-0.10736553
-0.07150100
-0.05056739
0.31119713
0.02184214
-0.02012562
-0.08979005
-0.09445417
-0.02271686
0.14260915
-0.08792878
0.01111194
0.17087108
-0.03450427
0.17559130
-0.00419947
0.27855384
-0.02457045
-0.14827278
0.05452192
-0.04482356
-0.10265565
0.31225580
0.18219970
-0.01355490
0.03723681
0.25637212
-0.12572001
0.10650934
-0.03682831
0.16693668
-0.05475283
-0.21986537
-0.06021929
-0.02392966
-0.19214292
-0.01422433
-0.07295019
0.19402117
0.23279758
-0.11780450
0.00964504
-0.06083587
-0.09674975
-0.00445623
-0.01334331
0.00463333
-0.06395222
0.34397700
0.11941817
-0.06094721
0.07391344
-0.04598228
-0.34532884
-0.02147215
0.04594848
-0.02500335
-0.04145661
0.08742495
0.09295040
-0.14669006
0.04809908
0.04775951
0.72027993
-0.04363490
0.06353495
-0.07568309
-0.11879174
-0.08232049
0.27831525
0.09632833
-0.04870720
0.01996790
0.13216434
-0.10759278
-0.00266959
0.03798529
-0.05966363
-0.07226302
-0.01004367
0.07700025
0.16938740
0.07151068
0.03033306
-0.00505921
-0.02098451
-0.07854096
-0.07161925
-0.18565552
0.01713427
-0.07439923
-0.08708603
0.32112360
-0.04810353
-0.01506424
-0.17966753
-0.07636993
0.06752056
0.22172871
0.13941222
-0.07391156
-0.08073366
-0.01971240
0.22831029
-0.02679824
-0.07318357
-0.19328710
-0.05301373
0.24642397
-0.05787924
-0.03027056
-0.01376164
0.05781448
0.05642156
-0.01352188
0.52173316
-0.09779979
-0.03048925
-0.10839087
-0.04421758
-0.07696080
0.05241960
-0.03091184
0.12747271
0.11910020
-0.07455863
-0.01205602
0.16368027
-0.01546807
0.01516149
-0.09070618
0.11407280
0.01889605
-0.02869729
0.10033420
-0.00951073
0.13129140
-0.06536109
-0.25286257
0.07540613
-0.05579901
-0.02040418
0.39484271
0.22720203
-0.05261127
0.04956905
0.05164599
-0.06490882
0.00886000
-0.05021385
0.20543317
0.15338704
-0.24153060
-0.04066423
-0.01154972
-0.04199513
-0.04209070
-0.08592709
0.15660578
0.07756387
0.20449956
-0.02469217
0.03670634
-0.06976289
0.05356002
-0.03994588
0.03862104
-0.01478182
-0.01540113
-0.07741784
0.15232307
0.20102119
-0.03508618
-0.28229868
-0.08509263
0.16717209
-0.03422708
0.23925060
0.13002568
-0.06660518
0.04575528
-0.09139597
0.00760179
0.08391436
-0.09100777
0.01744643
-0.03784706
0.06709550
-0.02178528
0.11190292
0.25368246
-0.04797613
0.13697113
-0.19296765
-0.02602552
-0.01200659
-0.22317089
-0.04245281
-0.08273372
-0.05350148
-0.03311275
0.01518505
0.05935707
0.00282525
-0.07809408
-0.08264658
-0.16232777
-0.06661693
-0.08798529
-0.03685323
0.02036446
-0.05647622
-0.07311282
-0.07610399
-0.02401889
-0.27486306
0.17019629
0.01956472
-0.02676337
0.14432505
-0.08515676
0.02736895
-0.13263799
-0.07506883
-0.08008939
-0.08342519
-0.14640062
-0.08350048
0.09820099
-0.09031816
-0.08079182
-0.02371556
0.25744748
0.15674049
-0.03968255
0.01208723
-0.13424808
-0.01410293
0.12594323
-0.04266065
-0.02141309
-0.05148045
-0.09969261
-0.10671364
-0.03029550
-0.08474119
-0.01987250
0.02913077
-0.02265599
0.09121056
-0.03419686
0.12069631
-0.09119968
-0.04181634
-0.00707656
0.01578482
0.29794034
-0.05895520
-0.18055955
0.16211444
-0.08253115
-0.05773825
0.19325729
-0.03367769
-0.06309137
0.09432196
0.06350943
0.01083020
-0.20635080
-0.00672161
0.15352288
0.17089175
0.01646275
-0.02662973
0.05227469
-0.09768923
-0.09977286
-0.10552067
-0.06946572
0.01087489
0.11651080
-0.03604283
0.03999549
-0.09444956
-0.02464458
-0.19858786
-0.00559305
0.11282151
-0.16534701
-0.02147987
-0.16377647
0.23545948
-0.07942922
0.05516365
-0.05209171
0.09767400
-0.09951634
0.12751417
-0.20057392
-0.18112117
0.18860438
-0.07222715
0.15617433
-0.00805478
-0.09872391
0.00665642
-0.04139001
0.04891954
0.00319906
-0.22338490
-0.07732729
0.01477422
0.25915509
0.00843148
-0.03624349
0.07921470
-0.08683626
-0.05941301
-0.04614172
-0.05329468
-0.09777287
0.13914314
-0.03135862
0.04048443
-0.14791879
-0.06470082
-0.17818165
-0.09537972
-0.11377706
-0.03947486
0.10178728
0.11798338
-0.06684583
-0.02353988
-0.01583217
-0.11401795
0.06710425
-0.01604450
-0.15563600
-0.15550283
-0.07756550
-0.03805749
0.03826172
0.13916528
-0.04074153
-0.01187612
-0.19152816
-0.09605853
0.13547440
-0.06530560
-0.05373891
-0.05447692
0.31707209
0.16197629
-0.12647097
0.14993393
-0.09096783
-0.01686648
0.40322867
-0.14175397
-0.07045614
-0.02561671
-0.10504316
-0.08429009
-0.03712197
-0.09805275
-0.07552593
0.00381528
-0.05934525
-0.09209455
-0.09047654
-0.18074588
-0.09012374
-0.04533462
0.03812784
0.01865634
-0.00306110
-0.04326714
-0.14162469
0.22564641
-0.04553540
-0.08617202
0.26821437
-0.02690170
-0.10237964
0.11275724
0.14562018
0.19937783
-0.02977733
-0.01973455
0.21658887
-0.14469558
0.00220643
-0.04929208
0.06227656
0.07995184
-0.01334363
-0.01239763
0.13579869
0.19307439
0.02980456
0.04658962
-0.29938418
-0.04023936
0.03736611
-0.02630335
0.00418674
0.08624343
0.24875011
-0.02554064
-0.21802655
-0.00767236
-0.10933848
0.04366422
-0.06281533
-0.07178877
-0.08809245
-0.13498504
0.14420632
-0.24325497
0.07671452
-0.01774935
0.10163816
-0.01879071
-0.10309076
-0.04217851
-0.10657554
-0.02806692
-0.02930383
-0.20768486
-0.33496210
-0.01992405
0.15751968
0.08020008
-0.03909517
-0.04295554
-0.02262306
-0.06583947
-0.02166032
-0.04025070
0.10210319
0.07658520
-0.06493959
-0.02682499
-0.31482598
-0.07413094
-0.20478258
-0.03996174
0.14010246
-0.02437988
-0.09078057
-0.14816460
0.21744516
-0.06328485
-0.09400198
0.12977889
-0.06744714
0.07533352
-0.23856170
0.15610190
-0.09703276
-0.02667328
0.03078950
0.14109991
-0.04637727
-0.09019488
-0.05298663
-0.02242852
0.22735122
-0.02226475
-0.04036922
-0.09856693
0.03104591
0.02697080
-0.02657484
0.08076447
0.29702142
-0.09643123
0.18433850
0.20754269
-0.05259436
-0.18671887
-0.07788602
0.08108252
-0.10656057
-0.10506557
-0.07197809
-0.16868812
-0.17026247
0.08800913
-0.07595029
-0.29761529
0.12246154
-0.04700608
0.07494750
0.01578990
-0.09760209
-0.03280587
-0.19054347
0.21814914
0.03480470
-0.09816254
0.26125515
0.25178853
-0.09907407
0.03228549
0.10541999
0.03616556
-0.10596793
-0.07006789
-0.03905970
-0.32252076
-0.14777538
-0.03751031
0.09910677
-0.07255138
-0.05239547
-0.08314353
0.13545540
-0.07908674
-0.03536636
0.03065814
-0.19384900
0.02525158
-0.02918054
-0.11560792
-0.13212489
0.27635926
0.20554771
-0.16696109
-0.26885575
-0.05136042
-0.05057217
0.07770500
-0.03421035
-0.05751036
-0.05420596
-0.13283262
0.06313192
-0.18128821
0.06206638
-0.01413641
0.21894638
0.06595236
-0.10078613
0.06161032
-0.06893294
-0.14968534
-0.04001451
-0.25008845
-0.19971323
0.00132079
0.18067579
0.05738737
-0.01284269
-0.01948686
-0.11368798
-0.10496985
-0.01962352
-0.03905893
-0.04373790
0.16599347
-0.23931365
-0.00157970
-0.22034806
-0.08729014
0.00875453
-0.10048440
-0.01285956
-0.06301221
0.09177281
-0.11074290
-0.22534937
-0.10055997
-0.05358190
-0.12894191
-0.12549533
-0.09091826
-0.23124431
0.21341850
-0.06462632
-0.09527551
0.00402179
0.00313659
-0.03091778
-0.03407732
-0.14443108
-0.05655063
0.23684354
-0.01958859
-0.08412460
-0.05652253
0.03229601
0.05121581
0.02358217
0.07599095
-0.05513924
-0.08588615
0.04967069
-0.34388998
-0.08479761
0.00869768
-0.04824253
-0.04013857
-0.14289790
-0.08882649
-0.06314357
-0.10765371
-0.24883227
0.18019809
-0.09939437
-0.16386800
0.06115777
-0.01017607
0.03498806
-0.01987458
-0.03875422
-0.06270062
-0.15887253
0.17329061
-0.10785758
-0.07229882
0.30402926
-0.07118625
-0.01385979
0.11293927
0.18187404
0.06030376
0.09549809
-0.09732395
0.07564255
-0.30663517
-0.20273755
-0.07853961
0.07738662
-0.16298786
-0.04831796
-0.02235588
-0.08581956
0.22338314
0.09870704
0.01530438
-0.18191180
-0.04210373
0.09714268
0.08144353
0.20809138
0.52632099
0.06111559
-0.01075953
-0.02900215
0.14363447
-0.03136135
-0.00896114
-0.05809076
-0.05150404
0.07656664
-0.08872530
-0.15644398
-0.36434740
0.07662207
-0.02971914
0.05595929
0.04800986
-0.04467895
0.04121993
-0.01053361
-0.07923807
0.02039604
-0.25217894
0.05644808
-0.02582623
-0.00072567
0.07631160
-0.09949903
0.02091578
-0.01869878
-0.06977301
-0.01706378
-0.06880534
0.14418092
0.39102614
0.18813583
0.04140254
-0.45130166
-0.04229538
-0.22823322
-0.06156742
-0.02911010
-0.07856899
0.11786712
-0.14965159
-0.33078524
-0.08332599
-0.02990112
-0.14577682
-0.28747484
-0.12227295
-0.39917731
0.16478381
-0.10838544
-0.07005285
0.10685080
0.33004966
-0.01355722
-0.10113013
-0.00560566
-0.05362638
-0.05383812
-0.07645338
-0.08737278
-0.09199335
-0.10532220
-0.05107513
-0.03917124
0.63832986
-0.03745224
-0.05236802
0.23762794
-0.02246999
-0.07572635
-0.24666439
-0.01965514
-0.04269984
0.13666508
-0.01929983
-0.05587267
0.09990259
-0.27155909
0.01542274
-0.09257165
0.17655854
0.08241833
-0.03440727
0.34251791
-0.00969324
0.00777988
-0.09724948
-0.24854392
0.19677189
0.06968914
-0.02152497
0.18885060
0.16797881
-0.05610283
0.03156550
0.01200374
0.08797464
0.04138648
-0.00159609
-0.12912053
0.05638147
0.14263034
-0.10214669
0.08373275
-0.20718139
-0.05987350
-0.04324291
0.64437544
0.00554103
-0.28636461
-0.07294981
-1.22391641
-0.09558406
-0.09198380
0.15607619
0.52732962
-0.30182883
-0.00462576
0.55788267
-0.03232954
-0.23598163
-0.03874788
-0.43343315
-0.13672125
-0.56369811
-0.63657415
0.37238738
0.05747784
-0.35346323
-0.27236849
-0.14631213
-0.07214212
-0.00990484
-0.05680411
-0.60422873
-0.02585289
-0.18748987
-0.19456780
-0.87315089
-0.76041007
-0.09206979
0.02850484
0.22929177
-0.03716476
-0.04628706
-0.10901000
-0.07710610
-0.06400165
-0.06882450
0.04988562
-0.35272208
-0.19934192
-0.09880365
-0.66721493
-0.05572968
0.18363659
-0.04179054
-0.01857436
-0.04773065
-0.15500267
-0.64040905
-0.15626955
-0.08394092
0.13201976
0.19392906
0.00313431
-0.23487864
-0.92612249
0.31317094
-0.01760072
-0.30406746
-0.35464466
-0.38993865
-0.06814550
-0.01980208
-0.07602923
-0.34422469
-0.45190740
-0.06569321
-0.09970809
-0.13370048
-0.33466128
0.32170510
0.04559809
0.70883584
-0.08862320
-0.06954750
-0.36836216
-0.42526177
-0.06358490
-0.52451164
-0.08082540
-0.10732114
-0.13787849
-0.07394949
0.10581703
-0.81217790
-0.32217792
0.65765285
-0.01312870
-0.36406848
-0.30739596
-0.06073508
-0.09885668
-0.14379193
-0.56904668
-0.08396190
-0.22209063
0.30822220
-0.16081329
-0.02252798
-0.21321535
0.31119844
-0.02918479
-0.18375742
0.07883152
-0.34217271
-0.98159677
-0.03129574
-0.57196838
-0.99133891
-0.34111190
-0.03191428
-0.07503577
-0.63324583
-0.07529410
0.08930475
0.67435187
-0.04659345
-0.51451474
-0.01058166
-0.68157303
0.00281216
-0.01490684
-0.85130996
-0.86473250
-0.50184160
-0.56066310
0.04649001
-0.12975988
-0.22895461
0.08590420
0.07511240
-0.43660563
-1.62968898
-0.23657966
0.29754490
-0.42010191
-0.50944328
-0.60840285
-0.04394686
0.14377743
-1.19701529
-0.00690947
-1.25737131
-0.04449376
-1.29946470
-0.31339288
0.11837847
-1.39709556
-0.03839163
-0.62581712
0.34351370
-0.08617525
-0.07086501
-0.73600847
-0.04079786
-0.08030631
-0.03311212
-0.01439235
0.14173310
-1.04517114
-0.09663902
-1.93756306
-0.07755738
-0.36789855
-0.05115886
-0.14916365
-0.63704079
-0.18369775
-0.96322358
-0.36418951
-0.02523736
-0.64234269
-0.18228871
0.18697603
-0.50360036
-0.70564282
0.07010757
-0.08675389
-0.79796845
0.44112489
-0.39894629
0.03174001
-0.08230998
0.29798716
0.02246777
0.31418291
-0.02046081
-0.06074572
-0.16025312
0.37015507
-0.37677589
-0.13216907
0.03015564
0.24819338
-0.05300183
-0.76044905
0.33014107
-0.04600619
-0.62966943
-0.01441714
-0.29400980
-0.15710440
-0.43512219
0.11263305
-0.67333513
-0.03177905
0.40528780
-0.09036247
0.12506086
-0.44478983
-0.54839599
-0.10849565
-0.08296278
-0.36417964
-0.03048369
-0.19894227
-0.00706987
-0.14111595
-0.02096726
-0.44838497
0.14750969
-0.05881636
-0.14434005
0.12842467
-0.49535981
-0.68382573
-0.02315119
-1.34613478
0.17555137
-0.90785259
-0.15081963
-0.08692112
-0.59514648
-0.06540138
-0.10482131
-0.22640523
-0.31078663
-0.53798074
-0.07921021
-0.64482504
0.03010489
-0.11435806
-0.49084112
-1.01006293
-0.39269307
-0.22054541
-0.01624648
-0.28142560
-0.44020429
-0.00944440
0.53886288
-0.61327744
-1.27378166
-0.13450839
-0.45009509
-1.00029206
-1.22741127
-0.30037692
-0.10620324
0.20838468
-1.01891041
-0.04861809
-0.81624043
-0.01071956
0.17000225
-0.35949937
-0.04060830
-1.55456078
-0.06404486
0.02524441
-0.21548139
-0.02283248
-0.11688974
-0.71180719
-0.10984078
0.02262243
-0.02895211
-0.02228453
-0.46333539
-0.61502141
-0.04754326
-0.54263163
-0.05790399
-0.27913010
-0.10311946
-0.14002068
-0.47356510
0.07493145
-0.51823902
-1.05787718
-0.09345304
-0.71736878
-0.43328086
-0.59464651
-0.80574113
-0.46349341
-0.25059828
-0.02534242
-0.95868427
0.28786772
-0.50680345
-0.14714403
-0.09510560
-0.09263980
-0.06108075
0.66708738
-0.05894121
-0.01679359
-0.18311074
-0.23129255
-0.66125804
-0.10287610
-0.32237273
-0.35710922
-0.10785285
-0.58584988
0.18316592
-0.10706906
-0.23296322
-0.03924638
-0.62265807
-0.00100341
-0.50067860
-0.00577633
-0.10444391
0.09590600
-0.13767268
-0.06242105
-0.19266523
-0.41415876
-0.07851727
-0.25180358
-0.03998231
-0.46060801
-0.01170201
-0.02239266
-0.13358127
-0.21293794
-0.07343154
-0.45802027
-0.55308002
-0.05124411
-0.21517277
0.89598185
-0.55871761
-0.07896367
-0.00001848
-0.72508693
-0.20329916
-0.69817519
-0.14851764
-0.04892481
0.00994219
-0.50635248
-0.02847398
-0.82000011
-0.25783810
-1.06466985
-0.03402866
0.28387305
0.00878565
-0.04118474
-0.13936315
-0.86400425
-0.50917482
0.05629842
-0.23556349
-0.18893874
-0.23189841
-0.01870819
0.53533411
-0.01864558
-0.46954617
-0.36811602
-1.11016035
-0.88454336
-0.63357991
-0.32814503
-0.08883672
-0.23769478
-0.78470749
-0.05636566
-0.05633929
-0.03940320
0.27144027
-0.18786201
0.30604389
-0.83454514
-0.07220516
-0.48858452
-0.00952750
-0.00602186
-0.20257707
-0.00686445
-0.10701059
-0.08902935
-0.05986249
-0.18356860
-0.84676057
-0.17072479
-0.08400788
-0.14534611
-0.08754903
-0.65016258
-0.09071919
-0.22919868
-0.70523852
0.48710442
0.01010430
-1.03966427
-0.03877836
-0.45758986
0.04316982
-0.43070811
-0.89381474
-0.16890164
-0.51011038
-0.04302039
-0.69226712
0.25148621
-0.19926651
-0.03557372
-0.07863393
0.50012243
-0.35107964
0.05555170
-0.01013140
-0.06774557
-0.12984185
0.09683242
-0.25312942
-0.17841427
-0.18330818
0.27019510
-0.01151491
-0.67925799
-0.16165872
-0.03902598
-0.18806192
-0.04326374
-0.93561769
0.46316734
-0.36928505
-0.12590775
-0.33428097
0.46336409
-0.43560869
-0.06671739
-0.47428358
-0.10126497
-0.31638148
-0.16465130
-0.12809218
-0.01792934
-0.07254118
-0.05855332
-0.44376937
-0.23575459
-0.07019430
-0.55710018
-0.45122206
-0.02749464
-0.23873377
0.02722870
-1.19270802
0.89852709
0.01766271
-0.45265785
-0.21059476
-0.94778812
-0.18714491
-0.01417767
0.35392684
-0.47721386
-0.04304793
0.42709240
-0.44944152
-0.34030429
-0.07179651
0.15396225
0.01124464
-0.09859999
0.01886423
-0.95309031
-0.32276699
0.33529189
-0.29353046
-0.51883006
-0.34715044
-0.11448374
-0.22622451
-0.51887035
0.06192269
-0.30695897
-2.09489751
-0.29410741
0.30538246
-0.45703804
0.00321986
-0.20326577
0.28760880
-0.07931360
-0.21555516
-0.03824714
-0.81543112
-0.34146294
0.10354151
-0.83590716
-0.09740162
-0.92103022
-0.23062187
-0.07809916
-0.20006371
0.40762699
-0.03971785
-0.04889036
-0.10914931
-0.06189268
-0.09089833
0.15804660
-0.03689589
0.14908096
-0.03463356
-0.42716375
-0.01945672
-0.28107718
-0.57477236
-0.00649944
-0.63379258
-0.23623189
-0.08826301
-0.84953153
-0.54832339
-0.95217949
0.21272668
0.60947013
-0.67656660
-0.04268781
-0.99981916
-0.63448972
-0.02659820
-0.08558634
-0.05813597
-0.12355399
-0.29551959
-0.46351889
-0.01910301
-0.08700898
-0.00237708
-0.22096658
0.30537462
-0.11986863
-0.36977488
0.29542345
-0.05547028
-0.89032406
-0.34688565
-0.10495336
-1.33924246
-0.09542542
-0.95627743
0.25860330
-0.18526576
0.11138597
-0.52953804
0.42482165
0.11087482
-0.02416904
-1.09103370
-0.44997293
-0.36816904
0.29211006
-0.18343978
0.05863525
-0.10577057
-0.21496724
-0.63882476
-0.15113664
-0.07203014
-0.28540659
-0.49929544
-0.08910619
-0.09528590
0.00111535
-0.40053740
0.21055879
-0.02408057
-0.35455039
-0.54714817
-0.07657754
-0.15137525
-0.00092540
0.33391732
-0.56001270
-0.09193770
0.89238805
0.05199997
-0.04152692
-0.08574396
-0.87496269
0.02913014
-0.10605837
-0.23902954
-0.81801617
-0.08078652
-0.52025497
0.02590488
-0.25418225
0.64644146
-0.14676712
-0.98565942
0.17974268
-0.21373148
0.09383862
-0.32569540
-0.01568430
-0.44011605
0.17047206
-0.14819698
-0.88600200
0.30935505
-0.08924980
-0.19029829
-0.01123963
-0.60556978
-0.05099026
-1.49556208
-0.70048511
-0.03735283
-0.00171993
-0.20502143
-0.06552499
0.00709053
-0.35997534
-0.07104935
0.04774558
-0.06278000
-0.04029563
-0.83098447
-0.23970829
-0.11318566
0.28720951
-0.04054340
-0.12795390
-0.03088341
0.01719507
-0.67301351
-0.00656632
0.19566718
-0.69132930
-0.04644642
0.47426605
0.17240345
-0.86372924
0.09866917
-0.50458884
-1.05442560
-0.10164970
0.05390573
-0.34378868
-1.74388933
-0.08301928
-0.03869425
0.50998002
-0.11972602
0.41659796
-0.10120632
-0.09458668
0.00548438
-0.69263387
0.29690638
0.05447043
-0.26366872
0.00990590
-0.10022496
-0.44499636
-0.32779345
-0.03146522
0.74001211
-0.08041071
0.10609026
0.05345926
-0.10057431
-0.02818319
0.02552201
-0.14505933
0.80607963
-0.02254275
-0.17618780
-0.98269141
-0.38855258
-0.07565758
-0.11397291
0.02774958
-0.07126645
0.01430824
-0.18641832
-0.08721486
-0.08790024
-0.19018713
-0.44174132
-0.04153275
-0.16629343
0.32386798
-0.09904310
-0.14877538
-0.01328093
-0.09305916
-1.08085251
-0.88960695
-0.13027783
0.00477254
-0.47132033
-0.35649458
-0.06127366
0.55267364
-0.33617833
-0.19511844
-0.03123893
0.18410486
-0.07425448
-0.06403375
-0.79800737
-0.01298408
-0.18292372
-0.21204744
0.12569477
-0.38623622
0.56092823
0.03903215
-0.15027393
-0.06889311
-1.06671858
-0.19500735
0.26043910
0.68966538
-1.52178943
0.42963216
0.00673101
-0.34973878
0.32569197
-0.03575902
1.02917373
-0.05979052
-0.35359752
-0.07488303
0.06518030
-0.88087845
-0.07802933
-0.46599728
0.12574196
-0.02384247
-0.09989095
0.17276245
-0.10166422
0.07378644
-0.08663138
0.03173645
0.36911407
-0.29156440
-0.01549700
-0.81534141
-0.09549182
0.40085059
-0.09788222
-0.00684386
-0.15315737
-0.19763599
0.16245790
-0.37260792
-0.05205034
-0.45436746
0.74334103
-0.21328975
-0.58890247
-0.65660781
0.11196867
-0.10446683
-0.27987024
-0.14397751
-0.28150544
-0.14956100
-0.06774577
0.11008699
-0.03174376
1.04961693
-0.01704488
-0.01035834
-0.11225332
-0.63390118
-0.18652020
-0.22706851
-0.90786898
0.57868534
-0.02286112
0.02529687
-0.18208767
-0.10154797
0.79772204
-0.06739619
-0.18199192
0.01159474
0.13475999
-0.12285291
-0.23074123
-0.56643265
0.83231926
-0.05194208
-0.39609724
-1.27696514
-0.51454931
-0.36746794
0.02063006
-0.11783162
-0.04506401
-0.10495868
-0.32960567
-0.08010370
-0.09761443
0.43713692
-0.60018730
-0.09629729
-0.13248685
0.13311554
0.63076812
-0.81151992
-0.04618477
-0.18885238
-0.65764731
-0.36798558
-0.09737866
-0.04063703
0.08388651
-0.42102727
0.00965224
-0.51668012
-0.44535026
0.16704035
-0.07097638
0.41849425
0.04467719
-0.09239330
-0.83739346
0.02942190
0.03847573
0.21930289
-0.00504094
-0.79285461
-0.54444003
0.00652069
0.37111023
0.27316892
0.01871333
-0.59197611
-0.11223327
-0.37096623
-0.86865890
0.00188054
-0.14426638
-0.58065557
0.14591581
-0.07637684
0.76760483
-0.07402525
0.98536032
-0.01373421
0.54857087
-1.19701934
-0.05675961
-0.03028020
-0.54756367
-0.10127957
-0.00229028
0.13408040
-0.07980364
0.00734442
-0.09426821
-0.02188616
0.01621135
0.87653488
-0.03522574
-0.87956774
-0.03846646
-0.28803968
-0.07460093
0.37750441
-0.65078247
-0.25049296
-0.50601017
-0.86216265
-0.02758917
0.27909851
0.08264741
-0.02519782
0.00736255
-0.23874119
-0.67757004
-0.05373719
-0.68530715
0.53456157
-0.08856434
0.02489212
-0.06017881
0.32903787
-0.07523484
0.75696820
-0.05426650
-0.03766327
-0.05630774
-0.71193093
-0.70779598
0.01004709
-0.30087629
0.20900615
-0.06405900
-0.00644877
0.29637885
-0.02568163
0.03346799
-0.06852259
-0.33694103
0.71896547
0.12250846
-0.15134604
-0.19763015
-0.81578803
0.13967210
-0.04132108
-0.35466143
-0.78915435
-0.70861024
-0.81776100
-0.11171436
0.11844076
-0.01145395
-0.28169155
0.43652558
-0.07593083
-0.08505484
0.45885730
-0.33726999
-0.03194682
-0.19687852
0.63411087
0.74616116
-0.89230055
0.01860110
0.35946912
-0.07069474
0.57582861
-0.18769437
-0.06399803
-0.32195008
-0.04121892
-0.02191672
0.48434457
0.23005067
0.37407488
-0.01100512
0.39505708
-0.00809955
-0.07161196
-0.12387383
-0.09190255
0.12201621
0.21279289
-0.05398408
-0.18266974
-1.28131449
0.05398691
0.19382559
-0.18439455
0.72444201
-0.12046698
0.69745982
-0.51416546
-0.75140625
-0.39514014
-0.11759099
-1.16619766
0.55848753
-0.02215953
0.90348077
-0.02489856
0.43660727
-0.05984030
0.83287966
-0.63924277
-0.02202558
0.43906170
0.19133325
0.00037578
0.00402171
0.46452039
-0.02387092
-0.12648517
-0.03128787
0.02129273
0.47559145
-0.04294666
-0.11391481
-0.78361958
-0.04322895
-0.35880351
-0.03690128
-0.14071496
0.13086495
-0.10770704
-0.26986060
-0.47387546
-0.04275564
0.24257496
0.08778334
-0.53018117
-0.95163709
-0.84452498
0.05475926
0.07605729
-0.17954648
0.06543616
0.59791529
-0.09275350
-0.08448109
-0.56774348
-0.12387131
-0.18134025
-0.08338059
-0.01813141
-0.01539351
-0.14272781
-0.27223542
-0.13296922
0.34165010
-0.23293327
-0.09161747
0.18466641
-0.84778869
-0.01669354
0.19092490
-0.08575751
-1.10990763
-0.18221362
-0.12775519
-0.04367664
-0.63635015
-0.84349918
0.66591263
-0.02877301
-0.43365541
-0.38832209
-0.13821888
-0.29447085
-0.13393626
0.57820904
-0.10881530
-0.21996847
0.41160285
-0.04409943
-0.01829590
-0.03144554
0.53639561
0.02732163
-0.25115982
0.03292201
0.85319018
0.00404403
0.02247227
0.35539994
-0.03189543
0.57097596
-0.06925464
-0.07623827
0.41584888
-0.10269941
-0.04290823
0.18214996
-0.29062927
-0.09738373
-0.08900427
0.26151294
-0.02007180
-0.06946043
0.10876612
-0.64714533
-0.71058744
-0.49154687
0.31385589
-0.52734756
-0.71516395
-0.04416534
-0.11641089
0.36017287
1.67662215
-0.05428366
1.16689181
-0.37276068
-0.02582553
0.42287007
-0.03904801
-0.83491087
-0.12911758
-0.03899626
0.57199746
-0.09331959
0.04861588
-0.04883621
-0.35968485
0.09234815
-0.01614253
-0.94225711
-0.59527832
-0.04868262
-0.08909921
0.59331089
-0.03593821
-0.12747940
-0.03744227
-0.10914143
-0.93090087
-0.44715899
-0.08437534
-0.14171046
-0.08626335
-0.37569845
-0.10433676
-0.01010067
-0.87760705
-0.26405561
-0.83815795
-0.55663800
-0.09834466
-0.59956467
-1.00901055
0.24655066
-0.25801414
-0.16137488
-0.01889792
-0.06976997
0.56432658
-0.56947672
-0.33304453
-0.13681386
-0.07150751
-1.46660244
-0.00959239
-0.09281429
-0.10021666
-0.01057927
-0.01737941
-0.23219351
0.36884847
-0.25168115
0.09616701
-0.53245294
-0.07553756
-0.79003823
-0.90946734
-0.09990698
-0.75893539
-0.08461736
-0.50098473
-0.48138085
-0.12772833
-0.06289270
-0.80537099
-0.74266571
0.37908745
-0.09468026
0.53270227
-0.41688490
-0.16823554
-0.26915675
-0.09382644
0.95341021
-0.10199984
-0.01713599
0.38678122
-0.16732594
-0.08186557
-0.03901973
-0.72584975
-0.07969814
-0.11761907
0.20875852
-0.13216196
-0.60817409
-0.06444605
0.26616332
-0.26517874
0.52950269
-0.15542826
-0.09608229
0.31821364
0.09300729
-0.03532663
-0.35967496
0.43812403
0.36315838
-0.06531129
-0.16906807
0.02357474
-0.08468593
-1.26446474
-0.73525494
1.08876741
-0.21201360
-0.60445631
0.46647444
0.22575487
-0.12399913
-0.97916037
-0.21444117
0.53055096
-0.01679300
-0.36575243
-0.35356072
-0.17592344
-0.20715483
-0.12774467
-0.49766931
-0.03260348
-0.05295556
-0.05538534
-0.04405602
-0.08650766
-0.09254980
0.80016989
-1.04219520
-0.08602851
0.84332448
0.01344210
-0.07057486
-0.04745724
0.92530400
-0.02008503
0.03470009
-0.03704109
0.03518477
-0.44462022
-0.04275819
-0.10587501
-0.03518711
-0.01687795
-0.97920060
-0.06235482
-0.60077155
-0.40673071
0.03641197
0.40085635
0.02815582
-0.05238331
0.03513377
0.47103387
-0.53869730
-0.26753697
-0.27765748
-0.72488558
-0.09496092
0.56305599
-0.58812648
0.48596829
-0.02613642
-0.06218925
-1.09304059
-0.26574129
-0.73010147
-0.09743634
-0.01722763
-0.00348658
-0.74905795
0.40344802
-0.06770322
-0.08421159
-1.11647046
-0.10308867
-0.06289013
0.42708561
-0.02712411
0.33065194
-0.10413464
-0.43047538
-0.38610786
-0.51588553
-0.21291523
-0.51770645
-0.17763655
-0.55455399
-0.02096739
0.10836007
-0.31557170
-0.67015862
0.44564903
-0.09151825
-0.07875083
-0.03336993
-0.22179389
-0.05288190
-0.05828552
-0.08033131
-0.26591641
-0.98736805
-0.06411668
-0.07535811
-0.55615902
-0.28823885
0.44531709
-0.02441736
0.01989442
0.26103771
0.37823516
-0.04689857
-0.05150096
-0.47078681
-0.02162904
-0.01839515
-0.53459185
0.49404874
0.57766610
-0.01108624
-0.09061620
0.00957976
0.00577793
0.19069858
-0.60972679
0.27417991
-0.87611383
0.05675810
0.29367882
-0.04926972
-0.08357673
-0.68302464
0.18113728
0.05403392
-0.17326342
-0.02176291
-0.22623368
-0.33811885
-0.15043253
-0.06512882
-0.16268747
-0.45197400
-0.03320940
-0.34310144
-0.04664000
-0.58489096
0.02819114
0.53288072
-0.77139890
-0.07335482
0.92116761
-0.46581587
-0.05172230
-0.00607544
-0.15256633
0.05696655
0.06731635
0.03781527
-0.07360563
0.43289360
-0.22451094
-0.09172717
0.67621416
-0.07041524
-0.67992353
-0.05788756
-0.38845551
-0.57107055
0.36933494
1.23341799
-0.76076889
0.00779841
-0.53193986
1.41116369
0.89965135
-0.69087929
-0.37543327
-0.16071613
0.05208242
-0.41175601
-0.56431234
0.15791304
-0.05290560
0.08385744
-1.13254535
-0.21708423
-0.29525992
-0.10877738
-0.00918096
-0.02248865
-0.66954052
-0.39713311
-0.08926360
-0.37091377
-0.52115679
-0.08974814
0.06886000
-0.19730450
0.05754705
1.07091165
-0.10190213
-0.31135911
-0.93552089
-0.36742949
-0.27749455
-0.96535891
-0.45733818
0.03059855
-0.02560426
-0.17601226
-0.47279346
-0.86334306
0.18000375
-0.04157103
1.01222026
-0.06301399
-0.21158113
-0.42489317
0.01288236
-0.02503939
0.12292082
-0.34474224
-0.10834658
-0.01551288
-0.69899517
0.32412866
-0.61806685
-0.01095219
-0.23194690
-0.02597647
-0.04646325
-0.07380913
-0.03323461
0.06215172
-0.26678303
-0.06189420
-1.21828437
0.43085790
0.73553574
-0.09361941
-0.01851405
-0.02906938
-0.02360415
-0.54714108
-0.22731513
1.27502763
-0.38685343
-0.58242047
-0.20229423
-0.36140665
-0.02255124
-0.92956012
-0.12528388
0.73882973
-0.38434657
0.67019778
-0.52258772
-0.19844086
0.14058663
-0.05515421
0.03140666
0.84887284
-0.06455917
0.22084020
-0.01596944
0.59510297
-0.03478962
0.29564425
-0.77572137
-0.00102328
0.29111335
-0.96765506
-0.09332917
-0.04292029
-0.20624994
0.08705868
-0.04286818
0.01555954
-0.14191680
0.40814221
0.48295063
-0.10162014
-0.93974018
-0.04498269
-0.70013422
0.02600339
-0.61053699
-0.83363640
-0.66363579
0.26837793
-0.97147691
-0.08669858
0.41555020
0.20124048
1.26245177
0.03829932
-0.95426577
-1.26213133
-0.08291578
0.65767020
-0.91344005
-0.79126143
-0.02520848
0.04294487
-0.13503788
-0.21864320
-0.32810187
-0.04597513
-0.03774688
-0.12439854
-0.97279483
-0.19499502
-0.07908165
-0.52388394
-0.04875030
-0.07633883
-0.24854805
0.12250826
-0.10955832
0.70632678
-0.03596830
-0.56579465
-0.55997604
-0.41588008
-0.10093177
-0.11795753
-0.40436238
-0.18019551
-0.02830979
-0.08748929
-0.89184749
-0.69908482
0.00239650
-0.03800659
-0.73006213
-0.02091954
-0.16437596
-0.77378571
-0.14686476
-0.08653904
0.30156171
-0.25100246
-0.06458936
-0.13212003
-0.66760164
0.39583108
-1.36824214
-0.09950968
-0.15728210
-0.00612174
0.35284948
-0.18116446
-0.05687687
-0.89519560
0.29667005
-0.08248282
-0.52273303
0.55373001
0.48706686
-0.03121645
-0.29171965
0.00463245
-0.04680776
-0.28378063
0.05849682
-0.00042972
-0.65012789
-0.61533219
-0.75280261
-0.94103456
-0.03569651
-0.56550431
-0.42451298
0.87544733
-0.38358149
0.48080227
-0.63163763
0.03069307
-0.05018778
-0.01745501
-0.56365758
-0.33207661
-0.03892102
-0.97970206
-0.03985790
-0.08941324
-0.07399115
-0.31686631
0.04190869
-0.01705916
0.22192059
-0.10769766
-0.08023279
-0.03659701
-0.67735171
0.09178645
0.03769955
0.07399149
-0.08831455
0.16077635
0.54413146
-0.10155301
-0.38785639
-0.03047098
-0.06952102
0.01723730
-0.62054330
-0.81733930
-0.61140668
-1.01957691
-0.49646428
-0.09719129
0.15989996
-0.48721892
0.19231704
-0.24830194
-1.14138794
-0.51885474
0.01754841
0.30935699
-0.54388255
-0.38963777
-0.02870566
0.06846548
-2.15554929
-0.34847501
-0.81813985
-0.03427163
-0.09678436
0.04343998
-1.28169727
0.23105229
-0.06676634
0.64190650
0.08530261
-0.06273761
-0.21817620
-0.78234959
-0.10567335
0.21135700
-0.02450052
-0.45586509
-0.02675337
-0.24005383
-0.23670392
-0.78566724
-1.52970076
-0.00937111
-0.01346392
-0.24478109
-0.89991033
-0.10132901
0.41726017
-0.08096603
-0.64086562
-0.04340860
-0.08896859
0.54957652
-0.17301714
-0.09078731
-0.40101945
0.88450730
-0.10490482
-0.13058272
-0.28589183
-0.71171480
-0.00124520
-0.01840711
-0.09047641
-0.37408480
-0.48555556
-0.05803470
-0.06098310
-0.59926987
-0.26547369
-0.09183598
-0.29942054
0.12800494
-0.15504746
-0.02611865
-0.79688299
0.00782344
-0.04157576
-0.43748164
-0.08925686
0.48547548
-0.66693711
-0.11650503
-0.80013001
-0.94443649
-0.03576022
-0.78271693
-0.08467828
0.92235023
-0.10639476
0.76600188
-0.54615170
0.19692187
0.09772281
-0.13034974
-0.52044469
-0.62794429
-0.03388881
-1.12184906
-0.02216162
-0.75344712
-0.00669424
-0.17302036
1.04799116
-0.09624251
-0.04738325
-0.97308779
-0.07868957
-0.05001958
-0.25081357
-0.02060255
-0.07931923
-0.02279400
-0.05580552
-0.65605557
-0.07254630
-0.05980572
-1.28568494
-0.03880608
0.26701126
-0.04801860
-0.28999946
-0.39672282
-0.88255006
-0.63331985
-0.11918321
-0.05321613
-0.65879780
-0.20744224
0.59017324
-0.66836834
-0.56426007
-0.92279017
-0.09901951
0.00225114
-1.16770267
-0.29003978
-0.11890751
-0.05373528
-2.98133898
-0.38360056
-0.64374530
-0.01839854
-0.03887712
-0.01704914
-0.71849781
0.00933896
0.01194279
0.16144334
-1.05101287
-0.05636716
-0.65363884
-0.15207627
-0.06646334
-0.36564308
-0.05582175
-0.47189793
-0.46725392
-0.39235055
-0.15409859
-0.39579582
-1.28025866
0.24488026
-0.08409671
-0.02051765
-0.95882952
0.28617489
-0.44471589
-0.08312503
-0.35214010
-0.03376960
0.03700339
0.91784316
-0.14085877
-0.03887126
0.00518773
0.49214935
-0.08634149
-0.09175037
-0.67123789
-0.26692644
-1.09481382
-0.03311245
0.25149667
-0.77914345
0.79160631
-0.18217587
-0.07752185
-0.40475237
-0.02252469
-0.08068890
-0.38895589
0.10368592
-0.54036206
-0.05912514
0.49070916
0.01377038
-0.01187128
-0.52807975
0.23595235
-1.30684292
0.28662404
-0.53641772
0.36567530
0.41175428
-0.01466007
-0.53735292
-0.08178497
-0.15916319
-0.01722291
-0.42202821
-0.16388682
-0.30820516
-1.44768345
-0.06564404
-0.18461339
-0.19799344
-0.07821897
1.11759639
-0.05581132
0.04299600
-0.06251860
0.67255718
0.13720275
-0.06647308
0.15326267
0.96795791
-0.06937578
-0.07757596
-1.10571313
0.07594508
-0.09934302
-0.10639934
-0.09164293
-0.81596243
-0.52641088
-0.03377445
-0.69799209
-0.04525689
-0.24223587
-0.02524602
-0.44959080
-0.05312567
0.05777308
-0.17767455
0.67263788
-0.04754190
0.22996156
-0.24012299
-0.04294465
-0.92033881
-0.68972886
-0.79042733
0.07192983
0.11295081
-0.43896142
0.45162314
-0.01587757
0.08474790
0.08546073
-0.10329900
0.76913756
-0.10803529
-0.09671445
-0.03321159
0.28181472
-0.75167602
0.00484387
0.88527715
-0.76452452
-0.01401250
-0.52237159
-0.44522396
-0.04041627
0.16680950
-0.01552153
-0.13935946
-0.25987685
-0.08501132
-0.09646701
-0.29795238
-0.52431440
-1.19603300
-0.06471185
-0.27666590
0.54778612
-0.71565688
-0.02083658
0.01315902
0.13885023
-0.08409069
-0.01824540
-0.15661894
-0.08009013
-0.08413034
-0.49385464
0.08821071
-0.09019394
-0.16931485
-0.93002069
0.40286574
-0.76841718
-0.08467094
0.58761555
0.36017913
-0.29710141
0.01880022
-0.04398212
-0.38929608
0.28847307
-0.01717844
-0.01479372
-0.10625541
-0.34324434
0.00076224
-0.93127012
-0.00983836
-0.03157771
0.52270496
0.02535257
0.01072932
-0.60486490
0.10603824
-0.65689343
0.36288005
-0.04371104
0.76470542
-0.29863837
-0.62937522
0.44303140
-0.04891745
0.10176817
-0.29312688
-0.15113962
-0.05247920
-0.14790964
-1.57431543
0.00619753
-0.40629566
-0.06937557
-0.30522233
-0.13714652
0.55019206
1.08580184
-0.06670967
-0.37319493
0.06344780
-0.09156924
-0.02390815
-0.35823965
-0.10856819
-0.03655934
-0.05000432
-0.03010315
0.35683835
-0.31871220
-0.02334317
-1.27060723
-0.02904732
-0.68231338
-0.05846659
-0.12488411
-0.20405130
-0.79618329
0.26456583
0.35380358
-0.01485777
-0.29016337
0.28703755
0.00284414
-0.47649190
-1.27199042
-1.36343002
-0.05906167
0.03385988
0.06810009
-0.28869751
-0.10387427
0.04717204
-0.21720701
0.10716280
-0.73820692
0.10816831
0.02352759
-0.11466455
0.80344224
-0.81141967
-0.10564794
-0.53070396
0.19815525
-0.03230544
-0.32507157
0.01941846
-0.05699499
1.03117704
-0.04030178
-0.75587296
-0.21322350
-0.47766450
-0.50418663
-0.57827282
-0.23526722
-0.08946127
-0.02686799
0.58692151
-0.18041232
-0.67485738
-0.65378296
-0.02004870
-0.18320851
-0.07009108
-0.00364789
-0.40507874
0.01184522
-0.07926504
-0.15916122
-0.30524287
-0.02055586
-0.09173010
-1.74548221
-0.26281363
-0.68792224
0.00049056
0.53209192
0.13171981
-0.40047878
-0.08787610
0.00056132
-0.68879777
-0.22344352
0.09338200
-0.22401781
0.50439441
-0.08180248
0.07452258
-0.64579427
-0.04304836
-0.06787941
0.07034060
-0.04453481
0.85467350
-0.16245626
-0.32755199
-0.51383269
0.82405066
-0.10622611
-0.04213651
-0.36954090
0.33111358
0.01932602
-0.28015617
-0.28449160
-0.06007372
0.08031302
-0.06783806
0.07399102
0.21636033
-0.03637459
0.14900132
-0.09567579
-0.24619745
0.11030245
-0.20559990
-0.22452749
-0.02115001
-0.00354254
-0.50996101
-0.02974237
-0.09494504
-0.57325417
-0.04341251
-0.06879314
-0.07305150
-0.00743544
0.39880517
0.16329660
0.01263819
-1.08812416
-0.01964628
-0.41605541
-0.06345228
-0.00784092
-0.87208205
-0.66146833
0.20703882
0.12056247
-0.08992025
-1.07945120
0.27625445
0.51041412
-0.44413421
-1.07588804
-0.84525633
-0.05829158
0.20118932
-0.82853842
-0.73927659
-0.07444174
-0.06968105
0.78959727
-0.14282748
-0.40340769
-0.05313084
0.02695835
-0.04946670
0.02700868
-0.53153521
-0.02718223
-0.03179993
0.47707018
-0.08128801
0.11267992
0.55703294
-0.03018102
-0.00153393
0.04049880
-0.37344581
-0.00943285
-0.28652877
-0.23341784
-0.64125586
-0.41539732
0.32939574
0.01566915
-0.28510264
-0.21322465
-0.39205933
-0.14818352
-0.04347871
0.22942305
-0.04906895
0.01674641
-0.97262049
-0.00292413
-0.04681579
-0.35314116
-0.81521863
-0.01329346
-0.12143636
-0.49680743
-0.19200110
-0.78690487
0.04617720
-0.16779296
-0.67898393
0.69455189
-0.04283035
0.00411555
-0.25809905
-0.04748014
-0.06287898
1.16251779
-0.37483585
-0.59977496
-0.02139599
0.36948863
0.02790466
-0.07353138
0.33537897
-0.30084094
0.79363173
0.01296267
0.03042250
-0.41839263
-0.77044135
-0.09086161
-1.36193240
-0.20132904
0.39788958
0.42382565
-0.93694484
-0.58291405
-0.29352286
-0.10576104
-0.04338157
-0.21268502
-0.86229962
-0.03844786
-0.68016690
-0.03456702
-0.16801709
0.07726965
-0.87123930
0.00375985
-0.07846988
0.07063220
-0.34390804
0.02674574
-0.03774658
-0.39075807
-0.06061126
0.03861612
-0.07844244
-0.11340779
0.31671068
0.48247427
0.04226710
-0.45233327
-0.01413427
-0.38225442
-0.05421883
-0.53438133
0.38326666
-1.62360168
0.04491983
-0.65766126
-0.00491350
-0.75970888
0.12076223
0.60460120
0.28395313
-0.72659951
0.54253751
-0.05479812
0.54183632
-1.53739619
-0.41994071
-0.08195233
0.01410753
0.17868049
-0.08188106
-0.21018672
-0.06330467
-0.03911346
0.06778964
-0.41399419
-0.48513398
0.13079408
-0.46504721
0.94274348
-0.06057030
-0.08518992
0.84227651
-0.07699159
-0.30283579
0.02933732
-0.19241488
-1.29709375
-0.33211926
-0.16038305
-0.14823073
0.12926762
0.72784442
-0.06946290
-0.18462402
-1.04666817
-0.88387698
0.19679695
0.04259065
-0.16743769
0.04879413
-0.21519372
0.14817637
-0.03975665
-0.06519698
-0.66073084
0.71682179
-0.04144321
-0.16336662
-0.85274172
-0.39297479
-0.04252016
-0.04153646
-0.18015726
0.07737375
-0.05100041
-0.08373912
-0.01413205
-0.32689402
-0.11859990
-0.04668898
0.21279031
-1.53304613
-0.36203763
-0.00662205
0.71264482
-0.03380254
0.01124246
0.13157915
-0.29159102
-0.04166061
0.05046232
-0.11778627
-0.13811591
-0.65956599
-0.01218960
-0.77160037
-0.35779503
0.08241151
0.20108584
-0.52334332
-0.49205792
-0.74243611
-0.24561989
-0.13939250
-0.25050533
-1.37136531
0.04448618
-0.31831431
-0.03539317
-0.86010867
0.06369744
0.38785741
0.60138512
-0.11430927
0.81641203
-1.02057350
-0.03975553
-0.01766965
-0.46212181
0.08484138
-0.09046567
-0.06395172
-0.03382817
-0.08321667
-0.55639941
0.03384044
-1.25670469
-0.02202911
0.14490685
0.06039199
-0.40862527
0.04824258
-0.60052478
-0.22168297
-0.82518154
-0.02213666
-0.26047406
0.57545376
1.11475027
-0.48936760
-0.69862282
-0.18046752
-0.04038200
-0.52163321
-0.38682720
0.11815529
-0.13799930
-0.09138702
-1.24538004
-0.17923996
0.38864946
0.07841515
-0.06639387
-0.00130145
-0.48411915
-0.32031080
-0.11480853
0.00869954
-1.06519651
-0.03628496
-0.17372178
0.78003907
-0.08424561
-0.53564984
-0.06762465
-0.56932676
-0.40036947
-0.31567690
-0.38536394
-0.53563595
-0.26742196
-0.37322536
-0.10592204
-0.46313605
-0.81604975
0.25666288
-0.13040921
0.08224427
0.03238053
-0.05333569
-0.17563610
0.12736149
-0.04163061
-0.05847218
-0.52848077
-0.50172514
-0.01528569
-0.03632160
-0.37998313
-0.21619672
-0.42937383
-0.07474157
-0.38260591
-0.11010353
-0.38285640
0.13552669
-0.01734503
-0.50352287
-0.22286177
-0.02377439
-0.68397290
-0.14427742
-0.09569422
-0.06895965
1.10846031
-0.04519671
-0.01546259
0.60059440
-0.08035067
-0.39477292
0.07527345
0.09528280
-0.06860483
0.50874400
-0.09274635
-0.80424607
-0.26445901
-0.61805958
-0.02567517
-0.61603808
0.15858294
0.18019639
-0.80108196
-0.07840570
-0.21339601
-0.39157262
-0.08174147
1.70847452
-0.04510509
0.15865375
-0.04650564
0.11409361
1.29711103
-0.03147884
0.38240483
0.26533014
0.04455904
-0.03728531
-0.55435568
-0.01602121
-0.02122596
-0.09454838
0.03042868
0.28332922
0.02656164
0.01843513
0.71800929
-0.03055524
-0.40632015
-0.09447641
0.03272191
0.04090602
-0.56029242
-1.45920384
1.07167518
-0.03160566
-0.36955282
-0.84386659
-1.33338988
-0.05672406
0.55142510
-0.59242147
-0.01608692
0.24144293
0.45242473
-0.98475420
0.02461354
-0.10781021
0.32888657
-0.19044225
-0.75841385
-0.02805926
-0.01146004
-0.18789332
0.31001678
-0.90896398
-0.01410349
0.27070451
-0.36767998
-0.09036060
-0.55394459
-0.79094201
-0.01803268
-1.15297687
-0.07065310
-0.24698427
1.07942963
-0.09298512
-0.45058015
-0.29188859
-0.09427140
-0.90158361
-0.10337266
-0.22794898
0.48212811
-0.36186758
-0.39979142
-0.02711762
-1.05394471
-0.03485477
0.02760077
-0.33482406
-0.05529714
-0.02547654
-0.17972933
0.95573509
-0.04223364
-0.09520210
-1.39628696
-0.19748126
-0.24326280
0.00267765
-0.11587135
-0.26599339
-0.20219959
-0.07192767
-0.01060527
-0.21689735
-0.07981826
0.03284241
-0.28518805
0.04199870
-0.60497797
0.03605975
0.38280264
-0.02565273
-0.05674456
0.65498221
-0.04240872
-0.06296870
-0.00299063
0.60085058
0.05906103
0.23434128
-0.07877678
-0.62613147
-0.10425359
0.41142631
0.28669271
-0.40302575
0.20391889
-0.24127959
-0.92082047
-0.08898804
-0.80453688
-0.03971289
-0.03260620
-0.26509058
