-0.49448705
-0.11029228
0.16324419
-0.29233435
0.16167846
-0.07942843
-0.32437667
0.05205129
0.06210324
-0.15305844
0.14618124
0.02727005
-0.20362952
-0.12977849
0.17324752
-0.26483262
0.08085403
-0.08938919
-0.15649031
0.28848329
-0.00090011
-0.07308515
0.01391128
0.12616587
-0.10050371
0.00778162
-0.21462092
-0.08629829
-0.02884839
0.10907899
-0.06921561
0.04864508
0.00444980
-0.17743148
-0.05421148
0.10177036
-0.06197319
-0.02500527
-0.02116855
0.04088170
-0.32374874
-0.63259321
-0.16911010
-0.20603898
-0.11983882
-0.38756675
-0.22478922
-0.41549215
-0.00402957
-0.08309883
0.17836189
0.01846924
0.24367270
0.11626519
-0.22728358
0.00105921
-0.10122247
0.02098642
0.01006939
-0.41360700
-0.23433457
-0.00066592
0.31629464
0.06870019
-0.21906011
-0.16983229
-0.36469114
0.11412363
-0.12370744
-0.09426959
-0.58492994
-0.15875220
0.08186256
0.19059993
-0.04155397
0.07556213
0.10803294
0.10323142
0.25258967
-0.08016475
0.36491555
-0.28275099
-0.57770818
-1.51809466
0.03134293
-0.55039805
-0.43293980
0.03734624
0.08409272
-0.39391738
-0.05742163
-0.14467697
0.13637462
-0.11061928
-0.18066037
0.10327311
-0.10864764
-0.09098974
-0.10486335
0.01439117
-0.34812289
-0.49168521
0.18090650
-0.35362801
0.10804706
0.13787943
-0.24042407
0.02347227
-0.16715300
0.42738259
-0.12740384
-0.26534158
-0.19118802
-0.00668051
0.16581489
-0.01261780
0.20753156
-0.07748638
-0.01548168
0.14087369
-0.68741351
-0.20866264
-0.86499012
-0.42817825
0.32502151
-0.13159443
-0.34401706
-0.54709768
-0.55733347
0.17876433
0.08889649
-0.20831107
-1.00867701
-0.03632350
-0.25549728
0.00709949
-0.21731262
-0.73555899
-0.20152345
0.12541547
0.05633901
-0.36781967
-0.44531611
-0.02019050
-0.41174331
0.21942382
0.29057574
-0.17732456
-0.12435044
-0.12154464
-0.46802416
-0.05347931
0.13736740
0.06882126
-0.29265285
-0.00047574
0.02563020
0.12249040
0.03991240
-0.07134441
-0.11838671
-0.52621615
-0.02534672
0.13425784
0.16649699
0.17590831
-0.18901592
0.14744528
-0.28394133
0.00666945
-0.15138316
0.10399578
-0.56534654
0.01763272
-0.00737301
0.25980863
0.00041329
-0.40345150
0.27837354
0.03909935
0.32308054
-0.03288658
-0.09598294
-0.26193094
-0.14876758
-0.15707597
0.12593858
-0.47665074
0.08032813
-0.12613671
0.24265353
0.10329950
-0.49640912
-0.56858313
-0.04175114
0.06358317
0.07936387
0.01699694
-0.10362019
0.01143458
-0.29803947
-0.07689811
-0.14449582
-0.01666680
0.01553959
-0.06976448
-0.30362037
-0.06517325
-0.18553169
0.17134929
-0.35671416
-0.10320602
-0.35802913
-0.03427713
0.05485989
-0.23592640
-0.86648476
-0.18917158
-0.11308069
0.22808057
0.26278865
0.18603548
0.05529701
-0.11074801
-0.02813435
0.06429052
-0.29247883
-0.03786175
-0.19732304
0.18551771
0.26208529
-0.18570136
-0.01229015
-0.00012998
-0.09988516
-0.35020438
-0.11614615
0.15092799
0.17630117
0.15978430
0.07982438
-0.07321430
0.19991972
-0.99880022
-0.31431431
-0.70686483
0.12142945
0.04385168
-0.10652338
-0.01841096
0.00386552
0.25052959
-0.24625655
0.33449093
-0.09179205
0.01251283
-0.09849939
0.22318938
-0.23914792
0.00197053
0.17178728
-0.06844301
-0.02809587
0.01527377
-0.30373824
-0.50584459
-0.38812605
-0.10329589
-0.40549403
-0.32843739
0.01657030
-0.18014976
-0.25356424
-0.15193199
0.14328276
-0.31971711
-0.25201395
-0.51519036
-0.07844470
0.30800137
0.09691687
0.11391430
-0.17588526
-0.32772130
-0.23176798
-0.41691869
0.24742788
-0.52346557
-0.07734047
0.15241858
0.08382867
-0.22014359
0.01121056
0.24905342
0.09448037
0.05243780
-0.05691833
0.10994016
0.07667843
-0.10745382
-0.02599661
-0.19298615
0.05009172
0.18518500
-0.21702534
0.03380804
-0.21180646
0.00545441
0.11017650
0.09758382
-0.06417536
-0.22746840
-0.21170731
-0.01300195
0.05315047
0.18377554
-0.17317596
0.00869740
0.04283323
0.29800653
-0.21355201
0.08039722
0.15597676
0.15388523
0.10526916
-0.02566313
0.06311461
-0.20174344
0.08350722
-0.41247675
0.15925102
-0.43696302
0.15479232
0.11431868
0.04982504
0.02207955
0.09785499
-0.22885546
-0.20010757
0.03300978
-0.17234832
-0.11829177
-0.30899826
-0.24801296
-0.08204703
0.11888410
0.08702557
0.14068188
0.13497573
0.23183808
-0.17374910
-0.06845503
0.16845013
0.15507758
-0.12399978
-0.37255546
0.04084918
-0.01971602
0.10462046
0.02630567
-0.66011411
-0.16409685
-0.55309016
-0.16671303
-0.89500284
-0.24163944
0.22164595
-0.23253591
-0.32559061
0.17928050
-0.26803243
-0.59846812
0.00214465
-0.10899094
-0.02710030
0.25494653
0.07011892
0.09555107
0.07393896
-0.24595797
-0.51791692
-0.06236207
-0.24690920
-0.18052380
0.23075113
-0.35720327
-0.26013693
0.01426419
0.04454999
0.17666996
-0.37805164
0.09029834
0.02407540
0.00809709
-0.08334231
-0.13560961
-0.92876828
0.28428158
-0.28232676
0.06517643
-0.05927372
-1.00816512
-0.42436993
-0.38174674
-0.29341808
-0.14162846
-0.23480053
-0.43732756
-0.30616680
-0.15605156
-0.08688892
-0.05781722
-0.42808628
-0.25425988
-0.71295053
-0.30514696
-0.77417696
-0.09824131
-1.15695071
-0.45744288
-0.18930484
-0.00737035
0.00914666
0.05517081
-0.07520064
0.01187439
-0.46219790
-0.08152895
0.11733753
0.01225034
-0.03976639
0.09880300
-0.09362379
0.02640515
-0.04011605
-0.04417815
-0.05304857
-0.53445512
-0.07433384
-0.31783897
-0.08998869
-0.02546706
0.07612778
-0.00047125
0.06276263
0.15483464
0.05252551
-0.19918360
0.07048628
0.04376806
0.00257228
-0.12457181
0.03387140
-0.11221354
-0.10906868
-0.29703760
0.14843702
-0.42416719
0.03480405
-0.11616991
-0.93464655
-0.99631339
0.13184343
-0.18432707
-0.12731029
-1.48901641
-0.44996113
-0.29894358
-0.16269156
-0.50100607
-1.28085363
-0.63608849
-0.47137579
-0.67333215
-0.31172052
-0.91046774
-0.45626798
-0.21401912
-0.56705487
-0.65562773
-0.38850334
-0.10648196
0.05263072
0.17921288
0.11076327
-0.24632289
0.02987565
-0.20004402
-0.15028422
0.06773360
-0.11029090
-0.61913079
-0.93237108
-1.12358212
-0.15444458
-0.29564783
-0.38916519
-0.28959280
-0.52872705
-0.02830651
-0.39636278
-0.08731162
-0.53017390
0.06140660
-0.28044581
-0.35816896
-0.05290964
-0.32179579
0.22212058
0.01331602
0.21206853
-0.13128167
0.07920121
-0.74637854
0.02011298
-0.25116107
0.01726783
0.01138872
0.00420674
-0.06382037
0.01706852
-0.08160006
0.00300173
-0.10804294
-0.00534730
0.00747640
0.36785817
0.04465713
-0.28367743
-0.05865702
0.31212395
0.10169749
0.06197788
-0.35931095
0.06986078
-0.10227553
0.18382300
-0.28375226
-0.22212006
-0.02476500
-0.20557724
-0.00891471
-0.27935502
-0.62654972
-0.12462660
-0.80958599
-0.07041527
-0.21742578
-0.09163679
-0.23743260
0.15078273
-0.10508160
0.05702165
-0.34986001
-0.10709614
0.02195227
0.18670966
-0.14079984
-0.07165099
-0.10682750
0.26016912
-0.47261205
-0.33735761
0.19471271
-0.29407218
-0.02459055
-0.01971527
-0.19230115
0.14283916
-0.08022091
0.07164279
0.02004923
-0.16873799
0.16483930
-0.25134742
-0.17746745
0.23576365
-0.41057232
0.07695602
0.05288563
-0.25690755
0.06834258
-0.14295641
-0.34666398
0.27100897
-0.35893089
0.11097707
-0.07487538
0.00214428
-0.07129589
-0.14613302
-0.43432733
-0.63330477
-0.47552645
-0.13841191
-0.90797317
0.03155250
-0.22362114
-0.07844851
-0.31922355
0.19854899
-0.33566847
0.17241392
-0.15137333
0.08477437
-0.08361985
0.04971140
0.21085954
-0.13814838
-0.07629828
0.04811575
0.03535565
0.01295295
-0.01000089
0.00233987
0.26322743
-0.04373804
-0.00562398
-0.07570168
-0.33537406
-0.29086417
-0.02231498
0.15832283
-0.04598418
0.03962453
-0.32690722
-0.04163072
-0.18635435
-0.07300275
-0.16768137
-0.38519710
-0.54823309
-0.01880564
0.08500325
-0.45672241
-0.36186996
-0.27235904
-0.16678418
-0.47571203
-1.02957404
0.18755879
-0.21927600
0.04010745
0.16431040
-0.14817689
0.12127928
-0.04031479
0.24261668
0.02236483
-0.01425335
-0.22661223
-0.05643572
-0.10687003
-0.18074596
0.11203705
-0.03148172
0.21673566
0.09645959
0.10579009
0.10344744
-0.30510801
-0.33992618
-0.68628997
-0.06424259
-0.54220355
-0.20311762
-0.57661444
-0.11457456
0.01785681
0.04155838
0.02624707
-0.21015972
0.09796030
-0.14260365
0.09268671
-0.27447844
0.00912449
-0.25156766
0.18027528
-0.20628582
0.18857688
-0.39901119
0.01316390
0.08247139
-0.39985734
-0.07958155
-0.40422210
0.17672981
0.26817480
-0.06078179
-0.39710250
0.30164549
0.14885807
-0.09231750
-0.08310486
-0.12154998
-0.06676344
0.08559755
-0.03008525
-0.07804371
-0.06532668
-0.39060381
-0.47948718
-0.27540433
-0.17164962
-0.00278099
-0.12188518
-0.02466759
-0.04274159
-0.06664994
0.07835595
0.09519473
-0.30275586
-0.25448349
-0.19446220
-0.22436208
-0.21178536
-0.41809195
-0.08854537
-0.27295268
0.22446118
-0.18991077
0.01800915
-0.09608046
-0.09397309
0.21829934
-0.04818664
0.01862985
-0.28635651
0.04717371
-0.00977488
-0.07744516
0.06442565
0.02078658
-0.14898881
-0.19642779
-0.11385947
-0.27763480
0.19586633
0.11202742
0.03239738
0.08139927
-0.00670740
0.26239732
-0.55781043
0.17437996
-0.18847097
-0.03362932
-0.10353469
-0.09351026
-0.90012187
-0.18732941
-1.44926369
-0.44078675
-0.16515645
-0.69925338
-0.67728055
-0.29196492
-0.54437417
-0.40603852
-0.01902575
-0.03347159
-0.11304334
0.00534043
-0.00261153
0.07971738
0.35417253
-0.50180799
0.03432552
-0.27134871
-0.03953527
-0.36714143
0.10097231
0.17232934
-0.53690177
0.14072219
0.06900749
-0.56338680
0.02549588
0.07599278
-0.17997324
-0.26685727
-0.18608865
-0.38863242
-0.22525404
-0.14081773
-0.07031028
0.22636992
0.18133347
-0.09235396
-0.21374293
-0.34113890
-0.07344588
-0.38832688
-0.06955387
-0.14885476
-0.28133586
-0.33095089
-0.03527967
-0.49454913
0.05655602
-0.11353479
-0.33461991
-0.04517955
0.06918219
0.08575208
0.31132257
-0.51378924
-0.25258943
0.04346596
-0.25355864
0.04215772
0.25313723
0.01792400
0.03977824
-0.24627635
0.15995379
0.11993246
-0.26783502
-0.18372086
-0.11821507
0.07893510
0.09191988
0.21605185
-0.42133865
-0.10822615
0.01165794
0.16000180
-0.03005709
-0.23473884
0.09710186
-0.20156546
-0.09164346
0.03908539
-0.22523159
0.14376082
0.05204793
-0.26462102
-0.03445812
0.03587371
