-0.02537741
0.13997452
0.05452855
0.03053840
-0.01650891
-0.01579289
0.09943496
0.04479959
0.02839335
-0.01687387
0.12398297
-0.10111806
0.05568206
0.02786411
-0.00525304
-0.02126300
0.03829306
-0.04728979
-0.07200156
-0.13687807
0.14533508
0.01750366
0.02484607
-0.01230556
-0.02370854
-0.01823225
0.02433746
-0.13705592
-0.01328580
-0.03394985
-0.03894174
0.00504250
0.07546593
0.08862086
-0.04370513
0.12428970
-0.02925491
0.01039168
-0.00777133
-0.00308959
-0.09586223
-0.07291644
0.07417497
-0.05444093
-0.01986437
0.04089332
-0.00710623
0.08623996
0.09757607
-0.12495217
-0.01912679
0.07226846
0.12876396
0.08436851
-0.02658167
-0.08152541
0.14779106
-0.01681096
-0.03340210
-0.02672179
0.00307649
-0.04134182
0.05478187
-0.07658393
-0.00635997
-0.01573426
-0.00091891
-0.00298162
0.09654167
-0.00306733
-0.11355463
-0.02638761
0.05610508
-0.12981614
-0.02022407
-0.05397861
-0.10107414
0.13037552
0.01004732
-0.01625504
-0.04606135
-0.09447661
0.05421396
-0.01980921
0.32807317
-0.41901657
-0.23401698
-0.72909188
-0.05503282
0.64422572
-0.00812829
-0.09989262
-0.62261099
-0.14614110
-0.07149731
-0.78694797
-0.21373032
-0.08514107
0.01214640
-0.08745304
0.57694846
-0.59041518
-0.24181740
-0.40165594
-0.42280656
-0.07839246
-0.00093259
-0.05947211
-0.47645974
-0.13453317
-0.17424043
-0.49138421
-0.21961965
-0.13362420
-0.65810353
-0.13706252
-0.45402217
0.45666060
-0.51032490
-0.65057772
-0.63081688
-0.09342232
0.05130428
0.27998289
-0.09377509
0.16573946
-0.12708981
0.02411048
-0.17893285
-0.38168159
-0.78936964
-0.57252181
-1.41414845
-0.56355792
-0.21593618
-0.88982779
-0.08094434
-0.58695590
-0.17105222
0.21281697
-0.32015058
-0.55725592
-1.01069582
0.10384144
0.02384302
-0.19268669
0.23746173
-0.03463615
-0.50912517
-0.18182094
-0.28842342
-0.52598459
-0.03646845
-0.45672002
-0.47560763
-0.03201016
-0.20301485
-0.60342431
-0.22375645
-0.29823104
-0.03276313
-0.84672183
-0.28886172
-0.54753464
-0.23339577
-0.16739327
-0.44619384
-0.15916866
-0.76282704
-0.24214733
-0.40942511
-0.53419912
0.63598269
-0.04880534
-0.65244997
0.62101418
-0.42501816
-0.10092549
-0.59090573
-0.39638573
-0.07132986
0.44315556
-0.12464958
-0.11181001
-0.04475772
0.17318080
0.25124815
-0.03590374
-0.10748035
0.21926162
0.44991726
-0.27835354
-0.99883324
-0.13945636
-0.18197459
-0.55208546
0.05520187
0.00369406
0.70200646
-0.51369572
0.28478852
0.13069357
0.06971834
0.28752959
0.18876067
-0.39886272
-0.27674642
-0.55802947
-0.64840931
-0.10243950
-0.57051659
-0.11392728
-0.27588245
-0.26726571
-0.23939966
-0.38621485
-0.05288223
-0.36361057
-0.47594053
-0.11921330
0.01631614
-0.25450072
-0.51475865
-0.02039596
-0.30878779
0.01338117
-0.18077087
-0.51113093
-0.13477790
-0.30892375
-0.45140666
-0.12732980
-0.70936441
-0.33636397
-0.32798612
-0.16771221
-0.05704230
-0.56140602
-0.68180871
0.15650478
0.06650449
-0.83703536
0.77473468
0.00662603
-0.09150781
0.20520131
-0.36153021
-0.44492179
-0.42232689
-0.04004903
0.13801156
-0.17193206
-0.13778752
0.20466667
-0.10920272
-0.33611372
-0.73405433
0.38139489
-0.21029799
0.11475339
-1.05689764
-0.07985969
-0.48401242
-0.11088885
-0.11615633
-0.11983906
0.16860242
-0.01947138
-0.30863732
-0.06033463
0.05875724
-0.27480915
0.05676217
-0.13614734
-0.39816090
-0.13710199
-0.36560982
0.20833039
-0.02481148
-0.53945386
0.20338745
-0.17636965
0.27993429
-0.39314488
0.30514494
-0.12398951
0.18221053
-0.23393697
-0.01340446
-0.27650204
-0.75309086
-0.02675737
-0.47574738
-0.52697325
-0.23638189
0.03124090
-0.09777287
-0.56367266
-0.27790958
-0.09828787
-0.29351521
-0.43359998
-0.40280432
-0.60772145
-0.07663805
-0.07213122
-0.55652475
0.14979811
-0.30116639
-0.36584899
-0.44818681
-0.96622604
-0.26002491
-0.08604968
0.06210316
0.04250196
-0.06600064
0.00431867
-0.45464143
-0.38008678
-0.67341697
0.11147941
-0.37101924
-0.27433333
-0.17293786
0.07615641
-0.22887090
-0.37519789
0.10159595
-0.19321126
-0.07703571
-0.34276220
-0.13620554
-0.15350606
-0.04630326
-0.12428196
-0.08761445
-0.06983470
0.03216495
0.01409579
-0.06373084
0.03390297
-0.05018290
0.03294321
-0.06384018
-0.00321095
0.04379867
-0.01560177
0.06556509
-0.08848661
-0.08601625
0.05244833
-0.01036502
0.10215360
-0.03641576
-0.03217358
-0.02870297
0.08690195
-0.09430148
0.00845397
0.06074281
-0.00683251
0.09088266
-0.02560477
0.09502564
-0.05390618
-0.03017101
-0.03773809
0.05450679
0.01402392
-0.01275841
0.03488370
-0.06529300
0.07606402
-0.03537289
-0.02191995
0.00414000
-0.08728136
0.11804539
0.05593693
0.02120873
-0.05013342
-0.00828215
0.00937809
0.03923152
-0.04685802
-0.07029904
0.00275249
0.03081311
-0.05326137
0.07750750
0.10415200
-0.01373486
-0.01158588
-0.03785714
0.07928474
-0.06181663
0.01647006
0.01443531
0.06244405
0.09828841
-0.03382765
-0.02682196
-0.02923073
-0.07101574
-0.06471779
-0.02528899
0.04208399
-0.02606211
-0.01586891
-0.09779069
-0.08801201
0.12995416
-0.08721346
0.08378451
0.00163286
0.02232171
0.12150732
-0.00844094
0.05084294
0.11050232
-0.13303129
-0.30062693
-0.31915891
-0.49730766
-0.65573931
-0.59023601
-0.36105785
-0.71997494
-0.16895059
0.01533488
-0.02542249
-0.55997765
-0.49247679
0.26709190
-0.10322607
-0.06831901
0.47524628
-0.05887733
-0.33878207
-0.23014452
-0.23982453
-0.38238242
-0.09680586
-0.23059243
-0.23957689
-0.18614466
0.04577557
-0.06935986
-0.02220139
-0.94187570
0.09579514
-0.23776901
-0.79381055
-0.02677307
-0.73481780
-0.58690649
-0.01251447
-0.08406800
-0.58826321
-0.66649079
-0.59123749
-0.81837261
-0.15481804
-0.21733309
-0.36797136
-0.40323648
-0.42377722
-0.15032715
0.15193488
-0.55849445
-0.08524116
-0.22725189
-0.29604042
-0.42086551
-0.03403034
-0.15066536
-0.62103271
-0.12152881
0.12059293
-0.14147866
-0.44864807
-0.48950985
-0.58596486
-1.08570468
-0.18563931
-0.71547121
-0.10008702
-0.67803395
-0.30657506
-0.53559285
0.06367315
-0.31832090
-0.14834389
0.02809324
-0.18123984
-0.07857260
-0.17107506
-0.12821476
-0.44373637
0.00309153
-0.55143535
-0.80067652
-0.01340024
0.01116949
0.00558773
-0.02443825
0.01341831
0.04100421
-0.01542650
-0.08247310
0.01084397
-0.03980640
0.08392689
-0.08868477
0.04276957
-0.09013494
0.04355232
0.07440083
-0.06307256
-0.00346569
0.07333675
-0.00608365
-0.02373309
-0.06423572
-0.02498531
0.02527980
-0.11849966
0.05365753
-0.01319101
0.01015503
-0.09274013
-0.00602738
-0.05793248
0.02976215
-0.05775737
0.03528627
-0.02139766
-0.08379603
-0.05903082
-0.05186161
0.05065878
-0.11190757
0.08011800
-0.03489166
-0.06935785
0.02893702
-0.07342569
-0.05622014
-0.02489036
0.05952694
-0.00447159
0.01947092
0.06814809
0.07605240
0.04244969
-0.01798546
-0.03273516
0.00207192
-0.08013064
-0.03223325
-0.02161517
-0.01332525
-0.00605913
0.03032923
-0.02260254
0.02459785
-0.01333089
-0.04548508
0.05023654
0.02182200
-0.00111428
0.08292112
-0.01871222
0.04238710
-0.01842579
0.04584630
-0.01781059
0.13701165
0.05323425
-0.06849292
-0.06637529
-0.06247443
0.04332167
-0.01085215
0.02358263
0.02482274
-0.03825374
0.13283984
0.01977252
0.01346050
0.00981289
0.01666751
-0.05032622
0.01313925
-0.08015432
-0.10892407
0.11491400
0.05783223
0.04141664
-0.00173422
-0.02102157
0.00463003
0.06739800
0.02715147
0.06205363
-0.04248486
0.01838885
-0.00803767
-0.04283340
0.01435472
-0.00261179
-0.03508603
-0.00326452
-0.08443003
0.03154751
-0.04430907
-0.05144201
-0.04982035
0.04161719
-0.00478124
0.10024130
0.04091008
0.04426684
-0.08923101
-0.01920432
-0.01220046
0.02079517
-0.02539095
0.00273112
0.05863667
0.06371482
0.02798906
0.07362375
0.02008129
-0.07741974
-0.00440988
-0.10593720
-0.00438227
-0.04586977
0.10471311
0.00116340
-0.10559665
0.00209344
0.02425833
0.14352384
0.04008336
-0.04036574
0.10215071
-0.12764965
0.08620717
-0.06941552
-0.08373629
-0.00112005
0.00311978
-0.04299049
0.07245235
0.03018752
-0.12883416
0.02332072
0.00643039
0.06486395
0.01224660
-0.02245038
-0.08287819
-0.05469295
-0.09691347
0.03441730
0.05947123
0.12437454
0.01352280
-0.06262502
0.20503853
-0.22609416
0.02317721
-0.47182432
-0.37057856
-0.22096491
-0.11272116
-0.86733043
-0.28922239
-0.23296957
-0.07250540
-0.92509413
-0.26566413
-0.94119090
-0.61052257
-0.10596725
-0.47539371
-0.16551577
-0.62213713
-0.20748687
-0.82812160
-0.30867583
-0.00162079
-0.81739032
-0.43456611
-0.19864105
-0.14490950
-0.91570753
-0.15917280
-0.26521927
-0.60099614
-0.57299924
-0.23569775
-0.93169367
-0.14589782
-0.52120614
-0.26983458
-0.24593474
-0.48705614
0.15484434
-0.19380185
-0.44375989
-0.16344504
-0.02502468
-0.17984530
-0.32935017
-0.72598368
-0.41073170
-0.62467939
-0.46530837
-0.30477449
0.18447706
-0.12745194
-0.19277646
-0.44842553
0.11452984
-0.80402368
-0.47791383
-0.21951261
-0.84426337
0.36995322
-0.22273780
-0.20489652
-0.21417053
-0.21960747
-0.16167343
-1.01976287
-0.14977705
-0.98009813
0.68917084
-0.40216869
-0.74914414
-0.66167450
-0.75689578
-0.15316336
0.03730479
-0.19703275
-0.77996141
-0.34930936
-0.44282216
-0.80171657
-0.35354483
-0.47615811
-0.73403400
-0.39297354
-0.10099792
-0.49402678
0.51928228
-0.00397336
-0.15986699
0.07768745
-0.74502385
-0.12539642
0.05411233
-0.32157940
0.14421144
-0.09269746
-0.58844006
-0.08761218
-0.02320863
-0.12208308
0.06276758
-0.26747110
0.26794028
-0.21303079
-0.12922587
-0.11683856
-0.34305105
-0.55305266
0.03174153
-0.04882982
0.10004144
0.59243584
0.06945963
-1.01851404
-0.44023189
0.18184882
-0.28541198
-0.15889640
-0.24709980
0.10643949
-0.52091986
-0.19738650
-0.20932437
0.11071731
-0.32778046
-0.46943581
0.06594497
0.02192393
-0.08552489
-0.41404632
-0.49286374
-0.45233479
-0.19302805
0.07992058
0.01436218
-0.03860843
-0.20749913
0.13534445
0.21601869
-0.34033701
-0.72485077
-0.03416754
0.48817283
-0.30682647
-0.25707355
0.51326251
-0.05770946
-0.09620368
-0.08071533
-0.20043336
0.20198326
-0.32419655
0.18436703
0.11910319
-0.18856375
-0.48686424
-0.17579132
0.23202725
0.67215514
0.24290854
0.04641246
-0.47875479
-0.44233617
-0.15407950
0.06607965
-0.47507948
-0.20015590
-0.17321493
0.13766493
-0.35683018
-0.41426694
-0.61957222
-0.27089304
-0.41467786
-1.00956786
-0.36814544
-0.09395082
-0.30027544
0.06808419
-0.30526710
-0.31711170
-0.89484805
-0.10197286
0.11145677
-0.64925003
-0.25069302
-0.69419926
-0.02346458
0.03965430
0.11012006
-1.14017737
-0.30615503
-0.77442414
-0.09122957
-0.41083771
-0.62759072
-0.32198614
-0.60752606
-0.94306672
-0.46617335
-0.35566795
-0.76618129
-0.87235761
-0.20986910
0.19057490
0.25763124
-0.20106548
-0.32521260
-0.62274742
-0.45726019
-0.16470802
-0.28406027
-0.08643444
-0.78630471
0.16811758
0.40403336
-0.47489685
-0.27906999
0.03811146
-0.08954496
-0.67576808
-0.60121608
-1.24576926
-0.22511315
-0.97590691
0.45196277
-0.15643764
-0.26403296
-0.29640028
0.06716754
-0.07931407
-0.27994263
-0.39318803
-0.76666343
-0.43230313
-1.29173434
-0.57878017
-0.36300263
0.00134835
-0.86613709
-0.67783058
-1.12848890
-0.16568321
-0.50212014
-0.57152176
-0.24807262
-1.20891416
-0.84445101
-0.16812705
-0.33321655
-0.30241418
-0.59133148
-0.02283402
-0.46726683
-0.62094378
-0.01544646
0.11364053
-0.29368550
-0.21603227
-0.22746070
-0.05237730
-1.09191179
-0.27033627
-0.54827458
-0.26572564
0.56787771
-0.15059443
0.09578738
0.09695068
0.28121129
-0.11030773
-0.10377608
-0.34309894
-0.54470861
-0.10017536
-0.89383775
0.13295566
-0.33752880
-0.16803885
-0.35854259
-0.10012597
-0.27605447
0.03897397
-0.11747360
-0.23952082
-0.25319886
-0.25354016
-0.42478094
-0.59243810
-0.27720833
-0.21091175
-0.33796868
0.02346095
-0.35114542
-0.34469858
-0.13830848
0.04960943
-0.18008478
-0.54414207
-0.33651736
0.06280988
-0.26996988
-0.33465967
-0.18685760
-0.39877960
-0.86565763
-0.22590266
-0.13163473
0.21669656
0.03011030
-1.48806965
-0.00456867
-0.02568601
-0.02908034
-0.60726607
-0.20010161
-0.24882194
-0.50307959
-0.41799143
0.13108046
-0.09163775
-0.20787364
-0.45710877
-0.06092505
-0.11127096
-0.02448403
-0.32253981
-0.40861323
0.55287361
-0.03945857
-0.52724332
0.08354064
-0.21505040
0.03226304
-0.37016678
-0.03552965
0.19584331
-0.35972744
-0.08647747
0.15331149
-0.35657921
-0.27372146
-0.50401825
-0.61449897
-0.05919762
-0.59362566
-0.33272186
-0.14154516
-0.50472128
0.27731335
-0.10275383
-0.17751168
-0.01535832
-0.41264039
-0.47542778
-0.07094318
-0.24629204
-0.57458526
-0.25511652
-0.43855810
0.23297679
-0.26575145
-0.15404283
-0.11121403
-0.10937764
0.16904682
-0.05501369
-0.07900789
-0.08084226
-0.01537713
-0.49311483
-0.78843033
-0.24556176
-0.26035559
-0.14439940
-0.87933964
-0.59934151
-0.12520982
-0.16307874
-0.09726375
-0.41484269
-0.44078222
0.02776253
-0.21722507
-0.24546431
-0.51005358
-0.20121995
-0.01481482
-0.06626137
-0.38093400
-0.40989026
-0.25852269
-0.50416988
-0.67170936
-0.55344129
-0.11603197
-0.00027049
-0.35244402
-0.93801695
-0.16054954
-0.01882805
-0.53917581
-0.45801216
-0.28529260
-0.04536157
-0.00170020
-0.16737878
0.08333729
-0.37979984
0.49842483
-0.14096630
0.24748369
-0.05853047
-0.22370496
-0.62093002
-0.20026574
-0.41644484
0.11175654
-0.39066637
-0.37490749
-0.09857623
-0.55030757
-0.31064072
-0.31210738
-0.14363709
0.37530112
0.14636526
-0.77173185
-0.02711665
-0.07519588
0.00430493
-0.31768128
0.01974922
0.53085864
-0.10723119
0.16367196
-0.17595388
-0.14874822
-0.48404142
-0.30710816
-0.23675275
0.17247990
-0.38022941
-0.03750240
0.03121329
-0.23058853
-0.10720338
-0.07825736
-0.02663652
-0.42086461
0.79333162
-0.63274950
0.09047606
-0.01256400
-0.48290667
-0.26429552
-0.30959573
-0.35544863
0.19907323
-0.45469120
0.12210016
-0.53402197
-0.18444704
-0.06792974
0.30354550
-0.15364555
-0.03092954
0.02396639
0.33203316
-0.29247153
-0.10139941
-0.06977390
-0.43007317
-0.19735277
-0.18075675
-0.25204164
-0.24269556
-0.14477323
-0.18714121
-0.17250174
0.34025067
-0.82409286
-0.13359427
0.24884981
-0.01131753
-0.68780416
-0.22663373
0.44560120
0.08584096
-0.27849126
-0.74275547
0.33500963
-0.73836601
0.18300712
-1.00338066
-0.06474751
0.13706651
0.03724458
-0.62457329
0.01755740
-0.92004454
-0.64180744
-0.39144605
-0.05225324
0.47890076
-0.08458868
-0.24407226
0.57340288
-0.46924484
-0.10126106
-0.03544875
0.11950944
-0.00468209
-0.21519034
0.05455920
0.03740266
-0.48550221
-0.15311992
-0.10020301
-0.43110532
0.30937460
-0.27646244
0.17514057
0.03346382
-0.44121018
-0.13771160
-0.00257278
-0.35000622
-0.62413615
-0.05697013
0.35976952
-0.16983360
0.08943794
-0.03223861
0.56647712
-0.58605939
0.06815391
0.06921142
-0.51375312
-0.27904406
-0.18899038
0.09757090
0.10624646
-0.08312208
0.72218752
-0.29382908
-0.05949793
0.17926610
0.06339219
-0.26221132
0.24685279
-0.12066893
0.20275882
-0.13137098
-0.16392991
0.01296334
0.10248533
-0.36128345
0.28174642
-0.12750085
-0.38555050
-0.02085930
-0.47802806
0.06985466
-0.53893912
0.07490736
0.16991398
-0.01062572
0.10101195
-0.21120748
-0.33710539
-0.17884906
-0.77578968
-0.22472404
-0.50740051
0.20460451
0.33248416
-0.37081197
-0.08106098
-0.18148206
0.23327686
0.20226640
-0.26893187
0.09105575
-0.16348256
-0.43134338
-0.01525882
0.36929971
0.10526019
0.05636423
0.10408190
-0.04899756
0.10512416
-0.04025092
0.09507596
-0.00604479
-0.03443049
-0.02683551
0.01180221
0.00956059
0.04468198
-0.00582307
-0.04667883
0.08862393
0.06375494
-0.05556433
0.03678519
0.03949985
0.01857746
-0.10308596
0.17783865
0.00284299
0.13962689
0.07789673
0.05876857
0.14649631
-0.09093907
-0.07841422
0.08293339
-0.02968911
0.25276569
0.02404783
0.05997800
-0.07739171
0.00833675
0.16357459
-0.01740505
-0.06862141
-0.04913002
0.31482294
-0.05853827
0.08029214
-0.02423037
0.06957726
0.03343083
0.07987127
-0.14152089
0.04649138
0.08480444
-0.14787580
-0.00999621
-0.09347776
-0.13398416
-0.00987509
0.07737426
-0.06695227
-0.10798021
-0.00664469
0.10742934
0.05137967
-0.06145344
-0.02599132
0.22101372
0.05250011
-0.02895643
-0.04538676
0.06068394
0.01382373
-0.08559868
-0.00721582
0.06467094
0.07566565
-0.00533271
0.01921927
-0.07942581
-0.09793778
-0.02535493
-0.02338272
0.01393528
0.01203636
-0.05369718
-0.91424227
0.20826703
0.11452349
-0.38728467
-0.05325976
-0.73606956
-0.18446907
-0.69237053
-0.62880558
-0.37107968
-0.87453574
-0.50535697
-0.13745883
-0.60883486
-0.49510241
-0.43003353
-0.23588854
-0.18774880
-0.66336733
-0.61753523
-0.51043081
-0.40136179
-0.65821385
-0.25387141
-0.53123808
-0.48134989
-0.07840394
-0.15603583
-0.58568454
-0.29427046
-0.82457024
0.39880440
-0.67929447
-0.60923582
-0.09113843
0.32442960
-0.13900746
-0.85752833
0.00261810
-0.04570854
-0.67993802
-0.53010911
-0.24811187
-0.05162650
-0.33779162
-0.62397575
-0.30014822
-0.61697775
-0.40445706
-0.69999194
-0.51295459
-0.51045239
-0.10182594
-0.27546042
-0.30364940
-0.10429376
-0.65550840
0.23247324
-0.62536627
-0.44721836
-0.37546340
-0.17228653
-0.32148346
-0.57379198
-0.93760055
-0.10171342
-0.17657991
-0.19640301
-0.17651537
-0.30523831
-0.73233962
-0.49521276
-0.33257815
0.03497845
-0.83908713
-0.27685878
-0.42508763
-0.54808372
-0.23577659
-0.53078437
-0.16549790
-1.26188672
-1.21934426
-0.48916969
0.45500082
0.53323406
0.06332035
0.29048610
0.02900422
0.05112682
0.44641036
-0.22633095
0.20148979
0.07897624
-0.01483214
-0.09264440
0.07907560
-0.40414864
0.35397521
-0.05289819
-0.13183947
-0.70358622
-0.40983734
0.18729462
-0.06334344
-0.10494689
0.19106460
-0.00094368
-0.15849148
0.51963806
0.08283614
0.09427796
-0.04421161
0.04094573
0.21868879
0.70656276
0.10217186
0.01121164
0.01239760
-0.04117991
0.08932734
-0.17943285
0.34820500
-0.50387031
0.02431048
0.14488386
0.38330287
0.07344301
0.17479415
-0.14473601
-0.08041312
-0.06359006
0.36050224
-0.09725334
0.73501748
-0.22049432
-0.13655783
-0.01112299
0.02175429
-0.16191176
-0.00360906
0.02673239
0.35937801
0.24956323
-0.02413897
0.06038279
0.27033943
-0.02041351
0.02766551
-0.05076975
-0.02924956
0.13345793
-0.06476171
0.54017442
-0.12021629
0.07826535
0.18301986
0.15921563
-0.12623322
0.02475294
-0.17696197
-0.10501346
-0.02537141
-0.06460989
-0.26798463
-0.29811803
0.26364222
-0.08643475
-0.92869973
-1.08384275
-0.36236748
-0.27565953
-0.23677300
-0.89152491
-0.52360851
-0.67685074
-0.68188542
-0.30661759
-0.05563048
-0.57506526
-0.03059153
-0.26311824
0.04517665
-0.02390739
-0.97253877
-0.43638375
-0.41369724
-0.24930689
-0.54461217
-0.49464211
-0.56002736
-0.29087520
-0.78563732
-0.76530874
-0.30567321
-0.81030500
-0.31273517
-0.23172262
-0.42270786
-0.31219232
-0.17689052
-0.63122040
-0.37466255
-0.38390625
-0.28324470
-0.65166497
-0.35488090
-0.69129342
0.14606455
-0.17837647
-0.16070719
-0.16207078
-0.13124576
-0.97846735
-0.68184543
-0.85161352
-0.48480830
-0.27544248
-0.58267242
-0.55358028
-0.42176071
-0.27261925
-0.02239649
0.08905285
-0.80169857
-0.02496480
-0.41562507
-0.74768841
-0.75417703
-0.33739841
-0.57189357
-0.59524298
-1.08881044
-0.08285465
-0.13388902
-0.23840608
-1.06444430
-0.50067747
-0.18274988
-0.76484489
-0.47024563
-0.38093477
-0.47444361
-0.58287132
0.82235533
-0.94233680
-0.45643872
-0.67523533
0.13752666
-0.04377628
-0.41690478
-0.14388135
0.12635379
-0.37012413
-0.17832729
0.30098873
-0.08651645
0.37158588
0.07329284
-0.17125870
-0.17430778
0.01671670
-0.06660113
-0.02220181
0.01943615
0.38710606
0.72077858
0.10483003
-0.19972084
0.12209404
0.44814292
-0.16030066
-0.09355686
-0.17312333
-0.00494986
-0.16180579
-0.11046662
-0.39764386
-0.08680458
-0.08009150
0.04316594
0.04159267
0.44195452
-0.29161587
-0.13106591
-0.45570350
0.42230558
-0.57354605
-0.05554009
-0.32900301
-0.47498548
0.79485935
-0.00223946
0.01590752
-0.38592207
-0.03005705
-0.03780216
0.12568580
0.27641952
0.12606308
-0.31349856
0.25067270
-0.05405020
-0.12237242
-0.05779132
-0.13192639
-0.38094133
-0.00076462
-0.03926444
-0.28248811
-0.41657141
0.15411389
0.08992033
-0.05021792
-0.09024819
-0.05601837
0.25757334
-0.05394037
0.27895066
0.08058446
-0.10815734
0.19877639
-0.14043167
-0.16284747
0.41052899
-0.17606586
-0.12113769
-0.50539851
0.10722262
0.07792886
0.00999649
-0.14588867
0.04414042
0.67627710
0.35140586
-0.00612877
-0.20281298
-0.18223859
-0.29314560
-0.42987975
-1.14530230
0.63368690
0.17063238
-0.57622856
-0.86090761
-0.10506283
-0.72555572
-0.30147743
-0.50005108
0.09421764
0.31377903
-0.10523825
-0.73070711
-0.28717858
0.02730530
-0.04822513
-0.12804037
-0.21224998
-0.08229915
0.08963011
-0.44065154
-0.50457048
-0.13258053
-0.01571984
0.02618525
-0.21409732
-0.42346731
-0.13689683
0.01169528
0.30330050
-0.02040455
-0.22337821
-0.13621731
-0.10559447
-0.88524622
-0.73583537
0.05909019
-0.47783461
-0.12659012
-0.11037246
-0.19498321
-0.59362668
-0.64641559
-0.27159083
-0.62992173
0.28219694
-0.04397267
-0.16002789
-0.06611412
0.19200104
-0.43660513
0.15017863
-0.18396160
-0.18667918
-0.63011485
-0.67896479
-0.03276707
0.00794450
0.71657848
-0.06691198
0.33012348
0.35152313
-0.25153315
-0.23148607
-0.37124169
-0.55555099
-0.27991864
-0.59911567
-0.12583594
0.07823240
-0.58888566
-0.64145792
0.32287440
0.21729273
-0.41888756
-0.82930481
0.17758268
0.58660060
0.08912649
0.01560266
0.18377003
-0.65829158
0.12900518
0.51285911
-0.17571904
-0.00068017
0.33307520
-0.18436600
0.14103664
-0.10699818
0.25005147
-0.20910428
-0.01042666
-0.59241211
-0.08433805
-0.03503654
0.26746079
-0.19955236
0.03993728
-0.01527572
-0.13727069
0.17349602
-0.19093336
-0.09729476
-0.00693709
0.15049289
-0.06454097
-0.71134126
0.65627640
0.30011967
-0.39860907
-0.09858549
0.03233789
-0.05939626
-0.04104017
-0.40497512
1.19343042
-0.54894954
0.01440793
0.57206351
-0.53164315
0.95244080
0.18954299
-0.03235629
-0.21412487
-0.03348698
-0.04575684
-0.26782429
0.02999819
-0.00087098
-0.40554640
-0.20088750
-0.27638501
-0.02154674
0.26624036
-0.38756400
-0.10642236
-0.24354917
0.08467330
-0.21708922
-0.00172333
0.07024757
0.12567748
-0.01480163
-0.03448687
-0.13436504
0.09859139
0.00789755
-0.10196326
0.62205839
0.24120076
0.46740624
0.09546752
-0.37512076
0.06622768
0.38445145
0.35236308
0.03946545
-0.38592547
-0.31796771
0.06496340
0.32255754
0.08604348
0.21340942
0.14369363
-0.61071795
-0.06003574
0.02936627
0.26585212
-0.20337914
-0.32309079
-0.30223304
0.54151130
-0.12034512
-0.24322739
-0.11181474
-0.02128528
-0.13732085
-0.46553469
0.04979134
-0.64081079
-0.31709954
-0.28582498
-0.24208340
-0.11661223
-0.14036405
-0.25921923
-0.90246052
0.04820265
0.03973251
-0.02538114
-0.35304013
-0.25091481
0.12816921
-0.75226760
0.08889471
0.49564534
-0.15989289
0.56123352
-0.07388137
0.23049787
-0.05327213
0.18461658
0.03545206
-0.00514045
1.11601686
0.10967554
-0.04579277
0.01257981
-0.36799410
-0.22958508
-0.44600257
-0.30488265
-0.26413536
-0.14022349
0.05041784
-0.04025363
-0.07802167
0.05834186
-0.24679688
-0.36142892
-0.29035801
-0.36045927
-0.35190222
-0.18720430
-0.12709017
-0.97015107
-0.30831838
-0.10718033
-0.16789673
0.51526123
0.40318403
-0.46172586
0.36785451
0.07830724
0.06749087
-0.53761125
-0.30458426
0.36678171
0.29036814
-0.15393120
-0.17814311
-0.08445920
-0.36108822
-0.20839012
-0.11233987
-0.50991958
-0.36973464
0.09388496
-0.15071170
-0.56567883
0.16007245
-0.02981493
-0.46659485
0.29406664
-0.03678228
-0.25145504
-0.18750562
-0.23535031
-0.08447222
-0.63039720
-0.43523693
-0.36563253
-0.13125026
-0.48194328
-0.11132647
-0.45834199
-0.25640598
-0.15354106
-0.41337660
0.02113861
-0.02364565
0.20526662
-0.37745303
-0.02907604
-0.24467571
-0.30150402
-0.01187015
-0.24389060
-0.06986199
-0.49888599
-0.59926355
-0.31741077
-0.84993482
0.00117934
0.18102129
-0.08060271
-0.28793862
-0.33561078
-0.46404007
-0.25808272
-0.13223088
-0.12909569
0.03603510
0.73220134
0.10906094
-0.06508988
-0.17199181
-0.40005389
0.03050213
-0.03362645
-0.32745406
-0.05689594
-0.63500804
-0.37245402
-0.24901621
0.29714820
-0.67580289
-0.28726596
-0.25559667
0.43504000
0.14210191
0.06431001
0.00169424
-0.62175715
-0.14467746
-0.44052202
-0.77756947
-0.86205596
-0.60142595
-0.10571016
-0.21481770
-0.84949869
-0.54046798
-0.30265707
0.26213858
-0.23454295
-0.29157847
-0.19074108
-0.12977012
-0.76275986
-0.04308904
-0.02722320
-0.09072723
0.09629598
0.05055792
0.02137394
0.01120039
0.06132707
-0.01454699
0.02549829
-0.00814664
0.01895002
-0.13301924
0.08238645
0.04150509
-0.05579771
-0.01505503
-0.10174805
0.02932422
-0.01881819
-0.03334967
-0.08543646
-0.06127360
0.06776188
0.12286673
0.10326081
0.04096461
0.05331698
-0.00763448
-0.05114490
-0.05635618
0.02784244
-0.04609307
0.05696074
-0.02594537
-0.00303161
0.04488575
0.02024466
-0.06116677
0.11473620
0.05831714
0.04027385
0.08272874
0.13290723
0.00518501
0.08263586
0.03953134
-0.07742286
0.03123489
0.06611388
0.01316714
0.23192380
-0.13197866
-0.05190926
0.10776776
0.02872390
0.10496717
0.00381696
0.13806541
-0.01566650
-0.04654530
0.05039904
-0.07158247
0.06013002
0.05817860
-0.12769809
-0.04099294
-0.00954350
0.07770009
0.10102887
0.02281689
-0.06186353
0.01846644
-0.07470444
0.05747637
0.08241649
0.01398928
-0.00469888
0.00437240
0.04614726
0.05127393
-0.08874718
0.09066556
0.15783538
-0.18459849
0.05625213
0.00645958
-0.09172036
0.11093115
-0.31885663
-0.53840154
-0.09059813
0.43504098
-0.47633106
0.00997842
-0.16808775
-0.00873183
0.00506134
0.03424027
-0.19285172
-0.05073472
0.21727149
0.14291114
-0.75259846
-0.45531499
-0.47483715
-0.27675846
-0.28157797
-0.20516786
-0.68741024
0.07506087
-0.04388542
-0.62433308
-0.02453911
-0.15567635
-0.42005822
0.29878899
-0.18745776
-0.47514132
-0.03514003
-0.24133471
-0.33390564
-0.24606390
-0.01911485
0.30018923
-0.54508138
-0.29547465
0.36859006
-0.44440162
0.04321778
-0.60434026
-0.48049003
-1.00352097
0.19636428
0.03148508
-0.36279815
-0.44716939
-0.11867623
-0.31028441
-0.09263509
-0.55881357
-0.37509653
-0.28970975
0.21744400
-0.48043022
-0.46210200
-0.48691037
-0.54366535
-0.67047608
-0.62885129
-0.21452987
-0.17310101
-0.33046818
-0.23910990
-0.31431496
-0.09766439
-0.61107701
-0.21453142
-0.25301832
0.30238253
-0.62581497
-0.21037917
-0.38280931
-0.20223545
-0.36998898
-0.21730578
-0.59818327
0.09665719
-0.46412933
-0.13782926
0.22430119
-0.54113072
-0.18177465
-0.48156184
-0.81644088
-0.01482330
-0.88636857
-0.55986577
-0.14233518
-0.31516212
0.01179006
-0.66196346
-0.46520859
-1.32782316
-0.00503057
-0.31353024
-0.16261703
-0.58011389
0.22513123
-0.35339218
-0.24948482
-0.09627834
-0.90712208
0.07251170
-0.77171707
-0.03702968
-0.08667259
-0.12164172
-0.18363623
-0.30966023
-0.83730060
-0.03434644
-0.67981011
-0.70825887
-0.61671066
-0.15581830
-0.19794481
0.10735629
-0.50985605
-0.59656340
-0.10154250
-0.52150238
-0.21553388
-0.16425534
-0.38164619
-0.39599377
-0.54661775
-0.36618787
-0.61834681
-0.55398035
-0.52626985
-0.07664088
-0.47174194
-0.24651983
-0.93537706
-0.55189234
-0.81832463
0.31350434
0.26511371
-0.54663724
-0.57721233
-0.42786303
-0.45276830
-0.52822500
-0.64822680
-0.76211125
-0.18290000
-0.63682222
0.27795136
-0.33793944
0.20765062
-1.11903846
-0.56137902
0.20025076
-0.15244573
-0.71458310
-0.84595639
-0.28431103
-0.37637299
-0.07935866
-0.11045270
-0.93783528
-0.20520014
0.03465032
0.04994232
-0.01022253
-0.12784839
0.00610231
0.06327535
0.06666426
0.01564114
-0.02257996
-0.05442018
0.01122917
0.06042593
0.08339193
-0.03152481
-0.07549168
-0.04009651
0.14689843
0.01441340
0.12894796
-0.03335040
-0.00357498
0.05073388
0.06292069
-0.04814345
-0.03153616
0.06893960
0.03612973
0.01217244
0.01210269
0.04353042
0.06466872
0.09736768
0.04247279
-0.06955866
0.03401307
-0.04553415
-0.01397161
0.02435619
0.03109842
-0.07499989
0.05726381
0.04268830
-0.05279879
0.08144531
-0.02510131
-0.08740875
-0.07439942
-0.08020146
0.01658767
-0.14258897
0.01944223
-0.01633639
-0.04705956
0.08383879
-0.09909387
-0.04577078
0.13293216
-0.02417678
0.06581675
0.02425812
0.02373513
-0.09399818
0.02401607
0.03824304
-0.09788568
0.01529866
0.00947318
-0.05017193
0.02061838
-0.04221807
-0.03663795
0.00510487
-0.11722554
0.04210576
-0.04875748
-0.07680302
0.06361872
-0.07328840
-0.05586842
0.07509185
-0.04235231
0.01904579
-0.00525144
-0.01592281
0.10491636
0.02904332
-0.25601095
-0.09191457
-0.26494750
0.03046118
0.45284495
0.11646875
-0.49942258
-0.29210684
-0.14104021
0.04792639
0.06475689
-0.30091208
0.46869537
-0.12632634
-0.31259379
0.50446689
0.37481266
-0.00782735
-0.06904262
-0.21272613
-0.28299367
-0.10018968
-0.09115116
0.15209815
-0.13066378
-0.30947256
-0.04918612
-0.19066978
0.22775333
0.42086515
-0.09545943
-0.11987528
-0.14307672
0.10873811
-0.24548319
-0.41747501
0.20368464
-0.68754506
-0.45057222
-0.60289603
0.05999597
-0.18389454
0.06445204
-0.54588199
-0.30821136
-0.42077097
0.31584656
-0.76248991
-0.44427747
0.12127196
-0.13178921
0.13206613
-0.04925974
-0.45626923
-0.31163695
0.68407148
0.17429313
-0.36138368
-0.14457785
-0.61001861
-0.20131345
-0.01524924
-0.01399950
-0.20076872
-0.27759928
-0.47819012
0.49590933
0.01018200
-0.51543039
-0.08286842
-0.09861652
-0.16913301
0.29722875
-0.00482759
-0.09295996
-0.22440267
-0.14729370
-0.64812452
-0.18676151
-0.30777696
-0.93514782
0.11368196
-0.01767736
-0.01800303
0.12167784
-0.03717966
-0.03077115
0.13733256
-0.01720350
0.05405197
0.02457339
-0.08614074
0.01811383
-0.01295728
0.03697766
-0.01705400
0.03723687
-0.00243586
-0.07502083
0.00632409
0.02278471
-0.02194474
0.00420020
-0.03587399
-0.08432373
-0.06581396
0.06225626
-0.02549968
0.08373526
0.02675108
0.04257569
0.03899461
0.07261541
-0.08226789
-0.09696496
-0.08369527
0.09013331
-0.08620274
-0.06556928
-0.01344600
0.01575604
-0.03121711
-0.14209254
-0.09786351
-0.04424380
-0.03050457
0.04193565
0.03790921
0.03266906
0.06333381
-0.00526740
-0.09356966
-0.04347210
-0.03703090
-0.03861650
0.01945997
-0.02502706
-0.06507280
-0.12164498
0.03674389
0.01645713
-0.05606629
0.10586242
0.05157225
0.05337781
-0.02288477
0.11421036
-0.00104453
-0.03573227
-0.02118067
0.02759567
-0.02803802
-0.00749310
0.14100236
0.14284496
0.01578806
0.03801977
0.01038864
-0.05271064
-0.08341151
-0.10782167
0.01749481
-0.08156606
0.02461226
0.08575647
0.08268578
-0.16650918
0.33497238
-0.21445936
-0.29801431
-0.38153976
0.21021026
-0.14209549
-0.56968993
-0.18094075
-0.10345913
-0.45935804
-0.49977118
0.10761546
0.03093975
0.65413314
-0.11202955
-0.70282614
-0.47061163
-0.04119911
0.01126027
-0.30751774
-0.46257079
0.28023738
-0.42760360
-0.38881156
-0.35471538
-0.12780881
-0.16872066
-0.27820840
-0.14442015
-0.27561012
-0.52119732
-0.06265464
-0.04214817
-0.47196135
-0.25729799
-0.37491575
-0.20481913
-0.58954179
-0.18884097
-0.36543429
-1.16403091
-0.24136873
-0.20636372
-0.25690201
-0.34753963
-0.39974499
-0.88647610
-0.34566998
-0.44290820
-0.47993132
-0.33006176
-0.09166599
-0.07914270
-0.26559249
0.24895349
-0.69230175
0.06599316
0.43976295
0.48011521
-0.21132083
-0.25095868
-0.03577982
-0.76974106
0.11450976
-0.05865094
-0.51405787
-0.19218501
-0.20991820
0.04527789
-0.23967573
-1.01425397
0.03368390
-0.59477365
-0.68476456
-0.26050282
0.01569577
-0.36391133
-0.34888190
-0.19594562
-0.23872121
-0.31689778
-0.19431557
-0.10424364
0.00197033
-0.13918473
0.13212956
-0.02208254
-0.03353269
-0.07141641
0.13452500
0.00860620
-0.00880227
0.06900898
-0.07594570
0.14920293
-0.08949673
0.02984232
0.00676715
0.08179161
-0.06213099
0.13398550
-0.01443449
-0.11999195
0.03965215
0.03013167
0.02375332
0.02971109
0.01867782
-0.10559028
-0.00463472
-0.10428876
-0.08864411
-0.08771013
0.07105847
0.02524150
0.00397808
0.09880120
-0.07861112
0.02365625
0.00206164
-0.03879505
-0.10601385
-0.02470635
-0.13693410
0.08872664
-0.01668928
-0.05226752
-0.02661574
-0.05337719
0.08567938
0.02786989
-0.09137281
-0.04983559
0.01374723
-0.00370071
0.06506000
-0.00647958
-0.07175638
0.11876874
0.08502641
0.03640269
0.08405544
-0.16706336
0.00675040
-0.14108682
-0.00332996
0.01893803
0.04254775
0.02566100
-0.00742513
0.00878874
0.03590786
-0.07055808
0.07611892
-0.09998731
0.01617107
0.13838919
-0.01958581
-0.08031286
-0.09049842
-0.13344115
0.09103724
0.05734682
-0.00635441
0.13576867
0.00418004
-0.01076609
-0.13188671
-0.09340736
-0.13106205
-0.32203108
-0.41889712
0.05230011
-0.27667153
-0.31110033
-0.71521366
-0.31686226
-0.08200368
-0.53453177
-0.13576880
-0.92598891
0.33432958
-0.11454204
-0.01882727
0.16237037
-0.44574544
-0.49350625
-0.20305145
-0.56689042
-0.69155747
-0.66586518
-0.56592047
-0.40010214
-0.21962582
-1.20807302
-0.42910960
-0.37147102
-0.17136937
-0.00584867
-0.62078732
-0.29586661
-0.38496348
-1.30254996
-0.08207341
-0.43238080
-0.42877159
-0.09137952
-0.15203841
-0.16200009
-0.68776983
-0.20069554
-0.09772123
-0.99699861
-0.46462679
-0.86454493
-0.32619539
-0.30038038
-0.62655520
-0.30317861
-0.12085379
-0.59428674
-0.53756207
-0.75114423
-0.40737376
-1.26795304
-0.45871273
-0.87793940
-0.18313798
-0.13478963
-0.04733831
-0.08967517
0.06374299
-0.48946962
-0.52718842
-0.45646065
-0.64538383
-0.71756989
-0.33903319
-0.97675097
-0.06984841
-0.52838016
0.21546780
-0.72817463
-0.59759873
-0.14114133
-0.12116841
-0.39966130
-0.23483406
-0.73269272
-0.24522166
-0.41482863
-0.54854459
-0.56285000
-0.51619393
-0.11916856
-0.82076615
-0.70427722
-1.07165647
-0.38665769
-0.57283169
-0.10765489
-0.24077988
-0.05564029
-0.51651466
-0.26685220
-0.41957763
-0.08098842
-0.49149531
0.32551953
-0.39169890
0.16315317
-0.11478165
-0.48526901
-1.00026691
-0.04909410
-0.20290598
-0.19491993
-0.25575981
-0.77693146
-0.01312577
-0.07614868
-0.44028848
-0.39595667
-0.44526774
-0.34688416
-0.54827988
0.02131586
0.23788646
-0.11414555
-0.38433987
0.10665918
-0.14313982
-0.39466378
-0.12609969
-0.19404495
-0.02250590
-0.71673262
-0.76075262
-0.39627898
-0.31458539
-0.23598859
0.27197534
-0.13211763
-0.10929608
-0.06949892
-0.29511765
-0.63649195
-0.20008945
-0.31015906
-0.00107994
-0.54278708
-0.25512120
-0.35820431
-0.61875206
-0.63460016
-0.58072698
0.00148520
-0.33495986
-0.45685527
-0.21380387
0.57484812
-0.30794907
-0.97132313
0.01813882
-0.43829572
0.02430028
-0.74991387
-0.12364534
-0.30193830
-0.51069629
-0.49716681
0.08426418
-0.12713848
-0.13816735
0.03801656
-0.10923991
0.08352301
-0.04761326
0.02662648
0.06342493
0.11138812
-0.06937267
0.03228291
-0.05025522
0.08177027
-0.04778981
0.03069658
-0.10475288
0.05818999
0.03746975
0.09107891
0.03180330
0.09377233
0.04719724
-0.02849785
-0.01916146
0.07426666
0.03880850
-0.00082577
-0.01714891
-0.01804722
-0.12923774
-0.13678259
0.05065381
0.07645903
-0.10067155
-0.02416788
-0.06404575
-0.09980549
-0.00082756
0.07368685
0.00215633
-0.05858092
-0.05228601
0.04421215
0.00066812
-0.04032291
-0.03786455
-0.00106169
-0.08167537
-0.03725540
-0.07623821
-0.07319670
-0.05875156
0.03961617
0.01419420
-0.03356432
-0.05041296
-0.02184986
-0.01819272
0.03279926
0.02330117
-0.04599949
-0.08764802
-0.08961850
0.04924756
0.00552477
0.02466241
-0.08583550
-0.03858937
0.02758284
-0.11771300
-0.02119786
0.06135094
-0.03064842
-0.01785123
-0.05339445
0.10193706
-0.17133406
-0.01459506
0.08832218
-0.06797854
-0.06494765
0.04663306
-0.03914839
0.02430288
-0.00487095
-0.00041995
0.02702243
-0.18118149
-0.50245547
-0.15879095
-0.00080177
-0.41599232
0.04354642
0.14488927
0.27371535
-0.18755153
-0.09978624
-0.31309929
-0.09619896
-0.21665402
-0.08423494
-0.64315790
-0.10546146
-0.24497992
0.57642531
-0.37036213
-0.47534740
-0.10273261
-0.22873898
-0.32843614
-0.08482038
-0.10271234
-0.24590833
-0.14564317
-0.43409207
0.04065274
-0.18406253
-0.30976862
-0.20790598
0.16193150
-0.37938684
-0.27266189
-0.12397074
-0.10792180
-0.31544784
-0.32448146
-0.31251660
-0.54573095
-0.06812973
-0.01396266
-0.14705329
-0.26677504
-0.56694418
-0.07952928
-0.04120807
-0.16828442
-0.11016411
0.03321287
-0.29424265
-0.17518614
-0.39023831
-0.76530439
-0.17770419
-0.31968847
0.13831449
-0.70236593
-0.75426364
-0.22392103
-0.15906341
0.42407733
-0.19201085
0.16226485
-0.36874226
-0.03127706
-0.48508403
-0.39741662
-0.63604134
-0.23819706
-0.38617584
-0.36376810
0.42377472
0.17198695
-0.03729218
-0.37262020
-0.20173335
-0.38838285
-0.02939116
0.29316965
0.31936195
0.12975383
-0.28882384
-0.76554424
-0.26733389
-0.45380521
-0.73092055
-0.31702951
-0.13546841
0.03148144
0.08009234
-0.37804800
-0.00004603
-0.65117145
-0.47689539
-0.61734122
-0.52533978
-0.22065955
-0.07514699
-0.07165166
-0.48551884
-0.35970390
-0.42280197
-0.04284135
-0.42486158
-0.13164811
-0.59550792
-1.00935769
-0.24687392
-0.16944103
-0.73471075
-0.46105754
-0.15145916
0.11425752
0.14593415
-0.25582296
-0.00991560
-0.47293440
-0.01902232
-0.40798423
-0.31264237
-0.18791118
0.25860837
-0.28845099
-1.15659058
-0.11369837
-0.16486688
-0.15723132
-0.44040745
-0.22134918
-1.09611535
-0.11833274
-0.36483091
-1.05176675
-0.54200178
-0.11239318
-0.55158269
-0.25905854
-0.45347685
-0.09583120
0.25238287
-0.34138903
-1.16779518
-0.23134555
-0.09408339
-0.37509897
-0.68554169
-0.45022723
-0.59823030
-0.22109070
-0.37081310
-0.02006316
-0.29976848
-0.22130331
-0.53923112
-0.02019990
-0.18805598
0.27466151
-1.10462153
-0.48682231
0.09617394
-0.18060000
-0.25588942
-0.36941615
-1.11530530
0.15347314
-0.56946498
-0.12966195
0.11707242
0.01689308
0.04977083
0.08046013
0.10697541
0.00345238
-0.05777590
-0.04269360
-0.00692207
-0.05539101
-0.02988984
-0.07777622
-0.02390683
0.11311637
-0.02158314
0.05742843
0.03324318
-0.03198800
-0.04800363
-0.11394312
-0.07905179
0.14519314
-0.02400804
0.07978970
0.01000518
0.08813073
-0.06901559
-0.04734782
0.08986437
0.08615715
0.01748971
0.12075543
-0.01889941
0.07430451
-0.04506242
0.03277408
0.08115129
-0.09715011
0.02391005
-0.11660252
0.00874934
0.07229447
-0.06738522
0.03925307
0.08097154
-0.08312997
0.00371659
-0.03076980
0.01067701
0.04847370
0.06825086
-0.04549396
-0.05653151
-0.01554380
0.12027955
-0.09577142
-0.10760821
-0.05949044
-0.06926726
0.10357511
0.02432064
-0.06913134
-0.02044161
0.00991702
0.07917200
0.00368708
0.02351692
-0.09910078
-0.00989777
0.03359344
0.05139313
0.13742875
-0.02867277
-0.06351623
0.05837460
0.08743271
-0.09295139
0.04839464
0.03929253
0.02968308
0.07716572
-0.00277161
-0.14688581
0.01862365
-0.09890874
0.06536976
-0.14769529
-0.08915068
0.04537815
-0.05779482
0.21696584
-0.02821212
0.06121461
-0.05972235
0.07465290
0.01178312
-0.04825770
0.05718874
-0.03522899
-0.02113193
-0.02438480
0.13878389
0.02157154
0.04168849
-0.01204226
0.02921497
-0.10660728
-0.06298693
0.03541351
0.10256674
0.06514215
0.02688404
-0.02177021
0.00910498
-0.07372854
0.12722480
0.06298677
-0.01988098
0.03066955
0.05724008
0.17775564
-0.05544223
-0.05936699
0.05900647
0.04164290
-0.05085294
-0.01441269
-0.04343858
-0.07902129
-0.05794368
-0.06592676
-0.00750019
0.03498724
-0.00620299
0.03182814
0.10673495
0.04666230
0.00171745
0.10618395
-0.00389218
0.01651937
-0.03738164
-0.02648247
0.00631832
0.15632731
0.01347920
0.02832044
0.08390092
-0.13748364
-0.05753155
0.02895670
0.08358316
-0.04742794
0.05425692
-0.02826129
-0.00306874
-0.06555866
0.06692194
-0.03848925
0.06865110
0.27563977
0.04415091
-0.02989554
0.12032648
0.05627318
0.18696705
0.00800762
0.07770497
-0.26280075
0.57558596
-0.68251431
0.18392813
-0.25783142
-0.43812418
-0.12860015
-0.13879372
-0.08102009
-0.78204662
0.25415930
-0.44197059
0.09444360
-0.08742607
-0.03372520
1.08068860
-0.34931627
-0.11674835
0.09845316
0.07289086
-0.04559875
0.13122341
-0.33197680
-0.01203193
-0.06444465
0.00694970
-0.00524136
-0.19019975
-0.11378944
-0.27341312
0.60639566
0.42008090
0.03916160
-0.27327588
-0.19844806
-0.00578591
-0.35683528
0.12727346
-0.42161047
-0.57724386
-0.33550912
0.22690818
0.00162497
0.14449307
-0.02775759
-0.45735407
0.45664045
0.70054388
0.01667189
0.00336545
0.05595948
-0.09740953
0.13574792
0.05559031
-0.13298132
-0.31843951
0.20812352
-0.11181074
-0.60692865
-0.47900730
0.01942531
0.12859501
-0.26210803
-0.15329668
-0.16707914
0.14241861
0.02318111
-0.15823710
0.04107323
-0.12845157
-0.90024281
0.07459062
-0.12368299
-1.17945182
0.35937646
-0.04147898
-0.00940518
-0.66973102
-0.60219383
-0.10371643
-0.08856602
-0.07706781
-0.06227974
-0.01875879
0.13860953
0.10232725
-0.12664011
-0.03047591
0.03323088
0.14224933
-0.03026933
0.06852344
0.01815492
0.14064415
-0.06818818
0.03621584
0.02292831
-0.00011660
-0.08579208
0.09036686
0.02036093
-0.02939093
0.02418561
-0.00830214
0.05910490
-0.06545640
-0.04881910
0.08580953
-0.08240402
-0.02277269
0.00671946
-0.07422528
-0.04368292
0.03045964
0.03343507
-0.14900453
0.05881391
-0.01914532
-0.02953043
0.07641616
0.03807889
0.15069525
-0.01833675
-0.02940556
-0.13466829
0.05498351
-0.04881820
0.00529897
0.04994489
-0.08774328
-0.01275185
0.07827499
0.01499863
0.07286603
0.11729374
-0.10956071
0.03789322
-0.13553502
-0.08358248
0.02950738
-0.12512931
-0.04152664
-0.07677285
0.14416121
0.13151406
-0.01673417
-0.07547511
-0.02675604
-0.06807941
0.04726237
0.01396375
-0.00453595
-0.04408459
-0.06763590
0.04611307
-0.01879384
-0.02922752
0.00372267
-0.00014234
-0.05430027
0.02072446
-0.08969811
0.07300565
0.07443215
-0.01077327
-0.06108024
-0.03113904
-0.06808181
0.01381419
0.04502593
0.01980083
0.02300290
0.14153472
-0.02334113
0.14841624
-0.07953665
-0.11244967
-0.04737644
-0.06007419
0.00370651
-0.03009626
0.04050266
-0.05057872
0.03200262
-0.10882623
0.07708478
0.11884287
0.04062474
0.00597959
-0.01636996
0.10530715
-0.13324820
-0.08134201
0.02203864
0.12094777
0.04536343
0.05619268
-0.06554099
0.06588722
-0.01221445
0.05015689
0.01242652
0.00727233
-0.02136568
0.05911230
-0.14108589
0.07289030
0.00276210
-0.10107119
0.11961889
0.07769440
0.04145059
-0.03860357
-0.08971444
0.02161136
0.00510557
-0.01713924
0.02826294
-0.02487605
-0.10707969
-0.20903964
-0.12666209
-0.09128401
0.00616938
-0.08147757
-0.02741876
-0.02055386
0.02369320
0.04828731
-0.01360409
-0.02417846
-0.07656751
0.15390918
0.00528168
0.09155080
0.06115654
0.04303991
-0.11242976
0.03069082
0.07506256
-0.09824383
0.06941082
-0.07465538
-0.01252002
0.13404334
-0.07364334
-0.03780653
0.25625604
-0.06977682
-0.08456905
0.02878301
0.04411349
-0.05714902
-0.02432721
-0.08569053
-0.08231099
-0.01977918
-0.09894130
-0.00151934
0.08089237
0.07074486
0.12952656
0.10250907
-0.05798249
-0.13029367
-0.02864740
0.09125564
0.12786929
-0.12135500
-0.02719128
0.02158236
0.06314849
-0.06567491
0.10024706
-0.01310208
-0.02977310
0.00457095
-0.03821261
0.00146722
-0.00254040
0.04754026
-0.08852617
-0.00173604
-0.10707467
-0.00833743
-0.03376543
-0.09879666
-0.00073840
0.08163990
0.14158359
-0.00548204
-0.01009652
0.00498661
0.06608763
0.04507874
0.00499047
0.01896758
0.05342729
-0.04378554
-0.07540102
-0.09030024
-0.10834176
-0.14389570
-0.05802523
0.06236452
0.02763138
-0.14039992
0.13990530
0.00626314
0.01872400
-0.02420047
0.09459057
-0.07478055
-0.06230329
-0.06129509
-0.11312134
-0.00887962
-0.01618493
-0.11183985
0.01272825
-0.06556210
0.11614511
0.08238606
0.05940490
0.01051773
0.02306776
-0.01648371
0.09451665
-0.05361237
-0.02991772
-0.05405392
0.00858266
0.01610969
0.07249378
-0.02332607
0.03594752
0.05151055
-0.00246966
-0.02623664
0.02563278
-0.03380130
-0.04351859
-0.01937644
-0.27774012
-0.02797037
1.47504044
0.08046898
0.07535414
-0.05740549
-0.08701667
-0.04312104
0.00980386
0.03212838
0.07551713
-0.02072671
-0.02533788
-0.09452756
0.07762069
0.02341189
0.11838925
0.02507495
0.04643555
0.08173079
0.11779545
-0.02744238
-0.04273118
0.13947651
-0.02026747
0.12092876
0.13429795
-0.09060675
0.14831172
-0.16636132
0.03533807
-0.05928602
-0.06642895
0.02816491
-0.07571325
0.11664014
-0.05401198
-0.12629032
0.06038378
0.00849940
-0.15411793
-0.02384327
-0.09841426
-0.22176261
-0.00312171
-0.02823615
-0.06938083
0.12066516
-0.04380234
-0.13927901
0.00267350
0.02062234
0.01490263
0.00324841
-0.18763632
0.04562779
-0.08145374
0.05466361
-0.02603396
0.08242038
0.01447963
0.15263428
0.02926403
-0.17119606
-0.04797331
-0.03218556
0.00133402
-0.08796578
-0.02407190
-0.03637527
0.07089026
-0.02468147
0.03904711
-0.06567459
-0.12665053
0.05074621
-0.43746379
0.12762974
-0.15856856
-0.08139179
-0.14777361
0.05831365
0.09653877
-0.22256538
-0.44216096
0.02778144
-0.29826710
0.13400497
0.04854473
0.06026629
-0.21159707
-0.08543934
0.24862565
-0.82612443
-0.33909777
0.00999742
0.55123174
-0.20889218
-0.20333955
-0.37171823
0.47664887
0.14402917
-0.14255691
-0.30604050
0.07399306
-0.10490272
-0.57027584
-0.53026724
-0.20944420
-0.24116404
-0.40416056
-0.37957713
-0.31443676
-0.04875347
-0.00676942
-0.07591284
-0.47662702
-0.41757867
-0.38359168
-0.02051670
-0.05969526
-0.46180794
-0.00391555
0.28393018
0.56694883
0.16809368
0.40455768
-0.10048170
-0.13514225
-0.11992375
0.22374448
-0.03962725
-0.29690698
-0.12557259
0.55358094
-0.05159635
-0.09779628
-0.01742507
0.04417758
-0.33877763
0.04980237
-0.15723899
0.01259393
-0.03910069
-0.06150236
-0.45726934
-0.20545980
-0.06560651
-0.05180046
-0.77731615
-0.18777713
-0.11709762
0.24279052
-0.43567237
-0.15303901
0.40969372
-0.00484284
-0.32378015
-0.19285738
0.00514072
-0.22609532
-0.08224331
-0.09574668
-0.16657537
-0.33097941
-0.35714146
-0.54009819
-0.02850773
-0.54505432
-0.06154254
-0.23420593
-0.38409019
-0.28710154
-0.88614935
0.25448105
-0.14039384
-0.42885345
-0.39305991
0.08559070
-0.23874786
-0.09178216
-0.31335166
-0.43848020
-0.08320426
-0.18678713
-0.33036593
-0.06732174
-0.57849151
-0.14246365
-0.04547846
-0.16233400
-0.52877980
-0.03395283
-0.01409954
-0.11321446
-0.53696984
-0.45073590
-0.33011955
-0.36391559
-0.28546992
-0.71928853
-0.79065073
-0.85954440
0.01526178
0.00153273
-0.30654916
-0.70003980
-0.62323713
-0.50453091
-1.01347244
-0.24652049
-0.33434126
-0.34191439
-0.16417696
-0.20713876
0.59065014
-0.24253747
-0.29899809
0.06315750
0.00113345
0.18841365
-0.35345578
-0.25106230
-0.37219676
-0.30380565
-0.25718617
-0.05369200
-0.28764808
-0.40097958
-0.12367770
-0.46396837
-0.97956789
-0.37900767
-0.28585568
-0.11473981
-0.08369701
0.46834511
-0.05716034
-0.39899787
-0.53583372
0.21454759
0.09769915
-0.09683426
-0.01645773
-0.04656154
-0.02558673
-0.05626410
-0.02501477
-0.01019434
-0.08197501
0.00563657
0.01174075
-0.03470940
0.07609713
-0.05027927
-0.04267358
-0.04371675
-0.03432616
0.08072205
0.05473645
-0.00545703
-0.08997348
-0.00420785
0.02218875
-0.12668857
0.08808409
-0.13786492
0.12309600
-0.02276253
0.00842462
0.01887160
-0.02420070
-0.01380008
0.04897872
-0.11943537
-0.10329013
-0.07143480
-0.05106967
-0.01571601
0.01589881
-0.08334970
-0.01711849
-0.11123485
0.13551217
0.04956487
0.08935982
-0.02172054
-0.05217014
-0.07375675
0.07468188
-0.00133295
-0.06720835
-0.04592520
0.09066628
-0.06816842
-0.10872214
-0.09061349
-0.01726791
0.05164044
0.05507724
-0.05773257
-0.03559937
-0.04682145
-0.02664378
-0.05822294
0.05498038
0.01430091
0.00942977
0.05914363
0.14305587
-0.03888582
-0.01605889
-0.02849595
-0.00107314
-0.03956249
0.03302116
0.04489198
-0.03901244
-0.07768229
0.03130006
-0.01925376
0.02407128
-0.02806500
0.05507408
-0.09025846
0.00334217
0.01833034
-0.00091036
-0.80370837
-0.46575287
-0.19784896
-0.24717389
-0.53041279
-0.74479586
-0.22567964
-0.61591417
-0.04258112
-0.30998442
-0.52519500
-0.48794231
0.09568223
-0.34955764
-0.24452034
-0.07931303
-1.24423599
0.40163213
-0.35720953
0.06747503
-0.25865936
-0.04397774
0.02739830
-0.67659062
0.05375346
0.08598355
-0.12969095
-0.29557237
-0.21750663
-0.10132568
-1.01810443
0.22244929
0.17219391
-0.45870569
-0.09220681
0.21504599
-0.09365912
-0.09341229
-0.13829575
-0.39134008
-0.96418434
-0.01104691
-0.22693920
-0.00549460
-0.22931857
-0.70069921
0.42027926
0.15169822
-0.37953231
-0.13388784
-0.15016800
0.04534511
-0.08487432
0.13105749
-0.08216794
-0.65857810
-0.21357241
-0.64559078
-0.20229208
-0.33287293
-0.25891578
-0.41697165
-0.31534344
0.20320717
0.05205919
-0.55621552
-0.40816832
0.12048251
-0.49574131
0.64740741
-0.24461095
-0.98922431
-0.11744167
-0.84111071
0.09900664
-0.09721954
-0.43979612
-0.48729107
-0.20731057
-0.11301857
-0.58588177
-0.10145600
-0.46666059
-0.86324990
-0.00005666
-0.02574134
0.06629883
0.01192470
-0.06216037
-0.11587356
0.01245876
-0.02703873
0.01899675
0.00263701
-0.12263438
0.08938380
0.01670343
0.12814251
-0.02277484
0.00481128
-0.00675156
-0.07734842
-0.12614501
-0.13727072
-0.06646568
-0.02121659
0.05067713
0.05925836
-0.04192280
-0.05795979
0.02241571
-0.03560498
-0.03084927
0.04601344
-0.02830391
-0.03709676
0.11377608
-0.04598726
-0.02342421
0.02764069
-0.05294030
-0.05336283
-0.13205446
-0.09559631
-0.00514576
-0.08219144
0.03323838
0.05236103
0.02078111
0.04656984
-0.05745259
0.06871815
-0.05606065
-0.02944362
-0.00408126
0.02225895
-0.01072080
-0.06883134
-0.08292681
-0.00184703
-0.01828389
-0.03684994
-0.05576516
-0.03452163
-0.02085583
0.00616036
-0.09036331
0.08855700
0.12526104
0.07802837
0.04548992
-0.05827545
0.14565952
0.01346131
-0.07416572
-0.04306894
0.12236046
-0.08209123
0.00650137
0.04969604
-0.09002545
0.14058490
0.12215203
-0.08907897
-0.01722135
-0.00251824
0.01435521
0.03577744
0.06021718
-0.18551378
0.10340478
0.14911142
0.29297793
-0.26670250
0.12418289
0.60617512
0.20230170
0.05775832
-0.12091680
0.20091420
0.29489547
-0.35366988
0.44906515
-0.03836753
0.14029208
-0.02850074
-0.25104496
0.09563188
0.19885893
0.06900460
-0.21758215
-0.30352166
0.03263777
-0.12242232
-0.05781482
0.08175515
-0.13148928
-0.09068956
0.06138780
-0.31888664
0.50586247
-0.35257959
0.06019784
-0.20821431
-0.02960626
0.43004698
-0.06868166
0.22261497
-0.58176339
-0.40402392
0.12517875
-0.09422992
-0.04030598
0.07148882
-0.08584859
-0.52474362
-0.08208200
-0.06586359
-0.01206525
-0.12444617
-0.02434647
-0.25469339
-0.26606336
0.01235500
0.03403988
-0.04812300
-0.16507362
-0.26204690
-0.46928677
-0.33790690
-0.18930867
-0.04195314
-0.27020529
-0.19409977
-0.35629725
0.24121498
-0.05470856
0.24193303
-0.23313212
0.15313584
-0.04646775
-0.16743062
0.22380336
0.03075014
0.39299631
0.04571800
0.02575514
0.11310554
0.21727602
0.26866904
-0.20136204
-0.04773971
-0.06601982
-0.13207686
-0.07442378
0.05327370
0.04345736
-0.03082853
-0.08519976
-0.03324552
0.01193198
0.02939485
-0.12943678
-0.02701489
0.01544676
0.13645276
0.02193330
-0.00956401
-0.02983790
-0.03422870
0.02386572
-0.07706427
0.00577530
0.08889148
-0.12205926
-0.01888230
-0.01017185
-0.11329453
-0.07336168
0.00843630
-0.11833505
-0.05442370
0.07338416
-0.05302482
-0.00290187
0.05984274
0.08674975
-0.10434873
-0.05305158
0.05661032
-0.05888782
0.13634442
0.02119585
0.02126765
-0.14984910
0.00048761
-0.04799065
-0.04846203
-0.07692462
-0.06106455
-0.08045407
-0.13163018
-0.10512885
0.10971492
0.00613438
0.08382198
0.10713206
-0.03679403
-0.12264162
-0.07008910
0.02278199
-0.06286452
-0.12372817
0.14624521
-0.03659214
-0.02621731
0.01505112
-0.08225075
0.01812781
0.02186467
-0.14584960
-0.03643319
-0.11491276
-0.10653985
-0.02851069
-0.09831623
0.06248833
-0.04761552
0.06512543
-0.02075129
-0.06205508
-0.00567456
-0.06652684
0.02304905
-0.06712461
0.01050304
0.01958653
0.37239304
-0.02156621
-0.06966244
-0.05126449
-0.05425038
0.01751927
-0.09367245
-0.03190582
-0.19469018
-0.48387372
0.10561683
-0.02224143
-0.23470575
-0.44762874
-0.03607368
-0.05456135
0.01376431
0.27487037
-0.15145291
-0.14494897
-0.09347610
0.04157002
-0.15978406
-0.29434878
0.15782684
-0.03758983
-0.35744551
0.03491975
-0.03115111
-0.14241709
0.11534805
-0.17322519
-0.16843078
-0.14083098
-0.01815531
-0.36123389
-0.17884839
0.26805335
-0.06292107
-0.01735459
-0.50086647
-0.11679274
-0.16410263
-0.14174415
0.01460909
0.02872806
0.10460715
0.16260603
-0.17904276
-0.04375109
-0.03841379
-0.02603331
-0.03966067
-0.46735480
0.28077543
-0.00812028
0.42873472
0.12513037
0.01896383
0.10285394
-0.03875513
-0.24687164
0.14567912
0.08862799
-0.06838447
0.05787029
-0.20547432
0.03973657
-0.39417461
-0.52316934
-0.19392926
0.12823609
-0.07142053
-0.41038245
-0.50338614
0.26560178
-0.15218394
-0.04092365
-0.05457901
-0.12563989
0.01739787
-0.10301291
-0.05968928
-0.53599286
-0.15687852
0.00998518
0.29800299
-0.04241993
-0.16875485
0.12931281
-0.14818501
-0.27289847
-0.06178126
-0.26905283
-0.37466592
-0.13337281
-0.31033307
0.01807969
-0.06246730
-0.14509228
-1.06058359
-0.38852546
0.69265240
0.01671294
-0.11171591
-0.18494834
0.11843713
0.52507794
0.03133493
-0.05843684
-0.15112117
0.27272552
-0.15898418
-0.36350691
-0.31437263
-0.44473103
-0.04751365
-0.02518017
-0.07971125
-0.46177080
0.18391460
-0.03568285
-0.30289146
0.58947563
-0.18606068
-0.19146276
0.03391027
0.06262156
-0.14430565
-0.35476094
0.15756150
0.04480860
-0.50878090
-0.01718662
-0.01611875
-0.06622458
0.06524277
0.10078347
-0.06730983
0.10974484
-0.29679680
-0.33871791
-0.39617524
-0.21092792
-0.10298868
-0.27932787
-0.15715353
-0.26691073
-0.26643297
-0.27135825
0.04437778
-0.18141511
0.33081663
0.21012504
-0.13858791
0.07661004
-0.73920459
0.77676058
-0.39560643
-0.48642430
-0.28527504
-0.18124823
-0.04829945
-0.26009253
0.33884975
-0.39600182
-0.01395590
-0.89547330
-0.05177641
-0.32752129
-0.44313785
-0.51631761
-0.09314925
-0.72971928
0.18192957
-0.67952192
-0.16792676
0.12736361
-0.45408213
-0.27448687
-0.38758004
-0.23633166
-0.01126119
-0.43441752
-0.04566906
-0.06127503
-0.23411019
-0.17811379
-0.40015605
-0.27624434
-0.33188212
-0.31841281
-0.44942307
-0.28496099
-0.84599751
-0.36827645
-0.12588693
-0.59761816
0.41300774
-0.34821913
-0.32189688
-0.35375085
-0.08782639
-0.45395476
-0.41465896
-0.35590863
-0.49189013
-0.29844081
-0.68095112
-0.26960927
-0.10273752
-0.17358837
-0.36040154
0.01200456
-0.56480736
0.04272194
-0.45147446
-0.13155544
-0.09475437
-0.09844860
-0.15394551
-0.19169466
-0.24485594
0.06113924
0.01246786
-0.52661663
-0.84083575
-0.28553551
-0.40435436
-0.33350006
-0.75365502
-0.55186564
-0.23823582
-0.78275490
-0.65222675
0.30082616
-0.00430382
-0.28127429
-0.53037530
-0.91988534
0.48448399
-0.05693403
-0.05407304
0.07788335
-0.01861238
-0.00961279
-0.43230698
-0.34177366
-0.66995299
-0.52815956
-0.33690205
-0.57744914
-0.05009004
-0.29550791
-0.00037350
0.36579800
-0.12597024
0.38294250
-0.52670294
0.09860248
-0.12164613
-0.67537755
-0.29786167
-0.17152996
-0.56130409
-0.34295014
-0.15736325
-0.13989124
-0.24938005
0.18600833
-0.34573302
-0.26853549
-0.13487238
-0.22631551
-0.22607708
-0.16860084
-0.13621056
-0.04801776
-0.21403274
-0.14998649
-0.04993865
-0.09419399
-0.05178220
-0.18094051
-0.05342152
-0.33695570
-0.42157438
-0.55423433
-0.21545301
-0.30317861
-0.46755874
-0.21628097
-0.83920515
-0.18133204
-0.17925194
-0.07550554
-0.26136735
-0.32314494
-0.65444845
-0.10413118
-0.36340994
-1.02174854
0.15784508
0.03148492
0.03585022
-0.54954040
0.68495595
-0.14401501
0.00210117
-0.10930479
-0.18581355
-0.04881228
-0.36636660
0.08658411
0.31722549
-0.00394705
-0.29261824
-0.51224852
-0.21433921
-0.17994179
-0.56580245
-0.91590065
-0.43846783
0.01031295
-0.13982922
-0.39369738
-0.44363055
-0.19550551
-0.21255626
0.17093806
-0.58224308
-0.19179162
0.17688943
-0.28086585
-0.01934982
-0.38617799
0.10339969
-0.23587704
-0.60226703
-0.25458902
-0.13045371
-0.24397530
-0.36625054
-0.56165993
-0.07495109
-0.17598353
-0.07453328
-0.31937438
-0.23144001
-0.08690686
0.01502990
0.15077251
-0.28126311
-0.00940336
-0.06859701
-0.02857927
-0.53092998
-0.11562768
-0.01590859
0.34678733
-0.14191769
-0.07165875
0.17274493
-0.06886815
-0.07535321
-0.49345762
-0.80401909
0.31451067
-0.29474029
0.00112564
0.18189731
-0.13265797
-0.22352272
-0.39035097
0.13509496
-0.12837671
-0.24491955
-0.12594880
-0.12392646
-0.04940910
-0.44379821
0.60418779
-0.44664270
-0.49054664
-0.45326507
0.11268532
-0.04023604
0.04230745
0.05161521
0.21144275
-0.18780416
0.24162233
0.15835834
-0.14650165
-0.88247818
-0.02948466
-0.22140850
0.13690384
-0.58894515
-0.14987050
-0.14378893
-0.03818853
-0.26818541
-0.11663493
-0.58082664
-0.04420550
0.12631114
-0.47352138
-0.43509150
0.00586184
-0.07784256
-0.11316099
-0.30605546
0.07849737
-0.84358555
-0.26502231
-0.74723923
0.62241393
0.32895479
-0.07111534
0.01292295
0.03570063
-0.01451430
-0.07156511
0.00430569
0.00658724
0.00001749
0.05544166
-0.06164595
0.01103486
-0.04722561
-0.04324235
-0.06870283
-0.11491803
-0.04418830
0.11429426
-0.06379314
0.00864081
0.03073216
0.13487898
-0.09048267
0.02168132
-0.00433975
-0.12611699
0.05009756
-0.08319826
0.12977092
-0.05930272
-0.02085734
0.00740464
-0.01715510
0.01650451
-0.12868336
-0.06663103
-0.13438764
-0.01919985
0.02311802
0.07045331
-0.04559259
0.07406449
-0.03465783
-0.01116612
-0.01363235
-0.08334324
-0.03660342
0.03702532
-0.06870859
-0.05336173
0.02624650
-0.01662235
-0.02014073
-0.07729699
-0.01382963
-0.05158426
0.08567341
0.08863569
0.04370332
-0.01380431
-0.05603745
0.00663589
-0.10531625
-0.06170247
0.03753679
0.01347195
-0.01880711
-0.01348067
0.06504302
-0.02738829
-0.09798405
-0.00580688
0.07960501
0.00442207
0.01091336
-0.06487218
-0.02009674
0.00720858
-0.01361482
0.06232886
0.06577449
0.05955951
-0.10164040
0.06353721
0.01247174
0.27513281
1.19940484
0.22988372
0.38007757
0.24931487
1.00576282
0.03146210
-0.03615929
0.02835345
0.00168960
0.00989309
-0.34909275
-0.02780693
-0.08896425
0.60419285
-0.07207498
-0.01033273
0.34467059
-0.27635506
0.01105951
0.01299038
-0.25262269
0.51396757
1.04198456
0.82515466
0.13596605
0.05449140
-0.11911687
-0.14856865
-0.04425358
0.00847600
-0.03434585
-0.40258813
-0.21577737
-0.10414109
-0.10218684
0.05456386
-0.01942530
-0.16341805
-0.15104930
0.21917330
0.45123827
-0.16252597
0.06301804
-0.02708596
-0.70651561
-0.01321553
0.40740165
-0.04884760
-0.13836008
0.05171089
0.69719321
-0.14110680
0.68333191
-0.09794296
-0.36654177
0.35620162
-0.02912783
-0.22488527
0.21827063
0.58299911
0.27926797
0.02294784
-0.06364302
0.85555166
-0.06994858
-0.04755842
-0.38598329
-0.39587161
-0.00738607
-0.06407402
-0.06621470
-0.10557488
-0.77421552
0.27953944
-0.26277393
0.72558683
0.53249419
-0.01024033
-0.32398415
-0.06840595
-0.24556796
-0.35643288
-0.27123842
0.09210192
-0.66740185
-0.50800091
-0.41672423
-1.19966686
-0.07615895
0.43565774
-0.11699501
-0.30870569
-0.18809885
-0.71104640
-0.69020826
-0.47229359
-1.02388716
-0.48140568
-0.32191640
-0.77791613
-0.37309617
0.10267943
-0.80177128
-0.07211160
-0.31648332
-0.44124332
-0.33469000
-0.34360573
-0.44017184
-0.03620928
-0.71350080
-0.72583789
-0.31309769
-0.40823796
-0.38121358
0.07679815
-0.20536318
-0.94110459
-0.07159576
-0.76943237
-0.27349052
-0.37459874
-0.08517659
-0.76445132
-1.28842151
-0.61487436
-0.16726160
-0.03977967
-0.32902837
-0.54279256
-0.56681114
-0.14156590
-0.96529073
-0.41628084
-0.58052033
-0.21413878
-0.35366842
-0.35609531
0.29787773
-0.24597205
-0.51908624
-0.23706709
-1.07051849
-0.26702806
-0.16832966
0.20743221
-0.53878540
0.03251928
-0.30286688
-0.28053948
-0.62325114
-0.15338786
-0.31746385
-0.58034962
-0.69376755
0.02557606
0.16109154
-0.01727796
-0.88020551
-0.66625798
-0.15648940
-0.14653106
-0.57653463
-0.72862810
0.08904082
-0.43292415
-0.52668238
0.03325996
-0.68000507
-0.25280675
-0.32355654
-0.47160709
0.58636916
0.42254528
-0.18967602
0.05999307
-0.18367368
0.12781580
-1.12779939
-0.78545326
-0.91743493
-0.42294201
-0.06586329
-0.36556980
-0.27397189
-0.27462742
-0.97513109
-0.34542376
-0.39033467
-0.52565110
-0.44257465
-0.47252098
-0.19121608
-0.03052328
-0.17261061
-0.24410263
-0.42640114
-0.33610708
-0.52354962
-0.23566024
-0.66268772
-0.48629510
-0.20776358
-0.07207827
-0.69978434
-0.48547667
-0.01949795
-0.15656544
0.05798841
-0.08361122
-0.18037091
-0.38449869
-0.67167276
-0.74695778
-0.98789239
-0.35024324
-0.75665700
-0.28497240
-0.52460438
-0.18494628
-0.67438549
-0.70820892
-0.41327950
0.03643357
-0.83635485
-0.90374285
-0.73437512
-0.04467852
-0.20396411
0.45331037
-0.30602083
-0.32372284
-0.32245922
-0.81161475
-0.07580560
-0.46997970
-0.34300047
-0.50401247
-0.30834454
-0.13229446
-0.25770468
-0.42286462
-1.00811779
-0.23003936
-0.44067743
-0.32186833
-0.51912254
-0.47267210
-0.15504484
-0.25327891
-0.26627916
0.20538041
0.08212350
-0.20507900
-0.02523573
0.40420833
-0.35649115
0.20239025
-0.27927029
-0.62956828
-0.30752531
-0.18974157
-0.27861771
-0.22687446
0.56235909
0.19889466
0.00707396
-0.09481774
-0.50450552
0.22161384
-0.56011039
0.04791323
-0.13409239
1.01796353
-0.20400918
-0.79399288
0.08336909
-0.03912668
-0.32120290
-0.44967133
-0.09179330
-0.11221212
-0.36471605
-0.29914692
0.10180978
-0.16190222
-0.26305956
-0.30565670
-0.21724540
-0.30800399
-0.19445065
-0.09647550
0.14253347
-0.00371085
-0.23778762
-0.17091797
-0.03475189
-0.14525202
0.07686771
-0.35120356
-0.53026348
-0.20154144
-0.48668480
-0.01492353
-0.08316657
0.01025906
-0.32287502
-0.07100806
-0.23822495
-0.76075518
0.30361998
-0.05310564
-0.03689565
0.02191688
0.02140010
0.26195812
-0.09530610
-0.54588586
-0.21761096
0.28019953
0.47694129
0.37001508
-0.22853447
0.41970333
-0.93641365
0.10834406
0.74489278
-0.29695415
-0.21047933
-0.62869555
0.10499354
-0.47189218
-0.62960672
-0.22146568
-0.07767709
-0.09883312
0.27474505
-0.71038610
-0.25641292
-1.22375441
-0.13622496
-0.81035507
-0.50387961
-0.27079055
-0.13373870
-0.37530181
-0.35341391
-0.50584328
0.29214808
-0.18511702
-0.05190619
0.00038793
0.00139079
0.54872000
-0.02331936
-0.15151435
-0.03688988
0.13632724
-0.18127050
-0.31322613
-0.03418615
-0.27407211
-0.44707650
-0.04786628
-0.18001774
-0.34431574
-0.89945036
0.16021396
-0.36602017
-0.14715825
-0.48168680
-0.12351923
-0.62473875
-0.52034903
-0.17625126
-1.08423436
-0.86774826
0.20167945
-0.20793180
-0.14429936
-0.03473648
-0.47458467
-1.34019387
-0.17693479
-0.43189397
-0.22958976
-0.32842612
-0.06510042
-0.32613727
-0.31892067
0.04598089
-0.15421024
-0.13229734
-0.21611138
-0.48189506
-0.12345675
-0.08096311
-0.90507138
-0.62355709
-0.07702646
-0.42995840
0.02124940
0.00196284
-0.00598103
0.71782917
0.03267471
-0.21518691
0.25504470
-1.01515996
-0.02144627
0.65220672
-0.11010347
-0.63729739
-0.34821367
-0.00371406
-0.36698860
-0.44240215
-0.65448767
0.20384015
0.03975803
-0.87912792
-0.15485090
-0.19444695
-1.56672442
-1.48745668
-0.50292009
0.32010007
-0.26365471
-0.13178430
-0.52456993
0.15126668
-0.70579582
-0.01850744
0.19479595
0.00720716
-0.10152606
-0.08248862
-0.38742930
-0.35006660
-0.21257825
-0.44272664
-0.08484752
-0.59900427
-0.55250710
-0.08126920
-0.13451657
-0.38191423
-0.04302349
-0.07274706
-0.28415591
-0.74236208
-0.49836206
-0.73398519
-0.44841856
0.19523388
-0.33080220
0.36971122
-0.25987476
0.46503580
-0.26044801
0.70169103
-0.29927436
-0.17420219
-0.33178768
-0.21392770
-0.19429442
-0.77074790
-0.71173060
-0.46074477
-0.13024130
-0.65380806
-0.08625933
-0.62321454
-0.18348584
-0.44228876
-0.15079707
-1.01422000
-0.38365367
-0.63699871
-0.42957011
-0.27983701
-0.90931886
-1.07714045
-0.69091225
-0.71517992
-0.69683152
-0.08340739
0.21453787
0.06965539
-0.15370300
-0.45390263
0.25051680
-0.83592999
-0.11660141
0.20155776
-0.10343338
-0.81887603
-0.19751438
-0.00903050
-0.53819966
-0.78189486
-0.05707402
-0.27703854
-0.03705252
-0.05606718
0.00700124
0.04557536
-0.01990097
0.10018706
0.06464733
0.02830976
-0.05430566
-0.10592473
0.01877398
-0.07063133
0.03472106
-0.07230332
0.04548231
-0.04291182
-0.02210087
-0.01995690
-0.00025599
-0.03713012
0.02914001
-0.04342484
-0.04497708
0.08353081
-0.00131494
0.03392527
-0.03283980
-0.12958251
-0.02445179
0.01065871
-0.04987540
-0.02247493
0.10055412
-0.01508366
-0.12006821
0.12685864
0.04538128
0.06708627
-0.00696718
-0.00249093
-0.10574453
-0.04697423
0.12183645
-0.07210340
0.04656270
-0.06406157
0.01585190
0.01332055
-0.08952874
-0.08575239
0.07594614
0.05009390
-0.12185512
0.03596692
-0.13960388
-0.00251657
-0.13624376
-0.01462130
-0.03768589
0.02742801
0.08405480
0.02665309
0.08783215
-0.02114883
0.13865554
-0.01031635
0.07377656
0.11041955
0.08760627
-0.01735623
-0.11569131
0.01676351
0.00576406
-0.13035144
0.05438410
-0.05466708
0.10933289
-0.11747596
0.01849470
0.00014908
-0.07350222
0.09478696
-0.05360959
-0.02557679
0.60146374
0.61158037
-0.28264561
0.78943098
-0.12189668
0.22955267
0.09343496
1.17393827
0.01128602
-0.11337653
0.30938283
0.75441343
0.38833725
0.30786416
-0.08336686
-0.04074321
-0.54420632
-0.23098592
0.33132374
-0.23510519
0.01047221
0.65883780
0.27949977
-0.44289988
-0.02742553
0.35628852
0.10045332
0.03602120
-0.41981098
-0.24868660
-0.10772121
-0.01482721
0.17219697
0.09221487
0.05701360
-0.25644070
0.06924761
0.69549465
0.72523952
-0.05507763
0.20409687
-0.00537743
-0.29094225
-0.04368445
-0.04234652
0.80280495
0.06561703
0.87079674
0.00373077
-0.45617348
0.64396155
0.42198992
0.08105592
0.26440588
-0.16013624
0.47018912
-0.08917491
-0.45610729
-0.49962848
0.74450207
-0.16480240
0.04854864
0.08222142
-0.10342438
-0.01153652
-0.30712378
-0.01993676
0.02745277
0.23506339
-0.21626723
-0.02261985
0.25659356
0.39926895
0.16764744
-0.40626037
-0.12567057
0.59857261
0.09980980
0.02993989
-0.22160590
0.26864117
0.33812341
0.09075017
0.09419943
-0.37294886
-0.10053065
-0.05091734
-0.13780290
-0.30305204
-0.53842402
0.04371034
-0.92800432
-0.66886574
-0.03011324
-0.38763392
0.06841001
-0.69873506
-0.91260886
-0.15065695
-0.11833331
-0.18745047
-0.27890149
-0.10525589
-0.38171583
-0.34565234
-0.50963205
-0.40368754
-0.30450138
-0.35477620
-0.63888276
-0.17176491
-0.56569481
-0.49394068
-0.24259621
-0.19253998
0.52278006
-0.55058497
-0.07346174
-0.92828900
-0.27806854
-0.00361256
-0.18644038
0.27176604
-0.34401986
-0.40030962
-1.28542578
-0.07823367
-0.08901157
-0.38344452
-0.37503263
-0.61774254
-0.18638925
-0.02111533
-0.41379088
0.05469751
-0.34863913
-0.00885740
-0.39063275
-0.68446922
-0.15110222
-0.31838867
0.10176617
-0.38848984
-0.51712871
-0.33151487
-0.45190945
-0.08882030
-1.00913143
-0.42694235
-0.21148247
-0.43493435
-0.15199211
-0.24199812
-0.35468239
-1.05066931
-0.39618304
0.00498056
0.05907746
-0.82942373
-0.20344210
-0.70517081
-1.15415680
-0.16863766
-0.02685932
-0.33620861
-0.36547574
-0.69326258
-0.12313975
-0.41442612
-0.43779251
-0.10410317
-0.63075536
-0.51008952
-0.40880588
-0.37468666
-0.14244741
-0.29935154
-0.10379007
-0.04853352
-0.32062161
-0.41005713
-0.52940297
0.17290902
-0.05164220
-0.29064220
0.03315753
-0.74381280
-0.28307372
0.00238262
-0.26599765
-0.24961753
-0.21992470
-0.71521044
-0.49274212
-0.03287232
-0.92827326
-0.11173913
-0.02851700
0.22547093
0.07651087
-0.19488093
-0.01000412
-0.31688103
0.10916168
-0.58433890
-0.24849226
-0.32768956
-0.40446225
-0.86946690
-0.47462079
-0.25555772
-0.04821764
-0.07211366
-1.00753725
-0.14689048
-0.61833113
-0.46578658
-0.19071616
-0.12052057
-0.19077399
-0.18344383
-0.18336645
-0.44315523
-0.50630426
0.39273790
-0.07636812
-0.08519693
-0.64693546
-0.18956859
0.16870700
-0.43275756
-0.30350232
-0.33551142
-0.33931381
0.05110875
-0.32652643
-0.00723723
-0.01906164
-0.20430399
-0.41386685
-0.54766989
-0.48773780
0.27629033
-0.21231459
-0.36221915
0.12203904
-0.34260261
-0.39600247
0.01427439
0.02915786
0.12526542
-0.09462294
0.01116697
0.03609256
0.06268758
-0.00663643
-0.02213491
-0.06777471
0.13266014
0.10202707
0.02893391
-0.10416424
0.00100971
-0.05106131
0.11858581
-0.01721893
-0.06704739
-0.02514020
0.15865271
0.02622931
-0.13194574
0.09774169
0.08701121
-0.12901856
-0.10425207
0.01435525
0.03598835
-0.01162123
-0.03364293
0.03448984
0.05072344
-0.09059823
0.14721473
0.16162550
0.09381334
0.07274695
-0.10685743
0.09893630
-0.05480914
0.08018302
0.01208785
-0.07049529
-0.04323332
-0.14031531
0.11339358
0.01639784
0.06794792
-0.06289442
-0.02951695
-0.01883352
-0.01021621
-0.09271250
-0.08856025
-0.02021894
0.12081935
0.04154474
0.02913360
-0.06730280
-0.10091636
0.06131284
0.01729010
-0.14966924
-0.02157992
-0.00827092
-0.07236214
-0.08519124
-0.07178920
0.02864685
-0.08247896
0.06727272
0.03688063
-0.08222657
0.01639690
-0.09831489
-0.03340358
0.03148448
0.08395314
-0.13764542
-0.00635052
-0.01643512
-0.13913879
-0.04474810
-0.08030787
-0.07610784
-0.03057921
0.00045437
-0.11664396
0.02393606
0.14247866
-0.06711335
-0.04228062
0.10438960
-0.01682689
-0.02048323
-0.12700418
-0.13522294
-0.12163610
-0.00157686
-0.04307310
-0.03440029
-0.11627164
-0.08754220
-0.00039577
-0.12607595
0.05426680
0.01010902
-0.02363797
-0.01602795
0.00643088
-0.02845978
0.11404829
0.00105874
0.01203866
0.03085426
-0.04077910
0.03674327
0.00070369
-0.12998222
-0.07484885
-0.02711845
-0.00040150
-0.05951430
0.02678994
-0.01331935
0.01444410
0.03190995
-0.12595771
-0.07478789
0.03893812
0.03601338
0.28154340
-0.02215140
0.05689205
0.28260916
-0.13386445
-0.03359114
0.04995063
0.09346437
-0.00233353
0.05787629
-0.14957316
0.02500169
0.00340104
0.01666014
-0.09868731
-0.05639745
-0.01846790
-0.00469437
0.03056636
-0.12143411
-0.15060809
-0.00548602
0.01584602
-0.12122951
0.03984262
-0.04903381
-0.00685200
-0.02509702
0.09030740
0.07347964
-0.01372261
-0.10071290
-0.11489707
-0.12557080
-0.06401445
-0.04677127
0.08890740
0.01877190
-0.04176126
0.00345631
-0.63376951
0.19989602
-0.56592864
-0.75273156
-0.33940184
0.36240196
-0.77466416
-0.36194313
-0.25029129
-0.04687713
-0.16123630
-0.51151276
-0.43542573
0.35873914
-0.40277624
-0.08543499
-0.34612268
-0.61644107
0.64400643
-0.47324935
-0.51784503
-0.39956087
0.41819891
-0.37403443
-0.41678643
-0.11435539
-0.11054805
-0.54915178
-0.35038653
-0.21746969
-0.23396233
-0.27041471
-0.80365896
-0.21464352
-0.33376095
-0.82030475
-0.04214635
-0.78353494
-0.82178551
-0.48107892
-0.52771050
-0.40573010
-0.24493113
-0.30098671
-0.25811866
0.14319342
-0.63432980
-0.74555433
-0.80560362
-0.44788054
-0.11650338
-0.45346212
-0.42899868
-0.02759906
-0.33823958
-0.23404914
-0.05850754
-0.41751751
-0.77014601
-0.60472280
-0.06843555
-0.15158738
-0.55626231
-0.63327152
0.30546302
-0.91261750
-0.53790510
-0.36571273
0.18547359
-0.84053510
-0.00245619
-0.50664651
0.41443855
-0.05297955
-0.10404375
-0.33019611
-0.96930939
-0.59070563
-0.03319405
-0.20568907
-0.14917564
-0.76861870
-0.87207782
-0.36757213
0.14631693
0.40476736
0.01803275
0.06068624
-0.01819995
0.07470255
0.25058192
-0.15244102
-0.05969874
-0.11087476
0.01604542
-0.15133652
-0.08773784
-0.14632750
-0.15828817
-0.08723898
0.03793786
0.02745245
0.25922221
0.01488313
0.18988720
0.04753840
0.35592946
0.09644895
0.08505818
0.03646772
-0.25417843
0.09469289
0.13225192
0.04271454
-0.25565791
-0.23408730
-0.05179724
0.31152156
-0.11646899
0.25859120
-0.02147410
-0.13600308
-0.00197734
-0.21485181
0.00861974
-0.27344126
0.48436305
-0.08638407
-0.18940100
0.29650563
-0.02436221
-0.08345172
-0.31083715
-0.04813097
-0.06723187
-0.13604681
-0.13031524
0.35894334
-0.02293865
0.11442916
-0.21503441
0.27153119
-0.02026550
-0.00010991
0.13774250
-0.00756068
0.19458960
0.01074719
0.14413640
0.32683280
-0.22123307
0.25926718
-0.19360882
0.32966307
-0.06062059
-0.06507715
0.48295918
-0.12582839
-0.02300040
-0.12633659
0.00974090
-0.05676883
0.07047676
0.38399279
-0.10250852
0.45047989
0.05950136
0.12874475
-0.60065174
-0.77976501
-0.11955478
0.11143220
-0.24408615
-0.60402077
-0.23106219
0.03057346
-0.13429427
-0.24175617
-0.68476892
0.14888528
-0.21198575
-0.51974905
-0.01322555
0.00741204
-1.33833623
0.45148149
-0.35695681
-0.30732128
-0.15739504
-0.09254601
-0.38046226
-0.48956996
-0.13213223
-0.43660599
-0.02674267
-0.26531804
0.17318287
-0.05876886
0.35332829
-0.61446738
-0.34389988
-0.22313434
-0.33449426
0.04713093
-0.21801873
0.63469017
-0.06219058
-0.96089625
-0.38117528
-0.62747771
-0.52259958
-0.05068440
0.08560789
-0.64082050
-0.53377008
-0.42955533
-0.49599704
-0.63513178
-0.25556564
-0.16127276
-0.10522214
-0.43600568
-0.37589312
-0.00387189
-0.27392966
-0.01283294
-0.00137919
0.31991604
-0.22174336
-0.08398665
-0.52507770
-0.39212152
-0.04122739
-0.83004671
-0.25427833
-0.19811323
-0.08613831
-0.28835350
-0.48317900
-0.13503726
-1.00712013
0.55176687
-0.24634764
-0.07448523
-0.40443873
-0.64474672
-0.14550143
-0.39195862
-0.51164740
-0.64780051
-0.26978505
-0.49045619
-0.05575922
0.09757459
-0.02799921
0.11648398
-0.02507862
-0.12034611
-0.02298786
0.07070470
-0.02223062
0.10959434
0.01699181
-0.11149233
-0.07503982
-0.12878157
0.01205326
0.03781353
0.01882883
0.01868288
-0.01618041
0.11658588
0.02222489
-0.00646042
-0.01033884
0.05193812
-0.08173180
-0.01960342
-0.01937307
-0.00512094
-0.01173686
-0.03417938
-0.12060893
0.01252436
-0.09319109
0.04007991
-0.05182751
-0.12936068
0.08300009
-0.00738952
-0.11789099
0.01288048
0.04115714
0.04851386
0.13385607
-0.00189682
-0.02823219
-0.00049140
-0.01266995
0.06057115
0.11394332
0.01586701
0.10406002
0.13487324
0.00995972
-0.03217535
0.02657894
-0.04290526
-0.06648053
0.00871258
-0.10329203
-0.02124369
0.00258824
-0.12995556
-0.05181137
-0.04062913
-0.06816579
-0.06892465
0.03545591
0.11695983
0.03275958
0.07516584
-0.00344666
0.03141565
-0.01438361
0.11043326
-0.07039307
-0.06223131
-0.05814646
-0.06783476
-0.02313887
0.07517171
-0.09022120
-0.13639267
-0.02331261
-0.05538833
-0.02077983
0.11306935
0.01389194
0.08464518
-0.01050523
0.07052033
-0.04847913
-0.00371087
-0.03567128
0.08559185
0.05759929
-0.07404048
-0.00489745
0.06114712
0.05766915
-0.04521269
0.03440458
-0.06929843
-0.12467820
0.00230399
-0.08099164
0.05332339
-0.04605909
0.07253584
-0.02258646
-0.00877070
0.05957745
-0.03932299
0.08589525
0.02174371
-0.05391480
-0.01287283
0.05057205
0.07059515
-0.04943407
-0.05205797
-0.08671588
0.00096031
0.00957676
-0.01413866
0.11710080
-0.00820891
-0.03974122
0.07114652
0.02586187
-0.05705125
0.06187935
0.09035605
-0.00398029
0.03742111
-0.01521635
-0.07909977
-0.07631425
-0.08766381
-0.10346651
-0.02634618
-0.11183544
0.00892016
0.02029753
-0.05536816
0.08537656
-0.01934022
0.03208390
0.05912916
-0.04545633
-0.03166416
0.00271609
0.07757582
0.09725222
0.03594002
0.03141371
0.03263070
-0.01666255
0.08519937
0.04713749
-0.12616850
-0.06569733
0.01750786
-0.06084666
-0.04974829
-0.06695890
0.06865945
-0.06831849
-0.06433477
0.15217920
-0.09976374
0.09530988
0.00221321
0.00554585
-0.22237849
0.12263349
-0.00460202
-0.02985341
-0.02950492
-0.06905393
-0.04903587
0.12302289
-0.03117866
-0.12065887
-0.05511514
0.09542196
-0.06937111
-0.07129443
-0.05216023
0.12176576
-0.09805579
0.04648174
-0.01680342
-0.03600654
0.13147050
0.03958634
0.02624761
0.07229241
-0.07440990
-0.15365869
0.01010370
0.05739021
-0.00148545
-0.04272921
0.07149449
0.05794868
0.11140271
0.10356078
0.07007175
-0.10917567
-0.09122201
0.12958838
0.07742070
-0.03185206
-0.00881684
0.05751653
0.04391576
-0.07054853
0.01410194
0.02725815
-0.09340835
-0.00020330
0.08643613
-0.13959143
0.04024450
-0.03421440
0.18892708
0.12091064
-0.01852719
0.06588914
-0.03140939
-0.01014657
-0.12794125
0.22390242
0.05217604
-0.06697751
-0.02283628
-0.05620093
0.00338566
0.12650782
-0.02681711
-0.06191550
0.12025238
0.05207363
0.00313722
0.05666461
0.08660022
0.14763315
-0.16820824
-0.05376190
0.05533018
0.11630295
-0.02275259
-0.08863922
0.05400066
0.05018538
-0.90863442
-0.18272857
-0.47719631
-0.81202286
-0.35045680
-0.50639629
-0.19418545
-0.00531369
-0.18984701
0.18906428
-0.37249035
-0.66236645
-0.09184194
-0.22132806
-0.05072259
-0.83273244
-0.53388530
0.13617007
-0.50098169
0.11219299
0.44223899
-0.59788334
-0.34364858
-0.12550294
-0.60574275
-0.05519848
-0.23281540
-0.58068049
0.71097034
-0.07843228
-0.36549783
-0.06607106
-0.48687133
-0.38131452
-0.32387814
-0.19708455
0.05985338
-0.87770933
-0.44453123
-0.36215204
-0.16096546
0.06250664
-0.67171896
0.04049292
-0.60724843
-0.53600180
-0.40939963
-0.25004122
-0.42142308
-0.05652156
-0.27732578
-0.17133704
-0.30440170
-0.44367358
0.33856297
-0.28784668
0.44268554
-0.68140078
-0.57610840
-0.00018709
-0.89029163
0.06056749
0.09070921
-0.29923657
-0.14427066
-0.70457911
0.15507679
-0.12591912
-1.17328835
-1.12961519
0.23008673
-0.24187014
-0.90776205
0.37259200
-0.38288414
-0.54092133
-0.61014622
-0.02701479
-0.33153501
-0.23148142
-0.65295464
0.10773972
-0.18755701
-0.05263263
-0.11951537
-0.22584316
0.22437988
0.15069124
-0.32132128
-0.74493164
-0.29214865
-0.34479299
-0.33842903
-0.56863087
-0.09757171
-0.67042899
-0.08062007
-0.39664173
0.36600515
0.53006446
-0.37913895
-0.24642400
-0.48449424
0.17887019
-0.14727491
-0.24873596
-0.21387583
-0.05836456
-0.10618777
0.01753333
-0.12575212
-0.30584192
-0.63897771
0.05657291
-0.14040999
0.16446750
0.34395859
-0.11226331
-0.25207248
0.26194677
-0.09325358
-0.40188855
-0.46127063
-0.30184844
-0.16006397
-0.08209667
-0.59421635
-0.14145891
-0.45185900
-0.41692755
-0.49261713
-0.44319171
-0.35871071
-0.07036990
-0.02246175
-0.05851983
-0.38200179
-0.41402602
0.09279019
0.03607750
-0.05801413
-0.04107439
-0.06532395
0.24138710
-0.02031232
0.09586600
0.17896752
-0.39839515
-0.28279072
0.74941260
-0.09902653
0.06501707
-0.17049216
-0.31096116
0.57020611
-0.92037046
0.05795387
0.46297401
-0.49705920
-0.62031472
-0.21061806
-0.08943100
-0.40299657
-0.31120273
-0.12119303
0.14941099
0.01049441
0.14678369
-0.06891689
0.01419610
0.02125545
0.01942683
0.12082632
-0.02485378
-0.01406318
-0.06051541
-0.02081328
-0.04050817
0.12957555
0.02798157
-0.07637628
0.02961558
-0.13935839
-0.01403146
0.02732864
0.10723324
-0.06885791
-0.00212815
-0.00860152
-0.09944393
0.00987979
-0.03357047
0.02650496
-0.00160285
0.08021456
0.00254957
-0.04589994
0.06941912
0.02988940
-0.10632601
0.08174700
0.07138646
0.04886160
-0.06869040
-0.00149494
-0.00358332
-0.14481345
-0.10030761
0.00264424
0.05606732
-0.00969736
-0.00653657
0.00185187
0.00287346
-0.01391962
0.04585452
0.07454998
-0.01166782
-0.03228099
-0.09688324
0.01754441
0.02971046
0.10566194
-0.05133611
0.00000911
0.10503432
0.12823249
0.00478886
-0.06252010
0.00358637
-0.00915705
-0.08737997
0.14845119
0.13283019
-0.02637512
-0.01652469
-0.06107744
0.04186127
0.03549054
0.06128733
-0.00968472
0.02499152
0.00092513
0.00989641
-0.06144712
0.10393370
-0.07358482
-0.02023155
0.02528404
-0.64741337
-0.50573409
-0.64784646
-0.77396882
-1.43987477
-0.48220158
0.07204082
-0.12243176
-0.82875788
-0.18500115
-0.50566447
-0.25598601
-0.43830580
-0.38649023
-0.57415503
-0.10371234
-0.15075958
-0.31688410
-0.33439583
-0.87118387
-0.10329594
-0.30969644
-0.08173311
-0.78430676
-0.90249074
-0.38320926
-0.15354617
-0.72129500
-0.35507330
-0.17707857
0.25044599
-0.33449060
0.01168405
-0.14028808
-0.46611291
0.08443630
-0.67012465
-0.64566767
-0.03033511
-0.03593593
-0.10954142
-0.41197085
-0.53107941
-0.15038753
-0.25204235
-0.21398024
-0.08835197
-0.74914134
-0.01386409
-0.63417280
-0.07492262
-0.02596909
-0.06601638
-0.22014919
-0.62261760
-0.40331256
-0.66579574
0.06471627
-0.30271849
-0.36977971
-0.40940803
-0.44923955
-0.39745924
-0.68630701
-0.29742706
-0.58269668
-0.75437742
-0.53298306
0.06561695
0.15522844
-1.12023926
-0.46044624
-0.69760525
-0.20472229
0.22097214
-1.07566047
-0.06336400
-0.42208549
-0.31692296
-0.90182465
-0.40395057
-0.03247080
0.32378140
-0.24097392
-0.35704401
0.34795904
-0.32254332
-0.87955183
-0.21703064
-0.23492412
-0.32955211
-0.22537485
-0.79920226
-0.13878374
-0.56200343
-0.04286609
-0.71004742
-0.13923880
-0.71454251
-0.28046921
-0.08055311
-0.64099264
0.63063592
-0.31728432
-0.55480081
-0.36822391
-0.23418270
-0.23396850
-0.22101836
-0.45578453
-0.11759312
-0.34277856
-0.32087809
-0.11071065
-0.13167782
0.22696142
-0.85336107
-0.04990420
-0.19296159
-0.46273917
-0.30625036
-0.47020599
-0.07416939
-0.25246873
-0.77110052
0.14024512
-0.30764255
-0.07377782
-0.28407231
-0.17648034
-0.01682558
-0.20503384
-0.28377828
-0.17233439
-0.34472537
0.30434397
-0.13128196
0.33797711
-0.57104510
-0.09137414
-0.56872892
0.14261632
0.00870948
-0.44206649
-0.13725170
-0.08993893
-0.22227298
-0.28636259
0.20798427
-0.37283632
-0.36785269
-0.50589293
0.06024422
-0.72429168
-0.99643594
-0.14888029
0.08332191
-0.54649335
-0.38713512
-0.40360677
-0.55649596
-0.82759285
-0.57778478
-0.05659499
-0.01746176
-0.59231061
-0.05271995
-0.00175330
0.00691470
0.01590471
-0.03287518
0.04061897
0.04677925
0.00366681
-0.01110212
0.02246039
-0.05854523
-0.02009899
-0.11441927
-0.11578077
0.03799678
-0.01416123
-0.07981589
-0.05352192
-0.02385016
0.07414366
-0.03108083
-0.01184468
-0.00218845
0.01698844
0.02326198
0.07760547
-0.03730236
-0.00710873
0.09003283
0.06546549
-0.04129468
0.03623831
0.13495722
-0.11215275
0.13906053
0.04351386
-0.00730422
0.08762284
0.05737264
0.07132292
0.01755255
0.12685090
-0.01207274
-0.02694819
-0.01505665
-0.02264881
0.00000425
0.04414043
0.08680436
0.02227855
0.01719833
-0.04939205
-0.03275736
0.14006618
-0.01024425
-0.08244148
-0.04022513
0.04997401
-0.02331865
-0.09572494
-0.04864175
-0.04932913
0.10840176
0.10352204
0.05285706
0.05914706
0.08773959
0.05699882
0.07618339
-0.03416651
0.00246854
-0.01403755
0.05345744
-0.02399055
-0.03845829
0.10511501
-0.06953591
0.04901658
-0.03001522
0.07431491
-0.09324528
0.03223064
-0.01919228
-0.03009825
0.06617388
0.00824931
0.10325257
0.47637126
-0.32752785
0.45942265
-0.62136304
0.27982038
-0.04839668
-0.21977217
-0.06539716
-0.08496337
0.07902311
-0.13391620
0.06796367
0.04287417
0.44456509
0.01264168
-0.58471096
-0.59653449
0.20748104
-0.26950896
0.10672687
-0.02476701
0.56470495
0.05393706
-0.05517461
-0.41946742
0.08061256
0.00186347
-0.50865054
-0.15250786
-0.22957519
-0.62430990
-0.41211513
0.07357519
-0.26632810
-0.34858921
-0.17542659
-0.36598021
-0.61239880
-0.03112542
-0.34078106
-0.50079995
-0.58837444
-0.01408827
0.02945992
0.39793608
-0.30572462
0.01253654
0.07567581
-0.35110736
-0.51726979
0.30842879
-0.10212548
0.30917203
-0.10816486
-0.60078466
-0.37582538
-0.33072749
-0.22029558
-0.40577370
0.36234894
-0.44893464
0.25260055
0.23553619
0.29192263
0.06140672
-0.02984289
-0.22031540
-0.61428511
-0.55287641
-0.22394025
0.05637757
0.38698915
-0.39577729
-0.01662149
-0.12982018
-1.06941390
-0.45936021
-0.31334755
-0.37826726
-0.45819604
-0.18974443
-0.45156237
-0.28366020
-1.02742612
-0.09897221
-0.25085312
-0.62692946
-0.03837438
0.18093222
0.35638720
-0.36773258
-0.58672631
-0.25649902
-0.97564721
-0.19394261
0.00857404
0.12216250
0.17227677
-0.11012040
-0.11593840
0.28957415
0.05877057
-0.15904114
-0.13022263
-0.13402730
0.33446109
-0.28985104
-0.46859077
-0.58657032
-0.22017275
-0.62508303
-0.21780108
-0.12491506
-0.28040034
-0.22786850
-0.36658144
0.02308821
-0.15664504
-0.03003928
-0.11699731
-0.50765496
-1.00892556
-0.67694914
-0.44743043
-0.08318252
-0.53516746
-0.07430907
-0.17836913
-0.34291297
-0.29319236
-0.26037496
-0.30171356
-0.28942233
-0.28549507
-0.52302396
-0.28994080
-0.39909157
-0.35191941
-0.16302578
-0.31122866
0.21831349
0.28483534
-0.65198928
-0.16317718
0.08356120
0.45759463
-0.58408642
0.11520650
-0.35680005
-0.63351274
-0.50328588
0.24016021
-0.62544036
-0.74504310
-0.33127642
0.03107700
-0.18854244
-0.55726296
-0.26130262
-0.00340926
-0.13730581
-0.18512309
-0.19730262
-0.15849091
-0.00210869
-0.03528716
-0.32205284
0.13951497
-0.02704642
-0.10584186
-0.12975769
0.07208589
-0.14804064
-0.02376938
0.02151245
-0.10274121
0.10567082
0.06799931
-0.12417149
0.02648718
-0.06952801
0.08120325
0.01836802
-0.00055232
-0.14992869
-0.04877330
-0.10741329
0.13102204
-0.01201312
0.02234373
0.02184145
-0.02310755
-0.03837159
0.01586218
0.04526116
-0.11599190
0.06319964
-0.08976965
0.06131627
-0.04547576
-0.09004592
-0.06005800
-0.04506329
-0.02417979
0.02001870
0.09002672
-0.01192175
0.00135854
-0.14347079
0.13209280
-0.03198206
0.09098777
0.05076179
-0.00235482
0.02403669
0.04791278
0.00049731
0.11891385
-0.01418370
0.00647555
0.08274420
-0.05854898
-0.10152910
-0.02965032
-0.14752860
-0.01402454
-0.10298474
0.13001290
-0.01447569
0.02235648
0.02295084
-0.12171393
-0.06721508
0.04052058
-0.08671511
0.02022131
-0.01865294
0.03084704
-0.03042251
0.08427836
-0.01646163
0.10571869
0.02537322
0.03352322
-0.13527532
-0.12352982
0.07385007
-0.07836935
-0.01427119
0.08614293
-0.01346510
-0.23170495
-0.23754483
-0.31279707
0.40106580
-0.18033956
0.22308479
0.29369369
-0.24543703
-0.74128163
-0.13258183
0.25463885
-0.42740184
-0.18019904
-0.26069599
-0.10386867
-0.08612735
-0.96976614
-0.41629130
-0.39663732
-0.05298227
-0.21855837
-0.43114126
-0.33823198
-0.47269869
-0.09835123
-0.28325200
-0.03009441
-0.50181890
-0.21095923
-0.11950304
-0.60919547
-0.33502805
0.20050958
-0.43957311
-0.43379587
-0.44234407
-0.45135781
-0.41835529
-0.85177350
-0.29367849
-0.77153158
-0.53452587
-0.59690261
-0.20043765
-0.50211549
0.00312916
-0.26369232
-0.12115915
-0.75398552
-0.33890331
-0.10535839
-0.08541656
-0.21531980
-0.10064939
-0.30284178
-0.32937640
-0.44974422
-0.77715945
-0.10443935
-0.89916271
-0.14529341
-0.21045412
0.09254528
-0.08798488
0.10309978
-0.00625687
-0.04726556
-0.30886406
-0.12036809
-0.17845842
-0.50604802
0.02374557
-0.39248276
0.04687966
-0.46181679
-0.86007178
-0.42934403
-0.11612835
-0.21697433
-0.47953323
-0.55938274
0.17260963
-0.56552768
-0.25782627
0.02871512
0.07427306
-0.08370046
0.03239524
-0.05610349
-0.14228903
0.05716699
0.06858194
-0.02708312
-0.04158722
0.01510217
-0.11041947
-0.03723359
-0.00533112
0.02883345
0.02483396
0.11864675
-0.06922426
-0.03063966
-0.13959938
-0.11820848
-0.07069440
0.00846395
0.07178573
-0.03191379
-0.05813537
0.01821495
-0.02325207
0.02521480
0.03674965
-0.09624612
-0.07993276
0.01641016
-0.08211996
0.02875002
-0.02897303
0.05079547
0.05142390
-0.01064686
-0.00447760
-0.03541796
-0.11815185
-0.02238168
0.06718966
0.01960658
-0.03288343
-0.03640365
-0.00964172
0.05733369
0.07240813
0.02704817
0.02180479
-0.05797400
-0.04774698
0.02079393
0.13178070
-0.05569124
0.02560062
-0.11970404
-0.08252149
-0.07960860
0.00282178
-0.05315267
-0.03910263
0.02336568
0.09029602
-0.07405144
-0.10593138
-0.00772484
-0.03801884
0.00349795
0.02604069
0.08495112
0.01549241
-0.09760261
0.03097839
-0.02947996
0.13482909
-0.09021383
-0.06686568
0.05456871
0.11861380
0.01190910
-0.07078133
-0.13545667
-0.27538943
0.07544315
-0.33758774
-0.26668024
0.15748116
-0.19906124
0.02082371
0.74476039
-0.24137311
-0.21855213
-0.14827394
-0.44836980
0.07219678
0.17600277
0.00845532
-0.24124953
-0.54447126
0.69799340
-0.40293780
0.10072850
-0.05127771
-0.02115524
-0.04456455
-0.17003295
0.08547715
0.01216029
-0.09232979
-0.14587484
-0.08834410
0.22133896
0.15108389
0.13507867
-0.16890068
-0.15965477
-0.23827879
0.02533369
-0.43778509
-0.32123750
-0.36226726
-0.47227231
-0.38556159
-0.06636430
-0.06858382
-0.19748658
-0.24419507
0.17248149
-0.26612809
-0.20282051
-0.25443935
-0.44751605
-0.11964716
-0.09776743
-0.48343793
0.25226459
0.02690527
-0.05493651
-0.09286492
-0.08904056
-0.16507289
-0.06019592
-0.14684388
0.06951904
0.08364237
-0.32589746
0.10846896
-0.02176413
0.00733100
-0.00388808
-0.56791878
-0.66189665
0.08841710
0.03057737
0.27598181
-0.26437721
-0.24251117
-0.47475916
-0.19316736
-0.31562471
0.19868557
-0.06014154
-0.20324568
0.40404153
-0.46038902
0.13792191
-0.34703574
-0.00784352
-0.14646511
-0.90438330
-0.34565666
-0.16077064
-0.35301760
-0.52150804
-0.03948941
-0.19174920
-0.33965012
-0.42256963
-0.38341117
-0.11902504
-0.14647634
-0.18091482
-0.24805441
-0.35798681
-0.33570272
-0.22047319
-0.41511509
-0.28322491
-0.29665327
-0.16352388
-0.49044263
-0.18084735
-0.37497288
-0.05358543
-0.15971635
-0.14925988
0.29907867
-0.40031219
0.02340176
-0.31643194
-0.04880531
-0.30057785
-0.04174925
0.17455235
-0.59881020
-0.75846803
-0.25329730
0.09387334
-0.06238724
-0.04098135
-0.20517178
-0.00546158
-0.60462970
-0.22933815
-0.60166991
-0.26048493
-0.34519112
-0.06870630
0.04162933
-0.61703372
-0.42780423
-0.06412205
0.16884656
0.11128233
-0.11292300
-0.24866807
-0.31781647
-0.45673522
-0.41215146
-0.33052900
-0.02649005
-0.15462065
-0.33889934
-0.36910811
-0.45826206
-0.04327296
-1.01379311
-0.12681943
-0.32900468
-0.40012968
-0.18744829
-0.40765706
-0.19423683
-0.24750309
-0.78265280
-0.27945888
0.12714994
0.00146266
-0.24622735
-0.07848023
-0.47682306
-0.15685332
0.02145395
0.21340860
0.16814412
0.20343408
-0.19396782
-0.04586737
-0.08672914
0.22250074
-0.40871465
-0.19046168
-0.15877321
0.13632531
0.03779906
-0.24669293
0.30229750
-0.42455700
0.08887592
0.71594018
-0.03724536
-0.14685288
0.17408359
-0.14802219
-0.12983559
-0.02051415
0.06076597
0.04966002
0.08752804
-0.05837159
-0.08248572
0.08861031
0.42143613
0.01930643
-0.04988661
-0.15031457
-0.03364359
0.04385604
0.30991361
-0.08420634
-0.06924954
0.13169873
0.31026930
0.15100834
0.09086820
-0.09107745
-0.08912282
0.47041023
-0.00243171
-0.10771596
0.20641159
0.01206195
-0.62405688
0.00750739
-0.31780845
-0.22908331
0.36526895
0.08936253
0.14205305
-0.19157739
0.54333377
0.35721388
-0.05858034
0.14800255
0.48428860
-0.04518214
0.26527223
-0.37665170
-0.27664593
-0.34231943
0.41754511
-0.13816853
-0.20623843
-0.29150486
-0.00323212
0.02961664
-0.26878002
-0.06610553
-0.08721179
0.34374949
0.25562441
0.52116132
0.04025364
0.02599640
0.21411428
-0.09544794
0.04617270
-0.31789231
-0.17898685
0.00722860
-0.15176585
-0.07747234
0.13675283
0.23292480
0.26370510
-0.06982682
0.09210354
-0.44613492
-0.09104991
-0.23287296
-0.32641551
0.29348183
0.24853817
0.18225111
-0.01034539
0.25803956
0.28442574
-0.08886259
-0.28293154
-0.02762000
-0.00659372
0.15877748
0.03389439
-0.70134532
-0.45780736
0.11082403
0.35314962
0.06743979
-0.03823020
-0.05476479
-0.25897145
-0.21889736
-0.06667400
-0.00426394
-0.07861409
0.29185891
-0.05249003
-0.16239448
0.33822769
-0.04856047
0.05545611
0.23448254
-0.04813063
0.01402286
-0.10293112
-0.00526946
0.46593657
0.02941798
-0.13496280
-0.41605702
0.00633078
0.30082691
-0.24322586
0.51138139
-0.12538680
0.54560328
-0.10507168
-0.02462575
0.23787156
-0.01076975
0.06021333
-0.15184532
-0.00714627
-0.02853522
-0.41625273
0.02022634
-0.23802701
-0.06234149
0.01413126
0.57886964
-0.13863374
0.05480299
-0.20136203
0.13037008
-0.00684124
0.19789274
-0.06835878
-0.25410390
0.16012469
0.05210506
0.40010864
-0.43656644
0.02790835
0.14230099
0.19128616
-0.05758207
0.02761605
-0.07637158
-0.02973497
-0.14903677
-0.42820823
0.01764568
-0.02855614
0.37262249
0.78328109
0.10121515
-0.23928687
-0.06572787
-0.24250457
-0.24130115
0.61714184
0.19866757
-0.27375841
0.02538090
-0.36869749
-0.01763140
-0.07682844
0.02066558
0.07573031
-0.38497043
-0.26515564
-0.23184349
-0.79610443
-0.37250856
-0.40070739
-0.44372872
0.62161529
-0.16032916
-0.84585762
-0.05076558
-0.11192831
-0.03599333
0.24524584
0.06266208
-0.00195816
0.34904099
0.22955294
-0.08284556
-0.44675785
0.00657915
-0.04918465
-0.40056628
-0.35859650
-0.02905407
-0.07965710
0.36509305
-0.44306359
-0.13733228
-0.05320198
-0.95568895
-0.63338274
-0.27624592
0.22750895
-0.16517055
-0.14525969
-0.27834558
-0.54735911
-0.10244237
0.47473547
0.11925329
0.10743293
-0.78112948
-0.45374274
0.04765091
-0.61380339
-0.67274922
-0.53672171
0.00490347
-0.39745829
-0.68897921
-0.36152560
-0.16671133
0.41173014
0.15606020
-0.11722773
0.16895457
0.32884753
-0.29433423
-0.08311713
0.27351433
0.01552953
-0.42502269
-0.36810616
-0.06695919
-0.08302034
-0.35717827
0.02991368
-0.56251925
-0.54852170
0.41173711
-0.45241797
0.11368617
-0.10817954
1.27670288
0.11930089
0.34810695
-0.05527138
-0.16482034
-0.00928580
-0.05503349
0.09121138
-0.01183839
-0.12776245
-0.19696076
0.26115361
-0.23852429
-0.23705316
-0.41876897
-0.15347983
-0.14957587
-0.16734858
-0.25120217
-0.61190510
-0.21895310
-0.26756296
0.01097652
-0.26964492
-0.26266244
0.08953886
-0.20531389
-0.00711539
0.12124980
-0.01323435
-0.23073030
-0.01133661
-0.25079086
-0.15189895
0.01995512
-0.12780473
0.45982718
-0.48140445
0.30201688
0.45167375
-0.35724735
-0.42255726
0.09492502
0.01118122
0.12934160
-0.31281602
0.05423005
-0.29462677
-0.22546490
-0.39247024
0.45575303
-0.34541535
0.24404426
-0.29529479
-0.20349713
-0.09768224
-0.40531063
0.08330005
-0.17465425
-0.04166219
-0.25269750
-0.20419708
-0.16327231
-0.14755046
-0.54005224
-1.38421738
-0.07162131
-0.42863116
-0.06941903
0.06838810
-0.29502404
-0.04379465
-0.18242817
-0.46195385
-0.74910140
-0.87851560
-1.18976140
-0.29993615
-0.10765208
-0.68155330
-0.46240771
-0.71291530
-0.47738442
-0.59724271
-1.01570511
0.05269647
-0.63157338
-0.11640286
-0.28688139
-0.37928465
-0.80486834
-0.25277603
-0.62736958
-0.14395897
-0.79693735
-0.42624339
-0.58951753
-0.53745890
-0.45354351
-0.25653476
0.11302187
0.49410868
-0.32209483
-0.78935724
-0.63772744
-0.31921548
-0.22952719
-0.45481402
-0.66227663
-0.53217006
-0.33361632
-0.63486701
-0.41822383
-0.73061925
-0.05818169
-0.43270510
-0.41704369
-0.71391803
-0.29591620
-0.61230195
-0.25649405
0.14939776
-0.10845964
-0.75327414
-0.58488667
-0.24492323
-0.56187660
-0.11416104
-0.64435792
-0.82381326
0.42874214
-0.74775797
-0.26817662
-0.63642323
-0.13081959
-0.41814011
-0.70274639
-0.37169200
-0.60220033
-0.78902161
-0.13909924
-0.24792840
-0.58421695
-0.99958706
-0.16341500
-0.29823720
0.05687203
0.03711909
-0.04390343
0.04081724
0.03095885
-0.10276066
0.08559781
0.10060698
-0.00530685
0.06335944
0.01737187
0.02278222
0.04216939
0.04421210
-0.01864988
-0.03600694
0.05864156
-0.00678163
-0.00878571
-0.14638256
0.01353329
-0.04934274
0.00958272
0.07740752
-0.06271526
-0.00234814
-0.02266114
-0.12224586
0.03382520
0.04447752
-0.11921950
-0.02112329
0.04646854
0.05483085
-0.02370348
0.02157545
-0.05399673
0.02449443
-0.02699703
0.06601737
0.14052099
-0.10028862
0.02204452
0.03724025
-0.00937008
-0.00556678
-0.05907708
0.02773210
-0.02325684
0.03117812
-0.02349406
0.13392892
-0.01362354
-0.01196098
-0.08173040
0.08814566
-0.14439082
0.08828436
-0.05347812
0.08375685
0.08682229
0.05828595
0.04202415
-0.09012057
-0.05176602
-0.03159389
-0.02223707
-0.02787516
0.13242997
-0.03601168
-0.04607506
0.00337776
0.11483307
-0.01085386
0.08169354
-0.04566906
-0.00747486
-0.10590561
-0.09080138
-0.02095278
0.08854797
-0.08261757
0.01097384
0.02942424
-0.22461092
0.05502484
0.13745001
-0.33351234
-0.16008803
-0.19579461
-0.05520606
-0.26691380
-0.09379489
0.06762071
0.19987288
-0.11909360
-0.12367795
0.17392556
-0.01349142
-0.12950282
0.58476156
-0.06032409
-0.28240412
-0.11551724
-0.01821065
0.15276314
0.05860059
0.06457221
-0.28780225
-0.16287054
-0.03237767
-0.17130558
-0.03616878
-0.07006655
0.28133583
0.04860188
0.45187655
0.01496708
-0.08912539
-0.19788462
-0.35772407
-0.04996092
-0.39059049
-0.15856653
-0.28177047
-0.04343669
0.12403898
0.01886852
-0.07146344
0.03702850
0.08031876
0.17959918
0.26100603
-0.12627053
0.18548487
-0.06620519
-0.10052481
0.18222523
-0.25233290
0.16286401
0.37587872
-0.03427811
-0.36189279
0.71556133
-0.30889940
-0.14499548
-0.16299067
-0.05403057
-0.49428201
0.15399268
-0.15670875
-0.05377556
0.18479730
0.41644809
0.01310740
-0.08329523
-0.10806083
-0.20640044
0.69185919
0.63362801
-0.14883614
-0.28431401
-0.07171904
-0.66888702
0.27728286
-0.37832546
0.62668204
0.00653591
-0.52287453
-0.61424267
-0.30428872
-0.36875823
-0.65785486
0.29690894
-1.25710368
-0.41717100
-0.45455647
-0.15445107
-0.69366771
-0.20924483
-0.29072121
-0.30002129
-0.22477467
-0.10167225
-0.06680749
0.27746654
0.27111977
-0.56171679
-0.15483806
-0.42017588
-0.29023245
-0.34643632
-0.27288133
0.32952681
-0.10786837
-0.62500209
-0.26305339
-0.31225407
-0.02387269
0.31617942
-0.53418726
0.06610600
-0.37613022
0.27902851
-0.04693139
-0.12418585
0.00934861
-0.01134235
-0.30695263
-0.40801823
0.19550991
-0.40722975
-0.31680468
-0.25472271
-0.35993406
-0.66372031
-0.58375126
-0.37924340
-0.75534922
0.05345425
-0.00342388
0.00120328
-0.64332652
0.15651289
-0.33455902
0.15551774
-0.23788096
-0.49586493
-0.19566453
-0.67685080
-0.43218634
-0.34016958
-0.65398479
-0.24293150
0.51064104
-0.39315641
0.13079754
0.21686631
-0.90124285
-0.99636728
-0.29096079
0.03748517
0.04309309
-0.49819872
0.13208619
-0.09639316
-0.19952057
-0.39668229
-0.35185272
-0.14400519
0.14040355
0.18707573
0.17636941
-0.21017843
-0.02017668
0.88996089
-0.47803062
0.06068159
-0.08912352
-0.20128515
-0.10819342
-0.02705965
-0.37203228
-0.55636078
0.26640686
0.37022910
-0.03093684
-0.05838029
-0.24375665
0.29438198
-0.03772992
-0.00004413
0.04247630
-0.05557089
-0.35564801
-0.32362664
0.06340415
-0.23717810
-0.25768369
-0.00510757
0.81998408
-0.08645313
-0.37332043
-0.30135757
0.33911556
0.07750162
-0.01844272
0.02313158
-0.16974106
-0.59991169
0.09723952
0.08598948
0.09783205
0.73045033
0.24243447
-0.36474684
-0.23795290
0.61376733
0.02437612
-0.25753045
-0.51851588
-0.15264618
-0.11676446
-0.31363070
-0.09042732
-0.07788084
0.15977930
-0.27753109
0.12095112
-0.09516229
0.19228560
-0.20929971
0.05641720
0.14821398
0.11000755
-0.01237797
-0.07257313
-0.08768116
0.23390760
0.05347408
-0.15609457
0.54229349
0.17179066
-0.45537281
0.02404631
-0.31225365
0.09650863
-0.13736007
0.04841953
0.14257468
-0.06551214
0.11402426
0.08946767
0.12758830
-0.04311381
-0.26134270
0.30729282
0.06291252
-0.10664040
-0.33502823
-0.22061433
-0.14030293
-0.09568837
0.09718238
-0.77250534
-0.14475162
-0.06944872
-0.17769367
-0.11916766
-0.15587088
-0.27881142
-0.08540587
-0.30069545
-0.79396981
-0.41938752
-0.32803655
0.03300275
-0.25353733
-0.21333648
-0.15218323
-0.18908793
0.26647130
-0.05031388
-0.08553785
-0.19401737
-0.11842883
-0.53244680
-0.58134311
-0.18457223
-0.24020074
-0.23394866
-0.05633721
-0.41671088
0.32125917
-0.21605343
0.56349903
0.32136813
-0.10735483
0.16109815
-0.46343702
-0.17214529
-0.25014931
-0.56652141
-0.65633631
-0.01703834
-0.12162194
-0.07984109
0.14711444
-0.08453305
-0.24158758
-0.18279772
-0.30629668
-0.17646113
-0.18273069
-0.28575936
-0.16403654
-0.24162549
-0.20477298
-0.23015203
-0.08905674
-0.16105285
-0.17763616
-0.98347104
0.13493340
-0.04955919
-0.02676621
-0.21732759
-0.19611782
-0.36403024
-0.40639329
0.01226993
-0.37560484
-0.35359752
-0.16556501
-0.00403541
-0.14576231
-0.06175725
-0.06188516
0.08744856
-0.16800921
-0.00509417
-0.00635244
-0.01854445
0.00917062
0.02083184
-0.00855401
0.07211818
0.25874278
-0.04834982
-0.04233051
-0.06725579
0.08829269
0.04370854
0.21512191
0.15574642
0.08410755
0.05995191
0.13977730
-0.09447704
0.03714238
-0.02754263
-0.09026748
0.07957260
-0.15504119
0.08555852
0.02762963
-0.07759096
-0.01427384
-0.16320635
-0.02364297
0.06975514
0.15589024
-0.15891847
-0.03417468
0.02949107
0.13487802
0.07487133
0.15125501
-0.02723887
0.16056181
-0.03975037
0.01939011
-0.04096366
-0.07523734
0.20096157
0.08487739
-0.01462145
0.07792631
0.15142594
-0.04612314
-0.02653288
-0.01829254
0.06069480
-0.00994783
-0.01375407
0.02197882
0.03438348
-0.05481945
0.02420991
-0.05868855
0.19747479
-0.04642946
0.03863615
0.08374971
-0.02805074
-0.07254348
0.01641245
-0.21993993
-0.11528143
-0.04934741
-0.04915742
0.02019698
0.11307605
-0.07388494
0.03510259
0.05534402
-0.07251443
-0.04620334
0.03334791
-0.07244445
-0.03457556
-0.02129276
-0.04454708
-0.08068880
-0.29490989
-0.22199349
-0.46759024
0.04370353
-0.15232454
0.20633799
-0.38672015
-0.28296706
-0.79790848
-0.10833804
-0.14474563
-0.01195815
-0.03151793
0.15381242
0.00320347
-0.07638057
-0.36949018
0.51569498
0.19592696
-0.35715213
-0.03856221
-0.49371287
-0.38500792
-0.35714281
-0.41767037
0.20461917
-0.09658982
-0.53766865
-0.16891032
0.03896359
0.04167497
-0.20881565
0.27490827
-0.27124327
-0.21128751
-0.04156875
-0.07438546
0.14230068
-0.03665931
-0.37895083
-0.27286026
-1.09752083
-0.96621639
-0.03754594
-0.06855531
-0.38569695
0.22432338
0.14262432
-0.10130402
-0.97401386
-0.17664360
0.04594845
-0.06045291
-0.06677371
-0.22952244
-0.16746292
0.04236509
-0.28064346
0.05374784
-0.47572124
0.01690042
-0.23168708
-0.41280773
0.07596780
-0.22107252
-0.02699431
-0.42907166
-0.50458676
0.81456858
-0.00993197
-0.20152190
-0.30911893
-0.30056998
0.07512885
0.18748732
-0.40784526
0.09864145
0.06147520
-0.43492275
-0.62547642
0.21473902
-0.36766398
-0.70666450
0.00444251
0.02523407
-0.00217468
0.10518195
0.13013598
-0.04072186
0.00742949
0.00359799
0.12155116
-0.12449452
-0.11041608
-0.13141143
-0.00893592
-0.02311979
-0.03263590
0.04911973
-0.03523241
0.13655995
0.00197572
0.10487006
-0.05732969
-0.03043755
0.04249926
-0.02132317
0.02020476
-0.04664280
-0.08906237
0.00291591
0.05808651
-0.01372933
0.02226207
-0.01399575
-0.05142099
0.03759122
-0.05639109
-0.04259896
0.14343171
-0.00579809
-0.00903172
0.00156964
0.03520915
0.02445289
-0.08493896
0.02444474
-0.02355475
0.08086060
-0.08295836
-0.02451116
-0.06373565
-0.11422866
0.00808875
0.06644582
-0.02782751
-0.00603964
0.02063919
-0.01835044
-0.02429389
-0.15005462
-0.12276061
-0.01853228
-0.13939963
0.02875884
0.10884590
-0.06270955
-0.06482912
0.02271656
0.04162231
-0.01256341
-0.00284622
0.03445045
-0.00279854
-0.07488742
0.02421452
0.07311529
0.03768117
-0.00123482
-0.00437501
0.00029411
-0.11084369
-0.09200356
0.07587141
-0.04510904
-0.12038612
-0.02285602
-0.02240121
0.09834465
0.10217318
-0.18999189
-0.04665260
-0.02283218
-0.22294004
0.17686266
0.02572654
-0.12175438
-0.10426749
0.03150954
-0.23277503
-0.03940384
-0.00638953
-0.16677372
0.01305381
0.26453862
0.03749102
0.04430384
-0.08055354
-0.01675518
0.08726098
0.03802985
0.11724579
-0.02468652
0.27238771
0.02705879
0.00473790
0.05608043
0.25392583
0.12931500
0.12208948
-0.11466584
-0.05643086
0.15293302
0.06857340
0.02992081
0.16553423
0.06647320
0.05403308
0.10423739
-0.00045603
-0.08083189
0.08694573
-0.07954094
-0.05616662
-0.03887717
0.00824650
0.10450671
0.10265315
0.09753327
-0.06276474
0.02773250
-0.29641747
-0.03700614
0.07774298
-0.09490655
-0.20654416
-0.18670002
-0.12757637
-0.13410638
-0.02214862
0.03844364
-0.06311885
-0.12074219
0.05909536
0.13845856
-0.18540628
0.12470064
0.11392717
0.02550310
-0.02901101
0.17088902
0.05355790
-0.07044311
-0.02218409
-0.01029018
