-0.500000
-0.125000
0.125000
-0.250000
0.125000
-0.062500
-0.250000
0.062500
0.062500
-0.125000
0.125000
0.031250
-0.250000
-0.125000
0.125000
-0.250000
0.062500
-0.062500
-0.125000
0.250000
-0.000977
-0.062500
0.015625
0.125000
-0.125000
0.007812
-0.250000
-0.062500
-0.031250
0.125000
-0.062500
0.062500
0.003906
-0.125000
-0.062500
0.125000
-0.062500
-0.031250
-0.015625
0.031250
-0.250000
-0.500000
-0.125000
-0.250000
-0.125000
-0.500000
-0.250000
-0.500000
-0.003906
-0.062500
0.125000
0.015625
0.250000
0.125000
-0.250000
0.000977
-0.125000
0.015625
0.007812
-0.500000
-0.250000
-0.000488
0.250000
0.062500
-0.250000
-0.125000
-0.250000
0.125000
-0.125000
-0.125000
-0.500000
-0.125000
0.062500
0.250000
-0.031250
0.062500
0.125000
0.125000
0.250000
-0.062500
0.250000
-0.250000
-0.500000
-2.000000
0.031250
-0.500000
-0.500000
0.031250
0.062500
-0.500000
-0.062500
-0.125000
0.125000
-0.125000
-0.125000
0.125000
-0.125000
-0.062500
-0.125000
0.015625
-0.250000
-0.500000
0.125000
-0.250000
0.125000
0.125000
-0.250000
0.031250
-0.125000
0.500000
-0.125000
-0.250000
-0.250000
-0.007812
0.125000
-0.015625
0.250000
-0.062500
-0.015625
0.125000
-0.500000
-0.250000
-1.000000
-0.500000
0.250000
-0.125000
-0.250000
-0.500000
-0.500000
0.125000
0.062500
-0.250000
-1.000000
-0.031250
-0.250000
0.007812
-0.250000
-0.500000
-0.250000
0.125000
0.062500
-0.250000
-0.500000
-0.015625
-0.500000
0.250000
0.250000
-0.125000
-0.125000
-0.125000
-0.500000
-0.062500
0.125000
0.062500
-0.250000
-0.000488
0.031250
0.125000
0.031250
-0.062500
-0.125000
-0.500000
-0.031250
0.125000
0.125000
0.125000
-0.250000
0.125000
-0.250000
0.007812
-0.125000
0.125000
-0.500000
0.015625
-0.007812
0.250000
0.000488
-0.500000
0.250000
0.031250
0.250000
-0.031250
-0.125000
-0.250000
-0.125000
-0.125000
0.125000
-0.500000
0.062500
-0.125000
0.250000
0.125000
-0.500000
-0.500000
-0.031250
0.062500
0.062500
0.015625
-0.125000
0.007812
-0.250000
-0.062500
-0.125000
-0.015625
0.015625
-0.062500
-0.250000
-0.062500
-0.125000
0.125000
-0.250000
-0.125000
-0.250000
-0.031250
0.062500
-0.250000
-1.000000
-0.250000
-0.125000
0.250000
0.250000
0.125000
0.062500
-0.125000
-0.031250
0.062500
-0.250000
-0.031250
-0.250000
0.125000
0.250000
-0.125000
-0.015625
-0.000122
-0.125000
-0.250000
-0.125000
0.125000
0.125000
0.125000
0.062500
-0.062500
0.250000
-1.000000
-0.250000
-0.500000
0.125000
0.031250
-0.125000
-0.015625
0.003906
0.250000
-0.250000
0.250000
-0.062500
0.015625
-0.125000
0.250000
-0.250000
0.001953
0.125000
-0.062500
-0.031250
0.015625
-0.250000
-0.500000
-0.500000
-0.125000
-0.500000
-0.250000
0.015625
-0.125000
-0.250000
-0.125000
0.125000
-0.250000
-0.250000
-0.500000
-0.062500
0.250000
0.125000
0.125000
-0.125000
-0.250000
-0.250000
-0.500000
0.250000
-0.500000
-0.062500
0.125000
0.062500
-0.250000
0.007812
0.250000
0.125000
0.062500
-0.062500
0.125000
0.062500
-0.125000
-0.031250
-0.250000
0.062500
0.125000
-0.250000
0.031250
-0.250000
0.003906
0.125000
0.125000
-0.062500
-0.250000
-0.250000
-0.015625
0.062500
0.125000
-0.125000
0.007812
0.031250
0.250000
-0.250000
0.062500
0.125000
0.125000
0.125000
-0.031250
0.062500
-0.250000
0.062500
-0.500000
0.125000
-0.500000
0.125000
0.125000
0.062500
0.015625
0.125000
-0.250000
-0.250000
0.031250
-0.125000
-0.125000
-0.250000
-0.250000
-0.062500
0.125000
0.062500
0.125000
0.125000
0.250000
-0.125000
-0.062500
0.125000
0.125000
-0.125000
-0.250000
0.031250
-0.015625
0.125000
0.031250
-0.500000
-0.125000
-0.500000
-0.125000
-1.000000
-0.250000
0.250000
-0.250000
-0.250000
0.125000
-0.250000
-0.500000
0.001953
-0.125000
-0.031250
0.250000
0.062500
0.125000
0.062500
-0.250000
-0.500000
-0.062500
-0.250000
-0.125000
0.250000
-0.250000
-0.250000
0.015625
0.031250
0.125000
-0.500000
0.062500
0.031250
0.007812
-0.062500
-0.125000
-1.000000
0.250000
-0.250000
0.062500
-0.062500
-1.000000
-0.500000
-0.500000
-0.250000
-0.125000
-0.250000
-0.500000
-0.250000
-0.125000
-0.062500
-0.062500
-0.500000
-0.250000
-0.500000
-0.250000
-1.000000
-0.125000
-1.000000
-0.500000
-0.250000
-0.007812
0.007812
0.062500
-0.062500
0.015625
-0.500000
-0.062500
0.125000
0.015625
-0.031250
0.125000
-0.062500
0.031250
-0.031250
-0.031250
-0.062500
-0.500000
-0.062500
-0.250000
-0.062500
-0.031250
0.062500
-0.000488
0.062500
0.125000
0.062500
-0.250000
0.062500
0.031250
0.001953
-0.125000
0.031250
-0.125000
-0.125000
-0.250000
0.125000
-0.500000
0.031250
-0.125000
-1.000000
-1.000000
0.125000
-0.125000
-0.125000
-1.000000
-0.500000
-0.250000
-0.125000
-0.500000
-1.000000
-0.500000
-0.500000
-0.500000
-0.250000
-1.000000
-0.500000
-0.250000
-0.500000
-0.500000
-0.500000
-0.125000
0.062500
0.125000
0.125000
-0.250000
0.031250
-0.250000
-0.125000
0.062500
-0.125000
-0.500000
-1.000000
-1.000000
-0.125000
-0.250000
-0.500000
-0.250000
-0.500000
-0.031250
-0.500000
-0.062500
-0.500000
0.062500
-0.250000
-0.250000
-0.062500
-0.250000
0.250000
0.015625
0.250000
-0.125000
0.062500
-0.500000
0.015625
-0.250000
0.015625
0.007812
0.003906
-0.062500
0.015625
-0.062500
0.003906
-0.125000
-0.003906
0.007812
0.250000
0.031250
-0.250000
-0.062500
0.250000
0.125000
0.062500
-0.250000
0.062500
-0.125000
0.125000
-0.250000
-0.250000
-0.031250
-0.250000
-0.007812
-0.250000
-0.500000
-0.125000
-1.000000
-0.062500
-0.250000
-0.062500
-0.250000
0.125000
-0.125000
0.062500
-0.250000
-0.125000
0.015625
0.125000
-0.125000
-0.062500
-0.125000
0.250000
-0.500000
-0.250000
0.250000
-0.250000
-0.031250
-0.015625
-0.250000
0.125000
-0.062500
0.062500
0.015625
-0.125000
0.125000
-0.250000
-0.125000
0.250000
-0.500000
0.062500
0.062500
-0.250000
0.062500
-0.125000
-0.250000
0.250000
-0.250000
0.125000
-0.062500
0.001953
-0.062500
-0.125000
-0.500000
-0.500000
-0.500000
-0.125000
-1.000000
0.031250
-0.250000
-0.062500
-0.250000
0.250000
-0.250000
0.125000
-0.125000
0.062500
-0.062500
0.062500
0.250000
-0.125000
-0.062500
0.062500
0.031250
0.015625
-0.007812
0.001953
0.250000
-0.031250
-0.003906
-0.062500
-0.250000
-0.250000
-0.015625
0.125000
-0.031250
0.031250
-0.250000
-0.031250
-0.125000
-0.062500
-0.125000
-0.500000
-0.500000
-0.015625
0.062500
-0.500000
-0.250000
-0.250000
-0.125000
-0.500000
-1.000000
0.250000
-0.250000
0.031250
0.125000
-0.125000
0.125000
-0.031250
0.250000
0.015625
-0.015625
-0.250000
-0.062500
-0.125000
-0.125000
0.125000
-0.031250
0.250000
0.125000
0.125000
0.125000
-0.250000
-0.250000
-0.500000
-0.062500
-0.500000
-0.250000
-0.500000
-0.125000
0.015625
0.031250
0.031250
-0.250000
0.125000
-0.125000
0.062500
-0.250000
0.007812
-0.250000
0.125000
-0.250000
0.250000
-0.500000
0.015625
0.062500
-0.500000
-0.062500
-0.500000
0.125000
0.250000
-0.062500
-0.500000
0.250000
0.125000
-0.062500
-0.062500
-0.125000
-0.062500
0.062500
-0.031250
-0.062500
-0.062500
-0.500000
-0.500000
-0.250000
-0.125000
-0.001953
-0.125000
-0.031250
-0.031250
-0.062500
0.062500
0.125000
-0.250000
-0.250000
-0.250000
-0.250000
-0.250000
-0.500000
-0.062500
-0.250000
0.250000
-0.250000
0.015625
-0.125000
-0.125000
0.250000
-0.062500
0.015625
-0.250000
0.062500
-0.007812
-0.062500
0.062500
0.015625
-0.125000
-0.250000
-0.125000
-0.250000
0.250000
0.125000
0.031250
0.062500
-0.007812
0.250000
-0.500000
0.125000
-0.250000
-0.031250
-0.125000
-0.062500
-1.000000
-0.125000
-1.000000
-0.500000
-0.125000
-0.500000
-0.500000
-0.250000
-0.500000
-0.500000
-0.015625
-0.031250
-0.125000
0.003906
-0.001953
0.062500
0.250000
-0.500000
0.031250
-0.250000
-0.031250
-0.250000
0.125000
0.125000
-0.500000
0.125000
0.062500
-0.500000
0.031250
0.062500
-0.125000
-0.250000
-0.125000
-0.500000
-0.250000
-0.125000
-0.062500
0.250000
0.125000
-0.062500
-0.250000
-0.250000
-0.062500
-0.500000
-0.062500
-0.125000
-0.250000
-0.250000
-0.031250
-0.500000
0.062500
-0.125000
-0.250000
-0.031250
0.062500
0.062500
0.250000
-0.500000
-0.250000
0.031250
-0.250000
0.031250
0.250000
0.015625
0.031250
-0.250000
0.125000
0.125000
-0.250000
-0.125000
-0.125000
0.062500
0.062500
0.250000
-0.500000
-0.125000
0.007812
0.125000
-0.031250
-0.250000
0.125000
-0.250000
-0.062500
0.031250
-0.250000
0.125000
0.062500
-0.250000
-0.031250
0.031250
