0.125000
-0.062500
-0.250000
-0.250000
-0.500000
-0.125000
0.250000
0.500000
0.125000
-0.500000
-0.015625
0.500000
0.500000
1.000000
0.500000
-0.001953
-0.125000
-0.500000
-0.250000
0.250000
-0.015625
-0.500000
0.062500
0.062500
-0.003906
-0.125000
-0.031250
0.125000
0.062500
-0.500000
0.125000
-0.250000
0.250000
1.000000
0.062500
0.500000
-0.250000
-1.000000
-0.125000
1.000000
0.500000
-0.500000
-1.000000
-0.500000
1.000000
0.500000
0.250000
-0.125000
0.250000
-0.250000
-0.125000
-0.250000
0.250000
0.031250
-0.125000
-0.125000
0.125000
0.500000
-0.015625
-0.250000
0.250000
1.000000
0.250000
-0.500000
0.062500
-0.031250
0.015625
-0.250000
-0.500000
0.250000
0.250000
-0.062500
-0.500000
-0.062500
0.125000
0.250000
-0.062500
0.250000
0.250000
0.031250
-0.062500
-0.250000
0.500000
-0.250000
-0.125000
-0.125000
0.015625
1.000000
-0.500000
-0.031250
-0.500000
0.500000
0.250000
-0.250000
-0.062500
-0.500000
0.125000
0.500000
0.125000
0.250000
0.250000
0.250000
-0.062500
-0.500000
0.250000
-0.250000
0.250000
0.015625
-0.500000
-0.031250
0.062500
0.500000
-0.125000
-0.250000
-0.500000
-0.031250
0.500000
0.500000
-0.250000
-0.250000
-0.250000
-0.125000
0.250000
0.062500
0.062500
-0.500000
-0.500000
0.015625
0.125000
0.125000
0.500000
1.000000
0.500000
0.125000
-0.062500
0.500000
-0.250000
-0.125000
0.250000
0.031250
0.250000
0.250000
-0.062500
-0.125000
-0.250000
-0.125000
0.062500
-0.125000
-0.031250
-0.500000
