-0.83418536
-0.39787185
-0.14682665
0.25739163
0.77847594
-1.04541850
-0.40894708
-0.10304406
0.20456779
0.49451053
0.14782299
0.15207675
0.35682490
-0.30216396
-0.03045157
0.75911433
-0.55744421
-0.28819391
-0.07893957
-0.07656258
0.26499128
0.35938552
0.58307391
0.55389130
0.10961492
0.40460628
0.89222574
0.11189967
-0.47432703
-0.44129983
-0.47914362
-0.75668812
0.60284436
-0.19599397
0.09826041
-0.35285509
-0.93286192
-0.61269253
0.17273180
0.95099241
-1.09747338
-1.03882003
-1.27793455
-0.20777237
0.81725299
-0.19691026
0.14330433
0.32817596
-0.17368031
-0.83483875
0.16274127
-0.33935192
-0.43794468
-0.32305112
0.44125322
0.31051686
-0.44366837
-0.61784631
-0.02834520
0.40233758
0.06745351
-1.02281380
-0.37829927
-0.52737957
-0.51638532
-0.10168325
-0.79417801
-0.34347942
-1.54564774
-1.29333854
-0.02790222
-0.72406292
-0.61505407
-0.56294686
-0.27774838
-0.37019435
0.50834793
0.01281877
0.63381177
-0.43654242
-0.74873537
-1.21870732
-0.42335683
-0.20065112
-0.38171661
-1.14607358
-1.87819648
-1.75117707
-1.24198282
-0.33556333
-0.84118128
-0.86846840
-0.76513141
-0.50187880
-0.94015008
0.06876437
0.03120772
-0.71207410
0.15172791
-0.24591905
0.05123284
0.09959681
-0.02789216
-0.34982681
-0.25608957
-0.54828250
-0.94523400
-1.31221902
-0.61677366
-0.24470004
-0.17471129
-0.11516631
-1.67098272
-1.02597582
-0.43190071
0.38169074
-0.07214650
-0.12770219
0.09146051
-0.67609942
-0.29805309
-0.03008356
0.25972262
-0.16515636
-0.34845877
-0.35259089
-0.24901596
-0.54359102
0.46089089
0.70305544
-0.02137410
-0.87730271
-0.57182944
0.47950086
1.04856038
-0.99206680
-1.71758521
-1.18580997
-0.06041569
0.48789066
-0.34414092
-1.15236282
-1.32250309
-1.96172035
-0.77651894
0.36199757
0.16713910
-0.14183445
0.31399053
0.50856709
-0.25116566
-0.20560105
-0.11856722
0.00373902
-0.08303174
-0.05106018
-0.10004614
-0.18521398
-0.13041666
-0.15942000
-0.12381919
0.02154917
0.02544749
-0.10508133
-0.06621288
-0.23068601
-0.12575702
-0.19338323
-0.15012689
-0.26267800
-0.12972312
-0.25921673
-0.17491806
-0.17600939
-0.23350619
-0.23369183
-0.08000069
-0.12827037
0.01471103
-0.06600633
-0.11700647
-0.15540485
-0.10683531
-0.04232921
-0.26014784
-0.12376803
0.16331892
-0.06241765
-0.28253749
-0.21782136
-0.19379178
-0.14558424
-0.16583304
-0.15285411
0.00928653
-0.14852001
-0.17279728
-0.28757599
-0.03931773
-0.19069321
-0.11475398
-0.15266488
-0.23189357
-0.18083739
-0.06125598
-0.28433424
-0.24665835
-0.08298714
-0.06169032
-0.13476051
-0.18201126
-0.12645744
-0.14962815
-0.14282894
-0.26381686
-0.33128142
-0.17098774
-0.08394349
-0.15447308
-0.15623060
-0.26763338
-0.27546123
-0.27319801
-0.04116851
-0.10235588
-0.29332241
-0.27600831
-0.00979691
-0.02169297
-0.15444520
-0.06758650
-0.24559361
-0.06532970
-0.22661303
-0.10524152
-0.06988077
-0.25214911
-0.15531945
-0.17138508
-0.02153153
-0.17211214
-0.19964151
-0.13843782
-0.13849701
-0.04768897
-0.25202319
-0.16330802
-0.12963825
-0.19560876
-0.18453512
-0.04724670
-0.15836704
-0.10208763
0.03056709
-0.08724190
-0.12480055
-0.07777109
0.05123677
0.12047397
-0.14198807
-0.07842396
-0.09802422
-0.07291159
-0.16922867
-0.14361402
-0.42679119
-0.13047120
-0.15050626
-0.13071360
-0.32643181
-0.20581517
-0.18695562
-0.11025442
0.01189156
-0.13818595
-0.17847279
-0.22480322
-0.14352553
-0.02477912
0.03812866
-0.26017246
-0.16491555
-0.19773822
-0.02543606
-0.31105158
-0.01725436
0.10743343
-0.15657830
-0.26220956
-0.24566509
-0.06674583
-0.00247729
-0.10711015
-0.19845235
-0.20363186
-0.17924555
-0.35949025
-0.45927209
-0.26699626
-0.21709265
-0.76359886
-1.21674061
-0.52903759
-0.55180502
-0.14230192
-0.66828531
-0.68125677
-0.25853541
0.07953593
0.00012713
-0.37393478
-0.55490565
-0.26340100
0.10311882
0.18546583
-1.39856660
-0.44349268
0.32921031
-0.44765311
-0.76936066
-0.18014434
0.22345904
-0.04416872
-0.35385489
-0.09440264
-0.71897942
-0.34155408
-0.25487253
-0.02552744
0.56050295
-1.30159247
0.17720190
0.33834955
0.43284214
-0.25480819
-1.25069046
0.12889574
-0.06167563
-0.15203770
0.49778911
-0.65798259
0.22950502
1.25106204
-0.49386588
0.12872684
-1.33652806
-1.23010731
-0.19853303
0.01681834
-0.35120106
-0.14952949
-0.00612526
0.01501178
0.45381007
-0.44638428
-0.08613411
0.42312253
-0.57620436
0.04941147
0.20023124
-0.09631854
0.31671935
-0.85291106
-0.11259732
0.41085362
-0.12834936
-0.56621045
-0.16260791
-0.09282232
-0.09873202
-0.30918720
0.06488914
-0.05896237
-0.70768934
-0.41035888
-1.34351957
-2.13688397
-0.47666401
0.76816964
1.01903939
-0.30571327
-0.87559414
1.07325089
0.74541807
0.36654043
-0.84207165
-0.10900901
0.91752857
0.13487712
-0.47225389
-0.80765516
-0.06565302
-0.64924335
0.48720917
-0.18572125
-1.27922058
-1.28462434
-0.87528276
0.39508089
0.23154834
-0.40101752
-1.31681025
-0.65686291
-0.04613952
-0.46279079
-0.52433139
-0.77908176
-0.24887310
-0.05251693
0.01862770
-0.48895589
-0.16607910
0.93908727
0.88533223
-0.22258136
-0.40767092
0.26565936
0.08242092
0.17160358
0.57019544
-0.02894314
0.26152962
-0.89351743
-0.15032600
0.43219736
0.53096998
-0.43825412
-0.21410751
-0.28396246
0.77649128
0.02084037
-0.09985388
-0.33822846
0.18134008
0.42398757
0.16991505
0.07941146
-0.14845236
-0.05698861
0.35391742
-0.23431264
-1.04337537
-0.32681754
0.20235926
0.39957100
-1.59560823
-0.57351959
-0.11802775
-0.03297603
-0.09473286
-0.70774430
-1.26244855
-0.60131681
-0.09443501
0.04983345
-0.87699431
-0.29176590
0.30249849
-0.08376573
0.18090750
-0.43101525
-0.98695540
-0.09286419
0.00447633
0.63558280
-0.78671175
-0.81962019
-0.16587098
0.45283875
0.30098718
-0.59757841
-0.43590328
-0.39904317
0.00898859
-0.35684869
-0.24559657
-0.20745011
-1.15275347
-0.57253343
0.83731699
0.78106976
0.19065329
-0.59697253
-0.11163806
0.47691005
-0.48449957
-0.17150432
-0.76743519
-0.13786258
0.27151716
-0.16389041
-0.53075755
-0.37963277
0.13488376
0.60679311
0.12326816
-0.40459371
-0.03378782
0.58354467
0.65356207
-0.06045905
-1.25958717
-0.23412074
0.67405462
0.06125193
-0.28413594
-0.12753312
0.54012054
0.17877994
-0.27386826
0.38927191
0.27977818
-0.06867772
-0.73144656
-1.10473657
0.43850568
0.35631645
0.04623139
0.32116127
-0.83143431
0.13291359
0.42183986
0.66500777
0.04093046
0.08099400
-1.23497832
-0.77574432
-0.85348934
-0.25768143
-0.00373226
-0.38994855
-0.94167036
-0.08307745
-0.55001837
-0.40539849
0.10092246
-0.41361743
-0.05901458
-0.74052370
0.29254404
-0.41253042
-0.56463587
-0.57478815
-1.13088393
0.07270788
-0.43565065
-0.08999328
-0.32894671
-0.25896198
0.20821857
-0.16622137
-1.14531755
-0.92394477
-0.13416779
0.08472247
0.02075281
-0.53808844
-0.49038190
-0.39359894
-0.48983797
-0.07647439
-0.66033828
-0.25246364
-1.04910910
-0.44598594
0.08141524
0.05898590
-0.74573195
-1.85464132
-0.41756764
-0.55664062
-0.47030053
-0.26016518
-0.32076797
-0.14766945
0.20431025
-2.17259336
-0.53162408
0.38755903
-0.00785872
-1.36089098
-0.40611702
0.19260970
0.43326458
-0.42665559
-0.06826496
0.18814763
0.02148322
-0.47209635
-0.44623369
0.55263633
0.07694988
0.47680670
0.54898304
0.03771703
0.04550665
0.10275780
0.31201693
0.14299764
-0.30568215
-0.06864282
-0.00406896
-0.11840279
-0.09014246
-0.07176863
-0.07110579
-0.05655321
-0.12388778
-0.04545897
-0.05005000
-0.04458074
-0.09277681
-0.09728311
-0.10436106
-0.09140638
-0.03063706
-0.11544419
-0.12060791
-0.06708852
-0.14056619
-0.01974345
-0.10951542
-0.01661020
-0.01146603
-0.02248803
-0.28246602
0.00393095
-0.03242535
-0.06549039
0.00208023
-0.24561664
-0.07185859
-0.01534984
-0.12527581
-0.03639020
0.01059123
-0.02066939
-0.04136290
-0.02114391
-0.03325316
0.01412550
-0.01177302
-0.14132999
-0.09347363
-0.07554409
-0.03746065
-0.01780309
-0.08621743
-0.08342139
-0.06099203
-0.11676644
-0.33519506
-0.36983278
-0.09774272
-0.10125557
-0.02210587
-0.34773052
-0.23810691
-0.09280495
-0.00058967
-0.01596152
-0.34293720
-0.12477548
-0.00079169
-0.13560048
-0.00262885
0.01354442
-0.19811954
-0.09890512
0.02120456
-0.01011385
0.02149737
0.01330131
-0.04643384
-0.00418619
-0.11606044
-0.21321112
-0.03402054
-0.04964855
-0.08878747
-0.06361671
0.01882677
-0.13066807
-0.10566484
-0.09616669
-0.02241777
-0.15253015
-0.09074487
-0.13436045
-0.04871778
-0.10607123
-0.00115093
-0.10522602
-0.04017313
-0.06280232
-0.06957980
-0.16198596
-0.12434974
-0.10876764
0.00081739
-0.09894358
-0.16580734
-0.36376366
0.01485342
-0.09963698
-0.04903935
-0.23414765
-0.22520615
-0.08204338
-0.00183765
0.02032081
-0.09519127
-0.06204987
-0.05410723
0.00080000
-0.09588218
-0.15793711
-0.14612509
-0.10696608
-0.13825257
-0.12525308
-0.14092554
-0.10936377
-0.12019800
-0.05527690
-0.02735628
-0.11153276
0.01918506
0.01059203
-0.01817421
-0.12918617
-0.08109409
0.02006537
-0.12467276
-0.00221318
-0.12624793
0.01322266
-0.12496154
-0.13745356
0.00006262
-0.05791176
-0.03543068
-0.13391456
0.01444638
-0.03217641
-0.03575072
-0.09947366
-0.08257520
0.00194951
-0.12830362
0.57608521
0.30576089
-1.53688633
-0.94505984
0.68952125
0.33357823
0.73584187
-1.27453244
-0.70273304
0.68755800
-0.26799524
0.19473730
-0.48893955
-1.12264562
0.19341753
0.39399180
-0.64225775
-0.34334686
-0.34249839
0.35985616
-0.63182753
-0.58464980
-0.54475725
-0.68127185
-0.46223006
-0.20884866
-0.24320160
0.40513018
-0.36546940
-0.00392550
0.44674003
-0.13178313
-0.12354566
0.03032609
0.11294885
0.28785086
0.51853865
-0.32468855
0.21190746
0.76938456
0.16313677
-0.47180876
-0.58862340
0.22946543
0.35968789
-0.23230252
-0.30924115
-0.83424556
0.40201402
0.21998975
-0.36906034
-0.27669525
-0.48282349
-0.55981600
-1.42521489
-0.41650727
-0.14662868
-0.11903933
-1.03227484
-1.45226169
-0.02743088
-0.21124396
-0.09197187
-0.84233832
-1.73770249
0.21499558
-0.33800533
-0.12516505
-0.11132268
-1.63265967
-0.35416210
-0.28047439
-0.82333428
-0.22487529
-0.17162409
-0.07829571
-0.42424911
-1.13682377
-0.89987350
0.21029288
0.42487472
-0.39823836
-0.43677825
-0.95710331
-0.08045960
0.44226232
0.12358535
-0.37168589
-0.45387062
-0.35333568
-0.48862380
0.47869188
0.00298265
-0.43141422
-0.01170830
-0.02744113
0.86963701
0.14410655
-0.81640738
0.30949470
0.23122178
0.86850762
-0.04074791
-1.57213330
0.25156567
-0.31908050
0.62247950
0.39691129
-1.07517862
-0.23009913
-0.78331590
0.29322159
0.37120634
0.51674759
-0.70884824
-0.95654207
0.40091139
0.08803957
0.47137460
-1.28151667
-0.89225757
0.52868152
-0.38099429
0.03835810
-0.74526191
0.03532645
-0.43727216
-1.14532375
-0.67430866
-0.44084466
-0.27530172
-0.12319489
-1.47056437
-0.96999776
-1.40956450
-0.22052836
-0.22133303
-1.80906200
-1.49383461
-1.44217110
-0.31052259
-0.95617157
-1.12419963
-1.38996136
-0.67486572
-0.31986195
-0.36324415
-0.30400300
-0.49931896
-0.29436940
0.10302377
-0.35129103
0.37864566
0.26318294
-0.66639912
0.05642109
-0.40619537
0.87012666
0.23788117
-1.10049033
-0.16456084
0.03543943
0.23282373
0.58029413
0.59572071
-0.29342458
0.12934341
0.22187527
0.18410794
0.01357174
0.00191642
-0.31373015
0.03613640
-0.40588769
-0.37530959
0.19928011
-0.12453783
1.06877124
-0.34460786
-0.53026563
0.61113906
-0.36938936
-0.63877338
-1.29657543
-1.23457491
0.24708626
-0.11419886
-1.01310623
-1.30339932
-1.01771605
0.19265218
0.08459213
-0.69924784
-0.75740671
0.70748430
-0.95281750
0.23777792
-0.16157904
0.37113836
-0.03545557
-0.50970316
-0.13639571
-0.16107328
-0.55571753
-0.53290629
-0.44704160
0.25515673
-0.03682701
-0.72435403
-1.39281368
-0.38361868
0.51279861
-1.35208464
-0.54256761
-0.39776999
-0.58526933
-0.67108834
0.05414212
0.56194186
-0.22743005
-0.80996120
-0.24839965
-0.13161406
0.16416480
-0.72131503
0.41832432
0.10203797
-1.82843208
-1.61537957
-1.45331275
0.05597344
0.60438704
-1.67735386
-0.93291897
-1.57586288
0.41151395
0.52745694
-1.05571735
-1.19466555
-1.56279564
0.49383655
-0.19926433
-0.45145643
-1.27061594
-0.46414757
-0.12004650
-0.71248561
-1.26055014
-1.07006001
-0.36715147
0.21483295
0.22904855
-0.48660910
-0.71368629
-0.93642271
-0.01192356
0.61091733
-0.43531263
-0.87182903
-1.03892279
0.04627513
0.35931864
-0.57252634
-0.28285530
-0.68223566
0.23746128
-0.34796169
-0.53100312
-0.54946274
-1.07327437
-0.29813826
-0.78979200
-0.53683704
-1.08027482
-0.97257257
0.30173382
0.03962865
0.02399424
-0.19119003
-0.73383272
-0.06362270
-0.60210204
-0.33069888
-0.51059335
-2.01666689
-0.79789096
-0.44977587
0.04585030
-0.03635372
0.01616424
-1.02678895
0.09411502
0.31118894
0.13976039
0.42750517
0.12542816
0.63425916
0.65523297
-0.15597299
-0.33873650
-0.45535290
-0.63836116
-0.79702777
-0.03978706
0.04665853
-0.86511552
-0.95197326
-1.10515893
-0.78411806
-1.11117435
-1.33847117
-0.75521159
-0.66707641
-1.30849040
-0.98552287
0.05709892
0.00813820
-0.26965800
-0.84281915
-0.73338181
0.15847632
-0.26592189
-0.29596138
-0.05524743
-0.88775092
-0.32357541
0.72635198
-0.25815985
0.00125219
0.16024852
-0.65525854
-1.12185383
-0.31768951
-0.51171982
0.42444453
-0.99700713
0.25631994
-0.49409291
-1.21254909
-0.30283907
-0.37802294
-0.63942569
-1.38535976
-0.26577926
0.22395746
0.62043715
-0.23107971
-0.51040995
-0.63420069
0.59884953
-0.18072663
0.07375340
-0.08301987
0.17724791
-0.92666519
-0.23168585
-0.78503400
0.49534974
0.43750262
-1.57615769
-0.84975708
-0.29395366
0.33684373
0.16075812
-1.27264380
0.12833613
-0.14666319
-0.02514058
-0.19902147
-1.34905791
0.12798904
-0.48649001
0.60125744
1.16240954
-1.58112717
-0.65570605
-0.21184309
1.06291795
0.26680613
0.26716977
-1.54518342
0.36036810
0.28967744
0.27942741
-0.00981522
-0.42639303
0.02643052
-0.05349961
0.16464445
0.04101375
-0.09206247
-0.49601293
0.08138701
0.25527626
-0.15345924
-0.59000623
0.08344966
0.68092525
-0.19652297
0.07012907
-1.32857645
-1.14066219
0.47584158
1.18352532
-0.57083881
-0.76826936
-1.41379058
0.22231825
0.29857537
0.39385489
-0.05226782
-1.10114527
-0.07036069
-0.14589323
-0.88770247
-0.39890373
-1.05352950
-0.13585350
0.29184160
-2.10869884
-0.64931613
-0.67679542
0.25733811
0.18645105
-1.53930068
0.21590243
-0.00098272
-0.31519461
0.20213169
0.03847030
-0.72090036
-0.30365095
0.18506859
-0.27249372
-0.98180681
-0.83587474
0.16144477
0.30622330
-0.59835947
-1.30946434
-0.29900509
0.48313779
0.57704324
-0.93921787
-1.95294297
-0.53547758
-0.24268630
-0.11908689
-0.74564964
-0.29185605
-0.64446545
-0.03726719
-0.56470889
-0.51262760
0.33115965
-0.34081614
-0.99370486
-0.90854198
-1.32384622
0.87253875
0.44757813
0.22843814
0.29352856
-1.54406488
0.78014755
-0.32463512
0.30687812
0.39007521
-1.78729761
-0.26844448
-0.04813590
0.52461636
-0.21522342
-0.72503549
-0.29294670
-0.96366358
-0.54746735
-1.04810798
0.51301926
0.00009023
0.28410304
-0.38546103
-1.74263906
0.33827168
0.33510911
-0.07083935
-0.93623179
-1.12076414
0.59129119
0.82089120
-0.34199083
0.03552204
0.22777681
-0.05938081
0.76153648
0.22242500
-0.18309589
-0.28489077
0.56179619
-0.04430626
0.47655660
0.48963398
-0.78100902
-1.20046949
-0.31067732
-0.13290706
-0.04924414
-0.55103612
-0.98445451
-1.49451530
0.20785469
0.22010249
0.14712861
-0.58341783
-1.45611501
-0.18445179
-0.15911654
-0.00488463
-0.00721421
-0.93446320
-0.29683980
0.02969253
0.52207029
0.02835689
-0.82199472
0.55990523
-0.24290745
-0.96020079
-0.00250526
0.64222115
0.09683034
-0.41347647
-0.90280139
-1.23731768
0.31272602
-0.70499539
-0.66033244
-1.05822182
-0.99211663
0.06631242
-0.09309819
-0.47358644
-0.74766380
-0.20258901
0.33482948
0.72027910
0.06550727
0.37159842
-0.37385714
-0.34949785
0.13326706
-0.63917458
-0.33885550
-0.85758221
0.00346065
0.44768810
-0.12778862
0.21982299
-0.45917216
-0.32754290
-0.58841050
-0.16354556
0.42337394
0.19268565
-0.36171690
-0.66110337
-0.58386672
0.03200878
0.35081309
-0.94210643
-0.22590089
-0.16587214
0.95146322
0.55747813
-1.55239451
0.26277620
0.18119331
-0.80130726
-0.64251935
0.20345037
-0.34583062
-0.37831277
-1.43158436
-0.96946472
-0.54788983
0.72469133
-0.19056092
-0.74000812
-1.11533165
0.17529804
0.34612790
0.93217295
0.13742863
-0.66891319
-1.47596622
0.00563253
0.36999032
-0.28952026
-1.25278270
-0.76466870
-0.48665184
-0.45549348
-0.09128723
-0.89793628
-1.24316859
-1.42227423
-0.44078916
0.25553250
-0.29250520
-1.23763978
0.01335957
-0.29042128
-0.40759504
-0.39135018
-1.32210898
-0.77775371
0.29790723
0.35798484
-1.03456783
-0.74544483
-0.77445990
-0.14626089
-0.81589377
-0.00314828
-0.17357378
0.04001734
-0.31015882
-0.27881318
-0.30750257
-0.87019873
0.04198540
-0.00369626
-0.88693970
-0.90845239
-1.28329849
0.37805474
-0.50912911
-0.23531909
-0.87667453
-0.75178254
-0.06690367
-0.22998652
0.21740751
-0.40102980
0.51508141
0.23320837
1.01803374
0.77329272
0.30066136
1.38581789
-0.71211725
-0.62245286
-0.03673658
-0.53587741
-0.16365993
-0.00963351
-0.69588494
-0.22547927
-0.46958780
-0.36828786
0.45731726
-0.55758995
-0.46115702
-0.33556855
-0.49238566
-0.20904589
-1.02181613
-0.62396306
0.21619898
-0.13790011
0.02363689
-1.43074596
-0.50542223
0.42080730
-0.84563434
-1.15359163
-0.07917707
0.38721496
-0.05683182
-0.22443299
-0.15342517
-0.25533929
-0.44893602
-1.19333279
-0.01312715
0.44541466
-0.40520206
-0.64211917
-0.68339235
-1.37368941
-0.06746532
-0.23787364
-0.19628698
0.44553024
-1.59323990
-1.22076249
-0.78005052
0.66865563
0.58069175
-0.59088355
-0.51285994
-0.03333360
0.62511939
-0.65344256
-0.10579092
0.09677321
-0.18409552
0.24421984
-0.39230314
-0.46323821
-0.17024113
0.07586953
0.15715179
-0.09168340
-0.10665158
-0.20085017
-1.07457626
0.17461170
0.37354958
-0.58169574
0.49398464
-0.60726643
0.13099052
0.52813029
-0.77532125
-0.31350648
-0.59911209
-0.29940224
-0.53975815
-0.48049828
-0.86460316
-0.21790056
-0.49652401
-0.44652382
-0.39400643
-1.09641111
-1.32988286
-0.38573077
-0.74086791
-1.17218924
-1.49217057
-0.74973232
-0.60789531
-1.24687266
-1.83943164
-1.20196068
-1.23984170
-1.94449770
-1.31833005
-1.17790878
-0.75700450
-0.14523225
-0.60107088
-0.73112309
-1.78249228
-0.03687561
0.00561643
-0.80945170
-1.00794673
-0.70535904
0.26747480
0.41572550
0.73183370
-0.03383214
-0.47680867
-0.21953751
0.39416847
0.84994447
0.49674445
-0.20488925
-1.74532115
-0.00621166
-0.51692110
-0.28311989
-0.12618463
0.10694730
-0.54496378
0.29748991
0.24752299
-0.66474396
0.17746274
-0.43225807
0.67235601
0.63892722
-0.20685005
-0.11007488
-0.05678609
0.26399770
0.49202543
0.05396349
0.57936430
-0.04662425
0.76906317
-0.54926682
-0.79424161
-0.56792933
1.02986431
0.19779421
-0.27509499
-0.54519951
-0.12919709
0.02157012
-1.02308333
-1.08886492
0.16630957
-0.17542247
0.26336944
-1.19818223
-1.30594957
-0.17526697
0.16332722
-0.45797023
-1.32265520
-0.72717822
0.02077148
0.17879441
-0.37412775
-0.38587660
-0.11160802
0.53596789
0.41415241
0.05864957
-0.39621976
-0.52375257
0.13519344
-0.52302885
-0.83315462
-0.75255960
0.41061822
0.28923073
0.35949302
-0.46932486
-0.22816515
-0.21009691
0.23575354
0.48358721
0.25811034
-0.32647237
-0.40426892
0.20477097
-0.40176845
0.32328674
0.30793488
-0.04568684
-0.13750938
-1.26647866
-0.19374281
0.37138456
-0.22398090
-0.17416745
-0.11977249
0.08434525
-0.27642611
-0.71589315
0.15049085
0.03729589
0.13657317
0.24079372
0.04505784
-0.09208529
-0.74452001
0.34541696
0.41833162
0.07214934
-0.18191926
-0.62173992
-0.56378448
-0.28943551
-0.78421307
-0.06828937
0.00478498
-0.05278748
-0.68389726
-0.75030804
-0.02737541
-0.30246866
-0.83276498
-1.44848049
0.24770321
-0.54231840
0.17593472
-0.63280344
-0.72533059
-1.01721871
-0.89269495
-0.24408171
-0.40238729
0.16204493
-0.04574921
-0.04370362
-0.16914813
0.13315968
0.51984489
0.16930956
0.63453907
-0.70249516
-0.52526355
-0.02535818
0.26875469
0.16194031
0.09468636
0.60017788
0.12092418
-0.40055528
-1.19660318
0.35535175
0.80718589
-0.33326229
-0.92203915
-1.02800000
0.07976340
0.21240015
-1.12342846
-1.01012051
-0.59857208
0.24230798
0.13487749
-0.89138621
-1.16462290
0.45052665
0.16839413
-0.55364335
-1.03289509
-0.61145180
0.31679550
-0.16060501
0.63447672
0.71022832
0.12078074
-0.90304112
0.33792019
0.92425752
-0.49951181
-0.25129351
-0.58826494
0.37055412
-0.51088673
-0.57216197
-0.32525843
-0.95418090
-0.43122438
-0.32093862
-0.08757041
-0.30869794
-0.12098669
-0.44968143
-0.33343375
0.90634602
0.20747523
0.31194869
-0.06452592
-0.05960885
-0.44674325
-0.15326251
-1.25987887
0.26943398
-0.80702823
-0.18584535
-0.05391692
-1.30468380
0.18627998
0.01043731
0.54389989
0.56389910
-1.23683739
-0.52599841
0.44808918
0.54177177
-0.75204128
0.02117977
-0.13961059
0.74953026
0.47626969
-0.86498976
0.40414703
0.44108167
0.06065219
0.05471254
0.66883689
-0.21528611
0.52284300
-0.01781326
0.16880891
0.27902752
-0.89449412
-0.07654127
-0.23530604
0.09669039
-1.31387234
0.11268698
-0.27147970
-0.07693604
0.11407831
-1.79203331
0.41720009
0.38874975
0.13981901
-0.23495471
0.34628385
0.66184592
-0.41183332
-0.63424593
0.07657959
0.21673670
-0.71367222
0.13632804
0.12057554
0.58504528
-0.27688470
-1.60403466
-0.25949603
-0.15758874
0.25198257
-0.64410084
-0.82255328
-0.30015683
0.45268828
-0.06332488
-1.76672411
0.24161553
-0.02303812
0.40573782
-0.40352485
-0.94157618
0.48019555
-0.37717161
0.02233810
-0.08314692
-1.02578509
-0.75774014
-0.13217235
-0.44963932
-0.55103540
-0.90025014
-1.86252832
-0.10603757
0.45055252
0.23190634
-1.10363853
-0.46302599
-0.11463518
0.46369696
-0.39018816
-2.03990054
-0.18377636
0.89731789
0.40929207
-1.34897137
-1.04194522
-0.29747877
-0.87019032
-1.23276567
-1.73085666
-0.67997563
-0.64312971
-0.31400761
-0.17052098
0.12468103
-0.10417449
-0.15305038
0.11856773
0.32320929
0.59902263
0.13790862
-0.03399020
-0.76954955
0.44701943
0.62345630
-0.68462783
-0.98082328
-0.68005145
-0.91851187
0.11233050
-1.22991562
-1.59303808
-0.62070870
-0.55115128
-0.15171477
-0.03606122
-0.28483963
-0.41885555
-0.25039929
-1.14635015
-0.84100860
0.37033072
-0.83729416
-0.38585621
-0.14997479
-0.90734708
0.27532303
0.55553377
0.58978426
-0.04680561
-0.14374526
0.18208477
0.46998656
0.52498734
-0.10137615
-0.24710621
-0.19652095
0.09139034
0.26597616
-0.93357223
-1.68478417
-0.25510126
0.01391766
-0.10563464
-1.07420754
-0.27765194
0.49854764
-0.43052465
-0.05060471
0.00382218
0.45904845
0.27721247
0.05283754
0.30982050
-0.20517284
0.54481643
-0.64686376
-0.07230734
-0.15942949
-1.37059784
-1.14383447
-0.79952258
-1.05121529
-0.69668221
-0.85681486
-0.24240698
-0.73304850
-0.05191650
0.18383650
0.08063377
0.04832394
-0.72734410
0.18957703
0.26508239
-0.19132337
-0.29694259
-0.75628352
0.45038259
-0.18719590
-0.58446765
-0.51729655
-0.55994570
-0.04770860
-1.49940979
-0.52690899
-0.86238176
-0.22815502
-0.01411152
-0.22750627
-1.04156971
-1.10830986
-0.60560429
-0.12427266
-0.81565738
-0.50104594
0.51422304
-0.06447478
-0.52205473
-0.49227279
0.61741894
0.85738772
-0.30364168
-0.22628175
-0.28377044
-0.04675220
-0.23344597
-0.79958743
0.52081627
0.24182470
-1.66119325
-0.94471645
-0.30842298
0.22900514
-0.69983822
-0.89859825
-0.91833931
-0.11797471
-0.13174567
-0.76874089
-0.10469072
0.40874636
0.48115841
0.70164710
0.09864928
0.33817998
0.39512068
-0.02194795
0.42594367
0.53238863
0.11475556
0.24689914
-0.21901323
-0.08673031
0.21493284
-0.78931469
-2.58345890
-0.97063375
-0.30113268
-0.82533038
0.22614262
0.09053580
-0.43798128
-0.00630106
0.36526245
-0.04396064
-0.46786135
-0.82264626
0.70789385
0.36746088
-0.28361917
-0.90798020
-1.28033149
-0.45893118
-0.10227933
-0.23452048
-0.21616150
0.34150869
-0.85860938
-0.25221786
0.41207024
0.34681499
-0.17343575
-0.12263440
0.22777179
0.95245802
0.74015367
-0.15374880
0.38125187
0.51852643
0.63142288
-1.44156158
-0.29214290
1.02760530
-0.14835985
-0.86518258
-0.44142893
-0.41015154
0.86940920
-0.20303681
-1.50638151
-0.61333209
-0.24200757
-0.40821362
-1.07914126
-1.12197638
-0.30824533
0.12203847
-0.05035789
0.23588629
0.51630479
-0.43515447
0.78037292
-0.12987942
-0.46453020
-1.07689202
0.41374400
0.62377721
-0.03343118
-2.19559813
-0.72929800
0.50471991
0.19543585
-0.27177033
-1.77909303
-0.44827247
-0.07426050
-0.50029159
-1.07933962
-0.45584071
-0.82473731
-0.39028975
-0.38437012
-0.06513314
0.29996908
0.11942796
0.00322547
0.02808823
0.03799703
0.32969373
0.18763563
-0.66618419
-0.27610478
-0.60557747
-0.02484620
-0.74796957
-0.56411433
-0.66638494
-1.30871940
-0.79194325
-0.23617905
-0.99713814
-0.87777495
-1.20572495
-0.72849923
-0.33615372
-1.01189923
0.71021271
0.18348230
0.34678134
0.29091501
-0.61120331
0.09513178
0.41942126
0.17199218
-0.97671640
-0.38203299
0.17250414
-0.21324384
0.12349255
-0.75412625
-0.32693347
-0.26826829
-0.81847680
-0.88599432
-0.85684538
-0.90367103
-1.11044014
-1.66406369
-1.29731977
-1.71452737
-1.58625984
-0.02457564
-0.19180821
-0.33863187
-0.55218405
0.22778136
0.40977043
0.02101783
-1.13946426
-0.60019147
0.17458306
0.08837774
0.01924792
-0.77290785
0.49690264
0.30852613
0.07522831
-1.05837524
-0.40950245
0.30721101
0.23578376
-0.01830237
-1.30210173
-0.45709229
0.72938502
0.39534160
0.13265336
-0.47193372
-0.29617712
0.07778113
0.79513234
-0.68525267
-0.62220925
-0.47561997
-0.13592766
-0.00869231
-2.12267447
-0.76904243
-0.70999128
0.54038554
-1.01333332
-1.08666348
-1.01943243
0.03037760
0.27062625
-0.57791311
-0.63407844
-1.71315014
0.25101721
1.16778755
0.03831656
-0.66262823
0.28203517
-0.30185443
0.73044133
0.27968034
0.66030115
-0.10293840
-0.53622377
0.58642256
-0.37103614
-0.01095483
0.22470392
-0.18732792
-0.01413754
0.37614524
-0.40662560
0.10341228
-1.17411685
0.45364413
-0.14483333
0.73291785
-1.91686535
0.43382373
1.36412871
-0.17291875
-0.30842236
0.14591062
-0.29552442
-0.38950607
0.08351831
-0.21512888
-0.40639582
-0.74763185
-0.35369262
-0.25099939
0.02237505
-0.81303924
-0.50937098
-0.55442035
0.03186313
0.00407190
-0.26884454
0.39399928
-0.40170243
-0.32584697
0.02668888
0.20027025
0.57668579
-0.28902072
-0.63800901
-0.17274079
-0.12898174
0.11137851
0.34739184
-0.45338911
-0.84160209
-0.71690792
0.21806942
-0.27293780
-0.51257187
1.34790277
-1.27353311
0.37309727
0.06167515
-0.41920647
0.69379234
-0.74328053
0.26757026
-0.83880705
-0.30326390
-0.47592810
0.11313994
0.48204288
-0.70973271
0.02870833
-0.46673808
0.05955192
-0.31621417
0.00206531
0.69945842
0.27109560
-0.70511860
0.20975383
-0.14462480
-0.39978981
-0.12856817
-0.62859297
-0.57888436
-0.47464165
0.27410898
-0.62471247
-1.65641034
-1.14317942
0.06428587
0.63229239
-0.59006679
-0.73635995
-0.24836637
-0.41753685
0.44915327
-0.19153103
-1.01869297
-0.98924750
-0.10907384
-0.26460728
-0.05377798
-0.92716318
-0.95870006
-0.40911087
-0.70005488
-0.28787968
-1.18226457
-1.04623699
-0.15570512
-0.20058043
-0.55205965
-0.79210168
-0.20017134
-0.20411128
-0.68229598
0.35006067
-0.09702197
0.38876021
0.27244517
-0.67949438
0.46317589
-0.54079682
-0.63234508
-0.22291271
0.39533257
-0.30855370
-0.74665523
0.10196326
0.14847369
0.15161458
-0.22328377
-0.42048591
0.24862202
0.33121353
-0.21618223
-0.88859051
-0.66816467
0.43263477
0.24037312
-0.53053832
-1.28672540
-0.21683310
-0.00673928
0.41629854
-0.00185096
0.08873897
-0.35431248
-0.23347685
-0.80653387
-0.62426430
-0.73279089
0.80490780
0.05711966
-0.48348016
-0.16323695
-0.64028478
0.22246078
0.69178283
-0.35636505
-0.02513485
-0.91225672
0.42595360
0.20281118
0.46629500
0.42836410
-0.59980702
1.06495166
0.14207044
-0.83082855
-0.23136082
-0.65547699
-0.46375331
-0.08485256
-0.40221295
-0.54077512
0.07128888
-0.98517126
0.10973312
-0.00058129
0.20804915
0.19796319
-0.49136195
-0.95642507
0.08296103
0.34390849
0.03742796
-0.80787349
-1.19624269
0.88715345
0.48179990
-0.36017621
-0.58625323
-1.59890914
-0.26150221
-0.53027886
0.43904999
-1.07506442
-0.64796150
-0.37038895
-0.77267951
-1.46618783
0.08409517
-0.62736732
0.15240814
-0.38338158
-1.56645834
0.07869426
-0.20321773
0.52549577
-0.48595604
-1.68632865
-0.66468263
0.20502746
0.30566150
-0.78021049
-1.76230288
-0.82174224
0.40903631
-0.01374968
-0.01964715
-1.33716416
-1.58305526
-1.96314085
-0.94941324
-0.58960187
0.24337134
-0.39770091
-0.55156785
-0.07453882
0.14655235
0.24604735
-0.94011313
-0.45892435
0.38201457
0.36382851
-0.48441821
-0.35276541
-0.41660681
0.42855236
0.17957690
-0.84880245
0.05693463
0.17750296
0.13849421
-0.35727495
-0.11652464
0.14774956
-0.19821498
-1.26569581
-0.06627264
0.24779581
-0.47757292
0.49989834
0.19013901
0.43243283
-0.11299121
-0.14833057
-0.20448634
-0.38144267
-0.08759267
-0.52426583
-0.37787989
0.35873708
-0.05851561
-0.06176303
-1.12816644
-0.77523357
0.01052938
-0.43920618
-0.59634686
0.23599724
