-0.062500
0.125000
-1.000000
0.500000
-0.062500
0.500000
-0.031250
-0.062500
-0.062500
-1.000000
-0.250000
-0.500000
0.125000
0.125000
-0.500000
-0.062500
-0.500000
-0.062500
1.000000
-0.250000
0.500000
-0.250000
0.500000
-0.500000
-0.007812
-0.003906
-0.500000
-0.062500
-1.000000
-0.062500
0.500000
-0.062500
0.500000
0.125000
0.003906
0.125000
-0.250000
-0.125000
-0.062500
-0.062500
-0.062500
-0.062500
0.125000
-0.062500
-0.250000
-0.015625
-0.062500
0.500000
-0.031250
0.125000
-0.031250
0.125000
0.007812
-0.250000
-1.000000
-0.125000
0.062500
-0.500000
-0.125000
0.125000
0.015625
0.062500
0.500000
-0.062500
-0.500000
-0.250000
-0.500000
-0.031250
0.031250
-1.000000
-0.250000
-0.500000
-0.125000
-0.015625
-0.062500
0.500000
-0.062500
-0.062500
-1.000000
-2.000000
-0.031250
-0.250000
0.125000
-0.031250
-1.000000
-0.062500
-1.000000
-0.250000
0.250000
0.125000
-0.500000
0.015625
0.001953
-0.062500
0.015625
0.250000
-0.250000
-1.000000
0.031250
-0.500000
-0.062500
-0.250000
-1.000000
-0.015625
-0.062500
0.125000
1.000000
-0.062500
-0.062500
-0.500000
-0.500000
-0.125000
0.007812
0.500000
1.000000
0.250000
-0.250000
0.003906
-0.500000
-0.250000
-0.015625
0.500000
-1.000000
-0.500000
0.062500
0.125000
0.031250
-0.125000
0.031250
-0.062500
1.000000
-1.000000
-0.250000
-0.125000
-0.500000
-0.125000
-1.000000
-0.500000
0.125000
0.250000
0.031250
1.000000
0.250000
-0.250000
0.031250
-0.250000
2.000000
-0.007812
0.062500
-0.125000
-0.250000
-0.007812
-0.500000
0.500000
-0.062500
0.250000
-1.000000
-0.015625
-0.062500
-0.500000
0.031250
0.000977
-0.031250
0.031250
0.250000
-0.125000
-0.125000
0.500000
-0.031250
0.031250
-0.031250
0.500000
0.500000
-1.000000
-0.500000
-1.000000
-0.003906
-1.000000
-0.001953
0.125000
-0.250000
-0.031250
0.250000
0.125000
-0.500000
-0.500000
-0.125000
-0.125000
0.062500
-1.000000
-0.125000
-1.000000
-0.062500
-0.062500
-0.015625
-0.500000
-0.250000
0.015625
-0.500000
-0.500000
-0.125000
-0.250000
-1.000000
-0.031250
0.500000
-0.062500
0.003906
-0.062500
0.125000
-0.015625
0.125000
-0.125000
0.500000
0.015625
-0.500000
-1.000000
0.031250
0.250000
-0.125000
-0.250000
-0.062500
-0.125000
-2.000000
-0.031250
-0.062500
-1.000000
-0.500000
-0.007812
-0.062500
-0.250000
-0.500000
-0.500000
0.062500
0.500000
-0.500000
1.000000
-0.125000
-0.125000
-0.500000
-0.250000
-0.031250
-0.500000
1.000000
1.000000
-0.015625
-0.250000
0.062500
-0.062500
-0.500000
0.250000
1.000000
-0.125000
-0.125000
0.125000
0.125000
-0.125000
-1.000000
0.250000
-0.062500
-1.000000
0.500000
0.500000
-0.250000
0.125000
-0.031250
-1.000000
1.000000
-0.007812
0.500000
-0.062500
-0.500000
-0.250000
-1.000000
-0.500000
-0.062500
0.500000
-0.500000
-0.031250
-0.062500
-0.125000
-0.062500
-0.062500
-0.125000
-0.125000
1.000000
-1.000000
-0.031250
-0.500000
0.031250
-1.000000
-0.062500
0.500000
0.125000
-0.125000
-1.000000
-0.125000
-0.031250
0.125000
-0.062500
0.500000
-0.125000
-0.500000
-0.250000
-0.062500
-1.000000
-1.000000
1.000000
0.062500
-0.250000
-1.000000
0.015625
-0.250000
-0.062500
-0.031250
-0.062500
-2.000000
-0.500000
-0.125000
1.000000
-0.500000
0.125000
-0.250000
-0.125000
0.031250
0.031250
0.062500
0.125000
-0.500000
0.500000
-0.500000
-1.000000
0.500000
0.007812
-0.015625
-1.000000
-0.500000
-0.007812
-0.250000
-0.003906
0.062500
-0.031250
-0.125000
-0.250000
0.031250
-0.031250
-0.250000
-1.000000
-0.062500
-0.031250
0.031250
2.000000
-2.000000
-0.031250
0.500000
-1.000000
1.000000
-0.125000
0.015625
-0.250000
-0.250000
-0.062500
-1.000000
0.250000
-0.500000
-0.031250
-2.000000
-0.007812
-0.031250
0.500000
0.500000
0.500000
0.031250
-1.000000
-2.000000
-0.062500
-0.125000
-0.250000
0.125000
-0.500000
-1.000000
0.250000
0.125000
-0.250000
-0.250000
-0.015625
-0.500000
0.500000
-0.062500
-0.500000
-0.062500
-0.500000
-0.250000
-2.000000
-0.250000
-0.031250
-0.125000
0.500000
-0.062500
-0.062500
-1.000000
0.062500
-0.062500
0.062500
-0.250000
0.250000
-0.250000
-0.031250
0.500000
-0.000977
-0.500000
0.031250
0.500000
-0.250000
-1.000000
-0.500000
-0.500000
-0.031250
-1.000000
0.250000
1.000000
-0.500000
1.000000
-0.125000
0.062500
-1.000000
0.250000
-1.000000
-0.062500
-0.250000
0.125000
-0.500000
-1.000000
0.031250
-0.062500
-0.125000
-1.000000
-1.000000
-0.125000
0.500000
0.500000
-0.062500
-0.125000
1.000000
-0.031250
0.500000
-0.062500
1.000000
0.500000
-0.500000
-0.500000
-1.000000
-0.062500
0.125000
-0.125000
0.500000
0.125000
-0.500000
-0.500000
-0.250000
-2.000000
-0.062500
-0.250000
-0.500000
-0.125000
-0.125000
0.250000
-0.250000
-0.031250
-0.062500
0.015625
0.500000
0.250000
-0.031250
-1.000000
-4.000000
1.000000
-0.250000
-0.062500
0.125000
0.062500
-0.015625
-0.062500
0.250000
-0.062500
-0.125000
-2.000000
-0.007812
-0.031250
-0.125000
-1.000000
0.250000
-0.500000
-1.000000
-1.000000
-0.125000
-0.125000
-0.125000
0.031250
-1.000000
-0.007812
-1.000000
-0.500000
-0.000977
-0.250000
-0.062500
0.500000
0.031250
-0.031250
-1.000000
-0.062500
-0.125000
-0.062500
-2.000000
-1.000000
-0.125000
-0.500000
1.000000
-0.031250
-0.062500
0.500000
-0.062500
-0.125000
-0.062500
0.125000
-1.000000
-1.000000
-0.062500
0.500000
-0.007812
-0.250000
-0.031250
0.250000
-1.000000
-0.500000
0.125000
-0.250000
-0.062500
-1.000000
-0.062500
-0.250000
0.500000
-0.250000
0.062500
-0.125000
-1.000000
-0.250000
-0.500000
-0.125000
-0.062500
0.500000
-0.125000
-0.500000
-0.125000
-0.062500
-0.015625
0.125000
-1.000000
-0.125000
0.500000
0.031250
-0.125000
-0.500000
-0.500000
-0.031250
0.125000
-0.015625
-0.500000
-0.125000
-0.500000
-0.125000
-0.500000
-0.125000
0.250000
-0.031250
-0.500000
0.250000
-0.500000
0.015625
-0.250000
-2.000000
-0.031250
0.007812
0.500000
-0.250000
-0.031250
-1.000000
-0.125000
-0.062500
-0.250000
-0.125000
-0.015625
0.031250
-0.062500
-0.500000
-1.000000
0.250000
-0.015625
-0.031250
-1.000000
-0.250000
-0.031250
0.125000
-1.000000
-0.250000
-0.031250
0.250000
-0.007812
-0.062500
-1.000000
-0.250000
0.125000
-0.250000
-0.250000
0.125000
-0.250000
-0.062500
-0.500000
-0.250000
-0.125000
-0.250000
-0.031250
0.500000
-0.500000
-0.250000
-0.062500
-0.250000
0.125000
-0.125000
-1.000000
-0.031250
-0.250000
-0.062500
0.500000
-0.250000
-0.062500
0.500000
-2.000000
-0.031250
-0.031250
-0.125000
-0.015625
0.062500
-0.031250
-0.031250
-0.250000
-0.500000
0.031250
-1.000000
-0.062500
-0.015625
-0.062500
0.250000
0.062500
0.250000
-0.125000
-0.500000
-0.015625
-1.000000
-0.500000
-0.500000
-1.000000
-0.250000
0.500000
-0.062500
-0.500000
0.007812
0.062500
-0.062500
-0.125000
-0.062500
-0.250000
-0.500000
-0.015625
0.031250
-0.015625
0.250000
-0.500000
-0.062500
-2.000000
-0.125000
-0.125000
-0.250000
0.250000
0.062500
-0.500000
-0.015625
-1.000000
-0.250000
-0.500000
-0.125000
-0.250000
0.250000
-0.250000
-0.062500
-0.500000
-0.500000
-0.250000
-0.125000
0.125000
-0.250000
-0.062500
0.015625
-1.000000
-0.062500
-0.125000
-0.250000
-0.500000
-0.062500
-0.062500
-0.250000
-0.500000
0.015625
0.031250
-0.500000
0.500000
1.000000
-0.125000
-0.031250
-0.500000
-0.250000
-0.125000
-0.500000
-1.000000
-0.500000
-0.015625
-0.062500
-0.062500
-0.125000
0.500000
0.015625
1.000000
-0.500000
-0.250000
0.500000
-0.250000
-0.062500
-2.000000
-0.062500
-0.250000
-0.500000
0.500000
0.500000
0.250000
-0.250000
-0.125000
-0.500000
1.000000
0.015625
-0.250000
0.007812
-1.000000
-0.125000
1.000000
-0.250000
0.007812
1.000000
0.250000
-0.031250
-0.125000
-0.500000
-0.062500
-0.125000
-0.062500
-0.125000
0.015625
-0.500000
-0.007812
1.000000
-0.125000
-0.500000
-0.062500
-0.125000
0.500000
1.000000
-0.500000
-1.000000
-0.031250
-0.125000
1.000000
0.500000
0.250000
0.500000
0.250000
0.015625
-0.500000
-1.000000
-0.031250
0.031250
-0.062500
-0.500000
-0.125000
0.250000
-0.031250
-0.003906
-0.125000
-1.000000
1.000000
-0.062500
-1.000000
0.125000
-0.031250
-0.125000
-0.250000
-0.015625
-0.015625
0.015625
-0.250000
-0.500000
-0.125000
-0.250000
-0.250000
0.125000
-1.000000
-0.062500
0.031250
-0.250000
-0.125000
-1.000000
-0.015625
1.000000
-0.062500
0.125000
-0.031250
0.031250
-0.062500
0.250000
0.500000
-0.062500
-0.062500
0.500000
0.250000
-1.000000
-0.015625
-0.500000
0.500000
0.250000
-0.125000
-0.031250
0.500000
0.125000
-0.062500
-1.000000
-0.500000
0.500000
-0.015625
0.500000
-0.062500
-0.031250
-0.007812
0.500000
1.000000
-0.500000
-0.250000
1.000000
0.250000
-0.125000
-0.125000
-0.500000
-1.000000
-0.250000
0.062500
0.031250
0.500000
0.062500
-0.062500
-0.250000
1.000000
-0.062500
-0.062500
-0.125000
-0.500000
0.015625
0.250000
-0.500000
-0.062500
-0.125000
-1.000000
-0.062500
-0.062500
-0.500000
-0.062500
-0.031250
-0.062500
-0.015625
0.250000
-1.000000
0.031250
-0.250000
0.031250
-0.062500
-0.062500
0.500000
0.250000
-0.250000
0.031250
-0.250000
-0.007812
0.500000
1.000000
1.000000
0.250000
-0.125000
0.250000
-0.062500
-1.000000
-0.500000
0.500000
-0.015625
-0.125000
-0.500000
0.031250
-0.500000
-0.062500
-0.062500
-0.062500
-0.250000
0.250000
-0.125000
0.250000
1.000000
-0.031250
0.031250
-0.062500
-0.031250
0.500000
-0.062500
0.007812
-0.500000
-0.250000
-0.250000
-0.250000
-0.125000
-1.000000
-0.031250
-0.500000
0.250000
0.250000
-0.250000
0.062500
-0.062500
-0.031250
0.062500
-0.125000
0.062500
-0.031250
0.062500
0.125000
-0.125000
-0.250000
-0.250000
0.500000
-0.500000
-0.015625
-0.500000
0.500000
0.125000
0.015625
-0.062500
-0.250000
-0.250000
-0.062500
-0.250000
-0.125000
-1.000000
0.031250
-0.500000
-0.062500
-0.062500
1.000000
0.250000
-0.500000
-0.500000
-1.000000
0.250000
-0.125000
-0.062500
1.000000
-0.500000
-1.000000
0.031250
0.125000
-0.250000
-0.250000
-0.250000
0.015625
-0.125000
-1.000000
-0.031250
-0.250000
-0.015625
-0.250000
0.007812
-1.000000
-0.250000
-0.062500
0.250000
-0.007812
-0.031250
0.000977
0.250000
-0.062500
-0.125000
-0.062500
-0.250000
0.500000
-0.500000
-0.062500
-0.250000
-0.015625
-0.250000
-0.125000
1.000000
-0.062500
-2.000000
-0.250000
-1.000000
-0.031250
0.250000
0.500000
0.500000
-0.500000
1.000000
0.500000
-0.031250
-0.500000
1.000000
-2.000000
-0.062500
0.062500
-0.250000
-0.250000
-0.500000
-0.125000
-0.062500
0.031250
-0.500000
-0.125000
-0.062500
-0.250000
0.500000
-0.062500
-0.500000
1.000000
-0.031250
0.500000
-0.015625
1.000000
1.000000
-0.500000
-0.500000
-0.062500
1.000000
0.250000
-0.015625
-0.500000
0.500000
0.031250
-0.500000
-0.031250
-1.000000
-0.031250
0.125000
-0.250000
-0.250000
-0.125000
-0.250000
0.250000
-0.062500
-0.125000
0.001953
-1.000000
1.000000
-0.031250
-1.000000
-1.000000
-0.250000
-0.031250
-0.062500
-0.125000
0.125000
-0.062500
0.250000
-0.500000
-0.250000
-0.031250
-1.000000
-0.062500
-0.062500
-0.250000
-1.000000
0.125000
-0.500000
-1.000000
0.500000
-0.500000
-0.125000
1.000000
0.007812
0.125000
-0.250000
-0.015625
-0.500000
-0.500000
-0.007812
-0.125000
-0.250000
-0.250000
-0.031250
-0.250000
-0.015625
0.250000
-0.015625
-0.500000
-0.500000
-0.015625
-0.250000
0.031250
-0.031250
-0.062500
0.250000
-0.062500
-0.031250
-0.062500
-0.007812
-2.000000
-0.250000
-0.125000
-0.500000
0.015625
-0.500000
-0.062500
0.125000
-0.500000
-0.500000
0.250000
-1.000000
-0.062500
-0.250000
0.500000
0.125000
-0.500000
-0.125000
0.062500
-0.125000
-0.250000
0.250000
-1.000000
-0.031250
-0.031250
0.500000
0.062500
-0.500000
-0.031250
-0.062500
0.003906
0.062500
-0.500000
-0.062500
-0.500000
0.250000
-0.062500
-0.500000
0.250000
-0.031250
0.500000
-0.125000
-0.500000
0.250000
-0.250000
-0.250000
-0.500000
0.500000
0.125000
-0.125000
-0.500000
-1.000000
-0.500000
-0.250000
-0.125000
-1.000000
-0.062500
0.062500
0.250000
-0.250000
-0.062500
0.250000
0.125000
-0.125000
-0.250000
-0.250000
-0.250000
-0.500000
-0.062500
-0.500000
0.250000
0.500000
-0.125000
-0.062500
-0.500000
-0.062500
-0.007812
-0.250000
-1.000000
-1.000000
-0.062500
0.250000
-0.031250
-0.125000
-0.500000
-0.500000
-0.062500
-0.500000
-0.015625
-0.250000
-0.125000
0.125000
0.250000
-0.031250
-0.125000
-0.500000
-1.000000
-0.500000
0.062500
-1.000000
-0.125000
-0.250000
-0.125000
-0.062500
-0.500000
-0.015625
-1.000000
-0.031250
-0.125000
-1.000000
-0.062500
-0.500000
0.062500
-0.015625
-0.031250
-0.500000
-0.062500
0.125000
-0.062500
-0.062500
-0.250000
-1.000000
0.031250
-0.250000
-0.125000
-0.125000
-0.062500
0.500000
0.062500
0.250000
-0.250000
0.500000
-0.062500
-0.031250
-0.250000
-0.500000
-0.250000
-0.062500
0.250000
0.125000
-1.000000
0.250000
0.250000
-0.062500
-0.062500
-0.250000
-0.125000
1.000000
-0.062500
-0.031250
-0.015625
-0.125000
0.062500
-0.007812
-0.500000
-0.500000
-0.062500
-0.500000
-0.250000
-0.125000
-2.000000
-0.062500
-0.500000
0.500000
-0.250000
-0.250000
-1.000000
0.062500
-0.500000
-0.062500
-1.000000
-0.125000
-0.125000
-0.500000
0.031250
-0.031250
-0.031250
-0.125000
-0.500000
-0.125000
-0.062500
-0.125000
-1.000000
-0.062500
-0.250000
0.250000
-0.250000
0.500000
-0.031250
-0.125000
-0.250000
0.500000
-0.125000
0.031250
-0.500000
-0.500000
-0.062500
0.250000
-1.000000
-1.000000
-0.062500
0.125000
-0.031250
-0.031250
0.500000
0.500000
-0.500000
-0.500000
-0.125000
0.500000
-0.500000
-0.015625
-0.500000
0.250000
-0.500000
-0.500000
-0.500000
0.500000
-0.500000
-2.000000
-0.031250
-0.500000
-0.125000
0.007812
0.500000
0.062500
-0.250000
-0.125000
1.000000
1.000000
0.015625
0.500000
1.000000
0.015625
-0.250000
-0.250000
-0.125000
-0.062500
-0.062500
-0.250000
-0.062500
-0.500000
-0.031250
0.500000
-0.062500
-0.062500
-0.125000
-0.500000
1.000000
-0.062500
-2.000000
0.500000
-0.062500
0.125000
-0.500000
-1.000000
0.125000
0.250000
-1.000000
-0.125000
0.031250
0.250000
2.000000
0.062500
-0.125000
0.062500
-0.250000
1.000000
-0.007812
-0.031250
0.007812
-0.062500
0.125000
-0.125000
0.250000
-0.500000
-0.031250
-1.000000
-0.500000
-0.062500
-2.000000
0.031250
-0.125000
0.125000
-0.500000
-0.250000
-0.500000
-0.250000
-0.500000
-0.062500
0.500000
0.500000
-0.250000
-1.000000
-0.125000
-1.000000
-0.062500
-0.125000
-0.500000
-0.031250
-0.015625
1.000000
-1.000000
-0.062500
-0.062500
0.250000
-1.000000
-0.500000
0.031250
0.250000
0.250000
-1.000000
-0.125000
-0.031250
0.500000
-0.250000
0.062500
0.500000
0.125000
-0.250000
0.062500
-0.500000
-0.015625
-0.031250
-0.250000
-0.062500
1.000000
0.125000
-0.125000
1.000000
-0.500000
-0.031250
-0.500000
-0.250000
-1.000000
0.250000
0.125000
-0.250000
-0.062500
-0.125000
-0.125000
-0.062500
-0.500000
-0.031250
-0.500000
-0.007812
-0.500000
0.125000
2.000000
0.125000
-0.007812
-1.000000
-0.500000
-0.062500
-0.015625
-0.250000
-0.062500
0.125000
-0.125000
0.007812
-0.500000
-1.000000
-0.031250
-0.062500
-0.015625
0.500000
-0.031250
-0.250000
-0.031250
-0.500000
-0.500000
-1.000000
-0.062500
-0.500000
0.500000
1.000000
0.003906
-0.250000
0.500000
-0.031250
-0.125000
-1.000000
0.500000
0.062500
-0.062500
1.000000
0.125000
-0.500000
-0.125000
-0.062500
-0.125000
0.125000
-0.062500
-0.062500
-0.250000
0.250000
-0.125000
-0.250000
-0.250000
-0.015625
1.000000
-0.062500
-0.500000
-0.500000
-0.062500
0.500000
-0.500000
0.500000
0.500000
-0.062500
-0.125000
0.031250
-0.062500
-0.500000
-0.125000
-0.500000
-0.062500
-0.125000
-0.500000
0.031250
-0.062500
-0.125000
-0.500000
-0.031250
-0.062500
-1.000000
-0.250000
-0.500000
-0.031250
-0.125000
0.125000
-0.125000
-0.125000
-0.062500
-1.000000
-0.250000
-0.031250
-0.500000
-0.500000
-0.250000
-0.062500
-0.031250
-0.125000
-0.062500
0.500000
0.500000
-0.500000
0.031250
0.500000
-0.500000
-1.000000
-0.031250
0.062500
-0.250000
-0.500000
0.015625
1.000000
0.250000
-0.062500
-0.125000
-0.031250
0.250000
-0.500000
0.062500
-0.250000
-0.062500
-0.500000
-0.031250
1.000000
1.000000
-0.031250
-0.500000
-1.000000
-0.031250
-0.031250
-0.500000
-0.015625
0.031250
-0.062500
-0.250000
-0.250000
-0.250000
0.031250
-0.500000
-0.031250
0.250000
-0.062500
-0.500000
0.250000
-1.000000
-0.500000
-0.500000
0.007812
-0.250000
-0.250000
-0.500000
-0.250000
0.250000
1.000000
-0.062500
-0.500000
-0.062500
0.500000
-0.007812
-0.125000
1.000000
-0.007812
-0.250000
-0.015625
-0.062500
0.003906
-0.500000
-1.000000
-0.062500
-0.015625
0.015625
-0.015625
-0.500000
-0.062500
0.062500
0.500000
0.062500
-0.062500
-0.500000
-0.500000
-0.250000
0.015625
1.000000
-0.500000
-0.015625
-0.500000
-0.500000
0.500000
-0.500000
-0.125000
-1.000000
-0.062500
-0.250000
-1.000000
-0.015625
-0.062500
-0.500000
-1.000000
-0.015625
-0.250000
-0.250000
-2.000000
0.250000
0.015625
-1.000000
-0.500000
-0.500000
-0.031250
-0.062500
-0.500000
-0.125000
-0.062500
-1.000000
-0.031250
-0.125000
-0.062500
0.500000
-0.031250
-0.031250
-1.000000
0.250000
0.250000
-0.500000
-0.500000
-0.031250
-0.500000
-0.062500
0.500000
-0.250000
0.250000
0.250000
0.250000
-0.500000
-0.500000
0.125000
-0.125000
-0.500000
-1.000000
-0.031250
-0.125000
0.031250
0.250000
-0.062500
1.000000
-0.031250
-0.062500
-2.000000
0.031250
-0.062500
-0.031250
-0.062500
-0.062500
-0.015625
-0.062500
-0.062500
-2.000000
0.250000
-0.031250
-1.000000
-0.062500
-0.125000
-0.062500
-0.062500
-0.250000
0.250000
-1.000000
-0.250000
-0.125000
-0.250000
-0.250000
-1.000000
-0.500000
0.250000
0.250000
-0.031250
-0.250000
-1.000000
0.500000
0.031250
-0.125000
-1.000000
-0.250000
-2.000000
-0.031250
-0.062500
-0.125000
-0.125000
-0.500000
-0.062500
0.250000
-0.125000
-0.062500
-0.250000
-1.000000
-0.015625
-1.000000
-0.062500
-0.250000
-0.125000
-0.125000
0.001953
-1.000000
-0.500000
-1.000000
-0.015625
-0.250000
-0.500000
0.062500
-0.500000
-0.125000
0.250000
-0.062500
-0.125000
-0.500000
0.062500
-0.125000
-1.000000
-0.500000
-0.062500
-0.250000
-0.125000
-2.000000
-0.250000
-0.031250
-1.000000
0.500000
-0.062500
-0.125000
-0.062500
-0.500000
-0.250000
-0.125000
0.031250
-1.000000
-0.250000
-0.031250
-0.250000
0.031250
-0.031250
-1.000000
-1.000000
-0.500000
-0.125000
0.125000
-0.250000
-0.250000
-0.031250
0.500000
-0.500000
0.250000
-0.125000
0.500000
-2.000000
0.500000
-0.125000
-0.062500
0.250000
-1.000000
-0.125000
-0.125000
0.031250
0.500000
-0.062500
-0.500000
-0.250000
-0.125000
-1.000000
0.500000
-0.062500
-0.062500
-0.250000
0.062500
-0.062500
0.031250
-0.031250
0.250000
0.250000
-0.031250
-0.015625
-0.031250
-0.125000
0.031250
0.250000
-0.500000
-0.250000
-0.500000
0.015625
-0.031250
0.125000
-1.000000
-0.250000
-0.062500
-0.500000
0.125000
0.062500
-0.500000
0.031250
-0.250000
-0.125000
0.062500
-0.031250
-0.250000
0.250000
-0.062500
-0.062500
-0.062500
0.500000
-0.500000
-0.125000
-1.000000
-0.500000
-0.031250
-0.500000
0.500000
-0.125000
-1.000000
-0.031250
-1.000000
0.125000
0.125000
-0.250000
-0.250000
0.250000
-0.250000
-0.062500
-0.125000
0.062500
-0.250000
0.031250
-0.125000
-0.031250
-0.125000
-0.015625
-0.500000
-0.125000
-0.125000
-0.250000
-1.000000
-0.031250
-0.125000
0.250000
-0.500000
0.250000
0.003906
0.250000
0.062500
-0.062500
-0.031250
0.031250
-0.250000
-0.250000
-0.031250
0.125000
0.500000
-0.500000
-0.007812
0.500000
-0.125000
-0.062500
0.500000
0.125000
0.500000
-0.031250
0.500000
-0.125000
-0.500000
-0.031250
0.125000
0.250000
0.125000
-0.500000
-0.062500
1.000000
-0.500000
-0.500000
0.062500
-0.500000
0.250000
-0.125000
1.000000
0.031250
-0.062500
-0.062500
0.125000
0.500000
-0.001953
-1.000000
0.500000
-0.062500
-0.000977
-0.250000
-0.031250
-0.062500
0.062500
-0.250000
0.125000
-0.250000
0.015625
0.125000
-0.062500
0.125000
0.062500
-0.250000
0.500000
-1.000000
-1.000000
0.500000
-0.062500
-0.250000
-2.000000
-1.000000
-0.250000
0.500000
-0.062500
-0.015625
-0.500000
0.250000
-0.031250
-0.125000
-0.062500
0.250000
-0.125000
-0.001953
-0.062500
-0.015625
-0.250000
-0.250000
-1.000000
-0.125000
1.000000
0.500000
-0.062500
-0.250000
-1.000000
-0.062500
-2.000000
-0.062500
-0.250000
0.031250
0.062500
-0.500000
-0.250000
0.250000
0.250000
-0.125000
0.500000
-0.125000
-0.062500
-0.500000
-0.250000
-2.000000
-0.062500
-0.125000
-0.500000
-0.031250
-0.062500
0.250000
0.500000
-0.031250
-0.000488
-0.125000
-0.500000
-0.062500
0.062500
-1.000000
-1.000000
-0.250000
-0.125000
-0.031250
-0.125000
-0.125000
-0.062500
-0.500000
-0.125000
-0.500000
-0.015625
0.250000
-0.031250
-0.062500
-0.125000
0.125000
-0.125000
0.500000
0.250000
-0.250000
-0.500000
-0.125000
0.500000
-0.500000
-0.500000
0.250000
-1.000000
-0.500000
0.062500
-0.125000
-0.062500
-1.000000
-0.125000
-0.031250
-0.125000
-0.015625
0.500000
-0.062500
0.500000
0.500000
-0.062500
-1.000000
1.000000
-0.015625
-0.062500
-1.000000
-0.031250
0.062500
-0.031250
-0.062500
-0.062500
-0.500000
-0.007812
-0.250000
0.015625
0.250000
-0.125000
-0.250000
0.125000
-0.500000
0.062500
1.000000
-0.062500
0.500000
-0.500000
-0.500000
0.062500
0.250000
-0.250000
-0.062500
-0.250000
1.000000
0.250000
0.031250
-0.062500
1.000000
-0.125000
-1.000000
-0.015625
-0.007812
-0.125000
-0.500000
-0.500000
-0.007812
-0.062500
-0.250000
-0.062500
-0.125000
-0.062500
-0.062500
-2.000000
-0.031250
-0.250000
0.500000
-0.250000
-0.062500
-0.500000
0.500000
-0.015625
-0.015625
0.250000
0.250000
-0.500000
-0.125000
-0.015625
-0.500000
-0.062500
-0.062500
-0.250000
-0.062500
-0.031250
-0.250000
0.500000
-0.031250
-0.031250
-1.000000
-0.125000
0.250000
-0.062500
-0.125000
0.500000
0.125000
-0.125000
-0.031250
-0.250000
-0.062500
-0.031250
0.250000
-0.250000
0.500000
-0.062500
0.250000
-0.062500
-0.031250
-0.062500
0.500000
-1.000000
1.000000
1.000000
0.250000
-0.500000
0.062500
-0.125000
0.250000
1.000000
-0.015625
-0.250000
-0.500000
-0.500000
-0.500000
0.125000
-0.500000
0.500000
-0.015625
-0.500000
-0.062500
0.250000
-0.062500
1.000000
-0.062500
-0.031250
-0.500000
0.062500
-0.031250
-0.125000
0.250000
0.125000
-0.062500
0.062500
-0.125000
-0.500000
0.500000
-0.031250
-1.000000
-0.062500
-0.015625
0.031250
-0.500000
0.500000
-0.250000
-0.031250
0.250000
-0.015625
-0.250000
-1.000000
-1.000000
-1.000000
-1.000000
-0.031250
-0.125000
-0.125000
0.125000
0.250000
-0.015625
-0.125000
0.125000
-0.250000
-0.062500
-0.062500
-0.062500
-0.125000
-1.000000
0.003906
-0.062500
-0.062500
-0.500000
-0.062500
-0.250000
0.500000
-0.031250
-1.000000
-0.062500
0.062500
-0.062500
-0.250000
0.015625
-0.500000
0.500000
-0.500000
0.125000
0.250000
-0.062500
-0.125000
-1.000000
-0.031250
-0.500000
-0.062500
-0.125000
-1.000000
-0.015625
-0.062500
-0.500000
-0.125000
-0.062500
-0.250000
-0.007812
0.125000
-0.062500
-0.015625
-0.500000
-0.250000
-0.500000
0.031250
-0.031250
0.125000
-0.062500
-0.062500
-1.000000
0.125000
0.062500
-0.062500
0.250000
-0.062500
-0.031250
-0.125000
0.250000
-1.000000
-0.500000
0.500000
-0.500000
-0.500000
-0.062500
-0.500000
-0.500000
0.500000
0.062500
-0.125000
0.500000
-1.000000
-0.250000
-0.062500
-0.250000
-0.500000
-0.031250
-0.500000
-0.031250
0.250000
-0.007812
0.500000
0.031250
-0.007812
-1.000000
0.500000
-0.031250
-0.062500
-0.062500
-0.062500
-0.125000
-0.125000
-0.125000
-2.000000
0.250000
-0.031250
-1.000000
-0.031250
-0.500000
-0.062500
-0.250000
-0.250000
0.500000
0.500000
-0.250000
-0.015625
-0.250000
0.250000
-1.000000
-0.015625
0.250000
-0.500000
-0.062500
-0.250000
-1.000000
-0.062500
-0.031250
-0.062500
-1.000000
-0.250000
0.500000
-0.031250
-0.062500
-0.250000
-0.500000
-0.500000
-0.125000
0.031250
-0.500000
-0.062500
-0.250000
-1.000000
-0.062500
0.250000
-0.031250
-1.000000
-0.500000
-0.250000
-0.250000
-0.250000
-1.000000
-1.000000
-0.125000
-0.250000
-0.250000
0.015625
-1.000000
-0.125000
0.250000
-0.062500
-0.125000
-0.250000
0.062500
-0.062500
-0.250000
0.500000
-0.062500
-0.062500
1.000000
-1.000000
-1.000000
-0.062500
-0.500000
0.062500
-1.000000
-0.062500
-0.062500
-0.125000
-0.250000
-0.062500
-0.500000
0.125000
-0.015625
-0.062500
-0.500000
-0.007812
-0.125000
-1.000000
-1.000000
0.031250
0.125000
-1.000000
0.250000
-1.000000
0.062500
0.250000
0.062500
0.500000
0.250000
0.250000
-1.000000
-1.000000
0.062500
0.062500
-1.000000
-1.000000
-0.015625
-1.000000
-0.062500
-0.062500
-0.062500
-1.000000
-0.500000
-0.031250
0.125000
0.125000
-0.062500
-0.062500
-1.000000
-0.062500
-0.062500
-0.062500
-0.125000
-0.250000
0.250000
-0.062500
-0.500000
-0.125000
-0.500000
-0.031250
-0.250000
-1.000000
-0.500000
-0.500000
-0.500000
-0.062500
0.500000
-0.500000
0.062500
0.250000
0.031250
-1.000000
0.125000
-0.500000
-0.500000
-0.250000
0.031250
-0.062500
0.500000
-0.125000
-0.250000
-0.062500
-0.062500
0.003906
-0.031250
-0.250000
-0.031250
-0.500000
-0.250000
-0.031250
-0.062500
0.500000
-0.031250
-0.062500
-0.062500
0.250000
-0.500000
-0.125000
-0.250000
-0.500000
0.500000
-0.500000
-0.062500
0.125000
-0.003906
-1.000000
0.125000
-0.250000
-0.250000
-0.031250
-0.125000
-0.250000
-0.250000
-0.062500
0.250000
-1.000000
-0.015625
-0.125000
-0.062500
-2.000000
-0.500000
-0.015625
-0.062500
-0.250000
-0.250000
-0.062500
0.015625
-0.250000
-0.500000
-0.031250
-0.250000
-1.000000
-0.250000
-0.125000
-2.000000
-0.125000
0.007812
0.031250
-0.250000
-0.500000
-0.500000
-1.000000
-1.000000
0.062500
-0.125000
0.125000
-1.000000
0.500000
-0.500000
-0.250000
0.500000
-1.000000
-0.500000
0.125000
-0.250000
0.125000
-0.062500
-1.000000
-0.062500
1.000000
-0.125000
-2.000000
0.250000
-0.062500
-1.000000
-2.000000
-0.003906
-0.031250
0.125000
-0.062500
0.015625
-0.015625
0.062500
-1.000000
0.500000
-0.031250
-0.250000
-0.031250
-0.250000
-0.015625
-0.250000
0.250000
-1.000000
-1.000000
-1.000000
-0.015625
-0.500000
-1.000000
-0.500000
0.500000
1.000000
0.250000
-0.062500
-0.500000
-0.001953
-2.000000
0.015625
-0.015625
2.000000
-0.125000
-0.125000
-0.125000
-0.015625
-0.125000
-1.000000
-0.500000
-0.125000
-1.000000
1.000000
-0.031250
-0.500000
0.500000
-0.062500
0.062500
-0.125000
-0.500000
-1.000000
0.031250
-0.125000
-1.000000
1.000000
0.500000
-0.062500
-0.500000
0.125000
-0.250000
0.500000
-0.031250
-1.000000
-0.062500
-0.250000
0.500000
-0.062500
-0.062500
-0.500000
-1.000000
-0.062500
-0.031250
1.000000
0.500000
1.000000
0.007812
-1.000000
-2.000000
-0.125000
-0.125000
-0.007812
-0.062500
-0.250000
-0.062500
0.500000
-0.500000
0.500000
-0.062500
-1.000000
-0.125000
-0.125000
-0.500000
0.250000
0.062500
0.250000
-0.500000
-0.250000
-0.125000
-0.031250
1.000000
-0.250000
-2.000000
-0.031250
-0.250000
0.031250
0.125000
0.250000
0.125000
-0.500000
0.500000
0.007812
-1.000000
-0.015625
-1.000000
-0.031250
-2.000000
-0.500000
-0.062500
0.250000
-0.250000
-0.007812
-0.062500
-1.000000
-0.062500
0.062500
-0.062500
0.015625
-1.000000
-1.000000
-0.031250
-0.500000
0.031250
-0.125000
0.062500
0.500000
0.500000
-1.000000
0.125000
-0.500000
-0.031250
0.250000
-0.500000
-0.500000
0.001953
-0.250000
-0.062500
-0.062500
-0.500000
0.500000
-1.000000
-0.031250
-0.007812
-1.000000
0.125000
-1.000000
-0.062500
-0.031250
-0.125000
-0.500000
-0.500000
-0.062500
-1.000000
-0.250000
-0.031250
-0.500000
-2.000000
0.062500
1.000000
-0.062500
-0.250000
0.250000
-0.125000
-0.125000
0.500000
-0.250000
1.000000
0.062500
-0.250000
-0.500000
-0.250000
0.250000
0.062500
-0.125000
-0.062500
-0.125000
0.125000
-0.125000
-0.007812
-0.500000
-0.500000
-0.062500
-0.062500
-1.000000
-1.000000
0.500000
-0.031250
-0.500000
-1.000000
1.000000
-0.125000
-0.015625
-0.031250
-0.031250
-0.062500
-0.001953
-0.500000
0.500000
-0.003906
0.250000
-0.062500
-0.031250
-0.015625
0.250000
-0.125000
0.031250
-0.125000
-1.000000
-0.500000
-0.062500
1.000000
-0.062500
-0.500000
-0.125000
-0.250000
0.015625
0.031250
0.250000
0.062500
0.003906
0.500000
-0.062500
-0.250000
0.015625
-1.000000
0.031250
-0.500000
-0.500000
-0.062500
-0.500000
-0.500000
-0.062500
-0.062500
0.500000
-0.015625
-0.031250
-0.031250
-0.015625
0.500000
-0.500000
-0.062500
0.250000
0.031250
-0.031250
0.062500
0.062500
0.250000
0.500000
0.031250
-0.500000
-0.062500
-0.500000
0.250000
-0.250000
0.250000
0.250000
0.500000
-0.015625
-0.500000
0.250000
-1.000000
-0.125000
-0.062500
-0.500000
-0.125000
0.500000
-0.031250
-0.031250
-0.125000
0.125000
0.125000
-0.031250
-0.125000
0.500000
-0.062500
-1.000000
-2.000000
-0.062500
-0.250000
-0.015625
-0.500000
0.500000
-0.125000
-0.500000
0.062500
-0.500000
0.500000
-0.031250
-0.500000
-0.500000
0.031250
0.250000
-0.062500
0.125000
-0.062500
-0.125000
-0.500000
0.031250
-0.062500
-0.500000
-0.062500
0.015625
-0.125000
0.125000
0.250000
-0.250000
-0.062500
-0.500000
-0.500000
0.250000
-0.003906
-0.031250
-0.500000
-0.000244
-0.015625
-0.125000
0.500000
0.125000
-0.062500
0.250000
-0.062500
-0.125000
-2.000000
0.250000
-0.250000
0.250000
1.000000
0.500000
-0.500000
-0.062500
-0.000977
-0.250000
0.250000
-0.250000
-0.125000
0.000015
-0.500000
-1.000000
-0.062500
0.125000
0.125000
-0.015625
-1.000000
-0.062500
-1.000000
-0.031250
1.000000
-1.000000
-0.007812
-0.250000
1.000000
-0.031250
-0.062500
-0.250000
-0.007812
0.062500
-0.125000
-0.062500
-0.250000
-0.500000
-0.031250
-0.500000
-0.062500
-0.125000
-0.062500
0.250000
0.062500
0.062500
-0.500000
-0.062500
-0.031250
-0.125000
-0.250000
-0.500000
-0.125000
-0.500000
-0.500000
-0.125000
-0.125000
-1.000000
-0.250000
-0.031250
-0.062500
0.007812
-0.125000
1.000000
-0.062500
-0.062500
0.015625
-0.500000
-0.250000
-0.125000
-0.015625
-1.000000
-0.062500
-0.250000
-0.500000
-0.031250
-0.500000
-0.062500
-0.250000
-0.062500
-0.250000
-0.500000
-0.125000
-0.250000
-0.500000
-0.062500
0.125000
-0.250000
0.062500
0.125000
-0.062500
-0.250000
-0.062500
-0.250000
-0.125000
-0.125000
-0.062500
-0.031250
2.000000
-0.031250
-0.062500
0.250000
-0.500000
-0.250000
-0.062500
-0.003906
0.500000
0.062500
-0.062500
-0.031250
-0.125000
-0.500000
-0.062500
0.062500
0.062500
0.125000
-0.031250
-0.062500
-0.015625
-0.015625
0.062500
0.125000
-0.062500
0.125000
0.031250
-0.031250
0.007812
-0.031250
-0.250000
-0.062500
-0.001953
0.062500
0.062500
0.250000
-0.125000
0.031250
-0.125000
0.031250
-0.015625
-0.062500
-0.015625
-0.062500
-0.031250
-0.000488
0.015625
0.062500
0.007812
0.125000
-0.125000
-0.015625
0.031250
-0.062500
-0.062500
-0.062500
-0.062500
0.003906
-0.031250
-0.031250
-0.031250
0.062500
-0.062500
-0.015625
-0.062500
0.125000
-0.125000
0.062500
0.031250
0.031250
-0.062500
-0.031250
0.125000
0.062500
-0.007812
-0.062500
0.125000
-0.031250
-0.062500
-0.062500
-0.250000
-0.031250
-0.031250
0.125000
-0.125000
0.125000
-0.031250
-0.031250
-0.125000
-0.003906
0.250000
0.001953
-0.031250
0.062500
-0.125000
-0.031250
0.031250
-0.031250
0.250000
-0.125000
0.015625
0.007812
-0.031250
-0.007812
0.007812
-0.031250
0.015625
-0.015625
-0.031250
0.062500
-0.062500
-0.062500
0.031250
0.062500
-0.015625
0.031250
-0.015625
-0.015625
-0.062500
0.250000
-0.031250
-0.062500
0.007812
0.062500
-0.062500
0.003906
-0.007812
0.007812
-0.125000
-0.125000
-0.031250
-0.015625
-0.125000
-0.062500
-0.062500
0.031250
0.031250
0.062500
-0.003906
-0.007812
-0.031250
-0.015625
0.015625
-0.015625
-0.062500
0.015625
0.015625
-0.062500
0.031250
-0.031250
-0.062500
-0.062500
-0.000488
-0.031250
0.125000
0.062500
-0.125000
-0.007812
-0.062500
0.062500
-0.031250
-0.031250
-0.015625
-0.125000
-0.062500
-0.062500
-0.007812
-0.015625
-0.015625
0.031250
0.062500
-0.125000
0.003906
-0.031250
-0.031250
-0.062500
-0.031250
-0.125000
0.015625
0.007812
-0.031250
-0.062500
-0.125000
-0.125000
-0.031250
0.125000
-0.125000
0.015625
0.062500
0.062500
-0.062500
-0.015625
0.062500
0.250000
0.062500
-0.125000
-0.007812
-0.015625
-0.062500
0.031250
-0.250000
-0.062500
-0.062500
0.125000
-0.125000
0.125000
-0.062500
-0.125000
0.062500
0.125000
0.125000
-0.062500
0.031250
0.031250
-0.062500
-0.062500
0.062500
-0.031250
0.250000
-0.062500
0.031250
0.062500
-0.062500
-0.062500
0.031250
-0.125000
-0.062500
-0.031250
0.062500
0.125000
-0.015625
-0.003906
-0.015625
0.125000
-0.031250
-0.031250
-0.125000
0.062500
-0.031250
0.062500
0.125000
-0.031250
-0.015625
0.062500
-0.125000
0.031250
-0.125000
-0.007812
0.001953
-0.125000
-0.062500
-0.015625
-0.015625
-0.031250
-0.031250
0.062500
0.062500
-0.125000
-0.031250
0.062500
-0.062500
0.000977
-0.062500
0.125000
-0.062500
-0.062500
-0.015625
0.031250
0.062500
-0.031250
-0.125000
-0.007812
0.062500
-0.062500
-0.031250
-0.062500
-0.015625
0.062500
-0.062500
0.031250
0.015625
-0.062500
0.062500
-0.062500
-0.003906
-0.062500
0.125000
0.062500
-0.003906
-0.125000
-0.125000
-0.031250
0.015625
-0.015625
-0.062500
-0.125000
-0.062500
-0.062500
0.015625
-0.062500
-0.031250
-0.062500
-0.062500
-0.062500
-0.062500
0.031250
-0.015625
-0.031250
0.015625
-0.062500
-0.015625
-0.125000
-0.250000
-0.125000
0.031250
-0.000488
0.125000
-0.062500
-0.015625
0.031250
0.125000
-0.062500
-0.125000
0.062500
-0.062500
-0.031250
-0.062500
-0.031250
-0.125000
0.062500
0.031250
-0.062500
-0.031250
0.062500
-0.062500
-0.031250
-0.250000
-0.062500
-0.062500
-0.062500
-0.062500
0.125000
-0.062500
-0.062500
0.125000
-0.125000
0.125000
-0.031250
-0.062500
0.007812
-0.062500
0.125000
0.007812
-0.031250
-0.015625
-0.062500
-0.031250
0.062500
-0.062500
0.062500
0.125000
-0.125000
0.062500
0.125000
0.031250
0.003906
-0.031250
0.062500
-0.003906
0.062500
-0.062500
-0.015625
-0.125000
-0.062500
-0.125000
0.031250
0.250000
-0.062500
-0.031250
0.015625
-0.015625
0.062500
-0.125000
0.062500
0.015625
0.062500
-0.031250
0.062500
0.062500
-0.125000
-0.125000
-0.062500
0.015625
-0.125000
0.031250
-0.125000
-0.250000
0.125000
-0.062500
0.125000
-0.062500
-0.031250
-0.031250
-0.125000
0.125000
0.031250
0.062500
0.125000
-0.015625
-0.250000
-0.125000
-0.062500
0.001953
0.031250
-0.015625
-0.125000
-0.125000
0.015625
0.062500
-0.062500
0.015625
-0.125000
-0.015625
-0.062500
-0.031250
0.062500
-0.062500
0.125000
-0.125000
-0.250000
-0.062500
-0.125000
-0.062500
-0.000977
0.031250
-0.062500
0.062500
-0.062500
-0.062500
0.062500
0.125000
-0.031250
-0.062500
0.125000
-0.031250
0.031250
-0.062500
-0.062500
-0.062500
0.031250
0.015625
-0.062500
0.001953
0.125000
-0.062500
-0.015625
-0.250000
-0.062500
-0.062500
-0.062500
-0.125000
0.125000
-0.062500
-0.062500
0.062500
-0.250000
0.031250
-0.062500
-0.031250
0.062500
-0.015625
-0.031250
0.031250
0.031250
-0.062500
-0.031250
0.062500
-0.062500
-0.062500
0.125000
0.125000
-0.031250
0.031250
0.031250
-0.003906
0.062500
-0.062500
0.125000
-0.031250
0.031250
-0.015625
-0.062500
-0.062500
-0.007812
-0.031250
0.062500
0.003906
-0.250000
0.015625
-0.250000
-0.031250
0.031250
0.062500
0.125000
-0.125000
0.125000
0.125000
-0.015625
-0.125000
-0.125000
0.062500
-0.062500
0.062500
-0.031250
-0.125000
0.250000
-0.062500
-0.062500
-0.031250
0.125000
-0.031250
-0.062500
0.062500
-0.031250
-0.125000
-0.007812
-0.031250
-0.000977
0.015625
0.250000
-0.062500
-0.031250
-0.031250
-0.125000
-0.015625
-0.062500
-0.125000
0.031250
0.062500
-0.125000
0.031250
0.125000
-0.125000
-0.062500
-0.015625
0.015625
-0.015625
0.125000
0.125000
-0.125000
-0.125000
-0.015625
0.250000
-0.250000
0.062500
-0.031250
0.250000
-0.125000
-0.062500
0.125000
-0.062500
-0.031250
-0.031250
0.125000
-0.062500
0.250000
-0.062500
-0.031250
-0.031250
0.031250
0.125000
-0.062500
0.125000
0.062500
-0.062500
-0.062500
-0.250000
-0.062500
0.250000
-0.125000
0.007812
0.062500
-0.062500
-0.062500
0.031250
-0.125000
0.062500
-0.062500
-0.250000
0.250000
-0.015625
0.250000
0.031250
-0.250000
-0.062500
-0.015625
0.125000
0.062500
-0.031250
0.250000
0.250000
-0.062500
0.007812
0.125000
-0.015625
0.031250
-0.125000
-0.031250
-0.250000
-0.125000
-0.062500
-0.031250
-0.015625
-0.031250
-0.007812
-0.007812
0.250000
-0.250000
0.015625
0.062500
-0.062500
0.001953
-0.250000
0.062500
-0.015625
0.125000
0.250000
0.125000
0.062500
-0.062500
0.015625
-0.125000
-0.031250
0.031250
-0.250000
0.125000
-0.015625
0.003906
-0.062500
0.125000
-0.015625
-0.031250
0.062500
-0.062500
-0.250000
-0.001953
0.062500
0.250000
-0.031250
-0.250000
0.125000
-0.015625
-0.062500
0.015625
-0.031250
-0.125000
-0.015625
-0.062500
0.062500
-0.125000
0.031250
-0.062500
-0.062500
-0.062500
-0.062500
-0.062500
0.031250
-0.062500
-0.125000
0.031250
-0.031250
-0.062500
-0.250000
-0.250000
-0.062500
-0.031250
0.062500
-0.062500
-0.062500
0.125000
0.125000
-0.125000
-0.031250
0.062500
-0.125000
-0.125000
-0.062500
-0.015625
-0.062500
0.062500
-0.125000
-0.062500
0.125000
0.125000
-0.125000
-0.031250
-0.250000
-0.062500
-0.125000
-0.062500
-0.125000
0.250000
-0.031250
-0.031250
0.062500
-0.250000
0.062500
-0.015625
0.250000
0.015625
-0.062500
0.125000
-0.031250
-0.062500
-0.062500
-0.062500
0.125000
0.062500
-0.015625
0.015625
0.250000
-0.062500
0.062500
0.250000
-0.031250
-0.031250
-0.007812
0.031250
-0.062500
-0.007812
-0.062500
0.125000
-0.015625
-0.031250
-0.062500
-0.015625
0.250000
-0.125000
0.001953
0.015625
0.062500
0.062500
-0.031250
0.250000
-0.001953
0.125000
0.062500
-0.062500
0.125000
-0.125000
-0.125000
-0.062500
0.031250
-0.125000
-0.125000
0.125000
-0.250000
0.062500
0.062500
-0.015625
0.015625
-0.062500
0.031250
-0.015625
-0.062500
-0.015625
0.031250
0.250000
0.007812
-0.062500
0.031250
-0.062500
0.007812
-0.031250
-0.062500
-0.062500
-0.125000
-0.062500
-0.015625
-0.125000
-0.015625
-0.250000
-0.125000
-0.062500
-0.015625
-0.250000
0.015625
-0.062500
-0.125000
-0.062500
-0.015625
-0.062500
-0.250000
-0.125000
-0.125000
-0.125000
-0.062500
-0.031250
0.062500
-0.031250
0.125000
-0.062500
-0.031250
-0.250000
-0.125000
0.062500
-0.015625
-0.062500
-0.031250
0.062500
-0.031250
-0.015625
0.250000
-0.031250
-0.031250
-0.062500
-0.125000
-0.062500
0.007812
-0.015625
-0.062500
0.250000
-0.062500
-0.125000
0.250000
-0.250000
-0.062500
-0.015625
0.125000
0.015625
-0.031250
0.062500
0.007812
0.125000
-0.015625
-0.062500
0.250000
0.062500
-0.015625
0.062500
0.250000
-0.015625
0.007812
0.250000
-0.062500
0.125000
-0.015625
0.062500
-0.062500
0.031250
-0.125000
0.031250
-0.125000
-0.031250
-0.031250
-0.000977
0.250000
-0.125000
-0.007812
-0.031250
0.031250
0.031250
-0.015625
0.125000
-0.031250
0.125000
0.015625
0.125000
0.062500
-0.062500
-0.125000
-0.062500
0.125000
-0.015625
-0.062500
0.015625
-0.250000
-0.031250
-0.062500
-0.125000
0.000977
-0.031250
0.062500
-0.015625
0.062500
-0.031250
0.015625
0.250000
-0.031250
0.062500
0.031250
-0.031250
-0.031250
0.125000
-0.062500
-0.062500
-0.125000
-0.015625
0.015625
-0.125000
-0.031250
-0.250000
-0.125000
-0.062500
-0.031250
-0.250000
-0.125000
0.062500
-0.125000
-0.125000
-0.125000
-0.062500
-0.125000
-0.125000
-0.062500
-0.125000
-0.125000
-0.015625
-0.125000
-0.062500
0.125000
-0.015625
-0.062500
-0.031250
-0.062500
0.250000
-0.062500
-0.031250
-0.062500
0.062500
0.031250
-0.031250
0.125000
0.031250
-0.125000
-0.015625
0.031250
-0.015625
-0.125000
-0.031250
-0.031250
0.250000
-0.062500
-0.031250
-0.031250
-0.250000
-0.125000
-0.062500
0.250000
0.062500
-0.062500
0.031250
-0.015625
0.015625
-0.062500
-0.062500
0.250000
-0.062500
-0.015625
0.250000
0.125000
-0.062500
0.031250
0.125000
-0.015625
0.007812
-0.031250
0.125000
-0.125000
0.125000
-0.031250
0.062500
-0.125000
-0.062500
-0.062500
0.250000
0.250000
-0.125000
-0.031250
-0.125000
0.031250
0.062500
-0.062500
0.125000
0.062500
0.125000
-0.062500
0.062500
0.250000
-0.062500
-0.125000
-0.062500
-0.125000
0.062500
-0.250000
0.062500
-0.250000
-0.250000
0.062500
-0.062500
0.062500
-0.062500
-0.001953
-0.062500
0.062500
-0.031250
-0.031250
0.250000
0.031250
0.125000
-0.062500
-0.062500
0.031250
-0.125000
-0.125000
-0.031250
-0.062500
-0.015625
0.062500
-0.125000
-0.031250
-0.250000
-0.031250
-0.125000
-0.062500
-0.125000
-0.125000
0.250000
-0.125000
-0.125000
-0.062500
-0.031250
-0.250000
-0.250000
0.031250
-0.125000
0.125000
-0.125000
0.062500
-0.125000
0.250000
-0.031250
-0.062500
0.125000
-0.062500
0.500000
-0.031250
-0.031250
-0.062500
0.007812
0.125000
-0.007812
-0.062500
0.250000
-0.062500
0.062500
-0.125000
-0.031250
-0.250000
-0.062500
0.003906
0.250000
-0.062500
-0.125000
-0.031250
-0.125000
0.062500
-0.031250
-0.125000
0.062500
-0.031250
0.031250
-0.031250
-0.125000
-0.015625
-0.125000
0.125000
-0.003906
-0.031250
0.250000
0.125000
-0.062500
0.062500
0.125000
0.125000
-0.062500
0.015625
0.062500
-0.250000
-0.125000
-0.062500
0.007812
-0.125000
-0.031250
-0.031250
-0.001953
-0.062500
-0.031250
-0.015625
-0.125000
-0.062500
-0.000008
0.031250
-0.015625
0.062500
-0.031250
-0.062500
-0.250000
0.125000
-0.125000
-0.250000
-0.062500
0.062500
-0.015625
-0.062500
-0.062500
-0.062500
0.031250
-0.007812
-0.125000
0.062500
-0.062500
0.062500
-0.125000
0.250000
-0.062500
-0.250000
-0.250000
-0.062500
0.250000
0.031250
-0.062500
-0.031250
-0.125000
-0.062500
-0.031250
-0.062500
-0.062500
0.062500
-0.007812
0.015625
-0.125000
-0.062500
-0.062500
-0.125000
0.125000
0.125000
-0.015625
0.250000
0.250000
-0.062500
-0.031250
0.125000
0.062500
0.062500
0.062500
-0.062500
-0.125000
0.031250
-0.015625
-0.250000
-0.062500
-0.031250
0.062500
-0.015625
0.250000
-0.125000
-0.031250
-0.031250
-0.062500
0.250000
-0.062500
-0.007812
0.250000
-0.062500
0.015625
0.125000
-0.031250
-0.062500
-0.031250
0.250000
-0.062500
-0.062500
-0.031250
0.031250
0.125000
-0.062500
-0.062500
-0.062500
0.250000
-0.062500
0.062500
0.031250
0.125000
-0.062500
0.062500
0.125000
-0.031250
-0.031250
0.250000
-0.125000
-0.062500
0.031250
0.250000
0.250000
0.031250
-0.062500
0.125000
-0.250000
0.125000
-0.031250
0.031250
-0.015625
-0.125000
-0.062500
-0.031250
0.250000
0.031250
-0.031250
0.031250
-0.015625
-0.031250
-0.125000
0.015625
-0.125000
0.250000
0.125000
0.007812
0.015625
-0.031250
0.062500
-0.062500
0.015625
0.062500
-0.007812
0.031250
-0.062500
-0.031250
-0.062500
0.000488
-0.062500
-0.125000
0.015625
-0.062500
0.007812
-0.031250
-0.015625
0.250000
0.015625
0.125000
0.250000
-0.062500
0.031250
0.062500
-0.125000
-0.015625
-0.062500
-0.015625
0.015625
0.062500
0.015625
-0.007812
-0.031250
0.031250
-0.015625
-0.250000
-0.015625
0.003906
-0.125000
0.250000
-0.062500
-0.031250
-0.250000
-0.250000
-0.001953
-0.001953
-0.031250
-0.062500
-0.031250
0.015625
-0.125000
-0.062500
-0.062500
0.031250
-0.062500
-0.062500
-0.015625
-0.062500
-0.031250
0.062500
0.001953
-0.062500
0.125000
0.062500
-0.015625
-0.125000
-0.003906
-0.031250
-0.250000
-0.031250
0.062500
0.250000
-0.031250
-0.031250
0.062500
-0.062500
-0.125000
-0.031250
0.250000
-0.007812
-0.125000
0.031250
-0.015625
0.125000
-0.125000
-0.031250
0.250000
-0.031250
-0.125000
0.062500
0.250000
-0.062500
0.062500
0.250000
-0.015625
0.031250
-0.015625
0.125000
-0.062500
-0.031250
-0.031250
-0.031250
-0.062500
-0.062500
-0.031250
0.250000
0.125000
0.062500
0.031250
-0.062500
-0.125000
0.031250
0.062500
0.125000
0.125000
0.250000
0.062500
0.250000
-0.250000
-0.062500
-0.250000
-0.062500
0.007812
0.062500
-0.031250
0.125000
-0.125000
0.031250
-0.062500
0.001953
0.125000
-0.015625
-0.125000
-0.062500
-0.007812
0.125000
0.250000
0.125000
-0.031250
0.062500
-0.125000
-0.062500
0.015625
0.125000
-0.062500
-0.125000
-0.062500
0.250000
-0.062500
0.062500
0.007812
-0.125000
-0.062500
0.015625
-0.062500
-0.250000
-0.031250
-0.125000
-0.125000
0.062500
-0.062500
-0.062500
-0.125000
0.125000
0.125000
-0.062500
0.062500
-0.031250
-0.015625
-0.125000
-0.250000
-0.125000
-0.125000
0.250000
-0.031250
-0.007812
-0.031250
-0.125000
-0.031250
-0.062500
-0.015625
-0.062500
0.000977
0.031250
-0.015625
-0.015625
0.125000
-0.062500
-0.015625
-0.062500
0.125000
-0.031250
-0.125000
-0.015625
-0.125000
-0.125000
0.125000
-0.007812
0.250000
-0.125000
-0.003906
0.031250
-0.000488
-0.125000
-0.031250
-0.125000
-0.125000
0.062500
-0.062500
0.125000
-0.031250
-0.062500
-0.003906
0.125000
-0.125000
-0.125000
-0.031250
0.062500
0.250000
-0.031250
-0.062500
-0.031250
-0.250000
-0.062500
-0.062500
0.250000
-0.125000
0.031250
-0.031250
0.062500
-0.062500
0.015625
0.062500
-0.062500
-0.062500
0.031250
0.062500
0.250000
-0.125000
-0.062500
-0.125000
-0.015625
0.031250
0.125000
0.062500
-0.062500
-0.250000
0.062500
-0.062500
0.250000
-0.062500
-0.015625
0.031250
-0.062500
0.062500
-0.062500
0.125000
-0.125000
-0.000122
0.125000
-0.125000
-0.031250
-0.031250
-0.125000
-0.031250
-0.031250
-0.031250
0.125000
-0.015625
-0.062500
0.007812
-0.250000
-0.062500
0.062500
-0.125000
-0.125000
-0.062500
0.250000
0.125000
-0.007812
-0.031250
-0.125000
-0.125000
0.125000
0.250000
-0.031250
0.250000
-0.062500
0.062500
-0.062500
-0.250000
-0.125000
-0.031250
-0.000488
-0.125000
-0.062500
-0.031250
-0.062500
-0.062500
0.125000
0.125000
-0.062500
-0.062500
-0.062500
-0.062500
-0.031250
0.062500
-0.031250
0.062500
-0.015625
-0.007812
-0.250000
-0.125000
-0.062500
0.125000
-0.000122
0.125000
-0.062500
0.031250
-0.125000
-0.062500
-0.062500
-0.003906
0.125000
-0.062500
-0.007812
-0.125000
-0.062500
-0.062500
0.031250
-0.125000
-0.125000
0.007812
0.125000
-0.062500
-0.250000
-0.062500
-0.007812
0.125000
-0.125000
-0.125000
-0.062500
-0.062500
-0.062500
-0.062500
0.250000
0.250000
-0.250000
-0.015625
-0.250000
-0.062500
0.031250
-0.125000
-0.031250
0.062500
0.250000
0.031250
0.062500
-0.250000
-0.031250
-0.250000
-0.031250
0.125000
0.250000
-0.125000
0.062500
-0.250000
-0.125000
-0.062500
0.031250
0.125000
-0.125000
-0.125000
-0.062500
0.250000
-0.031250
-0.031250
-0.250000
0.031250
-0.015625
-0.125000
-0.031250
0.015625
-0.250000
-0.125000
-0.062500
-0.062500
0.125000
-0.125000
0.062500
0.031250
-0.250000
-0.031250
0.062500
-0.062500
-0.125000
-0.250000
-0.250000
-0.250000
0.250000
-0.031250
-0.062500
-0.250000
0.031250
0.250000
-0.031250
0.250000
-0.007812
0.031250
-0.125000
-0.125000
-0.062500
-0.062500
0.125000
-0.062500
0.125000
-0.062500
-0.125000
-0.062500
-0.125000
0.125000
-0.031250
-0.125000
0.250000
-0.125000
0.062500
0.250000
-0.031250
-0.250000
-0.062500
0.250000
-0.250000
-0.062500
-0.031250
-0.125000
-0.015625
0.250000
-0.125000
-0.125000
-0.125000
-0.015625
0.062500
-0.031250
-0.250000
-0.031250
0.031250
-0.125000
-0.015625
-0.125000
0.250000
-0.125000
-0.015625
-0.031250
0.125000
-0.125000
-0.125000
-0.003906
-0.062500
-0.250000
0.062500
-0.062500
-0.007812
-0.250000
-0.062500
-0.062500
0.250000
-0.125000
-0.031250
-0.031250
-0.125000
-0.062500
-0.062500
0.062500
-0.250000
0.015625
0.250000
0.031250
0.062500
-0.250000
-0.015625
-0.250000
-0.031250
-0.062500
0.250000
-0.015625
0.250000
-0.250000
-0.125000
-0.062500
0.125000
0.031250
-0.031250
0.015625
-0.125000
-0.125000
-0.062500
0.000977
-0.062500
-0.007812
0.500000
-0.125000
-0.125000
0.015625
-0.250000
-0.015625
-0.062500
-0.031250
0.125000
0.007812
-0.250000
0.062500
-0.125000
-0.062500
-0.031250
-0.125000
-0.125000
-0.125000
0.500000
0.125000
0.250000
-0.007812
-0.031250
0.125000
0.062500
0.250000
-0.062500
0.062500
-0.015625
0.031250
-0.031250
0.015625
-0.031250
-0.062500
-0.250000
-0.031250
0.250000
-0.031250
-0.062500
-0.007812
0.125000
0.125000
0.031250
0.125000
-0.250000
-0.015625
-0.250000
-0.031250
-0.125000
-0.007812
-0.015625
0.250000
-0.125000
-0.031250
-0.062500
0.250000
-0.062500
0.250000
-0.062500
-0.125000
0.125000
0.031250
0.062500
-0.007812
0.250000
-0.062500
-0.015625
0.125000
-0.125000
-0.062500
0.125000
0.003906
-0.015625
0.062500
0.500000
-0.125000
-0.125000
-0.062500
0.125000
-0.062500
-0.250000
-0.031250
-0.062500
-0.250000
-0.031250
-0.125000
0.125000
0.250000
0.250000
-0.015625
0.125000
-0.125000
0.062500
-0.015625
0.062500
-0.125000
0.125000
-0.015625
0.125000
0.031250
-0.062500
-0.125000
-0.125000
0.125000
0.062500
0.250000
0.125000
-0.062500
0.015625
0.062500
-0.031250
0.062500
-0.062500
0.031250
-0.125000
0.062500
-0.062500
-0.007812
0.062500
-0.031250
0.062500
-0.015625
-0.062500
0.031250
-0.125000
-0.031250
-0.062500
-0.125000
-0.062500
-0.062500
0.125000
0.062500
-0.062500
-0.031250
-0.125000
-0.062500
-0.125000
-0.125000
0.031250
-0.031250
0.015625
-0.007812
-0.031250
-0.250000
0.125000
0.031250
0.062500
0.250000
-0.062500
0.125000
-0.007812
0.015625
-0.031250
-0.125000
-0.125000
-0.125000
0.125000
-0.015625
-0.062500
-0.062500
0.125000
0.125000
-0.062500
-0.031250
-0.125000
-0.031250
0.062500
-0.125000
-0.062500
0.007812
-0.125000
0.031250
-0.125000
-0.125000
-0.031250
0.062500
-0.062500
0.031250
-0.031250
0.125000
-0.125000
-0.062500
-0.125000
-0.007812
0.125000
-0.062500
-0.125000
0.125000
-0.001953
-0.062500
0.250000
-0.062500
-0.031250
0.007812
0.250000
0.062500
-0.250000
-0.015625
0.250000
0.125000
0.125000
-0.062500
0.125000
-0.250000
-0.062500
-0.062500
0.250000
0.125000
0.250000
0.015625
0.062500
-0.125000
-0.031250
0.062500
0.125000
-0.031250
0.250000
0.031250
0.125000
-0.062500
-0.062500
-0.125000
-0.062500
0.062500
0.125000
0.250000
0.250000
-0.031250
-0.062500
0.031250
-0.007812
0.125000
-0.062500
-0.062500
-0.007812
0.125000
0.031250
0.125000
-0.062500
-0.007812
-0.031250
-0.250000
-0.015625
-0.031250
-0.007812
-0.031250
-0.031250
-0.062500
0.125000
-0.250000
0.125000
-0.031250
0.062500
-0.125000
-0.250000
-0.015625
-0.015625
-0.125000
-0.125000
-0.062500
0.062500
-0.031250
-0.125000
-0.250000
-0.125000
0.125000
-0.001953
0.250000
-0.062500
-0.062500
-0.062500
0.062500
-0.062500
-0.062500
0.125000
-0.031250
0.062500
-0.031250
-0.031250
-0.062500
-0.125000
-0.000977
-0.031250
0.125000
-0.031250
-0.015625
0.125000
0.250000
-0.015625
-0.125000
-0.031250
0.250000
-0.062500
-0.125000
-0.015625
-0.062500
-0.062500
-0.031250
-0.031250
-0.001953
-0.062500
-0.031250
-0.015625
-0.007812
-0.031250
-0.062500
-0.062500
-0.031250
0.062500
-0.031250
0.250000
0.031250
-0.031250
0.062500
0.062500
0.062500
-0.250000
-0.062500
0.250000
0.062500
0.062500
-0.062500
-0.031250
-0.125000
-0.062500
-0.125000
0.250000
0.125000
0.250000
-0.015625
-0.125000
-0.031250
0.031250
0.031250
0.125000
-0.125000
0.250000
-0.031250
0.062500
-0.062500
-0.125000
0.015625
-0.062500
0.007812
0.031250
0.125000
0.125000
-0.062500
0.015625
0.125000
0.062500
0.062500
-0.125000
-0.062500
-0.015625
0.062500
0.031250
-0.062500
-0.125000
0.007812
0.250000
-0.125000
-0.062500
-0.031250
-0.062500
-0.062500
-0.125000
-0.031250
-0.062500
-0.125000
-0.062500
-0.031250
-0.031250
-0.031250
-0.031250
-0.062500
-0.125000
0.031250
0.015625
-0.250000
0.250000
-0.062500
-0.015625
-0.250000
-0.250000
0.062500
-0.062500
0.250000
-0.125000
-0.015625
-0.062500
-0.250000
-0.031250
-0.031250
0.001953
-0.031250
0.250000
-0.062500
-0.015625
0.062500
-0.250000
0.250000
0.000488
0.250000
-0.125000
-0.031250
-0.125000
0.250000
-0.125000
-0.125000
-0.062500
0.125000
-0.062500
-0.007812
-0.125000
-0.125000
-0.062500
0.007812
-0.031250
-0.062500
-0.031250
-0.062500
0.031250
-0.031250
0.125000
-0.015625
-0.062500
0.125000
-0.031250
-0.015625
0.250000
0.125000
-0.062500
-0.007812
0.250000
-0.031250
-0.007812
-0.062500
0.250000
-0.125000
-0.250000
-0.062500
-0.062500
-0.125000
-0.031250
-0.031250
0.125000
0.250000
0.125000
0.015625
-0.250000
-0.031250
-0.031250
0.062500
0.062500
-0.062500
0.250000
-0.015625
0.125000
-0.125000
-0.031250
-0.125000
-0.062500
0.125000
0.125000
-0.015625
0.125000
-0.062500
-0.125000
-0.062500
0.125000
0.062500
-0.125000
-0.062500
-0.031250
-0.062500
-0.007812
-0.125000
-0.007812
0.000122
0.250000
0.062500
-0.031250
-0.031250
-0.062500
-0.015625
-0.015625
-0.062500
0.062500
-0.125000
-0.015625
-0.015625
-0.015625
-0.125000
0.125000
-0.062500
-0.125000
0.062500
0.125000
-0.125000
0.500000
-0.125000
-0.062500
-0.125000
-0.250000
0.125000
-0.062500
0.250000
-0.015625
0.062500
0.007812
0.250000
-0.031250
-0.062500
-0.062500
-0.062500
0.250000
-0.062500
-0.062500
0.062500
0.250000
0.250000
0.015625
0.250000
-0.062500
-0.062500
-0.250000
-0.062500
-0.125000
-0.062500
-0.062500
0.250000
0.015625
-0.015625
-0.062500
-0.125000
-0.015625
0.125000
-0.062500
0.007812
0.125000
-0.031250
0.125000
-0.003906
0.250000
-0.031250
-0.125000
0.062500
-0.031250
-0.125000
0.250000
0.125000
-0.015625
0.031250
0.250000
-0.125000
0.125000
-0.031250
0.125000
-0.062500
-0.250000
-0.062500
-0.031250
-0.250000
-0.015625
-0.062500
0.250000
0.250000
-0.125000
0.007812
-0.062500
-0.125000
-0.003906
-0.015625
0.003906
-0.062500
0.250000
0.125000
-0.062500
0.062500
-0.031250
-0.250000
-0.015625
0.031250
-0.031250
-0.031250
0.062500
0.062500
-0.125000
0.062500
0.062500
0.500000
-0.031250
0.062500
-0.062500
-0.125000
-0.062500
0.250000
0.125000
-0.062500
0.015625
0.125000
-0.125000
-0.001953
0.031250
-0.062500
-0.062500
-0.007812
0.062500
0.125000
0.062500
0.031250
-0.003906
-0.015625
-0.062500
-0.062500
-0.125000
0.015625
-0.062500
-0.062500
0.250000
-0.062500
-0.015625
-0.125000
-0.062500
0.062500
0.250000
0.125000
-0.062500
-0.062500
-0.015625
0.250000
-0.031250
-0.062500
-0.250000
-0.062500
0.250000
-0.062500
-0.031250
-0.015625
0.062500
0.062500
-0.015625
0.500000
-0.125000
-0.031250
-0.125000
-0.031250
-0.062500
0.062500
-0.031250
0.125000
0.125000
-0.062500
-0.015625
0.125000
-0.015625
0.015625
-0.062500
0.125000
0.015625
-0.031250
0.125000
-0.007812
0.125000
-0.062500
-0.250000
0.062500
-0.062500
-0.015625
0.500000
0.250000
-0.062500
0.062500
0.062500
-0.062500
0.007812
-0.062500
0.250000
0.125000
-0.250000
-0.031250
-0.007812
-0.031250
-0.031250
-0.062500
0.125000
0.062500
0.250000
-0.031250
0.031250
-0.062500
0.062500
-0.031250
0.031250
-0.015625
-0.015625
-0.062500
0.125000
0.250000
-0.031250
-0.250000
-0.062500
0.125000
-0.031250
0.250000
0.125000
-0.062500
0.031250
-0.062500
0.007812
0.062500
-0.062500
0.015625
-0.031250
0.062500
-0.015625
0.125000
0.250000
-0.062500
0.125000
-0.250000
-0.031250
-0.015625
-0.250000
-0.031250
-0.062500
-0.062500
-0.031250
0.015625
0.062500
0.001953
-0.062500
-0.062500
-0.125000
-0.062500
-0.062500
-0.031250
0.015625
-0.062500
-0.062500
-0.062500
-0.031250
-0.250000
0.125000
0.015625
-0.031250
0.125000
-0.062500
0.031250
-0.125000
-0.062500
-0.062500
-0.062500
-0.125000
-0.062500
0.125000
-0.062500
-0.062500
-0.031250
0.250000
0.125000
-0.031250
0.015625
-0.125000
-0.015625
0.125000
-0.031250
-0.015625
-0.062500
-0.125000
-0.125000
-0.031250
-0.062500
-0.015625
0.031250
-0.015625
0.062500
-0.031250
0.125000
-0.062500
-0.031250
-0.007812
0.015625
0.250000
-0.062500
-0.125000
0.125000
-0.062500
-0.062500
0.250000
-0.031250
-0.062500
0.125000
0.062500
0.007812
-0.250000
-0.007812
0.125000
0.125000
0.015625
-0.031250
0.062500
-0.125000
-0.125000
-0.125000
-0.062500
0.007812
0.125000
-0.031250
0.031250
-0.125000
-0.031250
-0.250000
-0.003906
0.125000
-0.125000
-0.015625
-0.125000
0.250000
-0.062500
0.062500
-0.062500
0.125000
-0.125000
0.125000
-0.250000
-0.125000
0.250000
-0.062500
0.125000
-0.007812
-0.125000
0.007812
-0.031250
0.062500
0.003906
-0.250000
-0.062500
0.015625
0.250000
0.007812
-0.031250
0.062500
-0.062500
-0.062500
-0.031250
-0.062500
-0.125000
0.125000
-0.031250
0.031250
-0.125000
-0.062500
-0.125000
-0.125000
-0.125000
-0.031250
0.125000
0.125000
-0.062500
-0.031250
-0.015625
-0.125000
0.062500
-0.015625
-0.125000
-0.125000
-0.062500
-0.031250
0.031250
0.125000
-0.031250
-0.015625
-0.250000
-0.125000
0.125000
-0.062500
-0.062500
-0.062500
0.250000
0.125000
-0.125000
0.125000
-0.062500
-0.015625
0.500000
-0.125000
-0.062500
-0.031250
-0.125000
-0.062500
-0.031250
-0.125000
-0.062500
0.003906
-0.062500
-0.062500
-0.062500
-0.125000
-0.062500
-0.031250
0.031250
0.015625
-0.003906
-0.031250
-0.125000
0.250000
-0.031250
-0.062500
0.250000
-0.031250
-0.125000
0.125000
0.125000
0.250000
-0.031250
-0.015625
0.250000
-0.125000
0.001953
-0.062500
0.062500
0.062500
-0.015625
-0.015625
0.125000
0.250000
0.031250
0.031250
-0.250000
-0.031250
0.031250
-0.031250
0.003906
0.062500
0.250000
-0.031250
-0.250000
-0.007812
-0.125000
0.031250
-0.062500
-0.062500
-0.062500
-0.125000
0.125000
-0.250000
0.062500
-0.015625
0.125000
-0.015625
-0.125000
-0.031250
-0.125000
-0.031250
-0.031250
-0.250000
-0.250000
-0.015625
0.125000
0.062500
-0.031250
-0.031250
-0.015625
-0.062500
-0.015625
-0.031250
0.125000
0.062500
-0.062500
-0.031250
-0.250000
-0.062500
-0.250000
-0.031250
0.125000
-0.031250
-0.062500
-0.125000
0.250000
-0.062500
-0.125000
0.125000
-0.062500
0.062500
-0.250000
0.125000
-0.125000
-0.031250
0.031250
0.125000
-0.031250
-0.062500
-0.062500
-0.015625
0.250000
-0.015625
-0.031250
-0.125000
0.031250
0.031250
-0.031250
0.062500
0.250000
-0.125000
0.125000
0.250000
-0.062500
-0.125000
-0.062500
0.062500
-0.125000
-0.125000
-0.062500
-0.125000
-0.125000
0.062500
-0.062500
-0.250000
0.125000
-0.062500
0.062500
0.015625
-0.125000
-0.031250
-0.250000
0.250000
0.031250
-0.125000
0.250000
0.250000
-0.125000
0.031250
0.125000
0.031250
-0.125000
-0.062500
-0.031250
-0.250000
-0.125000
-0.031250
0.125000
-0.062500
-0.062500
-0.062500
0.125000
-0.062500
-0.031250
0.031250
-0.250000
0.031250
-0.031250
-0.125000
-0.125000
0.250000
0.250000
-0.125000
-0.250000
-0.062500
-0.062500
0.062500
-0.031250
-0.062500
-0.062500
-0.125000
0.062500
-0.125000
0.062500
-0.015625
0.250000
0.062500
-0.125000
0.062500
-0.062500
-0.125000
-0.031250
-0.250000
-0.250000
0.000977
0.125000
0.062500
-0.015625
-0.015625
-0.125000
-0.125000
-0.015625
-0.031250
-0.031250
0.125000
-0.250000
-0.001953
-0.250000
-0.062500
0.007812
-0.125000
-0.015625
-0.062500
0.062500
-0.125000
-0.250000
-0.125000
-0.062500
-0.125000
-0.125000
-0.062500
-0.250000
0.250000
-0.062500
-0.125000
0.003906
0.003906
-0.031250
-0.031250
-0.125000
-0.062500
0.250000
-0.015625
-0.062500
-0.062500
0.031250
0.062500
0.031250
0.062500
-0.062500
-0.062500
0.062500
-0.250000
-0.062500
0.007812
-0.062500
-0.031250
-0.125000
-0.062500
-0.062500
-0.125000
-0.250000
0.125000
-0.125000
-0.125000
0.062500
-0.007812
0.031250
-0.015625
-0.031250
-0.062500
-0.125000
0.125000
-0.125000
-0.062500
0.250000
-0.062500
-0.015625
0.125000
0.125000
0.062500
0.125000
-0.125000
0.062500
-0.250000
-0.250000
-0.062500
0.062500
-0.125000
-0.062500
-0.015625
-0.062500
0.250000
0.125000
0.015625
-0.125000
-0.031250
0.125000
0.062500
0.250000
0.500000
0.062500
-0.007812
-0.031250
0.125000
-0.031250
-0.007812
-0.062500
-0.062500
0.062500
-0.062500
-0.125000
-0.250000
0.062500
-0.031250
0.062500
0.062500
-0.031250
0.031250
-0.007812
-0.062500
0.015625
-0.250000
0.062500
-0.031250
-0.000488
0.062500
-0.125000
0.015625
-0.015625
-0.062500
-0.015625
-0.062500
0.125000
0.500000
0.250000
0.031250
-0.500000
-0.031250
-0.250000
-0.062500
-0.031250
-0.062500
0.125000
-0.125000
-0.250000
-0.062500
-0.031250
-0.125000
-0.250000
-0.125000
-0.500000
0.125000
-0.125000
-0.062500
0.125000
0.250000
-0.015625
-0.125000
-0.003906
-0.062500
-0.062500
-0.062500
-0.062500
-0.062500
-0.125000
-0.062500
-0.031250
0.500000
-0.031250
-0.062500
0.250000
-0.015625
-0.062500
-0.250000
-0.015625
-0.031250
0.125000
-0.015625
-0.062500
0.125000
-0.250000
0.015625
-0.062500
0.125000
0.062500
-0.031250
0.250000
-0.007812
0.007812
-0.125000
-0.250000
0.250000
0.062500
-0.015625
0.250000
0.125000
-0.062500
0.031250
0.015625
0.062500
0.031250
-0.001953
-0.125000
0.062500
0.125000
-0.125000
0.062500
-0.250000
-0.062500
-0.031250
0.500000
0.003906
-0.250000
-0.062500
-1.000000
-0.125000
-0.062500
0.125000
0.500000
-0.250000
-0.003906
0.500000
-0.031250
-0.250000
-0.031250
-0.500000
-0.125000
-0.500000
-0.500000
0.250000
0.062500
-0.250000
-0.250000
-0.125000
-0.062500
-0.007812
-0.062500
-0.500000
-0.031250
-0.125000
-0.250000
-1.000000
-1.000000
-0.062500
0.031250
0.250000
-0.031250
-0.031250
-0.125000
-0.062500
-0.062500
-0.062500
0.062500
-0.250000
-0.250000
-0.125000
-0.500000
-0.062500
0.125000
-0.031250
-0.015625
-0.062500
-0.125000
-0.500000
-0.125000
-0.062500
0.125000
0.250000
0.003906
-0.250000
-1.000000
0.250000
-0.015625
-0.250000
-0.250000
-0.500000
-0.062500
-0.015625
-0.062500
-0.250000
-0.500000
-0.062500
-0.125000
-0.125000
-0.250000
0.250000
0.031250
0.500000
-0.062500
-0.062500
-0.250000
-0.500000
-0.062500
-0.500000
-0.062500
-0.125000
-0.125000
-0.062500
0.125000
-1.000000
-0.250000
0.500000
-0.015625
-0.250000
-0.250000
-0.062500
-0.125000
-0.125000
-0.500000
-0.062500
-0.250000
0.250000
-0.125000
-0.015625
-0.250000
0.250000
-0.031250
-0.125000
0.062500
-0.250000
-1.000000
-0.031250
-0.500000
-1.000000
-0.250000
-0.031250
-0.062500
-0.500000
-0.062500
0.062500
0.500000
-0.031250
-0.500000
-0.007812
-0.500000
0.001953
-0.015625
-1.000000
-1.000000
-0.500000
-0.500000
0.031250
-0.125000
-0.250000
0.062500
0.062500
-0.500000
-2.000000
-0.250000
0.250000
-0.500000
-0.500000
-0.500000
-0.031250
0.125000
-1.000000
-0.007812
-1.000000
-0.031250
-1.000000
-0.250000
0.125000
-1.000000
-0.031250
-0.500000
0.250000
-0.062500
-0.062500
-0.500000
-0.031250
-0.062500
-0.031250
-0.015625
0.125000
-1.000000
-0.125000
-2.000000
-0.062500
-0.250000
-0.062500
-0.125000
-0.500000
-0.125000
-1.000000
-0.250000
-0.031250
-0.500000
-0.125000
0.125000
-0.500000
-0.500000
0.062500
-0.062500
-1.000000
0.500000
-0.500000
0.031250
-0.062500
0.250000
0.015625
0.250000
-0.015625
-0.062500
-0.125000
0.250000
-0.500000
-0.125000
0.031250
0.250000
-0.062500
-1.000000
0.250000
-0.031250
-0.500000
-0.015625
-0.250000
-0.125000
-0.500000
0.125000
-0.500000
-0.031250
0.500000
-0.062500
0.125000
-0.500000
-0.500000
-0.125000
-0.062500
-0.250000
-0.031250
-0.250000
-0.007812
-0.125000
-0.015625
-0.500000
0.125000
-0.062500
-0.125000
0.125000
-0.500000
-0.500000
-0.015625
-1.000000
0.125000
-1.000000
-0.125000
-0.062500
-0.500000
-0.062500
-0.125000
-0.250000
-0.250000
-0.500000
-0.062500
-0.500000
0.031250
-0.125000
-0.500000
-1.000000
-0.500000
-0.250000
-0.015625
-0.250000
-0.500000
-0.007812
0.500000
-0.500000
-1.000000
-0.125000
-0.500000
-1.000000
-1.000000
-0.250000
-0.125000
0.250000
-1.000000
-0.062500
-1.000000
-0.007812
0.125000
-0.250000
-0.031250
-2.000000
-0.062500
0.031250
-0.250000
-0.015625
-0.125000
-0.500000
-0.125000
0.015625
-0.031250
-0.015625
-0.500000
-0.500000
-0.062500
-0.500000
-0.062500
-0.250000
-0.125000
-0.125000
-0.500000
0.062500
-0.500000
-1.000000
-0.062500
-0.500000
-0.500000
-0.500000
-1.000000
-0.500000
-0.250000
-0.031250
-1.000000
0.250000
-0.500000
-0.125000
-0.125000
-0.062500
-0.062500
0.500000
-0.062500
-0.015625
-0.125000
-0.250000
-0.500000
-0.125000
-0.250000
-0.250000
-0.125000
-0.500000
0.125000
-0.125000
-0.250000
-0.031250
-0.500000
-0.000977
-0.500000
-0.003906
-0.125000
0.125000
-0.125000
-0.062500
-0.250000
-0.500000
-0.062500
-0.250000
-0.031250
-0.500000
-0.007812
-0.015625
-0.125000
-0.250000
-0.062500
-0.500000
-0.500000
-0.062500
-0.250000
1.000000
-0.500000
-0.062500
-0.000015
-0.500000
-0.250000
-0.500000
-0.125000
-0.062500
0.007812
-0.500000
-0.031250
-1.000000
-0.250000
-1.000000
-0.031250
0.250000
0.007812
-0.031250
-0.125000
-1.000000
-0.500000
0.062500
-0.250000
-0.250000
-0.250000
-0.015625
0.500000
-0.015625
-0.500000
-0.250000
-1.000000
-1.000000
-0.500000
-0.250000
-0.062500
-0.250000
-1.000000
-0.062500
-0.062500
-0.031250
0.250000
-0.250000
0.250000
-1.000000
-0.062500
-0.500000
-0.007812
-0.007812
-0.250000
-0.007812
-0.125000
-0.062500
-0.062500
-0.125000
-1.000000
-0.125000
-0.062500
-0.125000
-0.062500
-0.500000
-0.062500
-0.250000
-0.500000
0.500000
0.007812
-1.000000
-0.031250
-0.500000
0.031250
-0.500000
-1.000000
-0.125000
-0.500000
-0.031250
-0.500000
0.250000
-0.250000
-0.031250
-0.062500
0.500000
-0.250000
0.062500
-0.007812
-0.062500
-0.125000
0.125000
-0.250000
-0.125000
-0.125000
0.250000
-0.007812
-0.500000
-0.125000
-0.031250
-0.250000
-0.031250
-1.000000
0.500000
-0.250000
-0.125000
-0.250000
0.500000
-0.500000
-0.062500
-0.500000
-0.125000
-0.250000
-0.125000
-0.125000
-0.015625
-0.062500
-0.062500
-0.500000
-0.250000
-0.062500
-0.500000
-0.500000
-0.031250
-0.250000
0.031250
-1.000000
1.000000
0.015625
-0.500000
-0.250000
-1.000000
-0.125000
-0.015625
0.250000
-0.500000
-0.031250
0.500000
-0.500000
-0.250000
-0.062500
0.125000
0.007812
-0.125000
0.015625
-1.000000
-0.250000
0.250000
-0.250000
-0.500000
-0.250000
-0.125000
-0.250000
-0.500000
0.062500
-0.250000
-2.000000
-0.250000
0.250000
-0.500000
0.003906
-0.250000
0.250000
-0.062500
-0.250000
-0.031250
-1.000000
-0.250000
0.125000
-1.000000
-0.125000
-1.000000
-0.250000
-0.062500
-0.250000
0.500000
-0.031250
-0.062500
-0.125000
-0.062500
-0.062500
0.125000
-0.031250
0.125000
-0.031250
-0.500000
-0.015625
-0.250000
-0.500000
-0.007812
-0.500000
-0.250000
-0.062500
-1.000000
-0.500000
-1.000000
0.250000
0.500000
-0.500000
-0.031250
-1.000000
-0.500000
-0.031250
-0.062500
-0.062500
-0.125000
-0.250000
-0.500000
-0.015625
-0.062500
-0.001953
-0.250000
0.250000
-0.125000
-0.250000
0.250000
-0.062500
-1.000000
-0.250000
-0.125000
-1.000000
-0.125000
-1.000000
0.250000
-0.125000
0.125000
-0.500000
0.500000
0.125000
-0.031250
-1.000000
-0.500000
-0.250000
0.250000
-0.125000
0.062500
-0.125000
-0.250000
-0.500000
-0.125000
-0.062500
-0.250000
-0.500000
-0.062500
-0.125000
0.000977
-0.500000
0.250000
-0.031250
-0.250000
-0.500000
-0.062500
-0.125000
-0.000977
0.250000
-0.500000
-0.062500
1.000000
0.062500
-0.031250
-0.062500
-1.000000
0.031250
-0.125000
-0.250000
-1.000000
-0.062500
-0.500000
0.031250
-0.250000
0.500000
-0.125000
-1.000000
0.125000
-0.250000
0.125000
-0.250000
-0.015625
-0.500000
0.125000
-0.125000
-1.000000
0.250000
-0.062500
-0.250000
-0.007812
-0.500000
-0.062500
-1.000000
-0.500000
-0.031250
-0.001953
-0.250000
-0.062500
0.007812
-0.250000
-0.062500
0.062500
-0.062500
-0.031250
-1.000000
-0.250000
-0.125000
0.250000
-0.031250
-0.125000
-0.031250
0.015625
-0.500000
-0.007812
0.250000
-0.500000
-0.031250
0.500000
0.125000
-1.000000
0.125000
-0.500000
-1.000000
-0.125000
0.062500
-0.250000
-2.000000
-0.062500
-0.031250
0.500000
-0.125000
0.500000
-0.125000
-0.125000
0.003906
-0.500000
0.250000
0.062500
-0.250000
0.007812
-0.125000
-0.500000
-0.250000
-0.031250
0.500000
-0.062500
0.125000
0.062500
-0.125000
-0.031250
0.031250
-0.125000
1.000000
-0.015625
-0.125000
-1.000000
-0.500000
-0.062500
-0.125000
0.031250
-0.062500
0.015625
-0.125000
-0.062500
-0.062500
-0.250000
-0.500000
-0.031250
-0.125000
0.250000
-0.125000
-0.125000
-0.015625
-0.062500
-1.000000
-1.000000
-0.125000
0.003906
-0.500000
-0.250000
-0.062500
0.500000
-0.250000
-0.250000
-0.031250
0.125000
-0.062500
-0.062500
-1.000000
-0.015625
-0.125000
-0.250000
0.125000
-0.500000
0.500000
0.031250
-0.125000
-0.062500
-1.000000
-0.250000
0.250000
0.500000
-2.000000
0.500000
0.007812
-0.250000
0.250000
-0.031250
1.000000
-0.062500
-0.250000
-0.062500
0.062500
-1.000000
-0.062500
-0.500000
0.125000
-0.031250
-0.125000
0.125000
-0.125000
0.062500
-0.062500
0.031250
0.250000
-0.250000
-0.015625
-1.000000
-0.125000
0.500000
-0.125000
-0.007812
-0.125000
-0.250000
0.125000
-0.250000
-0.062500
-0.500000
0.500000
-0.250000
-0.500000
-0.500000
0.125000
-0.125000
-0.250000
-0.125000
-0.250000
-0.125000
-0.062500
0.125000
-0.031250
1.000000
-0.015625
-0.007812
-0.125000
-0.500000
-0.125000
-0.250000
-1.000000
0.500000
-0.015625
0.031250
-0.125000
-0.125000
1.000000
-0.062500
-0.125000
0.007812
0.125000
-0.125000
-0.250000
-0.500000
1.000000
-0.062500
-0.500000
-1.000000
-0.500000
-0.250000
0.015625
-0.125000
-0.031250
-0.125000
-0.250000
-0.062500
-0.125000
0.500000
-0.500000
-0.125000
-0.125000
0.125000
0.500000
-1.000000
-0.031250
-0.250000
-0.500000
-0.250000
-0.125000
-0.031250
0.062500
-0.500000
0.007812
-0.500000
-0.500000
0.125000
-0.062500
0.500000
0.031250
-0.062500
-1.000000
0.031250
0.031250
0.250000
-0.003906
-1.000000
-0.500000
0.007812
0.250000
0.250000
0.015625
-0.500000
-0.125000
-0.250000
-1.000000
0.001953
-0.125000
-0.500000
0.125000
-0.062500
1.000000
-0.062500
1.000000
-0.015625
0.500000
-1.000000
-0.062500
-0.031250
-0.500000
-0.125000
-0.001953
0.125000
-0.062500
0.007812
-0.125000
-0.015625
0.015625
1.000000
-0.031250
-1.000000
-0.031250
-0.250000
-0.062500
0.500000
-0.500000
-0.250000
-0.500000
-1.000000
-0.031250
0.250000
0.062500
-0.031250
0.007812
-0.250000
-0.500000
-0.062500
-0.500000
0.500000
-0.062500
0.031250
-0.062500
0.250000
-0.062500
1.000000
-0.062500
-0.031250
-0.062500
-0.500000
-0.500000
0.007812
-0.250000
0.250000
-0.062500
-0.007812
0.250000
-0.031250
0.031250
-0.062500
-0.250000
0.500000
0.125000
-0.125000
-0.250000
-1.000000
0.125000
-0.031250
-0.250000
-1.000000
-0.500000
-1.000000
-0.125000
0.125000
-0.007812
-0.250000
0.500000
-0.062500
-0.062500
0.500000
-0.250000
-0.031250
-0.250000
0.500000
0.500000
-1.000000
0.015625
0.250000
-0.062500
0.500000
-0.250000
-0.062500
-0.250000
-0.031250
-0.015625
0.500000
0.250000
0.250000
-0.007812
0.500000
-0.007812
-0.062500
-0.125000
-0.062500
0.125000
0.250000
-0.062500
-0.125000
-1.000000
0.062500
0.250000
-0.125000
0.500000
-0.125000
0.500000
-0.500000
-1.000000
-0.500000
-0.125000
-1.000000
0.500000
-0.015625
1.000000
-0.031250
0.500000
-0.062500
1.000000
-0.500000
-0.015625
0.500000
0.250000
0.000488
0.003906
0.500000
-0.031250
-0.125000
-0.031250
0.015625
0.500000
-0.031250
-0.125000
-1.000000
-0.031250
-0.250000
-0.031250
-0.125000
0.125000
-0.125000
-0.250000
-0.500000
-0.031250
0.250000
0.062500
-0.500000
-1.000000
-1.000000
0.062500
0.062500
-0.125000
0.062500
0.500000
-0.062500
-0.062500
-0.500000
-0.125000
-0.125000
-0.062500
-0.015625
-0.015625
-0.125000
-0.250000
-0.125000
0.250000
-0.250000
-0.062500
0.125000
-1.000000
-0.015625
0.250000
-0.062500
-1.000000
-0.125000
-0.125000
-0.031250
-0.500000
-1.000000
0.500000
-0.031250
-0.500000
-0.500000
-0.125000
-0.250000
-0.125000
0.500000
-0.125000
-0.250000
0.500000
-0.031250
-0.015625
-0.031250
0.500000
0.031250
-0.250000
0.031250
1.000000
0.003906
0.015625
0.250000
-0.031250
0.500000
-0.062500
-0.062500
0.500000
-0.125000
-0.031250
0.125000
-0.250000
-0.125000
-0.062500
0.250000
-0.015625
-0.062500
0.125000
-0.500000
-0.500000
-0.500000
0.250000
-0.500000
-0.500000
-0.031250
-0.125000
0.250000
2.000000
-0.062500
1.000000
-0.250000
-0.031250
0.500000
-0.031250
-1.000000
-0.125000
-0.031250
0.500000
-0.062500
0.062500
-0.062500
-0.250000
0.062500
-0.015625
-1.000000
-0.500000
-0.062500
-0.062500
0.500000
-0.031250
-0.125000
-0.031250
-0.125000
-1.000000
-0.500000
-0.062500
-0.125000
-0.062500
-0.500000
-0.125000
-0.007812
-1.000000
-0.250000
-1.000000
-0.500000
-0.125000
-0.500000
-1.000000
0.250000
-0.250000
-0.125000
-0.015625
-0.062500
0.500000
-0.500000
-0.250000
-0.125000
-0.062500
-1.000000
-0.007812
-0.062500
-0.125000
-0.007812
-0.015625
-0.250000
0.250000
-0.250000
0.125000
-0.500000
-0.062500
-1.000000
-1.000000
-0.125000
-1.000000
-0.062500
-0.500000
-0.500000
-0.125000
-0.062500
-1.000000
-0.500000
0.500000
-0.125000
0.500000
-0.500000
-0.125000
-0.250000
-0.125000
1.000000
-0.125000
-0.015625
0.500000
-0.125000
-0.062500
-0.031250
-0.500000
-0.062500
-0.125000
0.250000
-0.125000
-0.500000
-0.062500
0.250000
-0.250000
0.500000
-0.125000
-0.125000
0.250000
0.062500
-0.031250
-0.250000
0.500000
0.250000
-0.062500
-0.125000
0.031250
-0.062500
-1.000000
-0.500000
1.000000
-0.250000
-0.500000
0.500000
0.250000
-0.125000
-1.000000
-0.250000
0.500000
-0.015625
-0.250000
-0.250000
-0.125000
-0.250000
-0.125000
-0.500000
-0.031250
-0.062500
-0.062500
-0.031250
-0.062500
-0.062500
1.000000
-1.000000
-0.062500
1.000000
0.015625
-0.062500
-0.062500
1.000000
-0.015625
0.031250
-0.031250
0.031250
-0.500000
-0.031250
-0.125000
-0.031250
-0.015625
-1.000000
-0.062500
-0.500000
-0.500000
0.031250
0.500000
0.031250
-0.062500
0.031250
0.500000
-0.500000
-0.250000
-0.250000
-0.500000
-0.125000
0.500000
-0.500000
0.500000
-0.031250
-0.062500
-1.000000
-0.250000
-0.500000
-0.125000
-0.015625
-0.003906
-0.500000
0.500000
-0.062500
-0.062500
-1.000000
-0.125000
-0.062500
0.500000
-0.031250
0.250000
-0.125000
-0.500000
-0.500000
-0.500000
-0.250000
-0.500000
-0.125000
-0.500000
-0.015625
0.125000
-0.250000
-0.500000
0.500000
-0.062500
-0.062500
-0.031250
-0.250000
-0.062500
-0.062500
-0.062500
-0.250000
-1.000000
-0.062500
-0.062500
-0.500000
-0.250000
0.500000
-0.031250
0.015625
0.250000
0.500000
-0.062500
-0.062500
-0.500000
-0.015625
-0.015625
-0.500000
0.500000
0.500000
-0.007812
-0.062500
0.007812
0.003906
0.250000
-0.500000
0.250000
-1.000000
0.062500
0.250000
-0.062500
-0.062500
-0.500000
0.125000
0.062500
-0.125000
-0.015625
-0.250000
-0.250000
-0.125000
-0.062500
-0.125000
-0.500000
-0.031250
-0.250000
-0.031250
-0.500000
0.031250
0.500000
-1.000000
-0.062500
1.000000
-0.500000
-0.062500
-0.007812
-0.125000
0.062500
0.062500
0.031250
-0.062500
0.500000
-0.250000
-0.062500
0.500000
-0.062500
-0.500000
-0.062500
-0.500000
-0.500000
0.250000
1.000000
-1.000000
0.007812
-0.500000
1.000000
1.000000
-0.500000
-0.500000
-0.125000
0.062500
-0.500000
-0.500000
0.125000
-0.062500
0.062500
-1.000000
-0.250000
-0.250000
-0.125000
-0.007812
-0.015625
-0.500000
-0.500000
-0.062500
-0.250000
-0.500000
-0.062500
0.062500
-0.250000
0.062500
1.000000
-0.125000
-0.250000
-1.000000
-0.250000
-0.250000
-1.000000
-0.500000
0.031250
-0.031250
-0.125000
-0.500000
-1.000000
0.125000
-0.031250
1.000000
-0.062500
-0.250000
-0.500000
0.015625
-0.031250
0.125000
-0.250000
-0.125000
-0.015625
-0.500000
0.250000
-0.500000
-0.007812
-0.250000
-0.031250
-0.031250
-0.062500
-0.031250
0.062500
-0.250000
-0.062500
-1.000000
0.500000
0.500000
-0.062500
-0.015625
-0.031250
-0.031250
-0.500000
-0.250000
1.000000
-0.500000
-0.500000
-0.250000
-0.250000
-0.015625
-1.000000
-0.125000
0.500000
-0.500000
0.500000
-0.500000
-0.250000
0.125000
-0.062500
0.031250
1.000000
-0.062500
0.250000
-0.015625
0.500000
-0.031250
0.250000
-1.000000
-0.000977
0.250000
-1.000000
-0.062500
-0.031250
-0.250000
0.062500
-0.031250
0.015625
-0.125000
0.500000
0.500000
-0.125000
-1.000000
-0.031250
-0.500000
0.031250
-0.500000
-1.000000
-0.500000
0.250000
-1.000000
-0.062500
0.500000
0.250000
1.000000
0.031250
-1.000000
-1.000000
-0.062500
0.500000
-1.000000
-1.000000
-0.031250
0.031250
-0.125000
-0.250000
-0.250000
-0.031250
-0.031250
-0.125000
-1.000000
-0.250000
-0.062500
-0.500000
-0.062500
-0.062500
-0.250000
0.125000
-0.125000
0.500000
-0.031250
-0.500000
-0.500000
-0.500000
-0.125000
-0.125000
-0.500000
-0.125000
-0.031250
-0.062500
-1.000000
-0.500000
0.001953
-0.031250
-0.500000
-0.015625
-0.125000
-1.000000
-0.125000
-0.062500
0.250000
-0.250000
-0.062500
-0.125000
-0.500000
0.500000
-1.000000
-0.125000
-0.125000
-0.007812
0.250000
-0.125000
-0.062500
-1.000000
0.250000
-0.062500
-0.500000
0.500000
0.500000
-0.031250
-0.250000
0.003906
-0.031250
-0.250000
0.062500
-0.000488
-0.500000
-0.500000
-1.000000
-1.000000
-0.031250
-0.500000
-0.500000
1.000000
-0.500000
0.500000
-0.500000
0.031250
-0.062500
-0.015625
-0.500000
-0.250000
-0.031250
-1.000000
-0.031250
-0.062500
-0.062500
-0.250000
0.031250
-0.015625
0.250000
-0.125000
-0.062500
-0.031250
-0.500000
0.062500
0.031250
0.062500
-0.062500
0.125000
0.500000
-0.125000
-0.500000
-0.031250
-0.062500
0.015625
-0.500000
-1.000000
-0.500000
-1.000000
-0.500000
-0.125000
0.125000
-0.500000
0.250000
-0.250000
-1.000000
-0.500000
0.015625
0.250000
-0.500000
-0.500000
-0.031250
0.062500
-2.000000
-0.250000
-1.000000
-0.031250
-0.125000
0.031250
-1.000000
0.250000
-0.062500
0.500000
0.062500
-0.062500
-0.250000
-1.000000
-0.125000
0.250000
-0.031250
-0.500000
-0.031250
-0.250000
-0.250000
-1.000000
-2.000000
-0.007812
-0.015625
-0.250000
-1.000000
-0.125000
0.500000
-0.062500
-0.500000
-0.031250
-0.062500
0.500000
-0.125000
-0.062500
-0.500000
1.000000
-0.125000
-0.125000
-0.250000
-0.500000
-0.000977
-0.015625
-0.062500
-0.250000
-0.500000
-0.062500
-0.062500
-0.500000
-0.250000
-0.062500
-0.250000
0.125000
-0.125000
-0.031250
-1.000000
0.007812
-0.031250
-0.500000
-0.062500
0.500000
-0.500000
-0.125000
-1.000000
-1.000000
-0.031250
-1.000000
-0.062500
1.000000
-0.125000
1.000000
-0.500000
0.250000
0.125000
-0.125000
-0.500000
-0.500000
-0.031250
-1.000000
-0.015625
-1.000000
-0.007812
-0.125000
1.000000
-0.125000
-0.062500
-1.000000
-0.062500
-0.062500
-0.250000
-0.015625
-0.062500
-0.015625
-0.062500
-0.500000
-0.062500
-0.062500
-1.000000
-0.031250
0.250000
-0.062500
-0.250000
-0.500000
-1.000000
-0.500000
-0.125000
-0.062500
-0.500000
-0.250000
0.500000
-0.500000
-0.500000
-1.000000
-0.125000
0.001953
-1.000000
-0.250000
-0.125000
-0.062500
-2.000000
-0.500000
-0.500000
-0.015625
-0.031250
-0.015625
-0.500000
0.007812
0.015625
0.125000
-1.000000
-0.062500
-0.500000
-0.125000
-0.062500
-0.250000
-0.062500
-0.500000
-0.500000
-0.500000
-0.125000
-0.500000
-1.000000
0.250000
-0.062500
-0.015625
-1.000000
0.250000
-0.500000
-0.062500
-0.250000
-0.031250
0.031250
1.000000
-0.125000
-0.031250
0.003906
0.500000
-0.062500
-0.062500
-0.500000
-0.250000
-1.000000
-0.031250
0.250000
-1.000000
1.000000
-0.125000
-0.062500
-0.500000
-0.015625
-0.062500
-0.500000
0.125000
-0.500000
-0.062500
0.500000
0.015625
-0.015625
-0.500000
0.250000
-1.000000
0.250000
-0.500000
0.250000
0.500000
-0.015625
-0.500000
-0.062500
-0.125000
-0.015625
-0.500000
-0.125000
-0.250000
-1.000000
-0.062500
-0.125000
-0.250000
-0.062500
1.000000
-0.062500
0.031250
-0.062500
0.500000
0.125000
-0.062500
0.125000
1.000000
-0.062500
-0.062500
-1.000000
0.062500
-0.125000
-0.125000
-0.062500
-1.000000
-0.500000
-0.031250
-0.500000
-0.031250
-0.250000
-0.031250
-0.500000
-0.062500
0.062500
-0.125000
0.500000
-0.062500
0.250000
-0.250000
-0.031250
-1.000000
-0.500000
-1.000000
0.062500
0.125000
-0.500000
0.500000
-0.015625
0.062500
0.062500
-0.125000
1.000000
-0.125000
-0.125000
-0.031250
0.250000
-1.000000
0.003906
1.000000
-1.000000
-0.015625
-0.500000
-0.500000
-0.031250
0.125000
-0.015625
-0.125000
-0.250000
-0.062500
-0.125000
-0.250000
-0.500000
-1.000000
-0.062500
-0.250000
0.500000
-0.500000
-0.015625
0.015625
0.125000
-0.062500
-0.015625
-0.125000
-0.062500
-0.062500
-0.500000
0.062500
-0.062500
-0.125000
-1.000000
0.500000
-1.000000
-0.062500
0.500000
0.250000
-0.250000
0.015625
-0.031250
-0.500000
0.250000
-0.015625
-0.015625
-0.125000
-0.250000
0.000977
-1.000000
-0.007812
-0.031250
0.500000
0.031250
0.007812
-0.500000
0.125000
-0.500000
0.250000
-0.031250
1.000000
-0.250000
-0.500000
0.500000
-0.062500
0.125000
-0.250000
-0.125000
-0.062500
-0.125000
-2.000000
0.007812
-0.500000
-0.062500
-0.250000
-0.125000
0.500000
1.000000
-0.062500
-0.250000
0.062500
-0.062500
-0.031250
-0.250000
-0.125000
-0.031250
-0.062500
-0.031250
0.250000
-0.250000
-0.015625
-1.000000
-0.031250
-0.500000
-0.062500
-0.125000
-0.250000
-1.000000
0.250000
0.250000
-0.015625
-0.250000
0.250000
0.001953
-0.500000
-1.000000
-1.000000
-0.062500
0.031250
0.062500
-0.250000
-0.125000
0.062500
-0.250000
0.125000
-0.500000
0.125000
0.031250
-0.125000
1.000000
-1.000000
-0.125000
-0.500000
0.250000
-0.031250
-0.250000
0.015625
-0.062500
1.000000
-0.031250
-1.000000
-0.250000
-0.500000
-0.500000
-0.500000
-0.250000
-0.062500
-0.031250
0.500000
-0.125000
-0.500000
-0.500000
-0.015625
-0.125000
-0.062500
-0.003906
-0.500000
0.015625
-0.062500
-0.125000
-0.250000
-0.015625
-0.062500
-2.000000
-0.250000
-0.500000
0.000488
0.500000
0.125000
-0.500000
-0.062500
0.000488
-0.500000
-0.250000
0.062500
-0.250000
0.500000
-0.062500
0.062500
-0.500000
-0.031250
-0.062500
0.062500
-0.031250
1.000000
-0.125000
-0.250000
-0.500000
1.000000
-0.125000
-0.031250
-0.250000
0.250000
0.015625
-0.250000
-0.250000
-0.062500
0.062500
-0.062500
0.062500
0.250000
-0.031250
0.125000
-0.125000
-0.250000
0.125000
-0.250000
-0.250000
-0.015625
-0.003906
-0.500000
-0.031250
-0.125000
-0.500000
-0.031250
-0.062500
-0.062500
-0.007812
0.500000
0.125000
0.015625
-1.000000
-0.015625
-0.500000
-0.062500
-0.007812
-1.000000
-0.500000
0.250000
0.125000
-0.062500
-1.000000
0.250000
0.500000
-0.500000
-1.000000
-1.000000
-0.062500
0.250000
-1.000000
-0.500000
-0.062500
-0.062500
1.000000
-0.125000
-0.500000
-0.062500
0.031250
-0.062500
0.031250
-0.500000
-0.031250
-0.031250
0.500000
-0.062500
0.125000
0.500000
-0.031250
-0.001953
0.031250
-0.250000
-0.007812
-0.250000
-0.250000
-0.500000
-0.500000
0.250000
0.015625
-0.250000
-0.250000
-0.500000
-0.125000
-0.031250
0.250000
-0.062500
0.015625
-1.000000
-0.001953
-0.031250
-0.250000
-1.000000
-0.015625
-0.125000
-0.500000
-0.250000
-1.000000
0.031250
-0.125000
-0.500000
0.500000
-0.031250
0.003906
-0.250000
-0.062500
-0.062500
1.000000
-0.250000
-0.500000
-0.015625
0.250000
0.031250
-0.062500
0.250000
-0.250000
1.000000
0.015625
0.031250
-0.500000
-1.000000
-0.062500
-1.000000
-0.250000
0.500000
0.500000
-1.000000
-0.500000
-0.250000
-0.125000
-0.031250
-0.250000
-1.000000
-0.031250
-0.500000
-0.031250
-0.125000
0.062500
-1.000000
0.003906
-0.062500
0.062500
-0.250000
0.031250
-0.031250
-0.500000
-0.062500
0.031250
-0.062500
-0.125000
0.250000
0.500000
0.031250
-0.500000
-0.015625
-0.500000
-0.062500
-0.500000
0.500000
-2.000000
0.031250
-0.500000
-0.003906
-1.000000
0.125000
0.500000
0.250000
-0.500000
0.500000
-0.062500
0.500000
-2.000000
-0.500000
-0.062500
0.015625
0.125000
-0.062500
-0.250000
-0.062500
-0.031250
0.062500
-0.500000
-0.500000
0.125000
-0.500000
1.000000
-0.062500
-0.062500
1.000000
-0.062500
-0.250000
0.031250
-0.250000
-1.000000
-0.250000
-0.125000
-0.125000
0.125000
0.500000
-0.062500
-0.125000
-1.000000
-1.000000
0.250000
0.031250
-0.125000
0.062500
-0.250000
0.125000
-0.031250
-0.062500
-0.500000
0.500000
-0.031250
-0.125000
-1.000000
-0.500000
-0.031250
-0.031250
-0.125000
0.062500
-0.062500
-0.062500
-0.015625
-0.250000
-0.125000
-0.031250
0.250000
-2.000000
-0.250000
-0.007812
0.500000
-0.031250
0.007812
0.125000
-0.250000
-0.031250
0.062500
-0.125000
-0.125000
-0.500000
-0.015625
-1.000000
-0.250000
0.062500
0.250000
-0.500000
-0.500000
-0.500000
-0.250000
-0.125000
-0.250000
-1.000000
0.031250
-0.250000
-0.031250
-1.000000
0.062500
0.500000
0.500000
-0.125000
1.000000
-1.000000
-0.031250
-0.015625
-0.500000
0.062500
-0.062500
-0.062500
-0.031250
-0.062500
-0.500000
0.031250
-1.000000
-0.015625
0.125000
0.062500
-0.500000
0.062500
-0.500000
-0.250000
-1.000000
-0.015625
-0.250000
0.500000
1.000000
-0.500000
-0.500000
-0.125000
-0.031250
-0.500000
-0.500000
0.125000
-0.125000
-0.062500
-1.000000
-0.125000
0.500000
0.062500
-0.062500
-0.000977
-0.500000
-0.250000
-0.125000
0.007812
-1.000000
-0.031250
-0.125000
1.000000
-0.062500
-0.500000
-0.062500
-0.500000
-0.500000
-0.250000
-0.500000
-0.500000
-0.250000
-0.250000
-0.125000
-0.500000
-1.000000
0.250000
-0.125000
0.062500
0.031250
-0.062500
-0.125000
0.125000
-0.031250
-0.062500
-0.500000
-0.500000
-0.015625
-0.031250
-0.500000
-0.250000
-0.500000
-0.062500
-0.500000
-0.125000
-0.500000
0.125000
-0.015625
-0.500000
-0.250000
-0.031250
-0.500000
-0.125000
-0.125000
-0.062500
1.000000
-0.031250
-0.015625
0.500000
-0.062500
-0.500000
0.062500
0.125000
-0.062500
0.500000
-0.062500
-1.000000
-0.250000
-0.500000
-0.031250
-0.500000
0.125000
0.125000
-1.000000
-0.062500
-0.250000
-0.500000
-0.062500
2.000000
-0.031250
0.125000
-0.031250
0.125000
1.000000
-0.031250
0.500000
0.250000
0.031250
-0.031250
-0.500000
-0.015625
-0.015625
-0.125000
0.031250
0.250000
0.031250
0.015625
0.500000
-0.031250
-0.500000
-0.125000
0.031250
0.031250
-0.500000
-1.000000
1.000000
-0.031250
-0.250000
-1.000000
-1.000000
-0.062500
0.500000
-0.500000
-0.015625
0.250000
0.500000
-1.000000
0.031250
-0.125000
0.250000
-0.250000
-1.000000
-0.031250
-0.007812
-0.250000
0.250000
-1.000000
-0.015625
0.250000
-0.250000
-0.062500
-0.500000
-1.000000
-0.015625
-1.000000
-0.062500
-0.250000
1.000000
-0.062500
-0.500000
-0.250000
-0.125000
-1.000000
-0.125000
-0.250000
0.500000
-0.250000
-0.500000
-0.031250
-1.000000
-0.031250
0.031250
-0.250000
-0.062500
-0.031250
-0.125000
1.000000
-0.031250
-0.125000
-1.000000
-0.250000
-0.250000
0.001953
-0.125000
-0.250000
-0.250000
-0.062500
-0.007812
-0.250000
-0.062500
0.031250
-0.250000
0.031250
-0.500000
0.031250
0.500000
-0.031250
-0.062500
0.500000
-0.031250
-0.062500
-0.003906
0.500000
0.062500
0.250000
-0.062500
-0.500000
-0.125000
0.500000
0.250000
-0.500000
0.250000
-0.250000
-1.000000
-0.062500
-1.000000
-0.031250
-0.031250
-0.250000
-0.062500
-0.250000
-0.250000
0.500000
0.250000
-0.015625
0.125000
1.000000
-0.062500
-0.125000
-0.500000
-0.062500
-0.015625
-0.125000
-0.062500
-0.250000
-0.250000
0.031250
0.500000
-0.001953
-0.125000
-0.062500
0.250000
0.125000
1.000000
-0.250000
-1.000000
-0.031250
-0.250000
-0.500000
-0.500000
-0.250000
0.250000
-1.000000
-0.062500
-0.125000
-0.062500
-0.500000
0.062500
-0.031250
0.500000
-0.250000
-1.000000
-0.031250
-0.062500
-0.125000
-0.250000
-0.250000
-0.062500
0.250000
0.500000
-0.031250
-0.500000
-0.031250
-0.062500
-1.000000
0.062500
-0.062500
0.500000
-0.250000
-0.062500
-0.500000
0.125000
-1.000000
-0.062500
0.125000
0.250000
-0.500000
-1.000000
-0.062500
-0.500000
-0.062500
-0.062500
-1.000000
-0.001953
-0.125000
-0.062500
0.250000
-0.031250
0.031250
-0.500000
-0.062500
-0.250000
-0.015625
-1.000000
0.250000
-1.000000
-0.062500
-0.062500
0.062500
-0.031250
0.062500
-0.250000
-0.062500
-0.500000
-0.015625
0.500000
-0.007812
-0.031250
1.000000
0.062500
0.250000
-0.250000
0.250000
-0.062500
0.500000
-0.062500
-1.000000
-0.125000
-1.000000
0.125000
-1.000000
-0.250000
-0.125000
-1.000000
-0.031250
-1.000000
-0.500000
-0.031250
-0.500000
-0.062500
-0.125000
0.062500
0.250000
0.500000
0.015625
0.500000
-0.125000
-0.015625
-0.031250
0.250000
-0.062500
0.031250
-0.031250
-0.062500
-0.062500
-0.125000
0.015625
-0.125000
-0.062500
-0.125000
-0.125000
0.062500
-0.250000
-0.250000
0.125000
-0.500000
-0.015625
-0.250000
-0.125000
0.500000
1.000000
-0.125000
-1.000000
0.015625
0.125000
1.000000
-0.250000
-0.015625
0.062500
0.250000
-0.125000
-1.000000
0.031250
-0.031250
-0.031250
-0.250000
0.031250
0.007812
-0.500000
0.250000
-0.031250
-0.250000
-0.250000
0.062500
-0.062500
-0.031250
-0.250000
0.500000
0.007812
-0.500000
-0.125000
0.062500
-0.500000
0.031250
0.500000
0.250000
-0.500000
-0.250000
0.007812
0.125000
-0.015625
-0.062500
-1.000000
-0.062500
-0.015625
-0.250000
0.031250
-0.062500
-0.250000
-0.250000
0.062500
0.500000
-0.062500
-1.000000
0.125000
-0.500000
-0.062500
-0.062500
0.125000
-0.062500
-0.015625
-0.125000
-1.000000
0.125000
0.062500
-0.250000
0.007812
-0.125000
1.000000
0.250000
0.500000
-0.500000
0.125000
-0.250000
-0.250000
0.062500
-0.125000
-0.250000
-1.000000
-0.250000
-0.500000
-0.015625
-0.500000
-0.500000
0.125000
-1.000000
0.500000
-0.007812
-0.250000
-0.062500
-0.500000
-0.031250
0.500000
1.000000
-0.015625
0.500000
-0.500000
0.031250
-0.062500
1.000000
-0.031250
-0.062500
-0.031250
0.062500
1.000000
-0.125000
-0.015625
-0.250000
-0.062500
0.125000
-0.125000
-0.250000
0.250000
-1.000000
0.500000
-1.000000
0.031250
0.000488
1.000000
1.000000
0.250000
-1.000000
-1.000000
-0.062500
0.007812
-0.500000
-0.250000
0.031250
-0.125000
1.000000
-0.250000
-1.000000
-0.062500
-0.062500
-0.031250
0.125000
-0.500000
0.015625
0.250000
0.015625
-0.062500
-0.250000
0.500000
-0.015625
1.000000
0.062500
-0.250000
0.062500
-0.250000
-0.062500
-0.062500
1.000000
-0.500000
-0.062500
0.250000
0.031250
-0.125000
-0.250000
0.003906
-0.125000
-0.062500
-0.125000
0.125000
-0.031250
-0.062500
-0.500000
-0.062500
-0.062500
-0.125000
-1.000000
0.500000
1.000000
0.031250
-0.500000
0.062500
-0.250000
-0.062500
-0.031250
0.062500
-0.125000
-0.031250
0.125000
-0.500000
-0.062500
-0.125000
-0.125000
-0.007812
-0.015625
0.500000
0.031250
-1.000000
-0.500000
0.500000
1.000000
-0.250000
0.031250
0.500000
-0.250000
-1.000000
-0.125000
0.062500
-0.500000
-1.000000
0.062500
-0.062500
-0.500000
0.062500
0.031250
-0.031250
-0.031250
1.000000
0.000244
0.250000
1.000000
-0.031250
-0.500000
-0.500000
0.031250
-0.062500
-0.500000
-0.031250
-0.062500
-0.062500
-0.062500
-0.062500
-0.500000
-0.031250
-1.000000
0.003906
0.500000
-0.125000
-0.125000
0.500000
-0.500000
-0.500000
-0.500000
-0.062500
-0.500000
1.000000
1.000000
-0.500000
-1.000000
-0.500000
-0.031250
-0.250000
1.000000
0.031250
-0.015625
-0.031250
1.000000
0.031250
0.125000
-0.031250
-0.007812
-0.125000
0.125000
-0.125000
0.003906
-0.062500
0.500000
-0.031250
-0.125000
1.000000
-0.062500
1.000000
-0.062500
-0.500000
-0.250000
-0.062500
-0.031250
-0.250000
0.125000
-1.000000
-0.125000
-0.250000
-0.500000
-0.062500
-0.500000
-0.062500
0.250000
-0.062500
0.015625
0.031250
-0.031250
-0.015625
-1.000000
-1.000000
0.062500
-0.125000
-1.000000
0.125000
0.500000
-0.062500
0.031250
0.062500
-1.000000
0.031250
0.015625
-0.500000
-0.250000
-0.062500
-0.500000
-1.000000
-0.500000
-0.031250
1.000000
-0.062500
-0.031250
-0.125000
-2.000000
-0.062500
-0.500000
-0.500000
0.031250
0.500000
-0.015625
-0.125000
-0.062500
0.500000
0.015625
0.007812
-0.500000
-1.000000
-0.500000
-0.031250
-0.500000
0.500000
-0.125000
-0.250000
-0.062500
-0.250000
-0.003906
0.250000
-0.250000
-0.125000
0.250000
-1.000000
-0.062500
0.007812
-1.000000
-0.062500
-0.031250
-0.125000
-0.125000
-0.500000
-2.000000
0.001953
-1.000000
-0.062500
-0.031250
-0.031250
0.500000
-0.500000
-0.250000
-1.000000
0.125000
-0.125000
-0.125000
-0.500000
-1.000000
-0.500000
-2.000000
-2.000000
-0.062500
-0.500000
-0.250000
-0.250000
-0.031250
-0.062500
-0.500000
-0.125000
-0.250000
-0.015625
-0.062500
-0.125000
-0.250000
0.062500
-0.031250
-1.000000
-0.500000
-0.062500
-0.500000
-1.000000
-0.062500
-0.500000
-0.062500
-2.000000
0.500000
-0.250000
-0.500000
-0.031250
-0.062500
-0.500000
-0.015625
-0.125000
-1.000000
-0.500000
-0.062500
0.250000
-0.250000
-0.031250
0.062500
-0.500000
0.031250
-0.062500
-0.500000
0.250000
-0.062500
0.125000
0.250000
1.000000
-0.500000
-0.062500
0.500000
-0.250000
0.250000
-0.125000
-0.062500
-0.500000
-0.007812
-0.062500
-0.500000
-1.000000
-0.125000
-0.031250
-0.500000
-0.015625
-0.062500
-0.500000
-0.250000
0.250000
-0.500000
-0.500000
-0.500000
0.062500
-0.125000
-1.000000
0.125000
0.500000
0.062500
-0.500000
-0.250000
-2.000000
0.500000
0.015625
0.125000
1.000000
-0.125000
-0.500000
-0.031250
1.000000
-0.031250
0.250000
-0.125000
-0.062500
1.000000
-1.000000
-0.062500
-0.062500
-0.125000
-0.062500
-0.031250
-0.062500
-0.125000
-0.500000
0.015625
0.007812
-2.000000
-0.031250
-0.062500
-0.062500
0.125000
-0.500000
-1.000000
-0.500000
-0.125000
-0.031250
-0.500000
-0.062500
-0.031250
-1.000000
-1.000000
-0.500000
-0.031250
-0.031250
-0.125000
-1.000000
-0.031250
-0.007812
-0.500000
-0.250000
-0.500000
-0.031250
-0.125000
0.007812
-0.250000
0.062500
-0.062500
-1.000000
-1.000000
-0.031250
0.250000
0.015625
-0.062500
0.500000
-0.031250
-0.500000
-0.500000
-0.062500
-0.500000
-1.000000
-0.031250
0.031250
-0.062500
-0.250000
-0.500000
-0.007812
-0.500000
0.062500
-0.250000
-0.062500
-0.250000
-0.500000
0.031250
-0.031250
-0.500000
-0.031250
-0.015625
0.125000
0.125000
0.250000
-1.000000
-0.062500
1.000000
0.062500
0.500000
-0.250000
-0.007812
-0.125000
-0.062500
-0.125000
-0.125000
-0.500000
-0.062500
-0.062500
-0.125000
-0.062500
-0.015625
0.500000
-0.500000
-0.250000
-0.250000
-0.500000
0.125000
0.500000
-0.062500
-0.500000
-0.500000
0.500000
-0.250000
-0.500000
-0.031250
-0.500000
-0.500000
0.125000
0.250000
0.500000
-0.062500
-0.250000
-0.125000
-0.003906
-0.062500
-0.500000
0.500000
0.001953
-1.000000
0.500000
-0.062500
-0.031250
-0.125000
-0.062500
-0.031250
-0.031250
-0.125000
-0.125000
-0.125000
-0.125000
0.125000
-0.062500
-0.250000
-0.031250
0.500000
-0.250000
-0.250000
0.125000
-1.000000
-0.062500
-0.500000
-1.000000
-1.000000
-0.500000
-0.250000
-1.000000
-0.062500
-0.250000
-0.500000
-0.015625
-0.062500
-0.062500
-0.500000
-0.250000
-0.500000
-0.062500
-0.062500
0.062500
-2.000000
0.250000
-0.062500
-0.062500
-0.500000
-0.125000
-0.062500
-0.500000
-0.125000
-1.000000
-0.031250
-0.062500
0.500000
-0.250000
-0.250000
-0.125000
-0.125000
0.250000
-0.125000
0.125000
-0.500000
-0.250000
-1.000000
-0.125000
0.500000
-0.062500
-0.125000
-0.250000
-0.000244
-0.031250
-0.062500
0.031250
-0.062500
-0.062500
0.250000
0.500000
-0.125000
-0.062500
-0.500000
-0.500000
-0.000977
-0.125000
0.031250
-0.031250
-0.500000
-0.062500
-0.500000
0.007812
-0.015625
-0.125000
0.125000
-0.015625
0.000977
0.062500
-0.125000
0.125000
-0.125000
-0.500000
0.250000
-0.250000
-0.125000
0.500000
0.250000
-0.250000
-0.125000
-0.500000
-0.250000
-0.500000
0.031250
-0.015625
-0.062500
-0.250000
-0.062500
-0.250000
-0.015625
-0.250000
-0.031250
0.125000
0.062500
0.003906
-0.500000
-0.062500
-0.031250
-0.007812
-0.125000
-0.062500
-0.031250
-0.062500
-0.062500
0.007812
-0.500000
-0.031250
-0.125000
-0.125000
-0.500000
-0.125000
-0.250000
-0.062500
-1.000000
-0.250000
-0.125000
-0.062500
-1.000000
-1.000000
-0.500000
0.500000
0.125000
-0.250000
-0.062500
0.500000
-0.062500
-0.500000
-0.125000
-0.062500
0.125000
-0.062500
-0.500000
-0.062500
-0.062500
0.062500
0.500000
0.250000
-0.125000
0.250000
-0.125000
-0.031250
-0.125000
-0.500000
-0.062500
-0.250000
-0.125000
-0.500000
0.250000
-0.007812
-0.250000
0.125000
-0.062500
-0.500000
-0.062500
0.500000
-0.125000
-0.500000
-0.500000
-0.250000
-0.125000
-0.031250
-0.125000
-0.500000
-0.125000
-0.031250
-0.250000
0.250000
-0.062500
-0.125000
-0.500000
0.500000
0.125000
-0.031250
-0.500000
-0.250000
-0.062500
-0.125000
-0.015625
-0.250000
0.062500
-0.031250
-0.500000
0.062500
-0.250000
0.031250
0.125000
-0.015625
-0.062500
-0.062500
-0.250000
0.250000
-0.250000
-0.500000
0.500000
-0.125000
-0.125000
-0.125000
-0.125000
0.500000
0.250000
-0.250000
-0.500000
0.125000
-0.500000
-0.031250
0.125000
0.500000
-0.031250
-0.500000
-0.062500
-0.500000
-0.003906
-0.500000
-0.500000
-0.062500
-1.000000
-0.500000
-0.062500
0.062500
-0.125000
-0.062500
-0.062500
-0.031250
-0.007812
0.500000
0.250000
-0.062500
-0.125000
-0.062500
-0.500000
-0.062500
0.500000
0.062500
-1.000000
0.125000
-0.500000
-0.031250
-1.000000
-1.000000
-1.000000
-0.062500
0.062500
0.500000
-0.062500
1.000000
-1.000000
-0.250000
-0.125000
-0.062500
-0.500000
-0.062500
0.500000
-0.015625
-0.125000
-0.062500
-0.250000
0.003906
-0.031250
0.500000
-0.250000
-0.031250
-0.500000
-1.000000
-0.031250
-1.000000
-0.015625
1.000000
0.250000
-0.007812
0.062500
-0.250000
0.031250
-0.250000
-0.031250
-0.062500
-0.250000
-0.500000
0.125000
-0.125000
-0.500000
-0.062500
0.031250
-0.500000
-0.031250
-0.125000
-0.125000
-0.500000
-0.062500
0.062500
0.125000
-0.031250
-0.125000
-0.062500
-0.500000
-1.000000
0.250000
-0.125000
-0.125000
-0.250000
-0.125000
-0.125000
-2.000000
-1.000000
-0.250000
0.003906
0.125000
-0.015625
0.003906
0.015625
-0.500000
-0.500000
-0.500000
0.031250
-0.250000
-0.500000
-0.031250
1.000000
-0.125000
0.500000
-0.500000
-0.125000
-0.500000
-1.000000
-0.500000
-0.031250
-0.062500
-0.500000
-0.062500
-0.250000
-0.125000
0.250000
-0.007812
-0.250000
-0.125000
-0.062500
-0.125000
-0.250000
-0.125000
-0.015625
-1.000000
-0.062500
-0.062500
-0.125000
-0.062500
0.500000
-0.125000
-0.125000
-0.500000
-0.125000
-0.250000
-0.031250
-0.062500
-0.500000
-0.500000
-0.250000
-2.000000
-0.003906
-1.000000
-0.500000
-1.000000
0.125000
-0.250000
-1.000000
-0.031250
-0.500000
0.250000
-0.250000
-0.125000
-0.125000
-0.125000
-0.125000
1.000000
-0.015625
-0.062500
-0.125000
-0.125000
-1.000000
-0.062500
-1.000000
-0.500000
-0.062500
0.250000
0.062500
-0.062500
-1.000000
-0.015625
0.250000
1.000000
0.003906
-0.500000
0.500000
-0.250000
-2.000000
-0.062500
-0.500000
0.062500
-0.500000
-1.000000
-0.062500
0.125000
-0.031250
-0.250000
0.250000
-0.125000
-0.125000
-0.062500
-1.000000
-0.015625
-0.062500
1.000000
0.500000
0.250000
-0.015625
-0.031250
-0.015625
-0.250000
-0.125000
-0.031250
0.125000
-0.500000
-0.015625
-1.000000
-1.000000
-0.500000
-0.062500
-0.250000
-0.062500
-0.062500
-1.000000
-1.000000
-0.250000
-0.500000
-1.000000
0.125000
-1.000000
-0.062500
0.500000
0.125000
0.125000
0.003906
-0.125000
-1.000000
-1.000000
-0.062500
-0.062500
0.250000
-0.250000
-0.007812
-1.000000
-0.031250
0.500000
-0.062500
-0.250000
-0.500000
-0.062500
0.500000
-0.500000
-0.015625
-0.062500
-0.250000
-0.062500
-0.062500
-0.062500
-0.062500
-0.250000
-0.250000
-0.125000
-2.000000
-0.062500
-0.125000
-0.031250
-0.500000
-0.500000
-1.000000
0.125000
-1.000000
-0.062500
-0.500000
0.062500
-1.000000
-0.500000
-1.000000
-1.000000
-0.015625
-0.125000
1.000000
-1.000000
-0.125000
-0.031250
0.250000
-0.500000
0.500000
-0.062500
-0.062500
-0.062500
0.500000
-0.015625
0.003906
-2.000000
-1.000000
-0.031250
0.125000
0.500000
-0.125000
-0.500000
-0.062500
-0.125000
-0.250000
0.125000
0.015625
-0.015625
-0.125000
-1.000000
-0.031250
-0.250000
-0.500000
-0.250000
-1.000000
-0.062500
-0.500000
-0.062500
-0.250000
-0.500000
-0.062500
-0.031250
0.062500
-1.000000
-0.062500
-0.031250
0.250000
-0.062500
0.250000
-0.062500
-0.500000
-1.000000
-0.250000
-0.125000
-0.015625
-0.250000
-0.500000
-0.062500
-1.000000
0.125000
-0.250000
-0.062500
-0.250000
-0.031250
-0.062500
0.125000
0.500000
0.250000
-0.500000
-0.250000
-0.500000
-1.000000
-0.031250
-0.007812
-0.500000
0.500000
-0.250000
0.250000
-0.250000
-0.500000
-0.031250
0.007812
0.062500
-0.062500
-0.062500
0.062500
-0.062500
0.125000
-0.015625
0.250000
0.125000
-0.062500
-0.500000
-1.000000
-0.062500
-0.062500
-0.250000
-0.062500
-0.062500
-0.062500
-0.062500
0.250000
0.250000
-0.031250
-1.000000
-0.031250
-0.250000
-0.031250
-0.250000
0.125000
-0.250000
-0.250000
-0.500000
-0.015625
-0.015625
0.125000
-0.500000
-0.250000
-1.000000
-1.000000
-0.125000
0.500000
-0.500000
-0.250000
-0.125000
-0.062500
-1.000000
-0.250000
-0.250000
-0.125000
-0.062500
-0.125000
-0.250000
-0.250000
-0.062500
-0.500000
-0.250000
-0.062500
-0.500000
-0.500000
-0.062500
-0.125000
-0.062500
-1.000000
-0.250000
-0.125000
-0.500000
-0.250000
-0.500000
-0.500000
-0.062500
-0.125000
-0.125000
-0.250000
-0.250000
-0.250000
0.250000
-0.062500
-0.250000
1.000000
-0.062500
-0.015625
-0.500000
-0.250000
-0.062500
-0.062500
0.125000
-0.031250
-0.250000
-0.015625
-0.250000
-0.500000
-0.125000
-0.125000
-0.062500
-0.015625
-0.250000
-0.062500
-0.250000
-0.062500
-0.250000
-0.001953
-0.250000
-0.125000
-0.003906
0.250000
0.015625
1.000000
-0.015625
-0.500000
0.500000
-0.500000
-0.031250
-0.500000
-0.500000
0.500000
0.250000
-0.125000
0.250000
-0.250000
-0.250000
-0.125000
-0.250000
1.000000
-0.125000
-0.500000
-0.125000
-0.015625
0.015625
-0.250000
-0.500000
-0.125000
-0.500000
-0.250000
-0.125000
-0.062500
-0.250000
-0.125000
-0.015625
-0.031250
-0.007812
-0.031250
0.500000
-0.062500
0.125000
-0.031250
-0.500000
-0.062500
0.062500
0.125000
-0.500000
-1.000000
-0.250000
-0.125000
-0.125000
-0.500000
-0.500000
0.125000
0.250000
-0.031250
-0.062500
0.125000
-0.031250
-0.062500
-0.062500
-0.007812
0.500000
-0.062500
-0.250000
-0.125000
-0.125000
-0.015625
0.031250
-0.500000
-0.062500
-1.000000
0.015625
-0.062500
-0.250000
0.250000
-0.062500
-1.000000
-0.062500
-0.062500
-1.000000
-0.062500
-0.250000
0.125000
0.062500
-0.500000
-0.031250
-0.125000
-1.000000
-0.500000
-1.000000
-0.250000
-0.125000
-0.125000
-0.031250
-0.500000
-0.062500
-0.062500
-0.500000
-0.250000
-0.062500
-0.125000
-0.500000
1.000000
-1.000000
-0.062500
-0.500000
-0.250000
0.062500
-0.125000
-0.062500
-0.250000
-0.062500
-0.062500
0.250000
-0.125000
-0.500000
-0.031250
0.500000
-0.062500
-0.007812
-2.000000
-0.500000
1.000000
-0.500000
-0.500000
-0.500000
-0.500000
-0.062500
-0.500000
-0.015625
-0.125000
-0.031250
-1.000000
0.125000
-0.125000
0.500000
-0.125000
-0.500000
0.500000
-0.015625
-0.125000
-0.031250
-0.125000
-0.062500
-0.125000
-0.500000
-0.031250
-0.500000
-0.500000
-0.031250
0.031250
-0.500000
-0.031250
-0.062500
-0.062500
-0.062500
0.500000
-0.062500
-0.031250
-0.500000
-0.062500
-0.125000
-0.062500
-0.062500
-0.500000
-0.500000
-1.000000
-0.125000
-0.062500
-0.500000
-0.500000
-1.000000
-0.500000
0.125000
-0.250000
-0.031250
-0.062500
-0.125000
-0.250000
-0.031250
-0.062500
-1.000000
-0.062500
-0.250000
-0.031250
-0.015625
-0.125000
-0.500000
-0.500000
-0.000488
-0.250000
-0.500000
-0.062500
-0.250000
-0.062500
-0.062500
-1.000000
-0.062500
0.250000
0.250000
-0.250000
-0.250000
-0.125000
-0.500000
0.500000
-0.062500
0.250000
-0.500000
-0.250000
0.031250
-0.250000
-0.500000
-0.031250
-0.125000
-0.250000
-0.031250
-0.125000
-1.000000
-0.250000
-0.062500
-0.031250
0.500000
0.500000
-0.500000
-0.003906
-0.250000
-1.000000
0.500000
-0.250000
-0.062500
-0.500000
-0.007812
-0.031250
-0.250000
-0.250000
-0.250000
-0.007812
-0.500000
-0.062500
-0.062500
-0.500000
-0.003906
0.500000
-0.015625
-0.125000
-0.015625
-0.500000
-0.125000
1.000000
0.250000
0.250000
0.250000
0.062500
-0.125000
-0.500000
0.500000
-0.125000
-0.062500
-0.250000
-0.062500
-0.125000
-0.125000
-0.125000
-0.031250
-0.500000
-0.500000
-0.015625
-0.500000
-0.031250
-0.125000
-0.125000
0.125000
-0.062500
0.062500
-0.062500
-0.250000
-0.125000
1.000000
0.031250
-0.250000
-0.062500
-0.250000
-0.062500
0.250000
-0.250000
-1.000000
-0.500000
0.015625
-0.125000
0.250000
-0.500000
-0.250000
-0.500000
-0.062500
-0.500000
-0.125000
0.250000
-0.500000
-0.125000
0.062500
-0.062500
0.500000
-0.062500
0.125000
-0.031250
-0.015625
-0.062500
0.500000
-1.000000
-0.031250
-1.000000
0.500000
-0.062500
0.125000
-0.062500
-0.015625
-0.250000
-0.062500
0.500000
-0.500000
-0.062500
0.125000
0.250000
-0.500000
-1.000000
-0.015625
0.062500
-1.000000
-0.125000
-0.250000
-0.250000
-0.500000
-0.031250
-0.125000
