-0.00634240
-0.00612276
-0.00656559
-0.00647956
-0.00625340
-0.00571550
-0.00596430
-0.00656779
-0.00574184
-0.00633699
0.00788538
0.01786660
0.00441165
0.00266641
-0.00956867
0.00703882
0.01111697
0.00145038
0.00435509
0.01094672
-0.04224329
0.05205721
-0.01010013
0.13724032
0.05185211
-0.14138205
-0.07110208
-0.03661711
0.11515382
0.00700897
-0.02801028
0.02305041
-0.00540257
0.01403543
-0.02093508
-0.00306496
-0.03793137
0.02957773
-0.03482975
0.01462035
0.00551351
0.02740262
-0.03125855
-0.07146560
-0.08315531
0.01510059
-0.06126241
0.03161248
-0.00846511
0.04652052
-0.01081501
-0.01403845
0.07783660
0.01415618
-0.05315131
-0.05698260
0.03075689
0.02154525
0.05367465
-0.02628575
0.01276895
0.00815441
0.00757279
0.00608882
0.01047423
0.00750244
0.00742029
0.01056356
0.00735280
0.00983490
0.00504700
0.00404618
0.01378850
0.00458092
0.01029125
0.02927765
-0.01196831
-0.02265316
0.01919683
0.00105244
0.01438224
0.01460612
0.01460706
0.01402660
0.01464929
0.01466963
0.01438158
0.01434350
0.01465474
0.01438748
-0.01179866
-0.01085935
-0.01211249
-0.01179346
-0.01059001
-0.01136592
-0.01114280
-0.01143344
-0.01160451
-0.01070178
-0.04836091
-0.01017288
-0.03367281
-0.02764548
0.10186469
0.00100529
-0.00913482
-0.00481294
0.00483995
0.00449414
-0.00707836
-0.00844002
-0.00962822
-0.00886900
-0.00865038
-0.00792089
-0.00660344
-0.00827240
-0.00939631
-0.00776146
0.00039769
0.00033244
0.00044812
0.00044314
0.00043651
0.00045085
0.00047141
0.00042975
0.00045515
0.00045966
-0.00288523
0.00104693
0.02306466
0.01311295
-0.02386644
0.02184860
-0.01022206
-0.01035169
-0.02276998
0.01946309
-0.00709960
0.00064667
0.00323790
-0.00685987
0.01070774
-0.00495769
-0.01747774
0.00197996
0.00427612
-0.01232290
-0.00465155
-0.00240514
-0.00131821
0.00016834
-0.02167304
0.00072516
0.00121901
-0.00593619
-0.00253317
-0.00482960
-0.01221317
-0.02003652
-0.00495840
-0.01244447
-0.01647403
-0.00338511
0.00607871
-0.00321448
-0.01782860
-0.01503531
-0.00915924
-0.00903009
-0.00935142
-0.00989481
-0.00854519
-0.00870842
-0.00945474
-0.00951305
-0.00939404
-0.00846338
-0.02306063
-0.00169601
0.00226395
0.05074915
0.02608107
-0.02017038
-0.02312591
0.03695305
-0.03955020
0.00199176
-0.01599191
-0.00889461
-0.00716799
-0.01067192
-0.00186155
0.00689292
-0.00126817
-0.00274336
-0.00061542
0.00038620
0.10941955
-0.11492828
0.00935033
-0.11128452
-0.18175887
0.14678611
0.08337813
-0.19530812
0.16665620
-0.08909598
-0.00185251
-0.00112982
0.01717366
-0.00547539
0.00344458
0.02089595
0.00159652
-0.03463849
0.02663353
-0.00081529
0.01280364
0.01560175
0.01507607
0.01356523
0.01393314
0.01375326
0.01503691
0.01362928
0.01370411
0.01356030
-0.00787108
-0.00784010
-0.00787010
-0.00788127
-0.00777128
-0.00781939
-0.00785169
-0.00787479
-0.00784705
-0.00785099
0.00039193
-0.02577124
0.01819199
0.02863982
0.00235722
0.00027084
0.01271378
0.00668040
0.00161150
0.00463494
0.01100913
-0.01278284
-0.01536936
0.00249546
-0.03986388
0.00436811
0.00982515
-0.00472118
0.00377883
-0.01793417
-0.00434074
-0.00507471
0.00543812
0.00479179
-0.00208085
0.00252876
0.00009707
-0.00552641
0.00566734
-0.00621066
-0.02185577
0.04278741
0.00165592
0.01996986
-0.01085372
-0.00934236
-0.02627882
-0.00018839
-0.00529962
0.00490293
0.01120356
0.01746291
0.01830397
0.00160401
-0.00774272
0.00687124
0.01198181
0.01096663
0.00999411
0.00009216
0.02751135
-0.02078692
0.02400117
0.04001060
-0.04085689
-0.01204689
0.04805554
-0.01581646
-0.00950061
0.04096842
0.01173036
-0.02575833
-0.01300335
-0.03606147
-0.03380159
0.01049272
0.01847143
0.00139244
-0.03648145
-0.00523722
-0.02448598
-0.07363797
0.03641332
0.02248633
-0.01452533
-0.05582168
-0.04571323
-0.04566130
0.02025229
-0.03451472
-0.26877007
-0.02736315
-0.00390171
0.04393364
-0.08017322
0.13995841
0.16980137
0.02958778
0.06852998
-0.11989558
-0.00723879
-0.00196328
-0.00903932
-0.00487583
-0.00961639
-0.00142025
-0.00242897
-0.00577504
-0.00490720
-0.00447755
-0.00860429
-0.00803057
-0.00750616
-0.00820433
-0.00768050
-0.00743134
-0.00943214
-0.00852660
-0.00811047
-0.00819367
-0.07493167
0.01125090
0.00855345
-0.00937276
-0.00111492
0.03068691
0.00815886
0.00344999
0.01895232
-0.00323985
0.01178819
0.00462841
-0.00236542
0.00684368
0.00927172
-0.00183466
-0.00039141
-0.00626347
0.01012440
-0.00302292
0.08504140
0.02101131
-0.03205474
-0.04523574
0.00079340
-0.05758857
0.08463844
0.02059565
-0.06558768
-0.02078260
-0.00707549
0.00820900
0.00250327
-0.00061519
0.00453740
-0.01258275
-0.00667432
0.00184718
-0.00651205
0.00022593
0.00768249
0.00251129
0.00396454
0.00297893
0.00307459
0.00487610
0.00339920
0.00239899
0.00226960
0.00557187
0.01550461
0.04068158
0.02231502
0.01961076
0.03224901
0.00079391
-0.00351536
0.01673254
0.00209153
-0.00264213
0.00291060
0.00445444
0.00552492
0.00618995
-0.00896001
-0.00529698
0.00187040
0.01080924
-0.00135035
-0.00176799
-0.01070724
-0.00929869
-0.01349550
-0.01757807
-0.00581549
-0.01437751
-0.00571384
-0.01845373
-0.00977281
-0.01093266
0.02942742
-0.01539803
0.00198009
-0.01988821
0.00571239
-0.03719587
0.00302200
-0.01168026
-0.01122307
-0.02322785
-0.01505404
0.01687254
-0.00025383
-0.01773691
-0.00754933
-0.00108614
0.01517708
-0.03093966
0.03336074
-0.01356973
-0.00758951
-0.00893316
-0.00687383
-0.00714744
-0.00411767
-0.01044336
-0.00770446
-0.01011540
-0.00597760
-0.00781780
-0.18859936
0.00517786
-0.01008430
-0.15491253
0.14287984
-0.02145473
0.10578965
0.05393954
0.02919148
0.04725767
0.03994580
0.03793333
0.03071698
0.03751711
0.03594619
0.03432638
0.03528597
0.04150843
0.03226973
0.03736114
0.00006854
-0.00004381
-0.00009466
-0.00023884
-0.00003156
-0.00028321
-0.00003828
-0.00007470
-0.00004460
-0.00003997
-0.01740213
-0.00366008
-0.01411841
-0.01093280
0.00352848
-0.00825101
0.00051669
-0.00701618
-0.00840604
-0.00518276
0.00162846
0.00147404
0.00766500
0.00356651
0.00156105
-0.00235134
0.00049342
0.00083198
0.00142219
0.00262565
-0.01270567
0.00553447
0.00213600
0.00179303
0.00005727
-0.00888890
-0.01058807
0.00737664
-0.01008925
0.00099263
0.26327842
-0.06862473
-0.09365873
0.10337240
0.11327912
0.09983221
-0.01536920
-0.15468231
-0.13106929
0.01328838
-0.01268088
0.01466759
-0.00760299
-0.01916613
0.02312068
0.00041460
-0.02049130
0.01027055
0.02974211
-0.00038683
0.03045197
-0.00222051
0.00716109
0.01506530
0.00689831
0.03120994
0.00179352
0.00993348
0.00315762
-0.00392224
0.04173856
-0.01858281
-0.01327139
0.00236112
0.02628087
0.00461154
0.00004726
-0.00588125
-0.00534820
0.01138676
-0.00200753
-0.00360163
-0.00561098
-0.00342659
-0.00555430
-0.01002149
-0.00619655
-0.00589208
-0.00156727
-0.00354371
-0.01141166
0.03425538
0.01284068
0.01706688
0.02397557
0.01022520
0.00872701
0.03959018
0.03064194
0.01569444
0.01795314
0.01013935
0.01068122
0.00462955
0.01806830
0.00448925
0.02233932
0.00566517
0.01512704
0.00988272
-0.00839421
-0.00845407
-0.01208166
-0.01162440
-0.00599547
-0.01009774
-0.01007327
-0.00913787
-0.00863601
-0.00840469
0.04006666
-0.05877982
-0.00091913
-0.00754729
0.01546675
0.06423979
0.02646947
-0.03919955
0.02042766
-0.01838771
-0.05328936
0.02805814
0.15949254
-0.00085853
0.02118382
-0.11147562
-0.16001739
0.04219537
0.18913846
-0.06105688
0.03455846
-0.01874549
-0.00619022
0.00628085
0.00226517
-0.01222824
-0.00263279
0.01820857
-0.01578268
0.01686924
-0.00576219
-0.00331760
-0.01499378
-0.00988385
0.01723254
0.00436787
-0.00529548
-0.00681600
0.00010445
0.00337201
-0.00528933
-0.00256295
0.00786961
0.01309643
0.00167496
-0.02944557
-0.01932589
-0.01021219
-0.00570569
-0.00471524
-0.02570952
0.02461380
0.15442805
-0.06194286
0.06490690
-0.08225251
-0.00837946
-0.06621589
-0.11332793
0.04180437
0.00610118
0.00589702
0.00640174
0.00579053
0.00581911
0.00573855
0.00588495
0.00596297
0.00566870
0.00604424
-0.04354164
0.00558668
0.00649901
0.03421907
-0.01025770
0.06905122
-0.04234044
-0.02155798
0.04391595
0.01699881
0.01212515
0.01170646
0.00528620
0.00781501
0.01666350
-0.00367227
0.00513287
0.00618632
0.00636206
-0.00472175
-0.00602912
-0.00112742
0.00457350
0.00488131
0.01517655
-0.02198115
-0.03093162
-0.01005509
0.00572886
-0.01812167
0.01894774
0.00005542
0.00398053
0.07538555
0.02267046
-0.07438543
0.00804571
0.01774810
0.01419695
0.02765033
0.00946184
0.01595885
-0.03415575
-0.03235994
-0.02302293
-0.03340942
0.02582476
0.02253330
-0.03531303
0.01569488
0.00450217
0.00454165
0.00509102
0.00400325
0.00488908
0.00360424
0.00374083
0.00423547
0.00443563
0.00432384
-0.00115114
-0.00292888
-0.00523750
-0.01166407
-0.00721405
0.00341817
0.00193049
-0.00173138
-0.00888515
-0.00938722
-0.00840427
0.00250848
0.00091560
-0.00013611
0.01788482
0.00856307
0.01142863
-0.00425992
0.00501158
0.02065436
0.02520298
-0.00223888
0.08281050
0.15976723
-0.10682473
-0.15005091
-0.08284248
-0.00694077
0.09340889
0.02788906
0.12413018
0.01062570
-0.06665376
0.00886278
-0.17669612
-0.01723559
0.10080122
-0.04367174
0.01421620
0.07923910
-0.01307119
0.01052529
0.00829745
0.08175785
0.05624866
-0.05064836
-0.02047739
-0.00560142
0.01975018
-0.06340566
0.00351744
-0.00044026
0.00188579
0.00146185
0.00506311
0.00227897
0.00173705
0.00282373
0.00504416
0.00438824
-0.00310520
-0.00049246
-0.00222983
-0.00144519
-0.00266267
-0.00478370
-0.00276094
-0.00015490
-0.00212667
-0.00207682
0.00436654
-0.00137311
-0.00210339
0.00653714
0.00581074
-0.00746101
0.00796735
0.00067403
-0.00118958
-0.00051922
-0.00340861
0.00018343
-0.00617789
-0.00117841
0.00187935
-0.00224274
0.00116295
0.00349819
-0.00087296
0.00247978
-0.00073120
-0.00213420
0.00003168
-0.00195622
0.00030970
0.00121666
0.00292690
-0.00304844
-0.00017865
-0.00038657
0.03760804
-0.02371985
-0.05075553
-0.08485540
0.00768448
0.09304671
-0.02163913
-0.06658720
-0.07738597
0.03971102
0.03298035
0.00041324
-0.03765994
-0.00255861
-0.00984585
0.06086669
0.00571218
-0.00190547
-0.00387087
0.05111530
-0.00225999
-0.00223702
-0.00236585
-0.00262356
-0.00266629
-0.00283192
-0.00251855
-0.00295387
-0.00246908
-0.00272347
0.00018372
-0.00050333
0.00104414
0.00180798
-0.00222187
0.00247813
0.00019506
-0.00027379
0.00247404
-0.00262774
-0.00048795
-0.01072700
-0.01460032
-0.01994606
-0.01242759
-0.02224424
-0.01741113
-0.01373824
-0.01937083
-0.01354139
-0.21130632
0.27709109
0.03322690
0.06580810
0.26072687
-0.24808583
-0.20558885
0.38965976
-0.21871868
-0.06260060
-0.24607496
-0.09113235
-0.31187159
-0.05560874
0.25166440
-0.26060084
0.19548988
0.05517133
-0.09397934
0.27366990
-0.00743266
-0.00366448
0.00289802
-0.00452145
0.00326019
0.01967713
0.00331127
0.00490034
0.01114347
0.00479130
0.00777771
0.00469845
0.01409758
0.00461574
0.00534348
0.00933575
-0.00208774
0.01046508
0.01105141
0.00885895
-0.00948317
-0.00407008
-0.00949376
-0.00759416
-0.00626374
-0.01007691
-0.00839281
-0.00560005
-0.00914423
-0.00577123
-0.00724076
0.00695490
-0.00906161
-0.00790536
-0.00107585
-0.01273188
0.00225095
-0.01589187
-0.00341770
-0.00873980
0.00250252
0.00518507
0.00377352
0.00461402
0.00379606
0.00722230
0.00501149
0.00273930
0.00484265
0.00345481
-0.00374256
-0.00360064
-0.00646807
-0.00556852
-0.00319869
-0.00463889
-0.00301992
-0.00347146
-0.00399841
-0.00386740
-0.01912848
-0.00138198
0.04029983
-0.06047465
0.04505359
-0.00025347
0.01890401
-0.00188563
0.05318864
-0.05142449
0.02975025
-0.03485909
-0.02581559
0.00652677
0.00338938
0.00650343
-0.02691273
-0.04312401
0.00738629
-0.02029509
0.00955821
0.00639753
0.00891361
0.00982505
0.00674846
0.01574198
0.00409574
0.00740802
0.01121172
0.00789461
-0.00395265
-0.00440978
-0.00483535
-0.00538637
-0.00429879
-0.00515980
-0.00430994
-0.00549488
-0.00488492
-0.00499740
-0.02566355
0.01906681
-0.01373041
-0.00338492
0.03916912
0.00720555
0.00709575
-0.00135322
-0.01047690
0.00850832
0.00572315
0.00502595
0.00448033
0.00662102
0.00031016
0.00164574
0.00567154
0.00115263
-0.00103519
0.00416904
-0.00985081
-0.01797634
-0.01458431
-0.01327177
-0.01141851
-0.01300538
-0.01232382
-0.00876754
-0.00483017
-0.01261835
0.02720164
0.01808013
0.00567483
0.02086368
0.01024272
0.01546319
0.06034899
-0.06559434
0.03082343
-0.04409758
-0.01051677
-0.00914980
-0.00884838
-0.00312387
-0.01108827
-0.00185869
-0.01305449
-0.00544615
-0.00655087
-0.00776519
-0.00722434
-0.00560677
-0.00421695
-0.00369927
-0.00377915
-0.00614109
-0.00514044
-0.00552930
-0.00446285
-0.00648284
-0.00352693
-0.00271758
-0.00296585
-0.00333662
-0.00271800
-0.00305941
-0.00392476
-0.00215945
-0.00332572
-0.00530853
-0.00378253
0.00413685
-0.00657438
0.02596442
0.00034687
0.01523855
0.00799392
-0.01473005
0.00558640
-0.01159537
-0.23106703
0.25806883
0.03742762
-0.13868058
0.15210342
0.00247471
-0.09239742
0.25014797
-0.17474739
-0.11514840
0.00466196
0.00478980
0.00562712
0.00677148
0.00746532
0.00528173
0.00810699
0.00796830
0.00627341
0.00494019
0.00184268
-0.00126034
-0.00433110
0.01051694
0.00723335
-0.00123308
0.00561685
0.00479283
-0.01438938
-0.00049971
-0.03050879
0.00169480
0.00491790
-0.03428051
0.06438559
-0.01535750
-0.09295072
0.11735289
0.00899034
0.05174423
0.06534255
-0.04554436
0.02760722
0.05521539
-0.05600950
0.01238966
-0.01702015
0.01013546
-0.01072217
-0.05429640
-0.01940789
0.00681565
-0.00627242
-0.00324806
-0.00128292
-0.00314809
-0.00332723
0.00313336
-0.00780497
0.00351463
-0.01030609
0.01233099
0.01065351
-0.00592494
0.00943649
0.00131802
-0.00185811
-0.01166756
-0.01781339
-0.00388652
0.03822348
-0.01105135
0.02607771
0.01875210
-0.02673126
-0.06796444
-0.05175027
0.04079298
-0.06016432
0.03168071
-0.00032239
-0.00281317
-0.02460821
0.07914893
0.00380719
-0.10030123
-0.04189237
-0.02198536
0.04368535
0.05156336
0.05284959
0.03823149
0.03542881
-0.04728127
0.03740646
-0.08711272
0.02939470
0.01753241
0.02351270
-0.04233258
-0.02186774
-0.01847047
-0.06084244
-0.03758680
0.04635963
0.02332008
0.03407978
-0.00574342
0.03303146
-0.01017768
-0.03643540
-0.03261157
0.00159584
-0.01285276
0.01566984
-0.02465555
-0.03397103
-0.02238114
-0.00551321
-0.03697826
0.01538340
-0.00791770
0.01107576
0.00905450
0.00461900
0.00573390
0.00131070
-0.00146453
0.00319545
-0.00285627
0.06357645
-0.00680219
-0.00923355
0.03206700
-0.01180783
-0.11024441
-0.00182348
0.07065575
0.10443976
-0.02212737
0.00236136
-0.00203035
0.00090449
0.00353265
-0.00441154
-0.01068106
-0.00136848
-0.00048131
-0.00050907
-0.00426287
0.01561723
0.00809542
-0.01490990
-0.00682277
0.00192814
0.01029915
-0.00476572
-0.01083313
-0.01432704
0.00666747
-0.02144049
-0.00420016
-0.00739295
0.02709503
0.00131737
-0.01302288
0.01829839
-0.00680256
-0.00010598
-0.01545886
0.01413030
0.00855823
0.02065337
0.00322161
0.01955512
0.01071165
-0.01368646
0.01074021
0.02472663
0.01283190
-0.00352493
-0.00358199
-0.00432412
-0.00323329
-0.00296335
-0.00356016
-0.00327578
-0.00209298
-0.00325931
-0.00428100
0.00177728
-0.00119615
0.00177870
-0.00234000
-0.00495967
-0.00799828
-0.00140308
-0.00333610
-0.00052683
-0.00323499
0.01605017
-0.03326872
-0.01855767
0.01328080
-0.03552117
0.00910373
0.03570186
0.00855968
0.00079949
-0.02264246
-0.01258158
-0.10847739
0.19304943
0.11465965
0.00814326
0.08188143
-0.29886228
-0.02864523
0.21137828
-0.24566466
-0.00427468
-0.00873353
-0.00458011
0.00730765
0.00963121
-0.02168994
0.01511940
0.01029766
-0.00794797
-0.00015472
-0.01058273
-0.02560701
-0.01993970
-0.00909063
0.00459952
0.01042269
0.01254174
-0.03231262
0.02522023
-0.00759102
0.00404973
0.00415096
0.00418386
0.00416285
0.00424531
0.00408701
0.00410953
0.00413828
0.00412695
0.00414451
-0.04560887
-0.00355698
-0.06629219
-0.07706810
0.10115518
0.02066037
0.02430993
-0.00414364
0.07556668
0.03635028
0.00933378
0.01242472
0.01257373
0.01027793
0.01003970
0.01126793
0.00988193
0.00931744
0.01208744
0.01000453
-0.00186016
-0.00166392
-0.00168627
-0.00177807
-0.00176532
-0.00162614
-0.00177554
-0.00161601
-0.00166659
-0.00168995
-0.00267431
0.00313761
-0.00325647
0.00102859
0.00534555
0.00188093
0.00656625
0.00412820
0.00313161
0.00501224
0.00290949
-0.01006468
0.00153702
0.00347938
0.03783883
0.03879587
0.02012027
0.01364260
-0.00187386
0.02280757
0.01730331
0.01532228
0.01614397
0.01909975
0.02216328
0.02149493
0.01591173
0.01903125
0.01925204
0.02036780
-0.02691885
-0.02501918
-0.02586936
-0.02652636
-0.02655062
-0.02759853
-0.02624442
-0.02542235
-0.02623174
-0.02709297
0.01377573
0.01649435
0.00494518
-0.00020332
0.02389905
0.00631985
0.02943983
0.00410776
0.01724076
0.00791179
0.00918391
0.00926094
-0.01995312
0.00161211
0.00091398
-0.00149370
0.02250706
0.03187286
0.00788338
0.01391398
-0.00792173
-0.01601371
-0.00957296
-0.01361762
-0.00530471
-0.00803485
-0.00249084
-0.00786729
-0.00865768
-0.01253848
0.00586303
0.00757621
0.00416223
0.01056501
0.00662593
0.00633602
0.00661844
0.00503045
0.00741178
0.00637513
-0.01501910
-0.01537483
-0.00433887
-0.01022138
0.00575046
-0.02167937
0.00533282
-0.00351556
-0.00457384
-0.00760961
-0.02949511
0.02681270
0.02164953
0.01438264
0.01349068
-0.00465052
-0.01890945
0.01750553
0.00233236
0.00608925
-0.01226510
0.00588246
-0.01766177
-0.00839036
-0.02394417
-0.00567050
-0.01798107
-0.00224651
-0.01180303
-0.01456481
-0.11036592
0.12781753
0.02988938
-0.03793021
0.00903389
-0.02382725
-0.06732050
0.04576351
0.08691708
-0.01077927
0.00360139
0.00349371
0.01969063
0.00568627
0.00183438
0.00678914
0.01748460
0.01304204
-0.00142650
0.01511733
0.01037458
0.00656493
0.00820002
0.00898765
0.00607665
0.00948223
0.01098626
0.00849656
0.00703416
0.00868883
-0.00631314
-0.00495256
-0.00711145
-0.00221031
-0.00646787
-0.00267112
-0.00384085
-0.00510013
-0.00467655
-0.00412276
-0.01143955
-0.00410574
-0.04325281
-0.01276369
-0.01763995
-0.01882198
-0.00914723
-0.00805921
-0.02380897
-0.01942813
-0.01861154
-0.01182668
-0.01651582
-0.01960235
-0.01747449
-0.01351907
-0.01322475
-0.02056283
-0.01554901
-0.01807487
0.00678606
-0.00049644
-0.01212798
0.06122369
-0.00870218
-0.03090377
-0.00820694
-0.01362089
-0.02107222
-0.02416235
0.00780491
-0.03568266
0.00737146
0.08440650
-0.14946222
0.07561085
-0.00615225
-0.00305224
-0.04013468
-0.00537876
0.01969970
0.00413221
-0.01340550
-0.03218428
-0.02091851
0.02581844
0.10403658
0.00025180
-0.03336260
-0.02381127
-0.02483760
-0.15086007
0.05715247
0.05825730
-0.03105828
0.06065785
0.05697464
0.01041090
0.09096172
-0.00462876
-0.00619180
-0.00118789
-0.00480293
0.00463344
-0.00306745
-0.00117342
-0.00832939
0.00657933
-0.01276077
-0.00136942
-0.06452601
-0.09004980
0.07984518
0.13701688
0.07666043
0.10633461
-0.06833133
-0.02322063
0.09924255
-0.08090174
0.07810385
-0.01209256
0.03651459
0.01606624
0.09863634
-0.00315677
0.01489683
0.04138245
-0.09350461
0.02699348
0.00268715
0.00247053
0.00353437
0.00363837
0.00319873
0.00321806
0.00201678
0.00301709
0.00280454
0.00317195
-0.02131485
0.00698890
-0.03353822
-0.01379471
-0.01569366
-0.00165796
0.00039312
0.00510082
-0.01116052
-0.00459274
0.00503079
0.00607994
0.00592624
0.00478082
0.00584189
-0.00200592
-0.00171405
0.00419707
0.00623451
0.00098039
0.00964608
-0.01436083
0.00577707
-0.00224938
-0.00450121
0.00603048
0.00461088
-0.00456193
0.00609483
-0.00385392
-0.00472389
-0.00487819
-0.00440081
-0.00458230
-0.00476386
-0.00604756
-0.00457756
-0.00503486
-0.00493166
-0.00524200
0.00152322
0.00265631
0.00708874
0.00793508
0.00836163
-0.00186660
0.00136775
-0.00824498
-0.00103154
0.00095631
0.00516666
-0.00467143
-0.00961434
-0.00740715
-0.01019204
-0.01236622
-0.00659669
-0.00396035
-0.00758267
-0.01054270
-0.00011684
-0.00087550
-0.00301263
-0.00461916
-0.00496007
-0.00534039
-0.00504468
-0.00712824
-0.00368079
-0.00330330
-0.01440585
-0.00032119
0.05723729
-0.00144161
0.02479133
-0.02837265
-0.01514828
-0.00973791
-0.00062234
-0.01813436
-0.01385833
-0.01374458
-0.01503281
-0.01541534
-0.01747450
-0.01615891
-0.01309604
-0.01420988
-0.01583964
-0.01599312
0.00076505
0.00377463
0.00372923
0.00155786
0.00237205
0.00242891
0.00338596
0.00254401
0.00305559
0.00256628
0.02062248
-0.09488064
0.01512373
0.03674711
0.00388925
0.06146056
0.07547311
-0.05500529
0.07289378
-0.03453801
-0.00168227
0.00323940
0.00102252
0.00510543
0.00623252
0.00642427
0.00141513
0.00313867
0.00184154
0.00575851
-0.01294463
-0.01358250
0.00013139
-0.01970528
0.00799496
-0.01104475
-0.00511872
0.02476923
0.00283784
0.01837080
0.00394940
0.00047735
-0.00060437
-0.00558058
-0.00114161
-0.00251529
-0.00688681
0.00001089
-0.00439892
-0.00178626
-0.04972399
0.02446952
0.00131386
0.00195410
0.01970446
-0.02155133
-0.01377975
-0.00890077
-0.00617926
-0.00522450
0.04655148
0.03448511
-0.04825661
0.01813165
0.00871704
-0.02599587
-0.04723849
0.00151681
-0.02847055
-0.06468448
-0.01523752
-0.01601991
-0.00213817
-0.02432166
0.04132954
-0.02136852
-0.04384005
0.00961497
0.03442360
0.00015791
0.00152767
0.00645873
0.01124994
0.00667297
0.00778621
0.00143004
0.00201046
0.00492547
0.00637224
0.00447146
0.00376773
0.00485830
0.01674715
0.00658784
0.02143137
-0.00114929
-0.01246903
-0.00147223
0.01834994
0.00713318
0.00717389
0.01477144
0.01294376
0.00872973
0.01566592
0.01245066
0.01353141
0.01218503
0.01589479
0.01378446
0.00187554
0.01507176
0.01016352
0.01989168
0.00683238
-0.00069875
0.01441304
0.00707461
0.01140320
0.00362116
0.00449386
0.01925551
0.02123541
0.00766375
0.00466638
0.00384364
0.01477615
0.00797311
0.01148686
0.00602740
-0.00336006
-0.01387540
-0.06318349
-0.02643961
-0.00450122
0.07526969
0.05805046
0.00743994
-0.03603441
-0.01998381
-0.06421614
0.00713189
-0.01847119
0.03874854
0.00753613
0.04403144
-0.03604685
-0.01157825
-0.01487366
0.02152053
0.02299454
0.00839213
-0.03566121
0.01739874
-0.02847056
0.01040964
0.05751786
0.00044282
-0.00216234
0.00329081
0.00020800
0.00044233
0.00171391
0.00003627
0.00040452
-0.00067662
0.00003328
0.00066369
0.00006414
0.00018586
-0.02458735
-0.00032842
0.00196270
0.00172531
-0.01163540
-0.00975389
-0.01732727
0.01506087
-0.02160083
-0.00042698
-0.00436524
-0.00377169
0.00533595
-0.01031430
0.05744201
-0.01678374
-0.06427333
-0.01499449
0.02685004
-0.02071882
-0.00904182
-0.00433843
0.02375468
0.03188772
0.05256550
-0.01946184
-0.00709159
0.05438394
0.04132301
-0.03156231
0.01624038
0.00112865
0.00902628
0.00954300
0.01142905
0.01545032
0.00068819
0.00177349
0.01013935
0.00688249
-0.01640589
-0.02312838
-0.01952911
-0.01510109
-0.02468015
0.02675108
0.01471865
0.00384692
-0.03482377
0.01250731
0.00660718
0.00607082
0.01001228
0.00845397
0.00856346
0.00716416
0.00731102
0.00744542
0.00626886
0.00808684
0.03452399
-0.01055696
-0.00986379
-0.04379617
0.02249713
0.08759233
0.10285947
0.00026784
-0.07228505
0.00712855
-0.00042687
0.00658346
-0.00260466
0.01437582
0.00407147
0.01525824
0.00698270
0.01150706
0.00317590
0.01438118
-0.00458606
-0.00714838
0.00034466
-0.00077288
-0.00209205
0.00446764
-0.01144801
-0.00894828
0.00326554
0.00106215
-1.07391632
0.47954857
-0.81300813
-0.49165142
0.06360245
0.91535950
0.01349522
-0.29284766
0.63346446
-0.05707465
-0.01147274
0.01311089
0.02094566
0.00207931
0.00043482
0.01057848
-0.00815483
-0.00413154
0.01891257
-0.00533586
-0.00585796
-0.00591274
-0.00582280
-0.00648048
-0.00534838
-0.00656296
-0.00636637
-0.00639402
-0.00578262
-0.00598007
0.01143812
-0.00816582
-0.00441783
-0.02124494
0.00989690
-0.00442902
0.02246904
-0.02159834
0.02316315
-0.00604086
-0.00388682
0.00859504
0.00217233
-0.00509989
0.00702874
0.00120550
-0.01067692
0.01275078
0.00284807
0.00763652
0.01989578
0.03069876
0.03065986
0.01657806
0.02933718
0.01845255
0.02454709
0.00592115
0.01696056
0.01013616
-0.09502035
-0.03643546
-0.02772307
0.02631729
0.01677642
0.05603150
-0.00017037
-0.00402116
-0.04478111
0.02324884
0.00098700
-0.00053656
-0.00141694
-0.00234541
-0.00100340
-0.00407973
0.00108819
-0.00466386
-0.00264430
-0.00316625
-0.00904843
-0.00902186
-0.02723061
0.01675467
-0.01559814
0.00495064
-0.00418081
-0.03771925
-0.00739579
-0.02085613
0.01993857
0.00420258
0.01305805
0.01975355
0.02305676
0.03217942
0.01771253
0.01658873
0.02286487
0.01789935
-0.00380107
0.01236047
0.01307983
0.01132598
0.00782759
0.01209043
0.00437249
0.01395833
0.01195159
0.00782872
-0.00863836
-0.00656511
-0.00742032
-0.00501208
-0.00887094
-0.01354182
-0.00977629
-0.00768413
-0.00684901
-0.00828653
0.31727469
0.36346254
-0.46156505
-0.72413242
0.47174552
-0.39759776
0.71774977
-0.07616892
0.68496740
-0.33262926
-0.00550087
-0.00062017
-0.01149680
0.01414418
-0.01293133
0.01608288
0.00539715
-0.00459341
-0.00104465
0.00934443
0.00652202
0.00524455
0.00783521
0.00810247
0.00787534
0.00898468
0.00711245
0.00676849
0.00774690
0.00736343
-0.02817796
-0.00790249
-0.00928675
-0.02568481
-0.01757942
-0.04787130
-0.01285787
-0.01062234
-0.03514791
-0.02484414
0.00396872
0.01124029
0.01820294
0.00912977
-0.00252591
-0.00982915
-0.01001403
-0.00616207
0.01443636
-0.01152891
0.00852734
0.00649307
-0.00103948
0.00042842
0.00437831
0.00927089
0.01602015
0.00353193
0.00254922
0.00294711
-0.00172306
-0.04058724
0.07861438
0.01061943
0.06484941
-0.07390346
-0.03837276
-0.04476961
0.02686722
-0.05892206
-0.01080613
-0.00474023
-0.00900839
-0.00799158
-0.00589193
-0.00409832
-0.00313350
-0.00857602
-0.00203956
-0.00332701
0.03690878
0.06417494
0.04021804
-0.03936134
-0.02661848
-0.05801179
0.03740241
0.02725484
-0.05946204
-0.03123729
0.00711950
-0.00634629
0.03285699
0.03661427
-0.01797540
-0.02876669
0.01513541
-0.00258375
-0.02274384
0.02674050
0.00689189
0.00990447
0.01202017
0.00870923
0.00425892
0.00064933
0.00383414
0.00436605
0.00794497
0.00904112
0.00352196
0.00925127
-0.00478139
-0.00388425
-0.00689049
-0.01175835
-0.00058088
-0.00050820
-0.00500333
-0.00990285
-0.00553296
0.00903063
-0.03436690
0.04281426
0.04610744
-0.00942769
-0.03172175
0.00120142
0.03086711
-0.01719544
-0.25840226
-0.09046111
0.19448312
-0.04865163
-0.06556359
0.22681557
0.05180620
-0.11885015
0.24382432
-0.09763830
-0.00856531
-0.00847520
-0.00872242
-0.00900427
-0.00878298
-0.00879887
-0.00834789
-0.00876986
-0.00855574
-0.00895978
0.01238911
0.01647489
0.00990980
0.01014257
0.02229104
0.01643616
0.01687551
0.01603795
0.01703620
0.01375864
-0.00379012
0.00061370
-0.00088825
-0.00567363
-0.00216451
0.00088829
-0.00056804
-0.00534279
-0.00101969
-0.00182526
-0.00626518
-0.00706259
-0.00762263
-0.00666599
-0.00627439
-0.00527615
-0.00489719
-0.00582334
-0.00768090
-0.00662405
0.00519053
-0.00108933
0.00050461
0.00341802
0.00550780
0.00242123
0.00282978
0.00306691
0.00506411
0.00474875
-0.01694641
-0.01683347
-0.01659513
-0.01760267
-0.01736121
-0.01762187
-0.01715361
-0.01730193
-0.01753942
-0.01740892
-0.00354973
-0.00943266
-0.00138279
-0.00903347
-0.01594829
-0.00168002
-0.01241556
-0.01605924
-0.00613483
-0.01249938
-0.06122972
0.05359259
0.02565299
0.02004289
-0.01832478
0.05861881
-0.04074286
0.04457895
-0.04276476
-0.01274880
-0.00494154
-0.01296480
-0.00534615
-0.00433934
-0.00431979
-0.00377887
-0.00520194
-0.00620730
-0.00164877
-0.00557910
-0.01100886
0.01168241
-0.00667963
-0.00326614
-0.00408069
-0.00347197
0.00266867
-0.00071120
-0.00526522
-0.00162953
-0.00156235
-0.00189698
-0.00140660
-0.00114657
-0.00106532
-0.00172756
-0.00139382
-0.00161688
-0.00105374
-0.00141798
0.02627822
0.01294952
0.00680319
0.02039602
0.00490882
0.01548145
0.01503073
-0.00433291
0.00517750
0.00145755
0.00629499
0.00365066
0.00873886
0.00545528
0.00925149
0.01070187
0.01089353
0.00444109
0.00636424
0.00773602
-0.02749264
-0.02894714
0.05661383
-0.01892335
0.03417205
-0.03014743
-0.05071793
-0.03800662
0.04371378
-0.02593959
-0.00053400
-0.01276501
-0.00347191
-0.00587373
-0.00810667
-0.00316498
-0.00346918
-0.00063928
-0.00530213
-0.00133394
0.03497035
-0.00915104
-0.00337872
0.01527153
0.02754020
-0.00589715
0.02070035
0.03125236
0.00574063
-0.01572469
0.01108226
0.00127361
0.00649580
0.00819046
0.00250882
0.01258047
0.00680445
0.00798792
0.00995192
0.00631911
-0.00356502
0.01231620
-0.00454321
-0.01432033
0.01035103
0.01186533
0.00707598
0.00967122
-0.00096220
-0.00984368
0.02012425
0.14078201
-0.09659588
-0.05771204
0.04281069
-0.03244071
0.02170250
0.00583053
0.02033602
0.06121945
0.01947545
0.01618246
0.01594361
-0.00637622
0.00007813
0.00862407
0.01867084
-0.01857140
0.00828848
-0.00803391
0.02477354
-0.01161287
0.00642316
-0.00093095
0.00245815
-0.00040274
0.01749378
-0.00211524
0.01188656
-0.00370496
-0.00329928
0.00159739
-0.00256419
-0.00498554
-0.00633080
-0.02469659
-0.00713614
-0.00494247
-0.01354096
-0.00934096
-0.00336124
0.02583895
0.00271653
0.01655646
-0.00442937
-0.00946670
0.00230153
0.02510001
-0.01344886
-0.00332807
-0.00591520
-0.00663061
-0.00792131
-0.00575352
-0.00629757
-0.00260998
-0.00539706
-0.00846932
-0.00614768
-0.00502528
-0.13208768
-0.02731743
-0.09894323
0.01200070
0.05220231
0.07288308
-0.06681826
0.03275811
-0.06511630
0.00879340
-0.00156704
-0.00159794
0.00039389
-0.00230718
-0.00585268
-0.00253391
-0.00149507
-0.00327628
0.00356975
-0.00174112
-0.01204691
-0.00058493
-0.03504456
-0.01005235
-0.01065435
0.00182165
0.00399214
0.00731543
-0.01921141
-0.01219001
0.00332760
-0.00765294
0.00187915
0.00111234
0.00038906
0.00708950
0.00490508
-0.00457676
0.00751513
0.00024893
-0.00334121
-0.00516422
-0.00372771
-0.00375949
-0.00144442
-0.00847666
-0.00508661
-0.00477714
-0.00367447
-0.00653620
0.00187986
0.00186217
0.00206218
0.00182966
0.00186431
0.00186552
0.00178101
0.00185031
0.00196607
0.00200549
-0.01463024
0.00404634
-0.01289428
-0.00873001
-0.01962360
-0.05813925
-0.01791638
-0.01248790
0.00324677
-0.00094756
0.00001167
0.00138471
0.00108078
0.00099445
0.00130322
0.00056641
-0.00005679
0.00132397
0.00062738
0.00138759
-0.00015053
-0.00046204
-0.00041148
-0.00074904
-0.00106635
-0.00034616
-0.00044113
-0.00082829
-0.00076779
-0.00076172
-0.12539023
-0.12543206
0.07510273
0.03573050
0.10893932
0.22548981
-0.07348247
-0.08247408
-0.08744913
0.02090586
0.00966329
-0.05220877
0.02750292
0.02384673
-0.02524987
0.05296953
-0.03761125
-0.06608874
0.03698134
-0.00686283
0.00922527
0.00680429
0.01332366
0.00824010
0.00375313
0.01135073
0.01188648
0.00970831
0.00434656
0.01397974
-0.01530718
-0.00572254
0.00287044
-0.02601176
0.01302019
-0.01888567
0.00977835
-0.00845267
-0.00767585
0.01749112
-0.06331933
0.04347044
-0.08382723
0.04838962
-0.06668357
-0.01179468
0.09807325
0.09075691
0.05961978
0.00764802
0.00364359
0.00493392
0.00180913
0.00138893
0.00517234
0.00157164
0.00420140
0.00277294
0.00386806
0.00348881
-0.00795838
-0.00234003
0.00813059
0.00641091
-0.00728814
-0.00911987
-0.00581090
-0.00209151
0.00426908
0.00858737
0.00596485
0.08459925
0.03711087
0.02499523
0.01307922
-0.07480688
-0.09829033
0.00015222
-0.00702480
-0.01947274
0.00110721
0.00917684
0.00237262
0.00450206
0.00749633
0.01096091
0.00851977
0.01231102
0.00381520
0.01312085
-0.00075083
0.01880905
-0.02799389
-0.01153763
-0.01710814
-0.00946451
0.00680450
-0.00242641
-0.02172630
-0.00418982
0.00700959
-0.00266046
0.00311427
-0.00927454
0.01190140
0.01825938
-0.00936739
-0.00980777
-0.00454768
0.01355299
0.01921288
0.00326990
0.01416586
0.01835774
0.00580941
-0.00331644
0.00636272
0.01274152
0.00206249
-0.00422292
0.00183132
0.00233315
0.00167514
0.00155047
0.00222770
0.00190113
0.00216673
0.00267243
0.00226042
0.00184018
0.00046762
-0.00172972
0.00403166
0.00601395
0.00154047
-0.00226328
0.00003704
0.00245747
0.00235606
0.00043813
-0.02140140
0.00406076
0.00291734
0.02401583
-0.01218142
0.00156654
-0.00095853
0.00032532
-0.01709329
-0.00852362
-0.00509997
-0.00831496
0.02535147
0.00352284
0.02017076
0.01474286
-0.01149849
-0.01804438
0.02144432
0.00528965
-0.04805510
-0.00821241
-0.01807961
0.04321090
-0.03477453
0.02710507
-0.02274638
-0.03327997
-0.04408438
0.03188423
-0.00000922
-0.00132395
0.00115812
-0.00186753
-0.00029994
-0.00191410
-0.00151384
-0.00272477
-0.00129651
-0.00192453
0.04194194
0.02878367
-0.03361486
-0.08054569
0.05786899
-0.04269346
-0.06707969
0.00212530
-0.04032013
-0.08748773
-0.01057322
-0.00878418
-0.00955191
-0.00265957
-0.00594197
-0.01171029
-0.01101639
-0.00909892
-0.00689258
-0.00959014
-0.02968315
-0.09820554
0.93978536
-0.33874702
-0.00451437
0.09357654
0.24606626
0.35996979
-0.54073530
-0.52338213
0.01560852
0.01272365
0.00480932
0.00532390
0.01193953
0.00161510
0.01449982
0.01825254
0.00744319
0.01523754
0.00878679
0.00520942
0.00503459
0.00664093
0.00836038
0.00593696
0.00518627
0.01433662
0.00672210
0.00950300
-0.00938813
0.00611116
0.00910125
0.00588803
-0.00563305
-0.02024671
0.00267272
-0.00372834
0.00014007
-0.01084697
-0.00675392
0.01542650
0.03564518
-0.01043494
0.02434243
-0.00652123
0.00676440
-0.00110238
0.00941540
0.00539377
0.00228543
-0.00028926
0.00045017
0.00040959
-0.00092231
0.00029917
0.00244879
-0.00026160
0.00089362
0.00071980
-0.01814670
0.04014485
-0.01459266
-0.10960060
0.04237430
0.14254585
0.04571721
0.05306968
-0.03616392
-0.09238619
-0.00672594
-0.00682269
-0.01056291
-0.00642366
-0.01062641
-0.01075039
-0.00543833
-0.00559814
-0.00845782
-0.00954943
-0.05653870
0.06027613
0.05208950
-0.03241910
-0.01636817
-0.03655222
-0.01333633
-0.04272538
0.02345561
0.00554418
-0.00671658
-0.03286234
-0.01943538
-0.00265894
-0.00436220
-0.00009638
-0.01033260
-0.00740639
-0.01634841
-0.02468060
0.01226496
0.00692888
0.00782214
0.00735200
0.00662416
0.00123831
0.00328267
0.00925627
0.00185804
-0.00125173
0.00760187
0.00093388
0.01098875
0.00484085
0.00038203
0.00524201
0.00167321
0.00156391
-0.00189027
0.00405481
0.00046772
-0.00006139
0.00178007
-0.00187826
-0.00064447
-0.00405144
-0.00107571
-0.00203581
-0.00064483
-0.00223973
0.01463669
-0.01056988
0.02405407
0.02786593
-0.02693668
-0.00365733
-0.00031967
0.00667707
0.01493384
0.00516052
-0.02858171
0.01119453
-0.01352887
-0.04482799
0.01952791
0.01793082
0.00451614
0.00595475
-0.00777578
0.01126878
0.00562990
0.02697918
0.00676693
0.00158186
-0.03803791
-0.03943631
-0.02690738
0.02173709
0.01536779
0.01704883
0.00987007
0.02311561
0.01749924
0.01910452
0.00143644
0.01411935
0.01308308
0.01186871
0.01270927
0.01260904
0.01605125
0.01048938
0.00751803
0.01467553
0.01268003
0.01365054
0.00718294
0.00746275
0.01446490
0.01402130
-0.01648797
0.00336560
-0.00943143
-0.00868171
0.00161057
-0.00625006
0.00231006
-0.00303577
0.00178103
-0.00470437
0.00336865
-0.01379952
0.03187909
0.02483069
0.02511773
-0.01843766
-0.04280297
0.02414985
0.00078573
0.06128519
0.00544730
0.00819963
0.00663118
0.00892414
0.00697786
0.00525608
0.00721110
0.01007012
0.00642538
0.00938376
0.01892471
0.00366858
0.01701476
0.02936404
-0.00584895
0.02083447
0.00172436
-0.00031699
0.00148033
0.02382834
-0.03561478
0.02596481
0.01952098
0.00932125
0.00648178
-0.02474937
-0.02404164
0.02493662
-0.02626082
0.00101540
-0.03164151
0.19668470
-0.00230738
-0.06647792
-0.01326266
-0.08885010
-0.00594815
0.00068369
0.02330384
0.01737964
0.03095390
0.02512145
-0.02309253
-0.06043287
-0.04983499
-0.07238469
0.02807346
-0.01746740
-0.08235224
-0.04797178
-0.04098426
0.13091183
0.06929746
-0.05376460
0.10071284
0.23553586
0.01027123
0.12745607
0.09008794
-0.02883774
-0.02937833
0.01707975
0.02143846
-0.02611838
0.02506045
0.00965067
-0.02085005
0.03242371
0.01638815
-0.01013474
-0.00593621
-0.00944209
-0.01374152
-0.01174014
-0.00839381
-0.01428124
0.00475296
-0.00688857
-0.00999520
-0.00998510
0.84590501
-0.20451929
-0.13363923
-0.65999037
0.71808082
-0.52579111
-0.26483002
0.49735233
-0.20018230
0.49128032
0.06121218
0.04047579
-0.08201378
-0.03686854
-0.06930607
-0.07609182
0.00097352
-0.01480845
-0.00461880
0.02532630
-0.01307686
0.02192047
0.02556184
-0.00985120
-0.00997065
-0.03158544
0.01296537
0.03858379
-0.03637709
0.01035649
0.00485553
0.00213424
0.00737199
-0.00005198
0.00086267
0.00480342
0.00710279
0.00398961
0.00355961
0.00338831
-0.00577941
-0.01794790
-0.00975159
0.02324875
-0.02172831
-0.00766764
-0.01155979
-0.00648748
0.01217409
0.01802336
-0.00993371
-0.00384194
-0.00519239
-0.01004196
-0.00873088
0.00458794
-0.00278978
-0.00732430
0.00157289
-0.00641506
-0.00102669
-0.00091953
-0.00037478
-0.00033503
0.00042674
0.00016628
-0.00078931
-0.00041759
-0.00017129
-0.00046100
-0.03704992
-0.02959875
-0.04472870
0.00480912
-0.01609739
0.01124247
-0.00605259
-0.00664661
-0.02670346
-0.01627535
0.00860196
0.00183001
-0.00299137
-0.02688169
0.00333643
0.02122059
0.00341988
0.00667282
-0.00281245
-0.00109637
-0.01331109
-0.00556625
-0.00049412
-0.00319347
-0.00643687
0.00321474
-0.02508422
0.00595881
-0.00242306
-0.00599542
0.02142593
-0.04542548
-0.02339496
0.03756895
-0.01401424
0.03202178
0.02021877
0.00069955
0.03194329
-0.00478824
0.03482491
-0.01979572
0.00884152
0.07495166
-0.04338648
-0.01585657
0.00528280
-0.04095551
-0.02089434
0.07023761
-0.04630469
0.05972005
0.03379348
-0.02454792
-0.03282216
-0.00372600
-0.02914281
0.00162243
0.01245088
0.01088036
0.03531043
-0.04314129
-0.01308462
-0.01325894
0.00155141
-0.01314085
0.01985371
-0.03732447
0.00260488
-0.01838953
0.01238641
0.02440424
0.02888756
0.00058853
-0.01795403
-0.02219909
0.01645392
0.00534503
0.00102890
-0.00847588
0.05096811
-0.04786953
0.00488642
-0.01433912
-0.09942603
0.11125213
0.07556052
-0.02013359
0.00609495
-0.06849115
-0.00069441
-0.01786851
-0.00655344
-0.01052212
-0.01487125
-0.02144093
-0.00532983
-0.01378408
-0.02993790
-0.02313833
-0.00618033
0.01328348
-0.02802910
-0.03430979
0.01909684
-0.00954653
-0.00487899
0.03248927
-0.00051012
-0.00859846
0.02854455
-0.00891894
0.02517030
-0.00766250
0.00072279
-0.00012380
-0.01119842
-0.01933812
0.00464012
-0.00118528
-0.03260644
0.04821897
0.05252175
-0.05998946
0.03987744
-0.06644811
-0.00321905
0.02886633
0.02501868
0.00271963
-0.00567387
-0.00541774
-0.00542123
-0.00534377
-0.00512883
-0.00526190
-0.00613362
-0.00571794
-0.00571702
-0.00596651
-0.00097525
-0.00826837
0.01458269
-0.01172263
0.00579528
-0.00721553
-0.00030340
0.02900290
0.01090172
0.00535276
-0.00088789
-0.00151889
-0.00126623
-0.00116326
-0.00195835
-0.00162279
-0.00143967
-0.00171343
-0.00152670
-0.00163620
0.15603870
-0.10713378
-0.05673711
-0.07854489
0.06941675
-0.04766462
0.13336165
0.01784408
-0.03195474
0.07385226
-0.01401137
-0.01505125
-0.01038772
-0.01162704
-0.01339490
-0.01602354
-0.01380251
-0.01371714
-0.01065557
-0.00741529
0.00079909
0.00065785
0.00046990
0.00034337
-0.00000733
0.00086265
0.00096799
0.00013053
0.00042374
0.00042269
0.00698955
0.00598816
0.00486762
0.01475195
0.00518573
-0.00189894
0.00233790
0.00393479
0.00880861
0.00830385
0.02067229
-0.00535205
0.00937704
0.01070493
-0.00162470
0.00931166
-0.01526092
0.00590935
-0.00999363
0.01116836
0.01136831
-0.03965019
0.00019471
-0.02838380
-0.02213260
0.04240568
0.03404248
0.03109430
-0.01080454
-0.01690873
0.00608605
0.00615613
0.00601494
0.00647376
0.00597259
0.00633117
0.00608359
0.00642179
0.00615041
0.00619982
0.00131539
0.00347879
0.00419932
0.00320868
0.00569507
0.00161170
0.00069850
0.00156891
0.00440449
0.00257059
0.01151295
0.03363477
0.01265188
0.01089274
0.00986329
-0.00519646
0.04751490
-0.00247181
-0.00778087
-0.00272747
0.00540523
0.00502835
0.01097457
0.00987840
0.01165601
0.00928122
0.00646597
0.00721394
0.00587522
0.00798499
-0.03217568
-0.03790582
0.04043526
-0.03421404
0.01860274
0.01705148
-0.01826197
0.03615090
0.02451277
0.02314648
0.01216194
-0.00436933
-0.00543931
0.01002850
0.01512897
-0.01607840
0.02303048
0.02481271
-0.00472776
-0.00074684
0.02784705
-0.01201607
-0.01873842
-0.01039523
-0.01844616
0.03379119
0.02662055
-0.02243762
-0.04268679
0.02183834
0.00521740
-0.03787520
-0.03025865
0.05960383
-0.03398322
-0.01447474
0.06033690
-0.02944732
-0.05971828
0.01504707
-0.00212200
-0.01510910
-0.00625121
0.01355535
0.00260710
0.02126794
-0.00982058
0.00438337
0.00543651
0.02754631
-0.01209226
-0.01078770
-0.01273544
-0.01131869
-0.01293542
-0.01161340
-0.01249592
-0.01195642
-0.01261077
-0.01163019
0.00722244
0.00064352
-0.00174143
-0.00388870
0.00450451
-0.00088274
-0.00050547
0.00419393
0.00450448
0.00517290
-0.00322298
-0.00363018
-0.00619366
-0.00280973
-0.00166932
-0.00454974
-0.00383437
-0.00111961
-0.00549123
-0.00145503
-0.03375394
0.03379552
0.03090107
0.03406214
-0.01017414
-0.10490166
-0.08208594
-0.07968353
0.01988334
0.05472793
-0.11781213
0.02958588
-0.12794648
0.00810537
0.04121892
0.08159054
0.07800930
0.06823602
0.04930310
-0.04266210
-0.00478394
-0.00517612
-0.00467206
-0.00482431
-0.00455935
-0.00528473
-0.00447969
-0.00491497
-0.00501610
-0.00522133
0.01038326
0.00751613
0.01182092
0.00828631
0.00590001
0.00740467
0.00718500
0.00988406
0.00882267
0.00923020
0.00594480
0.00594796
0.00595615
0.00589788
0.00595057
0.00593198
0.00587355
0.00592341
0.00594182
0.00591917
-0.00853454
-0.00507336
-0.00775372
-0.00769799
-0.00696908
-0.00843929
-0.00855048
-0.00732493
-0.00588227
-0.00950680
-0.02875620
-0.09469796
0.04612090
0.06049374
-0.02818330
-0.01181067
-0.01930235
0.01179227
-0.02159765
-0.04000850
0.11782284
-0.01969419
0.06028856
-0.20884384
0.14340793
-0.14734691
0.20531113
-0.17886591
0.10443159
0.01565823
-0.01182011
-0.00160691
-0.00573633
0.00054069
-0.01006936
0.00741330
-0.00209091
-0.00579325
0.00015421
0.00046765
0.00521320
0.00512367
0.00520244
0.00602810
0.00572152
0.00470817
0.00526161
0.00476291
0.00536679
0.00469993
0.00828012
0.00877309
0.00855377
0.00740164
0.00818397
0.00890815
0.00862558
0.00865288
0.00842895
0.00878001
-0.00713519
0.01870346
0.02075510
0.02634794
-0.00675647
0.04614921
0.00077006
-0.01292336
0.02364894
-0.00535543
0.01427153
0.01219660
0.01763982
0.01577687
0.01915659
0.01850390
0.01270646
0.01088558
0.01747021
0.01597140
-0.01231608
-0.03420933
-0.02650059
-0.02744832
-0.02192696
-0.00323503
-0.03002026
-0.02326221
-0.02864423
-0.02951492
-0.01736579
0.00242074
-0.00874857
-0.00158104
-0.01149692
0.02545900
-0.00028789
0.00083964
0.00145550
0.00945469
0.00089950
-0.02382830
-0.00924468
0.02626388
-0.01190915
0.02506296
0.01400350
-0.00904172
0.01102735
-0.00643709
0.00391434
0.01448038
-0.00533388
-0.00359851
-0.00817257
0.00683355
0.00165947
0.02885772
-0.00917921
0.00849868
0.01051215
-0.01362474
-0.00276690
0.00594055
-0.00944809
0.01409590
0.00127302
0.00000576
0.00756093
-0.00592589
0.00500480
0.01221433
0.02557488
0.03833586
-0.01177185
-0.04525563
-0.02901302
0.02084802
0.03081435
0.00935290
-0.00160319
-0.00384505
-0.00070257
0.00103399
-0.00216496
-0.00169673
-0.00390115
-0.00566319
0.00082609
0.00449120
-0.00382664
0.02098841
-0.01155360
0.00369529
0.00752241
0.01626739
0.03363032
-0.00832310
0.01097726
-0.01552152
0.04086902
-0.05199802
0.05836663
0.02777880
0.00798203
-0.04159738
0.02006226
0.01333821
0.00213035
-0.01342639
-0.12089034
-0.00849077
0.00587735
0.05749839
0.01391793
-0.05128315
-0.03020708
0.12893212
-0.06156077
-0.03387749
0.01137212
0.01263151
0.02137195
0.01978496
-0.00240545
0.00230512
0.01433706
0.00317528
0.00876362
0.00396867
-0.02225764
0.00995714
0.01756092
0.00990015
-0.00312192
-0.03784293
-0.00659793
0.00951598
0.02562258
-0.01058460
-0.01160614
-0.01146792
-0.01658642
-0.01255466
-0.01018030
-0.00581349
-0.00945008
-0.01145583
-0.00875311
-0.01131949
0.01159587
-0.02332136
0.00270638
0.02360456
0.05673972
-0.06253459
-0.02903424
-0.02009381
0.06257574
-0.02181656
-0.02168960
0.02225970
-0.00186496
-0.02365514
0.01286477
-0.05672676
-0.02388911
0.02400563
-0.07363118
0.02216980
0.01016252
0.01013450
0.00988748
0.00986495
0.00990870
0.01098754
0.01097492
0.00998122
0.00998565
0.01016604
0.01134315
0.00991112
0.00957763
0.00748318
0.01202052
0.00919976
0.01106766
0.01240244
0.00985254
0.01058182
-0.01693752
-0.01604384
-0.01571063
-0.01674965
-0.01640390
-0.01571564
-0.01706631
-0.01635126
-0.01604127
-0.01578489
0.00631752
0.00644813
0.00902627
0.00600640
0.00532182
0.00629763
0.00626107
0.00580242
0.00475581
0.00802820
-0.00024327
0.00029534
0.00106453
0.00083316
-0.00096669
-0.00072258
-0.00141670
-0.00124293
-0.00220177
-0.00108070
-0.00264180
-0.00025148
-0.00117580
0.00087472
0.00093991
0.00135767
-0.00031604
-0.00131053
-0.00020439
-0.00104742
0.00534724
0.01891141
0.03918069
0.01492872
0.01757522
-0.05356535
-0.03904954
0.00792528
-0.01154842
0.01392056
0.01115387
0.01822110
0.01169991
-0.00048757
0.00575664
0.01066547
0.00420324
0.00943766
-0.00371746
0.01712049
-0.13598579
0.05310239
0.05917826
0.03353288
-0.04361596
-0.03750269
-0.03989320
0.05753467
0.12215450
-0.04951379
-0.01454446
-0.00208431
0.00498638
0.02342643
0.00442704
-0.01027489
-0.02362396
-0.00860500
-0.01396713
-0.02068505
0.00256283
0.00236242
0.00136639
0.00083597
0.00177726
0.00043878
0.00152370
0.00187069
0.00196702
0.00109410
-0.00928607
-0.00785807
-0.00653498
-0.00001759
-0.00635633
-0.00649702
-0.00180224
-0.00763874
-0.00503629
-0.00799224
-0.01088440
-0.01425105
-0.01083621
-0.02022817
-0.01578434
-0.00077648
-0.01693513
-0.00650371
-0.00788320
-0.02834775
-0.00478682
-0.00142169
0.00522327
0.01076153
0.00664211
0.00987684
0.00647751
-0.00731644
0.00903326
-0.00229063
0.02235950
-0.03460240
-0.02043454
-0.04200951
0.03981794
0.00648180
0.00132405
-0.04272146
-0.03550254
-0.00523596
0.00518202
-0.03055988
-0.01014260
0.01183767
-0.02218567
0.01070382
-0.01301095
0.01198933
-0.04009631
0.00362008
0.00470177
0.00493554
0.00546916
0.00526738
0.00400891
0.00486558
0.00442445
0.00498536
0.00529132
0.00470347
0.01292213
0.02204575
0.01876776
0.01936653
0.01365892
0.01511380
0.01766827
0.01790201
0.01873860
0.01436293
-0.00115974
-0.00087386
-0.00047750
-0.00068342
-0.00050697
-0.00134711
-0.00185258
-0.00059684
-0.00018580
-0.00079050
0.01993954
0.01608055
0.01787320
0.01821004
0.01633207
0.00681636
0.01457114
0.00977428
0.01786958
0.01201824
0.00040962
0.00599944
0.01284482
0.01603488
0.01734173
0.02087143
0.01563013
0.00688655
0.02200642
0.01314791
-0.07502861
-0.13259481
-0.05286236
0.02875009
0.03135939
0.14331053
0.12497422
0.00660738
0.18069799
-0.09462943
0.01205652
0.00964937
0.00538655
0.00673859
0.00796334
0.00263168
0.00997574
0.00922908
0.01038885
0.00578026
-0.01175775
0.01062131
0.01605924
0.01547315
0.00520657
-0.03844461
-0.01907904
0.01014292
0.00127530
0.00404056
0.00566954
0.00573811
0.00543399
0.00555869
0.00544738
0.00577366
0.00555178
0.00568227
0.00567905
0.00580839
0.00410341
0.01036674
-0.00768547
0.00582173
0.00828522
-0.01959423
-0.01847448
-0.02929725
0.01765441
-0.01496000
0.00838693
-0.06547714
0.04454001
-0.01910102
0.15471247
-0.03805034
0.00209327
-0.04907140
-0.00914484
0.03585787
0.00383445
0.00243623
0.00493647
0.00469000
0.00370751
0.00326217
0.00354682
0.00283165
0.00327061
0.00383893
0.07379343
-0.01610481
0.01790562
0.02135330
0.01442589
0.00328634
0.03762976
0.00819683
0.00393883
-0.01605385
-0.00148574
0.00261265
0.00137442
0.00063849
0.00412071
-0.00069416
0.00220595
0.00104697
0.00291104
-0.00004271
0.00061071
0.00074237
-0.00105515
0.00065697
0.00256650
-0.00015076
0.00220559
0.00101258
-0.00213849
0.00000982
-0.00607138
-0.00981583
-0.00844747
-0.00884787
-0.00970754
-0.01035982
-0.00943770
-0.01080497
-0.00847048
-0.00951425
0.00821058
0.00840706
0.00862152
0.00896536
0.00864053
0.00704541
0.00700297
0.00799735
0.00886353
0.00765757
0.00840578
-0.01565229
-0.00974069
0.00281905
-0.01254402
-0.01040496
0.00215295
-0.00904150
-0.00508284
-0.01500067
-0.01371466
-0.01376335
-0.01366514
-0.01375294
-0.01385215
-0.01381908
-0.01390684
-0.01378646
-0.01377539
-0.01378816
-0.00295235
-0.01479435
-0.01104006
-0.01628311
0.00680279
-0.00387299
-0.02901336
0.00950534
0.00713410
0.02508251
-0.00842432
-0.00756817
-0.00931854
-0.00771138
-0.00852655
-0.00784444
-0.00753242
-0.00807065
-0.00825098
-0.00735155
-0.01609113
0.00406638
-0.04312721
-0.03238935
-0.00567059
0.06351144
0.05404168
0.03959944
-0.03760953
-0.02425807
-0.13327745
0.03181852
-0.06936391
-0.06124298
0.05686112
0.03176490
-0.01412274
-0.03299673
0.01962659
0.06410748
0.00274490
0.02704776
0.03158117
-0.02878913
-0.00728735
-0.05578848
0.00492557
-0.01053048
-0.01312451
-0.01869600
-0.01156007
-0.01143381
-0.02152272
-0.01418164
-0.00289185
-0.03271243
-0.01063984
-0.00382999
-0.01310360
-0.01157095
-0.01554658
-0.01628276
-0.01751279
-0.01795480
-0.01548087
-0.01649856
-0.01607583
-0.01684755
-0.01780280
-0.01533660
-0.00500784
-0.00488143
-0.00602578
-0.00586197
-0.00778397
-0.01053600
-0.00823108
-0.00364048
-0.01074961
-0.00558974
-0.01995655
-0.04350885
-0.03485535
0.04683635
0.05065710
0.04329886
0.03887513
-0.02516034
0.05222559
0.01998584
0.03136517
-0.06788699
-0.03572508
0.00716140
-0.00703037
0.03175413
-0.01657618
-0.00459198
0.01564589
-0.00029788
0.00371956
0.00358857
0.00364691
0.00357902
0.00385735
0.00402542
0.00349617
0.00378282
0.00373287
0.00382565
-0.01502544
0.00168857
-0.02918351
-0.01252373
0.00630878
-0.00633548
-0.02130375
0.00286947
-0.02658386
0.00239374
0.04975436
0.03235113
-0.08906158
0.04826706
-0.03743252
-0.02254052
-0.02458343
0.08941176
-0.11160997
0.03986405
-0.00399211
-0.00190383
-0.00500371
-0.00613577
-0.00588234
-0.00619732
-0.00345747
-0.00622096
-0.00998214
-0.00504977
-0.01991725
-0.01245381
0.03267830
0.03442162
-0.00544072
0.01480150
-0.03282859
-0.00796863
0.03570247
0.01922863
0.00800751
0.00916172
0.00031671
0.00462754
0.00249143
0.01262014
0.00103278
0.00785071
0.00207221
0.00342625
0.00092598
-0.00420262
-0.01306542
-0.01599838
-0.00447316
-0.00244606
0.00470312
0.01075366
-0.00692089
0.00616898
-0.01104521
0.00968648
0.00699613
-0.00331341
-0.00476462
0.00639217
0.00162959
0.00017042
0.00725629
-0.00559696
0.00005373
-0.00520635
0.00504516
-0.00087396
-0.00859885
0.00042244
-0.00020716
-0.00691007
0.00116546
0.00246775
-0.01524366
-0.01389105
-0.01505203
-0.01456558
-0.01485186
-0.01500992
-0.01470903
-0.01411489
-0.01488702
-0.01434225
-0.00316246
0.02332420
0.02116829
0.00896398
0.00852829
-0.00586841
0.00002805
0.00160933
0.01659003
-0.00343226
-0.00068828
-0.00163420
-0.00067152
-0.00154569
-0.00201258
-0.00336352
-0.00133085
-0.00066746
-0.00156388
-0.00106635
0.02657918
0.01507007
0.02196527
0.03402397
0.03777272
0.04917229
0.02500987
0.02423429
0.02865914
0.03114091
-0.03724809
-0.00520061
0.00230432
0.01315974
-0.00533178
0.01618398
-0.01073198
0.03561768
0.00266396
0.00269411
0.00698182
0.00410993
0.00410354
-0.01227030
0.01340047
0.01053557
0.00861728
0.00978165
-0.00007933
-0.00705086
0.00945905
0.00096303
0.00583705
0.00383713
0.00614962
0.00698277
0.00121716
0.01158316
-0.00461704
0.00629213
-0.06362816
0.04325492
0.05231040
0.03476309
0.03187058
-0.05045809
-0.05008214
0.02310200
-0.06630065
-0.01987296
0.07278132
0.01817728
0.04460171
0.05386192
-0.01788853
0.01520789
-0.01995217
0.05562938
-0.08666158
-0.06052243
0.01871018
-0.02195820
-0.00987663
-0.01464000
-0.01655118
0.00443689
0.02315687
-0.00340626
-0.01163641
-0.00442491
0.00938194
-0.00314423
0.00705914
-0.01085654
-0.00008036
0.00302036
0.00119736
-0.00738172
-0.00251923
-0.00457163
-0.01417691
-0.00864179
0.00019929
-0.00621616
-0.01864716
-0.01795563
-0.01456215
-0.01874841
-0.01869640
-0.00318549
-0.00401207
-0.07498997
-0.09028286
0.04231419
0.06615610
-0.01102368
-0.04567043
0.05386500
-0.10326899
0.00031867
-0.00836498
-0.01049251
-0.01269328
-0.01312178
-0.01009293
-0.00118273
-0.00309016
-0.00345518
-0.01337628
-0.00497346
-0.01779141
-0.06517731
-0.01923826
-0.05908363
0.11548210
0.08517060
0.01079415
0.01452751
-0.02105872
0.01674127
0.03235749
0.09949010
0.03499545
0.04867148
-0.00843686
-0.00725757
0.01324125
-0.06081197
-0.07553975
0.03859077
0.01167543
0.00925224
0.00892619
0.00821532
0.00625590
0.00636962
0.00599265
0.00779227
0.00772727
0.00908870
-0.13453569
-0.34178168
0.06800721
0.11112854
0.04835841
0.29881945
0.10361765
-0.42610759
0.25271496
0.06962772
0.04285569
-0.03420052
-0.00473152
-0.01200713
0.01964895
0.04627546
0.03630940
-0.05872595
0.06308345
-0.02713710
0.00144413
0.00183204
-0.00005922
0.00690575
-0.00251529
-0.00141003
0.00975306
0.00218451
0.00050639
0.00303268
0.01048714
-0.00810230
0.01163776
0.10150311
-0.16952047
-0.06574313
0.02189471
-0.03291165
-0.00439391
0.09895109
0.11397640
-0.06833611
0.09831964
-0.09123023
0.02043458
0.01556965
0.11323746
-0.12059647
0.11629847
-0.11048771
-0.00561365
-0.00957106
-0.02700047
-0.02849201
-0.01694860
-0.02841175
0.01373305
-0.00619349
-0.02538830
-0.01078457
-0.00442482
-0.00316498
-0.00626252
-0.00241260
-0.00496865
-0.00868066
-0.00065619
-0.01052786
-0.00948631
-0.01065436
-0.00260602
-0.00732133
-0.00532029
-0.00684363
-0.00776487
0.00027299
-0.00223954
-0.00304644
-0.00596043
-0.00847839
-0.00212597
-0.00588479
-0.00357230
-0.00814601
-0.01157666
-0.01349405
-0.00547835
-0.00376970
-0.00471967
-0.00387711
-0.01725665
-0.00770411
-0.01255551
-0.01093017
-0.00977813
-0.01531005
-0.00711881
-0.00835536
-0.01369451
-0.01388573
0.01282629
0.00947665
0.00656791
0.02147685
-0.00854211
0.00731039
0.01129466
0.00851203
0.00541619
0.02397532
0.00304738
-0.00441237
0.00210583
-0.00248661
0.00050480
-0.00177146
0.00099721
-0.00339735
0.01477305
0.00556516
-0.00262583
-0.02526999
-0.00679313
0.01544454
-0.00321366
-0.00739264
0.01534208
0.00406763
-0.00611210
-0.00492002
0.03455126
0.05485664
-0.01767782
0.00876373
-0.01414638
0.00784983
-0.00199772
0.03133004
-0.02708548
0.02411848
0.11882754
-0.01955689
-0.05057131
-0.00259038
-0.02570583
-0.03856081
0.00830905
-0.00509204
0.00397717
0.02867447
-0.00480239
0.00971514
-0.00437777
-0.00386272
0.01526213
-0.00080452
-0.01420765
-0.01230681
0.01453898
-0.01406811
-0.01696646
-0.01703108
-0.01627465
-0.01658872
-0.01755184
-0.01741731
-0.01733189
-0.01741751
-0.01717391
-0.01704519
-0.00149311
0.00061541
0.00035751
0.00045345
0.00167018
0.00111797
0.00033631
0.00096226
0.00006474
0.00053262
0.01360832
0.01359197
0.01364202
0.01370367
0.01389050
0.01392646
0.01362452
0.01391931
0.01381191
0.01398546
-0.00197728
-0.00133429
-0.00628375
-0.00725259
0.00025779
-0.00235157
-0.00322083
-0.00185487
-0.00159746
-0.00832393
0.01246513
0.05320453
0.00005799
0.05702550
-0.03319850
0.01690858
0.01423736
-0.01932797
0.00075814
-0.04291049
0.00146554
-0.00041005
0.00064601
0.00143446
0.00077050
-0.00034496
-0.00535849
-0.00128505
-0.00029082
-0.00042599
0.02460496
0.00567003
0.01429792
0.01219752
0.00680143
-0.00164942
0.01307069
0.00702449
0.00623287
0.01724392
-0.01168926
0.03720390
0.09646504
-0.04124958
-0.07703829
-0.01399735
-0.04686807
0.03262863
-0.09074455
-0.00948487
-0.01092839
0.05939805
0.02527867
-0.09730460
-0.06119365
-0.05894733
-0.04824298
0.13661695
0.04388781
-0.04051455
0.00314689
0.00152488
0.00153374
0.00251094
0.00116188
0.00350184
0.00330477
0.00241635
0.00284902
0.00222464
-0.00483482
0.00763175
0.00230699
-0.01043463
-0.01516068
-0.01402611
-0.00367176
-0.02184216
-0.01212897
-0.01575095
0.01824093
0.01453510
0.01637687
0.01801663
0.01309646
0.01391000
0.01369389
0.01483523
0.01539041
0.01589703
-0.00566024
-0.00703871
0.00043457
-0.00589969
0.00106372
-0.00098925
-0.00958762
-0.00891259
-0.00396353
-0.00486897
0.00013240
-0.00148749
-0.00031997
-0.00166307
0.00239651
-0.00489648
-0.00155244
-0.00154697
0.00078524
-0.00338273
-0.00891173
-0.00030495
0.01591514
-0.00364872
-0.01125989
-0.01045957
-0.01228942
0.00288214
0.00603485
0.00778201
0.01950585
0.00050709
0.02691476
0.01484136
-0.00137837
-0.00562403
0.01365451
-0.01699022
0.00310626
-0.00996793
-0.01692657
-0.01715446
-0.01340593
-0.01746110
-0.00374248
-0.01647757
-0.01621511
-0.01392355
-0.01485387
-0.01541004
0.00674536
0.00883435
0.00851340
0.01063388
0.00899471
0.00873225
0.00781210
0.00812184
0.00759880
0.00932349
0.02801165
-0.02242125
-0.00255881
0.02074648
0.01090480
0.02886696
0.01016407
-0.03515286
0.02775483
0.00346919
0.05084335
0.04878573
0.04481173
0.02474033
-0.01240544
-0.03027330
-0.00712568
-0.05700369
-0.00674485
-0.05352781
0.04249928
-0.00076017
0.01645485
0.04884083
-0.00354342
0.02604209
0.05658028
0.03481615
0.01625437
0.05313715
0.04483064
0.01095974
-0.09000215
0.00354298
-0.02583290
0.09357651
0.08453597
0.02579142
-0.03513034
0.03799415
0.00663927
0.00646298
0.00672045
0.00653401
0.00643704
0.00645520
0.00637149
0.00617146
0.00648356
0.00632483
-0.22310098
0.59522885
-0.13136213
0.44746095
0.43120912
0.38297081
0.51465338
-0.46819150
-0.20190506
-0.74562848
0.01000153
0.01002306
0.01046054
0.01038812
0.01011075
0.00986578
0.00991203
0.01006067
0.01009659
0.01012318
-0.00650131
-0.00163453
-0.00300368
-0.00065482
-0.00210712
-0.00197730
-0.00466406
-0.00584760
-0.00150577
-0.00772406
-0.00202143
-0.01052953
-0.01125663
-0.00391619
-0.02206902
-0.01462091
-0.00061725
-0.01264869
-0.01379007
0.00668571
0.00091557
-0.00099109
0.00167737
0.00152517
0.00510496
-0.00043335
-0.00192025
0.00006753
0.00247908
0.00198776
0.00747962
0.00789391
0.00789025
0.00805810
0.00792496
0.00803283
0.00776478
0.00794690
0.00786404
0.00811847
-0.06838259
0.01072300
-0.04219944
0.00568763
0.01162754
0.04044845
-0.00293125
-0.01172065
0.02778664
0.04138312
-0.01146354
0.02894754
0.03952298
-0.03949655
-0.00863142
-0.00940510
-0.00357045
-0.00452334
0.00369498
0.00534786
0.00138053
0.00126637
-0.00935350
0.00259244
0.00299650
0.00400079
0.01040800
0.01144585
0.00186519
0.00320791
0.00052045
-0.02258228
-0.05091902
0.03440853
-0.03973416
0.01991616
0.03210838
0.00327852
-0.03065028
-0.01743328
0.00215081
0.00346405
0.00700429
0.00802077
0.00675660
0.01054821
0.00457751
0.00409006
0.00652623
0.00720897
-0.04708868
0.03635401
-0.01952954
0.02113136
0.05740780
-0.09757929
-0.11850614
-0.03067690
0.09792577
-0.03382296
0.01649458
-0.01637456
0.00011253
0.00991609
0.00020455
0.00345057
-0.01581025
-0.00642332
-0.00461638
-0.00959390
-0.00240598
-0.00243044
-0.00250943
-0.00247577
-0.00257515
-0.00255062
-0.00252294
-0.00245477
-0.00265948
-0.00242477
0.05631434
0.01108420
0.09900345
-0.03977224
-0.08344714
-0.15343626
0.01314092
0.10165880
-0.03047756
-0.00940340
0.01690503
0.01990553
0.01900575
0.01952426
0.01484440
0.02266031
0.01937837
0.02082882
0.01520460
0.02045755
0.00666682
-0.00152558
-0.01018796
0.00218380
-0.00568914
0.00927587
0.00812931
0.00975148
-0.00277078
0.01388227
-0.00475856
-0.00338991
-0.00483667
-0.00560672
-0.00491765
-0.00519149
-0.00413118
-0.00477061
-0.00476698
-0.00460029
0.03183721
-0.00783554
0.00024966
-0.01043194
0.03515221
-0.03327970
-0.02611161
0.00023838
-0.02722893
-0.00390729
-0.04152885
0.02863467
-0.04172250
-0.03871535
0.03850863
-0.02719393
0.04564380
-0.01740866
0.02328317
0.02129239
-0.00974464
-0.02217836
-0.00949538
-0.00173337
-0.02565037
-0.00199807
-0.00294591
-0.01705225
-0.01252596
-0.00459669
0.00583722
0.00533278
0.00543287
0.00731327
0.00418665
0.00678420
0.00779821
0.00487149
0.00571491
0.00863731
-0.03030418
-0.01302000
0.00139411
0.00083666
0.00423136
0.00777404
-0.01073908
0.04334441
0.01535507
0.01596820
-0.01591232
-0.00180220
-0.02139648
0.00499170
0.00064730
-0.02034536
-0.02572729
0.01200968
-0.01897232
0.00438605
0.00786385
-0.02004121
-0.01739950
0.00469793
-0.01237164
-0.00038880
-0.00102735
0.02204863
0.00659113
-0.03026443
-0.00275716
0.00004221
-0.00065867
0.00002042
0.00023075
-0.00279136
-0.00022854
-0.00403854
-0.00267394
-0.00523296
-0.04130742
-0.00102315
-0.02502898
0.00847557
0.00266747
0.00738024
-0.00725078
0.00868067
-0.02410023
0.00145372
-0.00217180
-0.00071199
-0.00318926
-0.00195384
-0.00505052
-0.00016777
0.00103210
0.00188980
0.00099175
0.00054663
0.01889270
0.05649379
0.00371091
0.01400857
-0.01637052
-0.02815379
-0.03732254
0.02033197
0.00160811
0.02889265
0.00094707
0.00409645
0.00120809
0.00208664
0.00462706
0.00247218
0.00344962
0.00425211
0.00324051
0.00035057
0.00050522
0.00179944
0.00263621
0.00320594
0.00345132
-0.00328250
0.00122086
0.00321692
0.00265068
-0.00220637
-0.00594838
-0.01369878
-0.00180666
-0.00243865
-0.00679538
-0.00634308
-0.00604773
-0.00597697
-0.00317970
-0.00579743
0.00962539
0.00996013
0.00990038
0.01119552
0.01137052
0.01405053
0.01249280
0.01717470
0.01340530
0.01738698
0.01706097
0.01398016
0.01624511
0.01083578
0.01675230
0.00615196
0.00953648
0.01251168
0.02515041
0.01026797
-0.02672618
0.03021599
-0.05670691
-0.06993367
0.03586252
0.03674952
0.00446380
-0.02817228
-0.01420053
-0.01755245
0.05886272
0.00602694
-0.02439111
0.02003837
-0.04822378
-0.04494710
0.10612739
-0.00330986
-0.01400310
-0.02456263
0.14115907
-0.19490032
0.27227175
0.17564376
0.02739918
-0.13438764
-0.10521054
-0.03830891
0.21880291
-0.31773317
-0.00222745
0.00458140
-0.00528066
0.03708523
0.00060466
-0.02591151
-0.00934009
-0.02416307
-0.00107372
-0.00076377
-0.00858045
-0.00745839
-0.00601613
-0.00630962
-0.00852704
-0.00633806
-0.00657614
-0.00978278
-0.00517385
-0.00857206
0.01381692
0.01308055
0.01298297
0.01259052
0.01345068
0.01466712
0.01417160
0.01274448
0.01285392
0.01338436
-0.04326713
-0.06927944
-0.04703561
0.05166987
0.04150353
0.06234952
-0.02820671
-0.00879366
0.06038037
0.02495624
0.01318222
-0.00378054
0.00173830
-0.00083278
0.00260155
-0.00331899
-0.00077770
-0.00279260
0.00298692
-0.00005350
0.00829571
0.00568497
0.00399334
0.00702122
0.00672169
0.01097436
0.00800845
0.00658052
0.00587386
0.00757605
-0.08318070
0.06483023
-0.02726412
0.04021928
-0.04038513
0.11750110
-0.09670785
0.02060712
0.01337397
0.03449015
0.00697132
0.00657505
0.00639611
0.01145713
0.00694845
0.00445039
0.01352862
0.00692187
0.00849130
0.00482949
0.00215851
0.00260826
0.00771477
0.00159972
0.00315761
-0.00504639
0.00062257
-0.00160766
0.00054752
0.00045841
-0.00503501
-0.00447053
-0.00472597
-0.00439789
-0.00455972
-0.00431138
-0.00469634
-0.00465577
-0.00492678
-0.00449915
0.02080626
-0.00028995
0.02103444
-0.00445938
-0.00102756
0.00231139
0.00569880
-0.00000034
-0.00295150
0.01690806
-0.00179505
0.00045226
-0.00162562
-0.00358742
0.00202287
-0.00097703
0.00279480
0.00315200
0.00013605
0.00389600
0.06531165
-0.04872192
0.02520757
0.01298132
-0.07136664
0.01387367
0.02188982
-0.01874516
0.02826729
-0.07063000
0.00559832
0.00593462
0.00813445
0.01189478
0.01055737
0.01594674
0.00768695
0.00983860
0.01314373
0.01076444
-0.00306861
0.00634675
-0.00022296
0.01054727
-0.00742211
0.00878268
0.00769521
0.00210652
0.00166948
-0.00055627
-0.03220854
0.01447013
0.00486812
-0.00737131
-0.00280751
-0.02028898
-0.02021265
0.01883230
-0.02309205
-0.00028433
-0.00937803
-0.01732034
-0.00558704
-0.00005442
-0.00175933
-0.00563958
-0.00205022
0.00286327
-0.00058407
-0.00612108
-0.00698080
0.01033770
-0.01609735
-0.03459145
-0.01209886
0.00748699
-0.01805210
0.00240536
-0.00176857
-0.00481315
0.00611749
0.00300367
0.00497861
0.00346155
0.00306355
0.00635782
0.00731060
0.00320844
0.00510624
0.00373140
0.01057158
0.00430863
0.03328723
0.04136550
-0.00420607
-0.06044930
-0.02424444
-0.01632558
0.03147171
-0.01024184
-0.00859309
-0.01359185
-0.00947877
-0.00953759
-0.01592189
-0.01607246
-0.01022912
-0.01466519
-0.01574438
-0.01202475
-0.02134432
-0.00636761
0.00184403
-0.00679594
-0.00863199
-0.01895060
-0.01329714
0.01539671
-0.00559948
0.00407650
-0.01221517
-0.00852976
-0.00546662
-0.00599052
0.01133940
-0.00835219
-0.00654190
0.00250300
-0.00344823
0.00753283
0.00408982
0.02553750
-0.00063095
0.02685455
-0.02540812
0.00952717
0.00990542
-0.00294768
0.00257215
-0.00501637
0.00337550
0.00232068
0.00191584
0.00265588
0.00329225
0.00226075
0.00244081
0.00425319
0.00190254
0.00304069
-0.01128368
-0.01083075
-0.01453275
-0.01119971
-0.01351847
-0.01220564
-0.00892384
-0.01017751
-0.01294338
-0.01169600
-0.00747813
-0.01173546
-0.00556986
-0.00616821
-0.01101171
-0.01262381
-0.01159002
-0.01346505
-0.00721020
-0.00888703
-0.00752820
-0.00192992
-0.00290839
-0.00382532
-0.00488041
-0.00339757
-0.00442698
-0.00246159
-0.00453880
-0.00462729
0.00325160
0.00289582
0.00307195
0.00325356
0.00321019
0.00273197
0.00293246
0.00289496
0.00295214
0.00275538
0.01054246
-0.04992526
-0.10635982
-0.00771044
0.09727129
0.08035582
-0.06319319
0.04990543
0.04000026
0.07894919
-0.00137036
-0.01694331
-0.01902173
-0.00540722
0.01078312
0.00631033
-0.00180804
0.01176981
-0.01066000
-0.00347670
-0.05473082
0.02164201
-0.00516325
0.01637974
0.09212359
-0.08178423
-0.00832491
-0.04913728
0.03485475
0.02355892
-0.01339258
0.00920437
0.04741559
0.00876446
-0.01248353
0.03985413
0.01596714
-0.00973616
-0.00327931
-0.01227610
-0.01093068
-0.00713993
-0.00089511
-0.00650474
-0.00332577
-0.00457312
-0.00728174
-0.00674229
-0.00365950
-0.00971556
0.00517049
-0.00120788
-0.00235538
-0.00571113
-0.00302941
-0.00765096
-0.00364156
0.00383502
-0.00240890
-0.00261200
-0.00003601
0.00061500
-0.00275336
0.00077842
-0.00164360
-0.00117221
-0.00351507
0.00186847
-0.00016997
0.00064351
-0.00399617
-0.00272592
-0.00750176
-0.00523683
-0.00495299
-0.00697017
-0.00492650
-0.00151684
-0.00460079
-0.00583145
-0.08898626
0.00830335
0.01594661
0.01161444
-0.02565240
0.04939832
0.00073842
0.04202714
0.06667293
0.00343718
-0.00630108
-0.00484940
-0.00321346
-0.00405865
-0.00436500
-0.00816808
-0.00949435
-0.00542735
-0.00413418
-0.00615436
0.00724582
-0.00976823
0.00055659
-0.01714803
-0.03288910
-0.02030129
0.01608591
0.00987391
-0.02898372
0.01633475
-0.01186415
0.01774712
-0.00356401
-0.01311339
-0.01051518
-0.00152515
-0.00157407
0.01303414
0.00296916
-0.00441423
-0.00283111
0.00156915
-0.00057307
-0.00163388
-0.01002815
-0.01031759
-0.01172993
0.00776093
-0.01610216
-0.00331679
-0.00021842
0.02016816
0.01951317
-0.01857562
0.00737022
-0.05484145
0.04866597
0.00724975
-0.00426296
-0.02536608
0.01220864
-0.00334674
0.01927307
-0.04001476
0.00348652
-0.04875610
0.00213977
-0.01911402
0.01648148
-0.00139668
-0.00555776
0.00015905
0.00313947
-0.00144540
0.00396896
-0.00045013
-0.00458765
-0.00307048
-0.00151263
0.00011569
-0.01333298
-0.01230909
-0.00725143
-0.01011645
-0.00457627
-0.01109722
-0.00849703
-0.00151932
-0.00999799
-0.00632210
0.00190104
0.00453839
-0.00094414
0.00094410
0.00298309
0.00441833
0.00401475
0.00320545
0.00285416
0.00479935
-0.00260290
-0.00251074
-0.00339017
-0.00148961
-0.00203871
-0.00323880
-0.00178275
-0.00259875
-0.00261292
-0.00234096
-0.00142797
-0.00129467
-0.00157679
-0.00137683
-0.00162236
-0.00131986
-0.00175437
-0.00162677
-0.00139528
-0.00117976
-0.01146025
-0.01590412
-0.00121609
0.01988972
0.01277955
0.02248492
0.00526873
-0.02397222
0.02531910
0.00373262
0.00891645
0.00412413
0.00742060
0.00341853
0.00375929
0.00534766
0.00501221
0.00636400
0.00598497
0.00480466
-0.00042105
-0.00909266
0.00088825
0.00129308
0.00255053
-0.01908294
-0.00597276
0.00169828
0.01179706
0.00400726
0.02232730
0.02071451
0.07213809
0.06164118
0.04438441
-0.05405261
-0.03531526
-0.01383118
0.01468516
-0.01199700
-0.00234277
-0.00101116
-0.00146941
-0.00152194
-0.00187167
-0.00240120
-0.00108710
-0.00227014
-0.00201068
-0.00225176
-0.00383371
0.00023404
0.00046425
0.00170140
0.00212869
0.00652897
0.00006759
-0.00422909
0.00281192
0.00688966
-0.03222198
0.01417095
0.01858044
-0.00749991
-0.01361535
-0.01395067
-0.02746077
-0.00484876
0.01585077
-0.01776643
0.02906013
0.00513229
0.05350248
0.04099593
0.00613113
-0.05636645
-0.01537145
-0.01066790
0.02783259
0.02043588
-0.00377057
-0.00161660
0.00277570
0.00663751
0.02746304
0.02782710
-0.02793508
-0.01120648
0.00535727
-0.00305988
-0.00459585
-0.00275951
-0.00981419
-0.01317909
-0.01037863
-0.01289559
-0.00635230
-0.00978280
-0.00663097
-0.00667643
0.00930315
-0.04770739
-0.04118859
-0.01303177
-0.00005238
-0.00970139
-0.02172601
0.02741627
0.00513717
0.00990709
-0.05136529
-0.02449682
-0.03357681
-0.05373216
0.02263794
0.09952705
0.00040617
-0.00311040
0.01558187
0.04209661
0.00030279
0.00419904
0.00662583
0.00500603
0.00630154
0.00184252
0.00852870
0.00846741
0.01010169
0.00967445
-0.02633049
-0.02157366
-0.03408329
-0.07457735
0.02629711
0.13123918
0.05995649
-0.02620540
0.01647570
0.02184704
0.06474618
0.03737699
0.03745486
-0.09720478
-0.13760939
-0.09892578
0.12379453
-0.03349997
-0.00219499
-0.00789823
0.00786397
0.01380859
-0.01207513
-0.00824404
0.02156216
0.02291128
-0.00259871
0.02533037
0.01238821
-0.01192243
-0.03765473
0.02066994
-0.01703088
0.00186265
-0.02669648
-0.02628992
-0.00523713
0.01099851
-0.00683529
0.00524180
0.00219124
-0.01833592
-0.01783940
-0.03976145
-0.01144332
0.02438121
0.01636708
-0.00737301
-0.02774499
0.01718245
-0.00806139
0.02104237
-0.11952142
-0.01635964
-0.00978572
0.03632760
0.02135930
0.05204014
-0.04314454
-0.00055095
-0.00606182
-0.02677247
0.01117393
-0.00496744
0.01746242
0.01276219
0.00248231
0.00007759
0.01018127
0.00685638
0.00190420
0.00587202
-0.00893747
-0.01057694
0.00321280
-0.00315396
0.00117762
0.00586493
0.00200110
-0.00163925
-0.00167319
-0.00243622
0.00228008
-0.00034203
-0.00044906
-0.00664246
-0.00522790
-0.00422558
-0.00158384
-0.00058445
-0.04895435
0.00133408
0.02372115
0.00148421
0.00322824
-0.07351480
-0.01607655
0.00264839
-0.00460313
-0.00401621
-0.00006774
-0.00003422
0.00003088
-0.00010659
-0.00006860
0.00007098
-0.00001991
-0.00003477
-0.00008045
-0.00006219
0.00526860
-0.00357299
0.00607473
-0.00597009
-0.00448671
-0.00291196
0.00317580
-0.00391992
0.00045435
-0.00649063
-0.00146001
0.02986410
-0.04375183
0.00761358
0.00643579
0.02116422
0.02684544
0.01022547
-0.01253255
0.00444601
0.00259660
0.00123636
0.00279629
0.00161591
0.00048724
0.00004635
-0.00102636
0.00024111
0.00134344
0.00015203
-0.08547707
-0.04076393
0.09754676
0.01983365
-0.02711875
0.03237644
-0.08612465
0.01295640
0.17960842
-0.07054973
0.00746853
-0.03804916
-0.01985011
-0.00662823
0.02023210
0.02915563
-0.00583551
-0.01119882
0.02027670
0.01641306
0.00585138
0.00194628
0.00477161
0.00353561
0.00343855
0.00406454
0.00245692
0.00167455
0.00382587
0.00237167
0.02030195
-0.00136002
0.00007082
-0.00067894
-0.02724909
0.02405680
0.03282531
-0.05116052
-0.03100642
0.04493368
-0.01834823
-0.01519186
0.04533098
0.04858831
-0.01466948
0.01327799
-0.03109666
0.02572893
0.18532157
-0.03264045
-0.01282471
-0.00175924
0.02550624
-0.03690244
0.05052510
-0.00327000
-0.01448695
-0.00309616
0.00278098
0.01040850
0.00909820
0.00372622
0.01964412
0.00400624
0.01446430
-0.00542889
0.00599858
0.00229520
0.00439727
0.00115827
-0.01712532
-0.00931522
-0.00734221
-0.01057611
-0.00839668
-0.01000921
-0.01046353
-0.00465850
-0.00912257
-0.00835225
-0.01382324
0.00535354
0.00164629
-0.00011944
-0.00692857
-0.00438293
0.02786887
0.01352466
-0.00162061
-0.00247934
0.00552072
0.00492707
0.00355627
0.00737790
0.00184727
0.00257459
0.00574339
0.00295394
0.00214349
0.00688355
0.00640910
0.00620854
0.00612586
0.00677012
0.00549059
0.00596590
0.00640243
0.00615129
0.00584234
0.00666265
-0.00221938
-0.00412222
-0.00627290
0.01942917
0.00445029
-0.00358525
-0.02488661
0.00080271
0.01904152
-0.01434442
0.03444484
-0.05622316
-0.00197242
-0.11826922
0.03514951
-0.03856349
-0.02809704
-0.09541208
-0.02563575
0.01424673
-0.01831268
-0.01856806
-0.01844311
-0.01877852
-0.01892716
-0.01931818
-0.01896923
-0.01846845
-0.01920251
-0.01911077
-0.01674908
0.01317419
-0.00135376
-0.01427100
0.02946781
-0.00670522
-0.00374061
-0.01759684
0.02020471
0.02251300
-0.02636740
-0.02039685
-0.01552197
-0.02264207
-0.01588954
-0.02019433
-0.02325541
-0.02319928
-0.01632940
-0.02137841
0.00602711
0.03125918
-0.03302138
0.03571117
0.00523118
-0.03070964
-0.01276266
0.03633936
-0.00041977
0.02121900
0.03733197
-0.00709865
0.04699795
-0.01089695
0.02110103
-0.03631180
0.00995340
-0.00721515
0.00772848
-0.00448669
-0.00915554
-0.00560798
-0.00737594
-0.00816309
-0.00572562
-0.00987362
-0.00655365
-0.01105111
-0.01026577
-0.00989269
0.00026653
-0.00095377
0.00224832
-0.00100833
0.00332647
0.00018976
0.00104306
0.00066469
0.00091061
-0.00020663
0.31152937
-0.04583193
0.09142891
-0.22164941
0.21700026
-0.18431541
0.27391079
-0.05604528
-0.12560059
0.01231298
-0.01631829
0.01448130
-0.02171257
0.02746500
0.03162877
-0.03808315
-0.03044533
-0.01768437
0.02551917
-0.04565520
-0.01530233
-0.00993553
-0.01304205
-0.01064659
-0.00922616
-0.01468840
-0.01382963
-0.01052087
-0.01303538
-0.00982121
-0.01366292
-0.02331255
-0.01823147
-0.00583502
-0.00977609
-0.00242359
-0.01351567
-0.03349101
-0.01604818
-0.02450488
-0.13147838
0.04454850
0.28469247
0.01094561
0.08532066
-0.15316203
-0.12417259
0.11031482
0.13597153
-0.17101169
0.03566476
-0.00779706
0.06175235
-0.04284359
0.02160590
-0.03523969
-0.03101550
-0.00545033
0.04413228
-0.03996619
0.01842878
-0.04426495
0.07497697
0.04623494
-0.08459368
-0.10880396
0.01613715
-0.08360823
0.02658000
0.06128990
-0.05074324
-0.06969929
-0.03067682
0.06330734
0.03561992
0.01774501
-0.03355636
0.04965810
0.03055809
0.04434851
0.03046780
-0.00086982
0.00744659
0.01377596
0.02487970
0.00509367
0.01101914
0.00699125
-0.00465529
0.01598416
0.04657196
-0.03052935
-0.03244690
-0.00884420
0.02951231
0.04556454
0.02800111
-0.00045449
-0.00255044
0.02127845
0.00061082
-0.00502433
-0.01089249
-0.01368352
-0.02599431
0.01967092
-0.00245105
-0.03507777
-0.02528074
-0.00871287
0.00471305
-0.01473065
0.00203682
0.00024807
-0.00003833
-0.04040475
-0.00933408
0.00013775
0.00211362
-0.01659365
0.08326678
0.14176884
0.02799622
-0.09256518
-0.07694349
-0.10077485
0.00874189
0.09650356
-0.11183913
-0.01345974
0.00427428
0.00426332
0.00425141
0.00402296
0.00421178
0.00391169
0.00433433
0.00424950
0.00409725
0.00419383
0.00563507
-0.05121402
-0.00983022
-0.01631734
-0.06889507
0.05888082
0.06897531
0.00823941
-0.04640184
0.01296051
0.02814935
-0.00868819
0.03231498
0.02619810
-0.09884347
0.02380961
-0.00309972
0.03803284
-0.04562501
0.06846344
-0.00207424
0.03737803
-0.14771833
-0.02804017
-0.02257253
0.06730811
0.00303619
0.02390771
0.00654454
0.04886026
0.02015941
0.00618591
0.01414629
0.01160955
0.03893982
-0.02832719
0.07182698
0.01935344
0.02494427
0.02488310
0.00170757
0.00182725
0.00080515
0.00054581
0.00239310
0.00107370
0.00131241
0.00151691
0.00111372
0.00117640
0.01638609
-0.01856497
-0.02577151
0.00303648
0.00306086
0.01453583
-0.02981676
0.00353934
-0.00996653
0.01012662
0.08124070
0.14734501
0.16027541
0.06948838
-0.18064342
-0.12810540
-0.12635463
0.10888258
-0.13418984
-0.13212562
-0.01424524
-0.03078241
-0.00686878
-0.01830764
-0.02033412
-0.02857342
-0.03117154
-0.02336947
-0.02516759
-0.01087884
0.01946164
0.01729116
0.01328323
0.01618671
0.01218905
0.02537527
0.01988085
0.01337088
0.01622468
0.01973089
-0.00323953
0.00832329
0.01448275
0.00342897
-0.00547299
-0.00625637
-0.01399307
-0.00842623
0.01318566
-0.00400202
0.00203432
0.00129550
0.00272340
0.00221380
0.00142439
0.00684156
0.00645000
-0.00047941
0.00084000
0.00176749
0.01454323
-0.00219364
-0.00222755
-0.00525277
0.00704477
0.00256872
0.01390498
-0.00766847
0.01363859
0.00318549
-0.00508767
-0.00329170
-0.00463411
-0.00272397
-0.00424075
-0.00541412
-0.00390004
-0.00417681
-0.00444782
-0.00484826
0.03882258
-0.00356767
0.03307882
0.02086493
-0.00890835
0.00941101
0.00110941
0.00930890
0.01959791
0.00612098
0.00342602
0.00503089
0.00323984
0.00384843
0.00346334
0.00414458
0.00430795
0.00473417
0.00364187
0.00455434
0.00743342
-0.01729780
-0.07749795
-0.10559293
0.02243026
0.05245890
-0.00391208
-0.01641550
0.00209516
0.03570768
0.00458192
0.00064749
0.00168761
0.00335956
0.00020182
0.00159814
0.00211936
0.00075653
0.00311182
-0.00053088
0.00135116
0.00061951
0.00023926
0.01270622
-0.00359309
-0.00101116
-0.01288156
-0.00236084
0.00665446
0.01236523
-0.00359972
0.01075324
0.02612486
-0.03740405
0.08900795
-0.02203183
-0.04965207
-0.00711719
-0.02459991
-0.03349894
-0.00159870
0.00157416
0.00599689
0.00679461
0.00105574
0.00711994
0.00409756
-0.00023910
0.00906967
0.00005976
0.03080462
-0.00185906
0.04848916
0.02525508
0.00975992
-0.03812283
0.02916582
-0.00770840
0.01637127
0.00011970
-0.01185717
-0.01182943
-0.01070108
-0.01067440
-0.01156686
-0.01226616
-0.01179761
-0.01052317
-0.01066036
-0.01185525
-0.00737392
-0.00137511
-0.00918197
-0.00390745
0.00873114
-0.00375820
-0.01220050
-0.00460540
0.00770124
-0.00756103
-0.00005301
-0.00814184
-0.00409181
-0.00268883
-0.00265818
-0.00240878
-0.00432239
-0.00128520
-0.00525437
-0.00297143
-0.00867902
-0.00685386
-0.01042773
-0.00783800
-0.00790116
-0.00738679
-0.00777673
-0.00631397
-0.00747223
-0.00775552
0.00286620
0.00091368
0.00291953
-0.00007843
0.00277480
0.00324130
0.00197520
0.00207686
0.00079659
0.00400531
0.00438010
0.02553839
-0.04287105
-0.00895919
-0.03688705
-0.06422884
-0.02392009
0.05485055
-0.08582721
0.03683979
-0.02775117
-0.02889351
-0.00598922
-0.00118300
0.00732424
0.01308345
-0.03533586
-0.02040387
0.00468566
0.00421982
0.00157079
0.00167423
0.00149629
0.00191447
0.00180733
0.00200978
0.00199081
0.00206926
0.00190929
0.00206540
0.00692654
0.00411162
0.00473290
0.00066321
0.00966632
0.00516893
0.00737150
0.00522686
0.00820424
0.00526077
-0.06720266
-0.04637489
-0.00764833
-0.06938073
-0.01564633
0.11370302
0.04333941
-0.03114257
0.00146065
-0.02092474
0.00150292
0.00182928
0.00199130
0.00149464
0.00055931
0.00117759
0.00180163
0.00283806
0.00212480
0.00248025
-0.04051775
0.03754655
-0.03141506
-0.02810205
0.05710099
-0.00971950
-0.05664571
-0.01075989
0.04087855
-0.01745315
0.06526401
0.05441917
0.00545717
0.07251790
-0.03842229
0.01229499
-0.07439102
-0.00211525
0.00274571
-0.01594041
0.00209834
0.00071190
0.00682204
0.00149300
-0.00203513
0.00208897
0.00385919
-0.00211774
0.01013358
-0.00075843
0.01517159
-0.02402582
-0.00336509
-0.00705894
-0.00569414
0.05295723
0.02456966
-0.01475913
-0.02365413
0.01291459
0.02796294
-0.02306236
-0.10291783
-0.05683304
0.09819219
0.12297577
0.04330263
-0.01405675
-0.03566135
-0.02516061
-0.06643220
0.03983830
-0.04200798
0.07267030
0.00950444
-0.04135880
-0.02095912
0.00299711
0.06158457
0.07995848
-0.00064873
-0.00198903
-0.00079276
-0.00118308
-0.00018839
-0.00086148
-0.00227535
-0.00146172
-0.00167078
-0.00077569
0.00370831
0.00465716
0.00388505
0.00436659
0.00393534
0.00544309
0.00495941
0.00473696
0.00471652
0.00432809
0.00342022
0.00353212
0.00159673
0.00456044
0.00430756
0.00503855
0.00352828
0.00414716
0.00314587
0.00437435
0.00191157
-0.01748325
-0.01353439
-0.02137972
-0.00520657
-0.00635858
-0.03618080
-0.01385552
-0.01621092
0.00429864
0.00991376
0.01138990
0.00829334
0.01160376
0.00776099
0.01730701
0.01255352
0.01060688
0.00760535
0.01307634
-0.09419581
0.07530969
0.18640949
-0.01022120
0.03931957
-0.06096563
-0.06918360
0.04324468
0.06174614
-0.05306730
-0.00190276
0.00153238
0.00166315
0.00142794
-0.00004191
-0.00113342
-0.00021850
0.00008031
0.00135956
-0.00036524
0.01781939
0.00928238
0.01756086
0.01048752
0.01837407
-0.00772940
0.00511861
0.00966683
-0.00124398
0.00484803
-0.17017165
-0.40536737
-0.40229464
0.39931464
-0.34855318
0.43238765
0.26638144
0.46230960
-0.60912102
0.23586193
-0.00155870
-0.01112776
-0.02198918
-0.00927302
-0.02889953
-0.00313564
-0.00182479
-0.00844180
-0.02785572
0.00936658
0.00168022
-0.00075323
0.01959880
-0.00435611
0.00274337
0.02319564
0.01231385
0.00905798
0.00059161
0.00032057
-0.00525577
-0.00483988
-0.00511951
-0.00522194
-0.00496805
-0.00490160
-0.00479551
-0.00475963
-0.00511440
-0.00480678
0.01892443
-0.00653353
0.01095712
-0.00743911
-0.01770577
-0.00271770
0.00504092
-0.01071500
0.00236860
-0.01469448
-0.05507481
0.04271607
-0.25752449
-0.26146773
0.06530885
0.05852062
-0.13805056
0.05774805
-0.05207955
0.29635957
-0.00254713
-0.00315717
-0.00062764
-0.00365658
-0.00523329
-0.00100234
-0.00376276
-0.00417979
-0.00246953
-0.00432673
0.00730097
0.00914876
0.00782426
0.00323371
0.01359020
0.01074481
0.00780149
0.00934310
0.00893070
0.00377303
0.05926961
-0.03105929
0.00828393
-0.00601785
-0.01616048
-0.01382087
0.03358503
0.02229826
-0.00497639
-0.02140934
-0.00124667
-0.00675942
-0.00096464
-0.00734680
-0.00187970
-0.00169288
0.00539874
-0.00406915
0.00698291
-0.00753398
-0.00259828
-0.00150518
0.00467932
-0.00402608
-0.00709229
-0.00182583
-0.00633968
-0.00241684
0.00166709
-0.00287935
0.01761897
-0.00542955
0.00570027
0.00541103
-0.00525635
-0.00765036
-0.00164088
0.00499565
-0.00783594
-0.01275978
0.00135376
0.01029867
-0.00203390
-0.00899926
-0.00634343
-0.02490050
-0.00661420
-0.00967605
0.00065200
0.00059422
-0.22849809
0.01383726
0.04519237
-0.01346101
0.01126113
-0.06325273
0.24573518
-0.03857062
0.06245218
-0.20445177
0.00187379
-0.00060510
-0.00100531
0.00357373
-0.00541443
-0.00687022
-0.00106015
-0.00187969
0.00028045
0.00348375
-0.00379789
-0.00525032
-0.00437705
-0.00589029
-0.00608519
-0.00466670
-0.00475521
-0.00378262
-0.00497736
-0.00502895
-0.00233458
-0.00195473
-0.00431366
-0.00423017
-0.00172925
0.00174766
-0.00373242
-0.00587015
-0.00462401
-0.00053875
-0.01260010
-0.01666071
-0.00089781
-0.01448375
-0.00187368
-0.01937116
-0.00352530
-0.02680651
-0.00481592
-0.01657190
0.03082998
0.02228875
-0.00114275
-0.00933798
-0.01953612
-0.00826863
0.01226160
-0.03133781
-0.02053389
-0.03209446
0.00095096
-0.02321017
-0.01651358
0.00202866
-0.03005237
0.01862641
-0.01590654
-0.02407493
0.00050513
0.05829237
-0.00862829
-0.01495428
-0.00401739
-0.01809300
-0.03049424
-0.01783232
-0.02020562
-0.02048293
-0.00125821
-0.02643922
0.00181077
0.00157294
0.00034200
0.00018328
0.00314630
0.00030827
-0.00187546
-0.00193004
0.00044062
0.00089207
0.00242869
0.00197619
0.00052957
-0.00122668
-0.00045650
0.00093327
0.00336672
0.00403131
0.00409760
0.00074279
-0.02360846
-0.00261793
-0.01339623
0.02149487
-0.00229781
0.03854580
0.01471713
-0.00745865
-0.00751411
0.01358288
0.00907810
0.00795767
0.00940336
0.00953904
0.00795638
0.00673256
0.00745927
0.00614122
0.00793650
0.00721587
0.04477594
-0.02812449
-0.01997678
-0.01027551
-0.00548093
0.02287647
0.04186225
-0.02898984
0.04440940
0.00557037
-0.01480588
-0.02308721
-0.01506897
-0.01368861
-0.01674293
-0.01647388
-0.01249415
-0.01339473
-0.01135437
-0.01661285
-0.00379292
-0.00591478
-0.00184767
-0.00209205
-0.00112377
-0.00761605
-0.00494540
-0.00489596
-0.00468697
-0.00618886
-0.00502711
-0.00368589
-0.00429928
-0.00456439
-0.00452548
-0.00490291
-0.00538512
-0.00433258
-0.00453699
-0.00366247
0.00038306
-0.00020733
0.00084416
0.00041832
-0.00028847
0.00071293
0.00012056
-0.00017157
0.00043625
0.00014062
-0.00497788
-0.00613908
-0.00602830
-0.00628272
-0.00647418
-0.00511236
-0.00498282
-0.00695300
-0.00549962
-0.00669100
0.02595947
0.00444654
0.03436282
0.02741159
0.01750217
0.01872444
-0.00999933
-0.01202169
-0.00337309
0.01713987
-0.01347812
-0.00677794
-0.00606817
-0.00121718
-0.01398987
0.00041951
0.00402255
-0.00039232
-0.00045460
-0.00420309
-0.19149150
-0.10384502
-0.17104036
0.14467308
-0.11973805
0.21013828
0.02227232
-0.21015519
0.13714729
0.11830057
0.00043513
0.04082497
0.02456091
-0.00503142
0.00203026
-0.02091630
-0.01833946
0.01206169
-0.00019888
-0.00349135
-0.00475813
-0.03308562
-0.05483517
-0.00379915
-0.04403367
0.01921117
-0.00264182
-0.04439574
-0.00126951
-0.02501830
0.06668109
0.02147984
0.10702673
-0.14085506
-0.00882074
-0.04332238
0.02130929
-0.09555322
0.12846893
-0.08813240
-0.00375544
-0.00267901
0.00541856
-0.00506046
0.00049416
-0.00664944
-0.00682303
0.00206625
0.00193991
-0.00785091
-0.00388997
-0.00696333
-0.02428728
-0.03614354
-0.02811819
0.02596977
0.04912087
0.01556111
-0.04754374
0.00418734
0.00031250
0.00004812
0.00058589
-0.00101690
-0.00026935
-0.00276915
-0.00363086
-0.00158102
0.00019571
-0.00176781
0.00592953
0.00480500
0.00603203
0.00515665
0.00488821
0.00507230
0.00400130
0.00572860
0.00515908
0.00510885
0.00485818
-0.00666432
-0.02237574
0.01780967
0.01071517
0.01645626
0.00629215
-0.00691734
0.00176004
0.00681840
-0.00342376
-0.00939944
0.00276797
0.00807770
-0.00895205
0.00433180
-0.01231781
-0.01480120
-0.00020984
-0.01467181
-0.00281158
0.00499826
0.00256562
0.00230442
-0.00326538
-0.00249271
-0.00063579
0.00985852
0.00486062
0.00347641
0.00089573
-0.00258985
0.00089771
-0.00411308
-0.00307564
0.00260980
-0.00341616
-0.00448895
-0.00274625
-0.00118701
-0.01795101
0.02114358
0.02575815
0.00591093
0.05065273
-0.01376010
-0.00788613
0.02661868
0.02358177
0.05122892
-0.02592755
0.01700953
0.01316059
0.01261128
-0.03088993
0.00899083
0.01006158
-0.00606799
-0.00396728
-0.00256512
0.00272678
0.02059563
0.01517251
-0.01855943
-0.02288708
-0.03032526
0.00686257
-0.02423165
-0.01121129
-0.02088845
0.00625519
-0.03015290
0.00203401
-0.00322994
-0.01226427
0.00741354
-0.00923849
0.01300967
-0.00221084
-0.01868647
0.00789698
-0.00161799
-0.01648444
-0.02289223
0.00690515
-0.03622372
-0.01552632
0.01477188
-0.00856732
0.00522232
-0.30151331
-0.06854794
0.07698390
0.23965365
0.07878844
0.10138425
-0.32141402
0.17630988
-0.14171119
0.10334352
-0.00314654
-0.00823850
-0.02143259
-0.00937879
-0.00456263
-0.01472500
-0.01582579
0.00072601
-0.00174933
-0.00848269
-0.00331240
-0.00229527
-0.00499410
-0.00215941
-0.00303718
0.00234424
0.00181663
0.00075590
-0.00417117
0.00095874
0.03063700
0.00315775
0.00086518
0.00132690
0.00884089
0.00015247
0.02731014
0.01345341
0.00020627
-0.00586578
-0.04005683
0.09100024
0.00055423
0.28720379
-0.23798676
0.13892984
-0.30555141
0.28079590
-0.24063553
-0.10070591
0.00144123
0.00157801
0.00147562
0.00147466
0.00208763
0.00203455
0.00164315
0.00183956
0.00196192
0.00142482
-0.00127866
-0.00072112
-0.00115598
-0.00084077
-0.00064953
-0.00065548
-0.00101106
-0.00038821
-0.00125901
-0.00155123
-0.01168506
-0.02800465
-0.02893045
-0.02085827
-0.00478951
-0.00985072
-0.01951624
-0.00900336
-0.01151638
-0.00542382
-0.64977473
0.74875575
0.34514785
0.31140310
-0.61521810
-0.12354926
0.01461891
0.46038064
0.62078953
-0.92961681
0.00323141
0.00645323
0.00102548
0.00016717
0.00542714
0.00099359
0.00212189
0.00391182
0.00885655
0.00249700
0.00526245
0.00183905
-0.00060809
-0.00318104
0.00124603
0.00143796
0.00156984
0.00050908
0.00285905
0.00116280
-0.00605306
-0.00124157
-0.00560669
-0.00575007
0.00056491
-0.00343930
0.00352542
0.00383518
-0.00106274
0.00278243
0.01801953
-0.01296909
0.01046029
0.00033047
0.00426838
-0.00138915
0.00197083
0.00365158
-0.00400815
0.00454073
-0.02569297
0.00074717
-0.00943282
-0.01770155
-0.00888193
-0.01531072
-0.03067185
-0.00281387
-0.02561968
-0.01392820
-0.01822855
0.01011598
0.02704135
-0.00185666
0.00133160
0.00775551
-0.01710505
-0.01341109
0.00143108
-0.01058010
0.01073874
0.00997009
0.00946983
0.01133745
0.01080583
0.01126959
0.01276743
0.01124433
0.01067307
0.01029567
0.00084828
0.01176849
0.00959244
-0.03824748
-0.03212354
-0.04974066
-0.00723703
-0.02305101
-0.04421076
-0.02394835
-0.01701792
-0.01280811
-0.00802275
0.01185525
0.00882571
-0.00116086
-0.00550223
-0.00115262
0.00612628
0.00566476
-0.00970655
-0.00551583
0.00779058
-0.00750853
-0.00825287
-0.00699894
-0.01762248
-0.01183897
0.02480167
-0.02028624
-0.00986139
-0.01341951
-0.00346275
-0.00869145
-0.01064548
-0.00942606
-0.01103853
-0.01206673
-0.00560203
-0.00484787
-0.00070409
-0.00166387
-0.00163719
-0.00145512
-0.00108906
-0.00154473
-0.00251877
-0.00086457
-0.00144455
-0.00278411
-0.01725789
0.00976682
-0.02039415
0.00439909
-0.02525972
-0.03037636
0.00902347
0.00165957
0.01023171
-0.01673290
-0.00237364
0.00042295
-0.00123512
0.00806962
-0.00032967
0.00111093
0.00028659
-0.00061617
0.00216609
0.00369083
-0.02572521
0.00044247
0.04182722
-0.09957512
-0.02400964
0.13111190
0.03863660
0.04078781
-0.05922341
-0.11391047
0.00543547
0.00420959
0.00688587
0.00452411
-0.00733418
-0.00034452
0.00953550
0.00759173
0.00361091
-0.00648008
0.00068534
-0.00563962
-0.00386423
-0.01469154
0.00456082
-0.01737553
-0.00560529
0.00032117
-0.00241816
-0.00964019
0.00446624
-0.00144764
-0.00223995
-0.00365350
-0.02483818
-0.03416791
-0.01133367
-0.04088290
-0.01450764
-0.03583849
0.00187625
-0.01994710
-0.02385887
0.02096070
0.00244815
0.10023933
-0.02902337
0.01624285
-0.00031010
0.04452310
-0.00327186
0.00034353
-0.00393574
-0.00651700
-0.00628623
-0.01082602
-0.00328522
-0.00027384
-0.00950617
-0.00652445
-0.09836026
0.06110798
0.02484080
-0.14751764
0.15695022
0.04224234
-0.05484490
-0.04962032
-0.00437744
-0.05939113
0.00015339
-0.00449418
-0.00934490
-0.01218501
0.01187351
0.02745692
0.00820761
0.00931198
-0.01024404
0.00134131
0.00271989
-0.00081740
0.00284628
0.00438434
-0.01056463
-0.00701465
0.00184666
-0.00256404
-0.00385497
0.00403608
-0.03093011
-0.02544604
-0.00293617
-0.00887427
-0.02511612
0.00565771
-0.01821372
0.00976399
0.03089660
-0.00185204
0.00597757
-0.01630746
-0.00364346
0.00709165
0.01337451
0.01738219
0.00314491
0.02174916
0.00963632
0.02713300
-0.01381780
0.00281809
-0.01650735
-0.00619972
0.00039184
-0.02350128
-0.01901796
0.00650223
-0.03074595
0.00017224
-0.00076661
-0.00157256
-0.00031822
-0.00386110
-0.00032065
-0.00173305
-0.00159506
-0.00037472
-0.00167762
-0.00061021
-0.01055371
-0.00905469
-0.01013305
-0.01015178
-0.00968923
-0.00959910
-0.01125455
-0.00879688
-0.00962301
-0.00919349
-0.00865083
-0.01007368
-0.00471599
0.00043790
-0.01276588
-0.00678154
-0.01323203
-0.00879903
-0.00632276
-0.00663795
0.00239568
0.00428660
0.00500315
0.00594813
0.00334366
0.01024669
0.00265159
0.00239561
0.00318366
0.00450642
-0.01967214
-0.00109488
-0.01579457
-0.01404510
-0.01977913
0.00466369
-0.00117819
-0.00962996
-0.01397503
-0.00630557
-0.00403609
-0.00783979
-0.03281293
-0.02611084
0.03080922
0.01344737
0.00739325
-0.02856187
-0.00741345
0.02059758
0.00336508
0.00096986
0.00230187
0.00323259
-0.00052872
0.00108937
0.00428885
0.00281488
0.00147250
0.00323012
0.00935593
0.00655479
0.00430067
0.00438420
0.00467334
0.00423009
0.00693716
0.00581256
0.00692723
0.00444260
0.03471809
-0.01066209
0.02831400
0.01920693
0.00711771
-0.03010949
0.01054593
0.01487235
-0.01428790
0.00576183
-0.01225965
-0.01749192
-0.01630010
-0.01992049
-0.01365557
-0.00511599
-0.00671331
-0.01455759
-0.02026062
-0.01423726
-0.01600122
-0.00171186
-0.02378936
0.00050979
-0.00903840
-0.00004809
-0.00657052
0.00583217
-0.01870370
-0.00171225
0.00124058
-0.00032107
0.00449475
0.00695957
0.02295684
0.00284634
-0.03250929
0.01565167
0.00798510
0.00256077
-0.04956401
-0.08543452
0.07374428
0.13612895
-0.09333473
0.15124269
0.03254825
-0.15459850
0.10258010
-0.08233724
-0.05415224
0.02102505
0.00704173
-0.01263369
0.03194933
0.02813002
-0.01472573
-0.00652149
0.08363455
-0.01090872
-0.00294976
-0.00314018
-0.00756414
-0.00144955
-0.00084762
-0.00104791
-0.00277455
-0.00326417
-0.00080398
-0.00408482
0.18931384
-0.12609571
0.01409613
-0.00574087
0.06016598
-0.00851929
0.06481925
-0.04885242
-0.13248636
0.07083314
-0.00785398
0.00250974
-0.00196453
-0.00354645
-0.00568581
-0.00710017
-0.00113392
-0.00180473
-0.00490275
-0.00339754
-0.00530844
0.00431872
0.00320625
0.00642490
0.00557936
-0.00244426
0.00639664
0.00492448
0.00359703
-0.00374806
0.00732020
0.00636875
0.00452999
0.00468229
0.00356800
0.00684378
0.00510823
0.00644008
0.00505393
0.00781886
-0.00698873
-0.00972685
0.00182361
-0.00876845
-0.00999132
0.00079553
0.00134156
-0.01055527
0.01106191
-0.00793268
-0.00621965
-0.01504858
-0.03153620
-0.02104109
0.02390089
-0.00751392
0.03052155
0.01446722
0.00657408
0.01383452
-0.06085814
0.04811245
-0.01898480
0.00734364
-0.02834361
-0.01089977
0.00160891
-0.01018705
0.00881474
0.00271950
-0.01906456
-0.00289856
-0.00315577
-0.00800072
-0.00962867
-0.01543274
-0.00365228
0.00105647
-0.01286445
-0.01041166
-0.00543340
-0.00402895
-0.00578947
-0.00485948
-0.00554910
-0.00383375
-0.00400294
-0.00615753
-0.00538460
-0.00496024
-0.01638328
0.00461508
0.01004809
0.00337882
-0.01383842
-0.01825187
-0.00652651
0.00404296
0.00732542
0.00869989
-0.00060346
0.00042722
-0.00063915
0.00038742
-0.00042406
-0.00091417
-0.00107106
-0.00008647
-0.00082615
0.00021098
0.01214876
0.01269911
0.01227830
0.01238016
0.01269303
0.01272220
0.01248591
0.01210832
0.01240672
0.01255043
0.08533861
-0.06048009
-0.07649852
-0.04606477
0.05659974
-0.14425306
0.01542500
0.07328951
0.13549398
-0.01514191
-0.04465093
0.03152015
-0.00673147
0.04836391
-0.03429630
-0.05206864
0.02883006
0.00330208
0.00985952
-0.00701752
0.00793112
0.00581995
0.00111317
0.01535404
-0.00684812
0.01420908
0.01427518
0.00471270
0.00007488
0.00828702
-0.00339171
0.03853605
-0.01339510
-0.00193800
0.00217053
-0.04138280
0.01721650
0.03125240
0.01772855
0.01134007
-0.00602928
-0.00644011
-0.00466735
-0.00692074
-0.00354718
-0.00580235
-0.00777247
-0.00761649
-0.00590567
-0.00663823
-0.01797699
-0.00867448
-0.01268954
-0.00715966
0.00742079
0.00459861
-0.00716685
0.01492332
0.00351694
0.00746659
0.00123283
0.00084388
0.00158700
0.00091080
0.00087146
0.00088529
0.00088684
0.00039944
0.00066888
0.00113141
-0.09840409
-0.11491363
-0.01098833
-0.00919855
-0.05552192
-0.07018127
-0.00387305
0.05306266
0.10124265
0.07588070
0.05705405
0.08865894
0.06107229
-0.00792203
0.04736529
-0.06104024
0.02949520
-0.10269709
-0.02859164
-0.03936458
-0.00425746
-0.00508111
-0.00576605
-0.00516775
-0.00612146
-0.00435789
-0.00592429
-0.00575520
-0.00478199
-0.00595822
0.02607751
-0.00023460
0.03776425
-0.00092600
0.02012754
-0.01471924
0.00744970
-0.00413908
-0.00303030
-0.02290921
0.01243357
0.02208761
0.02098546
-0.00029620
0.01000358
-0.01244100
0.01942540
0.01494280
-0.03152050
-0.00322038
0.03596139
-0.01335569
-0.01673738
-0.00247986
0.02477554
0.02691190
0.02991459
-0.02655616
0.03943053
0.01560716
0.09583384
-0.05570694
0.01542087
-0.04264176
0.00066742
-0.19732715
0.01495967
0.02589089
0.02305629
0.02866687
-0.02016590
0.02371918
-0.01467318
-0.02025775
0.02637902
-0.02390843
0.03869111
-0.00538220
0.00509945
0.00352938
-0.00042952
-0.00528134
-0.00688462
-0.01190670
-0.01862623
0.01761919
0.01810338
-0.00642963
0.01029390
-0.01143436
0.06572939
-0.02836862
-0.02162652
-0.14751427
0.07470075
0.18425702
0.15179673
0.03105713
-0.11399023
-0.07818000
0.02712764
-0.04786568
-0.00726328
0.00491593
0.01403209
-0.00624184
-0.03784848
0.03499801
0.00826766
0.04135776
-0.02220898
-0.00509132
-0.00371891
-0.00923378
-0.01896222
-0.02027638
-0.01524244
0.00237720
-0.02086281
-0.01433185
-0.02995476
0.02818041
-0.00925368
0.04034907
0.00258479
0.00895634
-0.02723839
-0.01626511
0.04777060
-0.00840759
0.01248695
0.00864954
0.01142191
0.01311421
0.01417993
0.01229897
0.00808924
0.01355927
0.01121303
0.01477192
-0.01715919
0.00940437
0.00616137
-0.00079353
0.00538607
-0.01838180
-0.00970192
0.00660897
-0.01236600
0.00968116
0.01038605
0.01074140
0.01083702
0.01034795
0.01175757
0.01010763
0.01012510
0.01103887
0.01096559
0.00981324
-0.00642111
-0.00224814
-0.01249140
0.00012621
-0.01344964
-0.01198603
-0.00374942
-0.00089274
-0.01083495
-0.00211913
-0.00560267
-0.00590801
-0.00567545
-0.00471797
-0.00563499
-0.00530965
-0.00475165
-0.00630059
-0.00429908
-0.00633515
0.00289858
0.00548188
0.00491413
0.01504625
0.01328302
0.01293278
0.00706863
0.01031785
0.00959187
0.01193513
0.01762317
-0.02002241
-0.02424926
-0.01435671
0.03531310
-0.02684307
0.04815564
-0.03052074
-0.03492870
0.01670089
-0.05588902
-0.02809521
-0.03074244
-0.01028160
0.01624846
0.02073802
-0.00887992
0.01309772
0.00145704
0.01375502
-0.01158933
-0.00892508
-0.00672680
-0.00619558
-0.00836608
-0.00874059
-0.01121891
-0.00727790
-0.01033487
-0.00886900
0.00147322
0.00165712
0.00355161
0.00381451
0.00189804
0.00400686
0.00002549
0.00457132
0.00052706
0.00800322
0.00923756
0.00713202
0.01159439
0.01311451
0.01156261
0.01447498
0.01236011
0.00883902
0.01313430
0.00912137
-0.06329766
0.04636544
0.01214406
0.08173946
-0.04755908
0.01653203
-0.08320247
0.08622456
-0.06890912
0.04362584
-0.00039045
-0.00137095
0.00069342
-0.00007479
-0.00075175
-0.00050621
-0.00151948
-0.00066753
-0.00129295
-0.00003946
0.00588675
0.00596470
0.00625221
0.00592008
0.00592229
0.00535606
0.00593485
0.00566354
0.00557495
0.00561977
0.00821474
0.01998192
-0.00143406
-0.01063173
0.01151823
-0.03426593
-0.00429661
0.01816508
-0.01924557
0.00770737
0.03417446
0.03863760
0.03519142
0.03371536
0.03373551
0.03400078
0.03607400
0.03709009
0.03334932
0.03314109
-0.00329991
0.00129286
-0.00353393
0.00097273
-0.00579029
-0.01546370
-0.00652584
-0.00122271
-0.00023140
-0.00517150
0.00436239
-0.00623563
-0.00070854
0.02988793
0.02829510
0.03039312
-0.00419115
0.00827220
0.00960887
0.01884247
-0.00451276
0.00017281
-0.00265154
0.00541474
-0.00377938
0.00951805
0.00495644
0.00207207
0.00126754
0.00228986
-0.01698576
-0.01698326
-0.01795189
-0.01789920
-0.01734664
-0.01709867
-0.01587224
-0.01665946
-0.01710165
-0.01733457
0.00113527
-0.00221989
-0.00092742
0.00008937
0.00191604
0.00162147
0.00188470
-0.00060164
-0.00097973
-0.00074039
0.00555827
-0.01089429
-0.03704935
-0.04699622
-0.00459019
0.03986789
0.01593583
0.00616501
-0.00717129
0.03618262
-0.02229111
0.00256106
0.02254178
0.09269057
0.00583868
-0.10181314
-0.18364809
-0.03456653
0.14669484
0.02111611
0.01979109
0.03657527
-0.02866803
-0.02601910
0.01027301
0.02445704
0.02707290
0.00820968
0.01768563
0.00519296
-0.27629623
-0.27836332
-0.20990437
0.14220044
0.17512485
0.18947791
0.05532134
-0.17952107
0.18258256
0.08404800
-0.00498950
-0.02714120
0.02331539
-0.00172490
0.00534196
0.00507685
-0.00132387
0.00258257
0.00200986
0.00594435
0.00103581
0.00111208
-0.00027392
0.00049720
0.00108031
-0.00231244
-0.00008650
0.00059010
0.00151622
-0.00032050
-0.01871427
-0.01082990
-0.03064414
-0.03174704
0.00166945
-0.02350713
-0.00269053
-0.00865168
-0.01787866
-0.01334108
-0.01201453
-0.01356391
-0.01096397
-0.01339095
-0.01626313
-0.01458274
-0.01565381
-0.01770929
-0.01496395
-0.01055825
0.02263943
0.00017497
-0.00475530
-0.00853358
0.00075324
0.00415187
0.01699716
-0.02434822
0.00074130
-0.00388184
-0.00591547
-0.00458764
-0.00321323
-0.00311557
-0.00345546
-0.00767862
-0.00492295
-0.00057088
-0.00441745
-0.00133024
-0.00523509
0.01313727
-0.03322829
-0.00415490
-0.02122376
-0.00327813
-0.00573579
0.00708038
0.00400334
-0.01523979
0.00560506
-0.00461693
-0.00565843
-0.00768980
0.00599735
0.01436523
0.00831041
0.00190945
-0.00237911
0.00740350
-0.01056748
-0.01023138
-0.00229200
0.02147435
0.02079060
0.02548233
0.01773555
-0.00085730
0.02978519
0.01169904
-0.00511852
0.00139383
0.00040753
-0.00061630
-0.01054028
0.00265753
-0.00034333
-0.00700391
-0.00368078
-0.00502810
-0.00185816
0.00723304
-0.00112011
0.02569067
-0.01175658
-0.00372215
0.00574790
0.00840328
-0.00659991
0.00458709
0.00573199
0.00338253
0.00679575
0.00594530
0.00525202
0.00543033
0.00413725
0.00559913
0.00563019
0.00525667
-0.00202798
-0.00369984
-0.00049762
-0.00092002
-0.00261048
-0.00302566
-0.00355753
-0.00218636
-0.00151603
-0.00272813
0.01623240
0.02146094
0.04962221
0.03758907
0.04148256
-0.04712691
-0.02867575
-0.01562480
0.04722993
0.01318543
0.01039295
0.01338294
0.00491978
-0.00613574
0.02147578
-0.00027402
0.01709836
0.00492658
0.01107149
0.00664549
-0.02862724
-0.01193199
-0.00706387
0.01066058
-0.02645169
0.00898874
-0.03046797
-0.00483016
-0.03251638
-0.01707292
0.00275951
0.00282752
0.00320654
0.00307866
0.00305527
0.00293603
0.00282927
0.00302447
0.00319632
0.00302296
-0.05089784
-0.02746505
0.01988125
0.03797879
0.00807836
0.04969108
-0.05545836
-0.02479892
0.03405239
-0.01954186
-0.02715423
0.01149151
0.01168449
-0.00896662
0.00860615
-0.01797408
-0.05047971
0.01320743
0.01860346
-0.01959045
-0.00017791
0.00174313
-0.00018046
0.00391046
-0.00357936
0.00512445
0.00288635
0.00285768
0.00106223
0.00290022
0.01991022
0.02601194
-0.00302876
0.01576325
-0.00037495
-0.04560159
-0.00819760
0.00641973
0.00316588
-0.03029431
-0.15715826
0.08969529
0.17939392
0.08515504
0.08704466
-0.12474873
-0.05728774
-0.00375739
0.03023420
-0.01496534
0.00621742
0.00686920
0.00591738
0.00693488
0.00404268
0.00727273
0.00660243
0.00580289
0.00564454
0.00477433
0.03406516
0.00992724
0.01866219
-0.00013753
-0.00050078
-0.01430273
-0.02826708
-0.02205120
0.01124683
-0.00334955
0.01418442
-0.02211959
-0.00105119
-0.01786795
-0.00324108
0.00248926
0.00483741
-0.00592510
0.01718820
-0.01307132
-0.01302927
0.00078459
-0.01674042
-0.01223597
0.00304240
-0.01262228
0.01281395
-0.01270419
-0.00374565
-0.01087071
0.00658013
0.00417320
-0.00435151
0.00175738
-0.00234159
-0.00241611
0.00217182
0.00433607
-0.00068598
0.00123139
0.00718344
0.00687824
0.00698847
0.00690866
0.00708523
0.00699790
0.00688356
0.00697559
0.00696537
0.00696111
-0.05171184
-0.01047633
0.06513649
0.08213019
-0.12142577
0.00784914
0.01856788
-0.03814062
0.02095541
-0.00739515
0.00688017
-0.00626255
0.00310085
0.00830734
0.01503514
0.01075633
-0.00562245
0.00727439
0.00544738
0.00297859
0.02771423
-0.01063576
0.03751504
-0.03679198
0.04059120
-0.00578362
0.06212275
-0.03814600
0.08584422
0.02825736
0.00483608
-0.02377316
0.10947236
0.04829456
-0.03609281
-0.02030672
0.02734041
-0.05337432
0.01149461
0.05637327
-0.00770721
-0.00282959
-0.00198078
-0.00496073
-0.01154991
0.01275060
0.01581573
0.00024835
0.02450543
-0.00055602
0.00246256
-0.00028576
0.00752575
0.00751104
0.00455284
0.00725990
0.00194284
0.00233478
0.00378632
0.00350656
0.00670968
0.00833917
0.00922971
0.00881328
0.00913014
0.00961269
0.00844620
0.01023309
0.00710001
0.00771950
-0.00639939
-0.00258754
0.00133047
-0.00187543
-0.00549119
-0.00888769
-0.00043622
0.00347694
-0.00053543
-0.00482499
0.00066648
-0.00039993
0.00205843
0.00985287
-0.00520486
0.01377937
0.00758315
-0.00742640
0.00784050
-0.00737160
0.00363050
0.00359837
