1.80159926
2.52712607
3.11590767
2.47958279
0.02246622
0.00056242
0.84208953
0.04830437
0.05261123
2.35088849
1.77207255
2.35933495
2.34914303
-0.08398262
0.00337698
1.99512136
2.51389742
1.40432966
2.38925123
3.26593590
1.47899806
2.55433345
-0.05606834
2.04215050
2.04589701
0.05739912
0.03955119
2.19049001
2.51822734
1.12853563
0.06587750
1.52637005
-0.02687536
-0.01127730
1.57086682
0.04592456
0.05132608
-0.02802821
1.35083961
2.00137067
0.09141566
1.16006088
-0.08077354
0.01568063
2.18763375
0.03086009
0.02243556
-0.00932957
2.42927027
0.02888571
-0.05229862
0.01029153
3.54735398
1.48112047
2.92701006
1.93031979
2.41375041
2.19665098
0.05625794
0.04097952
0.56153929
-0.00922363
1.48553360
2.01800752
0.03440459
2.05269217
3.68095827
2.50410748
1.23349333
0.04167852
1.83661401
-0.04242378
1.52294612
2.25268865
2.40336847
0.04332279
-0.04619875
1.47093105
2.61943603
0.03137401
1.90980458
1.39037669
-0.00358134
1.07417238
-0.05284733
3.08734512
-0.01771668
3.43854904
2.23781824
2.26236463
0.03901816
-0.06314141
-0.00079903
2.54335380
2.07975245
-0.05093082
2.42014027
-0.02937423
0.01525253
0.04242873
-0.01440671
1.73450804
1.56533730
-0.01186893
0.01112027
2.22632408
3.52088428
3.19949126
2.50494432
-0.02432127
0.01644347
-0.02428276
-0.03703016
-0.01270669
2.98734283
0.04054773
1.89531350
0.06391553
2.60559416
3.87259459
3.07981229
2.32794690
2.09526753
0.07854966
3.55261874
2.01496983
2.80478740
1.91791630
1.04053462
-0.03389051
-0.02706397
1.49651122
2.25476623
-0.01622762
0.03134122
2.76447988
2.26404166
2.17720771
0.00459168
0.05982569
-0.04874350
2.35492301
-0.06353012
1.86741817
1.62808812
1.75989330
-0.07016493
0.05142837
0.01078175
1.68495691
2.19687510
0.04134826
0.00689184
0.06372490
1.53980219
0.07647132
0.04319261
3.03702188
-0.03024300
2.95788026
1.78718233
0.01346148
1.92743719
3.18202543
-0.02748844
1.52355337
2.38929963
0.08354324
0.05520166
-0.06815481
0.07166297
1.50277984
0.00621783
2.57436609
2.30677772
-0.00732536
4.19833231
2.13978982
0.04001633
4.19168091
-0.01478916
2.06730485
-0.01960959
1.94286406
0.03062817
2.03990078
-0.10338291
2.26219344
2.39305949
2.70186496
0.02233094
0.98376304
3.75209928
2.09039927
-0.01046059
2.87048817
-0.00785041
0.06545319
0.47537455
-0.00674870
2.29127741
-0.05666992
2.98534608
0.04108271
-0.07599405
1.77120459
0.00884034
-0.07505956
2.63877940
3.25958061
-0.00436501
2.07813644
0.01845914
1.77726996
0.16293281
0.06875155
0.05379025
3.32999110
2.14389467
0.02309611
2.65588522
-0.02427800
-0.04436525
3.08340001
1.80584383
0.07131716
0.01833569
-0.03791863
2.17840767
-0.10716268
2.45907640
-0.06116192
-0.07364897
2.55107427
2.22749186
0.00125743
1.63901877
-0.00421457
1.70725882
0.02207346
2.61156392
2.09870958
-0.03549206
2.27684236
3.59251952
-0.02658126
0.01448188
2.20187712
-0.02037432
1.47921681
2.28330016
-0.00974194
2.22454643
3.05427504
3.33700323
1.63617575
-0.01234642
2.48331189
2.20384836
2.43023396
2.04834628
0.00377768
2.38982892
-0.02275416
1.97052908
2.84496403
0.02862665
0.03247052
-0.03969294
3.17099786
0.08448164
1.97820151
0.08517075
0.01031512
2.94274616
2.63999796
1.91197491
3.10009503
2.23631334
3.47775269
-0.02014308
-0.03926091
0.06956705
-0.00565557
-0.00833905
0.07426351
-0.01906800
2.05261421
1.53423154
1.22962165
3.36987114
0.00901414
0.01579090
2.06916499
2.73893189
1.79026937
0.00904016
0.01420962
0.10391110
0.05289000
3.13141179
2.06931591
0.01345004
-0.00314107
1.69071186
2.17177463
-0.00684302
2.83498883
0.04205396
-0.05691718
-0.01922988
-0.03911542
0.01307200
1.66956735
1.12706888
-0.00748043
-0.00499375
0.03055903
0.01943691
0.03592010
-0.05356481
-0.03456712
0.04634165
2.14413929
0.06142589
0.06172187
3.31474042
2.08016443
2.40479207
-0.03772943
0.05168873
-0.00991375
-0.00352416
-0.01399172
-0.05045035
1.97563601
-0.01076119
-0.00763158
1.28962433
1.51387978
2.49736047
-0.00089246
2.02632380
1.29379678
-0.02061319
-0.02644070
1.38381147
3.06951237
2.35170650
2.72459197
0.08119391
3.08083487
2.56473827
-0.06511084
1.09012270
-0.03095825
0.03688467
-0.06607483
-0.02704151
0.02964210
1.68701947
3.58864379
1.75054598
3.06600285
0.00677814
0.00414854
0.08366979
2.03291941
0.02988796
2.32658339
-0.04761005
0.01185508
-0.05778175
2.20888042
0.00662397
2.22965479
1.98482203
0.02269108
0.07409374
2.12534642
-0.02710472
-0.02731778
2.30419946
1.75233924
-0.01969214
-0.01144058
0.00846472
3.92716503
1.26790190
0.05192308
1.69162846
0.00544907
2.01502824
2.79933310
2.93806076
0.03339989
-0.01421885
-0.03615893
0.05810327
-0.03419746
0.03772140
0.01182969
-0.00236733
3.07212472
0.09074070
1.80692518
0.03464561
3.21445251
1.74518561
-0.02458045
-0.05075012
-0.00046524
-0.05606375
1.97019565
2.59481049
2.97878861
3.05441022
1.81165886
-0.05913387
1.43803847
0.05143922
0.03080739
1.90050840
3.00504446
-0.00909772
2.45111799
0.00017413
3.02939820
2.28701329
-0.00271038
4.12219810
1.79651225
2.01617742
0.00012490
-0.09869908
0.02756505
-0.05571832
0.01828961
1.47919428
3.09147573
-0.00358493
0.02361128
1.65297580
0.03505189
3.66884279
0.01000119
2.62048721
0.01088192
2.62148905
2.89696884
1.55480123
2.84102631
1.64918375
1.67178583
-0.02076597
0.05843943
1.67429280
-0.03998764
2.22630787
0.06013797
2.40357256
-0.02419821
-0.07156762
1.82425523
2.52796054
-0.00022956
2.96950197
0.06131535
2.13414216
1.28010380
1.17385697
0.01063413
2.72042060
1.64245570
1.73062587
0.02726892
1.78879273
1.78768432
2.20519948
2.47858143
0.03631428
0.01609180
2.16313243
2.27730417
0.04385983
0.04538563
-0.00592869
3.67365956
2.70084882
0.09936736
2.77640224
3.69305420
-0.03781166
2.17913938
2.72585726
1.62171495
0.04091113
0.06140238
0.01747851
-0.02596766
1.77041769
1.71606064
2.34848976
0.88740236
0.71592051
0.08339937
1.67993546
1.57727814
1.88771498
2.34705424
0.01183389
-0.05200852
-0.01869055
-0.01313606
-0.03842462
2.48880410
0.09386224
2.37655330
-0.01013362
-0.01112008
0.06120602
0.07254634
1.94331694
1.42013955
0.01279415
0.00776416
0.03508331
-0.01390349
1.30841744
-0.04462598
0.01224655
0.06163583
2.09715700
-0.00528726
0.07483294
0.03136852
3.28147888
-0.01326905
3.03615761
2.56397676
1.45418584
0.00431548
0.00399393
-0.02199434
2.49359179
-0.01381039
3.44068885
0.01365881
0.01328263
3.11944723
-0.07543104
1.75765550
-0.02593109
0.10332970
2.82916212
3.81495023
2.49531555
-0.03334979
1.72630119
-0.00837749
3.14364839
1.11365831
0.05622301
2.47565079
3.36129284
0.04493253
0.02150375
1.67167938
2.58313799
-0.01565497
1.71666336
1.88930523
1.40294862
0.02441940
-0.04368865
2.08416939
1.87768364
1.80364823
2.79922247
2.21454859
-0.03292328
2.90166426
-0.03949675
1.42493415
0.04146113
2.18158889
1.88111591
0.04212316
1.70014822
2.35416532
1.69125664
2.24887633
-0.00063462
2.36925030
2.11329436
1.19463015
2.44921613
0.05481169
-0.02134098
0.03316161
-0.00286974
3.16668105
1.38724995
0.05311441
2.26210403
1.40561354
0.04143068
2.99839854
0.04915644
1.77981293
3.19160390
2.78633833
-0.00861250
-0.05570848
2.01749921
-0.06408612
3.81714296
-0.03121490
1.89121616
2.37937522
1.58207154
-0.08146539
2.21862245
-0.01687964
-0.02998614
3.39851904
-0.06874552
1.41581845
1.15891135
2.88665342
1.40348351
0.10259861
0.05170948
2.89665055
1.88736558
3.92753077
0.02661986
0.01468019
0.07146414
0.02418400
2.74320769
-0.03684783
-0.00458325
4.43596792
1.87706494
0.05131988
-0.00393949
2.43549848
2.36261415
-0.02082438
3.57336283
0.05836545
3.02309752
1.10737753
1.77627993
3.01182699
2.10920000
1.70159829
1.96380770
2.79019928
0.03140039
0.03117882
0.09427517
0.00645310
2.32739019
0.04935682
-0.04088709
-0.06584479
-0.00365215
3.12151885
0.05486241
0.14200146
2.28610802
3.00906301
3.56079841
0.02827740
2.12743568
3.33077526
3.88334179
2.94964051
1.74393928
0.04504953
-0.00989407
3.69993305
0.06763055
2.05194473
3.35047674
1.67050815
1.85774636
3.30517077
2.05753422
2.81623197
0.03423145
0.05739264
0.07912860
2.05162477
0.04441854
3.25138307
0.02738939
0.14018580
3.65363169
-0.00463205
1.76865399
1.80201352
-0.07829367
0.02347006
0.02509581
3.20623326
1.38012075
2.25461531
1.52768946
-0.04214728
2.24442339
-0.02484232
0.07568751
0.06439654
2.34026909
2.24372864
-0.02993713
-0.04613036
1.88067484
0.00898591
1.83853102
2.20077610
3.08939219
1.91172218
0.02355305
2.24059486
1.03405011
1.53493297
-0.01363365
1.79118681
1.72807181
2.37154722
1.70155132
2.47569799
0.00961162
1.77225661
2.97568941
0.00947300
-0.00353488
-0.02284465
-0.02754162
2.41134214
2.45589566
2.48323011
-0.09187534
3.08500504
3.10979128
2.51505756
-0.03964461
0.03403097
0.04186286
-0.02923575
2.07226300
0.02231304
0.01495613
-0.00895139
3.01176810
1.65400338
0.08807804
0.04207401
2.08090782
-0.02686800
-0.04365348
3.02602696
-0.04859360
0.01375001
0.03888512
-0.01288832
-0.02522282
3.34993434
2.35945177
0.73530656
2.06416202
0.00952816
0.39031726
1.93056583
0.05493058
2.21147752
-0.06285685
2.28005338
3.28849387
0.06272108
-0.03215070
0.00284454
1.58568013
0.00824705
1.23241556
2.90312028
0.00563006
0.02424848
0.06212056
-0.01021612
0.01241529
0.05289135
0.00586934
0.01958195
2.67348289
2.09609652
3.25687957
1.49874067
0.00226010
0.00064682
1.77023280
2.33110356
0.05815573
0.84133410
2.36906981
0.02962541
2.14686584
0.02161899
-0.01352744
-0.02705620
1.54195631
0.05543784
-0.09533633
0.00339204
1.51623094
-0.04947679
2.49991131
2.18119907
-0.04207251
2.72806025
-0.02121878
0.01702457
2.45931816
3.28162503
1.52570558
0.00215584
2.84527111
0.08971667
2.37304163
2.14188695
1.94822991
2.86587644
2.98085093
1.96477973
2.41292477
2.52864432
2.48288488
0.00043893
0.03777995
2.78925562
2.43746567
-0.01206809
1.71478331
0.04555824
-0.00488500
3.76324868
0.00042534
2.10887122
1.63260174
0.00420016
2.47304845
2.16056085
3.03022742
-0.04068069
0.07357726
-0.06098354
-0.00696383
0.02253643
2.96555853
0.01625769
1.58444440
-0.03478631
0.06214794
4.29530907
0.01497158
2.46935439
0.03641673
2.11297178
0.05003646
0.03395350
0.03174781
2.51181769
2.66642070
2.65067172
0.84682661
0.00969002
0.00818754
2.96393061
3.24914575
1.64031160
2.18530655
0.00984403
1.77192748
0.02428146
0.02498559
1.85925770
3.57106638
-0.01045188
-0.06913524
-0.03651804
1.69314528
0.16241659
2.14487529
2.49415874
-0.01046542
-0.05583795
2.48958516
1.75038731
0.01545897
-0.02037532
0.83737242
0.79278517
0.81463963
0.03444156
2.29270840
2.47872591
1.62055290
-0.00797352
2.25865078
0.78536546
2.12166190
2.23360324
2.66372085
2.22000957
1.57355964
0.00778996
2.18007159
1.36153471
2.04311728
1.26304471
-0.03432539
0.00140655
1.40959752
3.06780362
-0.01595603
-0.13448910
-0.00755213
0.06236339
0.00112418
0.02778385
-0.03394755
3.48089170
-0.04809863
-0.00204617
1.67377257
2.47728157
0.01893690
3.18780541
2.65885544
-0.05217499
-0.01479369
2.00605607
2.21339631
1.97519112
1.75296485
-0.05606502
2.41514683
2.32860756
0.04056593
2.68470883
2.97303843
-0.12979893
2.42652059
1.11869538
2.19398355
2.78633380
2.34125352
0.01184312
2.12790823
1.42607987
2.47502494
2.06304669
0.02631317
-0.04357219
-0.05127671
1.77608776
0.00596773
2.49130058
3.20013380
0.12047842
2.28833175
0.03788838
-0.06727570
2.50920606
0.00822575
2.24668145
0.01513119
-0.04479193
0.13514702
-0.02981336
1.35842383
2.93027425
2.00707388
0.00236704
-0.04670272
1.51109302
-0.03657528
0.03237656
0.03069589
0.06343255
2.52784324
0.00646490
-0.08187912
2.32472229
2.77968669
2.53163671
0.01687665
-0.01827724
2.82975841
-0.01568069
2.08260059
3.53414631
-0.01765288
0.06002439
3.14694238
2.13620853
2.77182245
0.52461785
2.90079117
-0.01622248
2.79693913
1.74222124
-0.05952378
0.03231405
-0.00323983
1.91264606
0.01016455
3.77114081
0.08501933
-0.00527419
3.62827587
0.07354958
1.50508785
2.52948976
2.87001657
2.21061254
0.69005287
1.95999467
1.27538359
-0.00028702
1.41411316
2.81831503
0.01989467
0.00958944
2.78262234
-0.06036146
0.00350705
2.19955254
3.00338340
-0.01789465
-0.01650096
-0.03529640
3.11773634
1.69973862
2.04785323
2.42532969
1.87453485
1.93535578
3.07903767
-0.02428181
0.00301460
1.26308584
0.02578148
2.11400890
2.81000447
-0.02387930
0.01046952
0.01465601
-0.00272435
0.00021962
2.35334015
-0.07981654
-0.00988168
-0.00801896
0.01359740
1.80549896
-0.07531134
-0.00909900
2.25286412
2.88813019
2.22756219
0.61262673
3.20011497
0.07050055
-0.13059886
-0.02806922
0.03421857
2.07170892
2.99621034
0.89635378
2.18852329
2.95170736
0.05310379
1.37575018
2.84707832
-0.03684780
0.00766912
2.31941438
-0.00939723
1.98083544
3.15901136
2.89455485
3.47905087
2.94098544
-0.01207267
0.01306728
0.07165974
-0.00861951
1.79540122
2.24044180
1.93561637
-0.06437127
2.21928644
2.57836485
0.00260403
0.00599781
1.47431493
-0.01831551
0.08233833
0.90774846
2.08217454
-0.01030750
2.17240334
1.33975565
1.35428524
1.98055530
0.01745232
2.16301250
2.41615677
0.11221547
2.17002964
2.20111227
1.78140318
-0.00289918
0.04322642
1.42005074
-0.00697014
1.54732716
-0.00589163
2.88265848
0.02672478
-0.01294768
0.03650023
-0.07579124
1.71961641
0.04359692
-0.04233789
1.17740750
2.37826371
2.35336518
2.35394049
0.03527058
0.03720202
0.01680188
2.77453446
1.43069112
0.04793148
0.44681805
0.00781894
0.05836742
2.01827669
0.08801495
0.01611159
-0.02439760
-0.04213805
2.30623627
1.45096791
0.09870002
1.51565063
2.29565239
0.06274771
4.19322920
-0.03075188
-0.01920042
2.73832846
3.88146305
0.01322674
1.91465688
0.02069656
3.05628467
0.00318460
0.00362596
-0.02520849
1.67174804
2.01216054
2.48654127
0.00858031
1.96897244
0.00912172
0.00271122
0.04775287
1.97791660
0.03769295
1.43140793
1.96703517
3.46834970
2.18395948
1.75972497
-0.00481671
0.03515767
1.41662192
0.02869635
0.04583947
0.03921896
1.05314958
2.32077932
2.25655246
2.97081494
3.23116231
2.97041464
-0.00860553
-0.01245756
1.94530571
2.08029437
3.18730164
-0.01732890
0.04941557
2.77117872
1.50678205
-0.01517111
2.35606003
1.85135663
-0.01418977
2.16272521
3.75738454
0.10223407
0.06350849
0.03121330
0.04645574
2.07624650
1.54358923
0.01063005
2.43665814
0.01015552
2.12810206
2.03880668
1.99991477
1.82843029
1.63455904
-0.03557072
1.74015486
0.07292128
3.91939831
3.49004173
3.10308242
0.74914789
2.04624891
0.02265592
0.02806314
0.01628844
-0.04419551
-0.02853930
0.02423635
3.96591043
2.25748515
0.02898283
-0.00491814
-0.04458861
3.20450664
3.01657557
0.02839571
-0.03738916
1.75115323
3.27896023
0.03492582
1.90029490
-0.03477366
-0.01032259
0.08099095
-0.01032783
0.02129451
-0.01097483
1.95557010
0.04271368
-0.01417226
-0.00670825
2.26380491
2.52768254
1.48702884
2.15409279
2.95192838
1.53615284
2.37833834
2.73864412
0.06136539
3.50553727
2.09260654
0.02967852
1.64773285
0.01052647
0.01550719
0.00811868
-0.01424714
-0.08020820
0.04068099
2.66442919
1.52742612
2.27557349
-0.00829861
2.01907563
0.77350461
1.85369492
0.08606818
0.00269708
-0.04719272
1.57153070
2.39999938
1.98486292
3.28878522
0.48686945
1.96231949
1.91428387
2.34114456
0.01768896
-0.04128898
1.84276068
-0.04445049
0.07481739
2.28460026
2.21130586
2.55218410
3.04632115
0.03161709
0.03166284
0.12551838
0.03111570
0.04530539
2.10870409
1.81463110
3.40485406
2.48223972
-0.06456109
2.35684299
2.93886781
-0.04010750
2.86053872
0.04132469
0.04464209
-0.00022011
2.44451547
1.67405319
2.54578185
2.40066648
0.84108478
-0.08863206
-0.03063617
3.32855678
3.98013520
2.53158665
1.45449722
1.33470559
2.23823571
0.02351561
0.11556367
3.09717894
3.04583287
0.01854840
1.34403467
2.95596433
2.06634450
2.13817716
0.02328790
3.20585394
0.04860921
0.02298366
1.61256397
3.23895073
2.44983387
-0.01567634
1.60015476
-0.03252417
3.42140317
0.03601261
2.86208725
2.14870262
0.03548225
2.33693290
0.00086049
2.59702873
1.90774131
2.83858919
2.84194970
0.52384692
-0.00749116
1.74047124
0.02875326
0.01677254
2.91964412
2.08484983
-0.03354181
0.00241285
2.27598286
-0.00755733
1.94614899
2.22373223
-0.03440527
0.01953952
3.04454470
-0.04095148
1.03087842
0.05144281
0.07337311
-0.07386899
1.74164784
0.03232025
3.09042144
3.57768393
2.06129050
0.00523893
-0.01530295
0.02797172
-0.05924267
2.59129977
2.21179271
-0.09075914
2.94911695
0.01202441
-0.01400801
0.01130628
-0.03152940
0.01494889
2.88705301
0.03037711
1.72376096
0.05007641
-0.05761424
1.74013436
1.91658044
0.00938675
-0.07605904
0.09291408
2.06486130
2.32663107
-0.00565392
1.79325807
-0.00129894
-0.01824451
0.00158950
0.00638621
0.00157199
-0.08468573
-0.01183382
1.66185641
3.47786808
2.48879457
1.14160979
0.02882150
-0.05385223
-0.03344239
0.02486312
3.03488231
2.47167158
2.94597316
0.01887508
2.21852040
1.58447576
3.76643467
1.77669251
-0.03288968
2.45343137
1.81046629
1.68303633
3.01625156
0.03175014
0.03740489
-0.01904818
-0.05054818
1.59744573
2.04789615
-0.08814646
2.18510389
-0.05473061
0.09726714
0.03149958
0.00930542
0.00958905
0.00621116
0.03731015
-0.01742572
2.33964944
-0.03375198
0.03720009
-0.00726333
2.24512672
2.00515699
3.31423283
0.04510522
-0.01559090
0.03905475
2.48348069
-0.00688795
2.82451844
2.91339421
-0.01396543
1.71106446
0.09781922
0.01888096
1.04311049
3.33884740
2.67725253
-0.02980552
0.82643902
-0.00674773
1.81480539
3.70363784
-0.05282765
1.84743679
0.00674977
3.28051782
0.87730592
1.99296415
-0.05375670
2.37503600
-0.01098158
-0.00354683
0.04603140
1.70547187
0.04054907
1.99639404
2.95342970
2.90694427
0.04066450
0.06604762
2.22293305
0.00703406
2.38896704
0.59751594
-0.11746739
2.06442022
0.05062696
-0.05740584
-0.04263124
-0.02124242
2.77295780
2.39618182
0.01507135
-0.02468486
0.64539772
2.59586692
0.09736238
2.32141471
2.74936867
-0.04682204
0.09802749
0.04145008
0.02471090
0.03567111
-0.03818908
2.00975204
3.00027871
-0.00302888
2.01795053
-0.01286955
1.74252737
1.98334646
-0.01154585
-0.05851084
1.73978233
3.05614161
1.83211827
0.05686517
0.03896612
0.00470474
3.39785695
0.01044332
3.08090591
2.03362060
1.78624713
1.80341721
-0.03096277
2.55270410
3.01932287
2.28366971
0.08085208
-0.04354761
1.63157344
2.17832017
2.39918423
-0.03746721
1.34604847
2.17796540
-0.01009308
1.91271663
-0.00869665
2.84685540
0.08202183
3.01179504
2.37616420
0.07580863
0.00272401
1.75981438
1.47930908
0.70508599
0.00624294
2.48699403
2.76953745
2.57186699
1.29389501
-0.00094372
-0.01425165
0.01498226
2.08932042
0.01686467
-0.03069204
0.02349736
2.17909932
2.35428238
1.63229263
2.19565487
1.65363503
3.23319221
2.92393517
2.88526988
-0.02624664
0.93593895
-0.08002540
2.10288429
-0.08721871
-0.00116244
2.01176310
1.94051385
1.76922047
0.00662368
1.78507936
1.72636878
3.06034279
1.62688017
-0.01951227
2.97109556
-0.00704641
-0.04869178
2.69973516
-0.05491256
-0.02109650
-0.01615726
-0.00221044
2.73210454
3.13789725
0.00059987
0.01191487
-0.06897323
-0.05940159
0.04732037
0.03672558
-0.04516634
-0.03242959
2.85427427
-0.05353362
2.55327821
1.69441116
2.74258971
0.07808028
0.36099300
-0.02015133
3.02840257
0.01742724
2.01603222
0.12966746
0.09569201
0.02781111
2.39054894
0.04747767
0.03057663
1.84877574
0.06483345
0.05035739
-0.10442582
0.06499892
-0.00853979
0.02528725
1.51735556
2.07163048
2.14355326
3.49158740
0.02221725
-0.00161524
1.49339569
-0.00910443
0.03430659
-0.03149725
0.00017104
3.19152427
-0.00364624
0.07815871
2.24068308
-0.02555033
0.00220531
-0.01405852
1.05983138
3.06306076
1.81885588
1.91960204
2.43143392
2.89946985
-0.03526306
2.86236620
1.43264294
0.00467870
1.89436340
1.90699577
1.85925102
1.63272405
0.84113699
4.27123165
0.15847732
-0.03883460
3.02977538
2.38266993
0.09893651
-0.08240344
2.49084568
1.71549618
2.89818430
0.00581800
-0.08370904
2.11352730
-0.04452428
2.83393192
0.03613447
0.06542141
1.31729877
3.62768817
0.07460013
-0.07184751
1.82930708
0.00285116
2.07510519
2.81466126
1.60964262
-0.00473729
2.00470614
0.11075140
0.99516720
0.00272615
0.07875990
-0.02986779
0.02161031
2.09318137
2.15644550
2.44747901
-0.07309502
-0.02638753
1.79652894
-0.00416126
1.79787648
2.20028353
0.06781305
-0.00341890
-0.02323215
0.00041525
1.72572744
1.05386972
2.15485001
0.03622945
0.10295036
0.00061978
2.38679433
3.16228676
-0.01092112
2.79030156
2.57771778
3.34927773
0.06571923
2.32656884
0.95147592
0.02751719
2.99358130
2.10736680
-0.07928114
2.21881461
0.00424608
-0.01293571
3.22989154
1.82882595
-0.04272707
2.20890808
1.82052386
0.75042129
1.99905527
2.98189282
1.99898267
0.02511379
1.81716502
-0.06190734
0.07501863
1.77455592
0.00568468
3.17021918
0.06169440
1.74119329
0.06434257
-0.02055021
-0.06375109
-0.02534713
0.03888792
2.69850707
2.06146741
0.07957456
0.01837917
1.18540478
-0.01617104
0.03236454
2.30952764
3.79883671
1.41793060
2.37851715
0.05995781
2.11402154
1.77234769
-0.01418218
-0.03307606
-0.10109225
1.17028677
2.21766305
0.04538884
1.77914357
0.03119555
1.56242216
0.03647302
-0.01850428
3.51520634
2.12301707
-0.02145173
2.71776295
-0.17498642
0.09878863
2.45003629
0.10150541
0.03256010
0.47045681
-0.04965376
0.95399606
1.88034534
-0.01143442
2.30036688
3.24596143
3.14332271
0.04330504
1.89731574
-0.02880691
2.78300881
2.02432203
-0.01367929
0.03185841
-0.02921280
1.55041456
3.12857890
2.74890447
0.01837520
1.74149323
1.60895145
3.03162289
2.97941494
0.05243898
1.56752813
1.82218778
2.42334676
2.00104547
-0.02354081
1.37640989
-0.02991696
-0.00152857
0.25235763
1.85445738
3.02698493
1.47212470
4.04566002
2.03469706
-0.05391833
2.74730754
-0.06385845
1.07183230
2.46998096
2.70871878
2.37602806
1.46390259
-0.01016861
0.00437846
-0.06325258
1.99900627
-0.01549460
2.50384045
0.79425806
-0.04812483
0.01328207
1.76752079
2.96362472
0.03555008
0.62069398
0.03454032
0.46560156
2.42586040
1.75555754
1.87549853
0.06501183
1.97018611
-0.00910107
0.00206363
2.80603337
0.01167814
-0.00911256
0.04401121
1.03229916
-0.00622556
-0.01888920
0.06131652
-0.03209236
2.08656192
0.04841162
2.81341529
0.81426293
-0.01013680
3.05570269
-0.02300260
-0.01112105
-0.00227123
-0.02192018
-0.03403419
-0.01865939
0.05869152
0.10774010
0.39532608
1.80875206
-0.01846211
3.80694818
-0.04229509
0.08704470
1.01317394
3.14368486
1.98887289
2.07158732
0.02489992
-0.05192863
-0.04884034
3.26939964
-0.00604248
3.08537745
2.16203928
0.00964988
-0.03752040
0.06746592
-0.05279088
0.79484296
0.09674758
-0.00507583
-0.04437649
-0.00586509
-0.03594258
-0.01245320
-0.02733938
2.70390582
2.44184732
3.01475668
1.67442608
1.78577137
1.96487570
2.60287094
-0.01086714
1.25150728
2.41607904
1.03061450
0.03352244
0.01372507
-0.02968450
-0.02612047
2.12451959
-0.08168942
2.62648964
0.03994615
2.79699397
2.59016705
2.08626866
0.06022126
0.03055194
-0.00074334
-0.12069681
0.01208058
0.02008380
-0.01867263
2.08296418
-0.00547133
3.08286119
2.07685018
-0.02330121
1.97577298
2.66943836
1.58073735
1.35173202
0.11417872
-0.03448676
1.52862251
1.11067748
3.06534839
2.08770442
2.27578759
2.34109259
0.01097236
-0.01397530
3.09432030
1.79445112
1.95462239
0.04899804
4.21881056
-0.03077322
0.06688853
2.92071652
2.66808295
3.09155822
3.11210895
0.07432055
-0.01874156
3.73538184
2.80130982
2.00599980
-0.01345496
0.01034203
2.30495000
2.63061810
2.94828844
2.85056615
-0.12927809
1.93663967
0.02356509
0.09182347
3.37678003
2.04145408
1.94477355
0.01721177
3.35616088
0.10772567
1.87845314
2.68986917
3.11816883
1.16464424
0.06310445
-0.08814527
2.26025510
0.63467968
1.37518072
1.43705428
0.05708704
0.02280567
2.04138398
-0.04352518
2.98341227
1.78702664
-0.01592245
1.63624835
0.00013375
-0.03621931
2.02880359
0.01614218
0.03995699
2.34533215
-0.01791798
2.11427307
0.03446771
1.60667324
1.47694218
0.03961219
3.73859787
0.85089862
3.05917358
3.04701924
0.00376867
3.21773028
1.29979348
1.99641347
0.02146404
3.19053197
1.18654478
2.64060163
1.93372035
2.33243847
-0.00622311
2.18722916
0.05165738
2.18602657
3.08505726
0.02242078
2.20619321
2.73528004
2.14288187
1.91395926
-0.02405956
2.24174118
1.94779289
2.93104720
1.90067828
1.75050390
0.02541717
2.79766893
1.69744527
1.27392948
0.01622242
2.47486067
1.41812241
0.02904091
-0.00126584
0.02682287
2.75897765
2.20872998
2.69366717
0.86993170
0.04049677
0.02897936
2.56367517
2.12885976
2.04296756
0.00866656
0.08015735
2.74086523
2.97169185
3.32871222
0.95196992
0.05294146
1.99493885
-0.03758878
0.01000905
1.21008945
0.00655728
0.08041297
2.64648461
0.01747637
0.03913497
0.04047704
0.03735536
3.12155890
1.96557367
3.01648188
-0.02657612
1.94839895
0.01209732
-0.06314962
2.17462325
2.09802675
0.01310721
-0.01025152
-0.00141578
0.01789618
1.58511281
2.80471230
-0.05123910
1.49771118
2.57003236
-0.07068714
-0.04742569
0.03592933
0.01057213
2.94741631
1.88571608
2.48697400
2.18277049
0.10574540
1.79797220
3.91579533
2.88363004
1.95695794
-0.04027376
0.03469068
2.45254612
2.71372843
3.55635762
1.67161632
-0.07238761
0.06827883
0.02541365
3.43822813
-0.01146811
2.79303169
1.61769295
-0.02362149
0.02507665
2.11615872
0.06776372
0.07175393
-0.04327755
1.93223298
1.76621783
-0.03713834
-0.01356975
0.06305797
2.54277611
-0.01554221
-0.08175443
0.00256354
0.00938237
2.08429837
1.67789924
1.70207679
1.40040445
3.17929316
3.05756330
0.00734682
-0.04186777
0.04708899
1.62568569
1.80125117
1.89401960
1.90946555
3.46841502
2.21787310
3.67828226
3.15177107
1.84905064
3.85946894
2.41388988
-0.00369638
2.89815211
2.58477139
1.98456514
3.53911591
1.82930911
0.02782210
0.03929559
2.57791805
1.24361551
1.37524593
3.16256213
-0.03736008
3.67441249
-0.01083737
0.04829533
1.90284395
2.53301549
2.65064716
2.22907043
0.05962667
2.02326345
1.77937973
1.24830914
-0.00794338
-0.00301789
1.87442613
2.32321811
3.25770283
0.01116979
-0.01638348
2.03895521
2.48476028
2.08137727
0.35976323
2.92092323
0.05147153
-0.01763537
2.52686930
2.08842087
2.93885231
0.01816411
1.39263010
-0.03712193
2.87705016
0.10067353
1.57437682
-0.00604099
0.01631598
3.24253201
1.59942698
3.40313625
-0.01868286
3.22844100
1.32462847
1.79406285
-0.04062778
0.05778236
1.75162864
3.84094501
-0.00802455
0.06695681
-0.04563939
2.69567299
-0.10296016
1.70550323
3.43045115
2.53860021
1.83334482
0.00177607
-0.00040775
2.88741088
0.01989754
-0.01780266
-0.00339160
3.13406038
0.05491266
0.26354316
-0.05200804
-0.03130596
0.02668473
1.16085839
2.64974546
1.64755940
2.20844603
-0.08469296
-0.02243957
2.56208444
1.53757656
0.05679749
-0.03374611
-0.01839815
-0.02371850
1.51993525
2.65840364
0.03848131
1.74722552
2.62678719
1.74463415
2.46731257
0.02031594
1.95304585
0.01006647
2.13791275
0.00954189
1.58942056
0.03719861
1.25692511
-0.03409229
0.00630272
0.04651243
0.00504609
2.84874249
2.38660216
2.25433874
2.66468525
1.00046730
-0.01291734
1.93508613
1.90472054
2.67387080
0.04694298
2.50959587
0.47512349
-0.00905775
2.51138258
2.22312593
2.53942585
0.03411070
1.21975684
-0.02950210
1.56747043
2.50700521
-0.02801448
2.11725044
0.06997373
0.54271334
3.21722603
0.05761013
-0.01814416
0.01471721
0.11690544
-0.08713505
0.06988520
-0.04613404
-0.01190022
2.08831835
0.66768116
2.43565011
-0.02259626
2.17117524
-0.02722590
-0.03426194
0.02727265
1.83819318
-0.01239077
1.10228574
0.01144337
0.01072628
1.87394750
2.56988001
2.98263478
2.93430066
0.03351362
2.82693601
1.64368296
0.03603865
3.34172344
1.12977648
0.00694070
0.02811893
2.54778695
0.00875945
1.51272011
0.02210739
1.40118694
2.33997965
-0.02563641
0.00849388
1.42753911
2.51804781
0.03651909
1.77973127
2.39402294
0.02287808
1.80424297
2.07478499
0.01647538
1.99451101
0.05229452
2.73186326
-0.04504897
0.02876120
-0.03781531
2.41033220
-0.01217110
0.10337789
2.65770340
0.03680913
0.03117461
0.02320074
0.09668229
2.47540855
0.06954492
3.59638405
0.49307495
2.20548916
1.57117915
2.21413159
-0.00280585
2.21253061
0.18533333
1.79993784
2.82076097
-0.07900270
2.88303161
1.72712219
0.06326319
0.04232529
2.20006299
3.96695065
1.77535725
0.01894255
0.05551670
0.03457174
-0.00041377
0.01148208
2.08604169
1.37018502
1.96138084
1.35167098
3.12475395
0.08987261
0.18494000
3.13607693
0.47128281
-0.05588241
-0.03547106
3.06320357
-0.00743063
2.14807677
3.44954562
2.18769836
0.01155009
0.03742113
0.04613261
0.04639417
0.07545023
-0.10219852
0.00111230
0.04456181
0.02600526
1.36749065
0.02750746
0.02655703
0.04243443
0.01420195
2.25639868
0.03376867
2.12962651
0.00505145
-0.00795992
1.94048214
-0.00434512
2.25339437
2.37696457
0.00915109
0.05892130
-0.02802275
2.30208969
2.56188416
-0.00283708
1.29445004
1.55783641
3.88298321
1.91142154
2.74626374
2.70948052
1.93606138
2.18488693
3.25612521
1.63775432
-0.03186857
0.02446895
3.01823950
-0.02215859
-0.03437002
2.41509223
2.31423712
2.29881048
-0.05083669
3.63227010
0.02938879
2.68138885
-0.03145900
3.15114427
-0.00365314
-0.00357424
0.03470668
0.03453019
1.23009157
0.04650802
0.03444910
0.01401025
2.30713868
2.10652423
2.41999817
0.03355246
0.05275880
-0.02169740
-0.06998353
1.63903904
0.52214003
0.11687051
-0.04259656
2.89869404
1.34266520
2.74056315
0.01926558
1.51685739
2.42636132
0.03957962
-0.05048923
2.17066240
-0.10495756
2.21662188
0.10242209
2.46658993
-0.01339556
2.80855155
0.01916594
4.46349716
0.01879723
0.03684370
0.01558347
-0.00000975
0.00246179
0.02135156
0.02027118
0.04395252
1.91718721
0.03555213
2.01195478
2.44000673
-0.03571807
-0.01207354
3.61088467
0.04384321
0.02641703
-0.02664222
3.16651511
3.01199722
0.01430903
2.26916170
1.80715168
0.03061522
-0.02423056
1.78874111
1.84544742
0.99460989
3.34064221
-0.05878867
0.04161513
2.39771223
1.83521974
-0.04520862
1.16591156
0.00199230
2.67465353
-0.02673103
-0.00450274
0.06804018
1.79048944
-0.02881753
2.71199274
1.40299308
0.00978890
1.35919058
0.01504288
2.80005383
1.80973756
2.84405494
0.00510396
3.26384783
2.27991319
0.05717754
0.07349342
2.16610980
1.60275984
0.53836411
2.08300138
0.08611364
0.02110495
2.90411663
3.02855015
2.41167688
2.09927368
2.95357752
0.09501648
1.44440663
2.23124051
-0.05111586
3.83040094
0.19730683
0.03712718
2.95018601
1.91191769
2.36055756
-0.03615043
-0.06374958
2.01272321
-0.03356133
0.00251765
0.09663576
-0.00169086
1.60402334
0.04045980
3.61691499
0.06563120
-0.10010329
2.59650683
0.00135304
3.14587355
1.24354577
1.84767556
2.39050865
1.21418917
0.01603791
-0.03431958
-0.00806777
3.78349876
3.01131916
1.53199565
3.67276025
1.93281841
0.06360706
-0.01709149
2.92909646
0.05873936
2.02619600
-0.02144171
2.07430410
3.51138997
2.93438911
0.06217189
2.74628091
0.02288671
1.24809027
-0.06641522
2.12676930
-0.06589719
1.17672372
1.94477093
1.95541251
1.37087011
-0.01216739
1.08025753
-0.03155684
3.71906734
-0.00204739
3.48966980
3.04229188
-0.06894553
3.22768617
4.24657345
-0.07816846
0.02575986
2.01032519
0.07271274
1.40633011
0.00157161
-0.00246564
1.95489347
2.44175267
1.72267234
2.40525627
0.07773089
1.52452528
0.06178959
0.03722478
2.55502796
0.07579786
4.01654720
2.67227387
0.15177852
3.87461519
-0.04126592
2.14494133
1.84770775
1.85426223
0.02620915
-0.00301997
3.17796326
1.71914876
0.86890334
3.97846532
0.00439421
-0.00129087
0.03592881
-0.00066434
1.01702416
0.00487436
-0.03831237
1.56475782
2.88294315
1.86250567
1.92754626
-0.04743832
0.06046909
2.54929829
1.88881052
3.35374904
2.90540004
2.05944872
0.06847377
2.70544648
0.00558302
0.12669323
1.66689348
3.26979136
3.22629309
-0.00815476
3.22665858
3.44051909
0.05139941
0.01234237
3.73363304
-0.07643515
0.01189496
0.07355095
0.05633690
0.01626445
1.81168771
2.23937559
2.63082790
-0.00633186
1.61526740
0.00734508
1.81206048
2.90842485
0.04370639
3.15616393
3.42419481
0.01459009
0.01136823
2.21952581
0.05969847
3.30453873
2.54657197
0.05814605
2.49100375
2.11241746
2.70328784
-0.00640770
2.78070879
0.00539433
0.04653767
1.72473133
1.71155882
1.44071805
-0.04974084
0.01896709
2.51524997
0.08279411
1.92039430
2.09717464
0.04293627
1.49709368
0.03739422
2.16025448
-0.03095698
0.83561176
2.13113594
1.86491561
0.09577560
0.04166872
-0.02114164
0.11259204
0.00453820
0.02904745
1.69592047
0.03260703
0.00147076
2.71715951
-0.07452602
2.63577890
-0.03427773
2.42213702
1.84090948
-0.01847075
0.20459560
0.98017389
0.01756307
1.66220856
-0.00981617
1.52598143
2.46796513
-0.05767852
1.74395406
1.71020913
0.03142358
0.03755201
-0.00547274
2.61040878
2.73217869
0.01523017
-0.08842917
0.02769272
2.24623728
0.03398240
2.32735634
-0.06131874
0.01585763
1.61859405
-0.01095245
0.03361230
0.05178293
-0.06063049
1.98038983
2.77206421
0.03050861
1.65638363
3.26642418
0.04967981
2.17762804
0.00309784
-0.01412216
0.14534357
2.31662822
0.01376711
1.63024700
0.05131686
-0.05886751
0.33787012
3.48430896
-0.02225167
1.81955433
-0.03633760
3.90255618
-0.02714350
1.25466406
3.19914460
0.00680046
-0.06376260
-0.01944556
2.20951509
0.04043882
2.08461499
0.01675718
2.24946284
2.02033567
1.84728050
0.05055704
-0.06881694
-0.04124640
0.01501643
0.04021035
2.42892313
-0.02363095
1.42103875
-0.03978994
-0.01733918
2.10052896
-0.01202172
2.59095788
0.04134671
2.08243179
0.00994188
3.43068790
3.15532351
-0.04810752
2.24780464
2.25704408
-0.00477353
-0.00884176
1.94656730
1.64410317
-0.02562495
-0.00159600
2.51194239
1.63545346
0.04395874
1.53588331
-0.05323302
-0.00718779
0.04191357
0.02691902
0.01969919
1.78413188
0.05426722
2.16020370
1.19187605
1.67429411
0.03889734
0.00490531
-0.02664704
0.03489682
3.00580955
1.82860386
-0.02296816
3.43854690
-0.04791933
0.02417091
3.28779602
1.36025476
1.46578908
0.74305385
2.81293488
1.87042582
0.04634000
2.52410817
-0.01108618
3.09143233
0.01285556
4.07116365
0.02862866
1.42427933
2.41615438
0.92142826
1.30325115
0.02600715
-0.02080093
2.98485684
2.37933159
-0.03375771
0.06802557
-0.01530902
-0.00374731
-0.05138167
1.83875716
0.01595614
-0.06093937
0.44726682
3.52877784
-0.02948381
2.18982720
1.62859917
2.93566823
1.72656155
2.17496109
0.01890913
2.29683161
1.62262726
2.40352678
3.88308740
3.70843625
1.62136531
1.71363771
3.63448215
0.08699713
0.01647862
0.01221302
-0.01457164
3.59728718
-0.02638236
3.52598810
0.02896835
-0.01019101
0.06720139
-0.02829040
3.79727149
-0.03840220
-0.08659034
-0.00912364
3.35658336
-0.00036724
2.54630661
1.72040188
1.73504519
0.04840775
0.00645268
-0.05186773
0.02402835
0.09118243
2.26555014
-0.07840145
2.29453921
2.49255729
-0.07537637
0.00308975
3.02625847
1.33223403
1.62384164
-0.01145552
0.78492010
2.19940853
-0.00475306
-0.00644116
3.20396233
0.00001850
2.10178161
0.04307910
0.00196960
2.26565480
0.03190225
-0.04091940
0.07204568
-0.06155643
-0.00103001
1.80050516
-0.00100799
0.56647021
-0.06501592
1.81195676
1.34932327
2.51572490
0.03989735
2.58467174
3.30663204
1.64070117
3.33596969
-0.01009831
1.37817585
0.05101521
1.80439329
0.01461439
1.23041034
2.24595189
1.63635850
-0.05894106
1.72111177
-0.03113219
1.87211061
2.04549956
2.62957215
-0.03853237
0.00450027
2.39367151
0.01367264
0.05091665
0.02104122
2.31179237
2.59292984
0.01566907
1.67250228
1.81029558
3.05974078
2.81071520
0.05508521
2.20861864
-0.10292259
1.46274078
-0.06255941
2.51764512
0.05042923
3.03256774
2.59503746
3.14615655
0.63011450
2.08507514
2.01872945
3.10221839
3.38290715
-0.01311187
1.87687683
-0.07227992
0.02743137
2.10789084
0.08286835
1.92571819
1.80154002
2.83338404
0.11620470
0.10909121
1.94059241
0.05659750
0.02472967
0.05887814
2.46118307
1.58760440
2.11041927
-0.04327527
-0.02996709
2.57264233
2.51650524
0.00545611
0.08318130
2.72653770
1.87974095
1.08979619
0.01236139
2.03426266
-0.02814805
0.01635024
-0.09944655
0.03077920
-0.05847511
0.02421436
-0.06035680
-0.03609827
0.03225956
-0.05168666
1.50033462
-0.03972004
-0.07995351
3.46531081
-0.00803028
3.59893608
2.64348841
2.15646076
1.70187056
2.12730169
0.00203674
1.78461230
0.10329308
-0.11190090
1.89552641
1.61468303
-0.04672078
0.10125817
0.02138863
-0.04464763
1.79222584
0.00979566
0.01333564
0.08872608
-0.01652861
-0.00789509
0.03818880
0.01142255
1.81451535
0.04833215
3.32146835
0.05439945
3.67210793
0.02065509
0.02387785
1.88352895
2.58103466
-0.05185310
0.03069635
1.90071130
0.03407046
0.09218235
2.28217745
2.26864791
-0.02010827
0.07564104
-0.01926969
2.98189163
0.03731279
1.81133199
1.30230665
2.51799774
2.51226163
-0.02069230
2.60422015
-0.01814329
0.03803561
2.12725043
1.35020244
2.58190870
0.09205052
1.89471889
0.89609265
-0.01686581
-0.06111484
3.24195361
2.30508995
3.00269604
-0.00767230
0.06232189
1.77747917
3.18146682
2.77620912
1.96834517
2.05851388
2.11202550
-0.03503998
0.04249550
0.03864210
0.00471129
3.17793012
2.90253282
2.07922530
-0.00589757
-0.08446018
3.29894471
1.08588624
2.22822642
-0.02810146
2.13870049
3.85785508
0.08661496
2.11099648
1.62344468
-0.02721460
-0.00485784
0.00256030
2.16224456
3.36717296
2.44891953
1.74415958
0.01224380
1.91610849
2.53990126
0.01460487
2.27564573
1.16856670
-0.04433872
-0.00460702
2.24799204
0.03262306
3.04012012
0.07554363
3.14780474
0.92205417
2.54291511
2.53698730
0.98802596
1.68129969
-0.02469137
2.51548529
3.26982284
0.02478220
2.35920215
-0.04073758
0.01261317
1.85107970
0.06025847
-0.05680836
2.51049185
4.77687693
0.04933416
0.00352633
0.04835499
2.52148890
-0.01516974
1.15049183
-0.02918683
0.05662218
2.53783989
0.03828812
2.83879304
1.67105842
2.78158641
1.79407215
-0.00110699
3.32696199
0.06122704
1.31734776
0.00655775
-0.04248814
2.28679395
4.50442505
0.06187199
3.57106733
-0.01237273
1.66826272
-0.02890703
-0.04937692
0.03022979
0.07677155
2.76881623
0.03329749
-0.09372015
1.85509121
2.38715911
-0.00820690
-0.01691797
4.32088375
-0.04891383
3.18228316
-0.02405301
1.89412284
-0.06311446
2.15888786
-0.01728943
3.06757283
2.55576110
2.60968781
-0.00926425
0.03232479
-0.00151456
2.03965044
0.03190437
0.02361629
2.00542760
3.03983974
2.09336424
1.26312780
2.32944250
3.24083591
1.67569876
2.82887077
1.84197474
0.04350300
2.33794022
-0.00497073
0.04667676
0.04125276
0.06685046
2.39615417
2.95927525
-0.01356278
0.00573116
-0.06180469
3.05127406
2.04132891
3.38424563
2.11299515
1.32056391
2.68225193
2.94779944
0.00183107
0.01946682
1.73929691
0.07526024
0.04080440
2.91754460
0.02995756
2.57199621
1.38492250
-0.01256094
0.02162368
0.00211998
2.10098362
2.02233648
0.06701580
2.18849564
1.55057621
-0.00851987
0.74619472
0.03889701
-0.02323871
-0.02628152
1.56072843
-0.02839901
1.90328801
1.33844590
0.00058554
2.98289824
1.69948387
-0.06560727
2.82949209
3.37989402
-0.02100761
1.51474845
2.58997250
0.02557731
-0.04025239
1.64074790
3.25729871
1.70980585
2.36784720
-0.07845753
3.36088824
-0.02826667
2.96665263
1.17663074
1.58555186
-0.00315447
-0.02570715
-0.01015860
0.37681150
0.02345800
1.94085765
-0.01737496
3.19623208
-0.08661877
1.63770938
0.05050356
0.00604329
2.54970789
0.06809865
-0.09736415
-0.02820334
0.02547121
2.74561119
-0.00882970
-0.01577479
2.26913548
1.84831953
1.80091870
0.01612770
-0.02984810
2.58573675
3.06541133
2.05346799
0.11299146
0.12824361
1.96597195
2.69671130
-0.02414079
0.05257102
2.75040913
0.01715283
0.03328193
1.77738416
1.86604762
0.03993109
2.28845453
1.11760867
0.06977481
-0.00196240
1.43677497
2.33351636
3.41294479
2.15275097
0.08549102
1.13476920
2.22867298
-0.01074021
1.61220372
2.30068874
0.01746082
2.67139387
0.04270416
2.31597161
-0.00879521
2.20522523
2.75838256
0.04180216
-0.02767826
-0.00412451
1.68435013
-0.04513761
-0.02356374
0.01006129
0.07086314
0.08052519
0.00439299
2.41447568
-0.01775639
0.02574590
-0.00528850
0.08542122
1.86799884
-0.04668442
2.12961769
0.01720215
1.45766044
2.21437407
4.07796144
-0.01979206
0.02104997
2.21918631
2.01074266
2.55472994
-0.07212751
0.00404853
-0.02837343
2.49298382
-0.01510697
2.03403330
1.80037808
1.77414584
-0.03921426
-0.03722388
2.19877076
-0.04703499
2.04119658
2.35418367
0.06384938
0.08439735
0.03868636
0.19176066
3.66450787
2.24083400
0.04975661
-0.00096906
2.68705320
2.25417423
2.53916907
1.86658800
2.22322464
1.96440053
2.55299187
0.05983649
2.27084517
2.18670416
-0.01938131
2.42921305
-0.02748572
0.01464758
-0.05666355
0.00886786
2.92883229
2.37051916
-0.01299441
0.05667527
1.93809044
2.47214293
3.70524049
0.02730027
2.28872132
-0.01552228
1.54799724
0.09349342
1.89518189
0.02219247
1.83844101
-0.03468825
0.01630213
1.86693823
0.34770152
2.54371715
1.21010458
-0.05662256
1.97497976
-0.00009258
2.57481337
-0.05359012
-0.03455711
2.67818141
-0.01198939
2.19661117
0.02592887
-0.06390200
0.03510633
3.25084686
0.03447374
0.06004861
-0.00022845
0.01536288
0.09538212
1.47726846
1.61994565
2.92248845
2.11659408
2.35003948
1.31969941
0.02739588
1.67268014
-0.02203132
0.04607067
2.01970887
-0.02814554
-0.00287930
1.86160147
1.97563708
0.05242388
1.40430105
1.46919143
1.56365693
3.49271679
2.98090506
-0.00433851
1.90176356
-0.02816442
0.02367230
2.49777651
-0.04654509
2.72843528
3.13208604
3.23125124
1.95540369
1.37182593
1.79439318
2.15924668
-0.00926564
0.00992022
0.02565905
2.16834402
2.52461433
-0.00902013
-0.05461308
2.36274815
-0.01527341
0.03292837
3.15682960
-0.00920215
1.87569332
1.90326965
1.73849165
2.18731499
0.06256963
0.03735146
2.03125525
2.89346480
2.09066272
1.13204932
0.03542328
2.08225894
0.01086371
0.07596081
2.97711802
-0.03168679
-0.01969347
0.00064272
2.80715704
0.01668044
1.39873326
-0.01533724
0.04173836
3.38646436
1.94556332
-0.04452342
1.91581774
2.73269653
2.45350051
2.59810448
0.09535038
2.35911870
1.96858358
2.48676944
1.91872406
2.15502405
-0.02433483
0.02269173
0.01500669
0.06932843
0.01399102
0.10046680
1.63223386
2.42443013
-0.09709913
2.55818915
1.68067062
0.00928714
0.00420294
-0.03287730
-0.01307063
0.05830386
0.03910507
2.21485424
0.04648992
0.04763127
1.87790251
1.84886694
2.05543375
1.42020845
2.18637180
-0.03270675
2.79837680
2.19053817
3.47497511
-0.04665016
0.00825061
2.73971200
-0.00772028
3.21352005
-0.07955062
2.42295694
0.00631586
1.49066770
-0.05595273
-0.01656029
0.04718957
-0.03260700
-0.02251038
1.05064797
2.68626404
2.78440237
-0.00540195
1.92473722
2.26203299
0.04453617
1.71712613
-0.01503687
2.44920683
2.27625704
0.03051181
0.04769171
-0.01137648
0.00800573
2.94279981
1.94650710
2.83502913
1.37456763
0.04506631
0.03393604
1.11623514
1.96966791
0.03103513
0.06386892
2.06891084
-0.02986971
-0.02453250
-0.06611072
0.01271994
0.05536934
-0.07248389
-0.01374949
2.87790585
-0.08700246
1.92446530
-0.03170429
0.08496115
1.34566414
2.02576923
-0.09890047
0.03266348
3.03117180
0.00697621
1.77638376
1.67728198
1.63475835
1.39005005
0.03020407
0.04511026
1.93712091
0.04961439
1.67956400
-0.00449597
2.27772713
1.32297802
0.00447508
2.46041822
-0.08779451
3.51913118
2.03634501
0.08244774
-0.00015138
1.38109803
-0.04327479
2.90335536
-0.06395288
0.00812375
1.49171150
2.62921619
0.08933523
0.06338868
0.01019742
1.53415465
0.02116460
0.06235993
0.06261870
2.15760183
-0.03666576
-0.01056710
-0.04084221
1.52481925
2.17993307
0.47599995
3.67366862
1.62021697
3.05455303
3.47183514
2.04456806
1.55765307
1.90523326
0.06336197
-0.01111040
0.01262050
0.04149647
3.47341752
0.06333660
2.89571023
-0.04560036
2.32627439
0.00148244
2.53862786
1.89925289
2.24366236
1.96194625
1.79456699
2.27157497
2.00796247
0.08648746
-0.01974859
0.03589012
-0.05397479
3.76839685
0.03705075
-0.02074694
2.09767103
1.98473954
-0.01873647
1.00659859
-0.01551614
2.38712883
0.07588582
-0.06522030
0.04442677
0.38910776
1.93033934
0.01961373
2.26814318
1.83732402
0.00476113
0.01403853
1.99782395
2.17022467
0.00154320
2.49428296
-0.02300039
0.03409515
1.61518812
2.96986628
2.96176434
1.68946850
2.85129690
2.81746793
0.63286334
1.81616497
1.96987319
0.01935288
3.06784582
2.18747401
0.05049775
-0.05476623
-0.00188132
-0.02623805
2.47157264
0.03026640
2.02553535
1.87191510
0.06788566
0.07028268
-0.06030656
-0.00050705
2.83622861
-0.01596695
-0.00344503
0.00598424
0.01416207
0.02948178
-0.04692907
-0.03372557
0.00117823
2.79911399
0.02215356
1.32054627
1.56405282
0.05042337
-0.08740330
2.68150306
0.07385934
0.56343818
1.80238259
0.00172673
0.02168412
2.67445326
2.07380509
1.45581496
0.02388880
-0.03834064
2.29905152
1.64953840
2.34006333
-0.04957277
-0.03591710
-0.02743750
1.68386889
-0.13822606
-0.01108128
2.62319493
1.80147147
2.80339646
-0.01475465
3.88893080
1.64122701
4.44977427
-0.03716112
2.09742785
3.70359850
1.71064711
4.05572987
-0.00859536
0.03303992
0.07058063
0.11279914
0.00558517
0.04692399
4.14504910
0.02953203
1.91963577
1.98726761
2.38048148
1.94121277
1.84528017
1.70646739
0.01081339
3.01736259
3.39437866
-0.09270158
-0.00189543
0.00208115
0.01674845
2.47584486
0.04117748
3.35644317
3.26139522
1.39667487
3.29234242
-0.02857167
-0.03245094
1.90192509
0.02189616
-0.04438281
-0.04280825
0.01847616
0.01126359
1.85200250
-0.03176512
3.42676997
1.87217486
0.06511472
3.69224620
0.00108785
2.36586118
0.04629783
1.75079989
-0.05179150
0.00608332
1.82202554
1.93997955
0.05987822
2.84126878
0.05415887
0.00234595
0.03846502
2.14130521
2.82758594
0.06285023
0.01236648
2.10898924
-0.00714314
0.01963983
0.03128613
2.23455381
0.05131759
0.06172054
1.38270807
2.10631442
0.03768962
0.09114294
2.13141108
2.89460588
2.97870135
0.04273419
-0.06701222
0.02577801
-0.02991981
1.84999382
0.01721881
-0.01676531
1.95308161
3.02234674
0.10687151
-0.03493745
3.16504216
0.01316158
0.05490422
2.22060132
3.11880374
0.02138474
-0.02824549
0.08887360
0.09837200
1.41294551
2.30301237
-0.02439027
2.38307476
1.73808944
3.29646540
-0.04946990
2.89835167
-0.06480590
1.83937967
0.01377353
2.41183496
0.06885149
2.06379223
-0.08508975
2.18022060
2.93463492
1.94211936
-0.00910364
2.45739889
2.76661277
0.02867108
0.02303313
0.08308370
2.46025729
3.07165360
0.09120715
0.00602115
1.72523236
1.81075406
0.05672575
-0.08332913
-0.00618925
2.89183044
2.20923972
2.07726049
0.10103334
0.13032970
3.99527192
-0.00532787
1.34468102
0.02741389
0.03700810
0.03927503
2.10595989
-0.03742600
1.93937206
-0.03643528
0.73154557
0.00388674
2.59628367
0.00471065
3.70461273
1.71216583
-0.05528271
2.62953448
1.85862803
2.43088531
-0.00009898
2.47533059
2.92465162
0.04492383
2.42142940
0.00160006
2.04298973
0.03802625
0.00800691
0.06480473
2.58861852
2.69378090
2.72929454
0.52579683
0.92379510
2.46200752
2.05505991
3.24333072
0.02003997
0.01025673
0.01427766
2.23942709
-0.02271507
2.04174256
2.33492756
2.63835096
0.05216331
0.06846934
2.64399147
-0.01553764
-0.04621931
2.99405289
2.14352274
3.51783276
-0.00128136
-0.03668604
2.02520919
3.11083174
1.62957764
0.04704846
0.00378153
-0.02371948
1.99733377
0.07101376
0.01841995
2.98112941
2.06959534
3.01576686
3.18415403
-0.00676664
1.86959207
2.42667055
2.57547593
-0.00464999
-0.00022001
2.40709686
0.03208452
2.00773335
0.04156060
2.39385509
2.34828210
0.06942537
0.99844295
3.72882056
0.57109028
0.02084761
-0.01041910
-0.02826818
1.99159789
-0.03821487
3.16299081
0.03783238
-0.00720629
0.00204966
2.60970545
1.93108046
1.42859483
-0.00977791
1.61860526
0.05121680
0.04955421
2.54327130
1.72704804
-0.01873608
2.66610932
0.31269604
1.58947015
0.09388946
0.00216977
0.08364680
-0.01421112
-0.04847503
2.40540028
3.40187240
0.02846307
0.01200591
