1.72759748
-1.00800586
0.20009078
1.64836073
0.01329921
0.00182849
1.53594255
0.00046398
0.00359361
2.10255289
1.62849009
1.55896652
1.69181216
0.00004333
-0.19282873
-1.43495488
-0.53875321
-1.65036082
-2.28318286
1.54403508
-1.83908701
1.51373303
-0.00172989
-1.52348459
1.24844325
-0.30511239
-0.03281077
-1.79940367
-0.91866118
1.38631737
-0.20990169
2.05895710
0.00312600
0.00202495
-1.51998138
0.00289367
0.00095036
0.00170188
1.95428824
1.47204185
0.05386493
-1.64797127
0.08823224
0.03814267
0.78287297
-0.00034090
0.06530527
-0.05086100
-1.67586005
-0.13881579
0.17683226
-0.18397923
0.85571915
1.93403208
0.11937806
-1.78092551
-0.97601300
-1.58534193
0.07436583
-0.00063638
-1.30829298
0.01285486
2.07580924
-1.53455877
0.08297461
0.37596861
0.56781876
0.80865526
-1.67146981
0.09110044
-1.46812785
-0.08047441
2.03490329
1.40060055
-1.19971335
-0.00112846
-0.09270794
1.41367137
-1.23460329
-0.06386384
1.66743755
-1.10400712
0.09145513
1.21878517
0.01344107
-0.38764453
0.09614429
0.07410060
0.13717189
-1.67029238
0.00289110
0.00337596
-0.05101323
-1.47640169
1.53280914
-0.00251444
-1.73082542
-0.03683416
0.05516288
0.16829488
0.46200573
-1.94498622
1.11774623
-0.00017575
-0.09177697
-1.63886189
0.28852993
0.48394376
0.87691951
-0.00081149
0.00053403
-0.04209129
-0.02695702
0.00390644
-1.22449815
0.11112604
-2.20525956
0.10167623
-0.77878737
-0.17958497
-0.14473918
-2.07920146
-1.87586272
-0.23436657
0.21910457
-1.78705347
0.27586412
1.19636536
1.56753016
-0.00023452
-0.05974511
-2.33424330
-1.70665836
0.00110901
0.03021342
0.79724240
-0.93614632
1.36053920
0.01713643
-0.04494686
-0.18779026
-1.22118020
-0.00017552
-1.75969374
-1.52189767
1.95943987
-0.00187813
0.23073284
0.00024446
-1.63194561
-1.45172298
-0.43925869
-0.11383162
0.00204768
1.32055271
0.00278749
-0.24560662
-0.63108748
-0.05771512
0.47981960
2.23488784
0.00220501
-1.87914038
0.38616794
-0.00035305
-1.84556222
1.11549747
0.04625128
-0.00148765
-0.00179019
-0.00000514
1.52547002
-0.00170189
1.25945377
1.53377128
-0.00038688
-0.57370973
1.78405237
0.20154560
-0.35059446
0.06665552
1.64812362
-0.06232134
1.60098994
0.16530591
1.55255783
-0.04409705
1.52583075
1.52108622
-1.22278464
-0.17198260
1.48582029
0.43531859
-1.62995684
0.11608294
0.30020216
-0.00239904
-0.14158778
-0.84217125
0.01668634
-1.35399878
0.00248251
0.98068303
-0.00164086
0.11006017
-1.44985139
0.00001860
0.00346608
-0.57008260
0.23182274
0.04299564
1.29214025
0.00141000
1.67248738
-0.09469749
0.04806500
0.00081489
-1.29820657
1.67097545
-0.28333914
-0.68101364
0.00170034
0.00009181
1.30627203
-1.68526578
0.00093975
-0.14787666
0.00589685
1.51659596
0.10206889
1.65290976
-0.00063346
-0.00132425
-1.15984583
0.05194137
0.00077624
1.62009120
0.14029683
1.78070867
0.00069355
1.45068526
-1.58928370
0.14019151
-1.63875413
-0.38113776
0.00017923
-0.00018630
-1.35695338
-0.00242132
1.78230762
1.94730556
0.00142575
-1.79562461
1.25748181
-0.49676844
1.15180326
0.00030177
1.73058796
-1.76637566
0.60571516
-1.27908957
0.00148096
1.43727672
-0.00088507
-2.09130287
-0.89223576
-0.02298562
-0.07118381
0.00168708
0.85133022
0.04216399
0.75618488
-0.00253670
0.09547352
-0.40872535
0.79681516
1.45069146
0.12101496
-2.16618490
-0.17227399
-0.00136209
0.21516111
0.12454851
0.04508988
-0.06012308
0.00105322
-0.03620759
-1.43127561
-2.22109652
-1.83449018
0.46449679
-0.00229757
0.07134619
1.56177437
-0.68648428
1.71487415
0.00028044
-0.12809780
0.01937450
-0.00205059
-0.99851888
-1.53139937
-0.07998694
0.03678313
1.49367833
2.15198040
-0.07799151
1.59565330
-0.18955265
-0.06589021
0.00126737
0.00111181
0.00183458
1.88288152
1.20701301
-0.00090742
0.09635285
-0.14282593
0.00204984
0.00000450
-0.00848073
-0.00258457
-0.00257098
-1.53867745
0.04121303
-0.07318484
0.78267533
-1.69347072
-1.47617602
-0.00074561
0.00067656
-0.00277354
0.06496543
-0.00067280
0.00269414
-1.77297020
-0.00150848
0.07916491
-1.43502629
1.11880386
-0.32316384
0.00352060
-0.97212040
1.87795031
0.15912668
-0.14365953
-1.36933732
0.62940478
1.45214665
1.45834816
-0.03393185
-0.53050888
-1.53242409
0.00343524
1.54284799
0.16689470
-0.00056314
0.00134043
-0.00209400
-0.00241661
1.82487261
0.37787586
2.05889559
1.42715919
-0.10099336
0.14288591
-0.00255884
-1.66122055
0.00071752
-1.35951483
-0.00158789
0.00037494
0.00150415
-2.03185225
-0.26161653
-1.60200739
2.11516690
0.00035494
0.03440399
-1.58277416
0.00053442
0.00219681
-0.70315117
1.83735108
-0.00071004
0.05579292
-0.01588353
-0.11454531
-1.30795884
0.00042077
-2.05028844
-0.07790168
1.92856729
-0.64351934
0.56817210
0.08922688
0.00118275
0.02451091
-0.00282133
-0.07628836
0.00298972
0.00112361
-0.00137482
0.60682750
0.14207134
-1.56284153
-0.00011111
0.05018069
1.81789410
-0.08506365
0.00201307
0.07365958
0.00047411
-1.75408697
1.34386432
-0.63605660
-1.04388213
1.82760191
0.00290484
-1.52057672
-0.18867260
-0.09318677
-1.11029088
-0.14310732
0.00068232
-1.50230336
0.00090035
0.67449534
0.18757355
0.00008085
-0.66573817
-1.72471726
-0.53703344
0.00255613
-0.00073467
0.12727185
-0.11546014
0.00026472
2.18428564
0.19428076
-0.00100159
-0.00737098
1.91996574
-0.06044122
-0.07944427
-0.00087275
-0.45401400
0.03452288
-1.83152127
0.55027771
-1.96185613
1.48284364
-1.41438627
-1.84144187
-0.09460995
-0.04728824
1.26629639
-0.08369360
-1.17438662
-0.06010906
-0.34126446
-0.10543983
-0.18183395
0.98576421
0.93959737
-0.00099120
0.82976919
-0.00634282
-1.71260428
1.59224796
1.43206823
-0.00019869
0.92827576
-1.85408521
-1.80570889
0.00100741
1.96707487
-1.61567104
1.60503435
-1.39426494
0.06553773
0.14319217
1.95179045
-1.65262711
-0.00100080
0.02607277
-0.01983098
-1.03617477
1.13119352
-0.00083011
-1.14896011
0.17927203
0.02400356
-1.12437618
-1.04218936
-1.65318775
0.00151532
0.00066131
0.00097730
0.00036505
-1.69691133
-1.90156388
-0.51556528
1.72140038
0.94952536
0.14516076
-2.06999540
1.93689799
-1.21730757
-1.77101696
-0.11275999
-0.00268365
0.00027291
0.05322479
-0.17006010
0.86076641
-0.00421478
-2.00511217
0.00053390
0.00272226
0.00038856
0.00123653
-1.50110960
1.75706649
-0.00163609
0.14930519
-0.22433995
0.00067532
1.78071666
-0.00169505
-0.00019937
-0.00211095
-1.82841277
0.00082949
0.12470806
-0.10671906
1.05912542
-0.00071029
1.32395697
1.71754289
-1.58170986
-0.12298942
-0.00086224
-0.00070083
-0.79833817
0.00158616
-0.03111997
-0.16109541
0.04407351
-0.31942379
0.07954949
1.99875712
-0.11503590
0.15573800
-0.19462843
-0.38282019
1.42826867
0.00134132
2.34621811
-0.00138117
-1.05614948
-1.64680529
0.31999084
-1.35457301
0.23716617
0.00275619
0.13339193
-1.97524989
1.75039625
-0.15972009
2.12795901
1.81124222
1.78316784
0.05647109
0.00239131
1.84588301
-1.74514663
0.78123212
-1.35742390
-1.99945080
-0.07231092
0.71440250
-0.00042565
1.96740794
0.02023015
-1.78799736
-1.44626892
0.07004866
2.29207969
-1.36267185
-1.99901044
-1.47111011
0.22757472
1.16444135
1.50367188
1.15908992
-0.91991717
0.03994803
-0.07730120
0.20451882
0.00154986
-0.22671041
1.99613881
-0.00032600
-1.58870280
1.38858712
0.08215667
0.85492480
0.00247256
1.62241590
-0.67679179
-0.92314690
-0.00148644
-0.04942119
1.49400508
0.00226800
0.35746661
-0.08167510
1.73688161
-0.63359487
1.69107950
0.00082486
1.39599717
0.19098324
0.13579126
-0.46020567
-0.00064672
1.75715327
1.67846167
0.35478166
1.50978446
0.20044361
0.01164785
-0.83421344
-1.85360968
0.78535122
-0.00213628
-0.10591947
-0.00181062
-0.00162725
-1.23800254
-0.00029216
-0.00192047
0.11716035
-2.10210013
-0.00184085
0.00086454
-1.13197112
1.28432620
-0.05886078
-1.07656801
0.04891223
-1.00492358
1.41672385
1.24603200
1.02687967
1.49918258
-1.63923693
-1.99970317
0.75888580
-0.06723961
0.01063866
-0.08974920
0.00633574
-1.14319611
-0.00206905
0.00123138
-0.06814852
-0.03943314
0.98288578
0.00052156
0.05379117
1.37215996
-0.45461652
0.06136499
-0.00100891
-1.65462172
0.49724400
-0.55522436
0.90002936
-1.42240632
0.14618872
0.04114327
0.34528527
-0.03781593
-1.33834577
-0.58220923
-1.23105800
-1.05321920
0.13081117
1.38442397
-1.36959445
-0.00166316
-0.00058558
0.07773879
-1.54720736
-0.00218221
0.98317486
-0.00015058
-0.01672526
-0.05826617
-0.00428623
1.62049091
-1.92267883
-0.00890149
0.00179996
0.13692574
0.00102081
-2.05086517
-0.86983764
1.18535936
-0.09580492
1.48512399
-0.24389705
0.17577733
-0.03700418
-1.25160670
1.25679195
-0.15592627
-0.00290950
1.86552906
0.07230718
1.93199301
-0.00641893
0.69760936
1.54978383
-0.00061614
-1.80824018
-1.60905039
2.02508044
-0.00086315
2.03203416
1.50405240
1.46609735
-1.44020069
-0.37921232
0.00025486
-2.12083912
-0.52559590
0.00101039
0.02078708
0.15468884
-0.01885677
-0.90946263
0.28326669
-0.68128741
-0.11097126
0.60390818
-0.61536556
-0.93162513
0.04811760
-0.00173276
-0.00582347
-0.09057423
1.57695031
0.00203714
0.28782508
0.00040403
0.45642355
1.68978226
0.00011251
0.18014987
1.93043578
-0.10334582
0.00217665
0.75542104
0.00243184
-0.00295727
-0.07916983
0.04945823
-0.00116256
-0.19124794
1.86117733
-1.27839935
1.90695643
-0.09250662
1.20243907
1.93815231
0.19224472
0.17234375
0.00028244
1.70832264
0.62506205
0.52297330
0.00035224
0.49671033
-1.82837367
0.00107661
1.54904902
-0.03624821
-0.15141091
-0.00258593
0.00028616
-0.00108866
0.06147984
-0.21092306
0.01562849
0.00117441
0.65827292
1.24122798
0.03065649
-1.79272687
0.30731744
-0.04715870
-1.55414557
1.34667408
-0.00270555
1.06323886
1.21533012
0.00080735
-1.32605517
-0.02403133
-0.08394469
-0.21508458
-1.24797904
-0.07523981
0.00099786
-0.04707457
1.92421067
0.22049466
-2.01590419
1.56816220
0.00003402
0.77707398
0.00030262
-0.06227121
-1.75163174
0.80925941
1.82037890
-0.00115529
-0.80913490
-0.00068778
0.91371930
2.06681299
-1.57623827
0.94456017
-0.35421371
1.63017344
0.97871417
-0.77988791
1.49335313
0.00174032
0.00027076
-0.32562992
0.70315933
0.07492812
-1.71050513
-0.13026337
-0.02085573
0.50042802
-0.03009993
-1.96451211
2.00334644
0.00195631
1.29229414
-2.02660799
-1.26442075
-0.00096050
-0.00005420
-0.00077304
0.06207026
-0.05102875
1.58632314
-0.24906315
-1.92742527
0.07944667
-0.30491698
0.81597006
0.32585469
-1.09929001
0.04248753
-1.16588521
-0.15469885
-0.00056506
-0.04730919
-0.65634578
-1.15657341
-0.82436752
1.09461057
0.00094545
0.00196911
-0.18738714
-0.87264198
-1.63909948
-1.31134403
-0.22998221
1.05786276
-0.00249721
0.00451534
-2.22091627
-0.12302768
-0.00028727
0.00035692
-0.00113425
-1.79261923
0.39509332
-1.41399157
-0.56259507
0.00161979
0.00284502
-1.43445539
-1.65443122
0.00099945
-0.00136200
1.52145112
1.73589432
1.26022816
0.13152644
1.38750553
1.50101244
1.47403896
0.10653843
1.05163050
1.15480876
-2.28122354
1.16487718
0.10554958
1.55013931
1.51722598
0.00073660
-1.23404181
-1.71316636
-1.68445003
1.81028616
-0.00233025
-0.18001381
-1.75125241
1.30522621
-0.02435811
0.00024272
0.04661011
0.00063944
-0.17857020
-0.00086296
-0.06320915
-0.34012562
-0.04699990
-0.02144062
1.77059340
0.76560193
0.15938568
0.44015726
1.36150968
-0.00002149
-0.00175735
1.41714895
-2.09303927
-1.86325049
-1.88665760
-0.01904209
-1.63610661
1.31973636
-0.14311115
0.42186010
1.02714038
-0.02240086
-0.86711907
-1.95160425
1.36460745
1.00077522
-1.25499165
-0.00067222
-1.51320732
-1.65780342
1.14387965
-1.95581937
-0.19147214
-0.10042490
-0.00221817
1.26448298
-0.10515854
1.39701533
-1.02756238
-0.02236491
1.16597736
0.15661542
-0.16068314
1.57875252
0.28631538
-1.73312688
0.10718571
0.05198885
-1.34833443
-0.00005742
-1.83449376
1.46296918
-2.01520371
0.30298790
-0.00274363
-1.98217797
-0.10163915
0.19853619
0.26034379
0.09266422
1.79230762
-0.04056551
-0.00053910
-1.16628015
1.20189404
1.49315178
0.00216845
-0.00019477
1.32520223
0.00073042
-1.32939529
0.83019549
0.14511330
-0.00239992
-0.38642451
1.26166701
-1.08828449
-1.34228742
-0.62083012
0.03694606
-0.58518678
1.55123198
0.00161729
-0.19993247
0.01252011
1.65450919
0.00027064
-0.08373158
-0.02071464
0.00138242
0.13320266
-0.08737750
-1.64121556
1.39779222
-0.75344884
1.74331701
1.04067516
-1.61927128
-1.64062202
0.07543834
1.95883155
-1.46868289
-0.00397452
0.16059785
0.66514057
-0.05242099
0.00100985
1.36526740
-0.57436615
0.00801085
0.20368409
-0.00223208
-0.18262860
2.02474594
-1.94824457
-1.39289773
-1.47182190
-1.47228467
0.76132518
-0.00044943
0.15320030
1.34752345
-0.18359023
-1.20224333
0.55153596
-0.00503366
0.04932687
0.00098374
-0.00136872
-0.00002876
1.49022567
-0.00099664
0.00087237
-0.07098228
-0.08232003
-1.59356391
-0.00053421
0.00057653
-2.04622054
-0.13440302
1.59781635
1.13003314
-1.03220809
-0.15214941
-0.00213936
-0.20438935
0.00070608
1.88298428
-0.68502212
-1.27047110
1.58392656
-0.64937371
-0.00252196
1.12518525
-0.91694653
0.06051407
-0.05258863
1.46299255
0.00252278
1.90621972
0.77587354
0.72100413
-0.65541953
1.09725249
0.00060328
0.00267336
-0.05674002
0.07185353
-1.78805721
1.56750262
0.29352704
-0.01392139
1.70753646
1.45636427
0.00165416
0.07018736
1.54712367
0.13869226
-0.00206559
1.46858180
-1.45625567
0.00104068
1.56733119
-1.80908179
-1.49602962
-1.48523116
0.00081264
1.50593007
1.19160843
0.00187968
-1.54934824
0.52525914
1.54459405
0.00080139
-0.03627991
1.55203807
-0.03018616
-2.05232835
-0.03626015
-1.09741032
0.00176139
0.00144803
0.00150263
0.14340021
1.61888301
0.08458714
-0.00087532
-1.60480726
-0.14366271
-1.10962903
-1.31236053
-0.00066503
-0.14887522
0.02260741
-1.86113191
1.53913021
0.00075730
-0.73845530
-0.00192677
0.00117371
-0.53426456
-0.34924260
-0.00092426
-0.11084048
-0.00159235
1.61679304
-1.46023846
-0.08642846
-1.61874664
1.59991598
-0.09709671
-0.13113153
-0.00228574
0.03204157
0.21368338
-0.68226784
-0.15449017
-1.32607114
-0.04899707
-0.22829702
-0.15097724
-0.00032378
-0.00007900
-1.83797419
1.84913909
0.78231531
-0.00031769
-1.53997493
0.12032045
-0.00859594
0.00221486
1.60002196
-0.00100709
1.13453782
1.55843186
-1.17270052
1.60479593
-1.06054091
-0.18301204
0.02824300
-1.70984423
0.01793882
-0.28676093
-0.21966416
-1.24301744
-1.56745815
1.12566173
-0.88601142
0.20551312
0.86206931
0.06775860
-0.01811976
1.18586671
1.83567250
0.25640008
0.00133254
-0.15587893
-0.14443104
1.95881951
0.00095500
-0.82489932
-1.57694173
-0.00152310
-1.70649993
0.27688280
-0.04699785
0.11707394
0.13430139
-0.00222764
-2.22827744
-1.76755106
-0.05839254
0.30739185
-0.00078237
1.53603005
1.72477210
0.94501883
-1.92825353
-1.60820663
0.19488619
1.82092237
-0.00020406
-0.64851224
-0.09469326
0.46507150
-1.35592318
1.43721652
-0.00146256
0.00266121
0.00155972
-0.00286677
-0.14907174
0.09642569
-0.41189975
-0.56440413
-0.00126234
-0.11685456
0.06439462
-1.28752255
0.87457538
0.00151781
0.05769191
-1.86178780
-0.11260265
0.10502767
1.06299019
-0.06767961
-0.00276574
0.16973670
0.00013553
0.00131944
-0.00107491
-1.49674737
0.00207525
0.00208757
-0.00145724
1.56441498
0.87775630
-1.67665470
-1.55875504
-0.04327129
-1.48212779
-1.65739191
0.56771040
0.08401950
0.64511031
1.73480725
0.03559389
1.72524059
-0.11965648
0.00145455
-0.01901345
0.00028857
0.01853195
-0.00000849
-0.36521676
-2.00868583
1.57475066
-0.10438932
-1.83069909
-1.49491286
1.91527545
0.01743936
0.04047389
-0.00081563
-1.99397445
1.43172312
-1.40717423
0.17532875
1.45424891
-1.50350499
1.82671750
0.68220198
0.05117953
0.14632522
1.91955006
0.00207114
0.00253305
1.43477416
-1.68043470
1.49103725
0.17253682
0.10957021
-0.00080968
0.21473391
-0.00020496
-0.00159792
1.52639353
0.94691169
0.04720204
-0.37996021
-0.00090218
-0.19423829
0.49415374
0.04133133
-1.01887536
-0.07072073
0.11620726
-0.00025211
0.91992879
-1.72696018
-1.24765813
-0.41979006
-1.72188127
0.00066062
-0.00104543
-0.09570026
0.27388826
1.04316401
-1.95786965
-1.56073534
1.66976643
-0.00029419
0.23770620
-0.93180382
-0.79715937
0.00075604
-1.92547011
-0.11078740
-2.04367828
1.07991862
-0.00066157
0.11250620
0.06919625
-0.00041857
1.05522132
0.50603348
-1.46423209
-0.11824866
2.17768884
0.02872790
-0.33786452
-0.13453561
-1.11210668
1.63367999
0.00359549
1.18211591
-0.00212509
-1.11150205
-2.17507792
-0.67983890
-1.01616514
1.13644969
0.14668339
-1.43694127
0.05678071
-0.29994449
0.24395823
-1.65436566
0.00306343
-0.05176824
-1.84054899
0.00140572
1.91916335
1.70207810
0.00170711
0.00286752
0.13984016
-0.00088228
-1.67053068
0.01775741
-0.02744547
-0.00071368
-2.24232602
-0.00130477
1.11610794
0.11353460
1.13781762
-0.00080888
-0.02007020
0.34411642
0.10943667
0.91004759
1.59774196
0.00011821
-0.22696030
0.00268986
0.33123991
0.10158731
-0.14454387
0.21901959
0.74158674
0.41346148
1.18408418
0.05846238
-0.21315698
1.52253914
1.83862364
0.00168914
0.03600261
0.00245542
1.19632316
1.72060740
-0.00312054
-1.54170251
-0.06408101
0.12691371
0.02267630
-0.00228856
-0.05272844
0.06070922
-0.10161385
1.36371994
-0.38898423
1.30780256
1.55119109
0.27509877
-0.00118333
0.00221701
-0.05187542
-0.69451588
1.61728525
-1.11528969
0.03668467
-0.08558299
-1.94164193
-0.06830532
1.80691755
0.00003095
1.67010105
-1.46951878
-1.86594021
-0.18002433
0.09391416
-0.03390880
0.00072732
-0.07335851
2.24705648
1.67785239
-0.00217536
-1.33518112
-0.04054147
-0.11462183
-0.05682521
-0.00112089
-0.00040345
-0.11500124
-0.00039705
-0.00206556
-1.29171336
0.08986878
0.09468097
0.26579073
1.73909950
-1.91332114
0.84183866
-0.00021730
-0.00054698
0.00072793
0.87542599
-0.00168348
-1.07128656
1.17157960
0.16535929
1.85380816
0.06531112
0.00112698
1.61440122
-0.54270339
1.29925346
0.00091027
-1.23207009
0.00090523
2.00552106
0.19257270
0.00097050
1.92132592
0.00129051
-0.31582144
-1.28414834
0.65904003
0.14862025
-1.59526837
-0.00261410
0.07801338
-0.14177395
1.79373407
-0.10250158
1.84018409
-0.06923742
-1.73242545
-0.22792548
-0.11201527
1.17897773
-0.00206811
-1.23026824
0.76048392
-0.06496201
0.50516677
0.01097253
0.00211469
0.00068827
-0.23599122
-0.23629427
0.80880260
-0.04764454
-0.23218159
1.12200832
-1.17558086
0.00147191
1.99454355
0.87330902
-0.00152173
0.89459169
0.24877307
-0.13557909
-0.00267659
0.10013264
-1.79232955
-0.39937982
-0.02120897
-1.66473043
0.00007440
1.72565627
-1.84540021
-0.00175687
-0.00170756
-1.85272884
0.50896287
1.05342269
-0.07842860
0.12333342
0.00055814
0.77031422
-0.00043627
-0.10588641
1.46604919
1.61597061
1.64961433
0.02908262
1.37159657
0.93829972
-1.90361416
0.04679694
-0.00033128
-2.03967285
-1.81049967
-1.62708247
-0.00011457
-1.46332264
1.77806187
-0.00053091
1.71971798
-0.00333450
0.41734821
-0.00340365
1.02975440
0.98027700
-0.32530415
-0.00084976
-2.09619451
-1.62789690
1.43212450
0.00110984
-1.70472753
-0.70405251
-0.83906430
-1.25632644
0.00371914
-0.00044757
0.00697744
1.76716352
0.00011705
0.02608601
0.00008462
-1.94706202
0.89391321
2.00896549
1.41881669
-1.74092853
-0.05627802
-0.17447755
-1.35112977
0.01064516
-1.54657686
-0.01725689
-1.46513057
0.00246221
0.08093514
-2.08819342
-1.74969137
-1.31806254
-0.00046313
1.41763341
1.74481165
-0.44625434
-2.53753352
-0.00252182
-0.12787056
-0.02806047
-0.00244017
-0.14878301
0.00416365
-0.00115229
0.06342253
0.06924079
-0.75379860
-0.19852291
-0.15145431
0.08596676
-0.00136734
0.00068376
0.00204869
-0.07742850
0.00039941
0.02324653
0.58032852
0.13533951
-1.27865708
-2.18390775
1.23747838
-0.10346529
-1.56674731
0.00916188
0.78030229
-0.00263082
-1.80463994
-0.00016332
-0.37189370
0.00360669
1.18641460
0.00089872
-0.00266324
-1.69367111
0.00240851
0.36991698
-0.06966316
0.12643267
0.00686726
-0.00440887
1.42931044
-1.10290015
2.10690451
0.59851134
-0.22610955
0.00276380
-1.99136007
-0.00106443
0.00082832
0.00136355
0.00169238
0.59288454
0.00170498
-0.00139753
1.02008009
-0.09637792
-0.09076232
0.05258910
1.76413608
0.03268503
1.08098841
1.81899583
-1.28604031
0.64333373
0.00064231
0.45220223
-1.30401528
-0.13861203
1.91753435
1.72192609
1.29030800
1.75776792
1.03274238
-0.19829553
-0.10809679
-0.00007028
-0.72277486
-0.96979821
0.12856756
-0.10117606
1.71389258
1.77999902
0.88872224
0.00092439
0.00031612
-0.32226664
-0.14609776
-1.16297960
0.00075952
0.11971444
1.47853625
0.51570415
0.00098579
-0.00316015
-2.19746637
0.02993181
-1.62469471
-0.86697108
-1.72294736
0.19176690
1.75332272
0.14178687
1.50482512
-0.03699912
-0.00069677
-0.00102799
0.10456534
-1.43323290
-2.00240111
1.74509454
-0.01548247
0.00151484
-0.85785431
0.00045639
0.05654684
-1.77599859
-0.00027688
-0.00064125
0.00047466
0.22995299
2.08033347
1.65083528
0.22278140
-0.00174313
0.27993417
-0.01705251
0.07377397
-0.65502340
-0.03728341
-0.88086456
1.24206746
0.52694666
0.01254701
0.84838814
1.63707530
0.00068792
1.58239889
2.00827503
-0.00052627
-1.83763385
-0.07823973
0.00163161
0.34734526
-1.42770791
0.07414078
1.12265718
-1.29639101
-1.37917125
-1.55452514
0.15781446
-1.86703634
0.08976873
1.81623614
0.00181060
-0.08022128
-1.61110401
-0.00316597
0.93094039
0.00141554
1.18811965
-0.00277434
-0.20674306
0.09985501
-0.00291551
-0.24453086
0.54004163
-1.16530561
0.00063343
0.00308928
-1.26090002
0.05668948
-0.20107611
-0.97582865
0.02544799
1.56978309
-1.61791265
-0.10981908
1.77574480
1.68242311
-0.00299999
-0.00055180
-0.00195128
-1.85827017
-1.28383291
-0.14347239
1.77501547
0.09551125
1.37369883
0.00016821
0.00021017
0.53683329
1.29634440
-0.00100318
1.44026375
0.00092018
-0.03039968
0.69699043
0.00068521
-0.00011014
1.12285519
-0.05770210
1.28129470
-1.21407998
0.00011467
-1.19883549
-0.29001310
0.89926773
0.16937903
-2.31612849
0.00138439
-0.26271901
1.29610205
-0.00331049
0.00218719
-0.00003324
1.80672383
1.00631785
0.55706328
0.05643389
1.50559568
-1.55768967
-1.38082063
-0.41394919
-0.03166212
-1.84814358
-2.01850748
-1.74879491
1.63749111
0.00092950
2.13012815
0.00843617
-0.00006306
1.60426211
1.58395708
1.13481641
2.07421255
-0.35181081
-1.78266299
0.00227543
-0.08573542
-0.12277844
1.42826879
0.80190861
-0.77985197
-0.79675376
-1.63754833
0.00152527
0.19306971
-0.00148644
-1.79613078
0.00146758
2.13031507
1.73185909
-0.14506185
0.00107248
-1.43579662
0.32051772
0.09012326
-1.65290689
0.00062156
0.97237551
1.46252549
-1.34256184
-1.44822466
-0.00239695
-1.21557808
0.00272455
-0.10312355
1.28283620
-0.00020535
0.07300992
0.00110034
-1.44409013
0.01581288
0.00154793
-0.00091988
0.00313495
1.26957929
0.15381247
-0.18602809
-1.20277810
0.00032540
0.53235734
0.01318082
0.00002945
-0.20509052
0.04153540
0.00181705
-0.07512178
-0.11091754
-0.18098949
1.58959806
-1.64438462
-0.08322287
-0.34114531
-0.00159703
-0.08382219
1.77399826
0.82922637
-1.19222951
1.91018927
-0.00195979
0.00148043
-0.18065242
-1.23475718
0.04542470
0.99249667
-0.97358596
-0.22812438
-0.07299224
0.05002222
-0.07457788
1.16863894
-0.12101133
0.04145206
0.13369589
0.05222434
0.00172224
0.14251854
-0.11603272
1.60613596
-1.32563949
0.76576513
1.16149151
-1.26721168
1.44857132
-0.15794523
0.02765013
-1.26625419
0.83900195
-0.32507014
0.03777893
-0.00227493
-0.05018552
0.00002945
-1.62630427
0.06514184
-0.88790399
0.28573233
-1.07761550
-0.08636479
1.99792957
0.00104340
-0.00516820
-0.00385650
-0.19889349
0.05048506
-0.01698591
-0.09176460
1.73007548
-0.07506251
0.83311707
-1.67459404
0.00408853
1.92975724
-0.46445248
1.91400707
-1.37787342
-0.00978117
0.01201468
-1.73001313
1.76075041
-0.41632664
-2.04949236
0.94567674
-1.66708231
0.00105830
0.00113906
-0.06263112
1.99933207
-0.79692203
0.00086051
-0.27331755
-0.03778341
0.03199251
0.43440989
-0.88344413
0.21565898
-0.16197821
0.14412476
0.00009284
0.55334264
-1.08363986
-1.74560106
0.04330470
-0.00091545
-0.39706793
1.08861709
0.42188331
0.89748549
-0.00334784
1.51897979
-0.00044671
-0.11857330
0.98104298
-1.29836535
-2.22444224
0.07279456
-0.43851620
0.23983122
-1.74911916
-1.03263438
0.00532936
-1.24543929
-0.04085973
-0.00135660
-1.23860693
-1.36644435
1.69392073
-1.26416373
0.06258071
0.10294746
-1.58343852
0.05139381
1.10422277
-1.77664590
-0.09132761
-2.04566479
-0.16133484
0.04980893
1.28521764
-0.00159812
0.17747810
1.81246507
-0.06421738
-1.00699854
0.02591275
1.78514802
1.98195505
-0.10236596
0.25515369
-1.39384341
-1.16892970
0.01601825
-0.15828937
-0.57888663
-1.45619619
-1.91357112
0.15855853
0.15357763
1.52963698
-0.56924623
1.45953727
-1.48050463
0.16761419
-1.19005167
0.00182400
0.95902884
1.00002289
0.00068201
0.76292270
-1.70429361
1.03911865
-1.73180866
0.00271532
1.63225615
1.37999713
1.34771645
-1.88212776
1.64103043
0.00278461
0.99350822
-1.66603935
-1.63520122
-0.00115831
1.62180781
-2.15945840
0.09855821
-0.08504760
-0.04975475
0.36249596
-1.52582014
-1.57125199
-1.44370818
-0.00231057
0.10910272
0.64778942
-1.65801883
-1.01686573
-0.00137751
-0.07863080
1.55879343
-1.57660735
0.04794638
1.50503409
0.14979360
1.38902795
-0.00004666
0.00181602
1.07590091
0.08421655
-0.00130233
-1.03844440
0.00114722
-0.00063362
-0.15146880
0.35420221
1.05476296
1.62363601
-1.17646134
-0.14858912
1.45722568
0.00071135
0.00065740
2.05236268
1.82271779
0.00048424
-0.00272559
0.00231034
0.00275259
1.59026349
1.34812140
0.00294724
1.91042304
-0.80139929
-0.00076694
-0.17969720
0.00105231
0.03696229
-0.26101625
1.47332454
-1.32506728
-1.36818469
0.25691104
-1.85481381
0.62704140
0.91237277
-1.60555947
0.00053512
-0.09556755
-1.44203126
1.03098977
-1.46502221
-1.55765474
-0.00090625
0.19327414
-0.09960607
0.70697713
-0.00275993
-0.06347200
-1.81425667
0.15742996
-0.26810747
-0.81242532
-0.12676105
-0.04448957
-0.16978891
1.32920229
2.28800082
0.00216610
0.09694140
0.09080413
0.58082759
-0.00043881
0.00243378
0.33575183
-0.00037695
1.62901890
-1.46248043
1.80692637
1.39928722
0.97628927
0.92159694
0.00072151
0.00042526
-0.00228375
2.12634301
-2.01469088
-1.79931998
1.46835792
-0.91093421
-1.23235345
-0.19082917
-0.76254708
1.35708153
-0.53402185
-1.18235373
0.00068139
-1.48292315
1.52027583
-1.46476030
0.90793788
-1.74594855
0.00254362
0.00037611
1.10390735
1.83939445
1.49984157
-0.79347450
0.01689907
0.77060807
0.00314583
0.00144431
-1.66701663
1.64932597
-1.48964167
1.55016124
-0.04255870
-1.39143121
-1.73748350
1.55977762
0.00132806
0.00903787
1.99427450
-1.23946774
0.42350197
-0.00049664
-0.00088175
-1.62949347
1.58391881
1.29083455
-0.95060825
-0.06657964
-0.00086268
-0.26378688
1.77753568
1.55788434
-1.25893772
-0.07875134
-1.57550621
0.12558331
0.91790116
-0.00018783
-1.91893196
0.00290040
-0.17098802
0.05880488
1.46725011
-0.70697331
-0.15885338
0.91912025
1.48953962
-0.38765463
-0.00124185
0.00255842
1.73060846
0.96714866
0.00164609
-0.12903529
0.22781749
-0.64251858
0.00194979
-1.21557879
0.80963415
-1.26933455
-2.09300828
0.06030284
-0.21144125
0.30430400
-0.00039409
-0.00309878
0.00196042
1.19738209
-0.00081609
1.46709108
-0.09593808
-0.00247045
0.03486829
1.75167632
1.24661911
-1.42896378
1.81376076
0.00217336
-0.53129226
1.02756500
1.72203171
-0.00252802
0.00072438
0.04894052
-0.00202863
-2.34653759
0.34167087
0.00370705
-2.05046296
1.31898892
1.81828034
0.30009329
-0.07267448
1.88746119
-0.05174740
1.66996396
0.15421531
-1.90773535
-0.00196655
1.54063094
-0.08600944
0.00937642
0.00104043
-0.00078615
-0.72995883
-0.94705248
1.57925594
-0.40188426
1.55971634
-0.08699689
1.47711682
-1.45388293
1.01283598
-0.00112490
-1.04061711
-1.32606399
-0.00007251
-1.30022132
0.56320482
-1.59005117
0.00021284
1.81216431
-0.32463697
1.96576715
-1.00596809
-0.00063763
0.73861492
0.58843881
-1.27729464
0.22334684
-0.00185122
-0.03669536
-0.19557457
0.21582153
0.00096377
0.00162518
0.04276869
-0.00236048
1.28924513
-1.23187399
-1.02196050
0.00294170
1.40062726
0.00437842
0.00065380
-0.00114960
-2.16355538
0.00099263
-1.91230798
-0.13677414
-0.01674213
1.96520162
1.86512613
-0.77551305
0.02827322
0.00247877
1.10634482
1.13204348
0.00096681
-0.29478055
1.30718756
-0.00104128
-0.06282482
-0.72503060
0.00153274
-1.78803670
-0.02006040
1.64424610
-0.92499101
-0.00291305
-0.01373015
1.77664781
1.42602062
-0.00119987
1.57790935
-0.58164817
-0.31753293
2.07606578
1.72859037
-0.00041879
-1.86915243
-0.11372410
1.09106207
-0.10037421
0.00250062
-0.00065991
-1.39964426
0.03835875
0.00209376
0.80193758
-0.00091033
-0.04457670
-0.00160007
0.01870464
0.53478205
-0.17845802
0.13484883
1.09878242
0.90126431
1.99424899
1.50365615
0.10564289
-1.66075826
-1.61399162
1.93844283
0.68247628
0.00150060
-0.62406921
-1.80162621
0.00960359
-0.00194364
1.95333624
-0.61487055
-1.58742297
0.05808282
0.18400124
-0.00072532
0.06537467
-0.00019726
1.55507338
-1.42556512
2.13012385
-1.47870135
-0.75987107
-0.00079110
0.01110820
0.33334947
1.23965287
-0.17309016
0.03367722
1.32187295
-0.05712130
-1.52119720
0.24794793
-1.76856411
0.00260015
-0.00135493
0.13008684
0.00124277
-0.20272835
0.05633776
-0.00068075
0.00148154
-0.00217145
2.03356004
-0.00070134
0.00018352
0.09111924
-0.00064031
2.01249981
0.00173443
-1.74432659
0.05452694
-0.00092815
-1.49306011
0.00136711
1.31202054
0.37286544
0.04047363
-0.00398483
0.08377176
-1.56806576
-1.61832702
-0.13862006
1.66288733
1.97891974
0.01335986
-2.07418895
1.65672028
0.89011908
1.23041022
1.37237871
1.10875177
1.61397147
0.06235914
-0.00079937
-1.49780214
-0.19016740
0.10579049
1.54101014
-1.42094600
-0.89087939
0.00056496
1.01723170
-0.00044771
1.40269887
0.00221253
0.47666845
0.20819218
0.00068537
0.00057949
0.00217529
-1.95708954
0.00133732
0.07099243
-0.00138298
-1.29642999
-1.81318784
1.79312158
0.04692844
0.23491019
-0.00131737
0.00034810
1.32856107
-1.46129537
-0.18809973
-0.00060429
0.91272521
-1.65011883
0.01435046
0.03215230
-1.52766168
-0.28762788
0.00228450
0.00138027
1.24035621
0.00012367
-0.48188943
-0.15481937
1.13750172
0.00247484
1.44915819
-0.00120113
0.47137028
-0.02811293
0.09316942
-0.02893454
-0.00009043
0.04821720
-0.02730321
0.00190656
-0.00195627
1.54834306
0.09472845
1.54637063
-1.61816382
-0.12623547
-0.00184727
-0.86356193
0.11049136
0.00232845
-0.00038932
0.89143288
0.83386898
-0.18279247
-1.29107380
1.84436178
0.06540792
0.00044162
2.16903973
-1.50324357
-1.69861078
0.07305643
0.00098115
0.02592456
1.73757732
-1.25356889
0.05319292
-1.24733698
0.00160313
-1.11086595
0.00062973
-0.00185524
-0.05669166
1.35979867
-0.00197493
0.81570858
0.23182166
0.00171022
1.77584386
0.00016723
0.50508475
-1.91507471
0.75903112
-0.02863264
-0.17059973
-1.93334186
-0.04622946
-0.00203685
-0.46334594
-1.92295694
0.91380721
2.12058783
0.20423275
0.00164001
-0.79512715
-1.10869646
1.37845552
-0.75303060
0.80582988
-0.22917750
-1.02190053
1.55903387
0.03496304
-0.51103872
0.03672301
0.00174933
-0.97699720
-1.67600155
-1.62369168
-0.00086859
-0.00010988
-1.72035277
0.02122357
-0.05065996
0.00050247
0.04569359
2.13039660
-0.11053915
-0.04613006
-0.13280998
-0.00043613
0.94087148
0.02969175
-0.03557952
1.80540657
-0.82567418
0.97679043
1.51052821
0.00056611
0.12966824
-0.00039501
0.12948287
-0.20021544
1.85767019
0.57481503
-0.87679785
-0.04379032
0.00101807
-1.09965098
0.29651269
-1.72396016
0.00144231
-0.64799345
0.64191568
0.90284061
0.02891012
0.96315587
-0.01172074
1.39275241
0.00023479
1.66162229
-0.00068695
-1.30772948
1.33512235
1.62984276
-1.99327278
0.00050869
1.65273190
0.17143907
-0.14296606
-0.00021175
-0.07348569
0.89359492
-0.02912933
0.56102961
0.97995746
-0.01440460
0.05694612
-1.52270544
0.00032248
2.11601734
-0.00141561
-0.00076209
-1.79241502
-1.15429997
-1.42805958
1.36254704
0.01715410
-1.74495542
0.13743398
0.00151885
-0.35803202
-0.00020056
-0.15609670
-1.17234588
-1.36854291
0.13257049
0.00336580
-1.32888067
1.95101404
2.04739833
0.00055655
0.07470947
0.94227743
1.34435904
-1.20258176
-1.04192185
-0.00085209
-0.00038788
-0.01187634
-0.00086584
-1.56953585
0.00035882
0.00139884
-1.38353682
0.70004749
-1.61843455
-1.53458011
0.05103686
0.00018788
1.35026824
-1.32840514
-1.04073322
0.41965464
-1.48933399
0.35835800
-0.83785564
0.08861967
-0.36068699
1.38060188
-0.12102605
-0.36282492
-0.06544199
1.02468157
-0.41071260
0.11971480
0.06398924
0.76156110
0.00152381
0.30157450
0.00072794
0.04742106
-0.12788855
1.74530017
1.89160180
1.02821410
0.04024694
1.70052361
-0.01485210
-1.60961628
0.25156587
-0.02344242
0.47439963
-0.34283760
0.05090621
0.00122523
1.58095574
0.00100718
-0.70659465
1.19231975
0.00141995
1.89486635
1.50927675
0.86184067
0.00168928
-1.72563756
0.00057493
-0.01329635
-1.80975938
-1.38055909
1.82817590
0.00141154
-0.20304297
0.89577866
-0.00586063
-1.38462734
1.47048247
0.00103386
1.83852339
-0.00123830
-1.75587940
-0.13261941
1.77424729
1.38768232
-1.88381946
-0.07402655
0.21550572
-0.04399841
0.01050956
0.04025612
0.02721273
1.56648779
0.01374030
0.00003471
0.56075650
0.00147726
-0.74004436
0.06459916
-1.34295762
2.22394204
0.00135244
0.40669543
2.10400581
0.33102924
1.46054602
0.06407310
1.38725984
-1.63955414
-0.01660911
-2.21012664
1.50451624
-0.19771661
0.00074501
-0.02064875
1.08949065
0.42614445
-0.00058870
-0.01239642
-0.07133760
1.30762923
0.09721591
1.29420555
0.04290465
0.00187363
1.65896499
0.00140115
-0.00052414
-0.02797623
0.02620761
1.86159229
-0.71630377
0.02351116
1.51207900
1.00314820
-0.19343799
-1.76365721
0.00272619
-0.20916514
-0.17856106
-1.26662934
0.00042583
1.71637201
-0.00068242
-0.00019350
-1.68649912
0.00917273
-0.13185379
1.81318605
0.00089449
-0.47889641
0.00126786
1.75472665
0.31827465
0.11283693
-0.04027970
0.11683778
-1.63131094
0.00039810
1.13463640
0.00136192
0.95721054
-1.58310390
-2.18017292
-0.00016090
0.03875242
-0.01637023
-0.11175837
0.20486726
1.76332629
0.05175309
-1.59021759
0.00075186
-0.01948474
-1.28293252
-0.08709865
0.72221130
-0.00181733
1.30081344
0.10193139
-0.53442776
1.00610352
-0.00090758
-1.47292471
0.94841409
0.11396220
-0.00469136
1.26940906
-1.47935808
0.00062432
0.12185229
-1.80283749
-1.66008246
0.00058702
1.84022200
-0.00053223
-0.00134941
0.00169908
0.00017954
0.09755583
-2.04446435
-0.00027066
-1.93400478
-1.81206608
1.71681273
-0.00149968
0.00040043
0.00018959
-0.00005557
0.03940511
-1.74990845
0.00070146
0.82634068
0.11097655
-0.00061183
-0.27889398
-1.81752479
-1.21594262
1.56787550
-1.06698120
-2.17283797
-0.06300396
0.44616064
0.21049225
0.47918278
0.00020327
-0.52745706
0.00049863
-1.62939620
0.98825353
2.00406051
-1.38722312
-0.09738544
-0.05506510
-0.76132095
1.52403116
0.00214877
0.06997717
-0.00086552
-0.56226075
-0.00152122
1.65340483
0.00416514
-0.00103072
1.34521556
1.17036259
0.00175249
-1.80694306
-1.61968684
1.23973405
-1.08073378
-1.50492811
0.07400142
1.41356921
1.80924726
-0.22352801
-0.53579688
-0.27535927
1.52210796
1.96513093
0.17844634
-0.52721524
0.04460612
0.23281598
-0.00083353
-0.01679327
-0.00167530
-0.31574711
-0.00111758
0.04915691
-0.00051814
0.00167242
-0.55153072
0.00204072
-0.00030703
-0.00230999
-1.24546707
-0.00171913
1.54594040
-1.82206786
-1.36062706
0.22509558
0.00152943
0.00068758
0.03823473
0.20228232
-1.93349588
0.02735755
1.24001312
-1.34412837
-0.00201376
-0.00830669
-0.58591938
-2.06675291
-0.86179227
0.00180888
-1.62847435
1.18580282
0.00121996
-0.00291825
0.68690622
-0.06010957
-1.80785155
0.00153726
-0.00085006
1.76240790
-0.19700292
0.01146146
0.05556143
0.00083871
-0.03764404
-1.93756437
-0.14325754
1.23780942
-0.00086460
2.19709468
-1.64792788
-1.45080924
-0.19521363
-0.17619696
0.24163523
1.64619946
0.82092029
-0.00040400
1.66754258
0.17543735
1.37843573
0.00026354
2.01689506
-1.57594144
-1.88725138
0.04691196
2.15338016
-0.00080599
-1.48556089
2.19065285
-0.56788087
-0.00056696
-0.00000479
1.90315735
0.00319418
-0.00021074
-0.00151983
-1.12925303
1.60882235
-0.02728472
1.83504474
1.93975151
-0.33031324
-0.68278056
0.00360694
0.46589604
-0.00093911
-1.67065883
-0.10267842
-0.42902294
-0.10231071
0.93228859
1.95581436
-0.09386417
-1.47734368
1.39682817
1.77755773
0.63132942
-0.29256478
-0.01960799
1.95187986
0.00054277
0.03695134
-1.20805693
-0.09817300
-1.23560047
-2.06487989
1.01014781
0.00168415
0.07847066
-1.56954849
-0.12324821
-0.04287824
0.00243717
0.25811478
-1.53698480
1.86583412
-0.07809756
0.00282259
1.65439856
-0.43195698
-0.15160197
-0.00027238
1.33059442
-1.68638873
-1.78423667
-0.15980467
1.61007512
-0.00173777
-0.00571653
0.00181330
-0.00319539
-0.00247782
-0.05005207
0.00057066
0.00134590
0.05091305
-0.00050191
1.59817016
-0.09754052
-0.03071317
-0.19331916
0.20976818
-1.04556942
1.06222916
1.70293868
1.97247863
-1.94080961
0.00751732
-1.51866591
-0.06063040
0.09331880
-1.34471154
-2.15239120
0.00044053
-0.08043593
0.11870822
0.05512969
1.91371858
0.00047208
0.00434657
-0.06287761
0.09101449
0.00278906
0.12444860
-0.00002299
1.36249495
0.06585985
0.01302321
0.19853006
-0.51554590
-0.00281526
0.06292512
1.56186485
0.16599421
0.00021265
-0.00058319
1.30621314
-0.03761634
0.14431527
-1.43926859
1.35626233
0.09117597
0.03536538
0.00368143
0.22226956
-0.13280393
-1.38422751
-1.73267841
1.13905013
1.87134457
0.18973629
0.73850960
0.01566836
-0.00287154
-1.29366302
-1.68225658
-1.52616346
-0.06140328
-1.30789256
1.68625224
-0.23909500
0.00064447
0.08649170
1.75005364
0.96487206
-0.14269364
0.00081462
1.65084100
-0.29527923
-1.01034999
1.67664468
-1.48993003
-1.53383684
0.10686538
0.05317097
0.39208406
-0.00123948
-1.01478851
0.26113605
-1.85615575
-0.00797772
0.00069764
0.35938177
-1.66614354
1.33976316
-0.07958650
-1.94877708
-0.61830890
-0.00125300
2.02854347
-1.69719100
-0.00293281
0.00077732
-0.00120332
-0.88345367
-0.17902499
1.57829618
-1.61884332
0.07874419
-1.57415128
-1.41077971
0.00097780
-1.68926299
1.72083855
0.00105913
-0.00136887
1.27377033
-0.11291689
-1.24562383
-0.01364222
0.28526595
-1.63366437
-1.66561079
-1.43366730
1.84118700
1.36986411
-0.00012899
-1.16762519
-0.05954901
0.16313304
0.89343351
-0.06474455
-0.00130451
1.69135010
-0.04717701
-0.00121576
-0.74180639
-0.32088158
0.00137746
-0.00088570
0.00218072
-1.63300562
-0.00322884
1.79194903
-0.00120914
-0.21707579
0.98054892
0.00251410
-0.91971415
-2.00654554
0.77215618
-2.20005703
0.10728958
0.47866431
0.10405309
1.67765069
0.06253867
-0.00083329
1.46880662
-0.09785376
0.00768156
0.13578178
-0.00175148
-1.55754960
-0.00053768
0.31258273
-0.17133638
-0.00013264
-0.76972681
-0.12588376
-0.00111142
1.68728960
1.29816401
0.00158383
0.00040277
0.07780409
0.00598460
-1.10626507
-0.05303139
1.89160180
0.00026086
-1.31746364
-0.00057023
-1.14643538
0.83183366
-0.82055348
0.00059710
-0.04924762
0.00084720
1.08980966
-0.10090742
0.00152750
1.83565319
-0.88620144
1.87579262
-1.75595570
-1.45367789
-0.68168509
-1.46198893
-0.67652112
1.90456235
-0.00187650
1.63953888
0.04722941
0.08727042
0.00131652
0.00079295
-1.16615343
0.00116005
-0.27568969
0.00385120
0.00245421
-0.20452657
-0.59470195
-0.05842819
1.49635339
-1.53822100
-1.37653792
-1.32914817
-0.03738774
-0.02964242
0.93056303
-0.11355090
0.00119276
-1.88362598
0.09438866
-1.01763988
-1.48284781
-0.00321419
-0.00400737
0.00071156
1.31256533
-0.46092868
-0.13988279
1.67211080
1.79479909
-0.00109938
-1.34395826
-0.00079755
0.06288210
0.04762100
-2.05158091
0.00343340
1.42668343
-1.58351624
0.00043998
0.76086777
-1.59830225
-0.01906957
-1.38038945
0.48704103
0.20583691
1.59038746
-1.58122277
-0.02253155
-0.12890410
-1.42400146
-0.03822618
-1.15041423
-1.42727923
-0.04008029
-0.43716365
0.00054306
-0.06593907
2.20959091
1.59710634
-0.03621956
-0.00058185
-0.00675758
1.65045357
-0.00263197
-1.71807706
0.04557100
0.80410171
-0.00025900
-1.47141576
0.00077118
-0.00057992
0.48710075
-0.18442684
-0.00154917
0.00096981
0.22260092
0.64835453
-0.00628808
-0.01413068
1.39907491
1.49081242
1.72740078
-0.00118768
-0.00040890
1.06087399
-0.80358332
0.92749238
-0.00097096
0.00254102
-1.67864096
-0.89741975
0.00022043
-0.03384115
0.39315328
-0.09158576
0.00068341
-1.58650804
-1.99649239
-0.08391979
1.09085989
-1.44886470
-0.18325308
0.19655415
1.59498107
0.34383333
-0.91301668
-1.28548980
-0.17821170
1.63130212
-0.94875723
-0.00168726
0.89575583
-1.57115173
-0.00005737
0.54811448
-0.13018849
1.82300496
0.00202881
-1.43506515
0.78762841
-0.00128264
-0.03472375
-0.00200319
1.80556941
0.00275476
0.00054263
0.08957471
-0.00177646
-0.07631610
0.00005258
-0.42742950
0.00062133
-0.01700288
-0.01208728
0.00058173
1.75638258
-0.00055425
1.52174580
0.00134461
-1.78326893
-1.23038721
0.12741408
-0.00080442
0.00096853
-1.50185049
1.79639053
-0.56909448
-0.20883177
-0.00095620
-0.00121272
1.34743893
0.00056616
-1.58426964
-1.43514419
-2.00252128
0.00033169
0.00350226
-2.12930202
0.00260116
1.62129295
1.95465326
-0.11735822
-0.08337665
0.14388973
0.20056395
0.26647165
2.10274029
0.18256727
0.00020870
1.48917043
-1.50088120
-0.85608536
1.42005944
1.74940693
0.51009274
1.05328774
-0.10536634
-1.60539305
1.20066774
0.10511326
1.61071813
0.29497075
0.00093411
0.00280123
-0.24002226
0.69545764
-1.81047118
0.20773605
-0.08427459
-1.27548170
-0.62326592
0.54287845
-0.00005372
-1.54762888
-0.00263263
1.71940887
-0.08323762
-0.34245342
0.05501985
1.44281948
-0.00051737
-0.00177196
-1.43422389
-1.21692324
1.09676480
1.71928549
0.00221744
1.59715509
-0.00072206
-1.39444256
0.08865955
0.09188109
-0.85070300
0.00079659
-0.07851554
0.10969974
-0.16278981
0.15557621
0.94553721
-0.00111373
0.14284869
0.00018593
0.00030021
-0.15548424
1.65688515
1.42662203
-1.19150782
-1.32786572
-0.78017241
-1.58400357
-0.04199010
2.01915956
-0.14687583
0.27269375
-1.19566894
-0.09823785
-0.00305403
-1.68043661
-1.80580604
-0.00121790
2.30846524
-1.91433585
-1.25705338
0.03336102
-0.51960391
0.00063381
1.60486877
-0.00100203
0.00621985
1.92137122
-0.00067739
0.98816389
1.10240304
0.03260693
1.80005503
-1.58180857
-1.91778421
-1.32796669
-0.04277741
0.00200775
-0.00093345
1.65455937
0.89388710
0.27024609
-0.18549781
-0.65146333
0.04976932
-0.02110619
0.64575684
-0.00010202
-1.79070795
-1.55507517
-1.17018199
-1.46069229
-0.21774818
0.16321282
1.65945613
-0.85406727
-1.76095808
1.66801691
0.16976923
-1.33609760
0.02811920
0.00132817
0.78089041
0.00211676
-0.00083225
0.09020112
1.17409706
0.11393226
-1.46824658
0.00242570
0.00074887
0.85083002
-1.56132615
0.02244629
1.68658853
-1.02510107
-1.23997188
1.49917638
-0.00219421
1.09281445
-1.18599498
-0.88066489
1.97505581
1.75482917
-0.00109278
0.09120871
0.09746823
-1.29737234
0.08698385
-0.02400724
1.72913885
-2.10860324
-0.00059240
1.66597986
1.76393986
0.00180498
-0.05664665
0.00204956
0.20007813
-0.00217434
-0.12348902
-1.89106977
-0.09273380
0.27088824
1.91060996
1.54763889
-1.51828659
1.75599754
0.88127607
0.02944770
-1.36358225
0.99718422
0.57900083
0.00323374
-0.00009384
1.14379597
0.12380528
-0.54163635
0.00051562
1.19806302
-0.00006831
-2.10129905
0.12799250
0.23355968
-0.00171768
0.00168720
-0.12556927
-1.41430974
1.20866239
-1.22245228
-0.01537230
-1.81624472
-1.63393986
0.00133514
1.66748619
-0.04724844
1.59379125
-1.42381859
-0.05793999
0.07612713
-0.00175748
-0.15039998
0.47629893
-1.56431353
-0.13527063
1.60098445
-0.15975079
0.41026685
-1.51027250
-1.97197330
0.00535103
-0.23441330
1.59858775
-0.02704342
0.00066942
0.00146130
-0.00125994
-0.01438645
0.00160890
-0.21615970
1.15613186
-0.00350714
1.92320108
-0.00029074
-0.00034977
1.74662042
-1.88835049
-0.05725339
0.00151104
1.10504282
0.18153340
2.05572414
-1.47092915
1.06169641
1.78335977
-0.00275418
0.09899388
1.61349821
0.06852246
1.67894483
0.00248273
1.56344748
1.74809217
0.00036849
-1.45265174
-0.00265724
0.20535356
-1.91468644
-0.40992701
0.00093261
1.37853968
-0.00139758
-0.97625154
0.17894274
-0.01039696
-1.68123639
0.91368091
1.32676423
-0.40421188
-0.00138528
1.78360581
-0.00225632
0.00178078
0.00127508
1.62540555
-0.00354293
-0.06604519
0.00102842
-1.35056603
1.47167301
-0.92296958
-0.74284112
-2.09288788
0.91765398
-0.39601806
-1.78981900
-1.12616587
-1.61453056
0.01692834
-0.07891627
-0.00090597
-0.04211737
0.06307202
0.00104812
-0.62322253
-0.20892851
-0.01631478
0.00108411
-0.57168913
1.52337050
-0.35804674
2.02546787
-1.60909057
-1.38468516
1.78843296
0.00077788
0.05523396
-0.15628557
-0.01028510
-0.30779204
-0.14785099
-0.00047647
-1.69048917
1.74840808
0.28468710
1.67189586
0.00104419
-1.80835009
0.08789522
0.00101261
0.01779281
-1.76579058
-1.51624179
0.00142582
-0.85032308
1.51985073
0.16022637
-0.04952535
-1.72151315
-1.58684254
0.00002489
-1.02275896
-0.03162254
0.03172315
-1.52931130
-0.21935515
1.25706482
-2.11599898
1.38383245
1.38282382
-1.49574101
-1.53964841
-1.50120258
0.06689709
1.26258135
1.54098713
0.20439270
0.00144016
-0.00044896
-0.03764027
-1.01393175
0.07409524
1.83804405
2.09300518
0.02718028
-0.16816925
-0.06736691
0.00560925
0.96968979
0.20248635
0.06535243
-0.00176227
-0.17390662
0.00094914
0.00057013
-0.00036787
0.00041502
-1.68091035
-0.06536184
2.09361267
1.57443953
-0.28478178
0.00021359
0.85347795
-0.00231782
0.98822755
1.96761453
-0.00137624
-0.00025067
-1.27109480
-0.00086844
1.74657965
-0.00009104
0.00058986
1.45804691
2.17096567
1.63571143
0.00156804
0.00088931
-0.10676019
-1.83329868
-0.10235421
-0.03642133
-1.45717990
2.05626130
-1.06739712
-0.08469384
0.02840555
1.87251806
-0.00295452
0.00164720
-1.13710797
0.04807393
-1.55936348
0.06462593
0.11619041
-0.15859759
0.04928454
-0.32426479
0.04178785
0.00012718
-0.09465870
0.08318736
-1.78550732
-1.78365219
1.28192639
-1.12760985
-1.11060011
1.69687378
0.00089948
1.47532892
-0.86796689
0.00050057
0.07691396
0.02256069
-0.00031690
1.19848669
0.00480861
-0.11707193
0.34956476
-1.33274150
-1.03564632
0.05907316
0.00052871
-1.57639837
-0.01256003
-0.00029439
-0.11048171
0.00089170
0.00575266
1.96527374
-0.00102405
-0.95913839
-1.75599575
-0.09325379
0.20612222
-0.12588416
-1.33062541
-0.00173893
2.17018008
0.05692516
-0.00224549
-1.42777491
-1.67751098
0.01425454
-1.34669387
0.01687243
0.08617731
0.02501284
1.99727273
-1.47177327
-0.04440196
-0.00022052
1.75309944
0.00247752
0.00053433
0.04088513
-1.59836900
-0.07212050
0.23867437
-2.03936481
-1.87845373
0.03550603
-0.27100033
1.72017312
-0.79559630
0.47898942
0.00116734
-0.00164779
0.00011461
0.00364765
-2.20471597
-0.13484387
0.00001612
0.84169960
-0.04249402
-0.11857174
-0.09042969
0.74239093
-0.01817491
0.11843222
-1.64545190
-0.46330839
-0.05966002
-0.15262425
0.21218446
-0.01362286
1.80058849
1.73809028
0.05737514
-0.68503213
2.03481746
-0.63535398
0.07689458
-1.79508555
-0.00196500
1.93361342
-0.05105824
0.80133712
-0.22175193
-1.22128499
0.11799904
-1.95986903
-0.01584030
1.82722545
0.00056380
-1.18190289
-1.09069419
0.00064744
0.08475580
-0.05311458
0.49008033
0.48857358
-0.00067191
0.00322028
-0.11689012
-0.49610424
-0.32186261
-0.02572409
0.16323316
0.55658621
1.45023322
1.67744064
-0.08228552
0.16580953
0.82888395
-0.03695030
-1.63990855
0.11882015
-0.00059040
-0.03008956
-1.88748872
0.15024380
-1.59819090
0.00047512
1.42151093
0.00009736
0.46409401
0.27839381
0.38953328
0.76232576
0.00219805
-1.01705682
-1.34093273
0.78197110
-0.17861196
0.78253865
1.46607316
-0.13046186
-1.10197282
-0.00090402
-1.71544015
0.00103500
0.09884763
-0.09759717
-1.34416068
1.33795357
-0.82110411
-1.28328693
-1.50172079
-0.07579251
-1.84513807
1.12456465
-0.04104547
0.00506443
0.14311506
-0.94974935
0.00327898
1.58484530
-1.30697370
-1.34049129
0.01002404
-0.00095897
1.36758757
0.04522072
0.00155905
1.73446393
-1.53686404
0.41922069
-0.00244621
-0.24702990
-2.06218386
1.17175865
-1.91069734
0.00337892
0.04126586
0.00252215
-1.79273951
0.14639011
0.00005590
-0.54034501
1.11694479
1.04022813
-1.02828801
0.17444584
2.13770247
-0.37518585
-0.49681917
-0.02582590
0.10788852
-1.14104843
0.00054039
-1.44607341
0.08053843
0.98402947
1.44874310
0.00109416
-1.61408782
-0.80043668
-1.25985777
0.00123867
-0.22843599
0.00089150
0.84549463
0.00157431
-0.40952662
-0.18051372
0.13042250
0.06140812
-0.44349208
2.10337281
-1.92771304
0.14685537
1.58893847
-0.16719662
-0.00122257
1.11039269
1.55148685
0.00090202
1.34528363
-1.25667620
-1.23008847
-0.12213955
0.00022985
-0.19370498
0.08511710
-0.12502769
0.01717052
-0.58414716
0.04754477
0.00158196
