-0.08290086
-0.11057831
0.00139666
-0.95881170
0.00211192
-1.23390198
-0.14289181
0.00010279
-0.66609669
-0.28482738
-0.00218135
-0.00324790
-0.95911252
-0.16961139
0.00115484
-0.23288885
0.37679353
0.00246248
-0.00121386
0.00123004
0.00423395
-0.30320951
0.05999115
0.00117529
0.52101088
-0.08499567
-0.09172212
0.72757387
-0.00124521
0.00080651
0.00206221
0.00244728
-0.10190689
0.11991396
0.32454166
-0.00023970
0.88707256
0.00080595
0.18052723
-0.03680601
1.42650533
0.00199054
-0.12450773
-0.00199654
-0.56450617
-0.11192162
0.14459732
1.03517759
-0.28799561
-1.16246331
-0.08001368
-0.64907116
1.28300893
0.60852706
-0.00249877
0.00187870
-0.07900871
-1.08546019
0.10970850
1.29352963
0.01800575
0.10431890
0.26026872
-0.00185754
0.00184273
-1.49442816
0.00089169
-0.00037817
0.00398346
-1.16861451
0.00087018
-0.58276397
0.00679367
-0.00111018
1.54561698
-0.08099955
0.00407860
-0.33520964
0.00009708
-0.13638821
-0.00976436
0.14953771
-0.90579832
0.05985623
0.00112213
0.03840230
1.18291283
0.05174676
0.00335363
0.00263917
-0.00447481
0.54598230
0.70434105
-0.02022236
-0.00109275
-1.02193260
0.00105625
-0.07494405
-0.79421860
0.00173400
-0.14555539
0.00035364
-0.93004894
-0.03149637
1.02515984
0.32492283
0.00089601
0.64984554
0.64728534
-0.09625900
-1.13262796
-0.00064423
1.31371725
-0.06138039
0.03381856
-0.26680881
-0.22636226
-0.11712675
-0.18405136
-0.85071039
-1.20639396
0.00155244
0.00053321
0.00021624
0.82084334
-0.79531300
0.70438308
0.02820115
0.00182589
0.07360232
1.24988878
0.00071699
0.93873292
0.10093629
-0.20873475
-0.05878054
-0.00210049
0.05799223
-1.08925092
1.03297293
0.98416913
-1.04013956
-0.88713968
-0.00458315
0.00104172
0.34874555
-1.26552486
0.00022405
0.19830407
1.38056922
0.00016893
0.86310101
-1.10615730
0.12416103
-0.00319651
0.00167850
-0.07278109
-0.00119580
-0.65653718
-0.00198218
0.00094943
0.43444666
-0.00298428
0.12508188
1.20194030
0.12848689
-0.00284662
0.60088295
-0.03804300
0.00329501
0.00300220
0.37277952
-0.13730325
1.08032334
-0.32820153
0.18008256
0.02260171
-0.07999927
0.01348796
-0.05757908
0.10215354
-0.07117787
0.00017236
-0.31800330
0.07888500
0.00277799
-0.35187873
-0.00239665
0.04502624
0.00578783
0.00352789
0.83193219
0.01518384
0.00584102
-0.00100599
0.00218865
0.72605026
0.20831236
-0.00414917
-0.00229486
0.85033602
-0.39712852
-0.05546376
-0.19253084
-0.34486157
0.00003906
-0.77602315
-1.05245364
0.00667198
0.00214372
0.00386155
0.94258338
1.33459175
-0.93029189
-0.28101984
0.10910396
-0.05555841
0.25994417
-1.49816561
-0.56365830
1.14467132
-1.16959417
-0.58084863
-0.12210590
0.00014945
1.00326610
0.02519990
-0.00072098
0.00007380
0.83037537
0.95643115
-0.70815504
0.04204287
1.13783836
0.22114372
0.07152993
-0.01815493
0.24483638
-0.70583075
0.00233224
-0.54742956
-0.00188584
-0.00023629
0.00172771
0.30260217
0.00323737
-0.00073928
-0.59193957
-0.00093966
0.00195967
0.59290290
-0.08097476
-0.96323079
0.17003840
-1.74136829
-0.44589224
-0.03249771
0.20143756
-0.83432233
0.88390946
1.24571431
-0.00046823
0.00153315
-0.00220883
0.83778000
-0.04951871
-0.00177440
0.49482962
-0.00170296
-0.34634370
-0.08471326
-1.07274830
-0.34693062
-0.00200117
-0.00122616
1.03326857
-0.33509251
-0.59895587
-0.97679681
0.00068012
-0.00078406
-0.81523001
-0.00098720
-0.75236529
-1.41476095
-0.00373890
-0.03620630
0.18878300
-0.96377641
1.34842598
-0.13360128
-0.02467672
0.00209162
1.04894722
0.00111720
-0.23576769
-0.31105304
-0.37006477
-0.00064208
-0.01470258
-0.86617869
-0.10778503
-0.00031966
-0.03199170
0.00304490
-0.12615596
1.15715027
0.00221387
0.59352356
0.00203320
0.35920289
-0.05841923
-0.00265198
-0.00083648
-0.00036347
0.83529824
0.02375115
-0.00190271
1.08501518
0.00199126
0.00063645
-0.08519411
-0.31166053
1.15296662
0.62785810
-0.00031594
0.02878471
0.46047840
-0.05146441
0.00082970
0.00077097
-0.08051305
-0.26359987
0.02014258
0.00241357
1.26441145
0.38228360
-0.00332410
0.53313106
-1.33619976
-0.00391072
0.00204399
0.09494794
-0.97977841
1.04141438
-0.00143183
-0.00526910
0.00213956
-0.70362777
-0.27897292
-1.34357524
0.00110674
1.15931880
-0.00215334
1.11104071
0.00102779
0.00054468
-0.00035735
0.00197770
-0.55684656
0.52386045
-0.07796215
-0.12965156
0.03596362
0.27491596
1.17626405
0.00192267
-1.18455100
-0.73649496
-1.20574272
-0.00248616
0.00207784
-0.58165473
-0.00265274
-0.00139506
1.36475730
-1.11635816
0.00267801
-0.84602553
-0.05905347
1.36466181
0.07601345
-0.64378589
-0.75378227
-0.00388299
-0.07225204
1.41378510
1.23022091
-0.00390254
-0.00085520
0.04469389
-0.00431131
0.00090736
-0.01658628
-0.96449631
0.00086746
-0.25544503
-0.68272626
-0.00401800
-0.17140734
-0.09443346
-1.27522016
0.00011879
-0.92073214
1.21011281
0.00116258
-0.94267237
-0.15567856
1.42307162
0.55917400
0.00104854
0.34767428
-1.21993494
0.25270432
-0.00343440
0.00036975
-0.04770219
1.27349174
1.12699115
-0.83889401
1.04297078
0.13201010
-0.00083728
-0.01011250
-0.03263601
-1.22586262
-1.43471169
0.25119352
0.08082595
-0.01936805
0.14559586
1.21286595
0.04510070
-0.49371111
-0.02894776
-0.41731560
-0.09661347
-0.00182566
0.00054592
-0.25470927
0.00362638
-0.29862082
0.92771327
-0.00387553
-0.04877258
-0.11479475
-0.00314643
-0.99570900
-0.00016245
0.00147457
1.05800295
-0.69788224
-0.95144427
-0.00053292
-0.00165964
0.20148608
-0.00019251
0.11056373
-0.25242239
-0.09568820
-0.03456772
0.25964668
0.22207406
0.00121302
-0.68647379
-0.04372523
1.20423448
-0.00002112
-0.67273086
-0.00453118
-0.29326993
-0.58411080
-1.28788686
0.95684695
0.00004464
0.00372669
0.00105876
-0.86021489
-0.84485662
0.11452633
-0.77256745
0.78375947
-0.13037625
-0.01004801
-1.22912443
-0.25190586
0.33781353
0.00006229
0.39039418
-0.00235281
-0.11519253
-0.04903367
0.84510595
0.62345529
0.05809190
0.00352873
-0.09460540
1.01334274
0.17257982
-0.22256851
-0.55668062
-1.38294542
-0.73546177
-0.11884718
-0.32894886
0.93842208
-1.23454595
0.98124385
-0.64115357
-0.08422071
0.31596735
-0.03317142
-0.05430539
0.07762073
-0.05484523
-0.56913429
-0.03390317
-0.79786539
0.86336499
0.64963096
-0.00356822
0.60666037
-1.11511886
0.18560088
1.12329972
0.07538488
-0.18268557
0.21175885
-1.30656183
1.36281502
-0.67020541
-0.02684090
0.00412769
0.00264734
-0.23858137
-0.28538060
0.14456020
0.00000199
1.84147990
0.00241215
1.22523332
0.58179343
0.01894155
0.32526788
0.16639626
0.62906957
-0.05275610
1.43141413
1.03883362
0.11583902
0.05750619
-0.00274303
0.58142716
-1.05187392
-0.42514724
0.00016028
0.95790601
-0.00123455
0.00227477
-0.13942793
-1.03396070
0.68317240
1.29234564
1.41435313
0.00496546
-0.91503239
-0.00234415
-0.68475807
0.00078614
-0.01377485
-0.60550624
0.00128134
-0.00073895
0.02541814
-0.48328063
0.92719942
0.09191509
0.15804444
-0.00046343
0.11108545
-1.12619746
0.04932362
0.05959996
-0.00290910
-0.00033690
-0.25289518
-0.07570625
-0.00183484
-1.55458856
0.09231879
-0.00358819
0.07079352
0.25189343
-0.00031433
-0.10289404
1.24648345
-0.11695153
-1.55379069
-0.01563170
0.00081170
1.04803514
-0.18759358
0.82012361
0.40513572
-0.02532781
0.00233341
0.00123434
-0.00445931
-0.04352241
0.52266914
-0.01473915
-0.94927150
-0.25917196
-0.06126365
-0.62429321
1.29579604
-0.81098956
-1.20979548
0.00163307
-0.17696248
-1.29460633
-0.00089554
0.04713203
0.65344721
0.10929917
-0.07762397
-0.48766100
-1.04075587
0.00082389
0.96035296
-0.00033217
0.34040633
0.01281642
1.32554519
-1.36287355
0.15617527
-1.22441804
-0.08793610
1.32431424
0.12634180
0.00127117
0.01486363
1.07438600
0.00420643
0.69996113
-1.26941431
0.00016552
0.01785590
-0.00231473
0.03883883
-0.00501336
0.00331684
0.13553497
0.00079590
-0.00189685
-0.01515126
0.13557239
-0.14483285
0.00079869
-1.16562760
-1.57683051
-0.31909367
-1.20493901
0.00086168
-0.62117046
-0.00129413
-0.82470953
-0.00033727
-0.23383348
0.00028189
-0.64374930
-0.00022459
-1.18181896
0.00337546
-1.12823212
0.14658907
-0.00271053
0.00075328
1.08033419
-1.21864593
0.03846164
0.00306501
0.25742108
0.03388803
-1.32194412
0.07804086
-0.64998066
1.24972773
-0.20802172
0.00090374
0.42311755
0.00024339
-1.23232198
-0.80169654
-0.59623969
-0.24446715
0.08964121
-0.00017509
0.19894548
0.49369133
-0.27688122
-0.91452247
-0.74125665
0.03622300
0.02729176
-0.11194933
-0.02952067
1.04489601
-0.05675194
-1.02378750
-0.07080103
-0.34372419
0.06372182
-0.23942241
0.63820034
0.00253660
-1.25201428
-0.00329389
-0.00129534
-0.02323623
1.07335770
0.00095851
-0.04282735
-0.77658165
-0.00236063
-0.44612062
-0.48938623
-0.38479540
-1.32144928
0.00091535
0.14593397
0.00001242
-0.03706691
0.11282780
1.22253716
0.25318012
-0.23540789
0.00512223
-0.29150257
1.31272876
0.00148423
0.42628494
0.00245851
0.65052158
-0.00080479
-0.03409621
-0.00142087
-1.23742449
0.88769996
-1.10808325
-0.06236985
-0.20137829
-0.31578687
-0.21105139
0.88169611
-0.00257330
0.73663259
0.06980416
0.12443193
-0.96128511
0.63212991
0.39776003
0.00022933
-0.00018843
0.00231212
0.85049748
-0.68017036
-1.29148567
-0.00232480
-0.07152437
-0.12123623
0.78434986
-1.01008904
-0.00380521
0.15133876
0.03917039
-1.16649401
-1.13959181
-0.46992791
-0.01442033
1.15960813
-0.10294586
0.05725176
-1.17686677
0.00150212
0.00023177
-0.00130318
-1.07860458
0.39340633
0.80138063
-0.04548233
-0.84857506
0.00053929
0.00310160
-0.23960048
0.70061231
-0.97594142
-0.76776880
-0.47955540
0.27716872
1.31371832
-0.33241117
0.08910335
0.00100708
1.37228429
-0.11638761
-0.22734419
1.39282238
-0.00035670
1.05820179
-1.14648271
0.00135005
0.12741877
-1.06331074
0.00178947
0.23730953
0.93828678
-0.17511520
-1.00227368
-0.06727725
1.18918407
0.00467730
0.80825675
1.05210769
-0.05325972
-0.40928647
0.70874280
0.00043361
0.09431306
0.02815205
-1.08231986
-0.47589922
-0.00254988
0.12125141
-0.94279009
0.78023851
0.00027319
-0.25587341
-0.00087599
0.07020672
0.00034486
0.21417329
0.52688414
-0.05933004
-0.14587364
0.00236228
-1.22182262
1.39286649
0.04958265
0.57263100
0.00137513
0.37209219
-0.02036647
0.81044143
1.01450312
-0.00085716
0.47156051
0.00028000
0.00073826
-0.37365067
0.03659941
0.72657448
-0.28251347
0.00063349
0.01928412
-0.02081727
0.04099785
-0.94386327
-0.05365222
-0.00083567
0.00124737
0.00077927
0.00227736
-1.02568936
-0.00185588
-0.00116857
1.08547783
1.13868546
0.20135124
-0.00281197
0.00384065
-0.00073362
0.00115936
-0.13999966
0.03801794
-0.35512587
0.56744039
-1.29989612
-1.52308035
0.00026301
-1.38408256
-0.07744631
0.00160029
0.29560384
-0.00005525
-0.57957417
-0.00485515
-1.11878181
-0.06749810
0.79169774
-0.00028796
0.06256650
0.97365767
-1.15051341
-1.10920453
0.10387387
-0.24706055
0.48114780
0.11464426
-0.00293737
-1.15190518
-0.00015510
0.90476298
0.30934572
0.17442790
-0.00053077
0.00608560
0.15602924
-0.08271051
-0.09894931
0.00069653
-0.00160083
-0.00184060
-0.66889262
-1.30574000
0.94298667
0.00276544
0.49259424
0.00002609
-0.00084060
0.22339509
-0.00177434
0.53346485
-1.07280242
-0.12333980
-1.24116671
0.08304895
-0.64183694
-0.05915095
-0.01423733
1.22729254
-0.62073761
1.20822001
-0.04178551
0.00310666
-0.05077936
0.86599582
-0.04817985
-0.00037897
0.37369320
0.58240736
-0.26280302
-0.00249756
-0.00229068
-0.00241739
-0.85920590
0.85174859
0.16113165
-0.73533171
-0.01543541
1.14955366
0.00275746
-0.00026545
-0.11863523
1.02111018
0.47769338
0.28190157
0.00024426
-0.26051980
-0.82046610
0.78801078
-0.00059413
-0.35638282
0.03062617
-0.06543845
-0.70085549
0.18486488
-0.17722182
-0.40615660
0.00042851
-0.01793954
-0.67084080
-0.17439072
-0.00264467
-0.00006402
-1.08254540
0.00039178
-1.10524881
-0.00099394
0.09216203
1.04401040
0.00248308
0.87830830
-1.26461554
-0.02637989
-0.68500435
1.00688481
0.00373099
-0.00119529
-0.09112940
1.09067619
-0.00137852
0.05451275
-0.06437557
-0.00114463
-0.58995205
0.10475007
0.00064682
-0.16592941
0.01834745
0.54149413
-0.00206388
-1.64087975
-0.14006054
0.81569725
0.10382400
0.51286805
1.01653945
0.03126933
1.27564430
-0.12843335
0.15397882
-0.00139666
0.00314021
-0.08791588
-0.00901830
-0.28579745
0.11011419
-0.00055265
0.12125417
-1.05427635
0.18818235
0.66035020
0.00093946
0.78155124
-0.95002091
1.00747895
-0.00117866
0.04882865
1.03080058
0.00016288
-0.24949434
1.04848778
0.00417249
0.96539855
-0.99121219
0.77938902
-0.08946121
-0.62505871
0.07631454
-0.00191118
0.00747473
0.18978028
0.30236390
-0.14653106
-0.00408015
0.00281324
-1.04531121
-1.22589898
0.00006676
-0.34168142
0.28915924
0.00283484
-0.07498504
-0.00476505
0.59654176
-0.03767574
0.81438631
-0.02184576
-0.40398487
1.17660069
0.00292839
-0.00049186
-0.02168388
1.49769628
1.16776490
0.00166974
-0.00627988
0.00057675
-0.00302561
0.00258140
0.00140497
0.73483300
-0.03327252
-0.88862282
-0.00072935
-0.00365841
-0.00048865
-0.00317890
0.00300147
-0.35973930
0.98891389
-0.00061149
0.17354922
0.96519333
1.01064551
0.56528789
-0.74713606
0.19902301
1.16458166
-0.75952548
-0.00670178
0.00058015
-0.05302579
-1.05922759
-1.04231071
0.39417925
-1.57704782
-0.05109363
-1.57194507
1.02836430
0.87008500
-0.87591892
0.07346488
-1.19930387
0.56354988
0.00065748
0.29197332
-0.41958037
-0.05967919
0.67642730
0.16965762
0.30216622
-0.23571439
-0.00096190
-0.71790373
-0.03146802
0.00224544
0.39733732
-0.10518492
1.07897925
0.01863471
-0.81622803
-0.09757636
1.02057195
-0.60531241
0.20846258
-1.17014682
-0.77967387
-0.77516586
-0.95030922
1.40410960
-0.36671185
-0.00115230
-0.13324499
0.00039016
1.13719654
0.45934549
1.74201345
-0.63926727
0.15658754
-0.00218738
-0.00335487
0.00401064
-0.00222688
0.03902329
-0.02156454
-0.85097843
0.97773403
0.78804559
-0.11880396
-0.27102971
-0.23574786
-0.88357365
-0.04296162
-0.00153179
-0.71681255
-0.30842307
-0.02934917
0.86409986
0.00182153
0.05446827
-0.02653505
0.22125943
0.10170795
0.04522768
-1.07713580
0.00159087
0.00227746
1.15977871
0.03721154
0.07389740
0.00304351
-0.34839055
-0.00111685
-0.03939054
-0.84853244
-0.70809370
-0.00221160
1.30401433
-0.46438670
-0.01792349
1.11294794
-1.47765207
0.04282545
-0.03134877
-0.01811809
0.06830812
-0.00054152
-0.02654416
-1.18365753
0.00268526
1.27028382
0.04120567
-0.13169080
0.11540049
-0.58531970
-0.00124511
0.28199390
0.00253112
-0.00216799
-0.14095651
-0.02882048
-0.00066964
0.23035629
0.00111174
0.07145102
1.01094997
-0.01717159
-1.11163473
0.00075460
0.22294649
-0.03836082
0.54433805
-0.00316248
0.01265732
-0.03335444
0.62837625
-0.05195385
-0.96238017
0.02744210
1.32050395
-0.00165654
0.32949066
-0.06591444
-0.34770736
0.00067721
0.15929466
0.00066132
-0.96043932
-0.29898426
-1.26828504
-0.13553660
0.78418112
1.09843004
-1.10222042
-0.00372208
-0.52424848
1.00411284
0.00050835
-1.23414695
-0.99249035
-0.81422943
-0.32934168
-1.28287661
-0.00236961
0.08164114
-0.17360510
0.91524655
1.69444859
-1.41460156
0.83066684
0.75062263
-0.00005529
-0.07951289
0.06336080
0.26700717
0.00250053
0.30788401
-0.37108105
-0.00006704
0.84985924
-0.18208428
0.20566031
0.28125674
-0.01430471
1.22152221
0.13832156
-0.00205505
-0.21343362
-0.29717889
-0.00044621
-0.02358548
0.02473204
-0.01096257
-0.04913419
0.00123745
0.00277615
-1.86980402
-0.00162235
1.04023445
0.00467536
0.56522352
0.13624927
0.00144634
-0.12343217
-0.04339181
-0.00075274
-0.79046202
0.14594199
0.80039871
-0.00195247
0.00511267
0.00033928
0.00432361
-0.28103969
0.53989744
-0.79162544
0.00020017
-0.00110296
1.12183440
0.00128917
-0.00122293
-1.11127210
0.02342007
0.00134793
-0.12072523
1.28444302
-0.32646030
-0.00523744
0.00253971
-0.77039295
-1.04731715
-1.14541054
-0.93788946
0.00018536
0.21670716
-0.51919454
-1.20421529
0.09662934
1.21226823
0.28233719
-0.05484704
-0.57463622
0.00154910
-0.00102902
-0.00124278
0.21739542
-0.00894408
-0.61964393
-0.55753207
0.23933710
0.11955045
0.80227292
-0.00082942
0.00044640
-0.13828461
1.13742244
-0.00016583
0.93501788
-0.00202425
0.00087023
0.24292164
0.00695691
-0.00105016
0.26425639
-0.86260432
-0.35325918
-0.26149967
0.00128152
-0.14904390
-0.08465897
0.61088389
-0.52339476
0.00074094
0.00032222
-0.16821033
-1.06523371
0.00035233
-0.73960280
-0.68372178
-0.00055567
0.08348770
-0.79504651
0.11663966
0.00050030
-0.00050589
-0.00024913
-0.21410431
-0.00002044
0.00326073
0.11846358
-0.96275502
-1.00615215
-0.86531019
0.97845638
-0.38409296
1.26066399
-1.23481655
-0.00039578
1.47637296
0.98858076
0.00106801
-1.16434610
-0.00186674
-0.00182207
-0.73822659
-0.07382035
0.19868398
-1.21100771
0.10955518
0.35229555
-1.02444613
0.00045647
0.11272408
0.42287299
-0.01766621
0.00060578
0.15695339
-0.00291512
0.00148930
0.71125972
-0.46375847
0.63580590
-0.03653945
0.00090606
-1.03594828
-0.15035956
1.18995404
-0.00110542
0.89205873
0.04751902
0.79884678
0.21656099
-0.09310775
-0.00522748
-0.08682173
1.08245993
0.00096629
-0.61639053
0.06535895
0.83303851
0.21592313
1.11647224
0.22414701
0.02700501
-0.02678523
0.86338049
0.00144936
0.00427916
0.45458806
0.00006116
1.32843506
0.31841895
0.70747989
0.37326312
0.00019238
0.21944235
0.00029139
-0.00535236
-0.06299990
0.38272637
0.00018521
0.62172407
-0.67156464
0.00194432
1.30273283
-0.68597376
0.00153564
-0.00242659
-0.81794232
-0.91928750
0.00014799
-0.16187400
0.17298038
0.72508889
0.00080583
-0.00096921
1.37973797
-0.12243880
-1.20179236
1.39411831
0.00255794
0.00025903
0.74746674
-0.13283063
1.28499389
0.00020269
0.00204741
-0.00125373
0.00178450
0.54381597
0.01490297
-0.00121314
-0.12663262
-0.52912807
-0.00061056
-0.96624762
-0.05898865
-0.55463576
0.37041068
0.49250048
-0.18164054
-0.00186758
0.35200194
0.93133068
0.27260187
-0.02942199
-0.18771011
1.33400929
0.60698181
-1.13461435
-0.66984224
-0.24665403
0.00356183
1.33682168
-0.06006793
0.00241386
0.18788601
-0.13988756
-0.23751749
-0.03439317
-0.00359998
0.42261502
-0.39564681
0.01176417
0.57410115
-0.17604713
1.34506476
0.01027424
-0.16828525
0.78734612
-1.18440795
0.88343954
0.81180781
1.10899758
-0.48147976
-0.09851785
-0.00305782
0.38591114
-1.16183138
0.99681145
-1.24132431
-0.05823022
-0.00115861
-0.02405035
-0.02400200
-0.09143816
0.28015175
0.39911470
0.08712532
1.19788063
-0.14582519
1.10814118
0.00085469
-1.81611037
-1.22256351
0.05146735
1.37093985
-0.00321761
-1.07386935
0.06012647
1.09109843
0.00266780
0.92741114
-0.09213419
0.00079231
1.36780560
-0.15863669
-0.06559487
0.03098756
0.00318550
-0.00062500
1.14562297
0.00011205
-0.04374645
-0.00197579
0.54461181
1.23309886
-0.00012312
0.02052957
-0.34908625
-0.18078017
0.00060686
-0.00121565
-0.88144338
1.47766113
-0.91545713
0.31756952
0.00026365
0.67444927
0.74712443
0.00019734
0.00443346
0.00054182
0.19515921
-1.37667120
-0.41016710
0.18328933
1.09387112
-0.00011286
-0.07094934
0.00366068
-0.25183439
0.05750392
-0.00326696
-0.67258674
-1.09395695
0.10694305
-0.00214422
1.07529378
0.01598666
0.00059421
0.02377104
0.04857034
0.00152360
0.00111039
-0.00016815
-0.00197969
0.00364475
0.98676276
-0.62135339
0.00137120
-0.00307191
0.02719806
0.05110458
0.43617839
-0.17623451
-0.00086438
0.49196261
-0.37271994
0.00309220
0.92231029
-1.26604521
0.17001680
0.00126226
0.29582080
0.09951264
-0.74714327
-0.06324096
0.46025804
1.00754094
-1.21844494
0.01394077
0.00027031
-0.11830683
-0.00001466
-1.28997362
-0.62116963
-0.04720748
0.00011277
0.00033688
0.00367551
-1.08132482
-0.13533919
0.39793202
-1.32886243
0.55619806
-0.48149532
-0.00226443
-0.00095363
-0.13782765
-0.90393656
0.00851079
0.22285551
-0.00302282
-0.08306687
0.00221627
0.00418643
-0.00477786
-0.00088084
-1.02922094
-0.67631805
0.00431203
-0.00466268
0.00212447
0.14516768
0.09867352
-1.08964288
0.05762509
0.63782084
-0.05122216
-0.00297419
0.97444868
0.03262400
-1.42987430
0.13565952
0.00212098
1.40169454
0.31096047
0.07921363
-0.61473471
0.64899105
0.81089610
-0.04187982
0.28011435
0.49417076
0.09947755
0.82219195
-0.03622105
0.00066063
-1.17851794
0.00168764
-0.15399759
-0.01730370
-0.69635814
-0.36286187
-0.27598643
0.07904001
0.03303337
-0.00241288
-0.00066701
0.00004954
-0.00013652
0.00100004
-0.23060764
-1.19095445
0.52578378
1.22023463
-0.00359174
-0.00161709
0.46589050
-0.57759553
0.00046422
0.00159090
-0.65513790
-1.10781395
-1.03727973
-0.11504713
-0.47465706
-0.21915758
-0.00307918
0.00200252
-0.78055090
-1.00865042
0.05261647
-0.15327628
-0.54666090
-0.97687244
0.00029492
-0.00574098
-0.00001675
0.29143456
0.14481676
0.07257160
0.00087017
-0.16003047
0.06512123
-0.01114548
0.07184073
0.00040012
-0.28251481
0.00194275
-0.90250057
-0.35301307
-0.83369464
0.00366538
-0.08851801
0.49795410
0.23109753
-0.13924010
-0.67664272
-0.26671010
0.00254318
0.00040589
-0.26890159
0.00001185
-1.05332959
-0.14882018
0.00022109
-1.15214014
-0.65008688
0.00253440
-1.48431277
0.16408151
0.11324161
-0.00169140
-0.05298747
-0.00205802
-0.00272116
0.66890210
-1.26688910
-0.14492460
0.97121865
-1.04272628
0.89049339
-0.61483872
-0.17169426
-0.18647183
0.00091278
-0.00045912
-0.18740790
1.18649888
-1.06952000
0.03011134
0.72492248
-1.27904618
0.59919459
-0.26080993
0.24902983
0.02457123
1.15913260
0.00147480
0.09142751
-0.96893477
1.10168540
-0.51070565
-0.23228244
0.04161315
-0.57378185
0.00070027
0.71097112
0.09002630
0.11503153
-0.00007523
0.83564234
-0.00309006
-0.00254518
0.00830243
-0.97724682
0.11649770
1.17320573
0.00281016
-0.17669916
-0.00485684
-0.06372086
-0.61943817
-0.00075634
-0.18912572
-0.00000688
-0.80971181
-0.03596250
1.33326590
0.00094674
0.00084033
-0.59608018
0.00051183
0.05916373
-0.00082440
0.00316292
-0.15995213
-0.34568790
0.06340995
0.59708011
1.17408502
0.53748268
-0.06038070
-0.00102050
0.00064052
-0.18673657
1.23681557
0.76511252
1.75574589
1.20963919
0.00168155
1.16182506
0.77906460
-0.00167224
1.49874330
-1.09786177
0.92894095
0.45547801
-0.45802915
0.00144483
0.72190374
-1.19144189
-0.71551663
-1.04879534
-0.24987549
0.94128233
1.36439764
-0.28920418
-0.00046967
0.13065292
0.00331772
1.31309354
-1.16649830
-0.00068795
0.00049588
1.09233177
-0.00077867
-1.30021441
-0.35242897
0.06372067
0.23336470
0.04965591
-0.52293450
0.00005706
0.00051422
-1.12594223
-1.38434315
-0.76676089
-0.00179383
-0.00046254
0.00076851
-0.98457074
-0.43174335
1.30345237
0.00246038
-0.73431635
1.20653009
-0.17930809
0.08839109
0.91578031
-0.00084858
-1.40594673
0.00080805
0.26508605
-0.19862954
-0.00164647
-0.00076778
-0.12125833
-0.01851759
-0.04996740
0.07339706
0.00009522
-0.81559676
0.29693276
-1.71707439
0.62619764
1.01939034
0.11769651
0.00105010
0.67484081
-0.53863919
-1.02210605
0.00141562
0.07465288
0.00029722
0.12260119
-0.00145369
-0.00184061
0.92279094
-0.08366930
-0.85999423
0.90588248
-1.21415615
-0.97763926
-0.08568602
-0.93961537
-0.10413719
0.13155401
-1.00492716
-0.21205591
1.09745574
-0.05981553
0.00016582
0.10793771
0.07985109
-1.48570013
-0.00113452
0.11588247
-0.00033086
-0.06695473
0.00108636
0.23219207
0.33381173
0.23417681
-0.98442101
0.89518386
0.00920418
-0.00069040
0.01915976
0.00185781
-1.41751337
-0.09200683
1.09880602
-1.31951833
-1.13802111
-0.01599490
0.40188393
-0.00148844
-0.00053417
0.63555610
-0.00027684
-0.84364903
-0.12404875
1.42349339
-0.21659400
0.38283053
0.00275168
-0.00491991
0.55743563
0.00238944
0.01460484
0.11580690
-0.00241626
-0.08348710
-0.85277587
1.28875518
-0.00161412
1.12937605
0.00158883
-0.00196951
1.65690625
0.00077359
0.36197522
0.08855077
-1.02887726
0.06124263
-0.00142876
0.00052977
-0.07127586
-0.29605976
0.00075392
0.48986730
-0.32576299
-0.06439163
0.04936566
-0.58423036
0.88807702
0.07142818
-0.00369774
-0.00044199
0.08457574
0.11510781
-0.00142273
0.00862860
-1.08845115
-0.05975796
0.00055407
-0.14566639
0.67811507
0.00182303
-0.73252857
-0.00007363
0.20822185
0.61523819
0.14196035
-0.00324000
-0.04093270
0.59674072
0.14491385
-0.16320805
-0.04048955
0.00227704
0.00052820
0.00108458
0.02370190
0.00056637
1.10966980
-0.54359722
-0.00273971
1.00821817
0.71437705
-0.91347271
-0.00004134
0.84339261
-0.28548214
-0.08838262
-1.20164812
1.25972772
-1.06703782
-0.00183653
0.00063207
-0.00065756
-0.15776621
0.38503152
-0.67065960
-0.00320202
1.26835692
0.94467396
-1.23425877
-0.00109047
-0.95367986
-0.03436749
0.34099191
-0.00316433
-0.44479635
-0.00270359
1.19316375
-0.83440208
0.02900642
-0.30584142
0.89593959
-1.15698886
0.66571587
-0.24177919
0.19914348
0.08807605
0.21887851
-1.59380150
-1.11204994
0.67690390
-0.72610980
0.00101931
0.00402370
-0.45251057
-0.23716973
-1.08921421
0.94052804
-0.03283827
0.00048926
-0.14731571
-0.00237973
0.00392191
-1.06580496
-0.88907152
-1.41966665
0.66767216
0.63694340
-0.00735876
-0.20194291
0.08087361
1.30716872
-0.00175709
0.06231895
0.13164969
-1.40576410
-1.01125038
-0.00127762
0.00421242
-0.12067546
-0.07356189
0.01674314
0.00338723
-0.33635321
0.06450490
-0.92554528
0.37372571
1.02916312
-0.37244183
-0.93038750
0.10387716
0.00255515
-0.00391202
-0.11792099
-0.00115953
1.41382957
-1.05119431
0.04038010
0.07940958
0.00187424
-0.00453157
0.77038270
1.11901665
1.06102800
-0.20617229
-0.04985758
0.00116039
-0.48708490
0.00009147
0.00366918
-0.55828309
0.99224240
0.02752516
-0.39423236
-0.26562598
-1.51215219
0.19091120
0.35965136
0.04359848
-0.14500788
1.15301502
0.04702504
-1.31980193
-0.00075561
-0.00396317
0.72492927
-0.03902353
-1.50248253
-0.00198556
-0.04095548
-0.80256158
0.77372122
0.87920815
0.92575097
-1.25620055
0.00157973
-0.00067207
0.05771730
0.15031967
-0.24647588
-1.42610729
-0.01866473
-0.09100752
-0.00158697
-0.00026675
-0.21370736
0.04946831
0.14115004
-0.37328863
-0.21806560
0.00091717
-0.00121578
0.04711948
0.29658493
-1.20467246
0.03102244
0.01779732
0.00397741
0.08162894
-0.16567789
1.21947896
-0.16608459
-0.19758886
-0.00073146
-0.68861884
1.07915783
-0.68857998
0.76477045
0.00378491
0.00130131
-0.04728097
0.13304658
0.06898549
-0.00347312
-1.30268037
0.03807336
-1.33272266
-0.39456028
-0.24620548
-0.00126364
0.18219899
-0.41993615
-0.00208528
-0.06251905
0.16263719
-0.83565438
0.07010967
-0.00108348
-1.21973944
1.05546784
-1.12761748
-0.47505203
0.11080937
0.21426496
0.00259415
-0.24639240
-0.00230583
0.01388313
-0.95893037
0.26464894
0.00012548
-0.03134669
0.00235248
1.63071942
-0.00356292
-0.91657794
0.51583064
1.27528930
0.00149818
-0.37763152
-0.78114223
-1.18454134
-0.00001965
0.31308541
0.52354163
-0.95524168
0.24472302
-0.14615692
-1.43407500
0.03901693
0.00082171
0.95062661
-0.00226964
0.34897676
0.73220217
0.62841493
-0.03842020
0.00020973
1.09117234
-0.00151478
0.00950870
-0.00029974
0.00393959
0.84220159
0.00028999
0.00063730
-0.04065298
-1.12075245
-1.09420013
-1.48053122
0.89035773
0.59351552
0.02384983
-1.47992837
-0.00130603
0.03323470
-0.00315382
0.18666005
0.03787665
0.79688740
1.34185410
-1.47373354
-0.10640502
0.90663546
0.00121813
-0.31877834
0.18173139
-0.81334764
-0.08580184
-0.13916568
-1.11987436
-0.00002433
-1.32509232
0.65440905
-0.55598819
-1.13346922
-0.00119454
0.00488598
-0.85541379
1.17536104
0.00091338
0.90896863
1.27739453
0.83858514
0.02099764
0.54296082
0.73498589
0.58102751
-1.33114862
0.02606422
0.28539962
0.00182546
-1.21179295
0.00142642
0.00101835
-0.00080787
0.79076642
-0.07058281
1.66696727
0.83160806
0.00087032
-0.75577086
0.24227013
-0.00025071
-0.00242102
0.00204855
1.11418462
-1.26316142
0.61881578
0.17747860
-0.00138726
0.09036732
-0.33876628
0.00196773
-0.02172134
-0.83638513
0.92200750
1.33947039
0.32593554
-0.76726162
0.94204372
0.00062074
-0.00027788
0.90995455
-1.02870941
-1.04374278
0.36050069
1.36009574
-1.69267237
0.04082481
0.15458654
-0.08437998
0.03535508
-0.00178928
-0.04527094
0.21124943
0.13027257
-0.95476198
-0.00069563
-0.82543439
-0.00149835
0.87282550
-0.11465157
-0.91536528
-0.16981192
-0.63682407
0.00202660
-0.13341652
0.87803197
0.81500149
-0.00091327
-0.00085139
-1.07672548
0.00094712
-0.00065497
-0.02769524
0.09443541
-0.00008963
-0.08905057
-0.00055420
-0.00130134
1.15371060
-0.00425715
0.00048798
0.68486190
0.02170966
-0.05099547
1.07233310
0.00245240
-0.24507159
0.00070553
0.09279447
-0.73588032
-0.72634238
0.00201749
-0.98122698
0.01252801
0.00157333
-1.02418077
-0.12269653
-0.21108872
0.87270147
0.07296976
1.30148947
-1.03843737
1.56433761
0.00138694
-0.97179502
-1.19752073
-0.70420253
0.00143053
-0.70398843
-1.37409902
0.00006773
-0.00018959
-0.00235865
-0.08593768
-0.09700041
-0.30672526
0.35851437
-1.08327782
-0.72678375
-1.26210403
-0.86280203
-1.24501157
0.94826752
0.08163741
0.10040500
1.35453558
-1.13711834
-0.09549507
0.04806821
0.00430979
-0.00291002
0.15913780
0.01607491
-0.50968838
0.00005209
0.00079613
-0.00510798
-0.67138267
0.00004785
0.50730836
0.00564856
0.00099067
-0.00059989
-0.08890531
-0.57920492
1.26412332
0.00011789
0.55647415
0.00000759
-1.12346804
0.90749270
0.48072532
-0.11471630
0.51129520
0.16258051
-0.35192138
0.74443823
-0.58773774
0.19289385
0.05566933
-0.00136599
0.07224449
0.05825284
0.31469992
0.71023029
0.03095521
-0.12259314
-0.00044402
0.00034073
-0.12707403
0.39029190
0.00189072
-0.78198439
-0.00197303
-0.03732577
1.04250932
-0.00280674
0.00045495
-0.00080324
1.04139292
1.12734067
-0.00275866
-0.22244236
-0.17141052
-1.51506603
-0.00120680
0.17151520
0.12386563
0.00102132
0.91563052
0.18989873
-0.05448135
-0.04948166
0.24048875
0.16365336
0.05691909
-0.00378608
0.02034699
-0.39284748
0.75536251
0.44244277
-0.03539268
-0.28356078
-1.55679011
-0.14003375
0.00087723
0.17329274
0.00000935
0.00110388
0.00378620
-0.00175953
-0.08932741
0.62916678
0.58059150
0.00168844
-0.00021714
0.00039923
0.26453543
-1.42008829
0.22111672
0.00145363
0.00010008
-0.01494630
-1.50809717
0.14494736
-0.97008538
0.09673305
-1.02842486
0.48889101
-0.26355737
0.33526602
-0.27278525
1.10167658
-1.44123793
-0.46140623
-0.75812405
0.00313738
-0.02299833
0.00381207
-0.02042814
0.00020477
0.27121681
0.25263181
0.00181610
-0.20734346
0.00334666
0.49115661
0.00046704
0.00126082
-1.31331193
0.39991951
1.25363553
1.22142422
0.12645690
0.00309014
1.12458742
-0.10656737
0.00058651
-0.12863988
-0.91761488
0.56596649
1.24647546
-0.17512393
-0.31146914
0.09153033
-0.00114308
-0.00176005
0.00039361
-0.86333364
-0.00165604
-1.06701136
0.88264751
-0.00176610
-0.11235619
0.22785300
0.71780556
0.93875855
-0.00479792
-0.02927223
-0.00265993
0.22452448
-0.00066891
0.14844099
-0.00078171
-0.00082524
-0.12233391
0.00300275
1.44551206
1.42379975
0.77061319
-0.67584711
0.92401248
-0.00238432
-0.00108403
1.12127686
-0.20729946
0.00344444
-1.17355537
0.00010409
1.35202801
0.73342466
0.06002733
1.79825318
0.00273453
-1.03970242
-0.43017754
0.01241137
-1.34307802
0.00138589
0.37625599
0.04154233
-0.30029699
-0.25862572
-1.38698328
0.00509849
-1.13274038
0.35931110
0.27973446
0.00003515
-1.17443097
-0.75870144
0.00032535
0.00125445
0.03849790
1.23892164
-0.94989115
0.00003406
-0.93596888
0.00179170
-0.04529006
0.00258720
0.00187980
0.15506445
0.63752937
1.48296463
1.24696624
0.00086821
-0.00520466
0.02487964
-0.81041652
1.29444766
0.22578387
0.34659770
0.08539721
-1.50815368
0.00092355
0.42134857
0.00388410
0.05620075
1.15133095
0.00041409
0.12304132
1.43028367
-0.11781212
0.55070353
-0.31686676
0.23766205
0.30965835
0.05134372
0.00016092
-0.72153074
-1.35350263
-0.31509820
0.16066848
0.76526457
1.23216414
-0.05818114
-1.07796168
-0.54084575
-0.00029045
0.74430114
0.68524635
0.61992985
0.06711166
-0.00136205
0.00085103
-1.87537396
-0.97404331
0.68673027
-0.10766596
0.23325457
0.10729049
0.11366709
1.45716274
-0.90057117
0.00107835
-0.00201759
-0.00173890
0.48140654
0.12259631
-0.00165002
-0.75863701
-0.00234657
-0.00318504
-1.28896320
0.00137384
-1.28498673
-0.00177941
0.12997182
0.00223715
-0.20758107
-0.56296670
-0.00087235
-0.05849518
-0.15803325
0.00319125
0.09641079
-0.00185862
-0.00170316
0.11286436
-1.31639683
0.74141741
-1.12363863
0.04711064
0.00003188
-0.00366256
-0.15893318
1.64065289
-0.31711960
0.00160428
-0.00315683
0.13316306
-0.00078456
0.00052448
0.00211401
0.96921188
0.01308930
1.15339828
0.66251379
0.07209863
0.00025774
0.01019399
-1.65934908
-0.10783065
-0.34199852
-0.13719355
-0.62598145
0.46838591
-0.95208353
0.76468372
0.10277524
0.00097043
0.01572539
0.57152557
-0.00417430
-0.49275964
-1.02452314
0.01163738
-0.65495950
-1.01371205
0.00165747
1.00454867
-0.79333603
0.96090651
-0.76708007
-0.71029794
-0.00092283
0.16499616
-0.03162798
-0.05786033
0.43384600
-0.00169823
-0.00432703
0.00176613
0.53330719
-1.18308294
0.40161839
0.53944564
0.00171849
0.30129060
0.04112370
-0.86892319
0.83781064
0.27445251
-0.00263219
0.53619099
-0.05275318
1.27856219
0.39377990
0.00084091
0.85951674
1.20340860
-0.01993502
0.00083091
-1.51702535
0.00482486
-0.06081958
-0.05924727
-0.19994110
-0.00145390
-0.00011688
-1.45432568
0.76560414
-0.54150665
-1.30355704
1.33888412
1.10905969
0.00340626
-0.02226516
0.09386802
-0.34654555
-1.51575851
-1.15870869
-0.05895479
0.40603152
0.05872048
0.00752665
-0.00143787
-0.00880247
0.75123709
-1.36412311
1.34492397
0.00118296
0.00374584
0.14953290
-0.02307009
0.10086794
-0.10886817
-0.00143515
0.00222407
0.02353922
-0.00046127
0.92422009
-0.12612547
0.32548499
-0.63649410
-0.28162864
-0.85748714
0.86008382
-0.63193375
0.00088069
0.00694748
-0.17749262
-0.16769023
0.23539032
-0.00221182
0.13779654
0.17313112
1.13671684
0.00196414
-0.00157999
0.74544603
0.06262396
-0.73693854
0.00415513
0.00229687
0.36053276
-0.25543544
-0.94322252
-0.00061426
0.01185706
-0.08143429
-0.00106453
-1.33755839
-0.00420326
-0.76910347
-0.02084844
-1.64971757
-0.26583698
-0.04769856
-0.00282384
-0.11794787
-1.04729068
0.12914830
0.00169013
0.00040180
0.12547517
0.00063201
0.58403891
-0.59050381
-0.00155586
0.31534967
0.00237339
-0.06489701
-0.00000917
0.89840692
-0.80693161
-0.00302882
-0.01417618
-0.40658122
0.00090498
-1.19285941
-0.75565332
-0.28558227
0.00054092
-1.42090833
0.89489698
-0.98898375
0.26839316
0.36553967
0.82050699
0.66579604
-0.67668545
-0.00302675
0.22826706
-0.00430000
0.91380978
-0.97889793
-0.40611058
0.07646146
1.01702702
1.43660390
-0.04714354
0.00008832
-0.00685128
0.00172426
-1.14013255
-0.15237072
0.00100224
-0.00274490
0.00015496
-0.59862709
0.00047190
-0.00119426
-0.25687242
0.00355656
-0.00110699
-1.95479107
-1.10770977
0.03017685
0.00095696
0.94930464
-0.00220036
0.53710568
0.58281851
-0.45368442
-0.00262143
0.11956885
0.00292836
0.98151058
-0.04422724
0.17023122
-1.37310207
-0.23275200
-0.00038175
0.05463418
1.04412246
0.27787524
0.00324249
-0.03527125
0.06126302
0.00229214
-0.24634938
-0.79408681
-0.00043579
-0.15020953
0.00281379
0.10792558
-0.09718297
0.04442908
-0.21150768
0.72863990
-0.69405943
-0.00011480
0.00199661
0.23843271
-0.02957731
0.04179873
0.43648052
0.03157310
-0.17789260
-1.86213410
-0.61088336
-0.01960580
-0.72426206
-1.44405079
-0.07030816
-1.70495319
-0.06506374
0.01453565
-0.00260905
-0.00138773
0.00099847
-0.11501649
1.03225315
-0.15283054
-0.41539994
-0.35369688
1.29874682
-0.97403979
-0.73695546
-0.08940559
-0.00230099
-0.87425935
0.20452222
-0.00385054
-0.05976124
0.00006633
-1.26497006
1.63540602
-0.77548933
0.93516397
0.35225329
-0.00127060
0.06125076
0.00040835
-1.36925125
1.66726899
-0.36441416
1.46711624
-0.15974990
0.00157750
1.44379044
-0.65865469
0.40712133
0.00246645
0.00060571
-0.89231378
-0.27761188
0.21197209
-1.13043189
0.81377733
0.15463717
-0.00116767
-0.51298094
-0.71070439
-0.00365941
1.01201057
0.41376460
-0.12842438
0.42665070
0.00089587
-0.05698852
-0.99886119
-0.00075661
-1.27535617
-0.21780482
0.80359155
0.00115892
0.00209561
-0.54839635
-0.61397129
-0.13742654
0.87357897
-0.08720860
-0.15578617
-0.93217486
-0.23684801
-0.00038861
1.22411120
0.00098498
-0.04564507
0.02701611
0.02694197
0.00679095
-0.00167350
-0.16943897
0.76543450
-0.26570857
-0.87453836
-0.05557669
0.10600816
0.04742375
0.00215826
-0.73295546
-0.06734896
-0.00087301
1.12338912
-1.50240076
0.15401275
-0.07480590
0.00120085
0.00297373
0.05507060
-0.05956518
-0.00162698
0.46222270
-0.30071074
-1.13786459
0.02382191
0.00174281
0.41504538
0.51139390
0.01717973
0.13841671
0.00098796
0.92371589
0.25266445
0.15303877
-0.83719766
0.00283328
-0.00281841
-0.21360061
-0.00583875
-1.21342373
-0.68141669
-1.05310202
1.18136668
-0.29469651
1.04735637
-0.00279787
-0.00223567
0.01060988
0.40014333
-0.00266464
-0.99919891
-0.64128667
1.00161982
-0.01215313
-1.36107469
0.15383938
0.20062755
0.21014906
-0.92665869
-0.06402169
-0.00038120
-1.08418882
-0.07749162
0.15327577
-0.63968283
1.14352489
-0.10479549
-1.00642109
0.05275137
0.62914556
-1.17991185
-0.09641853
-1.57629573
-0.09182462
-0.00310143
-0.79793859
0.00131006
0.74231881
0.00135694
-1.47364390
-0.03768238
0.74812901
-0.00697824
-0.56358635
-0.00252401
0.01342339
-1.18676102
0.00040608
-0.69753164
-0.41574776
-0.34597656
0.54367542
-0.00445066
0.03779885
0.15923613
0.72912920
-0.32382503
0.00149106
-0.05550071
-0.89597899
0.00058274
1.25388992
-1.43535709
0.00043803
-0.09959422
0.00115154
-0.52915084
-0.08675272
-0.47937548
-0.84987354
0.07526450
1.00284493
-0.00109649
0.97583973
-1.58828092
0.00119455
0.00240468
-0.00305722
1.20861447
-0.00276494
0.01191396
0.01740315
-0.12148432
0.63979340
-0.40427202
-0.13707258
-0.76940703
0.00467245
-0.00105577
0.00131832
-0.00138994
1.48792279
1.25743282
0.00048224
0.00112300
-0.00371654
-0.00125906
0.26123849
-0.00003338
0.00060487
-0.25785956
0.75070566
-0.41250572
0.68728524
-0.04108625
0.00316055
-0.02803524
0.00055619
1.55839157
0.03684848
0.07864638
0.93263102
0.00059989
1.65649390
1.18892407
-0.00320648
0.00000755
-0.00000886
-0.02052118
0.85839283
1.55289245
0.00107897
0.94258279
-0.82671708
0.32676610
0.00032190
-0.46541446
-0.44263500
0.20799273
0.00124585
0.00260106
0.82921046
0.64873528
-0.96246147
-0.00095267
1.13766789
0.00367446
0.07202209
0.71484184
0.88509369
0.00581797
-0.64763820
-0.09941161
0.10151507
-1.09242320
1.08552122
1.00036371
0.52687323
1.20170724
1.27337670
0.01454167
-0.07403090
-0.71426159
0.27575013
0.00177848
-0.87106329
-0.22787882
-1.15167224
0.20562784
-0.92607307
0.99020332
-0.78312969
0.00214951
-0.07861447
0.06500526
0.42485982
0.22788289
-0.92336047
0.00235096
-1.24269283
0.00152111
0.69668388
0.28909642
-0.89881343
-0.89488602
0.65553004
-0.00121832
1.07157433
0.95920014
-0.09344180
0.00066123
1.77269256
1.22499788
1.29461050
0.20403348
0.00419120
-0.36583021
-0.12977991
0.00146628
0.00149784
-1.04788709
0.02082476
-0.20452940
-0.38703731
-0.00074971
0.00201741
0.00327743
0.03232288
0.00175129
-0.22968377
0.11384194
-0.61480230
0.02393434
-0.10804535
0.10753614
-0.26206720
0.00705485
1.56468081
-0.26431435
0.00187004
0.80182797
0.00125031
0.08123579
-0.11284482
-0.28529188
0.10540900
0.21059139
0.31459770
-0.00495509
0.00196722
-0.18333365
-0.00163655
-0.00071164
-0.06645242
0.02684995
0.00067361
-0.06638038
-0.36077091
0.00314507
0.56302214
-0.00040661
0.09667814
-1.36783910
-1.51535332
0.83221436
-0.02223432
-1.01940370
0.37761617
-1.45318246
-0.14232478
-1.18783760
0.00192092
-0.14441514
-0.25378147
0.00100104
0.00293352
0.76055413
0.00186806
0.12801829
0.00160532
0.00039887
-1.24611342
-0.43896291
0.05824970
-0.91914678
1.00432503
0.56931090
-0.98424459
-0.08607177
0.00021129
-0.00173121
-1.20440710
1.36663151
0.05882483
-0.00837559
-0.91663027
-0.12371491
0.08355079
0.00072970
-0.00188782
-0.08005813
-0.37632143
-1.02067840
-0.07681770
-0.00266208
1.48194563
0.00131898
-1.01496756
-0.00106507
1.39389920
-0.00196658
-0.01799015
-0.02463170
0.26354560
-0.08300519
0.06720258
0.77823359
-0.00146900
-0.69897676
-0.48371074
0.09693362
-0.00064493
-0.00335622
-0.00119247
0.58045036
-0.18947607
-1.19307184
0.00071477
-0.42735371
0.36911055
1.00581431
-0.17722863
0.65280205
-0.00129142
0.00220158
-0.06093754
-1.71968269
0.00185457
0.36756465
0.70927864
-0.10204514
0.02805955
0.06104634
0.00058082
-0.13246337
-0.84414929
0.32406443
0.91311520
-0.41527867
0.00105006
-0.28997073
0.00169746
-0.00129457
-1.54655409
0.81005108
-1.41560566
0.45254740
1.27169585
0.01984998
-0.00018182
0.23476140
0.83131373
0.17994848
-0.73500812
0.00115908
0.00131372
0.61038363
-0.51552439
-0.95326388
0.57428908
-0.00089966
-0.97258526
-0.00242742
-0.04728103
0.00021525
-0.00451757
-0.81972617
-0.02083383
-0.10646569
-1.48149526
-0.12457959
1.18086195
-0.00933674
-0.00313719
1.23588586
1.48723245
0.61984020
0.39586723
0.79301757
0.61248100
0.00441156
-0.11626469
-0.05303745
-0.03784659
-0.00118958
1.44146121
0.93586403
-1.00691307
-0.54874569
1.21896482
0.77021509
0.33741251
-0.00062704
0.00027853
0.05870407
0.08292314
-0.27716187
0.21084213
0.08376979
-0.32457757
1.24216771
-0.39300287
0.08880030
0.41334286
1.06489444
-0.11016025
-0.00000705
0.12865244
0.50687772
-0.00310038
-0.98326951
-0.07695699
0.00010049
-0.71539092
0.10803057
0.98307753
-1.49932182
0.00068645
0.08660946
0.01143382
0.00035509
0.41099599
0.57738096
-0.21830177
0.03171632
-0.00114413
-0.00099321
0.06829658
0.13554040
0.00050772
0.03952543
0.00117229
0.01565377
-0.00054656
1.14777279
-0.94183671
0.00231661
1.25188208
0.00329254
-0.33070150
0.31776631
0.13774632
-1.04736555
0.00183253
-0.00422683
-0.31233257
-0.00182428
0.92979777
-0.84108055
-0.11957157
0.50367111
-0.94540983
0.00054120
0.04773881
0.07087743
0.00032072
-0.00154392
0.00115375
0.92834902
-0.76379937
0.27185228
0.20849663
1.15227354
-1.00364447
-0.52376068
0.08912809
-0.00278857
-0.61277783
-0.38585383
0.09409092
0.00139212
-0.69211215
0.00044588
0.39497495
-0.73349100
-0.00315348
0.39112833
1.06054795
0.00177811
0.00090062
0.05811397
-0.00176783
1.03862214
-1.77006626
-0.00650884
-0.40881944
-0.35932040
-0.24332295
-1.74394965
-0.01693979
0.05985777
-0.00249429
0.42797112
-0.10910539
0.64000833
-0.09236003
-0.22452249
-0.00109343
-0.06790244
0.99643356
0.00247190
0.19901606
0.00354273
-0.09119142
-0.00255618
-0.00027420
-0.00230834
0.04850899
0.93636274
0.09586024
0.00066432
-0.87429225
0.44741026
0.00081952
-0.00145887
-0.00091500
-1.25740325
-0.38167411
0.65487421
1.06918979
-0.02742625
1.75751436
-0.74572021
-0.05627206
0.33184975
1.30996895
-0.07156057
0.00047711
0.00022788
-0.00273103
0.00242935
1.00958431
0.31032589
-0.02274847
-0.00147258
-0.11048654
-0.06461490
-1.60352635
-0.33829066
0.12221102
-1.01254380
0.88874435
-1.21289992
1.03785157
-0.86394960
-0.12915641
0.00198475
0.42505229
-0.00275778
0.00255226
-0.29016802
1.45555758
-0.48641813
0.00377712
-0.79401463
-0.07432784
0.12712704
-1.08329940
-0.00039361
0.60752606
-0.25920555
0.00266567
0.57734960
0.03429987
-1.10878098
-0.23544186
-0.45817128
0.77162099
-0.08767679
1.21810961
0.00056874
0.03415084
0.58782816
0.09618349
-1.34799182
-1.13247824
-0.93282485
-0.21432804
0.04315246
-0.56562310
0.30616561
0.00210579
-0.00383542
-0.09020042
0.03375014
0.22786675
-0.05430096
0.00139869
-0.46672314
-0.10650227
0.00347424
-1.06993401
-0.00116683
0.00136601
-1.20787728
0.52704412
0.00636176
-0.26371101
0.00013772
-0.08162848
-0.06615350
-0.00021115
-0.77484775
0.87506080
-1.34254408
1.12794137
1.15751493
0.13435076
-0.20313175
-0.94031674
-0.10433151
0.22812322
-0.00221010
-0.23730290
0.47283483
0.93340498
-0.41640782
-0.73083889
-0.00106240
-0.00182476
0.90277785
-0.00070523
0.06879900
0.09871043
-0.57262689
0.38723066
1.26756847
-0.00017869
-0.80827910
-0.03252216
-0.35709384
-0.00243229
1.30443823
-0.00325758
-0.67597252
0.00139093
-1.06218529
0.00145295
-0.01889080
0.73227334
-1.10322320
0.67180812
-0.00948534
-0.45295537
0.88139784
-0.55553341
-0.05888141
-1.00327301
0.58769494
-0.13557464
1.25925279
-0.00024312
-0.00147192
-0.97325552
1.35030043
-0.60433638
-0.55900145
-1.12963879
0.00018716
-0.00312499
-0.00108559
1.59720087
0.16284829
-0.05502766
0.05948537
0.00184015
0.85434890
-1.16083038
-0.00078202
0.70648259
1.52866936
1.24454260
-0.60414225
-0.07239825
-1.29941261
-0.00216250
-1.06461811
-0.00035593
0.00214851
0.09573187
-1.11932397
0.70938897
0.39374909
-1.18802452
-0.08933266
1.32771289
-1.21462989
-0.00418019
-0.01667827
-0.86232013
-0.29606831
-0.88284957
-0.00233926
1.31146526
0.28349787
0.04712191
0.62625551
0.15927623
1.11321878
-0.00007906
-0.05374919
-0.18538618
0.10967474
-0.00196774
-1.00390422
0.07716094
-0.93962431
1.28441405
0.95303404
0.20134266
1.50834465
0.00227285
-0.27701339
0.11276381
1.04704773
0.43346688
-0.10619827
0.06091322
0.99687618
1.30299473
-0.22287861
-0.61839682
0.88594663
0.01874766
0.08764038
-0.16787197
0.79599202
0.00099379
0.94983864
0.00345671
-0.00217553
0.00088135
-0.31635210
-0.92109931
-1.05461133
0.00530794
-0.86634821
-1.33022606
0.12198004
-0.06920315
0.06687964
-0.35053715
0.00045229
0.12903500
0.06190992
-0.00174649
0.16537844
0.09686894
-1.04876435
0.85910910
-0.00061685
0.51867658
-0.01184051
-0.25596383
-0.00115702
-0.14991973
-0.55083251
-0.66489255
1.17337143
1.08453357
-0.79734778
-0.50342965
0.79717040
1.18976653
0.68501258
0.00468214
0.03933013
0.22255979
-0.07734900
-0.76420516
-1.17990887
-0.00282927
1.26390481
0.45315877
-1.36513937
-1.09832168
-0.00328893
0.10258023
-0.56925774
-0.19703177
-0.00236353
0.01900893
-0.00163928
0.14981875
-0.80825973
0.00090982
-0.55515271
0.00347230
0.16632552
0.37984496
0.00057861
-0.00164613
-0.00035738
-0.00170036
-1.43931055
-0.04781868
-0.17757849
-0.00093850
-0.55965471
-0.60309798
0.00139459
0.90331644
-0.82733089
-0.00307267
0.92836326
0.02046316
-0.00100658
0.00154286
-1.47797716
0.00176804
-0.20719375
0.05127098
0.03531657
0.03633609
0.00051381
-1.12317061
0.42072505
-1.18482196
-0.00221792
-0.94573462
1.37167227
-0.00035087
-1.13366604
0.05664049
0.28373039
0.06995866
1.61643064
-0.07555026
0.00130664
0.20279428
0.69883358
-0.77568620
1.07889545
1.43302310
0.00078648
-0.14204825
-0.00310388
-0.21034330
-0.14878541
1.20073974
1.47858894
-0.00489449
-0.00000628
0.07428665
-0.53275406
-0.37828809
-0.00205510
0.00153100
-0.17849468
-0.00213190
0.17328306
0.00134500
0.00000406
0.90930402
-1.08693957
-0.71955931
0.00023619
0.34626171
0.84551352
0.10046633
0.00067009
0.00013658
-0.09023979
0.14607340
-0.19102657
-1.50339293
-0.01110717
0.12525064
-1.23202622
0.00176848
0.35259053
0.00136885
-0.00722819
-0.00218850
0.00252854
-1.75544107
0.05518159
0.00300990
1.47952783
-0.31329975
0.85861886
-1.32400155
0.10021877
-1.41930366
-0.07060914
0.00252498
-1.25968504
0.14011326
0.00159540
0.06586151
0.48535836
0.20558804
-1.32421851
-0.34391597
-0.00070019
0.00009175
-0.58252746
-0.80807209
-0.00026158
0.00029165
0.00014868
0.17074201
0.83322400
-1.35212433
-0.22827743
-0.00764958
1.04102790
-0.04171940
-0.08364974
0.28654751
-0.10296132
-0.24998648
-0.08730386
-0.03259616
0.00132735
-0.51702434
-1.14343905
-0.07834480
-0.70120531
0.23319928
-0.00181922
-0.00082682
0.00449683
-0.48775750
-0.08269846
0.85482639
-0.04953204
0.23952685
1.27570724
0.01906265
-0.00261353
-0.00060203
0.02267691
0.71377128
-0.49289295
-0.03478700
0.00326972
1.05293572
1.19554543
-0.71900183
0.00101850
-1.02624846
0.00144645
-1.12798345
-0.00032376
0.29015964
0.07909203
-0.14359696
-0.00039337
0.00026717
-0.00101066
-0.38157579
0.53702629
-0.00114010
-0.00054409
-1.16893888
0.00210247
1.53018248
-0.13944520
-0.08352040
0.00135927
-0.06880084
-0.70236468
-1.35639489
-0.84077716
0.83698803
1.03396475
0.38898510
1.07614291
0.00012495
0.40421778
-1.11907899
-0.48673847
0.00079579
-1.45531464
-0.72470105
0.00030656
0.36784026
-0.09616636
-0.34148395
-0.05539997
-0.28805462
-1.22102630
-0.36022305
0.89456648
1.70220494
0.88931936
0.00083522
-0.00219241
-0.17048737
-0.01705717
-0.24597673
-0.07213986
0.82194984
0.13947260
-0.19898160
-0.95815641
-0.84558332
0.15120628
0.12385041
0.08951365
-0.78843218
0.00267513
-0.21173280
-0.01224863
-0.09687545
0.38808447
0.11783295
1.22923338
0.86674440
1.12440193
-0.32025507
-0.00071725
-0.02796807
0.00239163
0.03659211
0.17912580
0.91247743
0.55265564
0.17809182
-0.77530277
-0.83790678
0.47708747
0.79015499
-1.18276691
-0.41439983
-0.77049595
1.43409431
0.20560826
0.36702403
0.03902648
-0.62273800
0.00404436
-1.15815496
-0.83253604
