-0.00002792
-0.00273166
0.15037471
0.00977170
0.05414780
-0.04169117
-0.00109175
0.00642249
0.00024000
-0.00006313
-0.02620607
-0.00095681
-0.00003131
-0.01756512
0.00556019
0.00788226
-0.00651084
-0.00028371
-0.00912766
0.00400440
0.10620338
0.01617387
0.00029847
0.00005313
0.00037218
0.00581001
0.00190162
0.01939245
-0.00908482
-0.02732863
-0.00859201
-0.01182644
0.03311394
0.00055215
0.00174780
0.00784881
-0.01350078
0.06234240
0.00470212
0.00179754
0.00934477
-0.00321807
0.00641095
0.00961964
0.00741362
-0.00453593
0.09604996
0.00138516
-0.00001885
0.00892648
0.00114457
-0.00247456
-0.13666829
0.00176053
0.01894805
0.00523863
0.00202621
0.00306703
-0.00022494
0.00053442
0.02441771
0.01630329
0.01693321
0.00641143
0.00680075
0.00751500
-0.00029407
-0.00054393
0.03536669
0.02659575
-0.00072930
0.06634632
0.00082013
0.00472050
-0.02956309
-0.00465606
0.00496075
-0.07160946
0.00082996
-0.00162670
0.01008718
0.00308676
-0.00510740
-0.08918199
0.02074731
-0.00027432
-0.00036707
-0.00228050
0.25944138
0.23215467
0.00953872
-0.00516139
0.00151769
-0.00495563
-0.00025415
0.00199634
-0.03259593
-0.02144393
-0.00074815
0.00062844
0.01901069
-0.00349661
-0.00064032
-0.04944810
-0.00156575
0.00185959
0.00392152
-0.02318865
0.14559051
-0.00116269
-0.00505199
-0.11291987
0.05801651
0.01845584
0.01711596
0.02070957
-0.08659203
-0.02400549
0.07162672
0.01445351
0.00560438
-0.08535301
0.00065969
0.00693925
-0.01528484
0.01249174
-0.00300847
-0.00459558
-0.00949899
0.21243770
0.00420997
0.01641256
0.00000318
-0.00997676
0.00149797
-0.00023178
0.00294080
-0.00071815
0.00153288
-0.00051133
0.00508425
-0.00649065
0.00752348
0.00277109
-0.00619837
0.02913503
-0.00481838
0.01418770
-0.00985515
0.00054178
-0.00002035
0.00972362
0.00323323
-0.01958131
-0.02901254
0.00769697
-0.03433188
0.00628276
0.16620491
-0.02200328
0.00076801
-0.00561990
-0.00677203
-0.01167167
-0.00052031
-0.00247472
0.00352859
0.00115174
0.00920366
-0.00147529
-0.00053254
-0.06681423
-0.00147665
-0.01370946
-0.00138486
0.03561452
0.12496576
-0.02054433
0.00141911
0.01453410
0.00102800
-0.01101450
-0.00171202
-0.00531639
0.00592530
-0.03900636
0.00109867
-0.00169298
0.06189963
0.03537740
-0.00237124
-0.01146069
-0.00082160
-0.03378401
-0.00050533
0.00681275
1.49750888
0.01627834
-0.00051043
0.01046649
0.00077003
0.00270047
0.00804563
0.00214709
-0.01385518
-0.00039649
-0.00636850
-0.00338696
1.43670404
-0.00869876
-0.00042940
0.00833246
0.00424252
-0.00168415
-0.00212003
-0.00021027
0.03461650
-0.01963742
0.00535252
-0.00368513
0.08074282
-0.18184222
0.00052604
-0.00077636
-0.00358233
-0.00023562
0.00178097
-0.00036436
-0.00784002
0.04084351
0.00328012
-0.00265138
0.00063624
0.00855558
-0.00401954
0.02349663
0.00261124
0.02104181
0.00775742
-0.00827994
-0.06880841
-0.00150089
0.00794110
-0.00040489
-0.01487522
-0.00623626
-0.03305080
-0.00221723
0.01713586
0.00278150
0.00293275
0.00028941
-0.01121627
-0.00061107
0.00003313
-0.03696983
0.03954446
0.01163525
-0.01889997
0.00062812
0.00202602
-0.00305065
-0.02584977
0.00025824
0.00055337
-0.01078114
-0.00525609
-0.00074430
0.00097347
-0.01084551
0.05008992
0.01839995
0.00034069
0.02578740
0.00424480
1.38025653
0.00331536
0.00046352
0.00253477
0.01052817
0.00186173
0.08154324
0.00386512
0.06689902
-0.01087620
-0.00524586
0.00391423
0.00070050
-0.00876540
0.03177646
-0.04900019
-0.00204451
0.01044658
0.00978028
-0.00168243
0.00023028
0.02430343
0.01151622
-0.02212653
0.05667361
-0.02639459
0.01674695
0.01564550
1.62647223
-0.00806508
0.03157127
-0.00224245
-0.01068818
-0.00371118
0.00200615
0.00388507
0.02224025
0.00559149
0.04274233
-0.00709860
0.01601626
0.01912075
-0.01180055
-0.06917831
0.00960528
-0.00514628
0.01932428
0.02618664
-0.00120776
-0.01282595
0.00025759
0.05591911
0.00636115
0.00044878
0.01327030
0.00989949
0.10531574
0.00018791
-0.00120385
0.01548227
0.00351376
-0.05489855
0.01089577
-0.04687067
0.00841304
-0.00062431
-0.00072049
0.00098268
0.00088060
-0.03829909
0.06089042
0.00052057
0.00024106
-0.00001994
-0.00156187
-0.04442646
0.13872232
0.00409705
0.00134938
-0.00127028
0.00621136
0.00579097
0.00239735
-0.00128576
0.00106255
0.01303522
0.01484743
-0.00214441
0.01334756
0.01384343
-0.03094777
-0.07013129
0.00245731
0.00922418
0.00128409
-0.06152724
-0.01331661
0.00025889
-0.00365992
-0.00130865
0.00123796
-0.00021132
-0.00040977
0.00327384
0.00312425
0.05560992
-0.01183318
0.00012536
0.00232378
0.01993493
-0.00006422
-0.02972756
0.01477793
0.00070848
-0.00042153
0.00035061
-0.00155269
0.01470558
0.10367841
-0.00005074
0.00958818
-0.00012434
-0.01312568
0.01040753
0.00175866
0.01323008
0.00272297
0.00039498
-0.00007833
-0.00025837
0.00114047
0.00001151
0.01005526
-0.00010034
-0.07496873
0.06399681
0.01394087
0.00555915
0.00136523
0.00062499
0.06040755
-0.01672700
0.00024794
0.00272143
0.06477685
0.00031992
0.03414003
0.00439239
-0.00838953
0.00968159
-0.00202852
0.00015592
-0.00286932
-0.00017328
0.00103440
0.00407778
-0.02297790
-0.00240171
0.04006146
0.00072466
0.01230197
-0.00000792
0.00093981
-0.01860476
-0.00409152
0.00882579
0.08265980
-0.00046326
0.31904206
0.02846624
-0.00204399
-0.06374409
0.09037942
0.02883206
0.00177575
0.00309889
-0.00163732
0.00859598
-0.00571030
0.00903860
-0.01070652
-0.02734522
-0.03447687
0.01160769
-0.00035488
-0.00032005
0.00006609
-0.00205274
0.06984096
-0.00609564
-0.00926286
0.08900467
-0.03812515
0.00127161
0.00373439
0.00115068
0.01022568
-0.00295265
-0.00935263
0.00891311
0.00031381
0.00024296
-0.00675547
-0.03143027
0.01296733
0.00768062
0.00016916
1.11339092
-0.00040655
-0.00261413
0.00475381
-0.00197054
-0.00003374
0.02325439
0.03645328
-0.00853344
0.00530340
0.00363396
-0.00759342
-0.01355592
-0.00005741
0.03946323
-0.00346830
-0.00247707
0.00132778
-0.00499607
0.04888825
0.00777824
0.00217276
-0.01768987
0.00594495
0.02643474
0.00049690
0.01528294
0.00105224
0.05253227
-0.00055152
-0.00113668
0.00287097
-0.00082630
0.00211663
0.01277640
-0.04424328
0.30214640
0.00453716
0.00019158
-0.00025235
0.06367856
0.00411046
-0.00005588
-0.02793256
0.00155833
0.00057908
-0.00006319
0.01116289
-0.00443294
0.04649545
-0.00115709
0.00350488
-0.00255628
0.00212979
0.03705485
-0.00143225
-0.04379234
0.00085628
-0.00550970
0.00067319
0.00116802
0.00045735
0.00471510
0.00208376
0.00411757
-0.00063941
0.05912747
-0.00735732
-0.11321278
0.01121379
-0.00114096
-0.00251679
0.00493733
0.00182056
-0.13442768
-0.00101849
0.02726972
-0.00697511
0.00536238
0.02387197
-0.01223240
-0.00304178
-0.00180732
0.00079734
0.00097025
-0.00064864
0.00625758
0.00112141
-0.00754880
-0.02196487
-0.00075068
-0.00699728
0.01393771
0.00323449
0.01933695
0.00960905
0.01675597
0.10262681
0.00018323
0.02432911
0.07078186
0.01571578
0.01658383
0.00763415
-0.04274305
-0.01018797
-0.01180942
-0.00826834
0.01664266
-0.00015533
0.00033750
-0.02223274
0.00048144
0.03786168
-0.01939346
-0.00065901
-0.09479295
0.02564017
-0.02097556
-0.00028981
-0.00345990
0.01126355
0.00194818
0.00074198
-0.05364601
-0.05290292
0.00013165
-0.00514403
-0.00166550
0.02568562
-0.00322090
0.00339397
-0.00010120
0.14186375
-0.08367031
-0.00117009
0.00936606
0.17030486
-0.07299008
0.10166547
-0.02237436
0.00964899
0.00255295
-0.01814425
-0.00211408
0.13464318
-0.00026476
0.01269008
0.03300321
0.03944677
0.00834856
-0.00003695
-0.02271433
0.12584983
0.00118041
0.00136821
-0.00757612
-0.00017129
0.00825347
-0.00159014
0.03347062
0.00049210
0.01115632
0.00014692
0.00139862
-0.00843199
0.00059208
-0.00299937
-0.00002064
-0.00509203
0.00322091
0.00027450
0.00042347
0.07489322
-0.02425625
-0.00027310
-0.00028485
-0.02732239
-0.00077693
0.01168426
0.01922050
-0.00054519
0.00153654
-0.00045059
-0.06975911
0.00117577
0.00031343
-0.00016614
-0.01334425
0.00017669
0.06210773
-0.00063237
-0.00573436
0.75326216
-0.00543626
-0.00520519
-0.00022393
0.00780407
0.21666487
0.00165519
-0.00308689
0.03937193
-0.00155549
-0.00287599
-0.00197241
0.01371158
-0.02813290
0.00245343
-0.00001035
-0.00378402
-0.00146074
-0.01081039
0.07222381
-0.00080067
0.00467661
0.00200898
0.00203723
0.00043912
0.01797856
-0.00051454
0.00256134
0.00143569
0.00065187
-0.00158038
0.00810136
0.00214149
0.11660953
-0.01998144
-0.01784614
0.03066169
-0.00166043
0.04092765
-0.00050282
0.00041613
-0.05234618
0.00058220
-0.00442593
0.00245355
-0.00682520
-0.01768743
0.00535777
-0.00120027
0.00349656
0.16486566
0.00548111
0.00335170
0.01424518
0.19911769
-0.00012879
0.00022168
0.00050598
1.37066698
0.00096856
-0.00087282
0.00002915
-0.00623713
-0.00924845
-0.00453881
-0.00044486
0.02411353
-0.00548725
0.00783962
-0.00237385
0.00206011
-0.00723044
0.00226295
0.09630117
-0.00241117
-0.00191498
-0.00346955
-0.02321662
0.00311279
0.02484200
0.00024791
-0.00008610
-0.00811461
-0.01374209
0.00206825
0.00192224
-0.00096185
-0.00935984
-0.00076980
-0.00223129
0.01432012
-0.00037061
0.00145393
0.00845246
-0.00090733
0.00601359
0.00454578
0.09657472
-0.00383340
0.00749259
0.00627576
0.00002693
0.00494008
0.00030947
-0.00453948
-0.00239346
0.00808434
-0.00494534
-0.00107784
0.00905319
-0.00000715
0.00007415
0.01883243
-0.00049321
-0.00439717
0.01840856
-0.00083109
0.00548706
-0.00007414
0.01458213
0.01810092
-0.00080714
-0.00795397
0.01423963
0.01704176
-0.01471322
0.03260400
0.00456754
0.15341182
0.01881425
0.00780403
-0.01392347
0.00131466
0.00993871
-0.00044137
-0.00071743
0.00097864
0.00133245
-0.02957039
-0.02463862
0.00028450
-0.00211932
0.00339486
0.03758140
0.00005430
0.00015922
-0.00382492
0.00093094
-0.00488505
-0.00810754
0.00057743
0.00155544
-0.00459163
-0.00003499
0.01323392
-0.01943067
0.24039754
0.01336297
0.00022890
-0.00950451
-0.00071542
0.00319112
0.00000875
0.02509304
-0.00145996
0.02529578
-0.00316489
-0.01114703
0.00029602
-0.00089681
-0.05200735
0.00367052
0.00453959
0.00032532
0.06078713
0.02949490
0.00143868
-0.01061304
0.03895355
-0.00024200
-0.00706920
-0.00181551
0.02378708
0.00969896
0.00009557
-0.16911677
0.01083082
0.04615484
-0.08913877
-0.00210557
0.00394575
0.00138772
-0.00300206
0.00375169
-0.00057000
0.02960801
1.43477118
0.02362685
-0.00018814
0.00037753
0.00837111
0.02212271
0.01289201
0.20387417
-0.00063314
-0.00068477
-0.01571430
-0.00149929
-0.01062948
-0.00042652
-0.01618027
0.02996145
-0.00028701
-0.00270997
0.00041442
0.00041812
0.02566239
0.07575998
0.00012429
-0.00282663
0.02088063
0.03229637
-0.00023564
0.00211531
-0.00369277
0.00395799
0.00208030
0.00181089
1.26117861
-0.00012535
0.04944328
0.00285944
0.00010718
0.89418864
0.00265892
0.02068766
0.17762487
0.01218566
-0.00606430
0.00941983
0.00047942
0.00048552
-0.00374211
0.01886701
-0.00479605
-0.04210661
-0.03446567
-0.01644970
-0.03118482
-0.00262046
-0.00620815
0.00192525
-0.00093360
0.00579541
-0.00048486
0.00266960
0.03450720
0.01690387
0.00456824
-0.03409581
-0.00176441
0.00113074
0.00725645
0.01292765
-0.00581597
0.00444922
-0.00735209
-0.02494555
-0.00992524
0.00292128
-0.00124531
0.00618608
0.00121835
0.00427366
-0.00111525
-0.00912897
0.06341291
0.00459720
-0.00327116
-0.00022663
0.01284658
0.01292934
0.00100228
-0.00086730
-0.03982642
0.01661170
-0.00092990
0.00042528
0.00552280
0.00175500
0.03761000
0.00016127
0.00124559
-0.00534233
0.00886546
0.02714912
-0.01749571
0.00522036
-0.00072942
0.00943378
0.01415594
0.00298768
0.00000312
-0.00082303
0.02509577
0.01595416
0.00562557
0.00720881
0.00109955
0.10255052
0.00226056
-0.10684847
-0.00200306
0.00668201
-0.00031324
0.13892004
0.00503715
0.00322754
-0.01156019
-0.00358564
0.00001986
-0.08669426
0.00002536
0.00007868
-0.00794478
-0.00028608
0.00230033
-0.00035471
0.00191884
-0.00621420
-0.01005511
0.00222768
0.00512530
0.00027787
-0.00103897
0.01291281
-0.00110820
0.00048364
0.00014263
0.08080776
-0.00066153
0.01496319
0.00066919
0.04846724
-0.00307399
0.00802560
-0.00086167
0.00695717
0.00313685
-0.03091871
0.07189185
0.00486309
-0.04114334
0.00660132
0.00001567
0.00384957
0.00409585
-0.00063224
0.00101170
-0.02471173
-0.00297698
0.01213190
0.06311322
0.00011147
0.00407535
-0.00319130
-0.01326161
0.00391413
-0.00513312
0.00452031
-0.02159569
0.00404700
0.00018126
0.07534605
-0.00794846
0.00945345
-0.00091139
-0.06689954
0.00022997
-0.01101854
0.02418372
-0.07002544
-0.00281183
0.02258428
0.04646945
0.00418573
0.00118014
0.00326274
0.00407395
-0.00636644
-0.00093891
0.00500864
0.00630530
0.01526678
-0.03108584
-0.00172123
0.00435991
0.00426198
0.08986840
0.01940420
-0.00608735
-0.00248601
0.04671384
0.05299063
-0.00202316
0.00306510
0.00320351
0.01337512
0.00363233
-0.00057943
0.00007363
0.00405447
0.04354444
0.00708779
0.08673075
-0.00269454
-0.00031091
-0.00488236
0.02052205
0.07590621
0.00144308
0.14174135
0.03570550
0.00214287
0.00003706
-0.00121493
0.02573886
0.00015038
0.00482566
-0.00084832
0.09148663
0.00420347
0.00022623
-0.05989593
-0.02756990
0.00770141
0.00134264
0.00691799
-0.04838390
0.00006809
-0.00442377
-0.00083903
0.00025662
0.00378782
0.02191300
-0.02077014
0.00070119
-0.00625298
0.17078771
0.00004366
-0.00019143
0.00007277
0.01280246
0.15828989
0.00058034
-0.02395841
0.02361389
-0.00115557
0.01576853
0.01009433
0.00193016
0.00356897
0.08641034
-0.00399885
-0.00137147
-0.00400761
0.00919829
0.00480766
0.00192498
0.00094167
-0.00115533
-0.00196859
0.00766070
0.00307818
-0.00281795
-0.04028882
-0.00854103
0.01041397
-0.02093522
-0.01565673
-0.00704254
0.01232244
0.00152001
0.01686328
-0.00233375
0.00939788
0.00469325
-0.00010918
-0.01171722
-0.00418096
0.00083104
0.00194211
0.00652326
-0.00735529
-0.00757449
-0.00073693
0.02013721
0.02155155
-0.00004423
-0.01595481
-0.00089267
-0.00626919
0.01194396
0.00022290
0.01378552
0.00348884
0.00002361
-0.01863886
0.00001353
0.00945148
0.02189381
-0.01390843
0.00178114
0.00157895
0.19708857
0.00402513
0.00250885
-0.00083760
0.00145042
0.00362610
-0.00313253
0.00682885
0.00881955
0.00989388
-0.00232353
0.01329870
0.02050853
0.10425793
0.00138221
0.08314737
-0.20964703
0.00029868
0.05267945
-0.00053799
0.00397844
-0.03912200
-0.01946485
0.03504495
-0.00024877
0.00458386
0.07194107
0.00760708
-0.00053463
0.20195135
0.01633875
0.01000747
0.02758418
0.01125622
0.02845988
-0.00799871
0.00191876
-0.00007213
0.00976675
0.32197481
0.00048784
0.00515426
0.00024438
-0.00067058
0.12781893
0.00608598
-0.01986945
0.00898496
0.00033711
-0.00115005
0.00241555
-0.09567052
0.00006834
-0.10940939
-0.01103810
-0.00156311
-0.00320118
0.00028854
0.00518441
0.00216813
0.02983125
-0.00040430
-0.00002400
0.00168021
0.00227474
0.00019288
-0.00023524
-0.00068061
-0.00138302
0.00168221
-0.00300854
0.00318296
0.00735549
-0.00014282
-0.00280347
-0.00216322
0.00003606
0.01348303
0.00016009
0.03349359
0.00243634
0.00134264
0.01518228
-0.00262168
-0.00065097
-0.01318036
0.00026858
0.04156475
0.00342632
0.00059621
-0.01306846
0.00022029
0.00149400
0.00091024
0.05324451
0.00270471
0.00289934
-0.00385402
0.01061846
-0.00362101
-0.00058586
0.00515439
0.00054452
0.02268060
0.00205686
0.00494467
0.00255863
0.03671299
0.00253717
0.00021355
-0.00008223
-0.00115986
0.00074488
-0.00430033
0.00404508
-0.00023264
0.00022171
-0.02501465
0.00688861
0.00068822
0.00192573
0.01522783
0.02104169
-0.00322973
-0.00100293
0.01506555
0.03136108
-0.18391350
-0.00107966
0.00044889
0.06315069
0.00066524
-0.03058085
0.00103141
0.00913288
-0.00520734
-0.00620399
-0.00365433
0.02825169
0.03685838
0.00027197
0.14614059
-0.00001855
-0.01256319
-0.00029841
0.10789019
0.04210372
0.00828570
-0.00243458
0.00074044
0.00360874
-0.01088546
-0.02384659
-0.05775600
-0.00032776
0.00201677
-0.00017635
0.08579582
0.00369901
-0.01692036
0.01332072
-0.00232610
0.00973475
0.00103231
0.00138052
0.01157614
0.01014156
0.00005556
0.00513811
0.03319938
0.00018951
0.00023419
0.13842572
-0.03028366
-0.00612019
-0.00058886
-0.00338404
-0.00753817
-0.00030366
-0.00291571
0.00066358
0.00112278
0.04897738
-0.01087537
0.01801808
-0.00116112
-0.00661660
0.04202886
0.02008071
0.02992091
-0.03580940
0.06151583
-0.00062724
0.00112773
-0.01888291
0.00539030
0.01634547
-0.00043798
-0.00485982
0.01539211
-0.00142564
-0.02789715
-0.00256676
-0.00933180
-0.01184076
-0.00009233
0.00428329
-0.00045746
0.03760861
0.00162134
0.00407152
0.00429345
0.16174246
0.00194921
-0.01783752
0.00064998
-0.06312364
-0.00770926
-0.00063798
0.00047521
-0.00199480
-0.00025443
-0.00403972
-0.00045075
0.00140490
0.01539791
-0.00802540
0.01843131
0.05292511
0.00055827
0.00001914
-0.00053607
0.00172720
-0.00490827
-0.03933642
0.02561445
0.00688691
0.00168720
0.00445785
-0.03371964
-0.10636235
0.05117041
-0.00319489
0.00263365
0.01212009
-0.00469847
0.01296174
0.00150677
-0.00158396
0.01943605
-0.00759620
0.01316447
-0.03606153
-0.01584981
0.01230361
0.02858881
-0.00077278
0.00248532
0.04101243
0.00106709
-0.00009534
0.09345790
-0.02144943
-0.01807093
0.03364239
-0.00019867
-0.01302784
0.00045714
0.00041258
-0.00234547
-0.05357077
0.01740970
0.00019772
-0.13954610
-0.02707189
-0.00516907
0.00130033
-0.01514701
-0.01732565
0.00027610
0.00166061
0.06564894
0.00417713
-0.01381645
-0.03071952
0.02713230
0.00712419
-0.00019269
0.00097901
-0.01920626
0.00041905
-0.00065818
-0.00139997
0.01579934
-0.01670202
0.00022104
-0.01420513
-0.00160439
0.02756318
0.00438114
0.11892430
-0.00549886
0.00203442
0.03547958
-0.00229031
-0.00091718
0.00501330
0.00270940
-0.00065271
-0.01704203
0.00101967
0.00216798
-0.16481857
0.00056455
-0.00110497
-0.08093170
0.09387168
-0.01787653
-0.00598050
0.03866477
-0.00230337
0.00112580
-0.00017722
0.02055047
-0.00105246
-0.00091183
-0.00544825
-0.00084814
0.00033110
-0.00260366
-0.00080068
-0.00102184
-0.00456869
-0.00050605
0.00232310
-0.00300194
0.01172642
-0.00628299
-0.01193065
-0.00042814
-0.00262004
-0.00114513
0.00357903
-0.00012970
-0.00090126
0.01720317
0.03767823
0.01232482
0.00660497
-0.01630258
0.01534969
-0.00393171
0.00090893
0.01951016
0.00002900
0.00023735
-0.00030560
-0.00265108
0.07634074
0.00000493
0.07822584
0.01383068
-0.01241174
0.02491596
-0.01888701
-0.00009281
0.06006241
-0.00106005
0.00775433
0.00088078
0.03328333
0.01533491
-0.00409950
-0.00426981
0.00131232
0.06202012
0.04218545
0.07173082
0.03713054
-0.00027531
-0.00119969
0.01759498
0.00013505
-0.02468359
-0.00007133
0.01981716
0.00924799
0.05281178
0.00449437
0.00542408
0.00095177
-0.00192903
0.01224881
0.04303576
-0.00182529
0.07073566
0.03413560
0.00918549
0.00792923
0.00848880
-0.00460021
-0.01451870
0.00316846
0.00042496
-0.00272430
0.02578242
0.00313892
0.00003291
-0.00075930
0.03008851
-0.00636517
0.00928474
-0.01499316
0.00081418
0.55100292
-0.01240616
-0.04723520
0.00052251
-0.02733422
0.00013394
0.00433800
0.03980990
0.00160610
-0.00004722
-0.00167412
-0.00026705
0.03357886
-0.07860368
-0.00006428
0.00031349
-0.00960950
0.02280926
1.24521208
-0.02044088
0.05616494
-0.01838855
-0.00850931
0.00036576
0.03259453
0.00263757
-0.00060700
-0.04615007
0.05881666
-0.02066627
0.00207416
0.00560071
0.00496218
-0.01823352
0.07912000
0.00034761
0.00721552
-0.00485844
-0.01931581
-0.00046580
0.00015296
0.00179552
0.02065691
-0.00611976
0.01362563
0.00039600
-0.00014669
0.00067571
0.00609356
-0.02154664
0.09882695
0.01386026
0.00320565
0.02284474
-0.00087339
-0.00252047
-0.00077973
-0.00039125
0.03615520
-0.00175575
-0.00150817
-0.00277411
-0.00091148
0.00607619
-0.01060606
0.00912026
-0.00014993
0.00875193
-0.00510782
-0.00354984
0.00709799
-0.00001674
0.00235066
0.01166241
0.05013730
-0.01697696
0.02314950
-0.01383475
0.06205097
0.00164521
0.04412918
-0.00007764
0.03411487
-0.00589446
0.00171819
-0.00016520
-0.00005973
0.00110584
0.00165191
0.01694804
-0.02742625
-0.00170092
0.30820444
0.00655520
-0.00261487
-0.00199541
0.01887236
0.01565352
0.07525418
0.05350876
0.00035483
0.03068182
0.00390776
-0.01696510
-0.06461003
0.00024268
0.00779476
-0.00182580
0.00794008
0.02156006
-0.05188372
0.00379330
-0.00008868
-0.02767783
0.02853460
0.00885341
0.00065336
-0.00988109
-0.00169139
1.12217021
0.00473715
0.01971143
-0.00762316
-0.00768067
0.01948095
0.02014687
-0.00432516
-0.00498532
-0.03103431
0.03232107
0.00376495
-0.00437812
0.00163571
0.11756124
0.00011614
0.00061967
-0.00219408
0.00842476
0.14626481
-0.00347251
0.03107108
0.01534612
-0.01336390
0.02299655
0.04001637
0.26588902
-0.04205286
0.00150133
-0.01966169
0.00523694
-0.00023378
-0.00322523
0.00203029
0.00083245
0.00649280
0.02730885
-0.00031313
0.00360930
0.00846761
-0.00024411
-0.00196937
-0.00003076
-0.03349340
0.03062658
-0.14037687
-0.00036281
0.00015012
0.05610378
0.00113266
0.01035270
-0.02468271
0.00128702
-0.00153835
0.31291795
0.06656526
0.04862029
-0.00833872
0.01943382
-0.00387041
0.00001469
-0.00514928
0.00063976
0.00063893
0.01149837
0.14194553
-0.00025761
-0.00486415
-0.00489520
-0.00055651
-0.00915603
-0.00025226
0.35394555
-0.00227083
0.02308919
0.04770777
0.11162224
-0.06083325
-0.00012659
0.01202474
0.01387569
-0.01418334
0.00079994
0.00411833
-0.00026654
1.10357225
-0.01494054
0.02062615
-0.01745340
0.00055069
0.02289775
0.00770287
0.02292385
0.01089441
0.04837795
-0.00749096
-0.00019967
0.00000291
0.00187060
0.00424096
0.00967877
-0.05627893
-0.00007585
0.00421976
0.00163336
0.10817644
-0.00033581
-0.00033432
-0.01250366
0.00020737
-0.01383275
0.01178540
-0.02334278
-0.00031993
-0.01021856
-0.00525871
0.00000270
0.00205695
0.11775115
0.12751035
0.28998220
0.01119684
-0.00034727
0.00081189
-0.00325274
-0.01231321
-0.00046084
0.00096510
-0.00024636
0.00206549
-0.00544080
0.00050209
-0.01692105
0.00010291
-0.04593217
0.00310433
-0.00090861
-0.00723548
0.00019012
-0.00136955
0.00709482
-0.00306060
-0.20884946
-0.00733841
0.00019165
-0.00637054
0.02293188
-0.00237498
-0.01970081
-0.00054614
-0.04553480
-0.01159678
-0.03964219
0.00063449
-0.03988620
-0.03170294
0.88069534
0.00510662
-0.00332551
0.13575742
0.01250439
0.00346179
0.04019825
0.06828852
-0.06765629
-0.00000517
0.00104915
-0.00656405
-0.09826902
-0.00373510
-0.02414125
0.00096379
0.00160660
0.03497984
-0.00008496
-0.00335055
0.00695630
0.00045099
-0.00033569
0.00170396
-0.00706234
0.01119626
-0.03247489
0.00189981
0.01833885
0.02134112
-0.00050543
0.00185787
-0.00023929
-0.00196355
-0.00072890
-0.02880055
0.00007171
0.00008345
0.11020525
0.00473391
0.00093954
-0.00016386
-0.00038872
0.02504105
-0.00733010
0.12489275
0.00122622
-0.00035862
0.00920131
0.05611235
-0.01423142
0.01282735
0.01786338
0.00947301
0.01952636
0.00021419
0.03267268
-0.02572141
-0.00523108
0.05281161
0.01779978
-0.00135557
-0.00002913
0.00395903
-0.00150802
0.00272551
-0.00075437
0.01408482
0.00339617
-0.02885552
0.00046618
0.00669051
-0.00010086
0.00296905
0.00153041
0.12736131
0.00115527
0.10869939
-0.00122464
0.03832346
-0.09459121
0.00046147
0.01805762
-0.00698458
-0.00027735
-0.00368051
0.01216129
-0.00297528
-0.00085066
0.00441162
0.00227156
0.00734888
-0.00006556
-0.01732026
0.00253145
0.01350566
0.01297339
-0.00982446
0.00012688
-0.04377744
0.00072582
0.00776964
-0.00204878
0.01479150
0.00419579
-0.00178823
0.01915454
-0.00288553
0.00412679
-0.00301821
-0.00147647
0.00012345
-0.00306367
-0.00314739
0.02487440
0.01525943
0.02230705
0.14613268
0.01246130
-0.00023783
-0.00045244
0.04286043
0.00607401
0.00029814
0.00098499
0.19033830
-0.00099549
0.00821964
-0.00210624
-0.01154032
0.00087730
0.01474018
0.00035615
-0.00064649
-0.00713103
-0.01494497
0.00408583
0.04561682
0.00274132
-0.02236180
-0.01515053
-0.00620088
0.01032766
0.00100329
0.01652760
0.00222235
0.00714565
0.00413433
0.00026349
0.02684026
-0.00009450
0.00002403
0.00370707
0.00754137
0.00728109
-0.00477280
0.00459319
0.05356276
0.00026868
-0.00277457
0.01153257
-0.00088974
0.08805637
-0.00623511
0.01993847
0.00168750
0.00330832
0.02876814
0.01750710
-0.00025019
0.18197845
-0.00377583
-0.02277046
-0.00096055
0.00007195
0.06117303
-0.11288256
0.02374253
0.00016110
0.01486271
-0.00022615
0.00127854
-0.01314707
-0.00052751
0.00848749
-0.00096582
0.07835753
0.00293719
0.00152305
-0.00136463
0.00050743
-0.00064816
-0.00441692
0.00076057
0.02905189
-0.00351347
0.05204936
-0.00256452
0.00270435
0.01841780
0.04218142
0.05723622
0.00261600
-0.00623149
0.00118533
0.00274771
-0.02141580
0.02742630
0.07311302
0.00645771
-0.00356078
-0.08075645
0.03466007
-0.01298942
0.00862814
0.00049833
-0.00494002
0.02541455
0.00274288
0.00045417
0.00109690
-0.00357614
-0.00318777
-0.05101205
0.00027351
-0.00496163
0.04710880
-0.00147657
0.04973375
0.00471602
0.00123852
0.24272384
-0.00320816
-0.00690456
-0.02262917
0.03172463
0.01245790
0.00459572
0.00174566
0.11288785
0.00487951
0.11447706
0.00075772
0.00678390
0.00240426
0.02804887
0.12749346
-0.00628180
0.00651434
0.00025942
0.02836328
-0.00280611
0.01811815
-0.02894841
-0.00366030
0.00586258
0.00099991
0.02818297
0.00003588
0.00152920
-0.01769695
-0.03504650
-0.03867363
0.01533768
0.00217623
0.01780194
-0.00298720
-0.00045661
0.00006859
-0.00516467
-0.03557428
0.04651602
0.00218900
-0.00041029
0.01026172
-0.00654174
0.00046310
-0.00002922
0.00397784
0.00035554
0.02776502
0.02018809
-0.00173398
0.91022164
-0.00961090
0.00798103
0.00616935
-0.00010871
-0.00017401
0.00165694
0.00226535
0.00037259
0.01886562
2.08506989
-0.00086459
-0.00874653
0.00735643
0.00839292
-0.00021440
0.08797552
0.03984862
-0.00015269
-0.00236590
0.01018179
-0.00326460
0.02634288
-0.00102638
0.00139005
-0.00063797
-0.00120206
-0.00031823
0.01344195
-0.01298194
-0.00417081
0.05756256
0.01806361
-0.00322388
0.02032086
0.03999747
0.00462086
0.04356810
0.00893568
0.00699248
-0.00725541
-0.00246913
-0.00212958
0.00026041
-0.03598447
-0.00004344
-0.00554599
-0.01055759
0.04740057
0.00269062
-0.11928555
-0.03665655
-0.01851701
0.03195175
-0.00834893
0.00893890
0.00271028
0.00019806
0.00198850
0.02604336
-0.01583922
-0.00684369
0.00365498
0.00028180
-0.03569898
-0.00002796
-0.00016947
0.00382696
0.01559590
-0.00448787
-0.00057648
0.00056906
-0.00511533
0.00233344
1.48042428
-0.00217307
-0.01371667
0.00970675
-0.00845792
-0.04766438
-0.01599766
-0.10133798
0.00758480
0.00150401
-0.00825967
0.00005942
-0.00173015
-0.02527205
0.01100796
-0.03465313
0.01544488
0.00458461
0.03367876
-0.00117039
-0.00026022
1.07955897
-0.00232726
-0.00012468
-0.04809614
-0.00346097
-0.01537843
0.01682946
-0.00128118
-0.00409750
0.00175644
0.00050149
0.00074730
0.15930389
0.00024861
0.02599319
0.00413394
0.00043811
0.02871150
-0.00014835
0.00201417
-0.00290535
-0.00297186
-0.00243016
0.00024830
0.03816656
0.01703638
-0.00020473
0.01221403
-0.00091985
0.00137998
0.00077604
0.00410949
0.00451416
-0.00030416
0.00806984
0.00643212
-0.02357922
-0.00052358
0.00864499
-0.00133235
0.00018075
-0.00144926
0.00260494
-0.00301887
-0.05606768
0.00309176
0.03779800
0.02865653
0.03479245
-0.00587791
-0.00895573
-0.00339233
-0.00250242
0.00071702
0.00916569
0.00705592
-0.02355482
0.03098203
-0.00390906
-0.00126902
0.01833913
0.00017374
-0.00044741
0.00272804
0.00024260
-0.01738548
0.00102226
0.00913242
0.01219400
-0.00214062
0.00113332
0.00371522
0.02227694
-0.04273994
-0.00033754
0.00445875
0.00022635
-0.00133266
-0.00034218
0.00133567
-0.00846335
-0.00154104
0.00353916
-0.00046061
0.03056197
0.02309354
-0.00962849
0.00354960
0.00012325
-0.00008654
0.04307917
0.00821700
-0.00158021
-0.00740504
0.00032507
-0.11706314
0.01979548
-0.00872162
0.01067131
0.09221163
0.00114733
0.00014925
0.00028061
-0.00606769
-0.00020843
-0.09364008
0.01855438
0.03712121
0.00555502
0.02539523
0.00023397
0.00376468
0.00248323
0.02300408
-0.00604626
0.02277696
-0.00301036
0.01884714
-0.00376534
0.55920416
0.00917252
0.00827365
-0.00007013
0.00398974
1.38716102
-0.00652599
-0.00019244
0.00949125
-0.00111581
0.01316698
0.00032330
0.00164940
0.00619722
-0.00207825
0.00005437
0.01858732
0.46303865
-0.00503902
-0.00291747
0.00132735
-0.13882034
0.00768058
-0.01237608
0.00179599
-0.02415041
0.01232003
-0.00014953
-0.01738999
0.00089037
-0.00075732
-0.06734268
-0.04380593
-0.02430461
-0.18053627
-0.00004593
-0.00695771
-0.01392336
-0.00033366
0.00232661
-0.00068802
-0.00869910
-0.03884413
0.04723039
-0.00634815
0.04007029
-0.00153630
0.00200173
0.00345736
0.00288008
0.00012585
0.03189358
0.00048491
-0.02663431
0.01686486
-0.00268523
0.01567622
0.00073668
-0.08251243
0.00006161
-0.00036119
0.02905736
0.09582173
0.03712245
-0.00126959
0.00073308
0.00390808
-0.00016434
-0.00234279
-0.05183994
-0.05388291
-0.00261965
0.00689529
-0.04292405
0.01937446
0.00130476
0.00399807
-0.06036130
0.03617379
0.05335826
-0.00043685
0.00046386
-0.00826912
0.00130377
-0.00105820
-0.00216660
0.02951727
-0.01156153
-0.04243945
0.00053238
0.00287628
0.00365638
0.00429999
-0.00031778
0.00909302
0.00107850
-0.00200203
0.00026939
0.00136210
-0.05626385
0.00290596
0.00465165
-0.00058756
0.40483353
0.00031889
-0.00015258
0.00046018
0.01892556
0.00100266
0.04556311
0.00176200
-0.00367884
-0.03578173
-0.01708982
0.00418069
-0.00043005
0.00132249
0.00001075
-0.00399038
0.00080167
0.00573420
-0.01012242
0.00509421
-0.00088237
-0.00053864
-0.00155320
0.00209593
-0.00668930
-0.00850546
0.00831078
-0.00918112
-0.00483241
0.01337094
-0.00017557
-0.01999183
-0.00758232
-0.17057715
-0.00233051
0.00014398
-0.00005744
-0.00010129
0.02547214
-0.00121761
0.00272336
-0.00614443
-0.00436382
-0.02071653
-0.01512933
0.03288619
0.02280435
-0.00000747
0.07369924
-0.03043283
-0.07236308
-0.00053334
0.00021674
0.04008424
0.00069865
-0.00812974
-0.05003848
-0.00302755
-0.01147685
-0.00055426
-0.04381268
0.01261305
0.00214071
-0.00769676
-0.00540995
-0.00306645
-0.00032195
-0.03126878
0.00665369
0.00409145
0.10400224
0.00030505
0.00012460
0.00154232
0.07800356
-0.00620404
0.01206240
0.00785307
-0.00004429
-0.02369519
0.13201264
-0.00011756
0.00133987
-0.00325405
0.00120027
0.01401035
0.00086967
0.00234523
-0.00133803
0.00114573
0.00184094
-0.01203058
0.00682912
-0.00095616
-0.00029217
0.00546471
0.00296533
-0.00173080
-0.00604328
0.51392311
0.04783243
0.00125535
-0.02004292
0.00110351
-0.01391169
0.06089902
-0.00011248
0.00069227
-0.00022779
-0.00512888
-0.02258445
-0.05725660
0.00050425
1.68141174
-0.00791623
0.00811940
-0.01420488
0.03611948
-0.00051824
0.00365561
0.00016726
-0.01764975
-0.01526412
-0.00205966
0.00997689
-0.00717544
0.02024006
0.00330334
0.00515181
-0.00019593
0.00213805
-0.10056572
-0.02353362
0.00611709
-0.03693050
0.01305356
0.16608091
-0.00298472
-0.02385791
0.00111233
0.03303529
-0.00057216
-0.00198908
0.01524603
0.03646313
0.01267670
0.01827703
-0.00541884
-0.00036323
0.01307071
0.00181878
0.05819941
0.00816772
0.00140672
-0.00670603
-0.00362257
0.04012693
0.00159442
0.02079837
-0.02381141
0.06397592
0.00177655
0.02483913
-0.00153166
-0.00148072
-0.06111247
-0.01477532
0.00224363
0.01409557
-0.01067427
-0.02375668
0.01956365
0.00891322
-0.00130455
0.00039602
0.00559579
0.00059272
-0.00065857
-0.02135428
0.00940904
0.00130326
0.00158449
-0.01369529
0.11493491
0.00098785
0.00474740
0.00296194
-0.00561965
-0.04570473
-0.00347230
0.03879346
0.01333395
-0.02144904
0.00418713
-0.00677916
0.00691983
0.00021197
0.30413586
-0.05651753
-0.02490713
0.00046091
-0.02949904
0.03172814
0.01770611
0.01146550
-0.00326366
0.00256600
-0.10540720
0.00540285
0.00050075
0.00485910
0.00148938
0.03461479
-0.00263362
0.00504364
-0.00315946
0.01650975
0.00928295
-0.00356444
0.01160691
0.00500690
0.00090758
0.00466843
0.00156812
0.00487831
0.00034917
-0.00349219
0.00799312
-0.00131637
0.00434984
0.00054175
-0.00047924
0.00035144
-0.00204357
-0.01404801
-0.01241134
0.00149501
-0.04783206
-0.00345721
-0.00017380
0.00143219
0.02445939
-0.01010531
-0.00013231
-0.06519213
0.15669701
-0.00394177
0.00657141
0.02026881
0.00058745
0.00200504
0.00437913
-0.01940168
0.00199023
-0.00154354
0.00069156
0.50723886
0.00030344
0.00310426
-0.00040861
0.00103201
0.13177802
-0.00074413
-0.00161373
-0.03425147
-0.00016961
-0.01269818
-0.00556127
0.00281088
0.01262307
0.06976676
-0.03773956
0.00859368
0.00037477
0.29424199
0.00095026
0.00001290
0.04769123
-0.00007287
-0.00106907
0.00274376
-0.00507871
0.02051289
0.00081047
0.00115122
-0.00843123
-0.00409875
0.03938412
-0.00944370
0.00362995
-0.00379960
-0.00214657
-0.00025628
0.00058054
-0.00767111
-0.00357814
0.00170665
-0.00008414
-0.00036891
0.00368478
0.07600021
-0.01749290
-0.00641548
-0.02829842
0.17463882
-0.00174600
0.01117765
0.07190462
-0.04210456
0.01240453
-0.00563353
-0.00128170
-0.00426525
-0.00194327
-0.01156359
-0.03719279
0.03469333
0.00075356
-0.01065399
0.00079525
-0.06403943
0.01082873
0.00433934
0.00547509
0.01551241
0.00823550
-0.00137329
0.08762982
0.00665328
0.02131265
-0.03885300
0.04459386
-0.00519860
-0.00139819
-0.00024485
-0.01470334
-0.08924899
-0.00647205
-0.00346811
-0.00005467
-0.00244820
-0.00698496
-0.03016539
0.01085737
-0.00026338
0.02295561
-0.00056763
0.00169776
0.00088831
-0.00006028
0.00136660
-0.01043818
-0.00039717
0.25947291
-0.02578363
1.97876692
-0.11401182
0.00042902
-0.00037933
0.01338249
0.01159330
0.00280181
0.00057104
-0.00600959
0.01072917
-0.00958386
-0.00411046
-0.00647642
0.04476342
0.01835541
0.01899843
0.01876432
0.00200818
0.00066700
0.00967531
-0.00002573
0.00346367
0.01448471
0.28305495
0.00124695
-0.02619701
0.00625724
-0.00009068
0.00207127
0.00072483
-0.09097382
0.00870664
0.00056843
-0.01074570
-0.00107605
0.00621827
-0.01406390
0.00037024
0.11324818
0.00264605
-0.01046063
0.00670142
-0.06141004
-0.03711574
-0.00097377
-0.00441263
0.00132392
-0.00089715
-0.00132428
-0.04679857
0.02980432
-0.00088894
0.01272397
0.01090700
0.00001578
0.00105887
-0.00264291
0.01958098
0.00052469
0.00212577
-0.00469145
0.04528677
-0.00030903
-0.01100206
-0.00026996
0.05569828
-0.00067642
0.00139232
0.07842215
0.10014927
-0.00019526
0.03211620
-0.00097403
0.00351617
0.00011183
0.01384644
-0.00031490
0.04825404
-0.00730528
0.00270873
0.06280843
-0.00026986
-0.00730528
0.00787176
0.01331568
-0.00635460
0.00609059
0.01734822
0.00044105
-0.00004594
1.27878439
0.02397330
-0.00145210
-0.01095022
0.01203591
0.02830637
0.00896704
-0.00122190
-0.00016771
-0.01634528
0.01739325
0.00087285
-0.00289596
-0.05135302
-0.00122019
0.00649337
0.02595187
0.00022097
0.01244498
-0.01640359
0.02672842
-0.00246808
-0.00489622
-0.02030969
-0.00239455
0.00411733
0.00390895
0.00024162
0.00468827
1.44058430
0.00095969
0.08229329
-0.00012762
0.02776374
-0.00252662
0.00457930
0.03606940
-0.04952902
0.00013731
0.05911803
-0.01375977
0.00397435
-0.00206002
0.04885351
-0.00384235
0.00727494
0.00707155
-0.00762319
0.00086816
0.00212471
0.02758074
0.00228170
0.00538837
-0.00027549
0.00258089
-0.01313769
0.00169084
-0.01174733
-0.00239625
0.00604041
-0.00303633
0.00275457
0.00069289
-0.00052220
-0.02540603
-0.03308863
0.00038785
0.00367812
-0.01092378
-0.09180448
0.00720068
0.00073740
0.05604638
0.04918299
0.00422494
-0.00431270
-0.05694444
0.01398520
-0.20509507
0.01262233
-0.00588037
0.00451308
-0.02180431
0.01019582
0.00955200
-0.00569245
0.00716890
0.00889247
0.01649174
0.00115058
-0.00709927
0.00021088
0.00183910
-0.00030360
0.00282107
-0.00401420
0.01500810
0.00445710
0.00754049
-0.00031287
0.02390565
-0.00608436
0.51382738
0.00586214
-0.00031291
-0.00179425
0.00177358
-0.00107861
0.00010633
0.00054709
0.02659629
0.01861939
0.00716384
0.00611820
0.01125348
0.00255322
-0.00655558
-0.00369424
-0.01901704
0.07740132
-0.00277170
0.01398178
-0.00040397
-0.00927944
0.00205537
0.01834644
0.00131435
-0.00048067
0.03001895
0.00021495
0.03447596
0.00786049
0.00057679
-0.00009698
-0.00342174
0.00180493
0.00053912
0.02588474
0.00238947
0.00699059
-0.00354284
0.03269283
0.01236095
-0.00149795
-0.04981261
-0.00049685
-0.14336689
0.03425263
0.00082797
-0.00083001
0.00010505
-0.00761212
0.01650285
0.04440684
-0.00441465
-0.02486157
-0.00021398
0.10318072
-0.00014276
0.03311981
0.02020091
-0.05250861
-0.00370285
0.00428653
0.00355690
-0.00109185
-0.00011612
-0.00011589
-0.00061729
0.00074177
0.00121212
-0.02258255
0.00142629
0.03691163
-0.00268435
-0.00389883
-0.01080931
0.01470696
0.00041850
0.00038900
0.00065986
0.00982056
0.04156844
0.00263326
0.00030415
0.06082784
-0.00047719
-0.00791311
0.00161401
0.00149083
-0.00122118
0.07579591
-0.00846183
-0.04349092
-0.00224058
-0.00210815
-0.00051246
0.00079941
-0.00180595
0.01222155
-0.00001777
-0.00542308
-0.00016402
0.00473309
-0.00018482
-0.00325136
0.00266570
0.00052928
-0.00327650
0.00090988
-0.00121254
0.00035973
0.00090730
-0.00091573
-0.00239811
0.00139470
0.00841540
-0.02454898
0.00175184
-0.00037374
-0.01496516
-0.00169553
-0.07110956
-0.03172878
-0.00350118
0.23171924
0.01826596
-0.00363465
0.00181960
0.00799085
0.02645063
-0.00044118
-0.00860044
0.00144759
-0.00104031
1.80075085
-0.00360239
0.00167714
0.05166815
0.07751915
-0.00523564
-0.04678385
-0.00021209
-0.00068400
0.01953150
0.03046382
0.03165615
0.07146816
0.00427110
0.01387400
0.03924592
-0.01844819
-0.00023473
0.00880764
-0.00612588
0.02577707
-0.00098991
0.01935421
-0.00014842
0.06047420
0.02791682
-0.00005053
-0.01705615
-0.01617542
0.00748580
0.19505906
0.00349699
0.01577126
-0.00080791
0.04225889
-0.02242073
0.00311963
0.00431562
-0.00583338
-0.00230833
-0.00080292
0.00015263
0.00531814
0.00546744
-0.00667641
-0.00337383
-0.01125777
-0.00010770
0.01578730
-0.00815107
0.00332673
0.00477832
0.01312067
-0.00069476
0.01468112
0.00038685
0.01551447
-0.03541892
0.01715420
0.00017834
0.00487379
0.01625700
0.00055125
-0.01447383
0.00527025
0.00011770
-0.00275426
-0.05472814
0.00518806
0.00160362
-0.00355214
0.02574873
0.00050747
0.79310507
0.03414847
0.00255327
-0.00029190
0.04862406
-0.02744436
-0.00000736
0.00000145
0.00126751
-0.08640523
0.00491696
0.02679406
0.00189972
-0.00281269
-0.00315652
0.00627480
-0.00131623
-0.00036651
0.01120268
-0.02276263
-0.00060344
0.01178305
0.00129628
-0.04693245
0.00046345
0.00177405
0.18416199
-0.00704960
0.00632882
0.00538339
0.00087680
-0.00157313
0.00147240
-0.03447219
-0.00039836
0.00233430
-0.00078454
0.01440640
0.06630079
0.00000210
0.00054244
-0.01916458
0.00136577
0.00352642
0.01440862
0.01481371
0.07896410
-0.00870055
0.00218947
-0.00118849
-0.00901674
0.15075783
0.00048358
0.01695410
0.00314707
0.00249405
-0.00056110
-0.00238539
0.00021178
0.00035608
-0.00407736
-0.00036935
-0.00936084
0.00102836
-0.05403408
0.03254058
0.00014556
-0.00445425
0.00144362
0.00901021
0.02655731
-0.01511650
0.10141181
-0.08747815
0.00909096
-0.00109919
0.14235705
0.00297821
0.02674534
0.00194387
0.00532342
0.00075063
0.00881700
-0.00009148
0.00105743
-0.00121249
0.06842218
-0.00405320
0.03265104
-0.00228759
0.00115458
0.00225294
0.01124901
-0.02256841
-0.06268077
0.00150841
0.00013523
-0.00956327
-0.00037600
0.03257216
-0.00005016
0.03738781
0.08703785
0.00480461
-0.01120670
0.03071894
0.00394266
-0.00098313
0.00012843
0.04052268
0.08005710
-0.00001052
-0.00077911
0.00539834
-0.00251719
-0.00013553
-0.00656780
-0.00841688
0.02456305
0.00072966
-0.00416730
0.00982237
0.01230623
0.00111545
-0.00359836
-0.01120445
-0.00884819
0.00101483
0.01706448
0.01385770
0.00425865
0.01949149
0.00780497
0.00025825
0.02793904
-0.00266893
0.00579083
0.01442451
0.04148405
0.08880986
0.08019002
0.00039261
-0.00229770
0.05083049
0.01260390
-0.02055142
0.00259256
0.00541468
-0.00316989
-0.00093048
0.09697744
-0.00009130
0.00002751
0.00055351
0.00646612
0.03197005
-0.03032391
0.00001819
0.00756762
-0.00006747
0.00080738
0.03811016
0.00276092
-0.00411570
0.00447207
0.21040869
0.00675575
0.01291840
-0.00292684
0.05969105
-0.00384938
0.00181250
0.00515500
0.00440123
-0.00319271
0.00073587
0.00709231
0.00207082
0.05536166
0.01640772
-0.04126228
-0.00141571
0.00023862
1.04131734
-0.00361135
-0.00095812
-0.00196211
-0.04691897
-0.01356705
0.00001510
0.00209028
0.16997039
-0.01048268
-0.00227226
-0.00335998
0.02785096
-0.00410880
-0.00544319
0.01458440
-0.00265113
0.00272385
0.00015843
0.00621549
0.02068045
0.01129867
-0.00345660
0.48091078
-0.01434681
-0.03926821
0.01046032
-0.00015062
0.14333174
0.00146005
0.00135886
0.03373864
0.00840729
0.00015041
-0.00090195
-0.00438244
0.00518584
-0.01800210
0.18660127
0.01981829
0.00585432
0.02978369
-0.02329065
0.00001550
-0.01479673
0.00302768
0.04767455
-0.00210250
0.00017009
0.05508784
0.04029719
0.01403578
0.00933404
0.00873185
-0.03972155
0.00135085
0.02105027
-0.18562219
0.00065489
-0.00794544
0.08745053
-0.00031200
0.09495965
-0.01372585
-0.00012070
0.01252363
0.00097683
0.00637031
0.00694416
0.00061297
0.00352823
-0.01285773
0.08686101
-0.01089466
-0.00056352
0.00539923
-0.00580024
-0.01194438
0.00186384
0.00006208
-0.00421022
0.00191899
0.00768749
0.00089406
0.01077429
0.00214274
0.01263903
0.01825902
0.04145150
-0.02568871
0.01063617
0.01352379
-0.00419822
0.00128220
0.00699452
0.00315616
0.00105835
0.00042991
0.29736871
0.08161078
-0.00168915
0.00053978
0.00018253
-0.00366306
-0.03425236
0.01490781
0.00349237
-0.00020780
0.00301772
0.00073765
0.08201391
0.00623398
-0.00417868
-0.03838200
1.32448030
-0.00413253
0.21358722
0.00491613
-0.00071910
-0.00254593
-0.01023130
0.00064619
0.13469557
-0.00008458
-0.00111023
-0.00809147
-0.00063421
-0.00021051
0.03314178
0.00022343
-0.00023936
0.00002999
0.01458131
0.00092908
0.05011052
0.12158081
0.00114006
-0.00172500
-0.00003786
-0.00068191
0.00206486
0.00008849
0.04427763
0.00059049
-0.00191238
0.01450656
0.00390474
0.00978507
0.00193785
0.01518092
-0.01322456
-0.08970455
0.00584105
0.00450891
0.00512911
-0.00106795
0.00132279
0.00042816
-0.00570819
-0.00281371
-0.00110294
0.01123554
0.02189305
-0.00678473
-0.00003462
-0.00593994
0.00031116
0.00845971
-0.01556618
-0.00523930
-0.05660702
-0.00602828
0.00230364
0.00754471
0.14589719
0.01005755
0.01465677
0.00832482
-0.00750511
0.04567206
-0.00016604
-0.05107988
0.00450397
0.11041285
0.00037916
0.01162463
0.00316049
-0.00103022
-0.03110481
0.00044727
-0.01169011
0.02131162
-0.00594991
0.00626561
-0.00004912
0.05927401
0.14958681
-0.03413926
0.00220764
-0.00061283
0.00238908
-0.01128153
0.00247078
0.00235568
0.04116309
0.01671030
-0.02099016
0.00063826
-0.06723286
0.06404778
0.05027208
0.04538744
0.54782319
0.00177851
0.00629719
-0.00229122
0.00012220
-0.00061675
-0.04938893
0.08732094
0.02110831
-0.00187082
0.00723659
-0.00341631
0.03279146
0.00751638
-0.01295286
0.03329121
-0.04270127
-0.00078927
0.00026725
0.00162205
-0.14405265
0.00568147
0.04057561
-0.00107965
-0.00028572
0.00238922
-0.00967992
0.01336713
-0.00852807
0.00885319
-0.03875410
0.00653111
-0.01233190
-0.00420849
-0.00341410
-0.00292366
-0.00037867
-0.08289955
0.03386296
-0.03898487
-0.00548490
0.00622303
-0.02968105
0.00738460
-0.00043248
-0.01096427
-0.04325629
-0.01136746
0.00228498
-0.00039121
-0.00233465
-0.00024799
0.00101008
0.00055861
-0.00447055
0.00928478
-0.01973665
0.00833353
0.03433126
0.02588499
-0.00037106
-0.01749253
-0.00868064
-0.02423844
-0.00002714
-0.00177166
0.05310365
0.17239121
0.03960529
-0.00401681
-0.00121931
0.00238643
0.01496554
-0.00014048
0.00448972
0.00175594
0.00010687
-0.00433768
0.00450935
0.00671955
-0.00009879
0.04895723
0.04798458
-0.00886373
0.00713930
-0.00007782
-0.00159556
0.04738700
0.00153199
1.52957296
0.00384314
0.00012219
0.00218189
0.00927417
0.00022957
0.00029242
-0.00047464
0.04833320
-0.00342783
0.37714693
-0.00789505
0.00327872
0.00433526
0.03187028
0.00246221
-0.00320392
-0.00186484
0.04069486
-0.00217713
-0.00037812
-0.00574225
0.08760852
0.00163968
-0.00649324
-0.17140025
0.10031944
-0.04589736
0.00184066
-0.00364774
-0.01719103
-0.00114941
-0.01524350
-0.00002315
0.00503482
-0.00602149
-0.02931995
0.00797782
0.00072349
-0.03443123
0.00070357
-0.00387499
-0.03746974
-0.00683510
-0.03596467
-0.00891688
-0.08446839
0.00120030
0.10411336
-0.01763874
-0.00225024
-0.00781047
-0.00089604
-0.01595429
-0.04506725
-0.00778290
-0.00136240
0.00922443
0.17684001
-0.00136412
-0.00170106
-0.12716939
-0.08438186
0.00027035
0.01957261
0.00730176
0.00100749
-0.00190094
-0.00352565
-0.04676175
0.00122047
-0.03516613
0.00133591
0.00245673
-0.01331429
0.00478077
1.71498334
-0.00443382
0.40583497
0.00934388
-0.00052708
-0.01688035
0.00073556
0.00158794
0.85368782
-0.05005696
-0.01330849
-0.00166491
0.00448284
-0.00190908
0.00032643
0.03219524
0.00459792
-0.01648612
-0.00004892
0.01279543
-0.00005870
-0.02051040
0.02546074
0.00187863
-0.00128958
0.04014677
0.00972146
-0.01140870
0.00319941
-0.00661115
-0.00418286
-0.00011437
-0.00605804
0.00693749
0.02571142
0.05578382
-0.00096339
0.01908515
0.05892470
-0.06650256
0.01001056
-0.00668965
0.02490741
0.00017642
-0.00920594
-0.00057008
-0.00232759
0.01158081
0.04306222
0.00054664
-0.00817108
-0.04700187
0.00079614
-0.00070258
0.00264167
-0.04479968
0.02817554
-0.00059394
0.00471506
0.00386172
-0.00084467
0.00091667
0.00121479
-0.00177459
0.00852446
-0.00730485
0.00180963
0.00579437
0.00294034
0.00286580
0.01490816
0.00064341
-0.01732241
0.02893379
0.00024107
-0.00416289
0.00929064
-0.00047331
-0.00089156
0.01827568
0.00662840
-0.06545935
0.00028363
-0.00090815
-0.02219138
0.00020779
-0.02341232
0.00140884
-0.03609724
0.00017792
-0.00469010
0.00166266
-0.01201797
0.00053520
-0.00093480
0.00207495
-0.00391175
-0.05266431
0.00295997
-0.00838896
0.00757358
0.00652915
-0.03682087
-0.07269263
-0.00097898
0.01119654
-0.00000626
-0.01405646
-0.00359951
-0.04607774
0.02042315
0.01074991
-0.02327798
0.00005618
0.01900488
-0.00292829
0.00380741
-0.00550043
0.00066330
0.00008775
0.00518595
0.01432781
0.01140131
-0.00579786
0.00164811
0.00648519
0.01017384
0.02174975
-0.01389649
-0.00187678
0.01015045
0.00325957
0.00162509
-0.01404059
-0.02266821
-0.00063399
-0.00204139
-0.00193797
0.00515929
0.00120440
0.00417641
-0.03983175
0.00074071
0.00002922
0.00014854
0.07656267
-0.01332671
-0.00006343
0.00332298
-0.00058230
0.00100408
-0.01072985
0.00512931
0.00127243
-0.00166668
0.00034075
0.01249886
-0.00232395
0.00098652
0.00187866
-0.00065888
0.00513689
0.00389271
0.00398703
0.00279065
0.00308257
-0.00893111
0.00480674
0.01888373
0.00130068
-0.00320323
0.00069488
0.00897052
0.00353280
0.00082789
-0.00287775
-0.00532927
0.00101800
-0.00072017
0.01255536
-0.04984272
-0.06142506
0.06527591
-0.00070335
-0.01192875
0.00073761
0.14858119
-0.01060885
0.01413821
0.00468868
0.01490915
0.00148771
0.00464847
0.00007462
0.06036300
0.01778772
0.00292881
-0.00296747
0.00601030
0.01350631
-0.01332592
0.13381217
0.00556409
-0.00428122
-0.00337356
0.00490920
0.00175380
-0.00015989
0.00095252
-0.06795796
0.00000527
0.01179446
-0.04600688
-0.00262678
0.00641214
-0.22502400
-0.00005970
-0.00341280
-0.02853606
0.03404220
0.00030441
0.01288142
-0.00342644
0.00867470
0.05448087
-0.00183878
0.06860500
0.00228135
0.11741576
-0.02991883
0.00450421
0.00036956
-0.00533654
0.03693163
0.06932796
0.00365198
-0.02220650
-0.00324366
-0.00610393
0.00137785
0.01067543
0.00324390
0.07199808
-0.00040642
0.00922194
0.00128574
0.03048147
0.00447680
0.00102242
0.01691330
-0.04775478
0.00017532
-0.00023922
0.00216690
-0.00127125
0.00505841
-0.01226187
-0.00173017
0.01167426
-0.01691137
0.00746879
0.00055839
0.00951814
0.06187228
0.00126825
0.09341603
0.01304633
-0.01223628
-0.00346329
0.00866616
0.01789129
0.01143703
0.03790340
0.02598018
0.03090961
-0.02248155
1.57812297
0.13002925
-0.02295575
0.00158557
0.00542245
-0.01784865
0.01765700
-0.01714925
-0.13520156
-0.00212615
0.12810986
0.00068532
-0.05065462
0.02796202
0.00061059
0.00921967
-0.00025136
-0.00431383
-0.01554462
0.00996658
0.05072682
-0.00401918
-0.00212364
0.00351415
0.00395479
-0.03587241
-0.02113427
-0.00379214
-0.00291698
