-0.00017388
-0.00459730
-0.01150999
0.00891959
-0.01241563
-0.00829815
0.00229030
0.00247645
0.00020454
0.00045483
0.05824479
-0.00066371
-0.00012801
-0.01653734
0.02179882
-0.00449794
-0.00090458
0.00099301
0.00833618
0.00025476
-0.03612965
0.00314211
0.00084764
0.00006613
-0.00914173
-0.02633663
-0.00189652
0.02331413
0.00260349
-0.10974307
0.00020341
-0.01393224
-0.05307747
-0.00468301
0.00078335
0.02776343
-0.00030416
0.00059860
0.00819610
-0.00121068
0.01360111
-0.00524682
0.00009249
0.01725534
0.00420235
0.00103191
0.05069115
-0.00108810
0.00015561
-0.00334243
-0.00059237
0.00778742
-0.06408543
0.02354319
-0.01183352
-0.00633514
-0.00369660
0.00596827
-0.00197598
0.00308881
-0.03156769
0.04242769
-0.00881394
0.00302600
-0.00666455
0.06098266
0.00006315
-0.00510895
0.01281197
0.01328137
-0.02251649
-0.00145256
0.00085817
0.00301058
0.00099176
-0.09073723
-0.03342628
-0.00877773
-0.00012433
0.00079442
-0.00202190
-0.00265488
-0.00142243
-0.00896346
-0.01172707
0.00023695
-0.00099937
0.00116929
0.04417621
0.01990607
0.00887320
0.00411596
-0.00005062
0.00163477
-0.00045329
0.00021484
0.03700891
-0.00746705
-0.00083036
0.00002711
0.01230143
-0.00058545
-0.00109521
-0.01378971
-0.00033320
0.00007813
0.00200480
-0.00815429
0.00328899
-0.00164170
0.00107502
-0.00116967
0.00462488
-0.00031098
0.00994256
0.03047361
-0.08925682
0.06687962
0.00073902
0.00835421
-0.00035313
-0.08008970
-0.00379868
-0.00173291
-0.00617164
0.00424745
-0.00017130
-0.00103728
-0.03668279
-0.00685646
0.00105854
-0.01484127
0.00002999
0.02796258
0.00282006
0.00007526
-0.00165717
0.00487275
-0.00087374
0.00021362
-0.00374387
-0.00553556
-0.00130564
-0.00143481
-0.00217215
0.01308205
-0.00035106
0.04289540
0.00005837
-0.00411675
-0.00111496
-0.00212304
0.00099287
-0.00984556
-0.08269972
-0.06870483
-0.12490413
0.00060532
-0.00790994
0.00294366
0.00034659
-0.01074925
0.00459968
-0.00764032
-0.00040022
0.00107856
-0.00094725
0.00024474
0.01338951
-0.00180586
0.00021247
-0.08054852
0.00057484
0.00710902
0.00430705
0.01516456
0.03997444
0.01814242
0.00533167
0.01772940
0.00018855
0.00784862
0.00543413
0.00807320
-0.01265467
-0.01538656
0.00043029
0.00480839
0.04632341
0.02369004
0.00081754
-0.00539482
0.00071096
0.02734961
-0.00388655
0.00230734
0.19022575
0.02015849
0.00071770
-0.00753196
0.00392107
0.00659764
-0.00493322
0.00082173
-0.01655758
-0.00180511
0.00179492
-0.00132210
-0.28857678
-0.00807455
-0.00028378
0.00433835
0.00650673
-0.00031363
0.02370451
-0.00346962
0.01805988
-0.03156797
-0.00007490
0.00114716
0.00126608
-0.00200033
0.00007391
0.00243752
-0.00040484
-0.00108084
-0.00143524
0.00028509
0.00258489
0.01728532
-0.00254871
0.00399931
-0.00053738
-0.00461032
-0.00127875
0.04156321
-0.00307177
0.00378433
-0.00479295
0.01178347
0.01358021
0.00113262
-0.00348109
0.00075165
0.00688425
-0.00172891
-0.00223889
-0.00136994
0.00162526
-0.00476947
0.00276576
0.00006241
-0.00491900
0.00029005
-0.00012534
0.02596553
-0.00356394
-0.00189684
-0.00809513
-0.07270177
0.00182177
-0.01022073
0.07837778
0.00052765
-0.00403437
-0.00267552
0.00948861
0.00036905
-0.00125935
-0.00132893
0.00397918
-0.02760736
0.00170331
0.05397820
-0.00260556
0.53773040
-0.00160041
-0.00110974
0.00115421
0.01584491
-0.00244856
0.07842355
-0.00371471
0.02157855
-0.00532031
0.00578241
-0.00041076
0.00198860
-0.01781977
0.03321277
-0.00957065
0.00039030
-0.00603803
-0.00002544
0.02340916
-0.00118204
-0.03267847
0.01829094
0.06525461
0.01674565
0.09715556
0.06630798
-0.00488262
-0.28059676
0.01288565
0.00978389
0.00035257
-0.01362585
-0.00233681
0.00015211
-0.01298279
0.02221020
0.01126392
-0.02426249
-0.05296815
0.00689864
-0.00452982
0.00652091
-0.03897851
0.00232779
0.02737523
-0.00037600
0.04068273
0.00079744
-0.00077143
-0.00036729
-0.02597424
-0.00290609
-0.00015413
-0.00915926
0.00222863
-0.05170258
-0.00015806
0.00245315
0.00246254
0.00207332
0.02233203
-0.00417482
-0.03773099
-0.06554647
-0.00266426
-0.00088944
0.00095463
0.00003503
-0.02976900
0.01206400
0.00011908
-0.00279491
0.00007852
0.00117897
-0.01624003
-0.03126546
-0.00825434
-0.00031988
0.00035920
0.00115542
0.00135036
0.00021880
-0.01636038
-0.01996810
-0.00057952
-0.00656318
-0.02556932
-0.00464743
-0.00344571
-0.00512496
0.03081788
-0.00156251
0.00128136
-0.00035246
0.00449634
0.02635603
-0.00005935
0.00233720
0.00079839
0.00008673
0.00061586
0.00074400
0.01415792
-0.00313598
0.00264103
0.01895249
0.00034502
-0.00269705
0.01966106
0.00427284
-0.00292240
-0.02229865
-0.00027399
-0.00037305
0.00011411
0.00095749
-0.00465148
-0.07118829
-0.00038462
0.00354105
-0.00005283
-0.00064237
0.01529075
-0.00073737
0.00567932
0.00153526
0.00251145
-0.00049388
-0.00002302
-0.00850643
0.00000029
-0.00170912
-0.00133196
0.01820191
-0.02518768
0.01591920
0.00211948
0.00028744
0.00109118
-0.02345269
-0.02455749
0.00003224
0.00839828
-0.02414520
0.00109384
0.01320553
-0.00197876
-0.00618567
0.00319761
-0.00615609
-0.00010706
0.00499588
-0.00020229
-0.00379051
0.00342512
0.02187913
0.00206717
0.03734798
0.00265180
-0.00952061
0.00597488
-0.00593695
-0.01701012
0.00190204
0.02582967
0.04821542
-0.00046792
-0.08418922
-0.02026133
-0.00733805
-0.16106181
-0.02748321
-0.00507089
0.00094310
-0.00058203
-0.00202081
-0.00011558
-0.03089869
-0.00125823
-0.00829058
0.00498901
-0.03803943
0.00710048
0.00000720
0.00159417
-0.00000767
0.00668662
-0.00754390
0.00174659
0.00002810
0.03885759
0.04700691
-0.00182384
0.00855020
-0.00124338
0.00593779
0.00142002
-0.00234715
-0.00108613
0.00490607
-0.00062952
-0.01216798
0.01749624
-0.02471906
-0.01832371
0.00025554
-0.20161842
0.00009894
0.00056933
-0.01134547
0.00162422
0.00000131
-0.02924259
0.01046928
-0.00498392
-0.02383692
-0.00132965
0.00933655
-0.00521865
-0.00003585
0.01044254
-0.00029916
-0.01223299
0.00051485
0.00129463
-0.00948169
-0.01815621
-0.00455958
-0.00230806
-0.00150907
-0.00447739
0.00100110
-0.00430646
-0.00313888
0.00573776
0.00182479
0.00081118
-0.00198605
-0.00045099
0.00161264
0.02533792
-0.03231821
0.00368033
-0.01541371
-0.00026248
0.00013475
-0.02719179
-0.00057046
-0.00084450
-0.00969798
-0.00127244
0.00366503
0.00002436
0.00413369
-0.00001654
-0.00005406
-0.00087542
-0.00491598
0.01102774
-0.00383246
0.01975076
-0.00220130
-0.01771326
-0.00236968
0.00228615
0.00335374
-0.01187377
-0.00013048
-0.00236093
-0.00227856
0.00029794
-0.00004486
-0.02674054
-0.00797735
0.00932167
-0.00620344
0.00925160
0.00132430
0.00081182
0.00084371
0.07285796
0.00022922
-0.01357701
0.00062354
0.00451481
0.01438931
0.00684291
0.00352530
-0.00001256
-0.00092150
-0.00002116
0.00009860
-0.01225479
-0.00035491
0.00076641
0.00529606
0.00023385
-0.00076619
0.01188211
-0.01599281
0.00587823
0.00063288
-0.01966098
0.00364892
-0.00025072
0.00260220
-0.00199870
0.01804821
-0.00846838
0.00592685
-0.01386993
-0.00057230
0.00579531
0.00296312
0.01007244
0.00005952
0.00034976
-0.01147862
0.00011608
0.01480395
-0.00852369
0.00032695
-0.04010943
0.00776820
0.06593519
0.01058402
0.00288060
0.00177539
-0.00498522
-0.00101525
-0.00864376
-0.00143907
0.00050589
0.00491159
0.00203951
0.00724893
0.01738616
0.00195715
0.00196701
-0.00812656
0.01498570
0.00106631
-0.00110188
0.09558463
0.07816985
-0.13330851
-0.00531135
-0.00309170
0.00261249
-0.00945374
-0.00051668
0.04107078
0.00000837
-0.02751244
-0.01987244
-0.01141081
-0.00336518
0.00118988
-0.01008713
0.06443050
-0.00187560
-0.00417592
0.00582530
-0.00317348
-0.00405003
-0.00087769
0.00613860
0.00018904
-0.01335529
-0.00044650
-0.01268629
0.06318119
-0.00222886
0.00029895
-0.00048570
0.00227840
-0.00247508
-0.00173232
-0.00055928
0.01599472
0.00139701
-0.00029113
0.00150122
0.01118927
-0.00075902
0.07311749
-0.01685435
-0.00399316
-0.00580179
0.03698052
-0.02794756
0.00070766
-0.00011754
-0.00034928
0.00226383
-0.00371242
0.05910654
0.00005558
0.00451191
0.09068555
-0.02093385
0.01572689
0.00019589
0.00423893
0.00205046
0.00096705
0.00906447
0.00334886
-0.00039642
0.00287732
0.00718121
-0.00289182
-0.00038356
-0.01309745
0.00061083
0.00085770
0.00020625
0.00470463
-0.03555011
-0.00132026
0.00442979
-0.00061364
-0.01224884
0.00068974
-0.01895038
-0.00237098
0.00087471
0.00100327
-0.00022455
-0.00085017
-0.00347323
-0.00397916
-0.01600260
0.01466099
-0.01083265
-0.03290332
0.01114024
0.02098414
0.00075809
0.00023091
-0.02381949
0.00148881
0.00078302
-0.00023119
0.02285368
0.00538043
0.00664282
-0.01030953
0.00761041
0.01891517
0.00240378
-0.00203776
0.00239230
0.04916146
0.00023304
0.00065956
-0.00305753
0.16190596
0.00372691
-0.00056109
-0.00083516
-0.00442468
0.00207730
0.02565137
-0.00044464
0.02221168
-0.00261451
0.00143314
-0.00246418
0.00144504
-0.01639456
-0.00261496
0.10210767
-0.00689206
0.00483269
0.00212812
-0.03145835
0.00198341
0.13718039
0.01099080
-0.00724424
0.00425500
-0.00323357
0.00371063
0.00105583
0.00105047
-0.00384756
-0.00034246
-0.00038959
-0.01034690
-0.00270173
0.00023386
0.01542906
0.00220318
-0.00571877
0.00958419
-0.02280460
0.01646927
-0.00026999
-0.04053845
0.00166449
0.00344702
-0.00112562
0.00066312
-0.00172879
0.01052990
0.00311081
-0.00017552
-0.00596135
-0.00005825
0.00008284
0.01177960
-0.01996280
-0.00868487
0.00642287
0.00235317
-0.00076269
-0.00012912
-0.01823914
0.07035371
0.00002896
0.00803711
0.00846521
-0.01546040
-0.01294934
-0.00080483
-0.01835534
0.10389104
0.01929056
0.00624974
0.01688332
-0.00027457
0.01009492
0.00156564
-0.00465998
-0.00046960
-0.00307216
-0.01093226
0.01255640
0.00093884
-0.00101529
-0.00253570
0.02106003
-0.00004336
0.00023928
0.00707204
0.00059966
0.00062471
-0.00062643
-0.00144208
-0.00071501
-0.00170240
-0.00337612
-0.00777149
0.00417510
-0.06656857
-0.00159621
0.00019400
-0.00008209
-0.00203919
0.00074938
0.00129988
-0.00706711
0.00019867
-0.01326374
-0.00036413
-0.00872355
0.00016803
-0.00018645
-0.01483779
0.00440425
0.00141437
-0.00002813
-0.00289515
0.03097790
-0.00484632
0.01235332
0.04934338
-0.00047235
0.00482325
-0.00246230
-0.00123082
-0.00351902
0.00001817
-0.02243979
0.00071993
-0.01423434
-0.05664089
-0.00713755
0.00072215
0.00042748
0.00044899
-0.01112790
0.00039689
-0.00923791
0.03397253
0.03171096
-0.00059313
0.00029716
0.02344028
-0.00624163
0.03270679
0.03080537
-0.04905295
0.00039868
0.00569656
0.06914534
-0.01005290
0.00040572
-0.00499352
0.00600081
-0.00058639
-0.00054382
-0.00056072
-0.00043684
-0.00135441
-0.03428676
0.00111565
-0.00690819
-0.04885938
-0.03818624
-0.00012384
-0.00981052
0.00055733
0.00022778
-0.00140510
-0.00651681
0.03000910
0.00514580
-0.00417429
-0.00516792
-0.00007753
-0.19861476
-0.00351682
0.02388212
0.02131397
-0.02313235
-0.01492544
-0.00029179
0.00095960
0.00011312
0.00130944
-0.03008944
0.01984263
-0.03610272
0.00098271
0.02830553
0.01062511
-0.01578455
-0.00748212
0.00215071
-0.00065107
-0.00850185
-0.00569490
0.00448329
-0.04276314
0.00965413
-0.00265279
-0.02421238
-0.02228929
0.00078880
0.02983171
-0.00171129
0.00209686
0.02024623
-0.00015133
-0.03021196
0.01617416
-0.00139294
0.00121396
-0.00377319
-0.00118012
0.00061277
-0.00364542
-0.01274653
0.04332361
-0.00086131
0.00157590
-0.00015363
0.00280452
0.03098343
-0.04374677
-0.00079888
-0.02789611
-0.01079713
0.00098632
0.00220508
0.00236759
-0.00244907
0.01635896
-0.00080089
-0.00060450
-0.00294651
-0.01458735
0.02382015
0.00306633
-0.01532408
0.00067044
-0.00330713
-0.00542416
0.00014930
0.00003526
0.00129538
0.01694959
-0.00647441
0.00273192
-0.00499645
-0.00110683
-0.01496729
0.00002903
-0.02959292
-0.00124414
0.00117395
-0.00473642
-0.03113787
0.00543951
0.00235632
0.00876732
-0.00303135
0.00019157
0.01454214
0.00015681
0.00025257
-0.01414894
-0.00023681
-0.00388340
-0.00078010
-0.01519141
0.00136241
0.00439842
0.00098409
0.01044564
-0.00025373
-0.00064382
0.01483403
-0.00136252
0.00257731
0.00134920
0.03509234
-0.00201024
0.00591794
-0.00392394
-0.01722266
0.01397819
-0.01720514
0.00108945
0.00602658
-0.00084826
-0.05273854
0.02296600
-0.00128736
-0.02082634
-0.01448704
0.00003480
-0.00422381
0.00053223
-0.00024777
-0.00279668
0.01021598
0.00093738
0.00526003
-0.02762811
-0.00004010
-0.00228356
-0.00219354
-0.04238430
0.00066850
-0.00551741
-0.00217300
-0.01569025
-0.00098816
0.00011388
-0.11020108
-0.00512658
-0.00105839
0.00203766
0.00573282
0.00057452
-0.00606246
-0.00973738
0.02455492
-0.00304087
-0.00730636
0.05237443
0.00590673
0.00188308
0.00139317
0.00367280
-0.00010902
-0.00025005
0.01216865
-0.00441583
0.00682836
0.05354331
0.00050533
0.00772428
0.00338507
-0.03141710
0.00309907
-0.00452302
-0.02583876
-0.07065245
0.00780574
-0.00002063
-0.00119538
-0.00135440
-0.02407788
-0.00131776
0.00137697
0.00243622
0.00099012
0.01525031
0.01411198
0.00253501
-0.00657454
-0.00032216
-0.00580383
0.02208295
0.01665106
-0.00759880
0.01121427
0.02828855
-0.00122638
-0.00030700
0.00084133
0.01493029
0.00086347
0.00152650
0.00033662
0.04175264
0.04562689
-0.00009446
0.07161955
0.00989917
0.00081454
-0.00319744
0.00415220
0.05769020
-0.00261401
0.00510957
0.00062839
-0.00174463
0.00462366
0.00542323
0.00401049
0.00039723
0.01873670
0.00661653
0.00016801
-0.00223953
0.00001788
-0.03337789
-0.02115840
-0.00099167
-0.01142127
-0.05959651
0.00149809
-0.00503351
-0.00384830
0.00103187
-0.00106849
-0.00981747
-0.04733295
-0.00082546
0.00859652
0.01412307
0.00361680
-0.00382645
0.00058153
-0.00009135
0.00019575
0.00515139
-0.00113986
-0.00084805
-0.00905149
-0.00688741
0.01400468
-0.05454749
-0.01018636
-0.00011835
0.00814124
0.00183998
-0.03067599
0.02023952
-0.00180198
0.00980921
0.00013651
-0.05973207
0.00063119
0.00365501
-0.00151830
-0.00736179
-0.00909343
-0.00713430
-0.00079428
0.02116612
-0.00083846
0.00046297
0.04149368
-0.00072825
-0.00873469
-0.00520357
-0.00029741
-0.02055197
-0.04700149
-0.00049884
0.00924147
0.00000029
-0.01966135
-0.00224768
-0.00705350
0.00288295
-0.00099399
-0.04976754
0.00003496
-0.00448330
-0.00055023
-0.00098981
-0.00120762
-0.00132990
-0.00220764
-0.00269126
0.00499021
-0.00106401
0.00844800
-0.00804987
0.00292923
-0.00574639
-0.01551941
0.15476508
0.00060759
0.02453041
0.00050898
-0.00086362
-0.00609535
-0.00845375
0.02197486
0.00051719
-0.00020307
-0.01906957
-0.00248703
-0.00050794
0.06942038
-0.00486320
0.00556792
-0.04436161
0.00155322
-0.02432488
0.01105047
0.00255935
-0.00069266
0.04607028
-0.07920535
0.00064738
0.01454853
-0.00051535
0.00042450
-0.02172687
-0.00391758
-0.07269391
-0.00888856
-0.00014256
0.00077991
0.03658216
0.07343356
-0.00014317
0.04704826
0.00087617
-0.00069619
0.00323334
0.00015726
-0.00316584
-0.00517520
-0.02029021
-0.00323735
-0.00009586
-0.00761056
-0.00387459
0.00002761
0.00020827
0.00265153
0.00383919
0.00434044
-0.00281289
-0.00848297
-0.06024031
-0.00037073
0.00071688
0.00217131
-0.00076197
0.02189269
0.00105722
0.00483011
0.00158134
-0.00223849
0.00911767
0.00124717
0.00890061
-0.01799132
0.07094292
-0.04895099
-0.00080537
0.02966853
0.00846667
-0.00035889
0.00054480
-0.00003835
-0.00374196
0.00343218
0.00128559
-0.00449391
-0.00242903
0.00610184
-0.00074955
0.00546259
0.00128653
-0.00714076
0.00285298
-0.00054600
-0.00153854
0.08923781
-0.00185504
-0.00020672
0.00029458
0.00119037
-0.00055513
-0.00096408
-0.00521542
0.00100324
-0.00028611
-0.00860334
-0.00976908
0.00010402
-0.00101678
0.00702650
0.04463051
0.00094211
-0.00039201
0.02490810
0.02806663
0.00172580
0.00064767
0.00056432
-0.04816160
0.00321390
-0.00044484
-0.02619610
-0.01795212
-0.01005421
-0.01681910
-0.00483817
-0.01874075
0.00078310
-0.00110739
-0.02793166
-0.00014039
0.04517105
0.00221052
0.01697179
-0.03331887
-0.00284344
0.00170708
-0.00219721
-0.00092219
-0.00826400
-0.04164205
0.01840339
-0.00006453
0.00082248
0.00011422
-0.16613097
0.01346895
0.10388187
-0.01728332
0.00094468
-0.00354095
-0.03229981
-0.00343417
0.00057179
-0.05031500
-0.00004994
-0.00851276
0.00879082
0.00035804
-0.00000208
0.02822081
-0.00416522
0.04669257
-0.00868085
-0.00535631
0.01056908
-0.00076253
-0.00198539
-0.00124689
-0.00225442
0.01338923
0.01422298
-0.00873350
0.00130991
0.00675793
0.00969043
0.03266830
-0.00158511
0.00406745
-0.01489358
0.00143592
0.00622272
0.04117593
-0.01639841
-0.00139165
-0.00026932
0.02108844
0.00465842
-0.00261635
-0.01654597
0.01931912
-0.00104638
-0.03356805
-0.00034716
0.05953538
-0.00015964
0.01177290
0.00572899
-0.00203379
-0.00141596
0.02045437
0.00129802
-0.06305771
0.00207501
0.01148795
0.00283748
0.00921485
0.00193559
-0.00105037
-0.00181955
0.00100686
0.00077993
0.00063862
-0.00148928
-0.00359236
0.00887519
0.03954558
0.00225242
-0.00034585
-0.00003867
-0.00418614
0.00365916
-0.02222460
-0.03023495
-0.00067513
0.00068669
0.00592418
-0.05319972
0.10393521
-0.06947464
-0.00129282
0.00058438
0.01273513
-0.00194131
0.00051191
0.00062608
-0.00257203
-0.01725346
0.06892198
-0.00227965
0.05601423
0.00973805
-0.01981627
-0.00054298
-0.00062306
-0.00445840
-0.00061531
-0.00065376
0.00001086
-0.10321102
0.00126819
0.03073240
0.00195573
0.01756481
-0.02477478
0.00115935
-0.00086559
0.00044890
0.02485882
-0.00787976
-0.00019411
-0.01999102
-0.01625413
-0.00288222
0.02924042
-0.03312987
-0.00390575
-0.00004950
0.00011321
0.00434878
0.00794890
-0.00195146
0.00631176
-0.00980064
-0.00050058
0.00005085
0.00044558
-0.01553123
-0.00001277
-0.00041299
-0.00966447
-0.00041809
-0.00652511
0.00120423
-0.02207323
0.00272670
-0.00380555
0.00257102
-0.06044839
-0.01195456
-0.00135076
-0.01395010
0.00143787
0.00178233
-0.00683613
0.00478639
-0.00033222
-0.00211410
-0.00097535
-0.00610965
0.08788657
0.00277338
-0.00060559
-0.03585703
-0.05907391
0.00999764
-0.02880893
0.03386553
-0.00428288
0.00072678
0.00048541
0.00095270
0.00002070
-0.00798375
-0.01356449
0.00068719
-0.00161444
0.00600264
-0.00061252
0.00058574
-0.01341455
0.00116056
-0.00277953
0.00095306
0.04794211
-0.01212542
0.00591565
0.00120080
-0.00051786
-0.00551270
0.00308332
0.00005156
-0.00057347
0.02016138
-0.00001885
0.00329062
-0.10580321
-0.00352432
-0.01825825
-0.00207797
-0.00025434
0.02003812
-0.00007449
0.01491080
0.00165200
0.00209322
-0.00093330
-0.00112277
0.02849738
-0.00935823
0.01032947
0.00343382
0.00948611
-0.00003578
0.00096070
-0.00553507
0.00703536
-0.00041906
0.01669967
-0.00096090
0.00397462
0.00024650
-0.00231388
-0.00736209
-0.05686353
0.00177613
0.02485221
0.00029753
-0.00027067
-0.04795130
0.00082298
0.01767688
-0.00001174
-0.01778715
0.00172652
0.03747528
-0.00451025
0.00131038
0.00150101
-0.00078661
0.01879363
-0.03794163
0.00041094
-0.01534203
-0.00280605
-0.00525480
-0.01301580
0.00515734
-0.00340166
-0.00251860
-0.00516527
0.00002714
0.00479725
-0.00296136
0.01503633
0.00010219
-0.00132702
-0.00842243
0.00335301
-0.00016714
0.07656016
0.00090092
0.16978581
0.01029395
0.04448690
0.00030438
-0.01603738
0.00010148
-0.00636338
-0.01460108
-0.00229655
0.00011593
-0.00361402
-0.00122028
-0.00899529
-0.03886632
0.00236488
-0.00026476
0.00782411
0.02085129
-0.17516935
0.01339035
-0.08953528
0.00994572
-0.00217699
-0.02752808
-0.04533430
0.00056742
0.00389304
0.04950064
-0.00525584
-0.01497488
0.00473283
-0.00437607
0.00612756
0.00530651
0.02890366
0.00004224
0.01257033
0.01109258
0.04202164
-0.00038543
-0.00016491
-0.00028938
0.00126949
0.03902305
0.00998067
-0.00004970
0.00076545
-0.00131081
0.00070382
0.01669128
-0.01695179
-0.01462438
0.00034679
-0.01723347
0.00101092
-0.00061334
0.00035475
-0.00464802
0.00900148
-0.00321542
0.00971650
0.01224060
0.00386046
-0.01993819
0.00502330
0.00300190
-0.00003238
0.00322989
0.01795095
0.00176231
-0.00501356
0.00005122
-0.00033388
0.00809653
-0.00696965
0.02200412
-0.00490379
-0.01045544
-0.00309805
0.00054077
0.02901580
0.00000161
-0.00960588
0.00125407
-0.01660616
0.00112471
0.01826434
-0.00174032
0.00017146
0.00396705
0.01427414
-0.03397706
0.04617314
-0.00290936
-0.00132563
0.00051414
-0.00129860
-0.00311276
-0.04002353
0.00394849
-0.00009503
0.01241369
0.00018974
-0.00013361
-0.00745197
-0.00079224
0.00167638
-0.00018650
-0.10720950
0.00990036
0.01302527
-0.00024031
0.00146255
0.00522505
-0.01038907
-0.01054327
0.03096871
-0.00007567
-0.02762331
0.02168474
0.00924850
0.01532939
0.00114697
0.00138020
0.00007133
-0.00185578
-0.01550731
-0.01105664
-0.02447561
-0.04646197
0.00027962
0.01412462
-0.02128533
0.10476093
-0.00025911
-0.00016140
-0.00036405
-0.02270909
0.05929968
-0.00919240
0.03456643
0.01519180
0.00120960
0.01184595
-0.04234279
-0.00301835
-0.02139219
0.00134119
-0.08248667
-0.00380449
-0.00032594
-0.00091033
0.00380673
0.00247322
0.04163101
0.01516564
0.00021208
0.00184360
0.01223993
0.00000766
-0.00067265
-0.00392576
-0.01498210
-0.01958755
0.05017029
0.00166378
-0.00017403
-0.02013079
0.00012798
0.00178010
-0.02210677
0.00062148
0.00142618
-0.01279999
-0.03313096
0.01945723
-0.00824065
-0.01428286
0.00059191
-0.00117068
0.00023094
-0.00038799
0.00081778
0.00929486
-0.01760443
-0.00002921
-0.00523861
0.02130597
0.00048549
0.00277852
-0.00089383
0.00200575
0.00192058
0.02342398
0.02125193
-0.00748276
-0.02745841
-0.00037902
-0.04537600
-0.02018273
0.01275206
0.00680300
0.00032477
-0.00171123
-0.03824297
-0.03184874
0.02653111
-0.02745628
0.00138888
-0.00903249
-0.00108488
0.00019411
-0.00172007
0.00362077
-0.00459137
-0.00002123
0.00000555
0.00119808
0.00016465
-0.06182010
0.05501227
0.00017587
0.00059910
-0.00668362
0.20609003
0.00029004
-0.00023350
-0.01438399
0.00069571
-0.07822551
-0.00648276
0.00986477
-0.00062922
0.03189811
0.00227065
-0.00089330
-0.00101189
-0.05160912
0.05545692
0.08365227
-0.00516462
-0.00028695
-0.00065557
-0.01624991
-0.01135705
0.00087813
0.00133889
-0.00041737
-0.00093625
-0.00289064
-0.00089795
0.01788830
-0.00047558
-0.02363799
-0.00390850
-0.00222590
-0.00797733
0.00001297
-0.00504582
0.01623746
-0.00362875
-0.11329663
-0.00232690
0.00623743
-0.00221986
-0.00847214
-0.00047747
-0.00183922
0.00023345
0.01870718
-0.04017263
-0.00325233
-0.00003518
-0.02517654
-0.02195348
-0.09588078
-0.00730350
-0.00293991
-0.04440932
-0.00087269
-0.01926553
-0.02315239
0.07528228
-0.01670149
-0.00053310
0.00031304
-0.00687766
-0.05004850
-0.00191728
0.01006941
-0.00052391
-0.00082425
0.01645287
-0.00059918
-0.00165805
0.00087771
-0.00151156
0.00218521
0.00026802
-0.00097833
0.00230817
0.07885882
0.00038738
-0.00116334
0.00417979
-0.00063307
0.00145200
-0.00005304
-0.00051649
-0.00044682
0.01562996
-0.00070354
0.00022814
0.02932337
-0.00297597
0.00011565
0.00006587
0.00317289
-0.00584944
0.00198721
0.09630151
0.00537787
-0.10729827
0.01005700
0.00630344
0.00178799
0.01759709
-0.03475128
-0.00240810
0.01057820
0.00013692
-0.01039308
-0.02233213
-0.00035160
-0.03655127
0.00710940
-0.00020086
0.00084998
-0.00984791
-0.00152175
-0.00002015
0.00005882
-0.00012736
-0.00798129
0.00784943
-0.00266378
-0.00559750
0.00023643
-0.04145785
0.00040219
0.00699555
0.00186107
0.01520070
-0.00406872
0.00461901
0.00848768
0.00024508
0.00489726
-0.00611983
0.00015209
-0.00038414
-0.00131899
0.01795242
-0.00042260
-0.00060665
-0.00293349
-0.00245854
-0.00022849
0.01294155
0.00202096
-0.01509806
0.00294829
0.00959977
-0.00022660
0.00466656
0.00393334
0.00610180
0.00040248
0.01364093
0.00024798
0.00208986
-0.02756023
0.02765243
0.00134464
0.00445446
-0.00137453
0.00081399
0.00150214
0.00162908
0.01276196
0.00006239
0.00752296
0.03547603
-0.00181883
0.00031399
-0.00043015
-0.00645813
0.00720466
0.00024011
0.00144890
-0.05593166
-0.00012365
0.05635318
0.00239318
-0.00342193
-0.00348862
0.00226842
-0.00000005
0.00051953
-0.05729267
0.01871731
-0.00484159
0.02381505
-0.00375072
-0.03271757
-0.00064639
-0.00131134
-0.00436722
0.00007221
0.01649418
0.07134257
-0.01208154
0.04924975
-0.00219455
0.02963295
0.00008069
-0.00026031
0.00142038
0.00383980
0.02580627
0.00679287
-0.00773766
-0.01984444
0.00098294
0.00677862
-0.02131930
-0.00561714
-0.05238523
0.00364506
0.03012308
-0.00137588
-0.00406602
-0.00630352
-0.01832454
-0.00019990
-0.03688201
-0.00260171
-0.03165714
0.00014244
-0.00112724
0.02225108
0.09921136
-0.00975617
0.00194333
-0.01998050
-0.00010210
0.00081140
0.00072306
0.00254032
-0.00606857
-0.00090705
-0.03961586
-0.00698791
0.00458606
0.00112904
-0.00010621
-0.00003337
0.00539313
0.00483154
-0.08008288
0.03148824
0.01519658
0.00289792
-0.00665887
-0.00003461
-0.01463174
0.01123515
0.00273214
-0.00226365
0.00276017
-0.00350496
-0.01823866
-0.14951473
-0.09131290
0.00697672
0.01263123
-0.01958380
0.00153724
0.00122032
0.01184145
-0.00011782
0.00103399
-0.02174083
0.00001061
-0.00027032
-0.01616174
-0.00083512
-0.00396158
-0.02647198
-0.00857743
0.00033733
0.04766008
-0.00140808
0.01501997
-0.00742774
-0.00051042
-0.00125691
0.01011438
0.00321010
-0.01498424
-0.00034658
-0.01582743
0.00085340
0.00523126
-0.03947537
-0.00053749
-0.02486845
-0.00024547
0.00306337
0.00324517
0.00775086
0.02183594
-0.00001241
-0.00489657
0.00009337
0.00868783
-0.00299338
0.00773253
-0.02569556
0.00346454
0.00809247
0.00023642
-0.01991805
0.00019954
0.00091736
-0.00811156
-0.00896092
-0.01913038
0.00142594
0.00984930
-0.10119216
0.00151217
0.00121457
-0.00943256
-0.00377790
0.01130157
0.03313348
0.00044614
-0.00009822
0.04457479
-0.01194060
-0.00014821
0.00019202
-0.01186161
-0.00145150
-0.01333964
-0.00506908
0.00151006
-0.12923689
0.00100310
0.00889566
0.00496731
-0.00015085
-0.00010310
0.00337380
-0.00017912
0.00029599
-0.01693168
0.10080337
0.00266027
-0.00236531
-0.00247289
0.00286544
0.00005771
-0.01063454
0.02402026
-0.00066130
-0.00048488
-0.00347712
0.00033988
-0.06327230
-0.00066002
-0.00066768
-0.00009890
0.01353720
-0.00801563
0.02942201
0.00109768
0.00421267
0.01679308
0.00069949
0.00006871
-0.02078782
0.01695703
-0.00280012
0.12758592
-0.00109194
0.01132966
0.00046468
-0.00104276
0.00151530
-0.00105394
-0.01408099
-0.00042219
0.01271300
0.00907145
0.03016487
0.00003973
-0.03589242
-0.01371617
0.05354429
0.04415881
0.01136863
0.00532499
0.00028117
-0.00005389
0.00075517
0.03415537
0.00095434
0.00106444
-0.00116720
0.00121953
0.02941943
-0.00001782
0.00400193
-0.01435233
0.01389411
0.00639513
0.00229083
0.00105219
-0.00399009
-0.00005487
-0.14073338
-0.01189147
-0.00511782
0.09272853
-0.00557805
0.00001071
0.00966749
-0.03873749
-0.00542047
0.00075085
-0.00273535
-0.00217438
-0.00015218
-0.00840961
-0.01004637
0.00131795
-0.00494052
-0.00181429
-0.00421852
0.00004170
0.00348156
0.15588638
-0.00286158
0.00020151
0.00307543
0.00222351
-0.00792947
0.00627958
0.00350500
0.01568871
-0.00291391
-0.00119414
-0.00086087
-0.01601176
0.00012450
0.00970485
-0.00117299
0.00866475
-0.04683150
0.00036285
-0.00019724
0.00061003
-0.00115458
-0.00604384
-0.00134719
-0.02354123
0.01523691
0.00651476
0.00403923
0.00384899
-0.00059521
-0.00005853
-0.00483363
0.00077983
-0.00002250
-0.00108060
0.00376054
-0.03963501
0.00252887
-0.00754225
-0.00038241
-0.00078875
-0.00034216
-0.00039099
0.00461371
0.01538365
-0.00160693
-0.01052095
0.01750491
0.01679835
0.00077929
0.00731708
-0.03420414
0.00157770
0.00075725
-0.02964996
0.01210458
-0.02091124
0.10820962
-0.02941483
0.00320403
-0.02563219
-0.00001993
-0.00007577
-0.00370379
0.00022502
0.01218156
0.00252804
0.00541137
0.02539421
0.00036396
0.00042658
0.00059683
0.00695290
-0.03960958
0.00038239
-0.01211622
0.00030846
-0.00490244
0.00184152
-0.00023722
0.00055158
0.00115336
-0.00902962
0.00008072
0.00629458
0.01851575
-0.00489941
0.00173850
0.00014925
-0.00000570
-0.00791671
0.01788851
-0.00094830
-0.00385682
-0.00276491
-0.07675800
0.00758367
0.00030407
0.00962746
-0.03293925
0.00115040
0.00804056
-0.00042174
-0.00027408
0.00007435
-0.05678923
-0.00575853
-0.01197127
0.00040697
0.06285603
0.00083559
0.01192494
-0.00366449
0.01300169
0.00729472
-0.03015459
0.00106805
0.01492337
0.00506298
-0.05957051
0.04382867
-0.00497863
-0.00161845
0.00182388
-0.11641896
-0.08376814
-0.00000898
-0.00365448
0.00106108
-0.03543913
0.03489097
0.00416152
0.00652610
0.00372988
0.00005990
0.01255610
-0.07987390
0.00112067
0.00210106
0.00008356
0.01716747
0.00237108
-0.00329760
-0.00059416
0.07405466
-0.00274584
-0.00000339
-0.00673255
0.00255888
0.00067637
0.07635164
0.04169866
0.03343531
-0.07477415
-0.00029622
0.00526663
-0.00108675
0.00154070
0.00044938
-0.00042751
-0.00672712
0.00294948
-0.00755629
0.00081418
0.00168685
-0.06192387
0.00070085
-0.00045409
0.00143665
-0.00033058
0.00401854
0.00118169
0.03655624
0.01176610
0.00091516
-0.00040791
-0.00679563
0.00141548
-0.00064327
-0.00020328
0.00816514
0.00121325
-0.01709800
0.00161549
0.00333776
-0.00013505
-0.00881797
-0.00095448
-0.01597355
-0.03090809
0.00065958
0.01027398
-0.02694305
0.03506645
0.00057110
0.01735800
0.00222185
0.05678507
-0.02452189
-0.00083869
-0.00051589
0.00177504
0.00036077
0.00938778
-0.00918294
-0.01426447
0.01138896
0.00000699
0.00002213
-0.00100930
0.00573503
-0.01645125
0.00018921
0.01275560
-0.00101003
0.00170292
0.00006886
-0.00069573
0.02289758
0.00087961
-0.00353522
0.00017068
-0.05541652
-0.00034536
-0.00001612
-0.00136392
-0.02292150
-0.00052138
-0.01693938
0.00032438
-0.01008828
0.03581309
-0.04175777
0.00227981
0.00001899
0.00019656
0.00030201
0.00044879
0.00051475
-0.00356000
0.00815227
-0.03330244
-0.00116950
-0.00448003
0.00087904
-0.04052327
0.01106232
-0.00143456
-0.02925192
0.01864103
0.01072507
0.01151408
-0.00089447
-0.03277859
-0.04908959
0.00859354
0.00526062
0.00049477
0.00006604
0.00010369
-0.00680214
0.00081565
-0.00444938
-0.02208939
0.00257245
0.05494434
-0.01119736
-0.00739082
-0.00796511
0.00010804
-0.06082807
-0.00962772
0.07869422
0.00029677
0.00388226
-0.00039297
-0.00013105
0.00433641
0.04589910
-0.00102795
-0.00288931
0.00004057
-0.00994181
-0.01787351
0.00061261
0.00689887
-0.03241039
-0.00312044
0.00043679
0.00801703
-0.00917391
0.01011522
-0.01809618
0.00012883
0.00012091
0.05527452
0.01451949
-0.00491642
-0.00662663
-0.01061276
-0.00003144
-0.03298342
-0.02441479
-0.01831667
-0.00340622
-0.00001588
0.00030972
-0.00724122
-0.00002816
-0.00038473
0.00252771
0.00577767
-0.00121523
-0.00188021
-0.00420509
0.00034206
0.00008716
-0.00481562
-0.00186228
-0.00501543
0.00095942
-0.03196026
0.02840949
-0.00109074
-0.00373321
0.00080621
0.00976448
-0.01668351
-0.00012626
-0.00298022
0.00010436
0.01776704
0.02647842
-0.00100364
0.00446582
0.31594053
-0.03655097
0.00311442
-0.00660221
0.01171850
0.00049468
0.01155436
0.00083261
0.03267193
0.00121870
-0.02682057
-0.00138208
0.00608111
0.03429709
-0.00124616
0.00313024
0.00018195
0.00254691
-0.04794947
-0.00157038
-0.00209945
0.02155677
0.00516717
0.02202079
0.01023422
-0.00329017
0.00066597
0.01863202
0.01576078
0.00085002
0.00400272
-0.00102056
0.00250872
-0.01082220
0.00872279
-0.00067238
-0.00677422
-0.00108469
-0.07103482
0.00728953
-0.00076127
-0.01006582
0.00137420
-0.00013502
-0.00385326
-0.01370131
-0.01327254
-0.01088488
0.00084492
0.00617151
0.00062026
0.00136581
-0.01022813
0.00275379
-0.01061540
0.00816751
-0.00542290
0.01377936
0.01725961
-0.01693831
-0.00252386
0.00155934
0.01421237
0.00012218
-0.00258934
-0.02117262
0.00382198
-0.00172969
-0.00359788
-0.00708474
-0.02164470
-0.00433848
0.00057951
-0.00133396
-0.00241392
-0.00197778
0.00203374
-0.03322623
0.01440295
0.09485392
0.00280970
-0.01028234
-0.00547709
-0.00030005
0.11012729
0.01498945
-0.03634605
-0.00145720
0.07944965
0.02821454
0.01046006
-0.00501968
0.01545665
-0.00134967
0.05607980
-0.00803361
0.00033323
-0.01306970
-0.00011781
0.00046921
-0.00103330
0.00150809
0.00108532
-0.00837079
0.00274753
0.00416872
-0.01907925
-0.00004832
0.00380019
-0.00151560
-0.00179020
-0.02312176
0.00020699
0.00125868
0.01445203
-0.00093507
0.00608491
-0.00602951
0.00173650
-0.00018929
0.00064296
0.01311788
-0.01180922
0.00054706
-0.02182991
-0.00277351
-0.00016214
-0.00013551
0.00213504
-0.01712783
-0.00290892
-0.02195895
-0.10349701
-0.00387069
0.00214817
0.02407547
0.00039190
-0.01347511
0.00691979
-0.03473916
0.00207470
0.00022200
-0.00029452
-0.07342836
-0.00007975
0.00305239
0.00209002
0.00022379
0.04605165
0.00129342
-0.00071523
-0.02585906
0.00047273
-0.01809639
-0.05120170
-0.00056516
-0.02382543
-0.00734138
0.00182005
0.00417251
-0.00041191
0.00692774
0.00036064
0.00012492
0.02282328
0.00044024
0.00125920
-0.00266589
0.00126164
0.01056353
-0.00010212
-0.00058946
-0.07203236
0.00200850
0.00032559
0.00144236
0.00526119
0.00424796
-0.00591137
-0.00013890
-0.00036110
-0.00481657
0.00053286
-0.00206650
0.00008074
-0.00389832
0.00180250
-0.01547153
-0.02289507
0.00198019
-0.02884459
0.04329860
0.00402731
-0.02870867
-0.03290537
0.00557504
0.04461508
0.00386974
-0.06196959
0.00218054
0.00321402
-0.00009464
0.01887415
-0.05675692
-0.00021550
0.01820022
-0.00001353
-0.03816831
0.00022269
0.00061528
0.00960987
0.03851960
0.00412172
0.00088003
-0.04189307
-0.00051410
0.01966736
0.06051810
-0.03472148
-0.00026740
-0.00017067
0.00065141
0.01166993
0.01957637
-0.00812367
-0.00969710
0.00019609
0.01162884
0.00338762
-0.01529545
-0.00418464
0.00001831
-0.01398127
0.00052494
-0.00311799
-0.00009772
-0.00082164
-0.00056748
-0.01289724
0.00111431
0.13083909
0.00553319
-0.23645845
0.13139659
0.00291036
0.00019511
0.00761937
0.03285033
0.00457390
0.00165892
0.00124128
0.00795966
-0.00386133
0.00703106
-0.00474041
-0.00467925
0.03473614
0.00549405
-0.00591582
0.00006016
-0.00343214
0.00245287
0.00011108
0.00537857
-0.02830284
0.07145268
0.00116739
0.00283978
0.00479714
-0.00011531
-0.00170819
-0.00260020
0.02246513
-0.01340946
-0.00075013
0.01503661
-0.00104744
-0.00060672
0.00027929
-0.00080410
0.01939235
-0.00174333
-0.00108285
0.00653489
0.03043387
-0.03003056
0.00012586
-0.00140647
0.00285517
0.00112115
-0.00136725
-0.01773344
-0.03075819
0.00015184
-0.01125148
-0.00091333
0.00000398
-0.00078543
0.00013418
-0.02012485
-0.00134939
0.00538354
0.00593535
-0.01315263
-0.00551792
-0.01052886
0.00028932
-0.03476295
0.00103739
-0.00442844
0.04222655
-0.03289891
-0.00030413
0.00161082
-0.00122731
0.00407913
0.00018720
-0.04233243
0.00027175
-0.09576552
0.00907769
-0.01520387
-0.00427938
-0.00042649
0.01282573
0.00226428
-0.00269859
-0.00507135
-0.00874345
0.00354043
0.00047827
-0.00023460
0.16397457
0.00648409
-0.00016617
-0.01675588
-0.00084613
-0.00683134
-0.00651578
0.00642517
-0.00010963
-0.00792458
0.00141500
0.00048470
0.00238843
0.13304169
-0.00734271
-0.00280543
0.01750523
-0.00076110
-0.00436955
-0.02487403
-0.02121429
-0.00426141
-0.00243227
-0.01827804
-0.00017416
-0.00319511
0.00080756
-0.00026253
0.00182775
-0.02464180
-0.00322234
-0.00955125
-0.00511507
-0.00100495
0.00028117
-0.00252193
0.05086850
-0.01066388
0.00021038
0.01364151
-0.00083575
0.00053169
-0.00690155
-0.06549119
-0.01010104
0.00010130
-0.00359013
0.00160509
0.00038187
-0.00280756
0.00317623
-0.00057284
0.02015851
0.00004593
-0.00343235
0.07645033
0.00068307
-0.00070624
-0.00077235
-0.00758625
-0.00182451
-0.00057159
-0.00166818
0.00293553
-0.09527406
0.01520146
-0.00687968
-0.00074517
0.01348749
0.00733325
0.00060644
0.00008256
0.01123951
0.04343206
-0.00072979
-0.00192541
-0.01037069
-0.00361287
-0.06251974
0.00449856
0.00290858
-0.00419485
0.00636812
-0.00285060
0.00990112
-0.00024210
-0.00713966
-0.02101857
-0.00564950
-0.00374459
-0.00433685
0.00056019
-0.01092912
-0.00049229
0.00561272
0.00160178
-0.00194755
0.00069463
0.00292296
-0.00711957
-0.05247363
-0.00292679
-0.02886324
0.00120847
0.00008784
-0.00022291
0.00017957
0.00174651
0.00020973
-0.00676832
0.01877609
-0.00245140
0.00337674
-0.00194463
-0.02691421
-0.00624931
-0.00671784
0.06180478
-0.00753133
-0.00589437
-0.02126493
-0.00162010
0.00031740
0.00394663
0.00111619
0.03927121
0.00362779
0.00057385
-0.02450897
0.00045931
-0.01139606
-0.01237692
0.00062723
0.00086954
0.00132916
0.00031205
0.00339329
-0.05366258
0.00059967
-0.00251269
-0.00223722
-0.00600407
0.00276767
-0.00084525
0.06629395
-0.00010356
0.04185079
-0.00280414
-0.00028627
-0.00095964
-0.00004339
0.03789287
0.05273833
0.02508498
0.00975925
-0.01197910
-0.01558415
0.12282625
-0.00009610
0.01818063
0.00802720
-0.01221263
0.00270107
-0.01319379
0.00222559
0.00073759
-0.00060389
-0.00015891
0.00130365
0.00081112
0.00052565
-0.00120649
0.00701623
0.01475920
0.00313750
-0.01836214
-0.02061808
0.01344120
0.00760818
0.00020211
0.00430545
0.02417417
-0.03852535
0.00190274
0.00620345
-0.04579638
-0.00064398
-0.00237762
0.00017490
0.00007674
0.00471046
-0.00885902
-0.02117985
0.07322305
0.00116568
-0.00320416
-0.00047213
-0.00281292
0.00080837
0.00767429
0.00008088
-0.00493886
0.00134032
-0.00788058
-0.00081289
0.00235769
0.00055999
0.00253182
0.01727487
0.00048580
-0.00162518
0.00014747
0.00024835
-0.00103959
0.00228696
0.00464644
-0.00449020
-0.05367506
0.00028543
-0.00113125
-0.02048458
-0.00142198
0.02418754
0.01047739
-0.00041538
0.03296745
0.00559121
-0.00118527
-0.00382977
-0.00037970
-0.01286596
-0.00017823
0.00353727
-0.00125149
-0.00017965
0.68885130
-0.00775712
-0.00041670
0.01731631
0.06979091
-0.00546634
0.01297887
0.00013863
0.00145622
0.01109175
-0.01672895
-0.01273012
-0.04969871
0.00010239
0.00870930
-0.00235954
0.00328288
-0.00081240
0.00609138
-0.00093194
-0.01516549
-0.00021186
-0.00723017
-0.00007386
0.00453575
0.01377379
0.00107486
0.01231558
0.00214634
-0.02273283
-0.01661211
-0.00079870
-0.02191824
0.00060737
0.02532641
0.02318414
-0.00118590
-0.00992341
0.00652864
0.00127453
-0.00028993
-0.00095589
0.00221954
-0.00327921
-0.00524978
0.00284385
-0.00916007
0.00233571
-0.00092345
-0.02460876
-0.00121403
0.00472225
-0.03617393
0.00975251
-0.01226769
-0.00004390
0.00944798
0.03579364
0.02176882
-0.00002838
-0.01162696
-0.00722524
-0.00088683
0.07704037
0.00381370
0.00029326
-0.00096684
0.07188009
0.00444448
0.00057929
0.00163611
-0.01658650
0.01312676
0.00142553
-0.02576638
-0.00246424
0.00032658
0.00962093
0.00660255
-0.00119286
-0.00018111
-0.00407020
-0.05739412
-0.00599346
0.00207364
0.00662189
-0.00063303
0.00495770
0.00203978
-0.00206323
-0.00020232
0.00184849
-0.00361654
-0.00114288
-0.01323638
-0.00043565
0.00044358
-0.00076900
0.00178950
-0.03037607
0.00261560
-0.01095331
0.00870919
0.00348320
-0.00008047
-0.00028054
-0.01699681
-0.00082917
0.00747254
-0.00059992
0.00204082
-0.01925765
0.00174530
0.00043308
-0.00821858
0.00220532
0.00197477
0.01338127
0.00111981
0.03514551
-0.00505688
0.00024681
-0.00445508
0.01461454
0.03192694
-0.00071848
-0.01178685
-0.00548236
0.00311863
-0.00147101
-0.00263375
-0.00058249
-0.00389773
-0.00383983
-0.00026687
-0.00048678
-0.00721982
0.04000071
0.01985201
0.00030251
-0.00097863
0.00371436
-0.00589175
-0.00959444
-0.02538054
-0.05483816
-0.01016258
-0.03320087
0.00009548
-0.00821352
0.00000773
0.03183595
-0.00012236
0.00319737
0.00065115
-0.00114166
0.00007996
-0.00428957
0.00376675
-0.06413721
-0.00597061
-0.00548736
-0.00088158
0.00620222
0.00308495
0.02522258
-0.00845252
0.03673930
-0.00259483
-0.00031185
-0.09649418
0.00149270
0.01532000
0.00123762
-0.01783055
-0.01998918
0.00041359
0.00849960
0.01841275
-0.00168116
0.00445864
-0.00073870
0.02175589
0.00824764
0.00009656
-0.00127563
0.00621267
-0.00046205
-0.00144763
-0.00115075
-0.00050987
-0.06145675
-0.00040743
-0.00009320
-0.00506181
-0.00103233
-0.01651499
0.00327288
-0.01157654
0.04736352
-0.00056885
-0.00574254
0.00157486
0.00119488
-0.00185196
0.00630048
0.00076270
0.00665799
0.00023223
0.03601981
0.02388921
0.00081603
-0.00326185
-0.01084530
0.00368633
-0.00323463
-0.00772900
0.00750334
-0.01289605
0.00060438
0.00053364
0.00517605
-0.00189836
0.02429060
-0.01359860
-0.00029088
0.01820312
-0.00280961
0.00754414
-0.00581983
-0.00061264
-0.01743061
-0.00912644
-0.00006070
0.00319144
0.00143648
-0.01174849
0.00021981
0.02898431
0.00311096
0.01936782
-0.00280415
-0.01441022
-0.00001654
-0.00036031
0.00223815
-0.01211098
0.00281492
0.00044539
-0.00845379
-0.00025817
-0.04125843
-0.01638190
0.01382946
0.00926069
-0.00063082
-0.11600714
0.01267202
0.00007301
-0.00023804
0.03942097
-0.00387589
0.01388080
0.00622218
-0.03112874
-0.00627302
0.00295441
-0.00732719
-0.01714570
-0.00191287
-0.00002881
-0.00802233
-0.00704194
0.00039770
0.00005048
-0.00238507
0.00221160
0.00496336
0.00821508
-0.00854521
0.00172726
0.00770725
0.00496649
-0.00012583
-0.06579688
0.00043553
0.00234109
-0.02541497
-0.00308522
0.00094573
-0.00040181
-0.00289403
-0.00046642
-0.00726845
-0.03018736
0.01452205
0.01311711
-0.02930061
0.03414990
-0.00004801
0.02084728
0.00017960
-0.00222004
-0.00737966
0.00097409
0.02386566
-0.00797595
0.01209828
0.00416587
-0.00453996
0.06537692
0.00041522
0.00540254
-0.03541873
-0.00018647
0.00358987
0.08215183
0.00065365
-0.03124096
0.01061966
0.02369697
-0.02709762
-0.00551155
-0.00010493
-0.00847575
-0.00042536
0.00485751
-0.01406584
0.01431781
-0.00760475
-0.00007186
-0.00716275
0.01337615
0.00958382
-0.00225601
0.00091334
0.00231010
0.00499618
0.01045503
-0.00032895
-0.01016180
-0.00100803
0.02109171
0.01067093
-0.01031160
-0.00723513
-0.00273036
-0.01229547
0.00980963
0.00172093
-0.00343722
-0.00052604
0.03333913
-0.00031735
-0.03162100
0.17124982
0.00085982
-0.00093663
0.00213226
-0.00279140
0.11038226
-0.00001637
-0.00790198
0.00044423
0.00714186
0.00007892
-0.02639196
0.00294548
0.00012508
-0.07268647
0.08404165
-0.00455598
0.04534372
-0.00045481
-0.00323880
-0.00115000
0.00126516
0.00001898
-0.03607447
0.00001997
-0.00293077
-0.04785829
-0.00809796
-0.00023104
-0.05260115
0.00003985
-0.00014030
0.00062628
0.00709435
-0.00050680
0.02147949
0.04992479
0.00219904
-0.00047887
0.00203913
0.00031846
-0.00089232
0.00127731
-0.03532688
-0.00096357
-0.01042362
-0.00901241
-0.00132210
0.00640053
0.00241871
-0.00056800
-0.00648095
-0.12568346
-0.00068706
-0.00302278
-0.00543869
-0.00189980
0.00105702
-0.00066578
0.00372550
-0.00334711
0.00141029
0.00242623
-0.02272271
0.00222321
0.00002906
0.00198334
0.00027383
-0.00573898
0.00182812
-0.00354164
0.00141298
-0.01476608
-0.00199910
0.01003653
0.01207620
0.00964057
-0.00957179
0.01000261
0.00009988
0.00337107
0.00079756
-0.03524036
-0.01829320
0.01496952
0.00023054
-0.00209287
-0.03763694
-0.00221166
-0.04260710
-0.00002740
0.00810442
0.00297583
0.00822673
0.00540084
0.00005129
0.01260332
-0.07919483
-0.02754951
-0.00025529
0.00085213
-0.00002645
-0.00071369
-0.00160471
-0.00081998
-0.01757424
-0.00478048
-0.01121137
-0.00012375
-0.00696832
0.03649605
-0.01662066
-0.01525131
-0.05080088
0.03429687
0.00909834
-0.01092825
-0.00007824
0.00035186
-0.00302544
-0.02187086
-0.01048151
-0.00173508
0.00199908
-0.00688058
-0.00715007
0.00177399
-0.00294691
-0.00847187
0.00570290
0.00008183
-0.00295721
-0.00214007
0.04373999
0.00941630
0.01856490
0.00105548
0.00019702
-0.00063376
-0.00583165
-0.01673697
-0.00500232
0.00260775
0.00794586
0.00482370
0.00328893
0.04109584
-0.00346685
-0.00395467
-0.00052461
-0.01608739
0.02250767
0.02014728
0.02811276
0.00448744
0.00495234
0.00629205
-0.00002366
-0.00505122
-0.05475815
0.04476289
-0.00005030
-0.00032370
-0.00077781
-0.00089492
0.01566635
-0.00009307
0.00043844
-0.01888381
-0.00495099
-0.00310587
-0.01092475
0.03915121
0.00013523
0.01251179
0.01242530
-0.01471208
-0.00098490
-0.00378863
-0.02605105
0.04384560
-0.00739260
-0.09867438
0.00009116
-0.00277501
-0.00610896
-0.00019810
-0.00397900
0.00570139
-0.00026398
-0.00200535
-0.00363686
-0.00872070
0.00020889
-0.02014624
0.03128995
0.01758410
0.00046098
-0.00137966
0.00396637
0.01498139
0.00467625
-0.16307019
-0.00352784
-0.00030868
0.00138946
-0.00969227
0.00030198
0.00295593
-0.00034485
-0.00618954
-0.00992149
0.03810304
0.00347867
-0.08887950
0.00195035
0.00186761
-0.00074262
-0.00155974
0.00001201
-0.01179414
0.00651694
0.00578035
0.00014886
-0.02613012
0.00354456
0.00206739
-0.02102027
0.02350053
0.05861884
-0.00180389
0.00065823
0.00337509
0.00031913
-0.00089852
0.00001271
-0.00932972
-0.01068534
0.00217954
-0.00327010
-0.00012290
0.00765734
0.00123856
0.00277570
-0.02497125
-0.00221335
0.02604325
-0.01451184
-0.08166201
0.00062105
0.03887207
-0.02150116
-0.00109318
-0.00193525
0.00092881
-0.00714553
-0.02143630
-0.00343358
-0.00034189
0.00061242
0.02592972
0.00066994
0.00811082
0.04380126
-0.00299463
-0.00053179
-0.06924448
0.00045361
0.00029789
0.00222038
0.01286763
0.00882792
-0.00126267
0.01267468
-0.00156440
-0.00039597
-0.00793823
0.00084480
-0.16537206
-0.00000526
-0.07683013
0.01549819
0.00190763
-0.01709126
-0.01517334
0.00036381
0.11338846
0.05054066
-0.01440691
0.00063551
0.00307352
-0.00200867
-0.00011039
-0.05863993
-0.00007372
0.00113895
-0.00280514
-0.00824031
-0.00002130
0.01244148
-0.00568020
-0.00065622
0.00140918
0.06475515
0.00528363
-0.00430087
-0.00261577
0.01640045
0.07388467
-0.00092390
0.00299641
0.04801709
-0.01271598
0.03046492
0.03313294
-0.00919987
0.02326506
-0.00395296
-0.01364744
-0.00161622
-0.00048649
0.00050564
-0.00542760
-0.00067062
-0.00602259
-0.00464606
0.00463979
-0.00058417
-0.00548101
-0.06071738
-0.00027082
-0.00123313
-0.00423668
0.00826119
-0.01897073
-0.00029970
-0.00265781
-0.01113638
-0.00045758
-0.00160214
-0.00086098
-0.00091662
-0.01969710
0.00649104
0.00062002
-0.00064277
0.00255315
0.00074951
-0.00260636
0.00019311
0.03516079
0.01586098
-0.00063463
0.00158826
0.01709516
-0.00001802
-0.00120401
0.00831105
0.00232253
-0.06648879
0.00226831
-0.00151671
-0.01935663
0.00084463
0.01067576
-0.00216712
-0.03406234
-0.00252345
0.00175540
0.00027886
-0.00364554
-0.00994777
-0.00022465
-0.00198927
-0.00538489
-0.03635573
-0.00449530
-0.01275801
-0.00562225
-0.00258189
-0.01110580
-0.00629930
0.00283467
-0.00114485
-0.00009651
0.01386357
-0.01299128
0.06930360
0.00673862
-0.00406205
0.07168958
-0.00042358
-0.00122971
0.00177585
-0.00048747
-0.00475826
0.00516634
-0.02106406
0.00121069
-0.00147718
-0.00672147
0.00093996
-0.00119124
-0.00440740
-0.00069321
-0.02144917
0.00667756
-0.00408500
0.01649312
-0.00095047
-0.00002727
0.01383103
-0.00423329
-0.00244663
-0.00023284
0.00730551
0.00329343
0.00242563
0.00402063
0.00171180
-0.00018827
0.02931862
-0.00034699
-0.04432317
0.01567229
0.00279540
0.00268113
-0.00235867
0.00092397
-0.00140654
-0.00520709
-0.00190487
-0.00195938
0.00305873
0.00383971
0.00431100
-0.00020199
0.00103548
0.00444585
-0.00412788
-0.00067620
0.00293974
0.00058794
0.00095430
0.00268831
-0.00292051
0.09091899
-0.00140270
-0.00098780
0.04944867
-0.00654618
-0.00233997
-0.00066277
0.00416343
-0.01112975
0.00233019
-0.00721130
0.00449958
-0.11174651
-0.04111190
0.00281415
0.00057028
-0.00985818
0.00035193
0.00439486
-0.01126244
-0.00669771
0.02108615
-0.00231088
0.00120039
-0.00279313
0.00061396
-0.04153281
0.00773635
0.00093200
0.00122008
-0.01093789
0.02368950
-0.00147334
0.03023946
0.00078219
0.01295440
0.06837226
0.00244289
-0.00206246
-0.00001539
0.00018383
0.03326328
-0.00098160
-0.01777794
-0.05931588
0.00004872
0.00132205
-0.07851148
0.00913415
0.00140093
-0.01584729
0.01858588
-0.00052325
0.04612782
0.00446531
0.00189365
0.03615717
0.00282838
-0.00038902
0.00562153
0.03563244
-0.01508683
-0.00124507
-0.00038372
-0.00467497
0.06237153
-0.00339339
0.00391799
-0.00044517
0.00142239
0.00033139
0.06781892
0.00139174
-0.00214116
-0.07477345
0.00018900
-0.02476889
0.00260210
0.03207350
0.00038327
0.00220748
-0.01221501
0.07805076
-0.00520477
-0.00175285
0.00016604
-0.00652939
-0.00088254
0.00827979
0.00194234
-0.00592813
-0.01962914
-0.00949966
0.00122424
-0.00488385
-0.01307397
0.00005221
-0.04249832
-0.00375269
0.00583821
-0.00002598
0.00032954
0.01835690
0.01474895
-0.05037675
-0.01370429
0.01523859
0.00358784
-0.27287820
-0.00105720
-0.09033754
-0.00115483
0.00323120
-0.00975710
0.00152823
0.00934439
0.06628320
0.00381856
0.16435467
0.00021244
-0.00504836
0.08430701
0.00021414
0.00460023
-0.00020549
0.00047789
0.00419503
-0.00567319
0.00211474
-0.00212790
-0.00151347
0.00270057
0.00181022
-0.09213813
-0.00888747
0.00154357
0.00235879
