1.578125
0.039062
-0.808594
0.074219
0.085938
0.089844
-1.558594
-0.113281
0.000000
0.000000
0.000000
-1.597656
0.753906
0.234375
-1.218750
0.000000
0.164062
0.187500
0.000000
0.011719
-1.312500
0.000000
0.000000
-0.539062
-0.062500
-0.031250
-1.492188
0.000000
0.175781
0.058594
-1.816406
-0.085938
-0.304688
-0.050781
0.000000
-1.816406
0.019531
-0.027344
0.000000
0.179688
-0.003906
-0.968750
-0.144531
0.507812
1.281250
1.953125
0.000000
1.628906
-0.894531
0.449219
0.253906
1.816406
-1.390625
0.000000
-0.242188
1.335938
0.035156
1.445312
-1.109375
0.000000
-0.109375
0.027344
-0.460938
0.000000
0.000000
1.687500
2.097656
-1.054688
1.894531
1.019531
-0.113281
0.000000
1.886719
-0.070312
-0.601562
1.894531
0.000000
-0.046875
-1.949219
0.000000
-0.113281
0.058594
2.054688
-1.902344
-0.105469
-1.605469
-0.113281
-1.566406
-0.156250
0.000000
-1.535156
0.000000
-0.046875
0.000000
0.000000
1.007812
0.101562
-0.804688
-1.417969
1.312500
0.824219
-1.726562
-0.476562
1.914062
0.253906
1.601562
1.804688
-0.656250
0.160156
0.000000
-0.214844
-0.226562
0.003906
1.148438
0.054688
1.804688
-1.636719
-1.488281
-1.855469
-0.773438
0.000000
0.191406
-0.792969
-0.597656
1.492188
-0.078125
0.832031
0.089844
0.000000
-0.984375
0.042969
0.144531
-0.460938
1.542969
0.000000
0.054688
-1.523438
0.000000
-0.953125
1.140625
-0.753906
0.000000
-0.046875
-0.316406
0.992188
-0.105469
-1.933594
0.800781
0.039062
-0.703125
0.000000
0.000000
-1.371094
0.175781
0.093750
0.976562
-0.210938
-0.156250
-0.054688
-2.082031
-1.636719
0.000000
0.000000
0.078125
0.003906
1.824219
-1.187500
0.000000
-1.972656
0.003906
1.652344
0.003906
-1.222656
0.000000
-0.046875
0.003906
-1.859375
-0.476562
-0.894531
0.027344
0.058594
1.097656
0.679688
1.488281
-0.886719
-0.449219
-0.085938
0.089844
0.042969
-1.808594
1.074219
1.355469
0.671875
0.003906
0.179688
0.125000
0.003906
0.132812
0.074219
-1.335938
1.917969
-1.445312
-1.074219
0.000000
-1.085938
0.000000
-1.656250
-0.128906
-0.019531
1.066406
-0.031250
1.984375
1.074219
1.710938
-1.867188
0.039062
0.144531
-0.171875
0.000000
-1.851562
-1.714844
1.742188
0.000000
-1.832031
2.164062
-1.335938
0.000000
0.000000
1.113281
-0.007812
0.238281
2.496094
1.199219
1.746094
-1.843750
1.750000
-0.039062
0.828125
-1.371094
0.300781
1.515625
1.441406
0.000000
0.000000
-0.042969
1.300781
0.187500
0.000000
0.000000
1.992188
-1.960938
1.320312
1.070312
0.019531
1.468750
1.886719
0.000000
0.000000
-1.648438
-1.750000
1.121094
-0.550781
1.609375
0.000000
0.160156
0.000000
-0.089844
-1.917969
0.000000
0.000000
0.406250
0.000000
-0.574219
-1.789062
-1.039062
0.000000
0.464844
0.093750
1.828125
1.484375
0.003906
-1.242188
0.000000
0.000000
0.792969
-1.394531
0.484375
-0.238281
0.000000
1.613281
-0.417969
0.000000
-0.187500
0.000000
0.000000
-1.167969
1.289062
-0.558594
1.613281
-0.378906
-0.507812
0.132812
0.000000
1.648438
-1.421875
0.000000
0.062500
-0.582031
-0.234375
-0.046875
-0.675781
0.000000
-0.757812
-2.222656
0.031250
0.000000
-1.093750
0.000000
-0.421875
-0.574219
-1.503906
-1.652344
-0.722656
-1.398438
-0.234375
1.238281
1.519531
-0.718750
-1.832031
0.117188
-0.832031
-0.671875
1.050781
0.000000
0.007812
-0.148438
-0.078125
2.191406
-1.253906
-0.003906
1.183594
0.000000
1.789062
0.000000
1.578125
1.015625
-0.820312
1.460938
0.074219
-0.265625
-0.156250
-0.023438
-0.929688
1.691406
-0.570312
-0.160156
0.000000
-0.902344
1.855469
-1.718750
0.023438
-0.230469
-0.160156
0.015625
0.000000
0.042969
-1.359375
0.671875
0.003906
0.000000
-0.488281
-0.050781
0.117188
0.000000
1.316406
0.011719
0.000000
0.316406
0.000000
1.644531
0.000000
-1.992188
1.703125
-0.191406
-1.785156
-1.917969
1.082031
-0.171875
-1.675781
-1.515625
-0.121094
-0.031250
-0.117188
1.609375
-0.031250
-0.472656
0.074219
1.632812
-1.515625
-0.937500
-1.121094
0.652344
1.398438
0.000000
0.000000
0.335938
2.039062
-0.070312
1.035156
0.085938
0.000000
1.835938
0.000000
-0.128906
0.972656
0.003906
1.093750
1.144531
1.128906
0.000000
1.593750
0.019531
-1.730469
0.000000
0.031250
-0.082031
0.000000
0.984375
0.000000
-0.167969
-1.472656
0.000000
-0.425781
-0.984375
1.085938
-0.867188
0.000000
-0.386719
1.703125
-1.734375
1.507812
0.074219
-0.679688
1.523438
-0.167969
0.000000
-0.050781
0.000000
0.000000
-1.707031
0.453125
1.492188
-1.582031
-1.042969
0.000000
0.843750
0.093750
0.000000
1.582031
0.000000
0.000000
-0.320312
-0.769531
-1.320312
0.000000
0.000000
0.085938
-1.808594
-1.820312
-0.074219
0.000000
0.035156
0.000000
0.109375
-0.191406
-0.058594
0.093750
0.000000
1.667969
-0.050781
-1.628906
-0.644531
1.304688
-0.011719
0.164062
1.414062
0.109375
-0.117188
-0.007812
-1.671875
0.000000
-1.367188
0.000000
-0.027344
1.140625
-0.144531
2.238281
0.003906
-0.636719
0.000000
0.000000
1.753906
0.929688
-0.859375
-1.570312
0.000000
-0.152344
0.109375
-0.070312
0.000000
-0.617188
-0.054688
0.000000
0.000000
-0.101562
0.789062
1.308594
1.718750
-0.203125
-0.859375
0.671875
1.640625
-1.054688
-0.179688
0.457031
0.000000
-0.085938
-1.636719
-1.746094
-1.644531
-1.761719
-1.515625
-1.082031
1.355469
0.132812
-1.460938
0.000000
-1.886719
-1.187500
0.824219
-1.628906
-1.628906
0.003906
-0.761719
-1.835938
0.000000
-1.703125
1.914062
0.808594
-0.503906
1.132812
0.707031
0.062500
0.082031
-1.671875
-0.750000
-1.886719
-0.085938
1.726562
0.000000
0.003906
1.710938
0.000000
0.000000
0.003906
-1.546875
0.003906
1.355469
0.000000
-0.195312
0.000000
-1.125000
1.125000
0.960938
-0.859375
0.000000
0.011719
0.000000
1.589844
0.296875
-1.824219
0.003906
0.000000
-0.210938
0.257812
-0.757812
0.910156
1.519531
0.000000
-1.285156
-0.011719
0.039062
0.000000
-0.511719
1.550781
0.015625
0.000000
0.003906
0.816406
1.843750
-1.390625
-0.851562
0.507812
0.117188
0.218750
1.699219
0.000000
-0.886719
0.050781
-1.058594
0.375000
1.308594
0.000000
1.472656
1.492188
1.898438
0.000000
0.000000
-2.074219
1.085938
-0.007812
0.121094
0.253906
1.992188
0.003906
-1.746094
0.031250
0.000000
0.000000
-2.078125
0.003906
0.582031
0.000000
0.000000
-0.105469
0.000000
0.000000
1.734375
-1.445312
0.035156
0.000000
0.000000
0.000000
1.734375
-0.144531
-1.765625
-0.421875
-1.636719
-0.015625
-1.023438
-0.683594
0.000000
0.117188
1.894531
1.125000
-1.347656
-2.054688
-0.066406
0.000000
0.000000
-0.117188
0.000000
-0.152344
-1.949219
1.386719
1.070312
0.082031
0.382812
-0.453125
0.000000
0.039062
0.136719
-0.074219
0.000000
0.183594
-2.140625
0.000000
-0.160156
-1.746094
-1.742188
0.003906
0.246094
-1.582031
-0.218750
-1.289062
-0.160156
-0.082031
0.000000
-1.824219
0.000000
0.746094
0.003906
-1.011719
-1.433594
-0.046875
0.000000
0.000000
0.003906
-1.015625
1.332031
1.453125
-0.175781
-0.039062
1.765625
0.171875
0.980469
-0.062500
0.000000
-0.222656
-0.019531
0.152344
-0.093750
-1.152344
1.484375
0.230469
-1.550781
0.195312
0.187500
-1.519531
-0.312500
0.000000
0.105469
0.304688
0.660156
-0.886719
-1.441406
-0.546875
0.000000
-1.753906
1.242188
1.546875
-0.656250
-1.578125
-0.031250
-2.039062
-0.175781
1.828125
0.000000
0.535156
0.003906
-1.601562
-1.832031
0.191406
0.054688
-0.355469
0.050781
1.734375
0.187500
0.734375
0.054688
-0.539062
0.000000
1.144531
0.000000
0.003906
-1.128906
-1.925781
1.750000
1.925781
-0.050781
0.000000
-1.562500
1.664062
0.000000
0.093750
0.003906
0.000000
0.000000
0.000000
-0.101562
1.613281
-1.828125
0.082031
0.000000
1.890625
-0.007812
-0.140625
1.191406
-0.859375
0.238281
-1.640625
-1.761719
-1.339844
-0.398438
0.011719
-0.085938
1.277344
-0.023438
0.445312
-0.019531
-0.035156
0.000000
0.000000
-1.347656
-1.582031
0.015625
0.000000
1.843750
0.027344
1.585938
-1.535156
0.242188
-0.042969
-0.027344
-1.371094
1.652344
0.179688
0.003906
1.292969
0.003906
-0.566406
0.609375
-0.089844
0.000000
-0.128906
-1.777344
0.000000
2.097656
1.664062
1.992188
-0.433594
-0.089844
1.128906
1.203125
-0.046875
0.000000
0.156250
0.000000
-0.062500
-0.054688
-1.746094
2.113281
-0.078125
1.609375
-0.050781
-1.449219
0.000000
-0.542969
-0.035156
0.058594
1.574219
0.046875
-1.988281
0.339844
-0.097656
-0.617188
1.531250
0.078125
0.000000
0.699219
1.500000
0.039062
0.429688
-0.144531
0.105469
-1.242188
-0.058594
-0.488281
-0.039062
1.210938
-1.015625
0.000000
-1.738281
1.550781
0.140625
1.589844
0.000000
0.703125
0.058594
0.207031
0.000000
-0.378906
-0.023438
0.066406
0.527344
1.789062
-1.492188
0.210938
0.003906
0.460938
-1.367188
0.105469
-0.078125
0.000000
-1.289062
-1.695312
0.402344
-1.242188
0.003906
1.476562
-0.117188
-1.757812
-0.367188
0.902344
-0.554688
0.000000
-1.453125
0.000000
0.000000
0.054688
0.253906
0.015625
-1.800781
1.750000
-0.066406
0.179688
0.000000
0.000000
1.843750
0.164062
0.000000
1.613281
1.167969
0.000000
0.191406
0.035156
0.640625
-1.296875
-1.097656
1.851562
-1.933594
-0.289062
1.589844
0.039062
1.453125
0.113281
1.875000
-0.343750
-0.941406
0.000000
1.078125
0.011719
-0.742188
-0.039062
-0.101562
-1.503906
-0.054688
0.000000
1.476562
-1.683594
1.003906
0.000000
0.105469
1.457031
0.000000
0.085938
0.945312
1.136719
0.000000
-0.046875
0.050781
0.003906
1.398438
-0.015625
1.890625
0.000000
1.343750
1.714844
-0.062500
-1.746094
0.070312
-0.066406
1.234375
0.003906
0.011719
0.000000
-0.171875
-1.925781
-0.929688
0.007812
0.000000
0.000000
0.000000
1.464844
0.000000
0.000000
0.000000
1.511719
-0.488281
0.093750
0.003906
-0.082031
0.925781
-0.105469
0.000000
-1.890625
0.886719
-0.480469
-1.859375
-0.289062
1.628906
-1.207031
1.816406
2.101562
-1.769531
1.632812
-0.546875
1.257812
0.710938
0.000000
-1.339844
-0.179688
1.367188
-2.035156
-0.097656
1.933594
0.000000
-0.945312
-0.703125
0.000000
0.000000
1.929688
-0.070312
-1.773438
-1.816406
0.078125
0.000000
-1.441406
1.460938
0.699219
-0.113281
0.007812
-2.003906
0.000000
-0.042969
0.000000
0.000000
-0.574219
0.808594
-1.695312
0.335938
0.000000
0.000000
0.175781
0.882812
0.054688
0.062500
-0.050781
1.824219
-0.773438
0.000000
-0.824219
-1.734375
1.496094
0.136719
0.429688
-0.078125
-0.015625
-0.078125
0.089844
0.976562
0.046875
-0.042969
0.046875
-0.214844
2.066406
0.242188
0.000000
0.000000
0.000000
1.523438
0.000000
0.050781
0.628906
-0.296875
-1.476562
-0.019531
-0.472656
-1.863281
-0.851562
1.160156
1.000000
-0.210938
-1.980469
0.125000
0.976562
0.000000
-1.226562
1.156250
1.636719
1.703125
1.808594
0.003906
-0.929688
0.000000
1.800781
0.363281
0.039062
0.000000
0.050781
-1.812500
0.000000
1.140625
0.000000
-0.121094
0.035156
-0.039062
-1.363281
0.066406
-1.269531
1.152344
-0.054688
0.000000
0.000000
0.000000
0.003906
-0.156250
0.000000
0.000000
2.500000
-0.656250
1.785156
0.000000
0.000000
1.351562
0.000000
0.128906
0.000000
0.000000
0.171875
1.222656
-1.222656
1.378906
0.046875
-0.199219
0.964844
1.585938
0.000000
-0.660156
-1.976562
0.000000
0.007812
0.000000
1.777344
-1.597656
1.347656
-0.058594
0.039062
1.605469
1.265625
0.000000
-0.066406
-1.691406
0.000000
-0.242188
1.675781
-0.015625
-0.128906
0.554688
1.765625
0.000000
0.000000
1.742188
0.007812
2.179688
-0.125000
-1.867188
1.234375
0.000000
1.593750
0.011719
-0.929688
1.511719
-0.167969
0.000000
0.000000
-2.015625
1.246094
-1.636719
-0.714844
0.117188
-1.332031
0.000000
-0.003906
0.000000
-0.113281
-1.480469
-0.042969
0.046875
-1.441406
0.000000
1.718750
-1.417969
0.039062
0.003906
-0.003906
-1.589844
-0.039062
0.707031
-0.046875
0.000000
0.000000
2.484375
0.003906
0.125000
1.699219
0.000000
1.414062
0.000000
0.000000
-1.359375
0.003906
-0.019531
0.132812
-0.062500
0.003906
0.312500
0.000000
-0.296875
1.042969
0.078125
1.121094
-1.125000
0.074219
0.156250
-1.113281
-2.500000
1.539062
1.738281
0.000000
-0.078125
-0.035156
0.074219
-0.101562
-0.003906
1.519531
0.285156
1.757812
1.425781
0.000000
1.656250
1.660156
1.101562
0.000000
0.035156
1.757812
-0.074219
1.113281
0.000000
0.074219
0.000000
-1.832031
0.003906
0.000000
1.066406
0.058594
1.417969
-0.183594
-1.382812
0.000000
0.890625
2.246094
0.046875
0.105469
1.765625
0.003906
-0.597656
0.113281
-0.964844
-0.015625
0.000000
0.000000
0.000000
0.000000
0.000000
-1.441406
-1.890625
-1.480469
1.257812
0.000000
-0.257812
-0.023438
0.003906
0.093750
0.261719
1.761719
0.000000
1.609375
-0.101562
0.000000
-0.050781
1.292969
0.000000
-1.601562
-1.765625
-0.070312
0.000000
0.000000
0.000000
1.976562
-1.554688
-0.511719
1.878906
0.003906
0.000000
-1.343750
0.832031
-1.503906
-1.562500
-0.640625
-0.695312
0.000000
-0.972656
0.535156
-0.015625
-1.589844
-1.164062
0.000000
0.535156
-1.832031
-0.105469
-0.035156
-1.574219
-1.781250
0.214844
-0.792969
0.000000
1.417969
-1.316406
1.058594
0.003906
0.000000
-1.335938
0.000000
0.000000
-1.660156
0.281250
1.828125
-1.500000
-0.550781
-1.640625
-1.503906
0.000000
0.257812
0.210938
-0.164062
-0.191406
-0.054688
-0.746094
-1.902344
-0.597656
1.222656
1.511719
-0.027344
1.500000
0.000000
0.000000
1.390625
-1.398438
0.187500
0.000000
-0.429688
-1.472656
0.082031
-0.261719
0.011719
1.496094
-1.582031
-0.207031
0.109375
-0.148438
0.300781
0.000000
-0.085938
0.707031
1.347656
0.000000
0.058594
1.687500
1.558594
-0.500000
-0.445312
-1.769531
0.105469
1.804688
1.328125
0.003906
-1.605469
-1.683594
-0.066406
-0.039062
1.335938
-0.113281
-1.472656
-1.468750
-2.093750
-0.011719
-1.839844
1.472656
-0.679688
-1.636719
-0.375000
0.000000
-1.500000
0.000000
1.503906
-1.031250
0.000000
0.851562
0.000000
0.000000
1.671875
-1.500000
-0.046875
-0.925781
0.000000
0.203125
0.781250
0.437500
-0.949219
0.136719
1.472656
-1.671875
0.089844
0.000000
-0.050781
-1.757812
0.000000
-0.468750
0.000000
1.703125
0.000000
0.015625
0.238281
-1.226562
0.000000
0.035156
-0.871094
1.812500
-0.078125
0.089844
0.000000
-1.433594
0.000000
0.148438
0.140625
0.000000
-0.156250
1.136719
0.109375
0.160156
-0.976562
0.000000
0.023438
0.000000
0.003906
0.765625
0.000000
1.320312
1.148438
-1.437500
0.000000
0.000000
-1.164062
0.003906
-0.636719
0.007812
0.000000
-1.492188
-0.242188
1.558594
1.546875
2.031250
0.507812
-0.082031
0.730469
0.000000
0.000000
-2.015625
-0.757812
1.179688
-0.718750
1.105469
0.457031
0.000000
0.007812
0.058594
-0.097656
-0.972656
0.000000
-1.554688
0.925781
1.742188
-0.113281
-0.089844
-1.785156
-0.339844
-0.132812
-0.058594
-1.199219
0.023438
1.820312
0.000000
0.003906
0.085938
0.000000
0.132812
1.453125
1.750000
-0.074219
0.398438
1.687500
-1.714844
-0.796875
0.003906
0.000000
0.023438
-1.675781
1.382812
-1.167969
-1.171875
-1.425781
1.652344
0.160156
0.125000
0.472656
-0.152344
0.000000
0.000000
-0.054688
0.000000
0.000000
0.000000
-1.421875
0.320312
0.000000
-1.273438
-1.558594
0.140625
0.003906
0.027344
1.203125
-1.839844
-0.023438
0.027344
0.257812
-0.687500
1.718750
0.390625
-1.070312
-2.250000
-0.050781
1.730469
-2.035156
0.000000
1.066406
1.652344
0.109375
1.375000
0.125000
0.046875
-1.132812
0.000000
1.386719
-0.082031
0.000000
0.003906
-0.269531
1.191406
0.050781
1.730469
-0.539062
0.000000
-0.167969
0.097656
-1.871094
1.992188
1.687500
-1.390625
0.296875
0.000000
0.125000
-1.675781
-0.066406
0.000000
-0.082031
1.656250
0.546875
1.671875
0.000000
0.003906
-1.910156
-0.214844
1.992188
0.003906
0.042969
-2.062500
-0.441406
-1.191406
1.562500
-0.125000
-1.289062
-0.488281
1.546875
0.023438
0.000000
-0.144531
-1.761719
1.257812
-2.117188
-1.246094
-0.562500
1.664062
-0.230469
0.000000
1.335938
-0.875000
0.082031
1.429688
0.000000
1.691406
-0.804688
-0.839844
-1.242188
-0.257812
0.000000
1.632812
-0.562500
1.535156
0.968750
0.003906
-1.691406
-1.468750
0.199219
0.000000
1.621094
-0.839844
0.000000
1.039062
0.019531
-0.062500
1.464844
-0.046875
-1.343750
1.687500
0.429688
0.000000
-1.171875
-1.437500
0.859375
1.378906
-0.902344
1.082031
1.757812
0.210938
-0.144531
0.000000
-0.234375
1.421875
-1.199219
-0.597656
-1.792969
0.007812
1.816406
-1.273438
0.000000
-1.175781
-0.144531
0.000000
0.000000
-1.343750
0.000000
-0.007812
-1.507812
-2.035156
0.000000
1.093750
0.757812
-0.035156
-1.589844
0.007812
-0.070312
0.964844
0.089844
-0.863281
-1.859375
0.000000
0.839844
1.812500
0.734375
-1.531250
1.976562
1.761719
-0.035156
-0.207031
1.753906
-1.378906
1.660156
0.000000
-1.609375
1.242188
2.160156
1.347656
0.000000
-0.902344
-0.707031
-0.093750
-1.656250
-2.050781
-0.074219
1.367188
1.714844
-1.460938
0.187500
0.003906
-1.675781
0.531250
-0.855469
1.542969
1.402344
-0.414062
1.609375
0.000000
-1.480469
-0.062500
0.078125
1.960938
1.511719
0.078125
1.675781
-0.042969
-1.316406
0.000000
-0.007812
-0.054688
-0.183594
1.535156
0.011719
0.085938
1.054688
0.117188
-1.675781
-0.042969
0.000000
-2.097656
-0.011719
-1.722656
-0.042969
0.007812
-0.066406
1.503906
0.050781
2.027344
-1.785156
0.000000
0.265625
0.750000
-1.027344
-0.152344
-1.988281
-0.347656
0.003906
-1.222656
0.000000
0.046875
0.847656
-0.027344
0.003906
-1.566406
-1.425781
-1.917969
0.000000
0.949219
0.000000
1.593750
-0.062500
-1.136719
0.000000
0.000000
-1.128906
-1.214844
0.148438
-0.066406
1.992188
1.519531
1.578125
-2.000000
0.000000
-0.003906
0.000000
0.222656
-0.003906
0.179688
0.109375
-1.726562
0.000000
0.078125
0.089844
-1.378906
-0.773438
-1.753906
1.292969
0.367188
-1.078125
0.113281
1.222656
-1.542969
-2.054688
0.171875
-0.191406
0.000000
0.058594
0.000000
-2.015625
0.011719
0.085938
0.070312
0.000000
1.867188
0.000000
1.542969
0.902344
-1.417969
-1.441406
-1.589844
0.117188
-0.070312
-1.398438
0.000000
0.000000
0.000000
0.003906
0.011719
0.000000
1.085938
-0.085938
-1.968750
1.667969
1.804688
0.886719
2.011719
-0.078125
0.007812
-0.089844
1.125000
0.074219
0.003906
-0.066406
-1.734375
0.000000
0.292969
0.093750
-1.648438
-0.253906
0.148438
0.000000
0.050781
0.113281
0.000000
1.160156
0.000000
-1.824219
1.953125
-1.003906
0.089844
-0.046875
0.000000
0.000000
0.703125
0.015625
-0.515625
-0.433594
0.230469
0.890625
1.472656
0.066406
-0.546875
0.003906
2.191406
-0.992188
0.031250
-0.097656
0.000000
-0.039062
-0.328125
-2.023438
-0.066406
0.000000
0.253906
-1.925781
0.003906
0.000000
0.226562
-1.980469
-1.238281
-1.011719
0.000000
0.328125
-1.527344
0.019531
0.000000
0.000000
-1.960938
1.457031
-1.687500
0.003906
0.003906
-0.386719
-0.664062
0.000000
0.519531
0.000000
0.660156
-0.238281
0.000000
1.359375
0.000000
0.003906
-0.316406
0.000000
1.875000
-0.929688
1.878906
-0.062500
-0.039062
0.000000
0.839844
-0.832031
0.000000
0.515625
-0.039062
-1.488281
0.000000
0.000000
-1.683594
1.410156
0.000000
-0.050781
0.000000
1.156250
0.273438
1.894531
-1.472656
0.007812
-0.839844
0.664062
0.003906
0.003906
-1.988281
0.000000
-0.003906
0.000000
-1.507812
-0.093750
0.000000
-0.218750
0.000000
0.000000
1.531250
-1.839844
-0.042969
-1.578125
-0.097656
0.000000
0.734375
0.027344
1.445312
-1.382812
1.156250
0.039062
-0.511719
-1.804688
0.000000
-0.101562
-1.078125
1.761719
0.003906
-0.207031
1.433594
1.785156
-0.644531
-1.835938
-0.562500
-1.722656
0.023438
1.828125
1.570312
-0.226562
1.386719
-1.476562
1.976562
1.324219
2.140625
-0.097656
0.113281
-0.007812
-0.152344
1.546875
-1.011719
-0.027344
-0.304688
0.000000
0.238281
0.003906
-1.484375
1.878906
1.273438
-0.089844
1.066406
1.480469
-1.101562
0.000000
2.015625
0.000000
-0.535156
-1.117188
-0.394531
0.078125
0.621094
-1.652344
0.109375
-1.636719
0.457031
0.074219
1.554688
0.035156
-0.484375
0.000000
-0.039062
0.292969
1.113281
-0.027344
1.292969
1.687500
0.015625
-1.398438
0.000000
0.000000
0.898438
-0.535156
-1.750000
-0.859375
0.000000
0.000000
0.085938
-1.445312
-1.433594
1.515625
0.000000
0.000000
-1.269531
-1.875000
-2.097656
0.000000
2.152344
-1.171875
-1.253906
2.324219
0.000000
0.000000
0.000000
0.000000
0.000000
1.703125
-1.531250
0.000000
0.273438
-0.046875
-1.765625
0.867188
-0.222656
0.000000
0.000000
-1.328125
0.328125
-0.015625
1.914062
1.296875
-0.027344
1.820312
-2.132812
0.070312
0.964844
1.437500
1.656250
0.000000
1.843750
-0.238281
-1.335938
0.000000
0.003906
0.039062
0.085938
0.828125
-1.933594
-1.417969
1.171875
0.085938
0.000000
-0.511719
0.000000
-0.566406
1.503906
-0.988281
-0.523438
-1.492188
-0.539062
0.000000
-0.226562
0.003906
-1.652344
0.035156
-1.816406
-0.140625
0.167969
-1.957031
-1.820312
-0.554688
1.457031
-1.207031
-1.828125
-0.648438
0.000000
-1.175781
-0.074219
-0.039062
0.007812
-1.488281
0.000000
0.000000
0.632812
1.109375
-1.351562
0.105469
1.398438
0.367188
-0.828125
0.003906
-0.007812
-0.125000
0.000000
0.000000
-0.156250
0.933594
0.000000
1.500000
0.078125
-0.085938
-1.371094
0.207031
0.000000
-0.859375
-1.812500
1.480469
0.042969
1.964844
0.000000
0.000000
-0.171875
1.414062
-0.949219
0.121094
-1.511719
0.125000
0.000000
0.000000
0.828125
-0.625000
-0.019531
0.066406
0.000000
0.000000
-0.050781
0.000000
-1.765625
0.000000
0.445312
0.019531
-0.085938
-0.183594
-1.074219
0.000000
0.019531
0.000000
0.843750
0.101562
-1.214844
0.000000
-0.242188
-0.035156
-0.167969
1.726562
-1.511719
1.792969
0.125000
0.628906
0.003906
-1.242188
-1.226562
-1.285156
0.000000
0.109375
-0.175781
1.218750
-1.394531
1.511719
-2.406250
0.000000
-0.148438
1.324219
-1.839844
0.000000
-1.207031
-0.894531
1.500000
0.003906
0.000000
-1.699219
-0.007812
0.039062
0.003906
-0.027344
-0.031250
1.855469
0.000000
-0.183594
0.519531
-1.070312
0.234375
-0.222656
-0.164062
0.070312
0.003906
0.000000
-1.828125
1.925781
-0.085938
-1.968750
1.566406
-0.554688
1.050781
-2.007812
-0.726562
-0.062500
-0.062500
-1.261719
0.000000
0.000000
0.000000
2.214844
0.000000
-0.054688
-0.042969
0.000000
0.000000
1.457031
0.058594
1.484375
-0.648438
-0.417969
1.648438
0.000000
0.296875
-2.082031
0.000000
0.101562
-0.035156
0.074219
0.062500
-1.007812
0.003906
0.000000
0.000000
0.000000
-0.757812
-0.003906
-0.058594
0.003906
0.289062
-1.281250
0.082031
0.000000
0.992188
1.261719
-0.269531
0.039062
1.234375
-0.113281
0.000000
0.000000
0.000000
0.000000
0.292969
0.000000
-0.089844
0.019531
0.410156
0.000000
-1.781250
0.820312
-1.714844
0.000000
-1.507812
-1.968750
0.031250
0.035156
1.433594
0.820312
-0.136719
1.593750
0.070312
1.710938
-0.996094
0.085938
-1.414062
0.000000
0.003906
2.023438
1.730469
1.753906
-1.460938
-0.164062
1.378906
-0.175781
2.261719
0.640625
-1.082031
-1.808594
0.207031
0.000000
0.148438
-1.566406
1.382812
-1.464844
0.000000
1.234375
0.000000
0.011719
0.000000
-1.898438
1.296875
2.007812
-0.917969
1.718750
0.046875
0.000000
0.000000
0.000000
0.000000
0.058594
1.539062
0.050781
0.062500
0.585938
-0.046875
0.000000
0.765625
-0.250000
0.089844
1.621094
-0.031250
0.207031
-1.042969
0.000000
0.000000
-0.027344
0.937500
-1.703125
0.000000
0.046875
0.078125
1.539062
0.000000
-1.390625
-1.582031
0.082031
0.113281
-0.375000
0.093750
0.332031
1.640625
1.292969
-1.804688
-0.414062
0.031250
-1.019531
-0.285156
0.082031
-0.828125
-0.253906
-1.687500
-1.039062
0.644531
-0.027344
-0.175781
-0.019531
0.000000
0.011719
-1.679688
-0.332031
-1.179688
1.632812
-1.589844
0.765625
-1.683594
0.000000
0.207031
0.718750
-1.757812
-1.609375
-0.148438
1.777344
0.746094
-0.441406
0.000000
-1.566406
0.925781
-0.015625
0.179688
-0.109375
1.464844
-1.675781
0.210938
-1.511719
0.000000
-1.675781
1.472656
0.000000
0.109375
-0.128906
-1.328125
0.062500
-0.394531
-0.058594
1.636719
-0.816406
0.000000
1.281250
0.082031
-0.164062
0.000000
-0.023438
2.179688
-1.820312
1.425781
-0.855469
1.933594
-0.621094
-1.683594
0.972656
0.000000
-1.667969
1.574219
0.000000
-0.007812
0.000000
-0.542969
-1.738281
1.500000
0.433594
0.000000
-1.453125
0.281250
-1.835938
2.035156
-1.300781
-0.066406
0.003906
1.699219
0.000000
-1.957031
0.238281
-1.546875
0.425781
0.000000
1.050781
0.000000
0.050781
-0.050781
0.277344
-1.128906
0.910156
0.050781
-1.277344
0.007812
1.546875
1.351562
-2.101562
0.000000
0.160156
0.000000
0.804688
0.003906
1.214844
0.812500
-0.054688
0.148438
0.000000
1.871094
-0.113281
0.066406
0.156250
0.003906
-1.472656
-1.968750
-0.902344
-0.375000
-0.097656
1.390625
-0.117188
0.000000
1.328125
0.003906
0.062500
0.003906
0.000000
-0.183594
0.046875
1.410156
0.000000
1.156250
-0.062500
0.000000
-0.070312
0.000000
0.000000
0.460938
-0.003906
0.003906
0.750000
0.000000
0.957031
0.070312
1.011719
0.000000
0.000000
-1.175781
0.035156
1.500000
0.000000
0.007812
-1.480469
1.546875
0.000000
1.687500
0.230469
0.000000
-1.160156
0.003906
-1.144531
0.000000
1.152344
-1.882812
1.316406
0.980469
1.648438
1.632812
-1.218750
0.000000
-1.906250
0.000000
-1.328125
0.101562
1.378906
-0.964844
0.000000
-0.203125
-1.316406
0.000000
0.003906
0.050781
-0.644531
-2.121094
1.992188
1.351562
-1.710938
0.000000
-0.890625
-1.671875
1.933594
-1.738281
-1.316406
1.585938
-0.226562
-0.101562
0.000000
0.000000
0.000000
1.335938
0.000000
0.660156
-0.406250
1.671875
-0.132812
-0.832031
-1.472656
-0.074219
0.156250
-1.632812
-0.707031
1.726562
1.644531
0.000000
-0.253906
0.878906
0.000000
1.554688
0.601562
-1.546875
-0.968750
0.000000
0.003906
0.000000
0.625000
0.000000
-0.058594
0.000000
0.000000
1.066406
0.000000
0.011719
1.503906
1.566406
1.445312
0.054688
-0.535156
0.000000
0.699219
-0.128906
0.488281
0.453125
-1.152344
0.238281
-1.179688
0.097656
-1.382812
2.015625
-0.933594
-0.082031
-0.210938
1.261719
0.667969
0.000000
0.402344
1.742188
0.187500
0.242188
1.804688
0.113281
0.000000
0.558594
1.304688
1.953125
-1.960938
0.000000
0.000000
0.000000
1.488281
-1.875000
0.000000
0.148438
1.871094
0.113281
-1.621094
-0.972656
1.253906
0.031250
1.250000
0.085938
0.894531
0.281250
-0.054688
0.000000
0.000000
1.414062
1.054688
1.636719
-0.054688
0.882812
0.855469
0.042969
0.000000
1.769531
-1.449219
0.039062
1.742188
0.804688
0.238281
0.000000
0.199219
-0.078125
-1.484375
1.531250
0.589844
0.042969
0.003906
-1.554688
0.000000
-1.699219
0.246094
0.046875
0.070312
1.402344
0.000000
-0.125000
0.062500
0.000000
0.882812
0.152344
-1.199219
0.050781
0.617188
0.054688
-1.730469
0.101562
1.667969
0.000000
-0.183594
0.085938
0.003906
1.437500
-1.132812
-1.496094
-0.761719
0.773438
0.000000
-0.046875
-0.132812
1.210938
0.000000
-1.828125
-1.417969
0.000000
0.863281
-1.804688
0.003906
-2.023438
1.500000
0.000000
1.570312
-1.597656
-1.703125
1.117188
-0.210938
-2.253906
0.003906
0.000000
0.000000
1.375000
-1.906250
-0.019531
1.046875
0.000000
0.000000
-1.136719
-0.027344
-2.152344
-0.992188
-1.929688
0.457031
-1.312500
-1.207031
-2.015625
-1.261719
-0.230469
-0.050781
1.507812
0.484375
0.562500
0.003906
0.000000
-1.359375
0.222656
-0.050781
0.000000
0.035156
0.000000
-1.390625
0.003906
0.000000
1.242188
-1.300781
-0.386719
-1.363281
-1.753906
-0.199219
0.226562
-0.203125
0.000000
0.136719
0.000000
-0.250000
0.644531
0.000000
-0.054688
1.277344
-1.863281
-0.062500
1.593750
0.000000
-0.503906
-1.613281
1.425781
-0.183594
0.000000
-0.343750
0.031250
-1.144531
0.000000
0.000000
0.109375
1.585938
-1.605469
-0.164062
0.035156
-1.722656
0.003906
2.234375
1.851562
0.000000
-1.445312
-0.992188
0.167969
1.558594
1.414062
-1.960938
-0.085938
-0.070312
-0.058594
-0.242188
1.097656
-1.089844
-0.218750
0.707031
0.316406
-1.660156
-0.820312
-1.250000
0.000000
0.000000
-0.027344
-0.546875
1.234375
0.003906
0.003906
-0.050781
0.207031
-0.437500
0.164062
0.011719
0.242188
-1.562500
0.085938
-0.312500
0.000000
0.167969
-1.453125
-0.800781
0.988281
0.000000
-0.199219
1.589844
-1.464844
0.000000
0.000000
1.882812
0.089844
-1.859375
1.960938
-1.281250
0.000000
0.632812
1.500000
-0.117188
0.000000
0.003906
-0.664062
1.328125
0.085938
0.000000
0.000000
0.000000
0.000000
0.082031
0.054688
0.101562
1.785156
-1.562500
0.140625
0.140625
-0.019531
0.113281
-1.605469
1.472656
0.023438
0.175781
0.000000
-1.550781
1.925781
0.000000
-0.015625
-1.308594
0.472656
1.750000
-1.507812
-0.101562
2.085938
1.667969
0.000000
0.000000
-0.468750
0.000000
0.457031
-0.550781
-1.605469
1.671875
1.429688
-1.375000
0.000000
-1.687500
0.175781
-0.210938
1.480469
0.117188
0.000000
-2.058594
0.000000
1.265625
0.003906
-0.058594
-1.628906
-0.371094
1.207031
0.023438
-0.464844
0.000000
0.925781
-1.285156
1.789062
1.515625
-0.734375
0.000000
0.660156
0.000000
0.000000
0.093750
0.121094
0.218750
-1.742188
0.113281
0.000000
-1.710938
0.203125
-0.203125
0.000000
-1.613281
0.093750
0.468750
0.281250
-1.175781
0.003906
-0.500000
1.097656
0.195312
0.000000
0.000000
0.000000
-0.359375
-1.367188
0.000000
0.039062
0.074219
-1.808594
1.351562
0.000000
0.000000
-2.234375
-1.574219
0.000000
-1.546875
1.441406
2.070312
0.000000
0.000000
-1.972656
0.003906
-2.296875
-0.160156
0.000000
0.000000
0.000000
0.000000
-0.160156
1.882812
0.000000
-1.378906
-1.515625
-0.644531
0.000000
-2.019531
0.000000
1.363281
0.613281
1.593750
-0.546875
-1.648438
0.027344
-0.050781
-0.277344
-1.625000
-1.617188
-0.031250
1.089844
-1.261719
-1.300781
1.601562
-0.082031
0.000000
0.000000
-1.101562
-0.093750
0.000000
0.000000
1.242188
1.609375
-1.484375
-0.664062
-1.121094
-0.695312
0.000000
0.175781
0.000000
0.035156
0.003906
-0.042969
0.000000
-1.781250
0.000000
1.562500
-1.535156
0.429688
0.000000
0.000000
-1.585938
-0.917969
1.214844
0.964844
-0.031250
0.000000
1.007812
0.000000
0.003906
1.957031
0.074219
0.000000
-1.773438
-0.101562
0.000000
0.000000
0.042969
-1.343750
1.507812
-1.648438
-0.667969
0.746094
-0.550781
0.000000
1.160156
0.609375
-1.632812
0.000000
1.890625
-1.855469
0.000000
0.128906
0.000000
0.000000
0.113281
0.296875
0.054688
-1.652344
-1.984375
0.000000
1.179688
0.035156
1.769531
0.183594
1.800781
-1.781250
0.769531
0.007812
-1.695312
0.000000
0.000000
-2.082031
-1.718750
0.703125
-1.261719
0.015625
-1.761719
0.136719
0.000000
-0.128906
-0.640625
-0.652344
1.449219
-1.187500
1.367188
-1.839844
1.804688
1.015625
0.000000
-1.199219
0.000000
1.367188
1.312500
-1.421875
-0.972656
0.832031
-1.449219
0.000000
-0.191406
0.000000
0.000000
0.000000
0.046875
-0.050781
0.000000
-1.656250
-0.074219
0.000000
-0.351562
2.062500
1.238281
0.062500
1.296875
-0.074219
0.000000
0.160156
0.074219
0.000000
0.023438
-0.945312
0.042969
0.734375
1.445312
-0.882812
-0.910156
0.058594
0.000000
0.105469
1.468750
-1.847656
0.789062
0.234375
0.503906
0.003906
0.769531
0.441406
-0.078125
-1.539062
-0.492188
0.000000
-1.515625
1.847656
-0.183594
0.800781
1.929688
-0.097656
0.003906
-1.214844
-2.183594
-1.671875
0.046875
-1.136719
0.011719
1.605469
0.023438
-1.496094
-0.050781
-0.070312
-1.285156
0.000000
-1.968750
1.503906
0.285156
1.160156
-0.171875
1.730469
0.003906
-0.945312
-0.476562
1.523438
0.121094
-1.695312
1.519531
0.718750
-1.839844
1.289062
1.253906
0.054688
0.046875
-0.132812
-0.265625
1.316406
-1.316406
0.007812
-0.898438
0.000000
0.019531
0.089844
0.000000
-0.097656
2.140625
1.347656
0.242188
-0.843750
1.128906
1.371094
1.609375
0.246094
0.105469
0.000000
0.054688
-1.480469
-1.777344
-0.496094
1.007812
0.085938
0.000000
-0.019531
-1.136719
0.000000
-1.093750
0.570312
-0.191406
-0.414062
-0.082031
-0.031250
1.425781
-1.421875
-2.003906
-1.480469
0.000000
-0.105469
-0.316406
-0.066406
0.000000
1.187500
0.003906
0.039062
1.406250
0.531250
-1.363281
0.003906
-1.898438
-0.167969
1.148438
0.000000
0.000000
0.000000
-1.765625
-0.167969
-1.261719
-0.082031
0.054688
-1.671875
-0.046875
-0.003906
0.492188
0.769531
0.183594
0.000000
0.000000
-0.765625
1.546875
1.386719
-0.191406
0.214844
1.195312
-0.179688
1.683594
1.878906
-0.195312
0.000000
1.644531
-0.246094
0.000000
0.000000
0.000000
0.027344
0.000000
-1.011719
1.316406
-0.257812
1.804688
-0.363281
0.089844
-0.722656
-1.703125
0.171875
-1.660156
-0.250000
-1.531250
1.335938
0.089844
0.000000
-0.917969
0.000000
-0.925781
1.675781
-0.042969
0.234375
2.050781
-0.152344
1.675781
1.417969
1.289062
1.593750
-1.343750
0.117188
0.000000
-0.066406
1.660156
-0.847656
-1.265625
0.000000
0.000000
-1.132812
1.667969
-0.722656
1.835938
1.406250
2.203125
0.000000
1.613281
-0.050781
0.000000
-1.253906
-0.066406
1.636719
0.000000
0.003906
0.000000
-0.003906
0.003906
-1.406250
0.000000
0.003906
1.109375
1.648438
1.617188
-0.140625
1.281250
-0.066406
-2.132812
0.003906
0.000000
-1.195312
-0.988281
-1.570312
0.000000
0.000000
0.140625
-0.218750
1.164062
0.003906
1.292969
0.097656
-1.652344
-1.367188
1.128906
-0.046875
1.039062
1.398438
-1.675781
-0.070312
-1.742188
0.003906
1.156250
1.687500
0.000000
-0.128906
0.308594
0.035156
-0.722656
0.000000
-0.273438
0.000000
1.324219
1.355469
-0.304688
1.046875
-1.941406
1.660156
0.000000
0.003906
-1.796875
0.000000
-1.425781
-2.175781
0.417969
-1.519531
-1.246094
-0.019531
-1.429688
1.207031
1.906250
0.000000
0.000000
-1.648438
-1.785156
1.800781
-1.441406
0.000000
-0.066406
0.000000
0.000000
1.527344
-1.191406
0.179688
0.003906
-1.421875
-1.261719
1.347656
-0.019531
1.539062
1.488281
-0.640625
1.601562
0.007812
0.000000
0.183594
-1.066406
0.000000
0.019531
1.722656
1.632812
0.000000
-0.882812
-0.296875
1.484375
-0.003906
0.000000
-1.878906
0.000000
-0.093750
1.652344
0.000000
0.000000
0.000000
0.062500
-1.253906
0.027344
-1.238281
-1.089844
1.468750
0.484375
-0.035156
-1.882812
0.000000
0.007812
0.003906
-0.132812
-1.441406
1.804688
1.800781
1.246094
-0.824219
0.222656
0.128906
0.000000
0.113281
1.738281
0.152344
-1.359375
1.457031
-1.914062
0.000000
-0.003906
1.675781
0.000000
-0.093750
1.609375
1.535156
-1.183594
0.000000
-0.417969
0.000000
-1.578125
0.007812
0.070312
0.000000
-0.976562
0.230469
-1.625000
0.613281
0.113281
0.015625
1.304688
0.195312
-0.015625
-0.132812
-1.042969
1.910156
-1.929688
-0.265625
-1.460938
0.640625
0.105469
0.097656
-0.777344
0.003906
0.003906
0.351562
1.449219
-0.832031
0.000000
1.308594
0.000000
-1.273438
0.000000
-1.292969
0.000000
2.125000
1.589844
-0.031250
0.132812
1.632812
-0.156250
-0.167969
-0.148438
-0.531250
-0.746094
0.000000
0.000000
0.003906
-1.132812
0.093750
1.617188
-1.414062
0.000000
0.000000
1.367188
-1.675781
-0.339844
0.085938
-2.042969
0.000000
0.000000
0.109375
0.000000
0.000000
1.785156
-0.050781
0.000000
-0.777344
0.371094
-0.777344
0.160156
0.000000
0.000000
0.039062
-1.285156
1.476562
0.000000
-0.003906
1.585938
1.589844
0.050781
-1.574219
0.000000
-0.273438
-0.062500
0.000000
-1.886719
-1.285156
0.003906
0.980469
1.382812
0.015625
-0.046875
1.230469
1.628906
0.195312
0.000000
0.359375
0.000000
0.636719
-0.214844
-0.003906
-1.750000
0.000000
0.121094
0.000000
0.000000
-1.484375
0.003906
1.542969
0.472656
-1.035156
-1.074219
0.000000
0.109375
-1.414062
0.000000
-0.546875
0.281250
1.000000
-1.433594
-0.835938
-1.324219
-0.925781
0.003906
1.210938
-0.082031
0.000000
1.777344
0.046875
0.000000
-0.046875
0.007812
-0.898438
0.000000
0.000000
-1.675781
-1.691406
-0.042969
1.679688
0.000000
-0.296875
0.000000
-0.019531
-1.761719
0.035156
-1.085938
0.214844
-1.246094
-0.125000
0.000000
0.000000
1.710938
0.687500
0.312500
1.164062
0.093750
-2.078125
-0.046875
0.867188
0.683594
0.000000
1.890625
0.000000
-0.082031
0.042969
-1.304688
0.000000
0.000000
0.062500
0.003906
0.050781
-1.421875
0.421875
-1.597656
-0.042969
0.003906
0.003906
-0.027344
0.125000
0.000000
0.000000
0.921875
1.632812
0.250000
-0.902344
0.632812
0.695312
-1.636719
0.074219
1.460938
0.000000
-0.160156
0.046875
0.179688
-1.000000
0.000000
-0.363281
0.207031
-0.121094
-0.335938
-1.363281
-0.601562
1.289062
1.070312
-0.914062
0.000000
-1.582031
1.757812
0.000000
2.039062
-1.640625
0.000000
0.003906
-0.070312
-0.074219
-0.953125
-2.011719
0.730469
0.000000
0.039062
0.105469
-0.765625
-0.023438
0.761719
-0.457031
0.000000
-1.894531
0.066406
1.656250
0.074219
-1.683594
0.000000
-0.933594
-1.460938
1.328125
1.597656
-0.007812
0.410156
-1.437500
1.203125
-1.703125
0.000000
1.886719
-1.582031
0.863281
1.367188
0.234375
0.000000
0.000000
-0.105469
-0.054688
0.000000
0.347656
0.285156
-0.941406
-1.164062
-1.656250
0.000000
1.746094
0.000000
-1.496094
0.027344
-0.105469
0.164062
1.269531
0.000000
0.000000
-0.117188
-0.582031
0.039062
0.039062
0.000000
0.933594
0.000000
0.148438
-0.078125
-1.250000
0.046875
-1.238281
-1.351562
-0.156250
2.074219
0.679688
0.031250
0.222656
0.195312
0.109375
0.050781
-1.074219
-0.812500
-1.285156
-0.515625
-0.277344
-0.945312
2.304688
-1.847656
0.000000
-1.343750
0.000000
0.000000
-0.757812
-0.648438
-0.015625
-0.027344
0.093750
1.171875
0.000000
-1.851562
0.003906
-0.792969
0.000000
1.253906
0.144531
-1.507812
1.382812
1.542969
1.746094
-0.093750
-0.210938
0.097656
0.000000
-0.933594
-1.929688
-2.164062
0.000000
0.000000
0.000000
-0.039062
-1.562500
-2.050781
-0.062500
0.140625
0.000000
1.531250
0.000000
0.035156
-0.179688
1.132812
0.167969
-1.238281
1.675781
1.656250
1.035156
-0.093750
1.730469
0.042969
-1.160156
-1.453125
1.203125
0.000000
0.691406
0.000000
0.328125
0.328125
0.156250
-1.445312
0.000000
0.058594
-0.253906
0.023438
0.042969
0.000000
0.824219
-1.546875
0.062500
0.000000
-1.636719
-1.644531
-1.421875
1.160156
-0.152344
0.000000
-1.917969
-0.273438
1.878906
1.136719
0.000000
-0.035156
-1.605469
0.000000
1.285156
0.074219
-0.046875
-0.437500
0.140625
0.644531
-0.160156
1.789062
2.046875
0.953125
-0.191406
-1.488281
-0.105469
0.746094
-0.058594
-1.320312
0.164062
-1.457031
-1.300781
1.597656
-0.097656
0.000000
0.000000
-0.074219
0.000000
-0.007812
-0.488281
0.000000
-0.394531
-1.207031
-1.097656
0.000000
-0.472656
-1.765625
1.359375
1.308594
-1.273438
-0.339844
0.117188
0.039062
1.238281
0.019531
1.718750
0.074219
0.054688
0.000000
-0.320312
0.000000
1.679688
-1.433594
0.000000
1.339844
-1.859375
0.816406
-1.257812
0.128906
0.000000
0.000000
0.000000
0.152344
-1.468750
-1.296875
-0.632812
1.519531
0.000000
-0.261719
0.000000
0.238281
-1.496094
0.000000
0.000000
1.695312
-0.234375
-1.378906
1.996094
0.199219
-0.136719
0.000000
-1.390625
0.000000
-1.929688
0.109375
0.000000
0.000000
-0.085938
0.000000
1.406250
1.253906
-0.542969
0.000000
0.093750
-0.046875
-1.996094
-0.019531
1.542969
-0.015625
-0.636719
-1.019531
0.000000
1.828125
-0.687500
1.382812
0.003906
-0.683594
1.527344
-2.304688
-1.441406
0.000000
0.035156
1.550781
0.246094
0.566406
1.429688
0.585938
0.121094
-0.097656
0.105469
-0.878906
-0.140625
-1.699219
-0.050781
-0.636719
1.109375
-0.503906
-0.085938
0.000000
-0.031250
1.164062
0.019531
0.605469
1.921875
0.000000
0.488281
1.777344
1.371094
-0.097656
1.710938
0.003906
-0.011719
-0.093750
0.105469
-1.308594
1.394531
0.757812
-1.207031
1.421875
-1.601562
-1.035156
-1.402344
-1.906250
-1.425781
-0.015625
0.000000
-0.773438
-1.210938
0.285156
1.449219
0.566406
1.710938
0.000000
0.000000
2.140625
-0.914062
0.082031
-0.355469
-0.042969
1.679688
0.042969
-1.933594
0.000000
0.402344
-0.246094
0.011719
-1.500000
0.347656
0.648438
0.070312
0.191406
0.000000
0.000000
-2.113281
1.542969
-0.277344
-0.171875
-1.265625
-0.699219
0.023438
1.433594
0.000000
0.136719
-1.199219
1.285156
0.000000
0.000000
0.000000
1.207031
0.000000
0.000000
-0.367188
0.000000
-1.890625
0.000000
1.621094
0.000000
-0.007812
1.500000
0.000000
0.261719
-1.140625
-1.777344
-0.203125
-1.761719
-0.957031
0.003906
1.140625
0.003906
-1.273438
1.542969
-0.511719
0.089844
0.000000
1.757812
0.000000
2.015625
1.718750
-1.234375
-0.789062
-0.105469
0.000000
0.210938
1.550781
1.750000
0.000000
0.664062
0.101562
0.000000
