0.121094
0.000000
0.039062
-1.277344
0.964844
0.000000
0.000000
0.179688
1.027344
1.187500
-0.132812
0.000000
0.726562
0.003906
-0.011719
-1.093750
-0.171875
0.003906
0.234375
0.000000
0.042969
0.000000
-0.046875
0.000000
0.000000
0.000000
-0.652344
0.101562
0.964844
-0.742188
-0.003906
-2.046875
0.707031
0.214844
-0.476562
1.328125
0.253906
0.878906
-1.113281
-0.660156
-0.332031
-0.042969
0.062500
1.230469
-0.480469
-0.085938
-1.261719
1.109375
0.281250
-0.894531
0.675781
0.066406
-0.117188
-0.003906
-1.902344
-0.886719
0.000000
0.000000
0.406250
-0.062500
0.765625
-0.070312
0.777344
-1.300781
0.332031
-0.777344
0.265625
0.085938
0.867188
-0.414062
0.863281
0.011719
-0.136719
1.035156
-0.683594
0.058594
-0.078125
-0.007812
-1.054688
1.109375
0.203125
0.136719
-0.167969
0.691406
1.515625
-0.023438
-0.101562
-0.730469
-0.050781
0.003906
-0.515625
-0.093750
0.714844
0.000000
-0.597656
-0.652344
0.988281
0.148438
0.003906
0.183594
0.003906
0.328125
-0.066406
0.074219
0.203125
-0.019531
-0.097656
0.000000
0.003906
0.000000
-0.679688
0.000000
-1.406250
0.000000
0.000000
0.000000
-0.968750
1.007812
-0.042969
0.000000
-0.003906
0.000000
0.003906
-1.320312
0.050781
0.000000
1.398438
0.988281
-0.167969
0.003906
-1.652344
0.902344
0.000000
0.000000
0.542969
0.000000
-0.019531
-0.187500
0.578125
-0.167969
-0.003906
-0.722656
0.000000
-0.265625
0.996094
0.000000
0.000000
0.000000
-0.382812
-0.910156
-0.179688
0.000000
1.117188
0.046875
-0.890625
0.093750
0.960938
1.066406
-0.941406
1.175781
0.000000
0.000000
-1.085938
0.089844
0.058594
0.675781
0.468750
1.230469
0.000000
1.289062
0.664062
0.843750
0.031250
0.000000
0.003906
0.000000
0.000000
-0.031250
0.000000
0.957031
0.914062
1.222656
0.000000
0.000000
-0.300781
0.101562
-0.566406
0.156250
0.000000
0.722656
1.289062
-0.257812
0.015625
-0.890625
1.007812
-0.539062
0.328125
-1.417969
0.003906
-0.445312
-0.140625
0.000000
0.632812
-0.660156
-0.410156
-0.984375
0.378906
0.062500
0.085938
0.000000
1.023438
-0.976562
1.136719
-0.558594
0.707031
-0.003906
1.222656
0.078125
0.000000
-0.070312
0.003906
0.000000
-0.675781
1.285156
0.000000
0.000000
0.425781
-1.007812
0.042969
-0.753906
0.000000
-0.671875
1.015625
0.621094
1.187500
-0.121094
-0.132812
0.000000
-0.070312
0.089844
-0.503906
0.000000
-1.035156
-0.949219
1.062500
0.128906
0.964844
0.011719
-0.371094
0.000000
0.160156
-0.039062
0.023438
0.527344
-0.964844
-0.101562
0.000000
1.425781
1.671875
1.320312
-1.304688
0.128906
0.000000
0.000000
0.000000
0.000000
-1.441406
0.000000
-0.113281
-1.367188
-1.386719
0.050781
-0.773438
1.261719
-0.285156
0.089844
0.683594
0.000000
0.035156
0.003906
0.000000
-0.050781
-1.660156
0.406250
-0.531250
0.003906
0.234375
0.054688
0.285156
0.000000
-0.730469
0.000000
0.000000
-1.292969
0.886719
-1.378906
0.054688
0.832031
0.332031
-0.226562
-0.605469
0.003906
-0.375000
-0.125000
-1.519531
-0.375000
-0.035156
0.011719
-1.367188
0.003906
0.000000
0.000000
0.003906
0.910156
0.441406
1.011719
0.011719
-0.031250
0.058594
0.000000
-0.070312
-0.066406
0.000000
0.003906
-0.042969
1.046875
-0.421875
0.574219
-0.296875
1.648438
0.000000
-0.097656
-1.460938
-0.031250
-0.105469
-1.156250
0.343750
0.000000
0.929688
0.000000
0.660156
0.609375
-0.199219
0.316406
-0.078125
0.000000
1.460938
-1.371094
0.000000
0.000000
0.386719
-0.363281
-0.160156
0.156250
0.000000
-0.093750
-0.054688
-0.128906
0.000000
-0.011719
-0.710938
-0.441406
-0.476562
-0.492188
-1.113281
0.281250
-1.074219
0.531250
0.000000
-0.210938
0.710938
0.000000
-0.187500
-0.007812
0.394531
0.191406
0.511719
-0.183594
0.023438
0.000000
-0.261719
0.152344
0.906250
-0.968750
0.000000
0.000000
0.855469
-1.347656
-0.003906
0.000000
1.023438
-0.253906
0.082031
-0.066406
0.097656
-0.054688
0.000000
1.234375
0.000000
0.019531
0.636719
0.589844
-0.671875
1.296875
-0.812500
0.000000
0.562500
0.097656
0.105469
0.000000
0.019531
0.000000
0.000000
0.050781
-1.679688
-1.308594
1.394531
-0.734375
0.019531
1.042969
1.292969
-0.332031
0.003906
0.003906
0.285156
-0.031250
-0.773438
0.000000
-0.101562
0.000000
1.062500
0.859375
0.000000
0.761719
-0.695312
-0.683594
0.039062
0.078125
-0.328125
0.003906
0.000000
-0.257812
0.226562
-0.136719
0.000000
0.000000
-0.671875
0.000000
-0.281250
0.000000
0.128906
0.000000
0.000000
-0.765625
0.679688
0.003906
0.000000
-0.613281
-1.273438
1.156250
0.195312
0.000000
-1.113281
-0.113281
-0.843750
0.898438
-0.011719
-0.179688
0.000000
-1.160156
0.000000
-0.105469
-0.035156
0.683594
0.000000
-0.816406
0.007812
0.652344
0.886719
0.000000
0.105469
0.007812
0.160156
-0.699219
0.000000
0.000000
0.000000
0.000000
0.000000
0.304688
0.000000
-0.808594
0.832031
0.003906
-0.156250
0.000000
1.234375
0.003906
0.089844
0.000000
-0.796875
-0.097656
-0.417969
0.000000
0.003906
0.015625
-1.312500
-0.175781
1.253906
-0.058594
0.621094
0.000000
0.000000
0.003906
0.335938
0.648438
-0.058594
-0.820312
0.058594
0.515625
-0.941406
0.179688
0.554688
0.007812
-0.914062
-1.042969
0.984375
0.000000
-0.019531
-1.644531
0.035156
0.000000
0.000000
0.132812
-0.195312
0.000000
0.589844
-0.085938
0.000000
0.000000
0.003906
0.082031
-1.019531
-1.425781
0.386719
0.000000
1.179688
0.003906
-1.488281
0.000000
-0.148438
0.027344
0.003906
0.023438
0.000000
0.000000
0.839844
-0.011719
-1.054688
-0.843750
0.000000
0.000000
-0.992188
-0.484375
-0.105469
-1.562500
0.101562
1.167969
0.000000
-0.679688
0.000000
0.000000
-1.250000
0.972656
-0.925781
0.617188
0.000000
0.000000
-0.015625
0.000000
0.000000
0.000000
-0.226562
-1.031250
0.000000
-0.375000
0.554688
1.347656
-0.207031
0.511719
-1.187500
1.250000
0.000000
0.000000
0.972656
0.000000
0.000000
-0.339844
0.000000
-1.449219
-0.050781
0.992188
0.675781
0.050781
0.000000
-0.007812
0.078125
0.675781
0.000000
0.000000
0.996094
0.042969
1.625000
0.003906
1.781250
0.000000
0.003906
-0.257812
0.570312
0.167969
0.031250
-0.175781
0.210938
-0.867188
-0.718750
0.046875
0.000000
-1.304688
-0.035156
0.000000
-0.222656
-0.585938
-0.105469
0.003906
0.375000
1.566406
0.000000
0.000000
0.328125
0.000000
0.058594
-0.105469
0.039062
-1.113281
-0.046875
0.125000
-0.109375
-0.003906
0.003906
0.031250
-0.035156
0.582031
0.007812
0.105469
-0.605469
1.019531
0.320312
0.695312
0.074219
-1.367188
0.007812
-1.117188
-0.027344
-0.191406
-0.820312
0.000000
0.000000
-0.292969
0.000000
-0.546875
-0.917969
0.000000
-1.167969
0.382812
1.570312
0.000000
-0.906250
1.421875
0.000000
-0.355469
0.000000
-1.175781
0.765625
-0.093750
0.687500
-0.265625
0.042969
-1.109375
-0.027344
0.000000
1.164062
0.000000
-1.121094
1.121094
0.003906
0.957031
0.000000
0.417969
1.070312
0.000000
-0.656250
-1.285156
0.539062
-1.011719
0.000000
-0.937500
0.531250
1.222656
-0.039062
1.687500
0.214844
0.000000
0.000000
0.437500
0.074219
0.062500
1.164062
0.000000
0.261719
0.160156
1.335938
-1.414062
0.078125
0.000000
0.000000
0.003906
0.003906
0.000000
-0.015625
0.789062
0.890625
1.566406
0.000000
0.152344
0.000000
-1.035156
0.140625
-0.179688
0.003906
-0.273438
0.003906
0.898438
-0.691406
0.292969
0.000000
-0.273438
-0.882812
0.003906
0.195312
0.000000
-0.570312
-1.035156
0.699219
0.000000
0.058594
-0.363281
-0.203125
-0.042969
0.058594
0.671875
0.148438
-0.980469
0.000000
0.652344
0.000000
0.011719
0.425781
-0.550781
-0.136719
1.382812
0.000000
0.000000
0.000000
0.187500
-1.109375
0.000000
0.000000
-0.027344
0.441406
1.242188
0.519531
-1.070312
-0.042969
-0.425781
0.000000
0.000000
0.832031
0.691406
-0.636719
-0.066406
-1.425781
0.000000
-0.054688
0.054688
1.015625
-0.332031
-1.046875
-0.312500
0.000000
0.003906
0.000000
1.523438
0.250000
0.000000
0.054688
0.144531
0.070312
0.722656
0.761719
-0.171875
-0.359375
0.003906
0.003906
-0.195312
0.035156
-1.148438
0.679688
-0.890625
0.003906
0.207031
-0.207031
-0.562500
1.554688
0.082031
-0.050781
0.000000
1.191406
0.066406
0.000000
0.687500
0.003906
-0.023438
-0.570312
-0.199219
0.000000
0.000000
0.000000
0.148438
0.691406
0.000000
-0.335938
-1.167969
-0.167969
-0.140625
0.183594
0.000000
0.000000
0.027344
-0.082031
0.000000
-1.390625
0.003906
1.078125
-1.023438
0.640625
0.000000
0.746094
0.742188
0.070312
1.359375
0.117188
0.722656
-0.535156
0.187500
-0.054688
-1.023438
-0.894531
0.000000
-1.281250
1.046875
-0.218750
-0.050781
-0.082031
0.000000
-0.472656
-0.316406
-0.277344
0.007812
-0.925781
0.000000
0.121094
-0.882812
-1.210938
0.000000
0.011719
0.125000
0.000000
-0.074219
1.117188
0.003906
-0.222656
0.000000
1.160156
-0.824219
-0.085938
-0.898438
-0.277344
0.000000
0.019531
0.000000
-1.218750
0.000000
-0.972656
-1.214844
0.003906
-1.093750
0.960938
0.054688
0.000000
0.230469
0.000000
-1.753906
0.222656
-0.132812
0.000000
0.191406
0.269531
0.000000
0.000000
0.335938
0.035156
0.000000
-0.019531
-1.566406
-1.042969
0.000000
0.101562
0.000000
1.679688
-0.105469
0.000000
0.000000
0.214844
0.000000
0.000000
0.152344
0.554688
-1.191406
0.253906
1.296875
0.000000
0.195312
-1.531250
0.000000
-0.558594
-0.175781
0.000000
0.000000
1.148438
-0.710938
-0.371094
0.000000
-0.261719
0.171875
0.000000
-2.015625
0.000000
1.117188
0.765625
0.003906
0.003906
-0.027344
1.152344
-0.093750
0.000000
-0.425781
0.000000
-0.097656
0.000000
0.000000
0.000000
0.625000
-0.453125
-0.003906
0.000000
-0.132812
0.636719
-0.785156
-0.058594
-0.906250
-1.128906
0.203125
0.234375
0.003906
-0.750000
-0.820312
0.230469
1.214844
-0.656250
0.023438
0.000000
0.144531
-0.078125
0.964844
0.000000
-0.214844
0.156250
0.003906
1.367188
1.257812
-0.730469
-0.273438
0.175781
0.000000
0.000000
-0.125000
0.000000
0.035156
0.824219
-0.570312
0.003906
0.078125
-0.003906
-0.335938
0.003906
0.000000
-0.394531
-0.031250
1.285156
-0.167969
-0.195312
0.863281
-0.730469
-1.250000
-0.476562
0.761719
0.000000
0.000000
0.000000
-0.531250
1.332031
0.320312
-0.187500
0.199219
0.000000
0.003906
-0.488281
-1.308594
1.187500
0.238281
-0.558594
-0.269531
1.050781
0.000000
-0.046875
-0.078125
-1.488281
0.000000
-1.328125
-0.191406
1.191406
0.000000
-0.890625
0.000000
0.000000
1.191406
0.332031
0.085938
0.003906
-1.144531
-0.050781
0.000000
0.000000
0.000000
1.527344
0.000000
0.710938
0.000000
0.000000
0.000000
0.750000
-0.699219
-1.070312
-0.031250
0.703125
0.117188
0.003906
-0.074219
0.742188
0.003906
-0.175781
0.734375
0.117188
-0.152344
-1.144531
0.000000
-0.398438
-1.582031
0.003906
-0.039062
-0.015625
-0.800781
-0.355469
0.003906
0.988281
0.785156
0.000000
0.945312
-0.964844
0.093750
0.000000
-0.167969
1.164062
0.000000
-1.347656
0.000000
0.000000
0.359375
-0.027344
0.000000
0.000000
0.000000
-0.078125
-1.335938
0.523438
0.011719
0.308594
-0.714844
0.203125
0.000000
-0.011719
0.273438
0.500000
0.000000
-0.093750
0.933594
-0.027344
0.332031
-0.054688
0.000000
1.062500
-0.507812
-0.878906
-1.257812
1.039062
-0.367188
-0.050781
-0.214844
1.164062
0.195312
0.433594
-0.035156
-1.062500
0.000000
0.925781
0.218750
0.000000
0.464844
0.054688
0.050781
0.000000
-0.082031
0.906250
-0.324219
0.000000
-0.777344
-1.339844
-1.277344
-0.269531
0.000000
1.296875
-0.015625
-0.941406
0.000000
0.121094
0.000000
0.000000
-0.175781
0.003906
-0.281250
0.003906
-0.156250
-0.050781
0.265625
0.062500
-0.878906
-1.300781
0.062500
0.199219
0.000000
0.000000
-0.054688
0.000000
-0.785156
-0.035156
0.000000
-0.242188
0.000000
0.000000
0.503906
-0.984375
0.003906
-0.773438
-0.292969
-0.070312
0.121094
0.164062
-0.078125
0.000000
0.011719
1.636719
0.375000
0.000000
-0.527344
0.292969
0.000000
1.003906
-0.468750
0.000000
0.000000
-0.117188
0.589844
0.437500
0.000000
-0.199219
0.570312
0.738281
1.042969
0.867188
0.000000
0.000000
0.003906
0.000000
1.238281
0.000000
0.000000
0.914062
0.000000
0.324219
0.875000
0.039062
0.000000
-1.730469
1.019531
-0.066406
-0.621094
0.562500
0.000000
0.000000
0.542969
0.320312
0.000000
-1.039062
0.042969
0.621094
0.000000
0.851562
0.000000
0.000000
-1.562500
0.285156
-0.906250
0.000000
0.039062
-1.316406
-1.003906
0.347656
0.832031
-0.039062
-1.054688
-1.460938
0.000000
-0.011719
-1.308594
-0.265625
-0.578125
-0.375000
0.546875
-1.000000
0.000000
0.000000
0.000000
-0.847656
0.003906
1.402344
-0.648438
-1.281250
-0.300781
-0.390625
-0.816406
0.000000
-0.843750
-0.726562
0.000000
0.812500
0.027344
-0.003906
-1.449219
-1.714844
0.042969
0.007812
1.328125
0.000000
0.535156
-1.121094
-0.035156
0.839844
0.019531
-0.054688
0.835938
0.000000
-0.503906
0.000000
0.238281
0.003906
1.226562
0.726562
0.343750
0.000000
1.535156
0.640625
0.125000
0.000000
0.562500
-1.050781
0.003906
0.003906
0.000000
0.003906
-0.328125
0.699219
0.000000
0.085938
0.058594
1.363281
-0.648438
-0.480469
0.003906
0.199219
0.000000
1.433594
-0.074219
1.375000
-0.632812
-0.128906
0.000000
1.175781
0.000000
0.027344
1.437500
0.003906
1.082031
-0.148438
0.000000
0.000000
0.000000
-0.421875
-1.667969
0.128906
0.000000
1.148438
0.843750
0.300781
-0.746094
-0.179688
0.187500
0.003906
0.000000
0.039062
-1.363281
0.578125
-1.570312
-1.582031
0.000000
0.000000
0.000000
-0.207031
-0.984375
-0.039062
0.113281
-0.746094
-0.089844
0.000000
0.097656
0.003906
1.589844
-0.675781
0.000000
-0.054688
0.000000
0.003906
1.234375
0.078125
0.976562
1.218750
0.121094
1.335938
-1.371094
-0.097656
0.972656
-0.234375
-0.628906
0.000000
0.281250
-1.238281
-1.609375
-0.308594
0.000000
-1.136719
-0.171875
0.000000
0.000000
-0.125000
0.000000
0.035156
0.003906
-1.246094
-0.664062
0.898438
0.000000
0.000000
-0.988281
0.000000
0.000000
0.109375
0.671875
0.000000
0.000000
0.000000
-0.089844
-0.226562
-1.109375
0.093750
0.832031
-0.964844
0.003906
0.000000
0.000000
-0.628906
0.355469
-0.144531
-0.082031
-0.234375
0.187500
0.019531
-0.371094
-1.273438
0.023438
0.000000
0.023438
0.058594
0.148438
-0.914062
-1.281250
0.441406
0.000000
1.132812
0.058594
-0.066406
0.457031
-0.550781
-0.121094
0.234375
0.000000
1.332031
-1.144531
0.000000
-0.554688
0.000000
0.027344
0.000000
-0.300781
0.769531
0.449219
1.195312
-0.066406
-0.714844
0.000000
0.000000
0.003906
0.585938
1.023438
0.468750
-0.187500
0.773438
0.031250
1.511719
0.027344
0.718750
-0.058594
0.000000
0.000000
0.230469
0.000000
0.000000
0.988281
-0.093750
0.671875
-1.277344
-0.042969
-1.585938
-0.023438
-0.875000
0.046875
0.000000
1.105469
-0.496094
0.000000
0.078125
1.191406
-0.253906
0.000000
0.003906
-0.753906
-0.023438
0.003906
-0.464844
-0.730469
0.000000
0.515625
0.316406
-1.367188
0.394531
0.000000
-0.003906
0.550781
0.000000
-0.808594
0.000000
0.308594
0.128906
0.105469
0.003906
0.000000
0.832031
-0.511719
0.000000
0.003906
0.167969
0.003906
0.000000
0.238281
0.699219
0.683594
0.035156
0.117188
0.000000
0.000000
-0.121094
1.207031
0.000000
-0.183594
0.000000
-1.363281
0.003906
-0.015625
0.000000
0.000000
0.000000
0.000000
0.453125
-0.058594
0.000000
0.035156
-0.285156
0.000000
-0.832031
-0.078125
-0.117188
0.992188
-0.207031
0.789062
0.066406
-0.246094
1.644531
0.000000
-0.148438
0.000000
0.000000
1.359375
0.000000
-0.679688
-1.160156
0.828125
0.000000
-0.566406
-0.871094
0.078125
0.000000
0.000000
0.000000
1.300781
-0.976562
0.000000
0.003906
-0.078125
0.183594
-0.292969
0.050781
-0.195312
-0.625000
-0.480469
0.000000
0.652344
-0.039062
0.000000
0.000000
0.000000
1.027344
0.925781
1.074219
-0.074219
-0.121094
0.988281
-0.660156
0.000000
1.171875
0.199219
-0.281250
0.000000
-0.023438
1.207031
-0.480469
0.296875
-0.210938
0.000000
0.000000
-1.082031
-1.644531
-0.175781
-0.160156
-0.140625
-0.113281
-0.621094
0.980469
1.074219
0.746094
0.207031
1.035156
-1.046875
0.011719
-0.859375
-1.132812
-0.277344
0.113281
-1.160156
0.000000
-1.058594
0.000000
0.226562
-0.144531
0.000000
-0.078125
-0.007812
0.007812
0.000000
0.003906
0.000000
0.000000
-0.011719
0.000000
0.000000
0.000000
0.847656
0.000000
-1.617188
-0.148438
0.371094
0.000000
1.085938
0.882812
0.117188
0.757812
1.382812
-0.625000
0.000000
0.140625
1.007812
0.000000
-0.003906
0.000000
0.359375
0.804688
0.378906
0.003906
-1.472656
0.171875
-1.089844
0.628906
0.027344
-0.171875
0.003906
-0.699219
-0.035156
1.015625
-0.625000
0.839844
0.003906
0.000000
1.671875
-0.367188
-0.031250
1.246094
1.300781
0.000000
0.027344
-0.511719
-0.082031
0.000000
-0.316406
-0.878906
1.113281
0.046875
-1.714844
0.000000
0.007812
1.250000
0.000000
0.109375
0.203125
0.351562
-0.031250
-0.441406
0.980469
-1.140625
0.000000
-0.964844
-0.156250
0.003906
0.171875
-0.789062
-0.972656
0.000000
0.281250
0.304688
0.003906
0.843750
-0.859375
-0.937500
-0.011719
-0.578125
0.000000
1.570312
0.203125
0.902344
-1.027344
-0.425781
0.000000
-0.964844
0.089844
1.003906
0.769531
0.781250
-0.003906
1.464844
-0.828125
-0.382812
1.281250
0.882812
1.062500
-0.921875
0.921875
0.035156
1.164062
0.695312
0.230469
0.265625
0.000000
1.246094
0.113281
-0.640625
0.035156
0.050781
0.046875
0.078125
-0.460938
-0.929688
0.000000
-0.769531
0.000000
0.218750
1.308594
-0.042969
0.000000
0.355469
0.000000
-1.269531
-0.656250
-0.714844
0.003906
0.851562
-0.089844
-1.003906
0.968750
0.000000
0.015625
0.000000
0.003906
0.832031
0.000000
-0.824219
0.000000
0.914062
0.000000
0.121094
-0.691406
-1.171875
0.171875
0.152344
-0.019531
0.031250
-0.464844
-0.003906
-1.585938
0.000000
-1.019531
0.285156
-0.238281
-0.957031
0.000000
0.363281
-1.054688
1.078125
-0.265625
0.464844
-0.089844
0.125000
-0.675781
-1.324219
0.695312
0.000000
0.003906
-0.074219
0.609375
-0.343750
-0.238281
0.613281
-0.054688
0.148438
-0.417969
-0.148438
0.867188
0.000000
-0.171875
0.000000
-1.222656
0.070312
-0.093750
1.246094
-1.132812
0.000000
-0.035156
0.042969
-1.628906
0.000000
0.000000
1.726562
0.054688
0.812500
-0.894531
0.097656
1.437500
0.000000
0.000000
-0.402344
0.390625
-0.621094
0.140625
0.507812
0.000000
0.015625
1.289062
0.000000
-0.199219
0.949219
0.000000
0.050781
0.054688
-0.101562
0.425781
-0.007812
0.488281
0.000000
-1.222656
0.003906
0.011719
0.945312
0.097656
0.000000
-0.718750
-0.371094
-0.062500
0.820312
0.082031
-1.210938
-0.937500
1.023438
0.175781
-0.121094
-0.027344
0.003906
-0.652344
0.429688
0.000000
0.144531
0.003906
-0.085938
0.000000
0.199219
0.000000
-0.019531
0.402344
0.667969
-0.035156
-0.675781
0.000000
0.828125
-0.023438
-0.070312
0.082031
-0.554688
-0.054688
-0.464844
0.000000
-1.066406
0.000000
0.660156
-1.578125
0.000000
0.000000
-1.035156
-0.566406
0.843750
-0.046875
-0.343750
-0.289062
-0.554688
0.125000
-0.765625
0.000000
-1.082031
-0.386719
-0.191406
-0.035156
-0.339844
-0.351562
0.765625
-1.085938
0.992188
-1.437500
0.000000
-0.542969
0.003906
-0.019531
-0.687500
-0.164062
0.832031
0.000000
0.648438
-1.089844
1.160156
-0.062500
0.000000
-0.765625
0.000000
0.003906
-1.359375
0.000000
-0.171875
-0.066406
0.117188
0.109375
-0.750000
0.000000
0.062500
0.035156
1.457031
-0.007812
0.000000
0.054688
-0.820312
0.003906
1.113281
1.632812
0.164062
0.824219
0.062500
0.000000
-0.679688
-0.070312
0.042969
-0.441406
-0.296875
0.960938
0.000000
0.277344
-1.000000
1.554688
-0.078125
0.000000
-0.496094
0.003906
0.046875
-0.191406
-0.132812
0.000000
0.003906
0.648438
0.113281
0.003906
-0.156250
0.000000
0.968750
0.648438
0.046875
0.003906
0.000000
0.503906
0.042969
-0.417969
0.527344
-0.949219
0.000000
0.000000
0.781250
0.519531
-1.265625
0.089844
0.148438
-0.816406
-0.136719
0.000000
0.335938
0.359375
-0.316406
-0.191406
0.000000
-0.402344
-0.125000
0.000000
-0.035156
0.000000
0.074219
0.031250
-0.011719
-0.015625
-0.175781
0.542969
0.000000
0.031250
0.328125
0.000000
-0.054688
-0.968750
0.000000
0.000000
0.000000
0.000000
-0.023438
0.000000
0.000000
-1.503906
-0.027344
-1.437500
-0.964844
0.656250
1.386719
-1.003906
0.000000
0.000000
0.542969
0.000000
1.441406
0.000000
0.750000
0.000000
0.003906
-0.976562
0.027344
-0.003906
-0.085938
-0.082031
0.042969
-0.179688
0.656250
0.003906
0.003906
1.195312
0.023438
0.000000
1.015625
0.000000
-0.089844
0.000000
1.621094
-0.308594
0.000000
-0.671875
0.000000
1.773438
0.000000
-1.023438
-0.945312
-0.558594
0.000000
0.117188
-0.394531
-0.066406
-0.851562
0.000000
0.648438
0.000000
0.000000
0.003906
0.199219
0.000000
0.082031
0.000000
0.429688
0.910156
-0.062500
0.000000
-1.054688
-0.289062
1.039062
0.000000
0.003906
0.000000
0.003906
-0.484375
-0.523438
-1.152344
-0.386719
-0.406250
0.000000
0.539062
-1.125000
-0.261719
0.531250
-0.003906
-0.285156
-0.894531
0.003906
0.628906
0.000000
-1.585938
0.000000
0.000000
-0.062500
0.023438
0.085938
-0.078125
0.000000
1.304688
0.433594
-0.007812
0.148438
0.660156
0.000000
0.000000
-0.843750
-0.292969
1.292969
0.000000
0.000000
0.000000
-0.058594
0.000000
-0.031250
-0.351562
0.007812
0.000000
-0.187500
-0.921875
0.867188
-1.136719
-0.722656
0.000000
0.179688
-0.277344
0.000000
0.000000
0.000000
0.000000
-0.035156
-0.136719
-0.210938
-1.117188
0.000000
0.007812
0.214844
-0.214844
-0.230469
-0.964844
-1.371094
1.636719
-1.515625
0.000000
1.144531
0.000000
-0.121094
1.281250
0.039062
0.332031
0.000000
-0.636719
0.031250
0.074219
0.000000
0.000000
0.058594
0.000000
-0.308594
-0.703125
-0.777344
0.644531
-0.160156
0.093750
0.863281
1.324219
0.914062
0.085938
-0.722656
1.230469
-0.156250
0.000000
-0.031250
0.003906
0.015625
-0.988281
0.203125
0.000000
0.003906
0.980469
0.972656
0.058594
1.671875
-0.117188
0.855469
0.425781
0.000000
0.000000
-0.003906
-0.164062
-0.195312
0.000000
-0.015625
0.003906
-0.984375
0.007812
1.019531
-0.277344
-0.199219
-1.398438
-1.183594
-0.082031
-1.621094
-0.375000
-1.519531
0.972656
-1.515625
-1.484375
-1.187500
0.000000
-0.062500
0.000000
0.000000
-0.027344
0.781250
1.230469
-0.718750
0.113281
0.003906
0.000000
0.003906
0.921875
-0.019531
-0.863281
0.000000
0.000000
0.785156
-0.058594
0.953125
0.000000
0.000000
-1.562500
0.007812
-0.417969
0.507812
-0.117188
-0.589844
-0.007812
-0.148438
-0.054688
0.000000
0.000000
0.101562
-0.386719
-0.140625
1.597656
1.089844
-0.707031
-0.539062
0.023438
-1.015625
1.109375
0.207031
-0.734375
0.824219
0.000000
0.003906
-0.386719
0.152344
1.554688
0.554688
0.000000
0.019531
0.093750
0.000000
-1.203125
1.246094
-1.132812
0.000000
0.003906
0.167969
0.000000
-0.058594
0.062500
-0.062500
0.007812
0.000000
-0.296875
0.000000
0.000000
0.085938
0.566406
-1.199219
-0.785156
1.082031
0.003906
-0.062500
1.281250
-0.960938
0.000000
0.000000
1.488281
0.000000
0.128906
-0.027344
1.164062
-0.070312
1.398438
0.015625
0.000000
0.035156
0.417969
0.500000
-1.195312
0.339844
-0.398438
0.054688
0.011719
0.925781
0.000000
0.000000
0.582031
0.000000
0.000000
0.195312
0.031250
0.000000
1.328125
-1.363281
0.417969
-0.023438
-0.425781
0.000000
0.000000
0.000000
-0.398438
0.000000
0.000000
-0.640625
-1.210938
0.003906
-0.031250
-0.910156
0.027344
0.000000
-1.019531
-0.562500
1.703125
-1.382812
-0.562500
0.000000
0.039062
0.000000
0.554688
0.796875
-0.007812
0.937500
0.785156
0.000000
0.000000
0.000000
-0.031250
0.000000
0.000000
0.093750
0.058594
-0.011719
-1.390625
-0.082031
0.000000
0.292969
0.160156
-1.589844
0.308594
0.648438
0.453125
0.148438
0.015625
0.000000
-0.195312
0.003906
-0.015625
0.101562
-0.804688
0.000000
0.000000
0.000000
-0.937500
0.078125
0.882812
0.000000
0.000000
0.000000
-1.105469
-0.925781
-0.265625
-0.781250
0.093750
0.000000
0.292969
0.000000
0.792969
-0.925781
-0.035156
0.000000
-0.542969
0.625000
-1.250000
0.000000
-0.441406
0.925781
-0.273438
0.289062
0.082031
0.000000
0.027344
0.003906
1.652344
-1.191406
-0.253906
0.003906
0.550781
0.000000
0.003906
0.000000
-0.128906
0.003906
0.000000
-1.640625
1.324219
0.105469
-0.984375
0.250000
0.242188
0.613281
-0.941406
-0.050781
0.089844
1.562500
0.800781
1.074219
0.003906
0.742188
-0.683594
0.003906
0.000000
-0.722656
0.003906
1.144531
0.000000
-0.027344
-0.835938
-1.406250
0.000000
1.304688
0.000000
-0.699219
0.000000
-0.871094
0.000000
-0.878906
0.000000
1.289062
-1.871094
0.046875
0.000000
-0.175781
-0.910156
0.996094
0.941406
1.566406
0.000000
0.476562
0.578125
0.000000
-0.062500
-0.070312
0.750000
-0.203125
1.207031
1.058594
0.195312
0.000000
-0.171875
0.000000
0.000000
0.355469
0.000000
0.238281
0.023438
0.664062
0.000000
0.191406
-1.093750
-0.664062
0.000000
0.207031
0.000000
-0.664062
-1.210938
-1.640625
0.699219
0.000000
0.003906
0.546875
0.000000
0.000000
0.863281
0.296875
0.117188
1.289062
-0.027344
0.000000
0.703125
0.128906
0.000000
0.093750
0.000000
-0.031250
0.902344
0.000000
0.257812
-1.125000
0.386719
-0.746094
1.578125
0.003906
0.125000
0.000000
-0.167969
1.066406
-0.386719
-1.425781
0.000000
0.285156
0.000000
0.941406
0.347656
-1.183594
0.085938
0.000000
0.101562
0.000000
-0.371094
-0.140625
0.722656
0.882812
-1.210938
0.117188
-0.984375
0.000000
0.085938
0.117188
0.101562
1.191406
0.003906
0.203125
0.042969
0.230469
0.003906
0.226562
0.000000
0.074219
0.550781
0.074219
-0.507812
0.101562
-1.101562
-0.742188
-0.175781
0.000000
0.054688
-0.007812
0.000000
-1.437500
0.054688
1.277344
-0.226562
-0.210938
0.914062
0.699219
-0.039062
0.093750
-1.078125
0.140625
0.003906
-0.066406
-0.972656
1.199219
0.835938
-0.660156
0.000000
0.730469
0.156250
-1.265625
-0.046875
0.214844
0.558594
1.140625
-0.539062
-0.019531
0.003906
0.007812
0.972656
0.000000
0.000000
0.101562
0.000000
1.421875
0.808594
0.429688
0.000000
-0.113281
0.000000
-0.429688
0.078125
0.000000
-0.976562
0.000000
0.000000
0.000000
0.023438
0.000000
-0.125000
0.972656
-0.566406
0.371094
0.000000
-1.585938
0.269531
0.000000
0.000000
0.597656
0.382812
-1.667969
0.000000
-0.062500
-1.343750
0.062500
0.281250
0.000000
0.000000
0.050781
0.003906
-0.187500
-0.105469
0.000000
1.160156
-1.007812
0.003906
0.074219
-0.007812
0.000000
0.074219
1.140625
0.039062
-0.375000
0.308594
0.000000
0.027344
0.000000
0.000000
-0.628906
0.000000
0.074219
-0.128906
-0.722656
-0.097656
0.000000
1.007812
-0.210938
-0.113281
0.000000
0.140625
-0.871094
-1.601562
0.003906
0.117188
0.644531
-0.152344
0.777344
0.000000
0.078125
0.000000
0.925781
-0.253906
-0.789062
-0.148438
1.312500
-0.128906
-0.253906
-0.859375
0.890625
0.214844
-0.605469
0.000000
0.007812
-0.335938
-0.808594
0.031250
0.000000
1.105469
-1.066406
0.003906
-0.109375
0.859375
0.003906
-0.078125
1.371094
0.054688
0.000000
-1.605469
0.003906
0.429688
-0.054688
0.000000
0.187500
-0.796875
-0.007812
0.164062
0.000000
0.171875
0.003906
-0.582031
1.203125
-1.074219
1.097656
-0.058594
0.000000
1.238281
0.164062
0.000000
0.000000
0.000000
-0.078125
0.000000
0.054688
0.000000
0.000000
0.074219
0.000000
0.386719
1.296875
0.000000
0.218750
0.000000
0.167969
0.000000
0.234375
0.000000
-0.148438
0.449219
-0.062500
-1.027344
0.960938
0.000000
0.113281
-0.472656
-1.085938
0.972656
-1.195312
-0.085938
-0.046875
-0.257812
0.000000
0.000000
0.035156
0.414062
0.464844
1.472656
0.031250
0.792969
-0.128906
0.000000
-0.050781
0.054688
0.000000
0.000000
-0.425781
-0.058594
0.910156
0.003906
-0.085938
-0.210938
-0.105469
-0.808594
0.859375
0.675781
0.000000
-0.496094
0.003906
0.175781
0.875000
0.000000
0.589844
0.000000
-0.183594
0.097656
-0.089844
0.039062
-0.156250
0.003906
-0.003906
1.691406
0.054688
1.210938
0.000000
0.000000
0.000000
0.000000
0.000000
-0.093750
1.542969
0.191406
-1.339844
-0.597656
0.000000
-0.007812
-0.046875
0.082031
0.000000
-1.015625
-0.250000
-0.898438
0.050781
0.816406
0.535156
0.000000
0.000000
-0.226562
-1.000000
-0.218750
0.761719
0.003906
0.000000
-1.074219
-0.058594
1.160156
0.179688
0.003906
0.902344
0.214844
0.000000
1.027344
0.000000
0.000000
-0.253906
-0.093750
1.234375
-0.003906
0.000000
-0.085938
0.000000
1.195312
-0.511719
-1.242188
-0.300781
0.000000
-1.222656
-1.570312
-0.183594
-1.117188
0.003906
0.328125
0.671875
-0.027344
-0.253906
0.003906
-0.804688
0.964844
0.015625
-1.136719
0.582031
0.171875
-1.617188
0.125000
-0.410156
-1.433594
1.042969
0.152344
0.375000
1.484375
0.000000
0.000000
0.074219
0.035156
-0.222656
0.105469
0.570312
1.250000
0.882812
0.000000
0.160156
0.871094
-0.011719
0.000000
-0.117188
1.066406
-0.121094
0.261719
0.003906
0.000000
-0.695312
0.000000
-0.304688
0.000000
-0.140625
0.000000
1.234375
0.734375
-0.035156
0.003906
0.000000
0.000000
1.113281
-0.132812
1.066406
0.000000
0.000000
0.003906
0.082031
0.039062
-1.230469
0.003906
-0.027344
0.601562
-0.070312
0.000000
0.000000
0.003906
0.796875
-0.054688
-0.062500
1.480469
1.750000
0.058594
-0.675781
0.000000
-1.273438
0.894531
-0.554688
-0.085938
1.046875
0.000000
0.000000
-0.988281
-0.082031
-1.296875
0.953125
0.449219
0.000000
0.312500
-0.878906
-1.074219
0.097656
0.816406
0.000000
0.000000
-0.203125
-0.011719
0.210938
0.000000
0.312500
1.398438
0.000000
-0.035156
-0.035156
0.085938
-0.878906
0.003906
0.000000
0.000000
-0.652344
0.000000
-0.039062
-0.710938
0.011719
0.843750
0.000000
1.007812
0.785156
0.000000
0.000000
0.000000
0.003906
-0.355469
-0.796875
0.003906
-0.011719
-0.078125
-1.234375
-0.484375
0.464844
0.042969
0.000000
0.000000
0.000000
1.332031
-0.480469
0.246094
0.640625
-0.195312
0.000000
0.000000
0.000000
0.156250
0.000000
-0.066406
-0.218750
1.460938
0.000000
-1.121094
-0.308594
0.214844
0.019531
0.000000
0.003906
-0.292969
0.871094
1.382812
-0.156250
-1.578125
0.199219
0.003906
1.152344
-0.066406
0.222656
0.144531
0.003906
0.000000
0.003906
0.183594
0.003906
0.082031
0.421875
0.000000
-0.855469
0.000000
0.000000
0.000000
0.000000
0.000000
-0.007812
0.000000
-0.957031
0.003906
-0.179688
0.054688
-1.566406
-0.007812
1.523438
0.027344
0.000000
0.070312
0.000000
0.726562
-0.058594
-1.015625
0.000000
0.804688
0.000000
0.000000
-1.105469
-1.070312
0.363281
0.160156
0.000000
0.003906
-0.121094
-1.589844
0.835938
-0.558594
1.234375
0.000000
0.000000
-0.054688
-0.535156
-0.148438
-0.753906
-1.437500
-0.546875
-0.187500
0.000000
-0.164062
0.000000
-0.687500
-0.097656
0.652344
0.734375
-0.203125
-1.085938
0.000000
1.003906
-0.988281
0.878906
-0.925781
0.035156
0.000000
0.000000
0.000000
0.386719
0.000000
0.000000
-0.792969
0.050781
0.003906
-2.070312
0.000000
0.003906
-0.437500
0.000000
-0.074219
-0.093750
-0.027344
0.296875
0.027344
1.312500
0.152344
-0.855469
-0.128906
0.000000
-0.238281
0.039062
-0.671875
0.000000
0.875000
0.003906
-0.250000
1.406250
0.000000
0.117188
-1.523438
0.000000
0.085938
-0.210938
1.121094
0.000000
-0.742188
1.304688
0.210938
0.000000
0.000000
-0.250000
0.054688
-0.281250
0.000000
0.953125
0.003906
0.058594
0.000000
1.007812
-0.117188
-1.406250
1.308594
0.003906
1.109375
-0.660156
1.152344
-0.152344
-0.406250
0.148438
0.000000
1.406250
0.675781
0.191406
0.148438
0.000000
0.878906
-0.132812
0.000000
-0.023438
0.195312
0.000000
-0.417969
0.957031
0.042969
0.007812
0.000000
0.000000
-0.308594
0.000000
0.000000
0.207031
0.000000
0.863281
0.000000
0.000000
0.062500
-1.171875
0.781250
0.000000
-0.089844
-0.046875
0.000000
-1.363281
0.054688
-1.128906
0.179688
0.000000
-0.691406
0.003906
-0.367188
1.128906
0.003906
-0.765625
0.000000
-0.011719
0.000000
0.003906
0.000000
0.003906
0.000000
-0.191406
0.000000
0.242188
-0.089844
-0.789062
0.125000
-0.027344
-1.902344
0.003906
-0.042969
0.179688
0.000000
0.675781
0.000000
0.000000
-0.046875
0.070312
0.003906
-1.355469
0.066406
-0.695312
1.078125
0.101562
-1.371094
1.250000
0.000000
0.289062
0.000000
0.000000
1.101562
-1.031250
0.238281
0.000000
0.000000
0.000000
0.000000
-1.027344
-0.019531
0.000000
1.179688
0.000000
0.000000
0.000000
-1.453125
-0.039062
0.183594
-1.429688
0.027344
-0.546875
-1.207031
0.000000
0.156250
0.003906
0.042969
0.859375
0.000000
0.648438
0.207031
0.003906
0.121094
-0.910156
0.054688
0.417969
0.675781
0.000000
0.109375
-0.019531
-0.503906
-1.160156
0.089844
-1.136719
0.691406
0.074219
0.101562
0.058594
0.601562
-0.035156
-0.210938
0.894531
1.101562
-0.761719
0.367188
0.113281
0.000000
-0.601562
-1.718750
0.804688
0.109375
0.210938
1.410156
0.000000
1.312500
-0.769531
-0.777344
1.132812
-0.003906
-0.414062
0.000000
-0.078125
-0.105469
-0.093750
0.000000
1.128906
0.000000
0.000000
0.335938
1.046875
0.316406
0.980469
0.062500
1.722656
1.156250
0.000000
-1.464844
0.031250
-0.773438
-0.714844
-0.019531
0.964844
1.140625
0.000000
-0.058594
-0.226562
-0.277344
0.085938
0.136719
-0.105469
0.031250
0.003906
0.000000
-0.003906
0.000000
0.000000
-0.417969
-0.269531
-1.476562
0.003906
0.308594
0.000000
-1.695312
0.187500
0.000000
0.203125
-1.015625
0.269531
0.000000
0.226562
-0.019531
1.171875
-0.027344
0.347656
0.000000
-0.863281
0.003906
-1.070312
-0.003906
0.000000
0.003906
-0.750000
0.000000
0.101562
-0.058594
0.000000
-0.636719
-0.800781
0.257812
-0.402344
-0.941406
0.000000
-1.296875
-0.003906
0.000000
0.152344
-0.574219
0.000000
0.031250
0.039062
0.000000
-0.515625
1.839844
0.000000
1.328125
0.722656
0.000000
0.000000
0.101562
0.000000
0.039062
1.542969
0.000000
-0.195312
-1.367188
-1.355469
0.867188
0.191406
0.000000
-1.136719
0.000000
0.570312
0.000000
-0.054688
1.058594
-1.078125
-0.070312
0.003906
0.691406
-0.324219
-0.039062
0.062500
0.699219
0.000000
-1.292969
-0.035156
0.000000
-0.332031
0.000000
-1.058594
-0.335938
-0.859375
-1.140625
-0.390625
0.695312
0.078125
-0.277344
0.023438
0.000000
0.296875
0.691406
0.000000
-0.214844
0.000000
-0.972656
0.742188
-1.433594
-0.062500
1.519531
1.019531
-1.671875
1.007812
0.003906
0.753906
0.996094
-0.062500
1.488281
-0.835938
0.000000
-0.039062
0.152344
-0.066406
-1.082031
-0.042969
0.281250
0.000000
0.000000
0.000000
0.273438
-1.394531
-0.011719
0.000000
-0.066406
-1.328125
0.109375
-0.625000
1.320312
0.148438
0.000000
0.000000
0.050781
0.000000
-0.058594
0.343750
0.421875
-0.332031
0.601562
0.003906
0.378906
0.000000
-1.136719
0.898438
0.000000
-0.277344
0.003906
-0.019531
-0.160156
0.000000
0.000000
-1.078125
1.765625
-0.640625
1.195312
0.660156
-0.460938
0.277344
0.000000
0.058594
0.054688
0.003906
0.015625
0.000000
0.410156
0.000000
-0.363281
0.226562
0.000000
-0.011719
0.847656
-0.171875
0.195312
-0.222656
0.164062
0.085938
1.042969
0.000000
0.265625
0.453125
0.000000
-0.085938
0.128906
-0.871094
0.000000
0.125000
1.046875
-0.089844
0.339844
0.000000
0.000000
-0.046875
0.117188
0.812500
0.675781
-0.917969
-0.171875
-0.093750
0.023438
-0.109375
-0.097656
0.097656
0.000000
1.039062
1.523438
-0.066406
0.000000
-0.019531
-1.144531
-0.015625
-0.183594
-0.109375
0.000000
-0.050781
0.324219
-0.609375
-1.046875
0.722656
0.000000
-0.902344
-0.105469
0.000000
-1.292969
-0.406250
0.878906
0.070312
0.000000
0.003906
-0.218750
-0.058594
1.167969
-0.406250
-1.332031
0.000000
0.148438
-1.441406
0.230469
0.000000
0.000000
-1.035156
0.000000
0.000000
1.031250
0.257812
1.527344
-0.152344
-0.382812
-1.527344
0.339844
-1.515625
0.949219
0.656250
-1.187500
-0.710938
0.000000
-1.265625
-0.023438
-0.062500
-1.011719
0.835938
1.164062
0.144531
0.105469
0.882812
0.214844
-0.105469
0.000000
-1.222656
0.750000
0.734375
-0.277344
0.054688
-0.054688
0.015625
0.023438
0.917969
0.027344
-0.082031
0.000000
-1.062500
0.003906
0.058594
0.000000
0.000000
1.097656
0.000000
0.003906
0.117188
-0.281250
-0.117188
0.082031
0.031250
0.726562
0.000000
-0.902344
0.015625
0.054688
-0.152344
0.175781
-0.082031
-0.148438
-0.238281
0.039062
0.125000
0.000000
0.000000
-0.765625
-0.566406
0.000000
0.003906
0.000000
0.000000
0.296875
-0.765625
0.000000
1.722656
0.609375
0.000000
0.953125
-1.363281
0.000000
-0.078125
1.140625
-0.343750
0.570312
0.000000
0.066406
0.000000
0.812500
1.054688
0.828125
1.125000
-0.171875
1.015625
-0.078125
0.000000
0.000000
0.636719
-0.136719
0.250000
0.605469
-0.621094
-0.050781
0.976562
-0.070312
-0.652344
0.000000
0.847656
-1.011719
-0.750000
0.003906
1.109375
0.000000
0.000000
-0.656250
-1.214844
0.000000
0.000000
-0.789062
0.000000
0.000000
0.000000
0.925781
0.000000
0.957031
0.972656
0.050781
-1.531250
-0.765625
-0.343750
1.121094
-0.144531
0.000000
-0.457031
0.000000
-0.535156
-0.191406
0.523438
0.000000
0.089844
1.007812
0.515625
0.000000
0.003906
0.000000
0.000000
-0.199219
0.523438
-0.226562
0.816406
0.000000
0.000000
-0.929688
0.000000
0.003906
0.000000
-0.058594
-0.003906
0.156250
0.003906
0.472656
-0.074219
-0.082031
-0.003906
-1.199219
-1.292969
0.000000
0.527344
-0.972656
0.761719
0.347656
0.000000
-0.011719
0.000000
-0.406250
0.003906
-1.015625
0.000000
0.851562
0.015625
0.000000
0.000000
-0.984375
-0.269531
1.175781
1.167969
1.703125
1.109375
0.000000
0.000000
0.000000
0.000000
-0.128906
0.148438
-0.128906
-1.468750
0.000000
0.011719
0.800781
0.078125
0.074219
-0.101562
0.000000
-0.519531
0.343750
-0.140625
0.812500
-1.421875
-0.003906
-0.109375
0.000000
-0.136719
0.171875
-0.074219
0.000000
-1.097656
0.769531
0.167969
0.792969
-0.953125
-0.312500
-0.417969
0.000000
0.000000
-0.074219
0.894531
-0.609375
0.000000
-0.042969
-0.222656
0.000000
-0.101562
-1.316406
0.000000
0.003906
0.222656
-0.636719
-0.410156
1.050781
-1.230469
-0.230469
0.093750
0.000000
-0.113281
0.000000
1.105469
0.000000
0.664062
0.003906
-0.308594
0.000000
0.000000
-0.062500
-0.621094
-0.687500
0.000000
-0.023438
0.000000
-0.023438
0.000000
0.070312
0.171875
0.351562
1.304688
0.902344
0.000000
0.000000
-0.015625
0.015625
0.003906
0.085938
0.000000
0.937500
0.003906
-0.277344
0.000000
-0.320312
0.000000
1.242188
0.050781
-0.171875
0.281250
-0.460938
0.000000
0.003906
-0.050781
0.003906
0.460938
-1.921875
0.003906
-0.167969
-1.347656
-0.164062
-0.652344
0.000000
0.132812
-0.750000
1.214844
-0.089844
-0.273438
0.000000
1.449219
0.000000
0.003906
-0.035156
1.152344
0.000000
0.000000
-1.285156
0.062500
0.125000
-0.769531
-0.031250
-0.105469
0.000000
0.000000
0.000000
0.066406
0.035156
-0.406250
0.027344
-0.589844
0.000000
0.003906
-0.382812
0.027344
-0.191406
0.003906
-0.425781
-0.585938
-0.472656
0.003906
-1.070312
-0.941406
0.003906
-0.742188
-0.105469
0.000000
1.414062
-0.300781
0.859375
0.000000
-1.433594
1.285156
-0.128906
-0.039062
-0.757812
0.281250
0.062500
-0.054688
-0.152344
-0.058594
-0.039062
0.003906
1.343750
-0.476562
-0.062500
0.617188
-1.105469
-0.011719
0.132812
-0.144531
1.484375
-0.027344
1.449219
-0.039062
0.007812
-0.226562
0.066406
0.800781
0.007812
0.906250
0.070312
-0.011719
1.078125
0.402344
-0.957031
1.195312
1.664062
0.734375
0.421875
1.042969
0.082031
-0.031250
0.003906
0.000000
0.796875
-0.671875
0.003906
-0.003906
0.000000
1.375000
0.003906
0.003906
0.000000
-0.117188
0.609375
0.000000
0.089844
1.804688
0.000000
-1.265625
0.648438
-0.421875
0.003906
0.000000
0.000000
0.000000
0.000000
-0.144531
-0.437500
0.230469
-0.183594
0.003906
1.105469
-0.285156
0.964844
0.652344
-0.281250
-1.023438
0.250000
0.312500
1.246094
0.035156
0.121094
0.746094
-0.343750
0.000000
0.000000
0.000000
-0.574219
0.000000
0.000000
1.230469
0.003906
0.277344
0.000000
0.292969
-1.070312
-0.750000
0.000000
0.000000
-0.242188
0.476562
0.097656
-0.808594
0.097656
-0.347656
0.816406
-1.453125
0.000000
0.324219
0.000000
0.000000
0.000000
0.000000
0.242188
-1.074219
0.164062
-0.886719
-0.683594
0.468750
0.000000
-0.953125
0.054688
-1.480469
-0.074219
0.000000
0.195312
0.820312
-0.328125
-0.925781
-1.484375
0.003906
0.058594
